relation,0,1,2,3,4,5,6,7,8,9,10,11,12,13,14,15,16,17,18,19,20,21,22,23,24,25,26,27,28,29,30,31
term0,-2.2796755,0.1613829,-0.70517206,-2.33185,-0.80488235,0.05262916,2.098102,1.7264662,-2.4872973,1.1416736,1.6005781,0.30029604,-0.29822052,0.3021796,-2.5039978,1.3044571,0.072449245,-0.07940281,-0.5803097,-0.054284748,0.23739974,0.14097035,-0.35142145,0.32719696,0.37981293,-0.7337884,-0.4892655,0.2673785,0.34418416,-0.2939613,0.6991453,0.0011638256
term1,-1.2731004,0.20626065,-0.18539885,-0.8763466,0.4694986,-1.8475292,1.4809254,0.2314402,0.065198764,-0.8545057,-0.7940166,-0.44534162,-1.2149857,-1.7431511,-0.90578884,0.97972417,0.25196743,0.4965426,0.30241546,0.37561467,-0.1826045,0.44235367,0.32015336,-0.5851855,-0.10707533,0.42226607,-0.31019825,0.7501141,-0.24765989,-0.2914398,0.18084751,0.07739671
term10,-1.0694734,-1.0643924,0.5525566,-1.8518802,-0.28388426,1.202712,2.2354665,-1.1855334,0.25546345,-0.2668389,-0.41656768,0.05012033,-0.24761172,-0.9515923,0.92187893,1.2010972,-1.0830823,0.06684506,1.0839491,1.2731198,-1.3958116,1.1223055,-0.08140127,0.56041795,0.14954163,0.6564098,0.52481496,-0.2358306,0.037568755,0.9017393,0.13488933,-0.30375016
term11,-0.9594163,0.41356307,0.19245987,-1.5752497,-0.5504444,1.187458,0.994912,-0.582586,0.2460504,-0.093891755,-0.15287463,-0.25648132,0.10100834,-0.5031717,1.1149008,1.1199405,-0.36275455,-0.19433297,-0.6604315,-0.26481637,1.0801849,-0.8782122,-0.059228055,-0.53790265,-0.5859246,-0.85903245,-0.14438798,0.20334807,0.3644203,-2.2015157,-0.880175,0.669764
term12,-1.6324723,2.1062982,-0.7472448,-1.620468,-1.1941051,0.39573658,-0.2514494,0.34857494,0.17902993,-0.9447522,-0.7420402,1.1234161,0.48452014,-1.0711309,1.1255522,-1.194974,1.3689805,0.3484458,-0.22540613,-1.4436129,-0.05095819,-0.34232816,0.09881877,0.4277353,0.22656624,-0.9413512,0.29294202,0.04136478,-0.6065435,0.36616385,0.50724345,-0.1525513
term13,-1.1480694,-0.23799762,-1.5779269,-1.4633139,0.3882071,1.116047,1.909822,0.26222694,0.5447358,-0.45293844,1.143701,0.4599687,0.30516878,-1.2265961,0.061490167,-1.1951072,-0.6246136,-0.5583934,-0.18525188,1.4611647,0.103886224,-0.05254471,0.19646226,0.65643215,0.5222266,0.16546848,0.31506184,0.25353625,0.054575175,-0.66442513,0.54267174,-0.40618223
term14,-1.4582874,1.425409,-0.7024362,-1.7136761,-0.16946751,0.0635228,0.4399521,-1.010453,-1.0921605,1.3331007,2.1233914,0.4544724,0.24962252,-1.5754638,0.36755133,-1.1340405,1.3149431,0.25751433,0.90999556,-1.226275,0.44078693,-0.6171622,-0.31706464,-1.2106259,-0.81981486,0.9384638,0.4025105,0.40246224,1.4281633,-0.11268507,-0.4324613,0.22713377
term15,-1.1817596,-0.3528796,-0.18542041,-1.5472901,-0.36948314,-0.07619563,-1.4776982,-0.40935588,0.434943,0.5193187,-0.09691354,0.29281303,0.11654242,-0.03407468,0.55931133,1.2464745,-1.1450527,-0.035018057,-0.4455251,-1.158651,0.16139433,-0.8536612,-0.4319442,-0.6423504,-0.8297436,-0.44759732,0.6221853,0.22891055,-0.09801653,0.0011922373,1.2591119,0.9199877
term16,-0.7839772,-0.31572583,0.46962073,-1.3041482,-0.4957549,0.32514295,-1.4862895,-0.28555408,0.010822723,0.13834469,-0.15622844,-0.081856325,-0.09826967,-0.5533356,0.13664761,-1.2386043,0.4750819,0.03652461,-0.0104057295,0.21128578,-0.53698134,-1.5042775,0.24247417,1.1767029,0.51830256,0.09137388,0.50763446,0.45874545,-1.5863404,0.2832326,1.038293,-1.1325479
term17,-1.5776893,0.14273445,1.5757675,-1.0381418,0.24947739,-0.6125627,1.7794604,0.21729034,-0.57381916,-0.42345303,-1.6868407,-0.8361411,0.70428914,-1.4033111,1.3565674,-1.3281516,-0.097635224,-0.31073773,-0.48919392,-0.11816103,0.108097285,0.08776807,0.021435015,0.1098381,0.07138441,0.7959641,-0.3632438,-0.029807916,-0.00729279,-0.25074497,-0.21204862,0.39708123
term18,-0.7499821,-1.444791,-1.7120353,-1.8440118,1.1378546,1.575305,-0.40625128,-0.10325167,-1.3917351,-2.035465,-0.6241347,-2.368721,-0.0035135155,-1.3579401,-1.5443008,1.3780693,0.20482376,0.15551642,0.10148816,0.13334787,0.17731398,-0.12062473,0.32579735,0.003861391,-0.13200803,-0.017175112,1.05216,0.10334776,0.12544751,0.26995724,-0.2075443,0.008288573
term19,-1.6711918,-3.4880342,1.3812379,-2.6516488,1.7029451,-0.6257662,-0.27571034,-0.3868655,1.0049244,-2.0071137,-1.3629899,-0.15048565,-0.19573337,-1.7409889,0.15446691,-2.0760417,2.3273191,1.3556473,2.426378,-2.668045,1.2454368,-0.5676042,1.6499364,0.8798656,1.7215725,1.3591316,-0.29089546,-0.7370545,-1.5385147,0.28990495,0.4043635,0.56266385
term2,-1.4188427,0.3797123,-0.52386004,-1.6487602,0.3906514,-1.2525938,1.5825734,0.15527746,-0.12644713,-0.4701961,0.4294606,-1.4398464,-0.7045698,-1.257925,-0.78315336,1.0612104,-0.7305494,-0.74480087,-0.054069486,-1.101269,0.41352597,-1.1117729,-0.42783716,1.2038494,-0.32123578,-0.18745182,0.5917809,-0.91697603,0.11219144,0.82023656,-1.2855115,0.304887
term20,-0.91396016,1.6415942,-0.025495226,-1.5530951,0.67617,0.65990627,-0.67321974,0.65112275,-0.65304714,2.8583326,-0.65930706,-1.4505864,0.28635052,-1.9134407,0.30117708,-1.2144248,0.6030573,-0.08241786,-0.1521789,-1.0187744,-0.32707113,-0.2602359,0.11646204,0.22577427,-0.08388616,0.082563154,-0.6150834,0.9101963,0.033859003,-0.29542997,0.014610618,0.71956486
term21,-0.37980765,-1.5517026,-0.5237285,-1.1578835,-0.9488287,0.42773113,1.7767324,-0.005035651,-0.41735476,0.4661431,-0.97825396,0.6340672,0.5546792,-2.3870246,0.95627487,-0.6516128,-0.6890951,-0.10395841,0.097666405,0.7647237,-0.013250458,0.28237775,0.5347878,0.08996278,0.059955828,-0.14509445,-0.26359442,0.14767031,-0.3234721,-1.2501279,-0.027230898,0.4434288
term22,-0.7659668,0.33412567,1.8922601,-1.8231976,-0.80133104,0.085668385,-1.7352278,-1.2267879,-0.4339085,-0.18511122,0.054440998,-2.278392,0.1701131,-1.5285137,-1.0591211,0.9247728,-0.89995855,0.22477247,-0.108174175,0.9177422,-0.2695839,-0.36178702,0.2823793,0.07635543,0.1089852,-0.2845805,-0.18414006,-0.66447717,0.04711396,-0.11908012,-0.007768734,0.24270444
term24,-2.6438615,-0.33575243,0.00541893,-0.0422126,0.3644723,1.4348813,0.7428682,-2.6261458,0.4715742,0.9130219,-1.6930724,-0.24145666,-0.2188297,-4.0833673,-0.7265694,-0.9814578,-0.4913441,0.12646633,-0.61353105,-0.6618852,-0.06582495,0.6592537,1.5666835,0.7272558,-0.045010045,1.4539717,-0.5649125,-4.036307,-0.4736513,-3.2524695,0.6553845,1.5384434
term25,0.124585524,1.4364282,-5.75541,-2.8605335,2.483049,2.0416968,-1.4369007,-1.31718,0.6202751,0.9646436,-0.630096,-0.12623636,-0.25653693,-2.0467448,-3.1543915,-2.7178578,0.66185737,1.3180903,0.81260204,-0.51187366,-1.1873006,1.2013445,-0.26331803,-2.0029624,-2.6572628,-1.8260236,0.19974919,-0.3698557,-0.47701067,-0.15414962,-0.9990973,-0.6286376
term3,-0.76305485,-0.8016425,0.6818213,-1.9417716,0.25643378,0.4246487,2.8382182,-0.51533633,-1.0041566,-1.3759143,-1.5554805,-1.0651639,-1.2039156,-0.5589955,-0.5019669,-1.2283584,-0.0015402648,0.62615293,0.27203822,0.16671787,0.14898102,0.07623624,-0.21499461,0.03395115,-0.43240374,-0.17573835,0.15954225,-0.5234704,-0.099884875,0.4507456,-0.009219846,-0.28615335
term4,-0.9495803,0.63393754,0.9544804,-1.9616722,0.9475584,-2.988912,0.6726451,-0.24916886,1.6052345,-0.60174376,1.4381163,0.05373056,-0.69282323,-0.09612938,-0.7323982,-1.1515371,-0.18359478,0.19087993,0.094989166,-0.17929894,-0.23593564,0.104449965,-0.15397754,-0.13298947,0.10773596,0.35043615,0.22302087,0.3653512,-0.0063169496,0.00018272595,0.08350042,0.35601777
term5,-1.8137661,-1.7664983,-0.8381272,-1.9357079,0.2610774,0.123267196,-0.46439666,-0.123380475,0.87617373,0.6950813,0.5556041,0.13517392,-0.22388464,-0.37899753,0.3551108,1.1602452,2.095106,-0.39893946,0.39400443,-0.84078753,0.11441446,-0.015210146,0.27162486,0.13592824,0.9856418,-0.11907089,-0.37400964,0.25172377,0.6552558,-0.087004825,-1.1987047,-0.9127827
term6,-1.592062,1.2886715,0.6202542,-1.6916935,-0.39395502,-0.15454444,-2.7384698,0.3893087,0.30635548,0.11096414,0.02692282,0.29952523,0.009708588,-0.7923986,0.15650731,1.3149855,-0.127358,0.36900437,0.27720878,2.106498,-0.7407132,0.6455638,0.06794456,0.7848253,0.33944714,1.4046929,-0.23564623,-0.6741458,-0.46237233,-0.01023654,-1.5026966,-0.964492
term7,-1.2701495,0.4797819,-1.3060381,-1.4041687,0.04806916,0.502898,-1.7972445,0.82386607,0.14252819,-0.10211994,-0.6073079,0.39006472,0.4094926,-1.1185249,0.25767332,-1.4251506,-1.7687207,0.10170611,0.14965242,0.43102407,1.4617006,0.99833333,-1.4284462,-1.1242571,-0.27205658,0.4515675,0.13794349,-0.9830324,1.0049386,-0.41088802,-0.947008,0.4987276
term8,-0.5607823,-1.3854568,0.65729654,-1.6672165,-0.5694683,0.37087506,0.24108028,0.3918281,-0.50911057,0.3397932,-0.05703345,-0.08105348,0.49357826,-0.766952,0.10768878,-1.0873991,0.3269424,-0.45954135,0.3745296,-1.883436,-0.054858323,0.68092066,-0.40522417,-0.6275647,-0.36079174,-0.77077067,-0.019878048,0.1573899,1.5958743,-0.29407278,-1.0071023,0.68497276
term9,-1.2707294,1.9435949,0.18688391,-2.136599,-0.23224348,0.5858289,0.089217946,-0.51088345,0.30839878,-0.09334775,0.025771927,-0.06061328,0.2804994,-0.87598246,1.0947964,1.3078648,1.654372,0.29648188,-0.23393902,-1.4081079,-0.24706142,0.54759574,-0.3112817,0.28874364,0.3363854,-0.6508854,-0.27608103,-0.073069364,-0.62896234,1.7324545,0.9203638,-0.6912405
