relation,0,1,2,3,4,5,6,7,8,9,10,11,12,13,14,15,16,17,18,19,20,21,22,23,24,25,26,27,28,29,30,31
adjacent_to,-0.8609244,-0.7680333,-1.5670834,1.4219526,-1.4975834,0.2952804,0.66660535,-1.1260076,-0.93108624,1.9609082,-0.5028923,1.0399895,-1.4144471,-0.2888347,-1.2152219,-0.24015321,0.20858388,1.3782481,-0.39498773,-4.913088,8.84407,0.4183562,-2.7492514,-1.4954221,1.664312,-3.015122,-0.39757407,2.4647706,-0.27121133,-0.9563402,-1.1291256,0.3637359
affects,0.7549786,0.4675588,-0.9155464,-0.07037728,-0.01537881,0.52282953,0.30616853,0.304646,-1.1779099,-0.47750777,0.087561175,-0.45704323,-0.39597276,-0.6986378,-1.3459102,-0.1984885,-2.9818118,-1.8164097,2.1747944,0.5830827,-1.8111242,-1.2097161,-0.38930067,1.7514564,-2.3007212,2.6423953,1.0518329,2.2322862,-0.44948506,0.4025873,-0.28713584,0.18941982
analyzes,0.32842907,-2.279181,-2.1578965,-1.428271,-1.4783605,-0.8126736,-1.4043814,-1.0884897,-0.30356187,-0.5202598,-0.08489928,-0.48780593,-0.9575522,-1.0755237,0.68035764,-0.015397848,0.47401902,-0.20346195,0.5331896,-2.7412274,-3.7228355,0.39923123,0.7333598,3.5440888,0.9162063,0.23010054,-1.8186978,-1.7914141,-0.44924244,-0.0924962,-0.31975603,-1.2239023
assesses_effect_of,2.8312926,-0.72915524,-0.90004605,-0.051024277,-2.1833081,-0.026187886,0.43775943,-1.5394565,-0.23920418,-1.0604144,0.8553203,1.0939529,-1.9882104,-1.6308769,-0.06864905,1.12962,-0.71314067,-4.2381496,2.6780646,0.101593286,-5.418813,1.7386765,0.15320331,1.5209157,1.0631613,-1.6096698,2.4568923,-2.2588701,0.40766078,-2.4251168,-3.1453552,-2.414113
associated_with,0.5344092,0.7447255,-1.8870769,1.5523837,-1.6070158,-0.20130624,-0.4306943,-1.3576931,-0.546775,-0.68406135,-0.16404656,0.5413066,-1.5234725,-0.96829396,-0.35393503,0.6997092,-1.5682184,-0.32432577,1.2282765,1.9222875,2.2441354,0.27422217,-0.45711902,0.70543,2.7352252,1.344577,-2.062294,4.1738167,-1.526399,-3.7892706,2.353661,-0.60916585
carries_out,0.017150518,-0.050043594,-2.5713842,0.25733212,0.11412909,0.12300605,0.503406,0.36646554,-1.2269477,-0.7222231,-0.6064384,1.8768836,-0.5829094,-0.09971973,0.4150062,-1.5255772,-2.4269338,0.181021,1.6366289,1.1754478,0.28560397,6.225933,-1.1951536,4.119163,-1.9902401,-2.8461063,-0.92732716,1.7318206,-2.7416098,-0.25739023,1.892523,1.6325108
causes,0.25457665,0.12632741,-1.8165137,-0.07432386,-0.6456296,-0.4689285,-0.5757668,-0.16120753,-0.2972172,0.6023398,0.5152349,-1.3155564,-0.5805836,-0.72483563,-1.1511722,-0.32666716,0.9597884,1.2385745,1.9377756,2.3571608,-1.7876854,-0.38019356,-0.24885117,0.9565903,2.414699,-1.5093777,-1.299575,2.8007119,3.0591424,-2.7225862,1.5401419,-1.633516
co-occurs_with,-0.47601503,0.7349989,-2.1237922,0.4650666,-0.29976773,1.1550643,-0.110973425,-0.076420344,0.2658908,-0.63350534,1.3663341,0.66944855,-1.5637915,-1.377297,-0.6300115,-0.078267254,-0.54747987,2.136276,0.53729,-3.2308555,-1.3492233,0.64037126,0.40069413,0.9259977,1.7812961,3.7175817,-1.2941616,3.5718405,2.3379838,-3.3472917,-1.2041032,1.1827172
complicates,-0.14085446,0.8946553,-1.4476879,1.3128759,-0.48332655,0.77813774,0.31343105,0.29626325,-0.25972468,-0.30175957,-0.54722035,-0.5847751,-0.77405006,-1.5295225,-0.5257226,-0.46487397,2.9283261,2.607672,2.7199504,2.7094412,2.7034013,0.56244206,-1.9973531,3.5020952,1.6003078,2.2218413,0.4172643,1.6067228,2.8392062,-5.150412,-1.3064356,0.25218192
conceptual_part_of,-1.8433949,1.3934051,-1.6908095,-1.4193676,0.27736747,-0.24368799,0.19647317,0.55270576,-2.1092105,0.26205048,1.1538802,-0.355722,-1.7209507,-0.8159933,0.108171284,0.60896486,2.6563509,4.6826572,0.7981459,1.9174281,-1.455445,1.534846,0.33965126,2.0411258,-2.3840942,-2.8908195,-3.2035744,1.7342546,0.33167186,-0.52834934,0.5571354,3.352056
conceptually_related_to,-0.87454706,-0.21994084,-2.1009567,0.943834,3.478316,0.6942119,-0.8787886,-0.29711446,-2.20452,0.44226828,0.56030166,1.2325913,-2.216488,-0.3296239,0.007750473,-0.39772737,-4.8160954,-0.7470036,2.0672348,-2.3154154,-1.1301665,-0.8210273,2.8328185,-0.9962483,-0.0972899,2.7419937,0.84690624,3.4721682,1.0432793,-0.71854204,-4.5291386,-1.8142419
connected_to,-0.39978793,1.0283357,-1.7275199,0.12941992,-0.6503966,0.87175125,0.6376795,0.14588976,1.9418796,-0.03349593,0.32754892,1.9729105,-0.3735624,-1.6954889,-1.3595978,-0.07348036,1.8941668,3.7550592,-1.3316828,-3.7448971,3.680168,-2.3680282,1.0618051,0.5502457,-3.6852925,1.9020724,0.0402366,-2.6245525,-1.012283,-3.337784,1.9816525,-2.9570231
consists_of,-1.7728754,0.18157934,-1.3431685,1.8910142,0.47206688,1.5952059,-0.7485908,-0.34288695,-2.6152754,-1.7958055,0.96785283,1.5757273,-1.8480235,-1.8043723,-1.7016164,-0.6158655,2.6510184,1.5186336,-1.695688,0.4133976,1.2918035,-4.8175316,-1.2619665,2.7077894,0.5228039,0.8875082,2.0819116,-4.7823963,2.4442544,0.16090637,-1.2869989,-1.7274766
contains,-0.3186064,-0.1162972,-2.3033707,0.40165702,0.6311568,1.5142949,0.039559446,-0.30132002,-0.6666481,-0.07949754,0.45815653,1.5113837,-1.6093915,0.22478302,-1.294297,0.116072714,3.0413153,5.2127795,-2.6790247,-3.5103152,-1.1919278,-3.366804,1.5523657,1.2959888,0.022685325,-0.62239045,-1.1427917,-1.1215775,1.5443828,-3.0291529,-0.7834878,-0.8979294
degree_of,-0.8633079,1.267441,-2.10142,0.3586976,1.2780616,0.20712668,-0.2723043,-0.13875224,-0.09903657,-0.8654162,1.4935492,2.213498,-2.167466,-2.5691254,-2.1438344,2.4831252,-3.925408,-2.4542365,3.0412455,2.3718076,3.5215428,-0.62529993,1.3833702,2.514247,1.2403803,0.8065225,0.41122735,0.68586516,0.03115858,-3.7407374,3.4150639,-0.3922829
derivative_of,-0.6481494,0.9478544,-1.5210887,-0.6819485,-3.600918,-0.53476024,0.82227707,-1.0828086,1.8834513,-0.56725496,1.0619615,-0.84315675,-2.400276,-1.1320025,-2.8545113,0.50351435,4.878046,-1.6929643,-0.80795616,-3.6413922,6.098866,0.8276097,-5.8263087,2.1276596,0.4958401,0.6281594,-1.7460258,3.1657276,-2.3995223,-2.2018032,-0.5118033,-0.8185495
developmental_form_of,-0.5432347,-0.28297213,-1.127259,0.879887,-1.0004673,-1.0872955,1.1985399,-0.44245237,-0.9051089,2.2888913,0.5791775,0.33884868,-0.70651674,-3.2214112,3.0011792,-0.8027411,-0.68600243,3.4266965,-2.5086472,-4.089253,1.4548032,-3.14568,7.984043,-1.6788794,2.783356,-3.8035686,2.6283393,3.8463473,-1.4701225,-1.0572854,0.67003447,0.47455695
diagnoses,-1.1554655,-0.6659484,-2.1806529,-0.57026446,-0.40536824,-0.68852156,-1.2801403,-0.11333083,0.89872605,-0.59457856,0.4571882,0.17825395,-0.5560898,-1.4568524,-1.1318196,0.6375779,0.046585035,1.9032801,1.4892017,1.3803499,1.0952095,-0.54122716,-5.1496806,0.7484802,1.3483269,1.8951073,0.8617912,3.928866,3.8177807,-2.6712477,3.416598,-0.23257856
disrupts,-0.074988075,-0.19293404,-1.2836524,0.41359162,0.24140933,-0.73141664,-0.6816529,0.35052574,-0.5386117,-2.2881873,-1.4227365,-0.6967206,0.31272238,-1.9401166,-1.9315143,-0.0011571255,-2.6705832,1.4045153,-0.20442908,-3.3641498,3.4278219,1.6225756,2.6233952,-1.1986564,-0.3232674,-1.7778966,4.358161,3.4552565,-2.4148943,-0.4989922,-1.9668049,-2.3583503
evaluation_of,0.45628658,-1.3275344,-2.3174393,-1.1554551,-0.43024862,0.41947666,0.46461248,-0.8983517,-0.21345206,0.9021722,-0.5629986,-0.90347475,0.54525214,0.17860074,-0.53093827,0.23559983,-4.744949,-4.9374766,1.768818,1.7045392,0.8342371,0.9841406,-4.514223,2.5383093,1.6143483,-1.8752533,2.167227,-0.49694195,-2.991452,-2.9070055,-0.60033983,1.9448763
exhibits,-1.0472993,-0.39769733,-2.3747218,-0.1466748,0.19543868,-0.017326405,-0.4497861,0.58248997,-0.511981,-0.43849838,0.36565033,-0.5364792,0.42628404,-0.74158645,-0.059076257,0.92260414,0.25772607,-0.26117313,3.1057844,-0.16182722,-1.3805406,-3.1711373,1.9821879,-1.011491,1.164338,2.993762,0.9514923,0.9545849,-0.5280573,0.72898525,-0.12185749,-1.3626415
indicates,-0.5754702,0.9948719,-1.9094005,0.3772245,-0.10278343,-0.32614708,0.5627762,0.77593166,-0.6906037,0.45321956,-0.5887273,0.13058245,-1.6310071,0.47267568,-1.4693528,-0.01615394,-2.9876788,-2.61225,2.8148332,3.1304584,1.8222476,4.140582,0.92271227,0.65098107,0.6851224,4.970885,-1.3572156,-1.623565,3.0280294,-5.6081195,0.7574316,1.9237384
ingredient_of,0.16141115,0.007699493,-1.9239204,-1.2809128,-0.7329251,-0.39070463,0.24295413,-0.57225794,-0.66101,-0.69208544,-0.36797056,0.737787,0.11277383,-1.5764554,-2.2986567,0.19104296,1.7537755,0.41795802,0.8271639,0.88939095,-4.185702,-1.3665142,0.38737312,1.6025662,-0.48278365,0.29377377,-1.0026305,-2.4577484,0.91771847,-2.5788136,-2.2560847,-1.7407852
interacts_with,0.78541446,1.1103547,-1.7239435,-0.48184124,0.7136507,-0.052795216,-0.1670518,0.16621137,-0.4381387,1.3244203,0.2012335,0.7765265,-0.7385803,-0.7677831,-0.71848583,-0.38048998,0.08027086,-0.10911778,-0.17947608,-4.596705,-2.080567,1.1727313,2.8230019,-0.60056084,-1.485075,-1.5306793,-2.2262325,-0.9362932,-1.4960636,0.056247775,2.20633,-1.1763153
interconnects,-1.1216896,1.2061559,-2.0785627,0.39643312,-0.116270185,0.5849239,0.5190747,0.2084327,0.5202971,-0.3597446,-0.1500005,1.4113607,-1.8536052,-0.91941273,-0.94219595,0.502163,-3.337447,2.2397454,0.39186808,-0.2847187,4.355069,-1.8809285,-1.584799,-3.6461952,4.015226,-4.2533026,-5.6522636,0.84221447,-1.9200978,0.5093911,0.34578633,0.7122053
isa,0.26209918,0.05097294,-2.0160167,-0.36679295,0.78093034,0.77433926,1.133107,-1.2725669,-0.061294757,0.30963713,0.7092862,0.9623384,-0.7793377,-0.52534807,-0.78784317,0.27584717,2.2547295,3.704483,1.2885501,-1.3361093,-0.54943067,-0.9691054,-1.4117755,-2.3642638,-0.74512094,2.3624556,-0.637019,0.83922195,-0.97572166,2.4328585,-2.5927172,0.025580637
issue_in,-1.0546105,-0.007668104,-1.9853196,-0.34914312,1.1509712,-1.0312814,-0.34505385,-0.3956872,-1.052795,-0.41558686,-0.007160899,0.28128353,-0.9306377,-0.69660217,-1.9362028,-1.0352594,3.5753388,0.98395693,1.8441387,-0.75142944,0.19907819,-1.8259169,0.027210528,-5.566142,4.133806,2.0712872,-0.5998348,-0.81767946,-1.6940407,-3.490318,-0.5979358,4.1740265
location_of,-1.0297297,-0.4479815,-1.4837126,0.05320812,-0.03714695,-1.089147,0.17217086,-0.4342666,-0.8362653,-0.1780361,-0.6005152,1.7753932,-0.7663993,-0.4567988,0.38703504,-0.5075564,-2.2322292,-1.181565,0.9539598,1.4104558,-1.7102795,2.7701437,-2.7309356,2.185884,-2.3262868,-0.78984874,-0.129005,3.829951,5.5607095,-0.91950935,-0.5490376,1.3012459
manages,-1.3698509,0.018117426,-1.5388316,-1.7918308,0.43846583,-0.46103472,0.62666005,-0.03855874,-0.46705392,-1.6987088,-0.43793485,-1.1228137,1.2659757,-0.99570984,-1.6190146,0.3551137,1.0822732,-0.18719772,-0.70381224,-0.88183343,-3.1922643,-1.2238137,-4.763296,-0.20821583,3.5004106,-1.9845825,-8.027117,-2.4946163,-4.494262,-0.46280724,1.0614784,0.9504253
manifestation_of,-0.22830765,0.69512343,-1.2725604,-0.06028355,-0.12956443,1.0353947,-0.30860856,1.3478059,-0.41588423,-0.6567758,-0.24112442,0.39845526,-1.2210094,-1.5363824,-1.1833106,-0.89551806,-0.7331791,-1.7768035,2.3204243,3.0757215,1.0979034,0.07945488,1.7741989,1.2072809,0.00064436294,-0.8865424,1.6116184,2.906624,0.4641185,-3.9699142,-2.1987262,1.2932428
measurement_of,0.26759362,-0.538401,-1.1768035,-0.17202383,-0.963481,-0.53125757,-1.1387553,0.14673655,-0.9056462,0.9495621,0.6393065,2.3070626,-1.3706442,-0.3988847,-0.41680205,-0.3156035,-0.56615436,2.675093,-0.21141508,-2.3447244,3.4689977,2.9511542,-3.3146052,2.7000024,0.5434808,-3.7432928,3.625145,-0.49827498,-5.1555886,-1.6977487,-3.2049875,-3.0630114
measures,1.0947847,-0.7152388,-1.2746651,0.66054654,-0.8199441,-0.32723185,0.48679665,-1.0211618,0.68772256,-0.36932537,0.077036135,0.30973843,-0.9953492,-0.17354476,-0.10690654,0.95993596,-0.18696845,-0.5764873,2.2539885,-1.5391554,-3.6017349,-0.0024667159,0.09143108,4.860433,1.0604908,-0.2473724,1.6044488,-1.1527431,-1.1834091,-1.8727527,-0.7500506,1.2808579
method_of,-0.5786295,-0.043272775,-1.7596474,-0.42696005,0.005884327,-1.0610881,-0.66197413,0.46190333,-0.893066,0.95685303,0.0329399,0.4139711,-1.2508363,-0.72958004,-0.87566566,0.6598313,1.6363329,0.7242094,0.013073159,3.3474224,1.814285,4.0571413,0.27434334,-4.0691957,1.7477005,0.27419615,-5.9715285,-0.6495785,-1.159808,-4.6352086,0.35721692,-4.335971
occurs_in,-0.51230043,0.4814725,-1.8530197,0.018368218,0.25306982,-0.85984194,-0.07747491,1.030392,0.2940499,-0.95836544,1.2065057,2.4546728,-3.5277264,-1.335128,-0.9683323,-0.5306528,4.2340584,0.08014008,-0.7595795,2.5811954,1.2762516,0.930176,0.9819794,0.15968154,-1.4006926,-0.45852298,-0.21139912,-1.2341483,-0.034522627,0.39609575,-0.7781773,2.7156436
part_of,-0.93358,-0.12210513,-0.93440807,-0.5024944,-1.0860517,0.34817642,1.6766577,-0.61029166,-2.4797993,-0.85312575,0.83666533,-0.52006173,-1.6427248,-1.2406347,-1.3940766,-0.9846094,-1.69645,4.473108,-1.4595454,-3.173817,2.3973422,1.7782608,-1.7432863,-1.5321661,-1.3193436,2.122256,-0.6579688,1.7047294,3.3043928,0.36519697,0.054742664,-2.3357344
performs,-1.4290457,-0.3635778,-1.8655828,0.34295207,-2.6694975,0.025850298,-1.7084051,-0.5126047,-0.6836797,0.37335417,-0.023446761,1.6335535,2.555448,0.2640272,0.1805305,-2.1359675,2.9702835,-2.9127314,0.40086764,1.595581,-2.8608828,-1.6490699,5.000332,-0.473629,-2.2539434,1.0574658,1.4331852,-1.6899781,2.4680543,3.42761,-1.8092613,3.300682
practices,-2.4516752,0.34049484,-1.17045,-2.8256137,0.4833266,2.4314938,1.1031274,-1.9470559,0.956965,1.6488857,1.1143969,-1.8928169,1.1431489,2.664697,-0.4952394,-0.6204638,3.590383,2.0202806,0.8626208,-1.9993126,-3.485584,-1.120006,1.8739434,-2.6942804,-2.1690698,-1.6480491,-2.1805327,1.671672,-2.448037,-1.3282222,2.6921377,-4.1550007
precedes,-0.05859962,0.5340078,-2.0632467,0.60932165,0.37493113,1.143581,-0.006182772,0.11244991,-0.25213093,-1.0600246,1.5142688,1.5442538,-1.8424013,-2.1936295,-1.016569,-0.36959773,-1.6031095,-1.3081062,3.3441541,-2.7692811,5.1285715,1.2904817,2.2153118,1.9169843,0.24155857,-1.6334611,-2.824725,0.71331465,0.3556176,-5.2350073,-1.5043484,1.122902
prevents,0.7692081,-0.4104596,-1.5215044,2.5864637,-0.9919259,0.017457122,-2.1880724,0.3733584,-1.4528451,-0.97701365,-0.15303645,0.21565706,-1.0544182,-1.2375555,-0.6190321,0.11935386,2.2445548,-1.5333009,2.0141406,3.6690302,0.16210099,-1.7131859,-0.31479082,4.0565033,1.9763842,-0.040249698,-2.483678,0.37409246,0.69232565,-1.9042275,1.3280191,5.943352
process_of,1.5213099,0.58472294,-1.4771484,-0.30066413,-1.9796736,0.6148455,-0.18191482,-0.30266252,-0.84147346,-0.4051186,1.0163014,0.27732563,-1.0981886,-1.0473675,-1.2348047,-0.14626157,-3.2111342,-1.0781204,1.6809223,1.2693914,-1.4267123,-1.0510584,0.081145525,1.9389368,-1.2161835,3.5429916,0.090734206,1.4082685,1.0570928,-0.24416873,-0.9822547,1.0345975
produces,-1.7075832,0.19441168,-2.1024594,0.35278615,0.5095329,0.27579466,0.69993097,-0.040812004,0.28415868,0.45002195,0.14424494,-0.53156114,-1.2509472,-0.7228197,-0.34028798,0.76565164,1.116299,1.1062543,-1.0779204,-0.5843705,-4.7972836,1.1870521,-0.8985683,1.303534,-1.3075119,1.5997485,-0.3809804,-1.6169256,2.7500172,-1.7511344,0.80814666,-0.850294
property_of,1.0594121,-0.8084146,-0.44392455,-0.72930473,-0.013185963,-0.032044396,-0.007203875,-1.3323469,-1.7862245,-0.9862299,0.23434238,1.0259299,-1.8299546,-1.0013204,-0.15838888,-0.09673102,-0.57099843,-1.4368668,-0.11801658,-0.35472327,1.3764552,-2.9463503,-1.4682518,-0.15381475,-2.6151676,-3.7288074,-0.9869517,-1.1208823,-1.5548612,0.16614942,0.12181085,-1.7209139
result_of,-0.23562211,1.2500317,-1.0782921,-0.14646682,-0.6034663,0.97881484,-0.64705133,0.04749763,-0.6703464,-0.38778532,0.7108641,1.8075769,0.032460004,-1.3376777,-0.82212,-1.3513111,0.044330016,2.403402,3.022431,0.7934872,1.2464585,0.44925055,0.31163082,-0.93033224,-1.2031075,-1.3910618,0.33628866,-1.9209368,1.8186437,0.36477318,-1.5068487,0.19848026
surrounds,-0.8446722,-0.244624,-1.4932919,0.11753303,0.7876975,-0.776632,0.85139406,-0.52671313,0.27489743,-1.7989243,2.527193,0.056302212,-1.3713115,-1.6645112,-2.3084083,-0.22837004,5.119447,2.5509224,-3.5881953,-2.723433,1.1931206,-2.5703063,-1.6494988,-1.7097456,4.066135,-1.5366657,-0.36646706,1.7893167,0.14318758,0.9551109,-0.62005335,3.6708698
treats,0.099104114,1.6236231,-1.7678559,0.9862711,-0.38852847,0.3323873,-2.388489,-0.7664761,-0.10923592,0.20949481,1.3144447,-0.7782167,-0.7994645,-0.65854895,-1.7222649,-0.34876046,1.6756523,0.89322346,0.42805597,0.23674044,-5.042211,-0.9055403,-1.4107138,1.3595244,4.0777006,0.6858534,3.838952,3.620207,4.1598353,-2.4048395,0.4666773,0.42198017
uses,-0.22183555,1.958075,-2.1476538,0.7244666,-0.70572317,1.0004014,0.08090626,-0.33082062,0.21593453,0.9089965,0.8338888,-1.4977245,0.007367422,-1.9132254,-0.12715684,0.65215695,1.7541857,1.3530277,-1.430263,3.455391,-2.930113,-3.9122303,1.9240475,-2.5638404,-2.765985,-4.7071786,1.5128136,-2.706131,0.7253547,-2.1515548,0.09153699,-1.6824563
