,0,1,2,3,4,5,6,7,8,9,10,11,12,13,14,15,16,17,18,19,20,21,22,23,24,25,26,27,28,29,30,31
acquired_abnormality,-0.40645105,0.9791033,0.032428775,0.9730505,1.0352116,-0.7749447,0.3922346,-0.9951836,0.21180849,1.0525182,1.1470205,0.8290595,-1.3007457,-0.9703901,-0.73491794,-0.36050752,-2.5879235,0.13387725,0.63062716,1.0726922,0.82724077,-0.56501305,0.9360824,0.03178918,-0.60078126,0.3916782,1.9773519,0.7727967,0.3831131,-0.98674625,-1.396312,-0.6470654
activity,-1.3155566,1.6582956,0.18761778,-0.43762183,-0.68286467,-0.6657043,-0.8658508,0.07881589,-0.21446235,1.3442724,1.7753023,0.8292904,-0.4747983,-0.26107666,-0.49005625,-0.6138327,-1.7653993,0.777274,0.6792479,-1.7337493,0.6162327,-2.3811083,0.040348105,-1.4025321,0.43311393,-0.98482025,0.013717087,-0.2957476,-1.7687451,0.55166614,-1.1934272,-0.03846822
age_group,0.031367518,1.8983359,-0.77525574,-1.208427,-0.7766589,-1.1955296,-1.2997462,-0.61051315,0.086378485,0.7581756,0.6876505,0.834662,0.25922447,0.16265006,-0.09340709,-2.3626873,-1.0135475,0.32655114,1.2251459,0.53713995,1.3356161,-0.81543326,-0.22046687,0.9470942,0.5814413,-1.1885647,0.36852702,-1.1535876,1.624613,0.103918076,-0.67205673,1.3790873
alga,-0.19016439,2.108265,-0.35066956,-1.5839703,1.2571263,-1.7262162,0.30264717,-1.2099981,-1.2346208,1.0394173,1.7916049,-0.2100773,0.40633106,0.28749073,1.1352828,-0.6591027,-0.55835,0.22635296,0.1609049,0.5669188,1.4117105,-0.98805857,-0.82937145,1.5454043,-0.83199626,-1.3779196,-0.02268159,0.27983806,-1.1223538,-1.3455949,-0.89885825,-0.8570688
amino_acid_peptide_or_protein,0.13364737,1.8580207,-0.10304874,0.89895093,0.72067666,-1.2182894,0.5309593,0.9728313,-1.744757,0.83144987,0.2175811,0.38815853,0.30929792,-0.5164804,0.2335712,-1.9272299,-0.7563933,1.9395144,-0.1395621,0.605473,1.45023,-1.2065178,-0.63584435,0.21230815,0.5186563,-1.7620074,0.8032813,0.41866478,0.14618117,1.4357059,-2.2278085,0.60910374
amino_acid_sequence,0.48176742,1.4515009,-0.009638261,0.49808317,0.40228692,-0.22274713,-0.4053668,0.33194178,-1.772119,1.2884848,2.2310152,2.3086061,-0.23561782,-0.34541413,-0.3633315,0.59275234,-0.7556757,0.5144492,-0.60850686,-0.117092565,1.6437235,-0.7375984,0.39119777,-0.44619787,0.08604663,-0.4375778,0.30465096,-0.5004756,0.19025594,0.7583745,-0.5936727,-0.7727678
amphibian,-0.47605616,1.7083977,0.24735135,-0.6197676,0.5817698,-1.3027835,0.82509166,-1.5376289,-1.0793233,0.67565113,1.9253156,1.1552435,0.10884913,-0.22526947,0.41158795,-0.58642846,-0.06756753,0.2612258,0.8456033,-0.18331818,1.3057789,-1.2818898,-0.55447,0.4924614,-1.1135975,-0.77389747,0.7789447,-0.15727422,-1.0917369,-1.7937305,-0.13692808,-1.4043118
anatomical_abnormality,-0.4242927,1.1968497,0.099164106,0.96827203,-0.48438275,-1.1093619,0.30375674,-0.702405,0.5955643,0.92139447,0.52077967,0.94070864,-1.3182334,-0.60190284,-1.2678326,-0.51482654,-2.7232697,0.09255615,0.5860418,1.6411669,0.95076907,-0.18875982,0.42609537,-0.056707982,-0.68651587,0.6358021,1.8459107,0.50306016,0.21420042,-0.33515084,-0.9782364,-0.8475631
anatomical_structure,-0.16416694,1.2474754,-0.23542228,0.21142632,0.72562945,0.25726563,-0.17348926,-0.7762173,0.58400023,1.2557243,1.753378,2.0875666,0.044782836,-0.7731676,-0.3494699,-0.3951408,-1.9022775,0.81566936,-1.1981486,0.45762736,1.5092945,-0.9267775,0.14199787,-0.86565036,0.7206229,-0.52134454,-0.7266385,0.12447866,-0.7666185,0.10528746,-0.9556064,0.023041492
animal,-0.4475653,1.2141745,-0.54255205,-0.9541626,0.091575,-0.7143146,0.42863783,-1.5343049,-1.3492919,1.1842012,1.5367897,0.6380186,0.28762197,-0.7915597,-0.12697338,-1.196984,-0.17657635,0.419308,0.69972086,-0.5395334,1.3749506,-0.72339875,-0.85985583,1.404165,-0.21008214,-0.5696557,0.509972,0.7719102,-0.5157873,-1.2742708,-0.21551082,-0.4473562
antibiotic,-0.52699983,1.2586765,-0.75994694,1.0221355,0.52805275,-0.9627197,-0.0528367,0.1944451,-1.369737,1.2835755,0.03840354,1.333158,-0.7368189,-1.246037,0.6556692,-0.79443777,-0.72021675,1.2799499,-1.6544898,0.0045605134,1.1532816,-0.52501595,-0.82454383,-0.1504081,0.381415,-1.1592227,0.45880172,-0.0015643094,0.44434592,0.7006092,-1.5184947,-0.9997578
archaeon,-0.45428675,2.2471235,0.5117826,-0.7550539,-0.26916847,-0.74248177,0.33105785,-0.3846713,-1.6511775,0.7332022,1.2943135,0.8955153,-0.7927798,0.073675334,-0.22132196,-0.7109832,0.19869278,0.8616993,0.03900734,0.44283903,1.6067961,-0.5018042,-0.5734059,1.0461837,-0.47922078,-1.9290345,0.8642928,0.07379962,-1.3547564,-1.5669491,-0.27444878,-1.1705219
bacterium,0.13094917,1.683927,0.08387481,0.32614523,-0.32912406,-0.7536494,0.4556248,-0.96235526,-0.5123156,0.8607608,0.2646967,-0.2433813,-0.5606315,0.7410279,0.27888346,-1.2192218,0.22979388,-0.0015558528,1.109015,0.53047043,1.5394588,-0.8607786,-0.81157464,0.8303016,-0.7823539,-1.6941257,1.1988839,0.2814307,-0.3108076,-2.174345,-1.0735602,-0.64764184
behavior,-1.4133294,0.6086029,-0.6524392,-0.13163847,-0.9114849,-0.16466755,-1.7814641,-0.4883273,0.26613432,1.7413522,0.46372148,0.22720285,-0.13728464,0.13365099,-0.9757966,0.38195336,-1.0803273,1.0401036,1.6241386,-1.0262377,1.5605532,-1.1022284,-1.3328544,-0.8032967,0.5285677,-0.21289322,-0.1761274,0.5977188,-0.44748312,0.5884682,-2.2290592,-1.1730881
biologic_function,-0.17404163,1.7320744,0.6301099,1.2472022,-0.30603492,-0.0730828,1.0619273,1.0775435,1.0197275,1.4992166,0.99833757,-0.2933577,-1.0424455,0.8682218,-1.5659819,-0.107723795,-1.1973608,-0.9855502,-0.42746758,-0.4959014,0.70535123,-0.7214333,-0.123273455,-0.1443752,-1.1789398,-0.39249697,0.571471,0.71092194,-0.07196914,-0.29751813,-1.431962,-1.5976156
biologically_active_substance,-0.117526434,0.77135867,-0.7718428,1.9539326,-0.36799705,-0.5334363,0.76251847,0.14331533,-0.9257822,1.2998013,-0.089094564,1.6031736,-0.36496276,-0.6553641,1.2656876,-1.2227188,-0.3524325,0.99611473,0.08999327,-0.63042957,1.3398162,-0.99687654,-0.62357247,-0.05145342,-0.15054062,-0.46953788,0.89117926,0.29546282,0.2095499,0.33725226,-1.1794953,-0.51177675
biomedical_occupation_or_discipline,0.10656431,0.38540715,0.15388268,0.9919056,-0.5433399,-1.4172497,-1.0114397,-0.35248297,0.30524847,0.79422224,-0.6538399,1.4001681,-0.27522203,0.1871588,-0.7167133,-1.8650187,-0.3480947,-0.68174195,0.4398866,-0.35269713,1.1188135,-0.8267596,0.45992902,-0.44074154,0.63483375,-1.9233093,0.95647544,-0.8940092,-0.82149744,-0.13211071,0.23595458,0.62784433
biomedical_or_dental_material,-0.4491528,1.9047432,-0.62138444,1.3943175,-0.52923155,-1.5712475,1.15794,-0.033964764,-1.6697264,0.59398615,0.91786075,0.96581125,0.59338963,-0.76181185,-0.03768997,-0.4961417,-1.6964115,2.197279,-0.4645158,-0.21740577,1.510585,-0.834282,-1.1140137,0.38151085,-0.11789245,-1.538999,0.5948423,-0.051539842,0.3855123,0.8205152,-1.0048256,-0.090756044
bird,0.032524332,2.207432,-0.083137624,-0.7928667,-0.82748836,-0.8816762,0.16040146,-1.4633559,-1.0115913,1.2992264,0.54871136,1.4294128,-0.61000466,-0.8881241,-0.052530915,-1.9187164,0.06007746,0.85965997,0.9035679,-0.06919445,1.1581932,-0.68037295,-0.38647205,1.735288,-0.42071766,-1.6727711,0.67337435,0.2649978,-0.5917034,-1.6986092,-0.22141501,-1.2514172
body_location_or_region,-1.0788071,1.0148189,0.012249104,0.07867569,-1.3051479,-1.2255229,0.1333557,-0.7012803,0.77340615,0.6724622,1.5027795,0.860909,0.5799339,-0.28624985,-1.1151545,0.25102645,-0.5953368,1.6289432,1.1122551,-0.22773933,2.3027487,-1.6217916,-0.06759856,0.5728506,1.0122523,-0.9653114,1.0421375,0.49531424,-0.99227303,-0.40603927,-0.22026537,-0.14404118
body_part_organ_or_organ_component,0.15415278,1.2586715,-0.7417936,0.3676785,-0.2512639,-1.2737154,0.40473688,-1.0636024,1.2726425,1.3351498,0.7312949,1.0328395,0.53320533,1.4632283,-0.5180465,0.41499993,-1.3191271,0.75818056,-0.9959724,0.13664861,1.1458726,-0.74606496,0.32273877,-0.45064747,2.017762,-0.7580407,1.294886,0.28712553,-0.46312094,0.58157325,0.22724822,-0.8166402
body_space_or_junction,-0.7212093,0.77405334,-0.5888648,0.3575576,-0.6135396,-1.1462113,-0.05642843,-0.18035862,1.1814021,1.1130633,0.56461954,1.0432056,0.9341759,0.12558818,-0.56652325,-0.021000603,-0.18671963,0.92290497,0.833972,-0.41886955,1.7087722,-1.0217184,0.5451911,0.9517644,1.2181411,-0.85811436,1.2583339,0.5641578,-0.5860621,-0.43874833,-1.7092743,0.19825263
body_substance,0.34959635,1.1475714,-0.21247718,0.61243397,0.11232196,-1.9513133,-0.018008076,0.53700924,0.8116453,1.0426025,0.2084714,1.3741921,0.8096306,0.27498534,1.910391,-1.7034861,-0.039466828,-0.18709509,0.36836988,0.5163871,1.2495692,-0.6352275,-0.78341657,0.40286958,0.93948275,-1.2235707,0.42029393,0.73462963,0.18587908,-1.032482,-1.3684354,0.56336594
body_system,-1.3063242,1.547992,0.5410965,0.8351501,0.57443136,-0.22621323,-0.49073544,-0.589014,0.12269609,0.61504,1.6506741,0.64796174,0.69225496,-0.40633172,-1.3873092,-0.06665474,-1.2845817,1.5230129,-0.6682714,-0.17804709,1.7787964,-1.8799753,0.122892946,1.2487552,1.0693336,-1.1127733,-0.3357187,0.23396412,-0.3653308,-0.28231972,-1.3050387,0.13606389
carbohydrate,0.007334167,1.707203,-0.19261289,1.427128,-0.26436052,-0.84802777,0.7650259,1.1711881,-1.3644394,1.1326473,0.2040378,1.6831487,0.5207227,-0.53077185,0.269432,-0.8199371,-0.7876971,1.4282479,0.48480922,1.3421072,1.3658425,-0.6022104,-0.83157504,0.41556227,0.21848859,-0.9445547,1.0642073,0.06899714,0.5357395,1.1660162,-1.9816331,0.58326316
carbohydrate_sequence,-0.34625474,1.9760362,-0.34127918,-0.581608,0.36358342,-0.51181656,-0.3753554,-0.68356043,-0.08532127,1.6471999,1.1668768,2.3485215,0.18081589,0.03131873,-1.008504,-1.6285871,-1.1573639,1.3566421,-0.008755585,-1.8922969,2.040612,-0.4928566,0.90708774,1.3640348,0.8672014,-1.2839886,0.07580982,0.014438667,-0.6746665,0.47858745,-1.7425478,-1.1814743
cell,-0.6453381,0.9168931,-1.4773492,0.5404837,-0.18328626,-1.2406245,1.4442625,-1.4218069,0.9371954,1.0100487,1.8334317,0.73465437,0.4761313,-0.6286714,-0.60970056,1.0943456,-0.9769474,0.6344167,-0.8170811,0.6899409,1.2869271,-2.2378218,0.66327226,0.27287862,2.039071,-0.4915739,1.028581,0.10530932,-0.44843215,-0.15593964,-0.25340825,-1.0777462
cell_component,-0.35286188,0.7787515,-0.8579016,0.11489604,0.22367287,-1.3647373,1.8489329,-1.5889442,0.98520744,1.1018032,1.1443734,1.5911422,0.09780867,0.66752774,-0.4817743,0.1261008,-0.4874203,0.44662616,-0.4460299,0.56762016,0.86054873,-2.0854104,0.37884036,-0.21933061,0.5043169,-0.52706116,1.0066389,0.16524749,-0.4843228,-0.3532581,-0.38113293,-0.53541327
cell_function,-0.11443767,2.063531,0.8057754,0.4058298,0.23688252,-0.38284808,1.1249776,0.09156557,1.3043404,1.4111065,0.44954032,0.057457406,-0.6026531,-0.0056734392,-0.94169366,0.9913025,-0.67747045,-0.47919622,0.32445616,-0.91201085,0.7922089,-0.23896047,-0.426183,0.025012016,-0.5970169,-0.34707987,1.3190482,0.98763245,1.222619,-0.8079434,-0.677883,-1.7048855
cell_or_molecular_dysfunction,-0.7073281,1.6024197,0.26038587,0.6086899,-0.1516904,-0.7555917,0.3482844,0.8147254,0.41316855,0.44755778,0.8358638,0.6603522,-0.9516702,-0.48412913,-1.8237331,-0.27827135,-1.0066544,-0.751581,-0.05987652,0.9242609,0.80987215,-0.619095,0.7513427,0.08888406,-1.5230161,0.67090845,1.9761295,0.9351879,0.92182523,-0.5812573,0.21194452,-0.6594098
chemical,-1.0801617,1.3512678,0.2403003,2.0706694,-0.8558487,-0.29221573,0.6618073,0.37604514,-0.61621326,1.100207,0.4558282,1.4033291,0.88044006,-0.49360195,0.24836929,-1.1885165,-1.4077408,1.5266668,-0.5252216,1.076387,1.1925021,-0.49805588,-0.4783611,0.24745886,-0.31298992,-0.44159204,0.03615007,-0.050026998,0.20118397,1.0422354,-0.23558646,0.06314168
chemical_viewed_functionally,0.2833055,1.8067251,-0.9280648,1.6621029,0.54829043,0.17313692,0.44989613,0.45235083,-0.79110754,1.1827083,0.6129129,1.3346738,-0.33578598,-1.2809455,0.6090127,-0.86171085,-1.7201744,1.9539163,-0.99997735,-0.7569347,1.1099958,-0.5659723,-1.1466329,-0.033619992,0.012786465,-0.7175316,0.2602037,1.0101001,0.280245,0.6697533,-0.8233373,-0.28800243
chemical_viewed_structurally,0.49223,1.5782429,-0.16387399,1.6976302,-0.8441643,-0.15322144,0.94696844,0.6566315,-1.5976949,1.0846639,0.33669907,1.6177346,0.042634673,-0.36929983,-0.20943011,-1.0129677,-1.8401488,1.5947231,-0.54219246,1.8710549,1.4490526,-0.7284345,-0.26803017,0.68457043,0.30260018,-1.4034117,0.57283014,0.22999468,0.18060435,0.8025231,-1.1261928,-0.2980881
classification,-0.46395314,0.47456092,-0.005271296,-0.7261281,-1.4052886,-1.705432,-1.3046807,0.8917207,-0.42516363,0.83865976,0.44020352,0.7008692,-0.40698925,0.5798168,0.55294853,0.78239775,-0.42124847,0.60413224,-0.34801954,-1.5352496,1.9011953,-1.141272,0.44540343,0.093210146,0.44435617,-1.136545,0.17706205,-1.320642,0.03747485,0.0923592,-2.0617323,-0.48454118
clinical_attribute,-1.2460228,1.2901707,-0.22935402,0.38673767,-0.94342405,-0.9885951,0.35363397,0.7744088,-1.62345,1.5306239,1.3954225,1.5112762,0.9863586,0.43579674,-2.040376,-1.5376894,-1.2727077,-0.74165744,0.15837671,-0.3434586,1.562825,-0.5281708,-0.74271554,0.6272493,-0.042704236,0.02300292,0.94216603,0.33524808,1.2096832,-0.49098572,-0.40689254,-1.1898824
clinical_drug,-0.09817934,0.843886,-0.7351736,-0.85168105,-1.6063398,-1.9678122,-1.7312715,-0.2276421,0.48893824,2.0283616,1.3079759,-1.6657572,-1.0798192,0.24703832,0.72220427,0.048798453,-1.0603349,1.1907573,-1.5523711,-0.8426571,1.8390924,-1.0050137,-2.2891722,0.72456354,1.283746,-1.69819,0.26946577,-1.1670666,0.48665193,-0.65684265,-0.7423049,-0.66258043
conceptual_entity,0.29551548,1.2436152,-0.7155102,0.28490514,-1.3770456,0.47062343,-1.1358799,0.17186235,0.17386182,2.6185744,1.5165807,2.0420454,-0.08428668,0.04169059,-0.69995785,-0.9907393,-1.3795972,0.81050324,-0.16675743,0.10203305,0.8808995,-0.94073826,-0.92830545,1.2146008,1.0612547,-0.23013635,0.1753827,-0.6157131,0.035912618,-0.33116156,-0.8796276,-0.5744981
congenital_abnormality,-0.99645233,1.213111,-0.5042844,1.0871468,-0.42655566,-0.48955485,-0.07186869,-1.0169728,0.6974602,0.9509924,0.23744743,0.6557489,-1.4371259,0.18955646,-1.4467438,-0.5491967,-2.4295118,0.61851346,0.8369952,1.1717275,0.87480634,-0.7309271,0.990135,-0.18974511,-0.93251276,0.40795246,1.3110018,0.84033626,0.17007157,-0.01662283,-1.2996796,-0.55124253
daily_or_recreational_activity,-2.473439,1.0709196,-0.691602,0.8500799,0.46335307,0.009072,-0.45976675,-1.1847522,-0.56513524,1.0633456,0.8484989,0.6742848,0.37588406,-0.14721882,0.24163172,-0.47483388,-0.8491994,0.34567016,0.8086585,-2.8495226,2.2080982,-1.8532776,-0.12105282,-0.71665865,-0.37804788,-1.3257284,-0.07267039,-0.76682377,-0.31873447,0.9631908,-0.43217185,-1.1429775
diagnostic_procedure,0.6705777,1.0309594,-0.77354515,-0.8775795,-0.15469255,-0.3569913,-0.6839793,-0.58575064,-1.4162958,1.3790295,0.42433637,0.76814836,-0.048908576,-0.9901486,-0.9706286,-0.059300482,-0.6471709,1.2015388,1.4466975,-0.97350806,1.6164377,-1.1647357,-1.4004853,-1.0748578,-0.2159653,-0.5167853,1.1053603,-0.9524855,-0.39635795,0.28960648,-0.28772318,-1.1043937
disease_or_syndrome,-0.5244333,1.2493527,0.046386674,0.3962816,0.040443935,-0.7650613,0.37232837,0.7860333,0.5284951,1.1658595,0.75904655,0.29337493,-0.6973689,0.31150636,-1.2622811,-0.30406883,-1.1503053,-0.7971037,1.0339761,1.0776196,0.5258312,-0.553742,-0.026212055,0.79200417,-1.6015944,0.7823058,1.8802651,0.7046715,1.3609097,-0.14369805,-0.7677517,-0.5348758
drug_delivery_device,-0.93591374,1.3244461,-0.93554306,-0.4202346,-1.7388493,-0.5624451,-1.1018177,-0.6626803,-0.54045624,1.82934,1.5313545,1.248036,-0.62793154,-0.053837486,0.87415695,1.7340788,-0.82578707,0.38677302,-0.49990597,0.50358564,1.2484741,-0.9898804,-0.8632879,0.956522,1.1471083,-1.8712977,0.7301049,-0.95092076,0.646269,-0.13408682,0.05027692,-0.4634101
educational_activity,0.8634523,0.8210941,-0.8354905,-0.59116554,0.19186965,-0.83651423,-0.827682,-0.5867779,-0.23880824,1.6149948,2.0414011,1.2687534,1.683476,-0.44833946,0.078463525,0.40024817,-0.10832474,-0.25224775,1.2412277,-0.9944774,1.8818414,-1.9941875,-0.58164155,-0.6086539,0.31504562,-0.7868168,0.33924463,-2.0656934,-1.3926344,0.043037176,-0.8881405,-0.3047005
eicosanoid,-0.24108604,1.177087,-1.20356,1.4902264,0.40890354,-1.4347633,1.5934579,1.1518321,-1.1906092,1.0552014,0.76391643,1.5668654,1.2484142,-0.26134807,-0.0037046103,-1.0441567,-1.0266902,1.0040272,-0.06743934,1.1004716,1.0576551,-1.9044069,-1.1559657,0.0717835,0.11325559,-1.3263751,0.55235684,0.374677,-0.024857039,0.94930124,-1.0346088,0.38487434
element_ion_or_isotope,-0.37580037,1.3441542,-0.8086085,1.2521702,0.42739472,-1.5833321,1.1100538,0.66932285,-1.1666769,1.1757469,0.38334423,1.6308829,-0.86096877,-0.39407367,-0.23601156,-1.2205509,-0.4172204,1.4474055,-1.028963,0.97051233,1.367122,-1.0580363,-1.3202661,0.05781404,-0.5638889,-1.053677,0.5457587,-2.2874084,0.47565806,0.57483894,-2.7282965,-0.6645046
embryonic_structure,-1.1720239,0.9845197,-0.29837134,-0.40845427,-0.5457026,-1.41803,0.6528454,-0.013245186,3.1456678,1.5880213,1.6985972,1.2570391,-0.11167261,0.17518613,-0.29099542,-2.1739132,-1.0881761,0.6563647,-0.089971945,0.18447244,1.8013606,-1.0365555,-1.4765867,-0.80853236,0.95320153,-0.059351545,0.92240715,0.5479799,-0.7434927,-0.7801073,-0.619966,-0.38419646
entity,0.30765313,0.82712543,-0.6996237,-0.059311535,-1.2263286,1.1263425,-0.3313041,-0.019883666,0.24790616,1.9073493,2.0110483,2.1029098,0.6389932,-0.40147075,0.6080237,-3.0687506,-1.0780319,2.030726,-1.2092499,0.31891575,1.2320548,-1.4357591,0.16812128,1.2726057,0.88037926,0.03556501,-0.2786766,-1.154085,-0.3944361,-0.9466995,-0.2883513,-0.5712543
environmental_effect_of_humans,0.21555012,0.9612226,-0.6908759,0.2872363,0.096890934,0.17388752,1.2818516,0.19824363,0.3878247,1.0290252,0.80559605,1.6609733,-0.5554011,-0.04440802,-0.68473226,-0.8235374,-2.2347455,-0.07400175,0.17581412,-1.3543499,1.7057481,-0.70271707,0.7169623,0.23824336,0.564933,-0.5184611,0.8716894,-0.05201702,-0.07347442,-0.182327,-1.4303713,-2.1630135
enzyme,-0.41680858,0.67667955,-1.0732808,1.0771887,-0.72632486,-0.8478622,0.7809205,1.0040517,-1.2814484,0.67691195,0.28999028,1.6806701,-0.685786,-0.6987977,1.3029499,-1.3895798,-0.39736566,0.78665227,-0.3571818,-0.31242278,1.6231381,-1.1074173,0.11347696,-0.3665673,-0.20606199,-1.005937,0.8069952,-0.0029729307,0.15141355,1.0318934,-0.2988921,-0.37017298
event,-0.33515525,0.78574187,-0.32537195,0.10342887,-1.0512701,-1.5125991,-0.0030408115,-0.007390349,0.5230573,2.1655207,2.416404,0.3046829,0.03178778,0.8186964,-1.116067,-0.62264717,-1.2224354,0.48443836,-0.30547628,-1.7210517,1.4396484,-0.014858327,0.32244962,-1.1901698,-0.2866158,-0.5872914,-1.9833933,-0.35975322,0.43154883,0.25805548,-1.3977758,-0.3314937
experimental_model_of_disease,0.08474336,0.97943026,0.21525891,0.5126578,-0.20418611,-1.0305935,0.1283088,-0.36878377,0.49534506,0.69330925,1.0558592,0.22271512,-0.8615107,0.8624012,-1.2048868,-0.18185088,-0.6313021,-0.961293,0.42181885,0.67654616,1.065404,-0.6623376,1.1335807,0.23095746,-1.592796,0.9699817,1.6219805,1.191251,1.4073697,0.27167347,-0.5919996,-0.6319347
family_group,-1.4487245,1.26554,0.20041493,-1.1930175,0.45418942,-1.7932985,-1.9105432,0.2694585,-0.8755068,1.1900388,0.308094,1.0240921,-0.0850001,-0.24560952,-0.01651459,-2.5586278,-1.6151036,-0.30797717,1.4547712,0.6625204,1.2367506,-0.8769818,-0.30841973,0.8659168,0.7915392,-0.2996449,0.30014703,0.502322,0.9563443,0.23726591,0.15465906,0.29190728
finding,0.2793575,1.3548863,0.3218792,1.2040658,-0.45478496,-0.77401626,-0.8519677,0.09977413,0.054030083,1.5475363,0.718721,0.70485216,2.0561812,1.1307018,-0.67039096,-1.016263,-1.9449823,1.1365488,0.028243309,-1.2692378,1.0041815,-0.91357094,0.47636855,0.22707394,-0.8739898,-1.5362102,-0.065357514,-1.0039237,-0.20732684,-0.6704369,-0.6680736,1.0319793
fish,-0.8927828,2.1996267,0.18496886,-0.94606245,-0.4759421,-0.6472877,-0.20568328,-1.8500713,-1.4807452,1.3576585,0.97758335,0.055417933,-0.58582646,0.08641951,-0.08621216,-2.6447918,0.7679615,0.61813575,0.63270867,-0.032617487,1.4040434,-1.5472796,0.5701921,1.0399952,-1.016882,-1.2584051,0.73359394,-0.29001093,-0.9339112,-1.7145233,-0.39985797,-0.58962303
food,-0.6467173,0.79236233,-1.913189,-0.20699021,0.050742257,-1.1392283,0.3567672,0.31962192,-1.3627938,1.5768535,0.5150229,1.829009,0.7414607,0.0193258,0.23590238,-0.9002398,-1.1119473,1.2366248,-0.26242432,0.07155211,1.7609389,-1.7109616,-0.57459104,0.24869013,-0.7284417,-1.7240437,1.1577506,-0.022340072,-0.32341054,-0.09480104,-1.1455834,-0.59969914
fully_formed_anatomical_structure,-0.7420592,1.1803207,-0.0917079,-0.38258067,-0.42374948,-0.35794982,0.3232876,-0.7328828,1.7420803,1.4759585,0.8918046,1.7911432,1.0705887,-0.39738104,-0.8050409,0.49141347,-0.5612057,1.5763305,-0.23771809,0.4755892,0.98747313,-1.8220642,-0.9546654,-0.19939391,1.1795417,-0.5045904,0.19021767,0.3786622,-0.17073174,-0.37016016,-0.3995042,-1.365049
functional_concept,-0.114284165,0.26664636,-0.67179096,-0.08211909,0.13169053,-1.2140987,-0.40612406,-0.68641514,1.497978,2.2111335,2.084897,2.429813,-0.77114743,-0.30896294,-0.8355505,-1.0759019,0.1149188,0.113129154,-0.4447405,-0.62483567,2.4852262,-1.4712884,0.2841776,1.3412778,-0.06365949,0.14342764,0.67302674,0.38379171,-0.001060741,0.45654267,-0.73936015,0.16126134
fungus,-0.502779,1.8052462,-0.21502453,-1.154592,0.21520165,-0.623929,0.2871418,-0.7607042,-0.6668723,1.2058749,0.4301215,-0.6625913,0.8292636,0.9023186,0.56729007,-1.6276262,0.1470199,0.4851323,0.66765493,0.09209495,1.3707407,-1.4491217,-0.77484417,1.4125978,-1.0399913,-1.7778049,0.7102031,0.4678827,-0.5883086,-1.6958886,-0.8577273,-0.64016134
gene_or_genome,-0.2528439,1.0740039,-0.37449515,0.28441757,-0.36459878,-1.2815487,0.9292937,-1.8097292,2.1323001,1.2123357,0.46821362,1.9930649,0.35543746,-0.02060036,-0.3379968,-0.027637048,-0.40899378,0.08934612,-0.42842817,-0.33048376,1.7286797,-0.7612047,-0.43040344,-0.19940741,0.9539662,-0.8676022,1.5370957,0.46063736,0.02973559,0.6092701,-0.0762918,-1.2479031
genetic_function,0.14916131,1.6309597,0.66803694,0.49066767,-0.07032761,0.038437817,1.3090913,0.045860395,1.3135574,1.0997167,0.45198497,0.24180594,-1.0454608,0.83853316,-0.72818506,0.7871413,-0.8760999,-0.62414354,-0.11805714,-0.53568804,0.5487452,-0.71445566,1.2257546,0.62295496,-0.88469356,-0.70776874,0.93927425,0.8027442,0.6819197,-0.31449297,-0.58560085,-1.5122827
geographic_area,-1.5046093,1.2373223,-0.640625,0.06986335,-0.288765,-1.4820029,-0.14364772,0.1452494,0.58177847,1.2933704,1.3172805,1.3873713,0.57549286,0.34012777,-0.7154855,-0.6204012,-1.2575125,0.15397036,0.6638767,-0.95643306,1.221916,-0.61760265,0.4606917,0.36865664,-0.32153308,-1.0042536,0.80635816,-0.07762364,-0.8132497,0.06051163,0.48671976,-0.14032388
governmental_or_regulatory_activity,0.44625083,0.8916804,-0.3782348,0.58479595,0.36621034,-0.54340124,-0.5939929,-0.1638506,0.12987097,0.99352676,1.7286158,1.278354,0.16994157,-1.0397369,-0.3790045,-0.07977697,-0.38389057,0.2183328,1.2378342,-1.882027,2.124167,-1.9492102,-1.7737306,-1.0825862,0.2919027,-0.901216,1.0275415,-0.959616,-0.49551234,-0.58813494,-0.03755147,-0.48709187
group,-0.64924586,1.9441429,0.31974858,-1.5491667,0.24438427,-1.4607173,-2.5672941,0.14168872,0.72397906,0.26446185,0.59541106,1.3269778,0.3241745,0.40774527,-0.45026293,-1.9321628,-1.4677935,0.24841028,1.5891157,0.7071216,2.035889,-0.45257944,-0.11330545,1.7416083,-0.24545842,-0.8663155,0.5384676,-0.39098877,1.8250186,0.37031958,-0.26055235,-0.17053305
group_attribute,-0.26537022,1.99467,-1.0984799,1.2604518,0.9232311,-1.0692766,-0.29776427,0.12682085,0.73399293,1.5208995,1.9749559,1.1670659,0.6944355,-0.46052775,-0.98467344,-0.5127136,-0.7576709,0.43491155,0.14355174,0.099509105,1.5334685,-0.97409207,1.157259,2.0641005,0.6641929,-0.6931376,0.32154748,-0.95553905,-1.2775096,0.53028166,-0.5734918,-0.46763188
hazardous_or_poisonous_substance,-0.13974893,1.57588,-1.4843135,2.151533,-0.19066307,-1.9247264,0.14580671,1.30593,-1.3279415,1.8203954,-0.009043385,0.88647187,-0.12923066,-0.06774478,0.88506687,-1.395726,-0.94185513,1.7530406,-0.047034554,1.0146914,1.237412,-1.4913478,-1.415328,-0.17357887,-0.004915485,-1.3083451,0.8382239,-0.10831931,0.8385779,1.1202433,-0.8264037,-1.8209531
health_care_activity,0.31827036,1.4438723,0.30235228,-0.9197197,-0.0783261,-0.49942505,0.1327028,-0.36367583,-0.9659801,1.3588665,1.1404241,1.763242,1.0388799,-0.78783906,-1.0595043,-0.52831274,-1.1097479,0.68312174,1.2907064,-1.474545,1.3978937,-1.6257366,-1.4121169,-1.7952306,-0.11757124,-1.3608326,0.8636874,-0.08328068,-0.5562085,0.73712194,-0.42603055,-1.153985
health_care_related_organization,-1.0051025,1.2073115,0.0805967,-0.12943478,0.1894355,-0.6149887,-1.3892723,-0.45684585,-0.32002068,1.4559408,0.6500862,0.8576005,-1.0914522,0.9736804,-0.41984057,-1.2849557,-0.5963478,-0.26074108,-0.44102818,-0.8715014,1.4763898,-1.2416403,0.96383756,1.0563282,1.0661645,-1.0959383,0.51843005,-0.8371234,-0.55287963,-0.63435227,-0.34094504,0.00038130046
hormone,0.043068573,0.674647,-0.8829811,1.7177837,-0.5508023,-0.5512336,0.44588286,1.0125175,-1.406176,1.2998545,0.73766625,0.50276357,-0.22649194,-0.07613868,1.4421191,-0.38124672,-0.48172438,1.1802142,-0.9595324,-0.17628403,1.5168074,-1.7441692,0.063371554,-0.011137755,-0.17267469,-1.0425231,0.72175044,0.77459216,0.35764328,0.67512727,-1.4243299,-0.5837384
human,-0.45678538,2.1811311,-0.51080817,-0.4592929,-0.5044593,-0.40976867,-0.048827544,-0.60521495,-1.3572141,0.91350883,0.8973493,1.0169046,-0.27478305,-1.0781683,-0.0181841,-0.43910742,0.47500628,1.4077355,1.2194318,-0.20615226,1.626847,-0.8750331,0.034762416,1.8125029,-0.458172,-0.32693955,-0.049727965,-0.5910361,-1.3067323,-1.4086905,-0.14961077,-0.8348286
human_caused_phenomenon_or_process,-1.0013176,0.42735362,0.33893,0.053936217,0.06137359,-1.0974125,-0.038739115,-0.22432405,0.11566231,1.2917429,0.8353817,1.3987421,-0.03636895,-0.021467708,-1.2014334,-0.27232412,-3.1517243,0.66529274,0.055212453,-1.6244946,1.6597582,-1.8478497,0.13228053,0.16495432,0.46107653,-1.4195336,0.37707415,-0.024482518,0.03143439,1.3930517,-1.4509895,-1.9929842
idea_or_concept,-2.4970343,1.9927566,-0.5921549,-0.08443323,0.92009217,-0.038197882,-0.096533455,-0.45873576,0.06425364,1.6249017,1.5219297,2.48539,-0.8768086,0.627358,-0.200043,0.11415459,-1.633256,1.4303173,0.39530432,-0.19466875,1.003252,-0.64420575,0.013657782,1.362207,0.918889,-0.7196727,0.059736542,-0.22707155,-0.2295834,0.4832469,0.59208906,0.3848897
immunologic_factor,0.14129557,1.3536705,-0.53052306,1.7477707,-0.4440083,-0.21961156,0.94900215,1.0168223,-1.6490611,0.58567137,0.51644564,1.8648745,-0.5273745,0.5217713,1.7423544,-0.83437014,-0.6551036,1.2381139,-0.41052884,-0.054267894,1.5563215,-1.54725,-0.14538445,-0.2256076,-0.916783,-0.5585087,1.0618004,0.74007076,0.04403982,0.5168775,-0.70976144,0.47221896
indicator_reagent_or_diagnostic_aid,-0.8517069,1.6714997,0.47595945,1.7942487,-0.37852275,-1.622102,0.6063127,-0.24692516,-1.4453253,0.4948084,0.4374699,2.0881732,0.6152813,0.029814588,-0.2111856,-0.5186647,-0.6853901,1.7718984,-0.49401233,0.47028717,1.4368988,-1.0850853,-0.28675246,0.06873475,-0.26553947,-1.0011214,0.4375036,0.79709786,0.86494255,0.4509646,-1.8137554,0.21622087
individual_behavior,-1.2030426,0.49283832,-0.8512869,-0.06722703,-1.0400529,-0.103305325,-1.1897652,-0.4118379,0.051020253,2.313759,0.99682516,1.0391127,-0.35470614,0.4836996,-1.3853512,0.5078088,-0.1068543,-0.059262108,1.1587172,-0.84799665,1.7003069,-0.44425887,-0.097485304,-0.37386382,0.6105172,-1.0762318,0.92052186,0.14374873,-0.24128783,0.4249391,-0.89253527,-0.46934336
injury_or_poisoning,-0.3061204,0.905031,0.5293762,0.7655627,-0.20112912,-0.90564924,-0.25502983,-1.721079,-0.6926574,0.8829944,0.6524904,0.3675016,-1.3562735,-0.0031142114,-1.4988478,-0.48955357,-2.0218627,-0.50870615,1.3219931,0.91747224,0.94698113,-0.9861442,1.0266818,0.38459012,0.05582945,0.26279098,2.0661733,0.9600264,1.0278853,-0.5610785,-0.80611914,-0.33566928
inorganic_chemical,-1.1381451,1.7114007,0.06595825,1.289372,-0.12923792,-1.3545136,0.95353585,0.10216141,-1.0636268,1.1468835,0.39847678,1.6225594,0.37281537,-0.14574584,0.54376835,-0.045759447,-0.46956566,1.5395906,-0.4429867,0.7435665,1.2552198,-0.35233,-1.5005648,1.143063,-0.22944802,-0.21906577,0.6420739,0.26650468,1.2457695,0.6130867,-1.9120013,0.31914464
intellectual_product,-0.98726743,0.8044014,-0.41819084,-0.98030436,-1.00617,-1.4272933,-0.95201623,0.08222567,-0.5646708,1.8003105,0.6565403,1.0589385,-0.71996,-0.8296159,0.49282223,0.5345073,-0.43999824,0.35546744,-0.8338365,-0.722497,1.5920651,-0.7024183,0.6138149,2.3416748,0.20165811,-1.5182718,0.16919746,-1.9384459,-0.20968513,0.3073815,-1.7093997,0.70690715
invertebrate,0.15144546,1.4764417,-0.5176095,-0.6145829,-0.31722802,-0.98570883,0.33048192,-0.53937465,-1.0461684,1.5822959,0.3390167,-0.2884658,1.3599563,-0.62101036,0.5776072,-0.86507344,0.06646658,0.43488422,0.6708138,-0.464941,1.4347821,-1.5907491,-0.23059005,1.733027,-0.48102975,-2.7099314,0.54355896,0.7630906,-0.9385862,-1.7254158,-0.2453708,-2.3259299
laboratory_or_test_result,-0.5388931,2.0438294,-1.6526833,1.9399215,0.2041696,-1.1008255,-0.82638603,0.16321652,0.515029,0.6957569,1.259548,1.0788305,1.8482839,0.5478683,-1.0726844,-0.45914057,-1.843301,0.6769069,0.2395632,-0.20915692,1.6184456,-0.37492123,0.95331293,-0.3341085,-1.1412883,-1.6766499,0.64282763,-1.7971071,-0.79761505,0.097649746,-0.6875355,-0.08024134
laboratory_procedure,0.25670734,0.77894557,-1.2478219,-1.2185429,-0.5604431,-0.09906164,-0.37436178,-0.8960323,-1.137336,0.98022395,0.8591465,0.7459148,-0.5217234,0.038798347,-0.7350749,-0.31078947,-1.3952463,0.96538347,0.098255984,-0.91730714,1.5947223,-1.2181467,-1.0535626,-1.3574786,-0.3253338,-0.61768186,1.122609,-1.6653159,-0.14538506,-0.09319038,-1.1332351,-1.1082745
language,0.0753765,1.7765478,-0.042432506,0.7799804,-0.21311481,-1.9561951,-0.55392164,-0.039285198,0.113551006,2.1676795,1.821911,1.6781791,-0.42699397,-0.5641897,-0.2513166,-0.49699116,-0.92797834,0.72482675,-0.77700084,0.008079672,0.9206733,-2.6495242,0.34017348,0.2890707,1.0634809,-0.81850046,0.27773795,0.3982594,-0.16613477,-0.20014916,-1.0994618,2.079813
lipid,0.70932156,1.8310581,-0.5767138,1.626685,-0.34491974,-0.7486931,1.4261987,1.7045541,-0.75495344,1.5267143,0.2846464,2.023019,0.6195202,-0.0010398477,0.37598723,-0.52878886,-1.0210357,0.8496862,0.19867848,1.8179185,0.92277324,-0.9228813,-1.1739551,0.7024172,0.37042367,-1.7149194,0.21094643,0.1579896,0.29670426,1.0882162,-0.7884263,-0.5494936
machine_activity,-1.4450383,1.5252088,-0.6082917,0.3883737,0.28732684,-0.33038363,-0.76600826,-0.30388582,-1.5139058,0.18273309,0.8983021,1.6156689,-1.3416958,0.409006,0.2675937,-0.040764894,-1.2565433,0.3205684,1.923413,-1.4366821,2.2528234,-2.0311952,-0.13880397,-0.36941278,1.2368096,-0.9306462,2.0202034,-0.48842338,-0.25323868,0.4010156,-1.41182,0.0516789
mammal,0.06375785,1.791679,-0.49427226,-0.5667803,-1.1513828,-0.5755034,0.36499694,-1.492829,-1.0752976,1.1341939,1.2166449,0.17642751,0.07662951,-0.22659263,-0.08100374,-0.767415,-0.31986663,0.41711167,0.29753727,0.19329093,1.5354278,-0.32227546,-0.5300601,1.7568052,-0.50052047,-1.2279328,0.15210527,0.124205954,-1.457964,-1.207509,-0.97952455,-0.5802926
manufactured_object,0.36151516,1.5232722,-0.02491054,-0.3280123,-0.7749019,-0.6267558,-1.0333298,0.09953628,0.14111246,1.0316064,1.4680809,0.99530065,0.049878556,0.46265334,0.530841,0.024073076,-1.6953329,0.2925651,-2.8377578,0.560002,0.33663216,-2.09601,-0.03973416,0.5707239,0.69657534,-1.212968,-0.08560976,-1.422472,-0.24319772,-0.112306915,-1.9763873,-1.2798122
medical_device,0.52048945,1.6284003,0.3098995,-0.87256616,-0.16791114,-0.5379409,-0.92398465,0.064530574,-0.3972934,1.4069114,1.7068689,0.6756551,-0.43906948,-0.32573518,0.89104223,-0.042846676,-1.2845803,-0.045834456,-1.6426244,-0.25513116,0.995405,-0.6095666,-1.1758772,0.28217492,0.7938191,-1.4613951,0.8628308,-0.7895836,1.1497124,0.5660834,-0.6390937,-0.7446882
mental_or_behavioral_dysfunction,-0.13443005,1.0559894,0.24650657,0.2846747,-0.17074148,-0.2237623,0.021774065,0.99676025,0.50068134,0.3073236,1.0557334,0.53469217,-0.98474526,1.6155143,-1.3732849,-0.26457152,-1.0203762,-0.9800245,0.20389263,0.9832196,1.0815092,-0.6164991,0.026668169,0.31520262,-1.3340042,0.77472,1.9913591,0.68919915,1.2091676,-0.38569367,-0.5774621,-0.50912243
mental_process,1.4953893,1.5945996,0.40402168,0.42543706,0.57589257,-0.59537154,0.618025,0.102411486,0.9390855,0.3172437,0.3749201,0.55243623,-0.50599533,-0.45569995,-0.9105001,0.60667485,-0.9390887,-0.9486684,-0.23573093,-0.6607672,0.34437746,-0.6436605,-0.47883844,-0.3339539,-0.75449085,-0.5199993,0.8104229,1.0077813,0.3133959,-0.16785984,-0.93064934,-1.1756973
molecular_biology_research_technique,-0.29532942,1.4705673,0.14087656,-1.0047444,-0.13630137,-0.3673012,-0.27424455,-0.8539059,-0.38253844,1.2711208,2.4014623,1.563785,0.6462189,0.966893,0.15861574,-1.0539768,-0.4810678,0.72770256,0.8026819,-1.7019796,2.004343,-1.5803272,-1.4706887,-1.820128,-0.3663022,-0.6729037,1.4729077,-1.1814488,-0.961252,0.065865055,-0.6343777,0.5601405
molecular_function,-0.61799484,1.7456816,1.1240534,0.6634707,0.1589205,-0.7331186,1.1030127,0.04008995,1.1131711,0.8434894,0.9399551,-0.32802883,-0.84132403,0.75116146,-0.9685054,0.8660147,-0.73048645,-0.481493,-0.34433916,-0.8085507,0.72730994,-0.87925315,-0.18765375,-0.5299513,-1.0872558,-0.44402727,1.1156772,1.0473263,0.35325053,0.40726772,-0.6928194,-1.705457
molecular_sequence,-1.7725935,0.93293244,0.5688129,-0.10037094,-0.68732494,-1.4568329,-0.8712735,-0.5678233,0.38598573,1.9934503,2.3213031,2.4718778,-0.8298575,0.5075352,-1.121888,-1.4496436,-1.4696546,1.0063108,-0.026440328,-0.9701918,1.6611223,-2.1347146,0.47661653,-0.10177874,0.25174797,-0.2414299,0.12502012,-0.3677254,-0.026049435,0.78727937,0.5243382,-0.0792748
natural_phenomenon_or_process,-0.94844335,1.8955809,-0.7464855,-0.61344737,-0.8738464,-0.14196375,1.3787177,1.3754562,0.49003428,0.60534877,1.4640794,0.91519034,-0.8463637,0.16604468,-1.4534541,-0.6055137,-0.6971129,-0.49724126,-0.2791379,-0.026675723,0.9368101,-0.75853574,0.7055366,0.31374553,-0.5377566,-0.77984685,0.18258896,1.1482421,0.20033869,1.2302165,0.25964287,-1.1176592
neoplastic_process,0.079608165,0.95551777,0.012715286,0.13473697,0.07338243,-1.0625004,0.11030322,0.7427069,0.5896148,0.3465137,0.79504824,0.5541557,-0.96247363,-0.3591357,-1.2704498,-0.009260489,-0.5503972,-0.9706928,0.078292735,0.88622195,0.60319096,-0.929232,0.46348232,0.15037614,-1.3567024,0.5427234,1.6829108,0.6865694,1.493852,-0.5193194,-1.2054914,-0.41385934
neuroreactive_substance_or_biogenic_amine,-0.5462952,1.101739,-0.0630693,1.2813095,-0.41884315,-0.88388526,0.19675252,0.5934155,-1.4659882,1.2383404,0.44795817,0.7866729,-0.46576643,0.32894084,1.5409305,-0.9827809,-0.306226,0.8435635,-0.10453511,-0.55491996,1.1722577,-0.8085236,-0.66815406,-0.015860341,-0.15024532,0.09918463,0.8451895,0.37209475,0.52621585,0.31306753,-0.82894474,-0.11624021
nucleic_acid_nucleoside_or_nucleotide,-0.46927208,1.3424251,-1.023855,1.2630165,1.1298844,-0.7204787,0.995805,0.9545694,-0.6286044,0.7316853,0.3629905,1.3649855,0.39506426,0.7607522,0.40635934,-0.5173984,-0.63442326,1.8118728,-0.58598995,1.0203953,1.7923894,-1.2785634,-0.7382927,0.10396564,-0.121915594,-1.4172379,0.19592845,0.19395572,0.44912827,1.4559358,-1.8002421,-0.06199143
nucleotide_sequence,-0.41762707,1.4092886,0.13262473,0.24971849,-1.138567,-1.4872667,-0.08444047,0.45350492,1.3033148,1.1913414,0.7922919,1.9988194,0.05581578,1.0032449,-1.0260408,-0.44998026,-1.0815454,1.8346237,0.048643745,0.7177107,1.4284234,-1.7739125,0.45676163,0.17344667,0.43576783,-1.2827895,0.43449506,0.5824143,-1.7485024,0.6605428,-2.2132182,-1.039032
occupation_or_discipline,0.27107176,0.40927804,-0.1477602,0.69188976,-0.761966,-1.6088591,-0.80072296,-0.017653076,0.1747295,0.93067604,-0.7687633,1.5454546,-0.64981246,0.4870929,-0.46547014,-1.7303982,-0.56537825,-0.5776505,0.36958024,-0.3321533,0.9452245,-0.87833744,0.40320644,-0.31111982,0.55544,-1.818602,0.7088607,-1.5770177,-0.88887644,-0.06321547,0.43020278,0.44330016
occupational_activity,-0.28039473,1.3539958,-0.5131463,0.3147997,-0.7607197,-0.36762077,-0.7921456,0.5768478,-0.18058616,1.4315199,1.9899321,0.49386194,1.6502843,-1.6913003,-0.08862146,-0.7227665,-1.2356806,0.5400711,1.0699037,-1.5622427,1.390579,-1.6034646,-0.4519437,-1.5460689,-0.15263698,-0.35609886,0.20465906,-1.1540809,-0.7409917,-0.6038465,-0.9754851,-0.2580913
organ_or_tissue_function,0.6127972,1.9814682,0.034237407,0.639385,-1.2784775,-0.3263076,0.92253476,0.4715879,1.6690143,0.69403064,0.430403,0.7690797,-0.51723814,0.62358516,-1.1199936,0.3652465,-0.83376884,-0.34598625,-0.20686609,-1.2221329,0.80240315,-0.52510965,0.9129696,0.28158745,-0.6158407,0.009780328,1.1771976,1.5477549,0.8398748,-0.2861239,-0.25951016,-1.7714604
organic_chemical,-1.1195744,1.3658499,-0.57959753,0.41404003,0.29247868,-0.18616064,0.7321823,0.7712516,-1.8199642,0.4114161,0.88546777,1.3572803,1.2203399,0.15696111,0.06607464,-1.0319185,-1.3450443,1.5641791,-0.2000752,0.7304895,1.5351592,-1.0778332,-1.3879814,1.1754248,0.086420625,-0.7155802,0.29566073,0.041675463,0.12135325,0.9936104,-0.89280486,0.24644719
organism,0.39690334,1.2010041,-0.7792325,0.036195606,-0.17966305,-0.6544278,0.42470664,-0.7537135,-1.800725,0.39199558,0.808492,0.36994556,0.099849716,-0.8595981,0.14149849,-1.7072979,0.14519273,0.32554048,0.4482099,-0.115070164,1.6557517,-1.6832112,-0.44888744,1.8242546,-1.4817481,-0.80147207,-0.08786131,-0.18084615,-1.3194908,-1.2086017,-1.3118911,-1.8193343
organism_attribute,-0.7624915,1.386106,0.44226176,-0.15363593,-0.0060856463,-1.6694686,0.14637348,0.37547418,-0.6166851,1.4175549,1.47315,1.8173606,1.4224114,0.87139815,-2.1585562,-1.46352,-1.5450597,-0.7158874,0.14389841,-0.5613294,1.2405893,-0.65282506,-0.77340084,0.6209223,0.19408365,0.03464752,0.9669358,-0.27706146,0.2995704,-1.42454,-0.5242229,-1.3586649
organism_function,0.8405942,1.7143173,0.34180063,-0.13502964,-0.24781087,-0.28500935,0.73491323,-0.11602034,1.3721652,0.8372573,1.1559325,0.1847955,-0.59514153,-1.0205828,-0.7218614,1.2464352,-0.6094986,-0.47479004,-0.030216256,-1.1305293,1.079002,-0.89010197,-0.04863247,0.73637795,-0.9326519,0.10351681,1.3284842,1.4296708,1.2582278,-0.3198357,-1.1482431,-1.753339
organization,-0.5664259,1.9035859,-0.18994772,0.34633732,0.3612198,-0.1543674,-1.0705539,-1.0289713,-0.21926971,0.9061248,0.20549408,1.075254,-0.070170514,0.52035826,0.010312915,-1.0362825,-1.6030409,0.43121526,-0.48514292,-0.18114571,1.1359781,-1.186558,0.6192844,1.9640548,1.2218838,-0.7701589,0.29648486,-1.0594484,-0.0031241823,-0.26785624,-0.423101,-0.4866277
organophosphorus_compound,-0.15718141,1.7192935,-0.8562658,1.1505471,0.25698268,-1.1122814,1.4853692,1.3004161,-1.5631979,1.0452775,0.09882247,1.2914742,-0.30967203,-0.21376315,0.39177105,-0.053668156,-0.7238023,1.9296451,-1.388511,0.8967317,1.3006315,-1.367327,-0.8022527,0.96320856,0.03176817,-1.1590543,1.1781095,-1.0297276,0.36536327,0.89200234,-1.3891361,0.77898556
pathologic_function,-0.53060085,1.1162817,0.27525288,0.43408084,0.69913995,-0.8009098,0.18016794,0.11190366,0.38080028,0.7157425,0.52911186,-0.010817828,-0.8069354,0.18243141,-1.3966378,-0.33979955,-1.24921,-0.97295296,0.4802984,1.1403748,0.7308304,-0.75789714,0.21535248,0.35866246,-1.9412823,0.5953722,1.4824654,0.72025967,1.315309,0.46384528,-1.5367537,-0.46250805
patient_or_disabled_group,-0.8967497,1.5214707,-0.94668674,-1.7200434,0.5642251,-1.1631914,-1.7480621,0.10085098,0.48117,0.7728681,0.09132272,0.79750496,-0.058401536,-1.03945,-0.2539914,-2.2987502,-1.4309886,0.030231336,1.1728839,0.5975189,1.3468287,-1.063962,1.0697294,1.3912038,0.051166203,-1.1605006,0.44148478,-0.23072034,0.623002,0.35740316,0.41497216,0.24030888
pharmacologic_substance,0.5441529,1.1266121,0.38482946,0.9730307,-0.64547807,-1.6250235,-0.0518495,0.9034874,-1.5288677,0.9207671,0.2895632,0.6112937,-0.5290379,-0.6380472,0.54603696,-0.7886705,-1.2832987,1.2461482,-0.3596476,0.6830574,1.1791475,-0.9930729,-0.32139742,-0.096970014,-0.3241613,-1.2137358,0.27720708,0.45767298,1.0052493,0.8376858,-0.61498666,-1.4553965
phenomenon_or_process,0.70730406,0.84817034,-0.23054112,-0.18805973,-0.43639418,-0.47812635,1.4157909,-0.83890855,0.08527117,-0.107393555,1.8524721,1.4474207,-0.8060411,-0.4281369,-1.2418969,-0.31920797,-3.4725597,-0.20638233,-0.6845131,-0.5060898,1.9956628,-1.9201075,-0.14414217,0.27747503,-0.8701254,-1.6798517,-0.050297692,0.3633363,1.3005817,-0.37999094,-0.98129445,-1.5289258
physical_object,0.16560495,0.8477475,0.4029679,0.063687526,-0.36903304,0.39117965,0.56661296,0.46205992,0.6781656,1.017604,1.7957778,1.9078033,0.051318154,0.20875624,0.98455614,-1.656808,-1.6341375,2.14769,-0.35984078,0.9534055,1.3396202,-1.5353059,1.0394949,0.18868957,-0.0041845217,0.35643306,-0.97592455,-0.58272463,-0.47290295,-0.35411963,0.027876446,-0.48049262
physiologic_function,-0.33743325,1.5321132,0.5886064,0.5436982,0.23126073,-0.368368,1.2253535,0.07853581,0.9981204,0.9336256,1.0135528,0.4043703,-0.98056114,-0.10497763,-1.1114609,1.3338552,-0.5547883,-0.71744984,0.034698952,-0.8116842,0.55196965,-1.7538931,0.81971264,0.61908436,-0.9297975,-0.23860075,1.0448958,0.6693699,1.0628866,0.2402047,-0.3058164,-1.6705536
plant,0.12640932,2.3295834,0.46660548,-0.82491976,1.3173693,0.20000662,0.3162109,-0.2565797,-1.0808314,0.8115911,1.3127867,0.7079218,0.7131115,0.52814794,1.0512674,-1.1175164,-0.23938516,-0.20889387,-0.23471902,0.66159075,1.7011802,-0.6056564,-0.3048606,1.1557007,-0.68982947,-1.6036453,0.9022709,0.63735485,-1.9062871,-1.7566004,0.09892779,-0.6297897
population_group,-0.8895294,1.6190408,-1.162838,-1.6590402,-0.28036985,-1.4697872,-1.5215224,-0.5742734,0.36743388,0.87371045,1.4889576,1.2914146,1.3714066,-0.4278213,-0.6411578,-1.0931892,-1.4761082,-0.34365276,1.4103831,0.1083572,1.2942983,-0.92669845,-0.25441962,1.0465213,0.53242666,-0.8008751,0.8739716,-0.9414032,2.0724118,0.29314417,0.16600306,-0.18916653
professional_or_occupational_group,-0.45800337,1.210775,-1.1001204,-1.6144636,0.2235228,-1.4933765,-0.91787404,0.5745064,-0.40380195,1.1199008,1.1929784,1.5481718,-0.09011155,-1.0515163,-0.8612936,-0.6975678,-0.8275424,-0.54562974,0.82978046,1.0018032,1.2921025,-0.6417966,2.1080587,1.0757433,0.65549076,-1.1599313,0.6613624,-0.8046978,1.3475678,-0.197326,-0.59819067,-0.051243752
professional_society,-1.0064088,0.69504225,0.41317493,0.3098623,0.6791539,-1.77819,-0.80523723,-0.27802074,0.22303063,1.3828403,0.590209,1.3178506,-1.0881294,0.81550646,0.010168531,-0.9581525,-1.9120765,-0.56680685,-0.30760604,0.18308493,1.5135515,-1.0983729,1.0101392,1.8036578,0.409883,0.16331752,0.65857315,-0.33278275,-1.1961561,-0.4336964,-0.5768454,-0.6611778
qualitative_concept,-0.3613063,1.4226933,1.3051451,1.0621606,-1.7707595,-1.2838805,-0.7795982,-1.3612958,0.24794088,1.1096212,1.3794544,1.4656136,-0.34309033,-0.17078695,-0.0061308723,-0.90708804,-1.4121546,-0.12085055,-1.7089418,0.95155126,1.3597076,-1.6503257,0.06078902,1.0685124,0.516133,-0.7847651,0.23475035,1.1990826,0.36180952,-0.29135096,-0.2422043,-0.52370286
quantitative_concept,-0.29549065,1.4049811,-0.14147332,0.24349372,0.14490052,-0.79688764,-0.10787848,0.6658162,-1.095556,1.1777123,0.949774,1.8988336,-0.76291347,-0.34194702,-0.7114574,-0.28133792,-0.43831286,0.8393112,-0.20511328,1.245354,1.8975227,-0.7262537,-0.8477365,1.2805508,0.57833695,-0.33970118,-0.045287244,-0.80560106,1.6957878,0.13115281,-1.4970626,-0.111240715
receptor,-0.25567904,0.62058187,-0.21341865,1.2117105,-0.380035,-0.80490917,0.18946147,0.44526517,-1.517326,1.0452436,0.19324695,1.1143454,-0.9243014,-0.42601147,0.8506933,-0.31608754,-0.37424633,0.7875236,-0.089906946,-0.05434487,1.3158638,-1.3297303,-0.68306905,-0.69381154,-0.42664438,-0.99994475,0.13656315,1.0368304,-0.3780646,0.55175817,-1.62275,-0.15094803
regulation_or_law,0.24659386,1.9043138,-0.11972,0.92541635,-1.2501509,-0.656029,-2.590058,0.09311296,0.04569252,1.330269,1.2038332,1.1235964,-0.75112516,0.124473065,0.47961557,0.71389544,-0.036962856,0.46537253,-0.9257426,-0.064058945,1.1392694,-1.3073835,-1.2735735,0.9486183,0.7429944,-0.9606953,0.35791865,-1.337558,-1.1621698,-0.35301885,-1.8723563,0.57155025
reptile,-0.33585736,2.0147114,-0.31646505,-0.86299247,-0.15196984,-1.2106879,-0.19365901,-1.1990927,-1.046167,1.3860267,0.68190634,0.42709404,0.07792247,-0.6383368,-0.04748399,-2.9048185,0.059662543,0.3469024,0.41583434,-0.41165674,1.0438898,-0.77438897,-0.59040797,0.93916833,-0.82356304,-1.5025704,0.63938504,0.203161,-0.35349563,-1.7054992,0.073892176,-0.3594065
research_activity,0.5673488,0.97064674,-0.3624049,-0.9601233,0.29492477,-0.7355873,-0.5849654,-0.3184407,-0.26509264,1.683523,1.9176084,1.4370918,0.09194444,0.6458314,-0.58743507,-0.45244953,-0.6745278,0.50451803,0.56483305,-1.777147,2.139404,-1.5206962,-0.39096925,-1.0056363,-0.9518307,-0.70983887,1.0006555,-0.9179828,-1.5555401,-0.8657003,-0.023807902,-0.0959181
research_device,-0.5787359,1.0694385,-0.5813378,-1.3503379,-0.8801354,-0.24574637,-0.255891,0.18601163,-0.9857505,2.1634576,0.58763665,0.24699955,-0.69530517,0.7910547,0.47689036,-0.17692573,-0.5150333,-0.731258,-1.0844297,0.82587004,0.9958241,-0.78122354,0.110362686,0.2921443,1.4048274,-2.0842257,0.3336111,-1.8784968,-0.5121473,0.060963698,-2.6075795,-0.5428832
rickettsia_or_chlamydia,-0.12018625,1.8861421,1.2255893,-0.8751684,0.12566389,-0.8268616,0.05983974,-0.5433771,-0.90365076,0.80959874,1.2240213,-0.36797005,0.071806334,0.86496174,0.29897168,-0.7965566,0.082645245,0.7453036,0.5262891,0.90515584,1.7186193,-0.2538989,-0.8463722,0.6655348,-0.9653459,-1.5189267,1.0133885,0.33078426,-1.4001707,-1.7667305,-0.7613613,-0.70020574
self_help_or_relief_organization,-1.3013084,1.4285685,-0.54437304,0.3350421,0.38298395,-1.4967926,-1.3034148,-0.93003696,-0.19772539,1.426573,0.5776645,-0.6448708,-0.5308707,0.05366759,-0.28744137,-0.99573237,-1.5902867,0.88115025,-0.09030147,-0.1950953,1.4618509,-1.183931,0.62407345,2.0246809,1.367023,-1.3432772,0.6509736,-0.82843167,-0.5255135,0.020168798,-1.2358513,-0.20155218
sign_or_symptom,0.109961264,1.5353506,-0.3645245,1.2250731,-0.9543896,-0.5933779,-0.5019887,-0.8180057,0.5290552,1.1869396,0.35968775,1.0612774,2.0044427,-0.19470686,-1.1099987,-1.2531141,-0.76210934,0.50915265,0.011697382,-0.7634597,1.4620591,-0.8792695,-0.32613847,0.2399816,-0.1774978,-0.49043489,1.1605047,-0.6292102,-1.0998524,-1.2623165,-0.1856525,0.46366066
social_behavior,-0.8921956,0.5748251,0.14419554,-0.18263856,0.3424891,0.10487639,-1.3319526,-0.549762,-0.1077065,2.4895175,1.0057075,0.0408504,-0.40787122,0.1637278,-0.55649084,0.14746112,-0.69442904,-0.2593267,1.1088561,-0.6503839,1.2400404,-1.0815914,0.5338952,-0.7881976,0.8809928,-0.568309,0.61973447,0.7740347,-0.19271891,0.25270575,-1.0402128,-0.57131714
spatial_concept,-1.0969855,1.6871425,-0.4670111,0.8513983,-0.6438007,0.0020606038,0.46458074,-0.340735,0.46620747,1.8339415,1.683126,1.4778233,0.39466172,1.6275913,-0.8131081,-0.7904224,-0.6736086,1.489539,-0.1631943,-1.0344486,1.094063,-1.6180022,-0.7966043,0.5700389,0.71966994,-0.71630573,-0.52361685,-0.38883993,-1.2503545,0.6117017,-1.1124567,-1.2096046
steroid,-0.72502375,1.4987644,-0.85636854,1.2986959,0.29084873,-0.77723515,0.6277374,1.2869132,-1.3095263,1.1257081,0.17385529,1.6913463,0.57710904,-0.40944663,0.40122223,-0.8664797,-0.3525532,1.5413198,0.1946402,1.2398512,1.3495983,-0.95053184,-0.84661865,-0.13818139,0.37766704,-1.2052534,0.41698182,0.5041375,-0.24062963,1.0043392,-1.550772,0.07386037
substance,0.058819585,1.6838812,0.65094084,0.3779687,-0.114613354,0.57843196,0.11252947,-1.1240679,0.2890732,1.8294231,0.9177976,1.6508883,-0.057176806,0.2614772,1.091431,-1.8839123,-2.1330206,2.0575504,-1.3381964,0.47571713,1.1135923,-1.6581455,-2.3631883,0.47306657,0.23002216,-0.701018,-0.13690048,0.28886005,0.4013221,0.9336551,-0.36763683,-0.33306333
temporal_concept,-0.30117637,0.74265134,0.47868222,-0.6372001,-1.3099043,-1.8163797,-0.11747122,0.06648572,0.5145899,0.6412841,1.1165857,1.5382979,0.25448063,-0.22080965,-0.37890273,0.65749055,-0.50346744,0.27805266,0.63864446,-1.1946778,1.8225902,-0.81569374,0.33740395,1.1371478,0.47665313,-0.5430295,0.39332935,0.6878168,1.4026078,-0.46770722,-1.4113287,0.8406725
therapeutic_or_preventive_procedure,0.26040125,0.60371184,-0.66827965,-0.52166426,0.0004250491,0.032068398,-0.68091345,0.39294666,-0.99106205,1.1770635,0.49274942,0.39261046,-0.98324245,-1.9751307,-0.32437685,-0.26492175,-0.8714968,0.7058947,0.9046984,-1.3560835,1.7988598,-1.073614,0.039694883,-1.0169818,-0.7828516,-1.2141403,1.1371573,-0.7851127,-0.059960783,0.08419271,-0.09176336,-1.2265512
tissue,-0.020057844,0.9526915,-1.3014938,0.42662537,-1.4177741,-1.6609647,0.54909486,-2.5330718,1.6514806,1.6446911,0.6947237,0.61197215,0.13786691,0.38615516,0.03049121,0.36972094,-0.7286962,0.03333966,-1.0155913,0.32150927,1.2147908,-1.6060746,0.20392662,-0.23581856,1.7279803,-0.30102125,1.2217938,0.56151086,-0.31579137,-0.5588016,-0.5645419,-0.4942424
vertebrate,-0.58257353,1.5189849,-1.0768591,-0.35539207,-0.33825094,-0.6978895,0.7212264,-0.29298168,-1.2933803,-0.46718267,0.9932616,1.2632868,0.2886413,-0.7155763,0.19223018,-1.7556475,-0.028786654,0.5136542,1.2857242,0.021601763,2.155669,-1.194845,-0.7957734,1.640556,-1.6263424,-1.083205,0.5205649,-0.17713478,-0.841081,-1.3254234,-0.025765749,-0.7137829
virus,-0.051679537,1.3766121,0.08110581,-1.0343767,0.19027625,-1.5691538,0.5781171,-1.5209827,-0.15474413,1.3413657,1.6627635,-0.57387817,0.32297423,0.9674738,0.47624904,-0.5349001,-0.29006374,0.80632365,0.45299354,0.48902106,1.7876859,0.3007478,-0.24603303,0.6320731,-1.1041615,-1.8842647,0.8396684,-0.42651024,-1.5532534,-1.6089051,-0.26533777,-0.48906136
vitamin,0.13367216,0.903795,-0.37904674,1.5208226,-0.67692345,-0.7459457,0.62351507,0.43427157,-1.5854524,1.010159,0.4334478,1.881202,-0.83351296,0.07154946,0.6110544,-0.62838274,-0.5361805,0.47930703,0.07324816,0.8710927,1.4308429,-0.71373177,0.02169149,-0.22669451,-0.32148787,-0.53711075,0.84882814,0.29871023,0.49648362,0.6639205,-1.2148837,-0.31717682
