,0,1,2,3,4,5,6,7,8,9,10,11,12,13,14,15,16,17,18,19,20,21,22,23,24,25,26,27,28,29,30,31
acquired_abnormality,0.8157977,-0.41092125,1.4772573,-0.09749478,-0.3137507,-0.43890443,1.1291639,0.53583664,0.9641583,-1.4626428,0.06564925,-1.0193208,1.556828,-0.9331366,0.37231117,-0.4722219,0.3685322,-0.3297423,-0.51398075,0.9929927,-0.9213079,-0.55183274,1.5077658,-0.8949221,0.049253393,-0.6319243,-0.25438267,0.62493783,0.6247731,-1.2758942,-0.3658574,0.2644184
activity,1.3141426,-0.2554106,-0.32383052,0.13272248,-2.398868,-1.8868265,-0.07864519,0.078379914,1.2726556,0.16500098,0.0004783771,0.048993364,0.8071965,-0.88826233,0.050164916,0.9685869,-0.43025735,1.5874124,-0.45803493,0.28583398,-2.189208,-0.5166909,1.4184184,-0.10209639,-0.7885772,0.50910425,1.1116968,0.5245278,-1.2547464,-0.3360717,-0.64696264,-0.83875304
age_group,1.1718632,-0.9898177,-0.8249039,-1.9243191,-0.66354847,-1.7065015,0.4755091,-0.80795145,1.6862298,0.01296779,-1.2358164,0.3228203,-0.6125352,-0.7894168,-0.4983598,-0.5144738,0.75912124,1.9140885,0.007055629,0.8905164,-0.21489039,0.09145747,1.541967,-1.1388568,-0.11530066,-0.36782488,0.36041194,0.017638527,0.3640409,-0.7833362,-0.26394635,0.46345073
alga,0.79385334,-0.017237388,0.38164088,0.18752135,-0.31508547,-0.35391814,0.37976408,1.6801853,1.4792182,0.06338741,-0.4178149,0.28225598,0.19690895,0.0020896818,-0.34870926,-1.21671,0.7935278,1.757764,0.144934,-0.49446812,-0.057566606,-0.2556319,1.8858937,0.96226954,0.112452075,0.15512231,1.4845216,-0.001628961,0.9564915,-1.3261766,0.40623602,-0.15975167
amino_acid_peptide_or_protein,0.55160564,-0.5720274,0.7376871,0.32367697,-0.6430693,-1.5638312,0.20560886,0.07551702,1.5239962,-1.483174,-1.0585592,-0.33800873,0.20718934,0.5660757,0.05717852,1.4152294,0.64092064,1.279097,0.5551348,0.98396283,-1.0907165,-0.59626675,1.7368766,0.7431114,-0.48221448,1.6613876,0.3534065,1.4481453,0.7144297,-1.2889595,-0.25360113,0.86462814
amino_acid_sequence,1.2090472,-0.7747392,-1.0495818,-0.018180152,-0.9522641,-0.5220065,0.020817779,0.3681446,1.8186861,-0.8155698,-1.6818116,-0.47111958,0.95708275,-0.39646024,0.6692883,0.49704447,0.27216798,0.938962,0.95274776,0.5782868,-0.9058565,0.2407272,1.4914865,0.92003226,-1.2733154,0.91652924,-0.48618913,0.33743265,0.63914174,-1.4752129,0.6443701,-0.46367508
amphibian,-0.039228614,-0.9792977,0.250784,0.5452456,-1.4359863,-0.17973125,0.4261349,1.8959358,1.6013101,0.076936334,-0.24942012,-0.33675998,-0.19720198,0.54683506,0.49810869,-0.7239094,0.45703632,1.8699248,1.0167156,-0.17979895,-0.44410875,-0.34252533,1.6165226,0.9575507,-0.5475599,0.05981204,0.5255165,0.46885252,1.1381269,-1.6480027,-1.5300549,-0.123207614
anatomical_abnormality,0.7573498,0.11945996,1.6920493,0.3740453,-0.23220895,-0.22267537,1.162392,0.5712635,1.1684058,-1.8626633,-0.04835842,-0.414561,1.5943793,-1.2286437,0.1596558,-0.08773421,-0.12159554,0.04074502,-0.32098886,1.1606152,-0.9669435,-0.83993566,1.4393444,-0.7920888,0.018103844,-0.5586205,-0.4310332,0.79014164,0.68539894,-1.228207,-0.006652005,0.16695805
anatomical_structure,1.5271102,-0.76257545,0.22793087,-0.37422085,-1.5002134,-0.24302275,0.3852344,0.08881092,1.5907055,-0.48386413,-0.36453134,0.20064816,0.64470077,-0.77322185,-0.10902507,-0.22623406,1.1037362,0.70187664,0.16323933,0.04189712,-1.0008515,-0.025498366,1.9115069,-2.1360476,-0.018455347,0.65669763,0.46087113,-0.3150996,1.1385652,0.0041306005,-0.14926791,1.2602739
animal,0.94431806,-1.3188258,0.32470608,0.09850226,-1.5934808,-0.24317141,0.4865256,1.8827833,1.5527492,0.0810307,-0.010478271,-0.3742968,-0.23208329,-0.15042531,-0.9616297,-0.8254719,0.22198486,1.3662077,0.6946388,-0.43980038,-0.55518633,-0.89948535,1.5808161,1.1976993,0.19126852,-0.52718943,1.993568,0.19079755,1.5957047,-1.6410227,-0.7228353,-0.5851884
antibiotic,1.2893091,-0.81528914,-0.46128017,0.25549418,-0.64106476,0.24176374,0.46050072,0.61140436,1.0712004,-1.3417016,-0.020178873,-0.042235725,-0.10103284,0.0038660592,0.7777893,0.90421706,0.32346627,0.81618154,-0.103193894,1.1670374,-0.6276196,-0.417912,1.486546,-0.53034943,-0.7171456,0.6909095,0.4211766,0.7322864,0.23573722,-0.74686253,-0.4303054,0.70529175
archaeon,0.0065705217,-1.5344219,-0.19377154,1.709133,-0.6357351,-0.2999785,0.047974657,1.6583328,1.6603202,1.3283495,-1.1009262,1.0086079,-0.1701125,0.6799082,0.17889126,-0.5073664,-0.23276317,1.4675164,1.1551646,-0.23659477,-1.1044979,-0.3363025,1.9921628,0.20002736,-0.35564396,-0.4331624,0.8847889,0.19696414,0.5494444,-1.2633162,0.9402631,-0.43400252
bacterium,0.45456046,-0.07180417,0.22528988,0.5072483,-0.1506367,-0.614816,0.1625237,1.1725605,1.336809,-0.8690484,0.19807795,-0.065723754,-0.24967301,0.035266206,-1.8507476,-0.54526186,-0.33633336,1.7883203,0.3529428,0.6168393,-0.87218046,-0.8037999,1.7319697,1.5609398,-0.08677762,-0.22897105,1.18709,0.24812117,1.5091367,-1.454126,2.2169104,-0.8040039
behavior,1.1524988,0.18943739,-0.4239534,0.9446966,-1.2982585,0.082321666,-0.33903766,-0.10455154,1.3346876,0.0945597,-0.60948616,-0.71548545,1.4858812,-1.3187504,-0.76543725,0.51634884,-0.13966903,-0.06674202,-0.19125679,0.84094137,-1.141076,-1.2401286,1.2825737,0.32159472,-0.40933892,-0.71880907,0.23739585,-0.089577146,-1.4266971,-0.45046967,0.5710023,-0.47079623
biologic_function,0.15403174,-0.4875987,0.07217449,0.54254067,0.261245,0.064560354,0.1264298,1.1615578,1.5484445,-0.95575,-1.1700306,-0.751898,1.7368969,-0.8954285,-0.3021497,-0.18355483,0.06446159,-0.37158695,-1.6557462,-0.20190649,-1.2572011,-1.1250181,1.8311361,0.434746,-0.3640983,-0.075608626,0.8520402,0.32157314,1.8831868,-0.7351329,0.3088056,1.067705
biologically_active_substance,0.6155345,-1.595809,0.12908694,-0.50318503,-1.3420755,-0.9869485,0.39800766,1.213185,1.0603148,-0.6887383,0.27530366,0.30595213,-0.78774786,0.5633733,0.62805766,1.9536089,0.044968713,0.5371685,-0.19567542,0.93648714,-1.0480295,-0.44590163,2.181731,-1.3955414,-0.4039786,0.4894453,-0.52477866,0.59626985,1.0746104,-1.5424565,0.29012093,0.4971977
biomedical_occupation_or_discipline,-0.5091411,-0.5924803,0.4684377,0.44972524,0.084695235,-0.70413953,1.3323404,-0.13364613,1.0213647,-0.015452285,0.024028089,-1.0200498,-0.5025702,-0.83269376,-1.2585485,-0.7183011,0.88309634,2.06204,-0.08741053,0.4578969,0.9559719,-0.049703028,1.2351481,-0.4706417,-1.0670488,1.1694765,1.748145,0.9503822,0.592984,0.8478705,0.14477058,0.38517115
biomedical_or_dental_material,0.7269804,-1.3908086,0.4064702,-0.43214008,-0.58413,-0.7749637,0.36768928,0.23929827,1.9577515,-2.0306315,-0.5531273,0.1968046,0.02496608,0.0967384,0.22850347,1.2498828,0.19588354,2.2007632,-0.088828966,1.287321,-0.34958002,-1.4783939,1.579519,-0.9558046,-1.135193,0.7141162,0.6896607,0.97055054,0.25007093,-0.57702875,0.20928214,0.5094781
bird,0.4039871,-1.2070999,1.245099,1.0402287,-0.76347107,-0.56833935,0.346995,1.8015894,1.5754312,0.023511065,-0.6984713,-0.36196372,-0.39698172,0.3815849,0.4189949,-0.60826474,0.7126543,1.553229,0.8145633,0.26889765,-0.7817008,0.3726563,1.3564707,0.6170995,-0.61306083,-0.45423633,0.6029116,0.657223,1.0382661,-1.8822061,0.21506299,0.049303256
body_location_or_region,0.13518284,-1.1246355,-0.64296544,0.5752262,-1.4189496,-0.46330324,0.83973277,0.4923298,1.4356412,-0.7051949,-0.4196078,0.53125125,0.42965522,-0.75154126,0.3583222,0.5918513,0.1705023,0.2526404,0.28698775,-0.26739195,-2.2846534,-0.1057088,1.5831827,0.5124533,-0.64651185,1.0174768,0.7562755,0.4754502,0.20802008,-1.425875,0.5635067,-1.1339462
body_part_organ_or_organ_component,0.121703535,-0.39947698,0.06380086,0.14418933,-0.9073625,-0.64947516,0.15357365,0.2726782,1.3087456,-0.85193866,-1.2667373,-0.57574075,0.604021,-0.62634295,-0.9800197,-0.114632756,1.1059349,0.8765373,0.36464313,0.10775304,-0.4243457,0.10195923,1.3554643,-1.8000572,0.11661334,0.967132,0.0872554,-0.0096644,-0.0009690198,-1.8825228,-0.2113429,1.3261148
body_space_or_junction,-0.16925043,-0.99559945,-0.13858926,-0.20356506,-1.8468977,-0.49325368,1.0505817,-0.66567904,0.9384158,-0.14055808,-0.3247702,0.57280856,0.71557367,-0.5017868,0.34725332,-0.2298018,0.49723232,-0.23332392,0.61472106,-0.05407349,-0.89646006,-1.5597957,1.8503602,1.2227073,-0.6849432,1.0124782,0.43401533,0.8371791,0.1789211,-1.145844,0.7309384,-0.23103862
body_substance,0.19039625,-0.42811236,-0.2947206,0.4450731,-0.26222405,-0.39029774,0.66334045,0.046874933,0.28214353,-0.6354887,-0.17515582,-0.09577602,-1.1310753,-0.20402977,1.0955975,1.0554861,0.5195965,0.90208817,-0.83572,1.9442704,-0.52894914,-0.14368005,2.2811534,0.14300016,0.23287848,1.507579,0.55318373,1.3786103,-0.03332766,-2.0931234,-0.25819722,-0.25354144
body_system,0.57150257,-1.2144939,-0.095182635,0.24234024,-0.5715051,-0.27681825,-0.22050472,0.32477286,1.2889661,-0.5842883,-0.9469325,-0.65289897,0.12027418,-1.4000086,-0.22228466,0.07699462,0.36564246,1.3420907,1.5843915,-0.4714845,-1.5692781,0.19235149,1.3453027,0.048495494,-1.5220184,1.115162,1.3596305,1.6214291,0.052227046,-1.4887154,0.7050074,0.21933542
carbohydrate,0.33215103,-0.65135807,-0.8396059,0.28155485,-0.45039004,-0.6812095,0.15670206,0.29817435,1.8655183,-1.6046897,-0.36668977,-0.22862372,0.1454288,0.20257945,1.5532961,1.9778423,0.9633671,0.5753645,-0.37615174,1.3652502,-0.73960394,-0.5630212,1.4900124,0.3879504,-0.6668093,0.6085843,0.5147579,1.3185331,0.40116158,-1.3153498,0.021903973,0.6474706
carbohydrate_sequence,1.2967287,-0.90575594,-0.16681567,-0.5472632,-1.0710237,-0.19330937,0.5556259,0.74715567,1.7457012,-0.7537969,-1.3215709,-0.4511605,-0.17824057,-0.5017209,0.7504355,1.528436,0.33625177,0.72063106,0.599669,-0.5773955,-1.323008,0.39045322,1.6976945,0.6795427,-1.064761,1.0390644,0.03984497,0.5063486,0.42732382,-1.3099773,0.11118167,-0.28475356
cell,0.05474663,-0.7417174,-0.11313539,0.43556178,-0.8612095,-0.9995566,0.072316416,-0.13660552,1.4395956,-0.93147355,-0.6309463,-0.7557643,0.6801296,-0.8046856,-0.67782676,0.08479757,1.2825522,0.70622945,0.34824342,0.9302591,-0.4836955,-0.8534045,1.0246829,-1.647499,0.26266113,0.6371539,0.6570344,1.3558692,-0.4616717,-1.5136279,-0.3244034,0.5573305
cell_component,0.120116144,-0.048681557,0.5534431,0.27358103,-0.7793471,-0.4089569,0.28402412,-0.29763868,1.5876987,-0.79633373,-0.31902033,-0.7146791,0.19744034,-1.0647945,-1.2376552,0.562782,1.0240034,0.93015575,-0.8788884,0.74276215,-0.8956423,-0.39431417,0.92079693,-1.3936181,-0.61098343,1.1790067,-0.32385364,0.25928634,-0.034981508,-2.101732,0.79598176,0.5596526
cell_function,-0.6903725,-0.75636035,0.061009355,0.38863805,0.000757015,0.26130012,-0.33337528,1.1430107,1.6270063,-1.147226,-0.5598339,0.18177994,1.668343,-0.89856756,0.247084,-0.7321604,0.4965212,-0.41779113,-0.22425976,1.1116621,-0.27137384,-1.367269,1.5007371,0.051508974,-0.029169593,-0.20095043,0.07971455,0.23773393,1.5257202,-0.99379355,0.10538736,0.38523003
cell_or_molecular_dysfunction,0.18692258,-0.11936488,0.13890393,0.49661368,0.12634589,-0.27483687,0.670981,0.59341127,1.4671601,-1.0467434,-1.2754009,-0.32267168,1.7578938,-0.9185038,1.0420028,-0.16857298,-0.30436888,-0.5194889,-0.50704896,0.8353256,-0.7888514,-0.2509572,1.1869189,0.8481456,-0.10605743,-0.5794874,-0.25485146,0.5935889,1.6701424,-1.3408266,0.5709536,1.1927664
chemical,0.3123843,-1.0735235,-0.57847285,0.15178506,-1.8104292,-1.2523093,0.017227527,0.7059363,1.0934873,-0.8792158,-0.8521412,0.41583312,-0.13537839,-0.5365326,0.42890427,2.1331942,-0.22261582,0.05740605,-0.26953313,-0.75373346,-0.26698154,-0.9429563,2.2643838,-0.010377695,-1.1052938,0.36415675,1.9500762,-0.023950676,-0.35230744,-0.71921766,-0.21452378,2.418268
chemical_viewed_functionally,1.2722405,-1.1333834,-0.16053583,0.36641002,-1.2240771,-0.5554774,0.07503633,1.331517,1.5634696,-0.52995527,-0.5788738,-0.19068322,-0.451213,-0.1237185,0.098886564,1.5773015,0.41579437,0.82219666,0.022227285,0.4221141,-0.43996927,-0.6425553,1.5671294,-0.3462128,0.13165998,0.65150994,0.17303914,0.21022132,0.5273248,-0.63486874,0.18110737,1.2354555
chemical_viewed_structurally,0.9661184,-0.69941616,0.17985898,-0.64075637,0.29333222,-1.3440661,0.07113788,-0.30479896,1.595065,-0.022616133,-0.84580165,0.371294,-0.1441366,-1.4159428,0.7529522,2.5869353,0.9667621,0.7194957,-0.69737655,-0.10538367,-0.9968035,-0.6087107,1.99822,0.33019546,-0.09356622,1.4968928,2.2927434,0.54130054,0.67771727,-1.7771785,0.9725989,1.4853544
classification,1.2602805,-1.2390592,-0.19672108,-0.096041866,-1.0616678,0.2646259,0.65569824,1.0979898,1.917722,-1.162497,1.8635389,0.9984174,0.6787792,-0.13255352,0.3303203,0.26812544,2.1767209,0.0025827247,0.6162142,0.104102485,-1.5363691,-0.11647243,1.7705376,0.65519136,-0.74505013,-0.41491136,0.8338574,0.64151007,-0.62856907,-0.22124262,-0.19452393,0.11062198
clinical_attribute,1.006254,-1.374397,-0.2361862,0.8279244,-0.28594518,-1.7912394,0.75380194,0.046719335,1.1393145,0.80546564,0.36433196,-0.3862226,0.03129319,-0.71444505,0.13775767,-0.7176844,-0.35934862,0.34015018,-0.5777581,1.0711491,-1.3132272,0.026043821,1.6321803,1.0753158,-0.92173654,-0.7181991,-0.24972357,0.3472853,1.8840834,-1.7662367,-0.17247438,1.0328504
clinical_drug,0.44478115,-0.36316797,-0.5843362,-0.70793843,-2.3982623,-1.3573226,-0.11804361,-0.06542764,1.8990712,0.24183227,0.280204,0.12458036,-0.070087954,0.11267471,0.30502614,0.75661874,1.9662497,-1.2218965,1.222495,0.121066995,-0.44430023,-0.009723563,1.5084932,-0.59187967,-0.6754456,0.51930976,2.9006212,0.8423751,-0.36128435,-1.2092993,-0.3139724,-0.4610379
conceptual_entity,0.8586453,-0.832638,-2.287763,1.4160508,-2.6491373,-0.25732574,-0.8837786,0.2994167,1.7011347,0.19188124,-1.1316837,-0.4256369,-0.50057113,-0.47695175,0.23034889,-0.74491644,0.19963896,0.75603306,0.1492607,-0.020005953,-0.87870955,-0.16411044,1.7113541,-0.77353144,0.5918948,0.43087927,1.5493903,0.42043912,-0.07230566,-0.12718639,1.5073119,-0.7817743
congenital_abnormality,0.5238321,0.13063438,1.1729264,0.039990034,-0.19998446,-0.18060942,1.1241789,0.08866667,1.015335,-1.629075,0.08671468,-0.53520876,1.322145,-1.3243458,-0.044473056,-0.04540512,-0.63991416,0.28047597,-0.8678719,1.1172236,-1.3288327,-0.20631883,1.4270443,-0.79109824,-0.13675417,-0.68675727,-0.37758428,-0.065707274,0.6775067,-1.0503017,0.51295936,0.38132042
daily_or_recreational_activity,2.3909352,0.3464364,0.39731947,0.51766133,-1.2108455,-0.010466669,0.4870443,-0.09231634,1.9644122,-0.35106403,-0.48335528,-0.454789,0.30629408,-1.6688917,0.5202107,0.4875727,1.3780285,0.037958972,0.20915581,0.6276086,-1.9725654,-1.3242809,2.221571,0.19680841,-0.020730963,0.2873263,1.2298527,0.9943438,0.101330146,-0.710833,0.8770913,-0.6500047
diagnostic_procedure,-0.046152584,0.31638008,-1.108272,0.38671085,0.583425,-0.7789371,0.51571906,-0.4643715,1.3226467,-1.5790706,0.11417211,0.042101678,0.6778544,-1.1245232,1.5395603,1.0972267,0.18520546,1.6830496,0.3894044,0.5872361,-1.9562309,-0.94156164,1.5108985,0.35221156,-0.13519932,0.6057859,0.35499468,-0.027347198,-0.15529525,-0.6903946,-0.14159316,0.33592063
disease_or_syndrome,0.5299321,-0.08721084,0.40566725,-0.10280541,-0.09328629,-0.2180622,0.5342501,0.6135014,1.2835878,-1.1356984,-1.2693722,0.15455356,1.4500499,-0.476289,0.0033108094,-0.23878135,-0.1258739,-0.5382671,-0.67629683,1.058172,-0.6266774,-0.13373582,1.1653937,0.8834152,-0.13357578,-0.6585002,-0.083213374,-0.29415548,1.0943956,-1.0612563,0.7246474,1.0238405
drug_delivery_device,1.9604332,-0.6731788,0.32288647,-0.40136153,-1.0726249,-0.19509302,0.39384267,0.6324532,1.4936178,-0.49818614,-0.22952075,0.5702801,-0.40779114,-0.038262587,0.636855,0.14892869,1.7788322,0.68374765,-0.22981466,-0.7523734,-2.0547004,0.24811442,1.9988492,1.0363902,-0.958227,0.8906039,1.8658783,-1.5549808,-0.37698063,-0.36515352,1.0296013,0.1377369
educational_activity,1.0381894,0.3072634,-0.2019665,-0.30017504,0.013292519,-0.8849638,0.26809055,0.855235,1.2206811,-1.6864929,-0.28181237,0.13201812,-0.10188511,-1.6632327,-0.13397144,1.1727856,0.68595815,0.66785353,0.49542385,0.48959514,-1.4009644,-0.8353147,1.8438503,-0.67226845,0.014481199,0.7830395,0.2859807,1.0047885,-0.83084816,-0.74001735,0.7992141,0.035565928
eicosanoid,0.6486455,-1.3349532,0.13793829,0.36743858,-0.8133104,-0.19556418,0.7908019,0.17572793,1.3182669,-1.4146909,-0.086611204,-0.35675108,-0.23479159,0.30290687,-1.7515745,1.9059575,0.9287802,1.0445771,-1.1489229,0.9536926,-1.0251257,-0.23272948,2.1530752,0.3610026,-0.763524,0.9242243,0.92985463,0.3239101,0.7598778,-0.5534876,-0.07641977,0.7575572
element_ion_or_isotope,0.5499776,-0.5743093,-0.38420096,0.18441148,-1.0445019,-0.77673787,0.3352549,1.2105405,1.6505792,-1.6124557,-2.207861,0.35598323,-0.28290823,-0.28695092,-0.21767038,1.5361042,0.42969748,2.0335622,-0.72374994,0.467186,0.06958598,-1.3615372,1.8844304,-0.20510708,-0.60596657,0.76348096,0.17981927,0.418501,0.11060835,-0.80661094,-0.42993504,0.91124505
embryonic_structure,-0.1591673,-0.7615257,0.82325965,-0.34200895,-0.9326797,-1.2562426,0.18632562,-0.48259094,1.397942,-1.6118072,-0.21055315,-1.0137795,0.13217087,-0.91835296,-0.24436925,0.29880446,0.77546716,1.6460019,0.38196704,0.7852051,-0.8113786,-1.0855007,1.0095853,-0.9295727,-0.5387546,0.9899204,0.63849753,-0.24546283,0.7630965,-1.7376882,0.3056561,0.86581665
entity,1.3100893,-0.69267964,-0.5523716,0.7496854,-2.1123843,-1.2111033,-0.4393671,0.6763503,1.7948067,0.18317378,-0.25877655,-0.7730528,-0.53622055,-1.4254557,0.10542603,-0.5798388,0.49246308,0.26177776,1.1816475,-0.012395027,-0.028926944,0.80576944,1.2287214,-0.675641,0.125127,0.27951112,3.4905467,-1.2463039,0.35023558,-0.4051105,1.0052017,0.4749055
environmental_effect_of_humans,0.5902889,-1.0901653,-0.08699704,0.05833341,-0.10205306,-0.4270518,-0.09367535,-0.7879896,0.7349678,-0.34978226,-0.47754073,-0.3941868,1.4064754,-1.6832039,0.5786484,0.10053572,1.3574117,0.8579153,-0.17374726,-0.3007603,-1.2726064,-0.27166986,2.0341046,-0.09010326,0.011797296,0.65167004,0.5103174,0.4438018,1.1100146,-2.5805771,0.5461342,-0.04989949
enzyme,0.89574426,-0.9349858,-0.57107013,-0.8595456,-0.74315,-0.92375016,0.58549297,0.2514305,1.0983166,-1.0784513,0.33700278,0.38984987,-1.2396873,-0.043547243,0.8995662,1.9043736,0.2965676,0.39911228,-0.081209645,1.1373808,-0.8764615,-0.7764795,1.8990475,-0.69233114,-0.5060784,0.27242267,0.6595799,0.9508433,1.0817118,-0.93625534,-0.31415433,0.9262795
event,0.5038074,0.2444019,0.29320797,-0.034570552,-2.3647916,-3.5156052,0.7328406,0.102873415,1.3521742,-0.32474655,-0.42780703,-0.7054959,0.7022036,0.33910775,-0.58826625,-0.07609358,-1.2067388,1.328874,-0.8037284,-0.26086384,-1.703443,-0.018666,1.7195716,0.7165476,-0.07751075,0.65326226,2.3346732,-0.18349974,0.31451818,0.686013,0.076325305,0.19117157
experimental_model_of_disease,0.33948687,-0.2927906,0.25686333,0.6013015,-0.2944128,-0.035255976,0.7086792,0.65476674,1.6021913,-1.0084499,-0.75617975,-0.37503037,1.2966225,-0.6959193,0.39807194,-0.24018273,0.19892783,-0.21989726,-1.2214365,0.805113,-0.20221482,-0.44936964,1.0325145,0.35996792,-0.011043841,-0.99336743,-0.81468236,0.14022227,1.4537939,-0.7944156,-0.12642783,0.35403252
family_group,1.0675254,-0.5703554,0.22635575,-0.83433664,-0.46339524,-1.5131847,0.59862554,-0.5327469,0.9285063,-0.08238088,-0.5714002,0.6605152,-0.32821774,-0.6451868,-0.8641921,-0.45685774,0.97134364,1.5398322,0.44089958,1.5091963,-0.16069642,-0.72639745,1.2707429,-0.9794064,-0.36859733,-0.33536655,0.6822117,-1.6932826,0.8617399,-0.99616486,0.6090949,0.31106433
finding,0.6402543,-0.7817877,0.096453376,0.38235527,-1.6455573,-0.04953972,0.24817681,0.030804118,1.3578211,-0.79995036,-1.7862973,0.18137029,0.75892323,-0.55013984,-0.028666154,0.44447535,1.3282062,1.3614752,-0.10541715,0.07950927,-0.4823835,0.2382651,1.6437124,0.40957043,0.5104576,0.11752094,1.269901,-0.42393586,0.06160123,-0.8088818,-0.3791095,0.6510983
fish,0.6149486,-0.086396135,-0.21977195,0.46636224,-1.3231928,-0.50552756,0.148357,1.6526155,1.7312155,0.6315221,-0.70346874,-0.11120433,-0.40224373,0.8325553,-0.022464674,-0.4739281,0.14193054,1.9822989,0.9679114,0.86186475,-1.0520284,-0.10671109,1.9032447,1.1643412,0.028166194,-0.61092603,0.6501293,0.49799255,1.2269909,-1.0762392,0.53207195,-0.36676478
food,1.6817274,-0.37237749,-0.25991094,0.36813807,-0.18507671,-0.6343223,0.4184016,0.48348677,1.41904,-1.5698963,-0.016647339,-0.34221599,0.5794013,-0.40301967,1.1247822,0.8422172,0.84931725,1.052188,0.50817597,1.0788746,-0.97618014,-0.59109294,1.9770725,-0.43489254,-1.5845046,1.1308454,0.33981818,-0.5142545,0.864365,-1.4755695,-0.17447017,0.6388648
fully_formed_anatomical_structure,0.2500499,-0.082205,1.0133122,-0.12683122,-0.032793507,-0.9977424,-0.3398839,0.3185424,1.4929035,-0.40757364,-1.0738009,-0.6335746,0.59933585,-0.6660221,0.093731,0.10533655,1.4938115,1.1827164,-0.29877076,0.08988996,-0.57215196,-0.35078523,1.1976249,-0.8195944,-0.07075446,0.9582423,0.63500804,-0.2087905,-0.099012926,-0.74266493,-0.10188269,0.9901677
functional_concept,1.4708298,-1.4368647,-0.0253111,0.8278948,-0.9474795,-0.73278296,-0.061751682,0.44010118,1.4103309,-0.8603296,-0.45497638,-1.1184651,-0.17522576,-1.1236002,0.07579772,0.14586082,0.39638695,0.083477944,1.946756,1.3288757,-1.3959134,0.07068716,1.852103,-0.41541147,-0.094551936,-0.41055393,0.22931078,1.1939106,-0.03230487,-1.7203989,-0.46269923,-0.07552889
fungus,0.5962233,0.46550268,0.97686255,0.2781607,-0.19754882,-0.8602021,-0.0009477481,0.64486694,1.7345192,-0.35231003,-0.065415494,-0.1902291,-0.03252021,-0.13940467,0.34972256,-0.8501949,-0.22437985,2.1074555,0.88554883,0.62862366,-0.5918522,-1.031698,1.5123519,1.9951478,0.24022928,-0.19018067,1.2928047,-0.0009943647,1.703627,-1.9702057,-0.41730556,-0.3474765
gene_or_genome,-0.36105916,-0.2679782,0.021328008,-0.04039906,-0.7371751,-0.3768226,0.35432923,-0.43063313,1.9044647,-0.5366821,-0.8888308,-0.016443519,0.7035476,-0.6682416,0.32345042,0.048722453,1.9608046,1.527454,-0.44097605,0.6823724,-0.8731613,-0.5880225,1.0002086,-1.3602334,-0.039232016,1.2710732,-0.58144873,-0.25440443,-0.6457817,-1.7845774,-0.3030563,0.7629927
genetic_function,-0.6918296,-0.9565117,0.43296838,0.42640468,-0.051349863,0.49114317,-0.12717964,1.2530752,1.3834552,-1.0998663,-0.28871727,-1.5017613,1.5473281,-0.7632508,-0.038315166,0.061916724,0.78449535,-0.4783789,-0.5788011,0.8968192,-0.48903388,-0.74957836,1.5060343,-0.260823,0.03719302,-0.29283392,0.08520639,-0.2415754,1.53411,-0.85614806,-0.30378494,0.78120285
geographic_area,0.1590823,-1.2017457,0.6574329,0.4555651,-0.75164735,-1.1813279,0.8318523,0.3349301,1.3241084,-0.23387828,-2.177345,-0.45063242,0.141042,-0.3337672,-0.11545434,0.5691003,0.68894047,1.2454869,0.8537092,-0.4072057,-0.35952175,-0.1627763,2.33818,0.20438452,-0.07345011,1.3499317,-0.18745287,0.84254277,0.5819874,-2.1553597,0.81695133,0.26735115
governmental_or_regulatory_activity,1.2203685,-0.7249188,0.17387693,0.17717081,0.2604283,-0.9113042,0.17382714,0.7081984,1.4894984,-1.3452004,-0.1273494,0.36709353,-0.12508836,-1.0840291,0.93642956,0.7476689,1.9119966,0.9988833,0.746542,0.27014148,-1.7517438,-1.7124473,1.7890339,0.21752068,-0.42990303,0.70533967,-0.100476086,0.48502976,-0.43880555,-0.37059882,-0.16786183,-0.31543988
group,1.3613691,-1.4157032,-0.6654873,-2.3333855,-0.815969,-1.9503741,0.4450391,-0.16711447,0.97646993,0.36346567,-1.1669409,0.9201441,-0.1683955,-0.6922297,0.2286943,-0.040098842,0.31885603,1.933436,0.8873197,0.02598723,-0.46759403,-0.32465258,1.7805115,-0.6109958,-0.084802136,-0.22409084,-0.17561646,0.29991156,0.7438099,-0.982463,-0.11746289,0.4402471
group_attribute,0.9765003,-1.5238506,-0.5734841,-1.0361904,-1.0137304,-1.998551,1.4222001,0.25375143,1.6507318,-1.3027828,-1.4498415,0.37771678,0.4683007,-1.0103068,0.1844262,0.12766321,0.62463534,1.5774232,-0.44044912,-0.5736556,-1.3078276,-1.0722891,2.0103042,-1.0057373,-0.84754944,0.5588711,-0.21010101,-0.108600914,0.40648305,-1.5622015,-0.41645548,0.26925567
hazardous_or_poisonous_substance,0.66017455,-1.5776048,-0.60488963,-0.7688374,-0.6346083,-0.41186988,0.1057379,0.25045612,1.6806244,-1.2788321,-0.17068233,0.70405143,-0.06910858,-0.5204948,-1.128783,2.1443167,-0.471107,0.6191534,0.21459673,0.3795682,-0.977026,-0.9598899,2.0422628,-0.9190252,-1.3586719,-0.08570936,1.1854227,0.6091956,0.9012975,-0.8097793,0.7094003,0.9383502
health_care_activity,1.5694187,-0.5106827,-0.49487048,0.32218271,-0.11990906,-1.410912,-0.028844785,-1.181004,1.267028,-0.5936011,-0.0027538096,0.5181774,1.0350457,-1.2549424,0.34667173,1.3493981,0.39794412,1.462752,-0.24509771,-0.5103147,-1.6582724,-1.9369901,1.7191349,-0.836875,-0.2144245,0.5585336,0.885095,-0.1892835,-0.70460457,-0.42744318,-0.025640707,-0.15857936
health_care_related_organization,1.4721309,-0.18611877,-0.21986073,-0.5243399,-0.6477135,-1.8596194,0.054749843,0.33967727,1.246046,-0.29583985,-0.55172926,-0.5259274,-0.5667439,-0.5529915,0.37840763,-0.10326664,0.84856486,0.45526746,0.61534166,0.5558615,-1.1181376,0.5560013,1.6938397,-0.3237481,-0.75486475,0.804862,0.07701385,-0.04781048,0.66746956,-1.7799199,-0.23852308,-0.07733973
hormone,0.84226,-1.6838758,0.15249428,-0.49002576,-1.1327845,-0.57137364,0.57563573,0.8914319,1.5128192,-1.589869,0.43497252,0.04610009,-1.0344529,0.16868374,0.8614988,1.8182396,0.40874457,0.4838952,-0.45051754,0.6550877,-1.0041573,-1.1148138,1.8844028,-0.9331683,-0.5954446,0.26270837,0.23761229,0.7032449,1.2050097,-1.0382084,0.36589417,0.7931822
human,1.059517,-1.1940142,0.8226922,-0.19859114,-0.55935305,0.17013851,0.3415894,1.8030344,1.4009231,1.7764153,0.6287354,-0.45857352,-0.7679225,0.47504827,-0.085480854,-0.61590195,0.47109905,1.6059288,0.8198239,0.23125628,-0.3450023,0.36725053,1.9844333,0.74406576,-1.2448258,0.4721414,0.3680647,0.70453495,1.2993921,-1.1079491,-0.33916435,0.00586769
human_caused_phenomenon_or_process,1.352912,-1.7344813,-0.24396835,-0.23856194,-1.1068403,0.2104932,0.4946841,-0.2142925,2.105372,-0.3383973,-0.58291745,-0.73630196,1.6533968,-0.92652076,-0.039893147,0.3951421,0.81020683,1.3847457,-0.44719002,0.0331858,-1.3314056,0.013721449,1.0986818,-0.63532174,-0.8227603,0.7866231,0.7629986,-0.56070673,1.3075043,-0.3247273,0.21278878,0.28076047
idea_or_concept,0.0029223296,0.02688495,-0.739333,-0.45113274,-2.7765791,-0.21014424,0.4315202,-0.5019332,1.9809786,0.42553437,-1.2028784,-0.62237793,0.15667601,-1.1089159,0.14623417,0.20646466,0.53925085,0.3108547,0.6468627,0.30452934,-1.4291396,0.36978444,1.3685007,-0.23030405,0.17455181,0.5213404,1.1065272,0.69074005,0.5313278,0.046633594,-0.17412965,-0.04773983
immunologic_factor,1.2610054,-1.593761,-0.28599453,-0.3439675,-0.9461102,-1.2238791,0.5026118,-0.1484162,1.0076394,-0.8939972,0.47645208,0.6397612,-0.92329985,0.1560385,0.2572094,1.9805458,0.44847438,0.13533603,-1.1125884,1.3390447,-1.2626449,-0.6764856,1.8919443,-1.0547105,-0.62476355,0.34086305,0.44317982,0.21125953,0.6508896,-0.7098594,-0.42988962,0.6528575
indicator_reagent_or_diagnostic_aid,0.63110065,-1.7394037,-0.6150885,-0.98452455,-1.1688405,-0.54670644,0.18869762,0.897269,1.2698982,-1.8319467,-0.75186133,0.8445248,0.36724356,-0.14261998,-0.51237327,2.2597835,-0.6184429,0.89052397,-0.3639293,0.13743953,-0.80460465,-0.9957435,2.5437226,-0.97475314,-1.0222293,-0.17770725,0.2871023,0.92827594,0.14509408,-1.1444234,1.819986,0.5833025
individual_behavior,0.8212184,0.55314755,-0.41858655,1.7501993,-0.51159555,0.25342134,-0.034500424,0.08886587,0.62757987,-0.48598927,-0.6657005,-0.27863884,1.6810714,-0.6996436,-0.2715197,0.6897929,-0.37776375,0.33964893,0.23405044,0.80744326,-1.427094,-1.1409014,2.37267,-0.06670404,-0.3669089,-0.24335977,0.71119237,-0.2806112,-1.103448,-1.346978,0.34523064,-0.30196846
injury_or_poisoning,0.9423005,-0.20860992,-0.24537665,-0.3983297,-0.60011303,-0.2566915,0.7517342,-0.8436806,0.79504347,-0.9365134,-0.5707641,0.13800861,1.312652,-1.0244279,1.0492392,-0.5364942,-0.45569932,0.07044495,-0.47736824,0.07923777,-0.8105006,-0.4503174,1.4147755,-0.4454743,0.21837896,-1.0450182,0.082074545,0.54078835,0.64532363,-1.5966002,0.3099422,-0.030596752
inorganic_chemical,1.2588251,-1.2553248,-0.62096524,1.0336441,-0.65730244,-0.60818154,0.4996988,0.6931372,1.2115766,-0.9700263,-0.637591,0.33242324,-0.14662755,-0.07595723,0.9547762,1.6867292,-8.571916e-05,0.8517053,-0.66653186,-0.29635155,-0.5687558,-1.1326256,1.826136,-0.50917655,-0.52772224,0.45328352,0.18131186,0.8055741,1.5064749,-0.5314424,-0.2824196,0.56316155
intellectual_product,1.2862107,-1.2825965,-0.41921154,-1.917979,-1.6721622,0.10517679,-0.021367881,0.2779104,1.7789131,-0.92585725,-0.013957551,0.015797816,0.68149227,-0.35258502,0.72070134,-0.20328864,1.9255433,1.0996917,0.2500013,0.51892036,-1.8240485,0.49253905,1.8111786,-1.0644466,-0.54529214,0.8080815,0.7809126,0.65262383,-0.95699763,-0.8305478,0.84569293,-0.09687802
invertebrate,0.670709,-0.38782126,0.22799417,0.5177186,-0.32917884,-0.44740063,0.08760008,1.0467,1.1082492,0.25221327,0.6292581,0.017487014,-0.48928303,0.004116224,-0.24617735,-0.06992748,-0.8102185,1.2683038,0.23277311,0.75184476,-0.82701737,-0.14267214,1.3554274,1.3146769,-0.06129449,-0.123150855,0.09899902,0.5887721,0.9362526,-1.283855,-0.9604057,0.31450978
laboratory_or_test_result,0.41815335,-0.7702945,-0.75969124,0.8078202,-1.7488134,-0.40897867,0.42013332,0.2831979,1.7750304,-1.9754046,-0.24243805,0.26786557,0.3823533,-0.7208921,0.19263235,1.3136322,0.9660511,1.1964059,-0.2442824,0.23212895,-0.63547546,0.032807242,1.8841417,1.0575336,-0.37017107,0.0985279,0.7634254,0.25435185,0.14199495,-1.3823341,-0.22104652,-0.019723974
laboratory_procedure,0.98909706,-0.5652462,-1.0151991,0.52899987,-0.37802684,-0.9708278,-0.034130353,0.46097296,1.5571072,-1.2944689,0.92873466,0.5637408,1.0282804,-1.5436711,-0.1662158,0.72374123,0.70103914,1.698179,0.3244544,0.7053567,-1.2724912,-1.3545672,0.8199821,0.32681245,-0.25712508,0.2740568,1.0841872,-0.32674038,-0.84928584,-1.4247514,-0.39872533,0.39302436
language,0.6605489,-0.3872482,-0.5705997,0.30239746,-1.0063517,-1.5961363,1.0286664,0.48311988,2.7472591,0.103455566,-2.4956508,-0.40838325,-0.18041708,-0.72816336,-0.34410456,0.36049068,0.8283653,0.78347504,0.09764693,0.7508496,-1.101139,-0.371437,2.2959743,-0.17939216,-1.5856253,0.5186309,0.97231317,0.6988331,0.35237038,-1.8386807,-1.7619768,0.45005444
lipid,0.553152,-0.7315808,-0.74877924,-0.42604536,-0.66637707,-0.77336067,0.47358626,-0.0067250086,1.7185129,-0.6948882,-0.23146476,0.28643695,-0.55946517,0.21625558,-0.1058842,1.4619502,0.98422533,0.60775656,-0.8863616,0.53690165,-0.9700261,-0.4053118,1.2374893,0.34914035,-0.038863137,1.2415178,0.04928571,1.5877829,0.73590875,-0.82528085,0.70688146,0.44801885
machine_activity,1.9897574,0.20135233,0.24504799,0.72274333,-1.5536983,-0.2737932,0.326177,1.8066382,1.1943179,-0.17745823,-0.5107039,0.40694082,0.13196942,-1.9776106,0.47306708,0.34665,1.7091352,1.0284681,-0.47470716,1.5457603,-1.1771607,-0.26931393,2.1624656,1.0558794,-1.0863016,0.72422147,0.8610368,1.0942739,0.14912136,-1.1243948,0.5517762,-0.5026825
mammal,0.6945657,-1.6347053,1.5720404,0.62475795,-1.2256204,-0.36952057,0.07433963,1.2401379,2.1136434,0.36208597,-0.7151164,-0.20392221,-0.1014948,0.81199336,0.3135658,-0.51015407,0.09396527,2.2866685,-0.0054840893,0.44273037,-1.3516548,-0.16395965,1.1849158,1.5187389,-0.8316737,-0.5605433,1.2631205,0.2583424,0.23457806,-1.0517386,-0.5396496,0.08077679
manufactured_object,2.708092,-0.29209232,-0.33536854,-0.42172006,-0.9248755,0.07102625,0.23333971,-0.5374602,1.2982538,-0.3975182,0.4890134,-0.71282953,-0.034078263,-0.27403447,0.67509747,0.95104223,0.76757354,-0.49530217,1.5093893,0.47424623,-0.84853554,-0.022732843,1.9569997,-0.13460438,-0.39910308,0.3222058,2.5875022,0.07691596,0.30789542,-0.9655905,0.043567035,0.7461012
medical_device,2.433158,-0.8783068,-0.58224374,-0.32989746,-1.7344326,-0.46271768,-0.21367854,-0.2289565,1.828191,-0.9755243,-1.2352417,0.9864056,0.092253745,1.8898398e-05,0.66080666,1.2218186,1.2461039,-0.12240236,0.52029836,-0.29575107,-1.4548658,-0.12922059,1.9258522,-0.04660928,-0.5138682,0.27649778,1.7418672,0.6163702,-0.13236879,-1.0668051,0.5336307,-0.06511843
mental_or_behavioral_dysfunction,0.20973316,-0.078992076,0.28735086,-0.030471306,-0.07074765,0.14385395,0.4655906,0.36730856,1.401387,-0.7495478,-1.1261963,-0.41125208,1.2884399,-0.17778309,0.51406246,-0.17838077,-0.09899726,-0.29964727,-0.9039916,0.71712464,-0.6046883,-0.23898719,0.8899761,0.6134089,-0.16955031,-0.5000641,-0.4542619,-0.3242338,1.0459594,-0.58252424,0.6640531,0.17864086
mental_process,-0.32123348,-0.53030926,0.5731141,0.49428627,0.87257224,-0.11166069,0.056877505,0.9595377,1.5149177,-0.59832567,0.2777973,0.0096144695,1.7606555,-0.27117595,0.2822666,-0.38656497,0.5632693,-0.21081527,0.2958603,0.91777515,-0.45321712,-0.71237075,0.89776534,-0.087669745,-0.033656906,0.24817254,0.3405217,-0.16088894,0.8872362,-1.1607773,-0.025250295,0.55159354
molecular_biology_research_technique,0.4580854,-0.45808336,-0.15508918,0.4910083,-0.5042379,-0.32435355,-0.15012945,0.5141005,0.8619586,-0.92070556,-0.193421,-0.33418667,0.30117163,-1.1701503,2.3459747,0.49988988,0.8188268,1.6479144,0.5634451,0.82110083,-1.4816911,-1.163232,1.8753574,0.1327359,0.09302736,-0.030955438,0.14528415,-0.45728627,-1.1668154,-1.3363749,0.15278666,0.80589134
molecular_function,-1.0993319,-0.7460007,0.38115638,0.29608428,0.20584743,0.36699048,-0.023612611,1.0146143,1.6836586,-0.78373116,-0.80018854,-0.33933985,1.6876904,-0.7706225,-0.17725474,-0.2328225,0.2852108,-0.04234065,-0.030210853,0.86278033,-0.76672226,-0.8927301,1.2154623,0.07095529,0.08075858,-0.24503323,0.34804446,0.03180561,1.3149892,-0.65462756,-0.43621594,0.36647612
molecular_sequence,0.5804778,-0.96049213,-0.63186496,0.23063943,-1.6112831,-0.16513036,0.90905786,-0.6394425,1.3357505,0.31702778,-1.256512,0.6558767,-0.13799004,-1.7605851,-1.0844498,1.437304,-0.27578855,0.3750405,0.98280406,0.60853887,-1.5913372,-0.0724871,1.7136493,1.005204,-0.7302409,-0.089465484,0.47738788,0.477175,0.92820495,-0.78934526,-0.6709771,0.3549429
natural_phenomenon_or_process,1.0904564,-0.28751162,-0.060693197,1.2173834,-0.72389007,0.52184,0.22155844,0.43610093,1.2204266,-0.43396953,-1.2943839,1.4934852,1.567503,-0.8282692,-0.12934834,-0.3512186,0.50312394,0.658486,-1.4269775,0.11713407,-1.0884616,-0.95120215,1.8207548,0.29790026,-0.020339044,0.46136823,0.75687236,-0.021994464,1.6597514,-0.4785647,-0.18284087,0.96969354
neoplastic_process,0.36149082,-0.38470367,-0.09538315,0.0117870215,0.2568152,0.06804135,0.67919016,0.373546,1.1248783,-0.88742584,-0.7306748,0.5904435,1.4217929,-0.7518864,0.20151491,-0.2532132,-0.053584926,-0.2590208,-0.64897585,1.3628575,-0.44012815,-0.5269885,1.1236827,0.67699254,-0.37915128,-0.67773956,-0.59223217,-0.45867074,1.2621768,-1.2311751,0.08384074,0.74381053
neuroreactive_substance_or_biogenic_amine,1.3003141,-1.7703927,0.04122757,0.30572727,-1.2457322,-1.2961857,0.5131855,0.41594717,1.0315123,-1.5920998,0.25523755,0.18395098,-0.8157917,0.050887372,-0.08039005,1.6292394,0.3392541,0.22849861,-0.5968265,1.3404078,-1.0393287,-0.9351065,1.8961191,-1.2835823,-0.34446535,0.044073593,0.10099082,0.42673948,0.9755924,-1.4806503,0.246494,0.33298597
nucleic_acid_nucleoside_or_nucleotide,0.5227095,-1.0558916,-0.66615224,0.2010886,-0.19305576,-0.5767325,0.571708,0.23591708,1.9921409,-0.58072484,-0.7398126,0.06895524,-0.11208142,-0.06711873,0.2154897,2.6269226,0.554836,0.28938985,-0.14822827,1.1880296,-1.5201739,-0.181147,1.6879487,0.48838523,-0.36825842,1.7602376,1.3957547,0.66627204,0.12519905,-1.5474794,0.93890435,0.5723089
nucleotide_sequence,0.5325957,-1.5938205,0.04893835,0.27501926,-1.7526262,-0.4124367,1.0155791,0.37668246,2.302411,-0.9811599,-2.790515,0.30347323,0.78507274,-0.5439953,-0.119277366,0.61226445,0.15233494,0.88656676,0.18982911,-0.3192553,-1.4872583,0.44366348,2.0167863,-0.4491021,-1.7381563,1.776615,0.9021886,-0.18824768,0.78056365,-1.2044986,-0.49126917,0.34945217
occupation_or_discipline,-0.23377502,-0.4961739,-1.2229322,1.0665673,0.0113105755,-0.18505888,1.1250015,-0.2067524,0.916914,0.09258135,0.30818537,-0.029988842,-1.0182016,-0.8180071,-0.05392787,-0.8357829,1.90718,2.6489203,-0.49144366,-0.08381894,0.6465588,-0.67286795,1.3705021,0.5524199,-0.103502184,1.3588879,1.8656846,1.5024328,0.4764389,-0.066565484,1.181998,0.38121903
occupational_activity,1.1504722,-0.36477855,-0.769451,0.056319848,-0.7396808,-1.0547415,0.17411429,0.52441096,1.5821981,-0.8971464,-0.2981445,0.06817373,-0.08692349,-1.3660524,0.17742938,1.1091332,0.3085411,-0.18353759,0.35163805,0.6545698,-2.2317321,-0.40062708,1.3327763,0.102244824,0.30289844,1.2719377,0.65393215,0.6183789,-1.3876029,-0.07575565,0.18190078,-0.1589662
organ_or_tissue_function,-0.83633906,-0.8541291,0.14082058,0.7895695,0.25177532,0.47004563,0.18433774,1.1841109,1.5713149,-0.909038,-0.79566103,0.5629818,1.462125,-0.7729391,-0.3812026,0.045959733,1.2922225,-0.17046064,-0.3205665,0.91590685,-0.61729485,-0.53624034,1.5899144,0.077320576,0.3287903,-0.021316342,-0.06825061,0.450166,1.7165539,-0.93539304,-0.007454574,0.84308547
organic_chemical,1.2705398,-0.90729606,-0.29061675,0.28053796,-0.85743946,0.010072162,0.8855672,-0.112186484,1.1468824,-0.43927813,-0.54148656,0.12865634,0.2743206,-0.22199574,-0.94324005,1.4730519,1.2849599,0.63279516,-0.38677984,0.15638587,-1.0056455,-0.37588862,2.337031,0.16193128,0.41769764,1.1112984,1.4476817,0.7979188,1.941796,-1.1712159,0.35640973,1.9665426
organism,-0.012285753,-2.0412192,0.4478752,0.15062203,-1.7463461,-0.1613641,0.23417547,2.2252898,1.567937,0.6476928,-0.23763837,-0.2174918,0.7194674,-0.5906831,-1.819157,-0.071927376,-0.17272572,0.9192816,1.5241445,1.4076089,-1.2715399,0.19976234,1.4388123,1.1644585,0.18023135,0.11465172,0.009733595,0.9426096,1.4499596,-1.0829595,-0.92932,-0.45603785
organism_attribute,0.6140998,-0.9203738,-0.50565964,0.35629904,-0.6679818,-0.94074214,0.80806404,0.17588574,1.3435795,1.1890218,-0.48025358,0.047619075,-0.18973473,-1.0040919,0.22217666,-0.42865926,-0.2132804,0.76615804,0.2714659,0.1846726,-1.1227765,-0.19271103,1.3656843,1.0071521,-0.8760768,-0.59259003,-0.1881864,1.0097629,1.7736025,-1.600097,1.3014601,0.5707242
organism_function,-0.5670578,-0.25622815,0.1450399,0.2189281,0.57229346,0.40487236,0.09214529,0.9114077,1.3982954,-1.0338068,-0.8270219,-0.28785262,1.420526,-0.54613787,0.26723966,-0.15172295,0.8020667,-0.2598801,-0.1665376,1.4777648,0.08225637,-0.87727416,1.6081511,0.17703041,-0.1816108,-0.070394225,0.24332125,-0.009351091,1.5054545,-0.8934034,-0.86333805,0.5332686
organization,0.46482834,0.13809091,-0.3904503,-0.84523803,-1.8825738,-1.4601536,0.54949886,0.8035487,1.1826578,-0.7514154,-1.1240965,-0.72977793,-0.46754846,-0.8202054,-0.53375727,-0.41979486,-0.116927944,0.14329523,1.2111802,-0.05633629,-0.85231334,-0.25929525,1.8088075,-0.06638755,0.3479687,0.52951056,0.7024158,0.5160482,0.4957899,-1.2162756,0.08605128,0.32500327
organophosphorus_compound,-1.1249171,-0.62591046,-0.7739519,0.16021231,-1.3663596,-1.4250175,0.08907585,0.17664239,1.6098775,-1.7259914,-0.4759985,0.00048311707,0.103615135,0.44553965,0.162597,1.6643533,0.7983071,1.2114213,0.0072356276,1.0261955,-0.52803624,-1.1056496,1.9164287,-0.03502811,-0.70681316,0.94683725,0.55730927,0.8009845,0.53740644,-1.3745316,0.5812142,1.245226
pathologic_function,0.4227242,0.03363793,0.33360445,0.19436762,-0.1477943,0.29299656,0.81957316,0.6764067,1.4943621,-1.006138,-0.50205237,-0.75773835,1.4804815,-0.4306593,0.38438514,-0.24912468,-0.005627486,-0.39761856,-1.424354,1.1134236,-0.6706176,-0.53564304,1.35806,0.7351192,-0.24576417,-0.69398826,-1.3400453,0.7781513,1.7187474,-1.0083793,-1.075566,0.43352062
patient_or_disabled_group,1.332424,-0.5975144,-0.50505483,-0.8203787,-0.14261645,-1.3462663,0.20700644,-0.33748934,1.4530864,0.63804126,-0.6202933,0.3688805,-0.06820395,-0.14803018,-0.856318,-0.1945534,0.20952147,1.398394,0.26913804,1.4659196,-0.64813846,-0.77870125,1.0118678,-0.089099854,-0.122043975,-0.08410574,-0.39353967,-0.368527,0.3851188,-1.0932847,-0.1878321,0.4964483
pharmacologic_substance,1.1098573,-0.7503309,0.41892126,1.1652889,-0.9933567,0.15679605,0.10871898,0.96283764,1.8137144,-1.4952097,-0.055871017,0.30999714,0.08255895,0.33443233,0.11480547,1.5077404,0.008148638,1.6782702,0.017914182,0.9336241,-0.9680671,-0.93607646,1.7910963,-1.2574924,-1.2426858,1.0526518,0.011278562,0.8886671,0.6477533,-1.0395343,-0.46883243,0.9798408
phenomenon_or_process,0.8281984,-0.24144877,0.09634936,0.04502314,-0.6630444,-0.9965956,0.1282247,0.4472101,1.9381298,-0.44515705,-0.86806685,0.67589176,1.3457246,-1.9888618,0.060359433,-0.39295477,0.97032267,0.89355075,-1.380216,-0.34163615,-1.3872651,-0.67664766,0.80178875,0.32517117,-0.28435832,0.7478736,1.0545013,0.14399306,1.5383891,-0.93781894,-0.118892856,0.05769257
physical_object,2.0301065,-1.236435,0.4931272,-0.44958735,-2.352077,-1.2565215,0.3649291,1.847973,1.667985,-0.08477646,1.2509624,1.1446502,-0.7788774,-2.8823192,0.2279672,-0.01984249,-0.9288885,0.22985059,-0.010718823,-0.38668016,-0.4048593,0.61698365,1.4343231,-0.12577131,0.028516699,0.32584047,1.1649601,-1.0252467,0.52586555,-1.4492053,0.14665173,2.0598836
physiologic_function,-1.4665434,-1.1164095,0.29614392,0.31725118,-0.26221183,0.36524257,0.04057989,1.0529289,1.7544019,-0.48120266,-0.51335573,-0.3673206,1.6055259,-0.9284237,-0.024030223,-0.3251992,0.6669676,-0.23925114,-0.016628562,0.814574,-1.0411347,-0.7021015,0.85740787,-0.076687306,0.33024725,-0.21491158,0.6464374,-0.78103244,1.1711931,-0.96387136,0.5405689,0.7728745
plant,1.2104242,0.15500681,0.006727994,0.53888375,-1.0049237,-0.44498,0.24533898,0.86058426,1.4777942,0.46336553,-0.7605552,-0.48360214,0.13378887,-0.027481169,0.0053808056,-1.0688914,0.45696265,1.7693558,-0.08523103,-0.6338848,0.17042522,-1.1338112,1.7824026,1.2617097,0.41781193,-0.25341314,1.9527717,0.39643198,0.7987547,-1.3358972,0.37671334,-0.6766191
population_group,1.124531,-1.3921646,0.411314,-0.6123682,-0.29645187,-1.7424506,0.3233752,0.043139733,0.8219421,-0.13683093,-1.4690453,0.60960877,-0.008815767,-0.5300299,-0.3349086,-1.1257323,1.2879986,1.955139,0.62005633,1.7914063,-0.13088208,0.13114096,2.1239777,-1.1007476,-0.21642672,0.21057202,0.527481,-0.46702394,0.6705322,-0.7633098,0.47854418,0.16191433
professional_or_occupational_group,1.0218955,-0.6419911,0.100451685,-0.7414066,-0.8720376,-1.4928483,0.55008954,0.17464305,0.84113973,-0.12848166,-0.38159952,1.607156,0.07092693,-0.4120196,-0.18811977,-0.017940821,0.9688207,1.7374117,0.812241,1.2398639,-0.48560053,-0.14644364,2.1000686,-0.8283018,-0.08534697,-0.36576098,0.14319082,-0.68174976,1.0105485,-0.8246228,1.0756083,0.16468115
professional_society,1.0140013,0.18966442,-0.63487816,-0.14488406,-1.1474754,-1.4220741,0.39014205,0.7826269,2.157249,-0.18542592,-0.24417476,0.13534448,-0.6747206,-0.338248,-0.003685466,0.043725636,-0.10446702,0.3303221,0.5124935,0.4266429,-0.9822171,-0.2251607,1.0223005,0.46448654,-0.7125925,0.32072487,0.6579368,1.1892402,1.0681918,-1.5436484,-1.1488161,-0.35929352
qualitative_concept,0.7982389,-1.0194432,-1.2231661,0.031028928,-1.3371966,-1.0361217,0.6695535,0.12207422,1.6297814,-0.5465251,-1.3053038,-0.55472094,0.28447124,-1.6215159,0.28421545,-1.6026396,-0.30461326,0.05242031,0.8374281,-0.49097988,-0.8831723,-0.83751804,2.0281563,0.6461748,-0.37994435,0.095597535,0.8944735,0.98565614,1.034016,-1.7878343,-0.48306713,1.2599458
quantitative_concept,0.83694077,-1.0898963,-0.51027703,-0.13129047,-0.32687935,-0.73386645,1.3473883,0.8786803,1.466391,-1.3197495,-0.5205867,0.4305124,0.06415872,-0.64898014,0.3118336,0.052533966,0.17804858,0.658962,-0.74013174,1.3576779,-1.5787846,-0.6188531,1.9873314,-0.6277117,-1.4547176,1.6589675,1.3415341,-0.035085183,0.5793375,-0.69054914,0.6247052,-0.018678468
receptor,1.234918,-0.9898715,-0.16836056,-0.86442924,-1.0468469,-0.29185855,0.60041946,0.082006365,1.2303548,-1.1047957,0.095908545,0.2524201,-1.0075847,0.22588383,-0.44207785,1.6527336,-0.28830263,0.5461734,-0.16907614,0.77310765,-0.81711334,-0.86158633,1.8560532,-1.1467113,-0.1922256,0.19662094,0.33989924,0.9555559,1.0592347,-0.6029062,0.070936896,0.3189021
regulation_or_law,1.5366645,-0.4858416,0.29390836,-1.1727451,-0.80566937,0.38632601,0.5316687,-0.21742931,1.5568204,-0.7264045,-0.06584532,-0.44863948,0.056405652,-0.20998928,-1.0328885,-0.051344182,1.1414863,1.3045859,0.9338811,-0.91197896,-1.0874338,1.4814972,1.8070012,-1.2651004,-0.63861555,0.21384902,1.4654052,0.10303522,-0.41701913,-0.42867088,1.2604688,0.54905635
reptile,0.6374997,-1.5176433,-0.21506763,0.33216652,-1.706126,-0.12279663,0.094305396,1.0976522,1.6686134,0.42516482,-0.5628901,-0.4007378,-0.22776952,0.39124647,0.59314007,-0.4443272,0.9072913,2.0933275,0.39938354,-0.06310397,-0.14694029,-1.1082969,1.1783978,0.76596624,-0.413962,-0.019481799,-0.024877999,0.6403964,1.4876684,-0.7766253,-0.7395536,-0.034534942
research_activity,0.34013316,0.053205267,-0.8028245,-0.14393303,-0.20720801,-0.035750277,-0.092267744,-0.0021052505,1.6046518,-0.71156937,0.16743931,-0.5718666,-0.08663936,-0.98438853,0.40203002,0.28470147,-0.030095253,2.2272494,0.77992684,0.64149386,-1.6709125,-1.2408894,1.5260763,0.6727739,0.36459076,0.6404839,0.527678,0.099850535,-0.69651085,-1.4163139,0.40365744,0.21906985
research_device,1.4855969,-0.8059059,0.11126228,0.28245574,-1.5740254,-0.7740962,-0.70265937,0.6429305,2.135129,-0.8918251,-0.22067419,-0.25046968,-0.14793046,0.33548218,0.1459594,0.62331563,0.9681167,0.023506993,0.6078481,0.4375671,-1.0656337,0.34824854,1.7204101,0.08316982,-1.6551414,-0.14604944,1.0352621,-0.25523326,-0.22469757,-0.676448,0.20223865,0.17007971
rickettsia_or_chlamydia,0.8959808,-0.29702625,0.5041211,0.9954847,0.39533424,-1.0631464,0.09112209,1.1703225,1.0036719,-0.81014717,-0.312761,0.12737009,-0.077005416,-0.00127508,-0.4242015,-0.51746535,0.30387726,2.0959973,1.1103339,0.1065003,-0.9172535,-0.62691194,2.0873694,1.9249378,-0.030971684,-0.3249792,0.7446749,0.13967857,1.6897726,-1.7916281,-0.27335477,-0.368096
self_help_or_relief_organization,1.0824788,-0.2705721,0.24704766,-0.8359571,-2.0009763,-1.5541024,0.34301534,0.28453314,1.9697561,-0.06999275,-2.1417258,0.10537235,-0.32111695,-0.3290366,-0.34612292,-0.5994142,0.24960689,0.26820263,0.8635807,0.07572844,-1.384727,-0.502042,1.2146429,-0.15211529,-0.58187693,0.5573833,0.31926605,1.3043526,0.3098062,-0.71620786,-0.8209506,0.27735808
sign_or_symptom,-0.18352437,-0.35832474,0.88868904,0.28697476,-1.7652495,-0.29899636,0.951323,0.5978902,1.7758548,-2.986874,-0.278902,-0.17209253,0.36881742,-0.7503037,0.487304,0.5320531,0.1940983,1.2279097,0.7710533,-0.20052303,-1.7263074,-0.18113068,1.7596419,0.12104874,-0.53318083,0.42899126,1.155249,0.8121263,-0.19824691,-1.1519357,-0.20182405,-0.05714205
social_behavior,1.0473707,0.34449252,0.1070416,0.70278424,-1.2444079,0.2303502,-0.011232217,-0.3605739,1.2921101,-0.11020082,0.09899883,0.5835646,1.1054918,-0.6705397,0.19300163,0.31376925,0.6296237,-0.37676805,-0.42665166,1.2637175,-1.4288126,-0.904298,1.3861004,-0.011832886,-0.067576885,-0.39414552,0.20881343,0.77498883,-0.90942234,-1.0940857,-0.3630688,-0.4083756
spatial_concept,0.52802604,-0.039794806,-0.78554434,-0.35598576,-0.5954084,-0.43808672,-0.31153324,0.1548779,1.5533019,-0.49345246,-1.9867738,-0.04972276,0.54568964,-1.0344266,0.91717166,1.0351173,0.3438235,0.048706356,1.1259855,0.5616426,-1.1189479,0.09551907,1.7343875,0.3549479,0.40324718,0.52217853,1.7770534,0.47651824,0.53808874,-0.37770513,-0.14798172,0.105253175
steroid,0.9886162,-0.93971896,-0.16551037,0.46831495,-0.32465056,-0.67993015,0.54658455,0.15958938,1.4168268,-1.1685485,0.66062796,0.19781934,-0.5202205,0.46651584,-0.5685589,1.8094437,1.1511226,1.4700283,-0.18048821,0.6591878,-0.3419388,-1.4584054,1.8033783,0.06828948,-0.6705414,1.13805,0.29045936,0.65542895,1.088916,-0.6997747,0.85449237,0.29893076
substance,0.15609404,-1.4217266,-0.39357552,0.12650388,-1.5112467,-0.37699226,0.15179875,0.5869155,2.1814284,-0.71381456,-0.47287562,-0.8062865,0.0423685,-1.6422833,-0.66117734,1.22398,1.1194725,0.6174545,-0.13312194,-0.9948504,-1.1145039,-0.16907531,1.7337782,-0.32503492,0.2595978,0.8412789,1.3685064,0.5150021,0.12905382,-1.2840157,-1.2371064,2.5919032
temporal_concept,0.2496801,-0.7537793,0.155988,-0.51929575,-1.7046039,-1.30738,0.17925715,-2.435104,0.9764566,-0.64990616,-2.620621,0.017581105,-0.023531672,-1.1150577,-0.01572371,0.25440487,-1.6353278,0.6954323,0.11216743,1.820631,-2.153313,-0.0025869939,2.2414553,-0.11163419,-0.624665,0.7266396,-0.38171047,0.818396,-0.078781515,-1.073612,0.33967254,0.33642584
therapeutic_or_preventive_procedure,0.9192532,-0.39581472,-0.67801344,0.7105529,0.28095868,-0.81612784,0.10535769,-0.22672,1.4782586,-1.5153496,-0.13613918,-0.13803333,0.6608569,-0.6316067,-0.02814194,-0.034367852,-0.01665577,1.7303793,0.024817923,-0.14716399,-1.5635076,-1.6535714,1.3050522,-0.1335915,-0.3920647,0.48230353,0.25396428,-0.7170141,0.16912006,-0.13286301,0.2923939,-1.0153741
tissue,0.5205146,-0.13453418,-0.21080326,0.60612655,-0.45276883,-0.8242079,0.24654007,0.23755722,1.6893015,-0.41488513,0.10388396,-0.53204864,0.33260402,-0.2082906,0.4266494,1.0534245,0.8176759,1.2230401,-0.2799212,0.44117752,-0.21066836,-0.5179916,1.1554096,-2.1646497,-0.056974556,1.5853256,0.24842589,0.632053,-0.4246234,-2.3760033,-0.5443338,0.3156241
vertebrate,0.32070014,-0.88081026,0.8434735,-0.16469334,-0.7250552,-0.76797634,0.13219532,1.3391582,1.2939718,0.16020566,-1.167772,-0.21253495,-0.16089812,-0.17424361,-0.4380053,-0.5709177,-0.42253646,1.5706921,1.5744367,0.56219625,-0.23485783,-0.3539758,1.60079,1.5292182,0.09289125,-0.5264551,0.5893301,0.24768493,1.2515299,-1.5201322,-0.4210901,-0.41693723
virus,0.7058763,0.11880439,-0.21650392,1.0322267,-0.23117816,-0.4291009,0.6494125,1.2495399,1.3991724,-0.38292155,-0.47235677,-0.8080593,-0.35123202,-0.017852202,0.5880866,0.0030522393,0.5347476,1.998123,-0.034991402,0.70040464,-0.9330724,0.04086797,1.7844932,1.8545711,-0.30036816,-0.58951634,1.8098695,-0.2706163,1.7153045,-1.4504911,0.65965503,-0.6787209
vitamin,0.66109926,-1.440198,-0.43018258,-0.5227386,-1.0050743,-0.98899174,0.53906494,0.17058499,1.1802667,-1.5262227,0.02340139,0.42052868,-0.8140115,0.05735418,0.61138225,1.4432738,-0.01897051,0.6720301,-0.51956224,1.1559147,-0.97174984,-0.73777634,1.7794963,-1.1525979,-0.3940097,0.323086,0.11599837,0.76169467,0.699222,-1.1641512,-0.06007159,0.5607864
