,0,1,2,3,4,5,6,7,8,9,10,11,12,13,14,15,16,17,18,19,20,21,22,23,24,25,26,27,28,29,30,31
person0,-0.73047674,-0.20207433,0.51916087,-0.8710223,-1.2522687,-1.4091791,1.2947193,0.07072987,-0.6479668,0.8653293,0.25809357,0.43774483,0.6986482,1.1724403,-1.6365285,0.03972333,1.379727,0.99723667,0.3053654,0.41421744,-0.4356508,-0.14423434,0.109903045,0.036355536,-0.68579113,-1.8593433,-0.1820766,0.83409965,-1.0613236,0.50677586,0.16176465,-0.01213354
person1,-0.11387711,-0.4504329,-0.93233204,-0.52641046,-1.0017933,-1.6153932,1.0307724,0.8125127,-0.3755584,0.7547667,0.51963454,0.74416363,0.16125056,-0.77240866,-1.4648097,0.3152655,0.36153358,0.9970829,0.44767773,-0.44402665,-0.27563652,1.0430542,0.2734494,0.8902509,-1.2356594,-2.0264828,0.23033337,0.9620518,-1.3469563,-0.46770576,0.08528577,0.5762949
person10,0.07157767,-0.19514818,0.8477175,-0.04723057,-1.2939576,-1.1549522,1.6961232,0.8462897,-0.48266044,0.9677488,-0.48238677,0.5106051,0.87311417,0.5287378,-1.2248021,0.37612683,1.0204486,1.1391711,-0.74600995,0.4967165,-0.56574863,-0.57563734,0.18806858,0.8532887,-0.98916733,-2.2587767,-0.41948336,0.33996886,-1.3035054,1.0111098,-0.3430875,-0.28202653
person100,0.8224497,2.3616493,-1.245143,-0.9378992,-2.7160459,-0.44408903,-1.6045812,0.75490826,-0.671048,0.72248435,-0.6069516,-0.021777358,-1.0073247,0.8258049,-1.2248313,0.5911222,-0.7408696,0.08713424,0.18972608,-0.35362694,0.51659757,0.3422192,-0.8881716,0.020045266,1.1462882,-1.3849663,0.56802183,1.3022574,1.3069884,0.16329774,0.1648969,-0.7706442
person101,-0.43383273,0.43881676,-0.048415378,0.7619712,-1.7018046,0.08427589,-0.8648128,0.90904474,-0.99646616,1.4661362,-0.16076261,0.534846,1.0904397,-0.5617142,-1.1784642,1.910656,1.5285141,-0.21249491,-1.5126392,-0.6652721,0.41186213,-0.21080099,-0.80440205,0.47587228,1.403215,-0.7613133,0.35382745,-0.85100085,-1.178378,0.14638546,0.24252084,-0.38250196
person102,0.93662256,0.21772256,1.5742599,0.6511638,-1.7247375,-0.16352493,0.7014057,0.7651011,0.7549283,0.89512986,1.3300068,0.0058333892,0.13347812,-0.62122095,-1.1623572,1.2152442,-0.6303342,-1.8568105,1.1623034,-0.048303448,0.42487794,-1.1133832,0.1581712,1.0036709,0.63461757,-0.705917,0.41220745,1.3733644,-1.0460302,-0.5565258,-0.043337103,-0.024030298
person103,0.60636455,-0.025107376,-0.728798,0.46650806,-2.0708325,0.25522012,-0.99804974,0.13129279,1.4377306,0.54429287,1.5756003,-0.1487694,-0.9374926,0.17766555,-1.1354557,1.1272423,-0.39937133,0.0063851634,0.35998636,1.6593099,0.36947468,0.22096497,-0.40799722,0.39817908,0.10109103,-1.1041397,-0.36059505,1.6931909,0.826547,-0.18491931,-0.9371151,-1.1894543
person11,1.0124892,0.59101254,0.035666212,-0.52702343,-1.0732976,0.9767768,0.94844025,0.38229573,0.4099851,1.1050376,-0.6300251,-0.40405005,-0.1671038,0.77734995,-0.90801704,0.5089593,-0.13168387,-1.3880398,0.1286355,-0.59413344,-0.22931042,0.6317832,0.007851669,1.3490207,-0.99905604,-1.3256775,0.0990326,-1.2841275,0.8117566,-0.048243325,0.15254296,0.38139606
person12,0.4958622,0.07060863,-0.10006707,0.7652798,-1.2007613,-0.97549844,-1.6995441,1.4396967,-1.0581425,1.2090247,-0.34205368,-0.11478555,0.005837336,1.0777314,-1.3410009,0.33671415,-1.1968123,0.88083804,-0.26761106,-0.52370924,-0.4866064,0.16683955,-0.40351155,-0.45426682,-0.938309,-2.0209904,-1.0341287,-0.5175778,-1.559448,-0.17788091,-0.08366655,0.08518021
person13,-1.0857569,0.36412832,0.56713295,0.34127578,-1.3515909,0.5340207,-1.168997,0.61704665,0.12983665,0.86564535,0.84106797,-0.18261726,-0.48563665,-0.1972649,-0.83828783,0.14246516,0.99725735,-0.107694656,0.19310023,-0.37323853,-0.22154064,0.62790084,-0.033284973,1.0728074,-0.43829188,-1.2250896,0.8133909,0.7750793,1.2279578,0.5309984,-0.27474895,0.72758335
person14,-0.07148199,0.9618398,0.45807737,-0.8712262,-1.7243143,1.179998,-1.468414,0.3667935,0.5651446,1.5073994,0.5589757,0.41309246,-1.0505296,-0.8054108,-1.0199775,0.25383398,1.7479153,-0.13303766,-0.27646878,0.055703335,-0.51944757,0.028568495,-0.12501033,1.0280883,-1.6160548,-1.8103822,-0.40618235,1.1316276,1.0748266,0.6069289,-0.27692047,-0.077701196
person15,0.7388875,-0.083317,1.3865489,-1.3151217,-1.0914656,-2.0609553,-0.9412863,0.1589649,0.09242992,0.93172973,-0.12488545,-0.31175324,0.18333857,-1.6449,-1.5963502,0.11380671,-0.7443311,0.3931635,0.30952457,-0.6775196,-0.4904294,0.6355422,-0.24677615,1.1399704,-0.49743986,-1.2819719,-0.4678794,-1.377573,-0.97164595,-0.6651991,-0.5426136,-0.062277332
person16,-2.0179722,1.0491867,0.110322006,1.0349848,-1.533796,-1.5577167,-2.1291566,0.09402078,0.3887151,1.6122497,-0.536088,-0.11114557,0.64186,-0.56768733,-1.7030911,0.37779886,-0.93353873,1.5632282,-0.4830359,-0.28192377,-0.6814915,-0.3888133,-0.16936924,0.4340821,-0.7876596,-2.1446497,0.32806242,-1.074918,-1.1047554,-0.55647,-0.2143365,-0.3995064
person17,-1.5615762,0.95639205,0.17880914,-0.07204414,-1.2003261,-1.1998131,-1.4559786,0.24860927,0.55078876,1.5337739,-0.25224698,0.45974666,0.35187873,-0.86822814,-1.5336078,0.38842577,-1.4170108,1.2583184,-0.37422177,-0.020275468,-0.5948797,-0.21974301,-0.04043759,0.21672945,-0.9665908,-2.21154,0.11974107,-1.2102683,-1.5730363,-0.3975335,-0.05781553,-0.5866746
person18,1.685249,0.27695745,0.5568444,0.110560276,-1.7168268,1.0603952,-0.875731,0.44702166,0.23833786,1.1876343,0.6785426,0.10920841,-0.7238591,-1.2493751,-0.6388045,0.0036835598,0.4022574,-0.3753309,0.40825135,0.7329017,-0.4772485,0.1846286,-0.77193534,0.9344552,-0.17669025,-1.3440723,0.9575617,0.99217796,0.9735563,-0.7803023,-0.17908688,-0.3934933
person19,-0.3931713,-0.27749807,-0.9198894,-0.059864286,-1.5530804,-1.636405,1.5770105,1.0675918,-1.0412167,1.1033427,0.8868394,0.365345,0.8629472,-0.38008347,-1.3178202,0.5660114,0.6956225,0.9494029,0.38515687,0.0988731,-0.26908824,1.4757452,0.39494976,2.1637259,-1.8919982,-2.1472697,-0.5604042,1.5404445,-1.0661123,-1.1742028,0.27404,0.103151605
person2,-0.2893885,-0.97552437,-0.1057946,0.43700483,-1.1932385,-1.0962207,-1.2955759,0.164562,-0.18771182,1.1408557,-0.32015875,-0.24297933,0.07072851,1.0555352,-0.7583575,0.24443698,-0.16838145,-0.8805819,-0.28367844,0.80916643,-0.2859689,0.3667372,-0.6069157,1.281024,-0.4069004,-0.9122086,0.26457506,-0.69471806,-0.78396374,0.040493064,-0.3865713,0.07351167
person20,-0.7962462,0.5212286,0.38503945,0.37046674,-1.4819309,-1.3761872,-1.5918958,-0.03875459,0.8361475,1.3922616,-0.3203752,0.19677022,-0.010244787,0.7503162,-1.2896369,0.2861,-1.2043574,1.0014176,-1.1068046,0.054472,-0.32058144,0.09032516,-0.53386086,0.080425315,-0.1495269,-1.582576,0.5509458,-0.9578942,-1.070923,1.1009247,0.17507555,0.2534816
person21,-0.19006473,0.25158826,0.3277895,-0.025926681,-1.3902284,-1.4146951,1.6024438,0.24438877,-0.050580606,1.3608818,0.7378806,-0.15617417,0.64570206,-1.3131784,-1.3406823,0.24928926,1.4297764,-0.05495464,-0.9283985,-0.6077453,-0.5427454,-0.67283094,-0.029972492,0.2474864,-1.3644693,-2.052653,-0.22260003,0.8384716,-1.3558401,0.84785277,-0.4205854,-0.41409072
person22,-0.92050856,-0.86657786,-0.9220436,1.2239438,-1.7197664,1.4967037,1.0949062,1.1438041,0.8460931,1.3447055,-0.038141478,-0.16507685,-0.626877,-0.58190626,-0.20635279,0.5019023,-0.66165507,0.18721786,-0.5110327,0.5170984,-0.50203496,0.5692826,0.887384,0.5981259,-0.3564019,-1.7782617,1.0333259,-0.6384814,1.2035089,-0.18533663,-0.30078027,0.2292699
person23,0.67322975,0.004045442,-0.11947234,0.20297241,-1.3911306,1.3439846,-1.404171,0.75998795,0.4226952,0.80413294,0.89739984,0.33515716,-0.76214737,-0.30445257,-1.3290727,-0.20997924,0.9634882,0.9865365,0.88702554,-0.4180264,-0.27921954,-0.25920862,-0.58595055,0.089118294,0.35936135,-1.4824929,0.61823136,1.0291024,0.6481553,0.6588257,0.31328565,-0.52190036
person24,0.78170973,0.5341431,0.90491897,0.5195888,-1.3486627,1.0604576,-1.4725734,-0.4979349,0.29223734,1.2637969,0.9629152,-0.3606212,-0.6253252,-0.006385237,-0.92886066,0.5153436,0.4294509,-1.3121132,0.66620696,-0.47899053,-0.3146733,0.9023033,-0.5775765,0.76266766,0.42475146,-1.6820217,1.199808,0.9775584,0.82993054,-0.32306644,0.17571045,-0.49652737
person25,-0.64235216,-0.01520751,1.2090278,0.27317443,-1.074507,0.8133486,0.67510134,0.15137516,0.54628915,0.8864125,0.12170479,-0.0020886336,-0.039437413,0.75374085,-0.4878813,0.40287033,-0.7867678,-0.33572412,-0.42458266,0.38310668,-0.31990877,0.71084726,0.44998878,0.7319001,-0.20910345,-1.2238973,0.21460873,-0.8025563,0.76609546,-0.40175295,-0.28989965,0.017544474
person26,1.3659247,0.45556897,0.13763703,-0.44764423,-1.6713842,1.545403,-1.1092079,1.2523836,1.1378887,1.469989,0.7057873,0.18823843,-0.29622123,-0.79983276,-1.1500995,0.18099307,0.02670887,-0.20486364,0.48849294,1.873201,-0.6890372,0.57502073,-0.8012257,0.85469115,-0.23227577,-1.3500656,0.7116565,1.558098,0.9951628,-0.7473685,-0.3526508,-0.16798551
person27,-0.98707724,-0.92696786,-1.7721834,0.049481582,-1.6892902,2.4956453,1.3010253,0.6913423,1.2482339,1.3819718,-0.544637,0.6948363,-0.8529005,-0.41741458,-2.0294924,0.44354317,0.86195344,-0.32309252,-0.9533141,0.9153755,-0.17580624,-0.0855795,1.5996919,1.176155,1.5283402,-1.6586317,1.6128964,-0.5114425,1.3866291,0.17599173,0.3538695,1.0498294
person28,0.2454912,1.4292732,-0.19727975,0.73312664,-1.4850718,-0.9221483,1.373474,0.9315826,1.3685555,1.3705933,0.045098852,-0.64805365,0.7180476,-1.0853261,-1.3705045,0.6001025,-0.68817115,-2.0215886,1.131218,0.71732837,-0.1358307,-0.77988493,0.95679164,1.4114115,0.4295661,-1.6601995,-0.21932746,1.0626491,-1.2147115,-0.77025086,0.34997824,0.56995595
person29,-1.1899362,-0.3823894,0.34428298,-0.46672332,-1.6366267,-1.1043707,-1.4006753,0.5047594,1.0147575,0.88488406,0.005294705,-0.5235894,0.7299409,0.68760335,-1.319105,0.35444155,0.42272016,-0.61512923,-0.08312813,-0.2279835,-0.2510556,-0.42720732,-1.2357451,1.0568175,0.69523644,-1.8886734,-1.4039297,-0.5104738,-1.3738824,1.1871095,0.24627973,0.466039
person3,-0.5512411,0.65161186,-0.82391346,1.5701742,-1.8325624,1.1228436,-1.6916978,-0.96078634,-0.18728158,1.2348171,0.66637886,-0.4486047,-0.77807355,-0.117171474,-1.1908911,0.0036195866,1.8758202,0.9070028,0.32269484,0.41106412,-0.27782077,-0.4841368,0.12174396,0.5697763,-1.2758875,-1.7015634,-0.014791683,0.8907807,1.4599718,-0.15046765,-0.17513701,0.2654015
person30,0.8969424,-0.049640365,0.7709639,0.72817445,-1.5308172,1.4712048,-1.3861227,1.1589841,1.5974605,1.2733117,1.5823377,-0.09083049,-0.206195,-0.76332706,-1.4831964,0.21008837,-0.34088805,-0.25524908,0.9341816,0.69840753,-0.8157905,0.93954676,-1.1501108,0.5657098,0.4553665,-1.5844413,0.9784751,1.2912908,0.7800256,-0.2060761,-0.8541014,-0.5251059
person31,-0.7868879,0.11247023,-1.4815706,-0.061345357,-1.9302735,2.5286882,1.1714435,1.4052262,0.94661343,0.98409283,-1.2966412,0.7358099,-0.8083622,-0.5221936,-1.5053924,0.5163979,0.5766451,0.80747133,-0.3061759,0.053470574,-0.3229834,0.5514749,0.8796533,0.5857108,1.2643253,-1.9190784,0.42473766,-0.9293434,1.64231,0.36764154,0.5728147,0.77369636
person32,1.1185267,-0.18044785,0.37650803,0.5750816,-1.1758783,1.252718,-0.65946156,0.9386678,1.3819193,1.080951,0.9355515,0.44825405,-0.5098138,-1.3943102,-1.4122882,0.17154291,-0.39971095,-0.040810034,-0.24745719,0.6578999,-0.47195345,0.8730251,-0.59770846,0.4387425,-0.108085796,-1.3339121,1.2194616,1.1296446,0.84327394,-0.8800241,-0.3222619,-0.19726774
person33,-1.180464,-0.36794364,-1.4404198,-0.08787303,-1.5688186,1.6322492,1.2240881,0.96646786,0.93114144,0.9586246,-0.26501447,0.4221069,-0.8689679,-0.7584119,-1.4937365,0.5006227,0.42793354,0.30994055,0.3727983,0.33067724,-0.1379967,0.586885,1.1844076,0.8176649,1.1063172,-1.4710872,0.64200085,-0.6015549,0.8531295,0.45564967,0.38016814,0.83769125
person34,-1.4602332,-0.04189604,0.09209127,-1.0489177,-1.4200581,-1.6590264,-1.2487953,0.392197,0.54901224,1.0041019,-0.92832637,-0.11359698,0.49107963,0.006894707,-1.3460598,0.22122276,0.50705576,0.023993677,0.41460115,0.20035997,-0.34589624,-0.65450454,-0.9627523,1.4314764,0.7256583,-1.4467115,-1.1703497,-0.46192262,-1.1528302,1.2613631,-0.34675258,0.3532972
person35,0.9714996,0.13103391,-0.03655834,-0.5760016,-1.5799209,1.0977793,-1.0342323,0.8647643,1.2536782,1.249407,0.4454721,0.19282368,-0.89349824,-0.31305906,-0.9795849,0.38939938,-0.38601908,-0.5450394,0.030258024,1.7130167,-0.5738785,0.8856696,-0.44667697,0.96799856,-0.08245237,-1.4310514,1.3171644,1.503549,0.6666643,-1.3231487,-0.0067278203,-0.4713834
person36,0.9029525,0.097542025,-0.3929742,0.34501603,-1.5118055,1.4442434,-0.84887207,0.31971323,1.3065741,0.9733441,1.1938281,0.44795814,-0.9372875,-0.19040564,-1.1531569,0.20766066,-0.44565505,-0.6814662,0.1927695,1.1647875,-0.4318292,0.72758394,-0.6069465,0.68004304,-0.002399656,-1.3655622,0.8014316,1.056701,0.80465245,-0.41865435,-0.1638486,-0.17119619
person37,0.3824136,0.70231724,0.15239911,1.0082521,-1.210831,-0.9903796,1.2459658,0.73501074,1.3905041,1.3064008,0.77536064,-0.8398178,0.72236544,-0.90551525,-1.1512896,0.6874245,-0.5789309,-1.9599782,1.1135417,0.5482156,-0.21205983,-0.6304862,0.7858238,1.652073,0.61550605,-1.8027883,-0.64607024,0.9471197,-1.0304365,-0.29515764,-0.08994833,0.6137012
person38,0.1406778,0.39011267,-0.2780865,0.04650011,-1.390062,1.7830156,0.95229954,0.8200793,0.4980735,1.0614585,-1.0192022,0.49596384,-1.1899334,-1.3930367,-1.3103125,0.7610193,0.018416228,0.1639601,-0.011864393,-0.39230397,0.05004844,-0.6075713,1.1954949,0.8804936,1.5296122,-1.8740261,1.1321548,-1.2421137,1.2601116,0.7472645,0.7445547,1.2398578
person39,0.47631872,0.63234746,-0.88216376,0.37143478,-1.6632856,-1.1459622,-1.0080454,1.2133032,0.054515585,1.0750166,-0.34954458,0.58533853,0.50536525,0.29544082,-0.9081252,0.29266167,1.7818471,0.49170405,-0.7038921,0.7988327,-0.38065654,-0.13256185,-0.90660584,0.083104394,0.59590304,-1.1634881,-0.35156298,-0.8695955,-0.92108315,1.4332979,0.06801525,-0.13347416
person4,-1.4608611,1.3401868,-0.0885642,0.19851238,-1.0953002,-0.8363805,-1.4302223,0.12238137,0.62957245,1.4892416,-1.0437161,-0.21890984,0.35540757,-1.0010226,-1.3853139,0.52208096,-1.3611368,1.3808019,-0.42099905,0.07441422,-0.5060135,-0.3292294,-0.3387056,-0.5266684,-0.7102544,-1.9700505,-0.29383886,-0.57470715,-0.77675134,-0.34645605,0.05098088,-0.015543829
person40,-0.41578984,0.24763839,-0.95531076,0.63331085,-1.0401189,1.7330183,1.0527705,0.92592627,0.96919,1.3475355,0.3394497,1.2973397,-0.8233515,-0.72564226,-1.9693394,0.61020905,0.5419143,0.029813247,0.48549643,-0.5167007,-0.3758073,0.14669569,1.0214993,0.17329113,1.3852478,-1.6740842,1.2981272,-1.1381768,1.2979578,-0.6292272,-0.35339057,0.28512856
person41,-0.48455733,-0.71366227,-0.9899567,0.7320086,-1.3967142,1.7663163,1.1710651,0.65776324,0.19453835,1.039454,-0.4552429,0.8302135,-0.57266366,-1.1214426,-1.5900631,0.29190987,0.43921262,0.6090818,-0.26223966,0.48484126,-0.088196956,-0.4393156,0.9593338,0.4470709,0.73684436,-1.495692,-0.8820952,-1.2773173,1.3131611,0.021210205,0.6624495,0.2856816
person42,-0.20058614,-0.35422105,-0.14672922,0.25114062,-1.04344,1.7128717,0.7687309,0.96453094,0.4311349,0.7178167,-1.4297936,0.6210387,-0.88422525,-1.0706036,-1.4064033,0.5412764,-0.24547789,0.5574609,-0.36756945,-0.5047541,-0.10577738,-0.22398059,0.6801057,0.662527,1.0820521,-1.390866,0.7000143,-1.014266,0.8400771,0.44887364,0.6186892,0.43572077
person43,0.4548494,-0.22463237,0.6925171,0.33118778,-1.0457169,-0.7025993,0.8538997,1.4087268,0.7325964,0.95276105,1.0563278,-0.26185104,0.26251942,-0.5803265,-1.1956443,0.42080182,-0.8188823,-1.7610531,0.7923231,-0.061470486,-0.23736043,-1.6684349,0.75227785,1.4579431,0.80711955,-1.1086372,-0.12671867,1.2360444,-0.7342941,0.016924925,-0.07835907,0.5553282
person44,0.49997732,1.6212962,-0.20151384,0.0076350933,-1.3030839,0.893492,-1.0529538,0.6158105,-0.5373397,0.97624695,-0.03099044,0.17917196,-1.090344,0.7977436,-0.9320592,0.0334749,-0.9456579,0.7269937,-0.116549835,-0.91262,-0.21282397,0.19393414,-0.36140233,-0.011823193,1.110419,-1.6810306,1.0783362,0.9540102,0.60634404,-0.19774823,0.1709331,-0.028973734
person45,-0.15024713,-0.028630499,-0.08899962,-0.7834619,-1.5878959,-1.1329129,1.679188,0.08952176,-0.37043035,1.1744223,0.85201925,-0.40811825,1.5134758,-0.46584433,-0.9980322,0.19395646,-1.3809838,0.5714966,0.2211447,-0.59535044,-0.31184396,-1.2247641,0.87477905,0.4819583,0.60409755,-1.60363,-0.52676976,-0.06797234,-1.0362958,1.1491268,-0.079747394,-0.57178324
person46,-0.74147934,-0.07969954,-0.23402618,-1.2885737,-1.3309746,-0.93562245,-1.3313943,0.9877921,0.31103876,0.8822246,-0.3127176,0.31412375,0.47383425,-0.49126515,-1.0680915,0.31292424,0.46457013,0.12650435,0.12066642,0.5688309,-0.33221966,-0.56675667,-0.9216592,0.51313317,1.2038957,-1.5358962,-1.2225723,-0.48383772,-0.90251935,0.6157592,-0.3326267,-0.055766568
person47,0.77576596,0.18694781,-0.2422069,1.0624076,-1.4714421,0.8980564,1.4085013,1.4062997,-1.1007748,1.3196414,-1.0587333,0.17601646,-1.0303938,-0.34912613,-1.1167455,0.3064939,1.400417,-1.7068157,-0.4022509,-0.121313795,-0.43514168,-0.42722857,0.5791351,1.5266739,0.1310905,-0.89588976,-0.45939732,-0.26102838,1.012404,-0.15742776,0.19784175,-0.38530952
person48,-1.1099937,-0.12881005,-0.79480904,-0.43037152,-0.87325454,-0.8567026,-1.0078474,0.52643996,0.25993884,0.59567,-1.1907921,-0.16122931,0.37668747,0.6066294,-1.4091653,0.4915598,-0.36842743,0.5486152,-0.1642808,0.15330052,-0.28260008,-0.8840443,-1.0145383,0.70760804,0.07516813,-1.6086254,-0.6694204,-0.64130163,-1.047753,0.9594686,-0.523334,0.072275676
person49,0.51762265,0.0751815,0.8453401,0.17996338,-1.2895685,-0.864303,1.2506119,0.5920198,1.0252739,0.91174,0.22378403,-0.4416173,0.51351535,-0.5843103,-1.3136678,0.45175713,-0.48251215,-1.7026366,0.5472891,0.9180517,-0.22921053,-1.1066893,0.45946988,1.182257,0.78647274,-1.4704691,0.3021435,1.4024087,-0.68944806,-0.9733039,0.087968625,0.38077128
person5,-0.67717266,-0.39650118,-1.3535025,-1.0758065,-1.0755329,-0.6479347,1.2235007,0.5949,-0.65297294,1.0070655,0.027804246,0.25013453,0.47151136,-0.24096774,-1.137039,0.74148214,0.98913985,1.1304158,0.37402588,-0.18594702,-0.21988598,1.5161922,0.32954416,0.8874367,-1.4371401,-2.2932563,0.3008634,1.4505701,-1.1086864,-0.5227816,0.4151572,-0.20528144
person50,-0.7903999,0.72138745,0.1052896,-0.31364435,-1.4164572,-1.1287072,-0.84964645,1.2220008,1.0797521,1.220942,-1.156184,0.4589598,0.64570045,-1.1442993,-0.985248,0.593712,-0.90601677,0.6363507,-0.95959973,-0.9848184,-0.34147078,-0.710143,-0.6338366,0.09153907,0.4345464,-2.2857165,-0.55566275,-0.94475067,-2.0757022,-0.7352955,0.0043313378,-0.073988385
person51,-0.20714062,1.0846992,1.4607544,-0.21594468,-1.7690976,0.059123766,1.2340746,0.91720486,-0.780135,0.27152145,0.251206,0.9212874,0.8590701,0.11086903,-1.8114184,0.98502666,0.40968585,0.41162404,0.45023176,-0.48284814,0.5719995,0.7277122,0.0039345194,1.7175957,-0.721653,-0.9694528,-0.37693417,1.1690239,-1.362814,0.54732746,-0.62920016,0.52130526
person52,0.014505466,-0.9156528,-0.01209126,-0.6214085,-2.2335112,-1.4789475,1.9844269,1.5378232,-0.68087643,0.60712755,0.49943045,1.2030233,0.6429987,-1.2607723,-2.0716286,1.2252496,0.43758368,0.8329878,1.4217808,0.2567789,0.16469248,1.1237619,-0.23204778,0.63773644,-1.5805598,-0.9876704,0.2939564,0.5466612,-1.6949826,-0.71727425,-0.29815885,-0.550216
person53,-0.6568963,-0.75602376,-0.0070726187,1.2720846,-1.1948618,-0.086164825,-1.2796707,0.5312054,-0.11553325,0.5203092,0.7899732,0.9878571,-0.7588487,-0.40180117,-1.6285356,1.5308392,-0.21574706,-0.6878053,1.1554587,-0.36576408,0.25927007,0.24600782,-0.03061519,1.0708563,-0.75615716,-0.6859073,0.1512557,0.542026,1.1068726,0.787624,-0.020043097,-0.21177298
person54,0.05414234,-0.38967416,-0.08480248,-1.2535512,-1.4470838,0.6039047,1.2635492,0.8257541,0.1546212,0.473395,-0.014403193,-0.84359735,-0.599788,0.655387,-1.7603555,1.4215724,-0.55161333,-0.53304887,-0.12671033,0.4865152,0.30055913,0.09306824,0.4813751,0.78235424,-1.4653044,-0.7484978,0.13203228,-0.9108794,0.8773703,0.37831655,-0.23225814,0.17238536
person55,0.67357755,-0.99137896,0.32802436,-0.71932524,-1.5824931,-0.9218429,1.0175021,1.2300073,-0.8114322,0.06440554,0.08453026,1.0296218,0.8946598,-0.25082475,-1.4204307,0.7887817,0.26545113,-0.019971726,1.5430951,-0.694926,0.3899424,0.82690686,0.22967115,0.47654164,-1.1783469,-1.0482914,0.4026632,0.6288213,-0.79702884,-0.5412939,-0.030233517,-0.3548606
person56,-0.40561643,-0.35970083,-1.1224421,-0.17065175,-2.1283317,0.05378928,-1.4078677,0.8115906,-1.2404375,-0.094737805,0.16675162,-0.6585912,0.82900655,0.48314667,-1.3197905,1.0543342,-1.1641622,0.67842925,-0.5835908,-0.5984068,0.21635625,-0.22886151,-0.4975446,1.0583676,-0.7501444,-1.3852788,-0.090817235,-0.9552436,-1.3669207,-0.70803857,-1.0975763,-0.30706516
person57,-0.055356067,-0.9411107,0.7460694,-0.47045496,-2.0943015,-1.2097591,1.5235468,1.3342693,-0.72083986,0.41641942,0.19519337,0.96337074,0.45122287,-1.2057242,-1.8084795,0.9432948,0.33397606,0.8847018,1.6486951,-0.669117,0.24081899,1.5810181,-0.51342154,0.7295943,-1.2036959,-0.7773313,1.4148966,0.8799645,-1.2197654,-0.7257286,-0.7734368,-0.32474902
person58,-0.2554911,-0.6512167,0.10335273,-1.1940248,-2.189825,-0.95924354,1.742298,1.865298,-0.5188112,0.3451195,0.21348985,0.9663409,0.31875727,-1.0719827,-1.88243,1.1270875,0.70665234,0.54249835,1.849707,-0.14143978,0.019211886,0.8285419,-0.35132137,0.5362805,-1.9544388,-0.8902806,0.57979035,0.37236273,-1.2452421,-0.807488,-1.067278,-1.0962673
person59,-0.5432367,1.1332842,0.38630953,0.29303196,-1.9328855,-0.5863285,-1.54563,0.14768016,0.9214247,0.80697775,0.16749813,-0.54560226,0.57526785,-0.41905114,-1.550336,1.4905503,-1.1692247,-0.5322552,-1.1518459,0.5255685,0.402347,0.15735368,-0.21036494,0.48836103,-0.5987227,-0.9225749,0.049203698,-1.3048733,-0.6829275,-0.1975159,-0.44033813,-0.25542438
person6,-0.11630538,0.6526998,-0.093169145,-0.26406857,-1.1685927,1.1396413,1.2637477,0.76625794,-0.45981163,0.9182983,0.41178134,-0.094966516,-0.31293678,0.0068141394,-0.66573095,0.5176517,-0.43101677,-0.6916911,0.19905321,-0.69127417,-0.34041268,-0.27673805,0.19890012,1.0699427,-1.0446554,-1.5861919,0.122142054,-0.78500503,1.0199116,-0.2545692,-0.23411694,0.27472076
person60,0.423769,-0.93346655,0.036218714,-0.51908404,-1.7233502,0.071311094,-1.2532325,0.5603643,0.9348654,0.35331145,-0.67645174,0.4043965,-0.45587644,0.29298028,-1.0188215,1.3469591,0.36240047,-0.04472744,0.572809,-1.7293603,0.40831232,-0.44658884,-0.3352795,1.5570574,-0.740394,-0.87785476,-0.7572625,0.76885384,1.0245012,0.25209415,-0.47148663,-0.068839885
person61,-0.12990355,-1.1416421,0.6978393,-0.785936,-1.6969252,-0.92608446,1.3638605,1.4894499,-0.71732134,0.39700273,0.005360906,0.8059169,0.4308163,-0.6993682,-1.8778076,1.2692703,0.33803737,0.5988062,1.2488931,-0.20603889,0.23806384,0.9462681,-0.32213342,0.35087207,-1.6759704,-0.88759434,0.033188965,0.6102418,-1.5098999,-0.28206432,-0.3769243,-0.4163297
person62,-0.5510386,0.0030634622,0.12024632,-0.0066332715,-1.8166853,0.20940828,-1.394364,-0.14895019,1.1003884,0.41228557,-0.3899,1.1007788,0.11869481,-0.07917448,-0.90793514,1.1324829,0.46979234,0.4090729,-0.08300522,-0.47567898,0.32576287,0.48487973,-0.40236264,1.2908978,-1.1180615,-0.9728412,-0.4424576,1.3252972,0.6963387,0.0396009,-0.4276378,-0.058070347
person63,-0.53217185,0.9621676,0.8162681,1.6026902,-2.5428193,-0.4096039,-2.0003617,0.42713237,2.0966332,1.110516,0.008191683,-0.7240203,0.5786602,-0.34235063,-1.4953306,1.8578273,-2.0361772,0.54184294,-1.3175298,-2.2318718,0.41213146,-0.2388311,0.112449974,0.24712111,0.86290133,-1.5890325,1.0890633,-1.1464478,-1.2998399,-0.8354982,-0.36549178,-0.70837265
person64,-1.1556857,0.7844503,0.3371227,0.4305316,-1.3658438,0.15363981,1.1228578,-0.004156398,0.5205066,0.90407777,0.16590793,-0.25000212,-0.12693912,0.36820272,-1.4798421,0.9545511,-0.039412525,-0.35011932,-1.2494015,-0.27416676,0.26578534,-0.04067435,0.19107191,0.3712039,-0.022476422,-0.79657495,-0.339764,-0.76253533,1.4671223,0.0039432086,-0.6301639,-0.26032832
person65,-0.32933864,-0.52552134,-0.6939585,0.36292917,-1.9265908,0.4191335,1.1777815,0.5185977,0.7833453,0.9017253,0.88974786,-0.33524156,-0.44133684,0.10839439,-1.5289587,1.19989,-1.6005247,0.0848303,-1.1867673,-0.44525295,0.30939773,-0.38602608,0.8904204,0.34513825,-0.59627795,-0.7389565,0.44507167,-0.978559,1.4323232,0.5945095,-0.86650306,-0.35137796
person66,0.93355536,-0.923944,0.47163022,0.053911384,-1.5350076,-0.45627832,1.4772664,-0.62674123,1.2444671,1.155084,1.0881982,-0.093089804,0.9650222,-0.5844639,-2.2699025,1.7894155,0.30895382,-0.44858423,-0.41927585,0.32184893,0.5351971,-0.3940801,0.13263462,0.09358904,0.20193823,-0.8986049,-0.091013,1.1625503,-0.8844302,-1.6522408,-0.44774652,-0.12260626
person67,0.117932916,-0.13313796,0.36720988,-0.24974063,-1.1644534,-0.716345,1.0085598,0.10085411,0.59033525,0.32113746,0.12681998,0.48400104,0.35086453,-0.5300302,-1.4038,0.8486402,0.92558664,0.0061810925,0.5784434,-0.70520955,0.24512555,0.10063809,-0.1211884,0.06469322,-0.85004896,-0.8875974,0.2515913,0.3886201,-1.0152671,-0.08980982,-0.47742462,-0.3714057
person68,-0.8093485,0.07970237,1.7163131,-0.14285257,-2.2386167,0.16051833,1.1600647,0.18345474,1.4574797,0.83478266,-0.9091041,-0.03541119,-0.45086557,0.9860259,-1.2419474,1.0236478,-0.6774174,-0.29953045,-1.5020858,-0.16208395,0.3281199,0.35300526,-0.08310957,0.51998174,-0.7336326,-0.95220613,0.06996955,-1.424459,1.1752012,-0.95063454,-0.7218288,-0.28358996
person69,0.9250737,0.38694108,1.0859212,0.106424436,-1.5751299,-0.43301287,0.95325834,0.03387075,1.3441871,0.7327091,0.24340998,-0.11582609,0.31986132,-1.3041091,-1.5997509,1.4342698,-0.2379725,-0.5780848,0.9159325,0.6010658,0.59316623,-0.19258212,0.43997017,1.0124462,1.0546534,-0.9764553,1.0323554,1.0662749,-1.0743601,-0.43836436,0.32592884,-0.053627677
person7,-0.41241574,-0.03033494,0.42029253,0.27985442,-1.3068604,-1.4261376,1.3251382,0.42225525,-0.5747809,0.832271,0.04654175,0.94516444,0.7060523,0.59290946,-1.5706718,0.16119123,1.406692,1.7031878,0.031942654,0.39824462,-0.6577491,-0.6110685,0.4509579,0.5936155,-0.6543128,-1.9222955,0.4188431,0.7722108,-1.0690045,0.93169147,-0.016908249,-0.93311363
person70,-0.58674306,-0.8178869,0.22338255,-1.0365167,-1.6747569,0.7950322,0.90688556,0.39396575,1.0512246,0.9325474,-0.12799743,-0.01294566,-0.31874922,0.28311846,-1.1909117,1.3320965,-0.43205604,0.5066203,-0.16028912,0.14083183,0.4444963,-0.25415024,0.21198301,0.2348733,0.20310587,-0.97855276,-0.25644806,-1.5639526,1.1706477,-0.5910951,0.23508406,-0.4240351
person71,0.8420594,0.28579456,1.2346436,-0.13802326,-1.6563629,-0.37127483,0.96412736,0.6879081,1.3513218,0.59421617,0.4794317,-0.49324757,0.33794633,-1.0119959,-1.7853901,1.414591,-0.4691762,-1.3399134,1.1823273,-0.7375429,0.66451716,-0.524353,0.47364628,1.1023397,0.6479506,-1.1258124,0.6833449,0.97086877,-1.5830852,-0.5809938,0.37666807,-0.042861827
person72,1.1558474,0.3186227,1.5651203,0.8584729,-2.0963092,-0.15010868,1.316029,0.1652582,1.4280714,1.2152215,-0.009806981,-0.7391302,0.78793436,0.03552621,-1.4809185,2.3555794,0.23187865,-1.4638978,0.35941318,0.7368037,0.6968515,-0.37551692,0.9112323,0.7392128,1.3095827,-1.3066374,-0.05061379,1.162782,-1.2053944,0.3973915,-0.17554632,-0.94928485
person73,-0.19481191,-1.0181403,-0.5786401,-0.61500806,-1.4509838,0.3045572,-1.1462599,1.1104463,1.2055118,0.9923877,-1.0409348,0.3121231,0.47038934,0.9349947,-1.4545246,1.8431331,0.32594514,-0.54956454,-0.30334553,-0.74893916,0.4700532,-0.889367,-0.31601197,0.28971484,0.47943678,-1.0303012,0.729182,-1.4657242,-1.3241686,1.342076,0.21419875,0.27779603
person74,0.9689866,-0.03715585,-0.030990228,-0.56951004,-1.6931589,0.2937412,1.0515692,-0.1898461,1.114929,0.48126718,0.66645163,0.5661902,0.8630802,0.39025325,-1.4563522,0.46012443,0.6955584,0.2293544,0.85152024,-0.54476607,0.38599104,-0.95923287,0.22973345,0.07839756,0.048384257,-1.2402847,0.11463436,0.9359237,-1.0750421,-1.6250583,-0.1074175,-0.24754807
person75,-1.1367519,1.2530776,1.1499283,-0.77539283,-1.8843662,0.3601963,1.3564172,0.65183395,1.0646435,0.7110726,-0.94072104,-0.12962839,-0.2847424,-0.7791095,-1.3620929,1.3699392,0.8441457,0.9583611,-0.5375014,-0.27927795,0.23172556,0.64679295,0.6564359,0.5602967,0.5584917,-0.92765206,0.06664675,-1.1892904,0.8740583,0.6410629,-0.38753346,-0.3831105
person76,-0.77881724,-0.33806017,1.6470847,0.339334,-2.0412445,0.09162655,1.3436413,0.24053378,1.1229708,0.85993075,-0.25466385,-0.28524944,-0.45819992,0.9197427,-1.4337097,0.9965742,-0.5764387,-0.14959688,-0.72562975,-0.35367063,0.33382386,0.32652676,0.011470058,0.20816469,-0.87827355,-1.013971,0.10022278,-1.1759462,1.2355038,-0.8612368,-0.68719304,-0.010357872
person77,-0.2965327,1.1534725,0.92002803,0.08958583,-1.8408861,-0.35161987,-1.2133437,0.4561014,1.7472878,0.8998477,-0.0921728,-0.64218897,0.69305605,-0.7034601,-1.1802527,1.2550004,-1.0605941,-0.3344714,-1.0302998,-0.95726866,0.41520217,-0.18595357,-0.5060527,0.2559861,0.39102158,-1.3833189,0.7865078,-0.9005319,-1.247415,-0.7513008,-0.36728618,-0.1846651
person78,0.7799518,-0.47954336,1.5683576,-0.5105781,-1.7643538,-0.27596202,0.9351705,0.12194632,1.2288256,0.739748,0.8825151,-0.6766437,0.35086483,0.26901096,-0.9493317,1.6696191,-0.10048741,-1.8747997,-0.35121217,0.5851248,0.6622377,-0.5273755,0.2578401,1.033454,0.7899482,-1.091044,-0.10600345,0.81414676,-1.15471,0.22805461,-0.034274288,0.10147149
person79,-0.47997782,0.19794925,1.09149,-0.6404707,-1.7560425,0.021337364,1.2135836,0.438154,1.3469194,0.72999084,-0.062213603,-0.17875463,-0.19954248,0.84056795,-1.5323923,1.0899048,-0.42664742,-0.4406934,-1.2244718,-0.7756857,0.27549642,0.17470187,0.14111893,0.11583461,-0.45489648,-0.9379318,-0.35136038,-1.414771,1.0831428,-0.559401,-0.7273977,0.19679946
person8,0.856572,-0.0843638,1.9908727,-0.86634797,-1.3345468,-1.7441974,-1.8109381,0.06875878,0.2979292,1.0572888,-0.56450796,0.102337904,0.34037203,-2.361544,-2.0447197,0.3274103,-0.729993,0.24807043,0.69767815,-0.54099625,-0.5278234,0.7636182,-0.81902593,1.433461,-0.9562186,-1.7402798,-0.27031043,-1.3720702,-1.0996845,-0.64954823,-0.47232187,0.46883312
person80,-1.2256644,-0.36703107,-0.74212503,-0.16876377,-1.4223758,0.4547979,-1.119413,0.19293457,0.48466882,0.49124122,-0.7701507,-0.19311976,0.75327194,0.5680217,-1.7727077,0.77510977,-0.065667786,0.13598019,-0.45485315,-1.1645659,0.17381676,-1.6032666,-0.4414594,0.056704305,-0.16817008,-0.9831984,0.30873904,-0.9177508,-1.2231715,0.9839345,-0.2738829,-0.6160995
person81,1.205782,-0.05104126,1.1405721,-0.11235809,-1.9077548,-0.16522205,0.8601799,0.47329515,1.797555,1.0873127,0.13738249,-0.61691433,0.9550163,-0.38220456,-1.4003457,1.9034832,0.11208772,-1.1302154,0.23762421,0.526834,0.6749325,-0.34216347,0.8000794,0.7682961,0.85477346,-0.93685955,0.53224444,0.81910497,-1.183907,0.78565246,-0.013791898,0.25994703
person82,-1.1713604,0.28715387,-0.25685084,-0.09369354,-2.053097,-0.08369884,-1.087317,0.75374025,1.0677618,0.6035385,-0.052546807,-0.55765647,0.9086513,1.0014995,-1.8382313,0.9487463,0.8418037,-0.79673374,-0.26071846,-0.7729005,0.5705954,-0.5509704,-0.7156753,0.52374303,0.5809182,-1.0754938,-0.63056487,-0.9534619,-1.8338354,0.7322555,0.26182255,0.18436459
person83,-0.73940444,-0.11959363,0.0035326814,-0.5798517,-1.4083204,0.14840318,-0.94714963,0.50715977,0.4956013,0.5753454,0.0192432,0.44867852,0.282057,0.3322098,-0.95894516,0.9892576,0.48230565,-0.055468645,-0.41233277,0.34015864,0.31979746,0.04757885,-0.35293812,0.57089496,0.7491899,-0.7712285,-0.8064755,-0.7059994,-1.0021317,0.059509646,-0.49968863,-0.013478839
person84,0.88635564,-0.8391168,0.63694775,0.0017084167,-1.4850385,-0.38495886,1.557222,-0.34738874,1.3798486,1.0161676,0.77920574,-0.34256327,0.54297376,5.9130834e-05,-1.8672502,1.5743599,0.42638308,-0.6498666,-0.5577336,-0.3298978,0.46000677,-0.58116764,0.6691352,0.43468842,0.28696012,-1.0570273,-0.61283344,0.95762444,-0.85879135,-1.1139119,-0.3231301,-0.2951153
person85,-0.74662197,0.6634468,-0.5510693,-0.132417,-2.305848,0.11655793,-1.5618662,-0.0021655392,1.3535438,1.0479364,0.3506811,-0.05436744,0.5284522,0.40277997,-1.2035198,1.2079868,-1.5178826,0.6262507,-0.5851838,0.022981107,0.27023977,-0.40167528,-0.46095636,-0.23384117,-0.2717294,-1.644013,0.33462387,-1.2817806,-1.7446828,-1.1268638,-0.56946164,-0.6645031
person86,-0.0491394,-0.9086088,-0.58403105,-1.318392,-1.589736,0.16924225,-0.8742357,0.9975919,0.75283074,0.6902951,-0.299012,-0.019249385,0.5356008,0.76782286,-1.2714578,1.4989518,0.5988987,-0.8321947,-0.34027275,-0.8860911,0.33074552,-0.24182117,-0.44477713,1.0480586,0.44215766,-0.67456615,0.5352915,-1.418332,-1.1522238,1.042388,-0.005524134,-0.24844949
person87,0.4491906,0.30631524,0.9466518,-0.03915007,-1.293203,-0.22290209,1.0642654,0.16022028,1.1346083,0.82355225,0.60071844,-0.38398013,0.31521663,-1.3423171,-1.8264085,1.6126698,-0.24251182,-1.45434,0.9021487,0.043009955,0.5567734,-0.38941386,0.3141241,0.7137707,0.8138847,-0.9775072,-0.041683458,1.033009,-1.070707,-1.1723503,0.115675926,-0.10690059
person88,0.5155208,0.4369422,-0.7717604,-0.29244938,-1.9162434,0.6442096,-1.6065108,-0.032568887,0.14408913,1.1801437,0.010164199,-0.42962795,-1.1077842,-0.2704512,-1.386187,0.9925048,-1.3715122,-0.8311185,0.70719194,-0.49150255,0.46052593,-0.117740236,-0.24229592,0.54438055,1.0374696,-0.95993835,0.20346174,0.8453189,1.1126554,-1.0164288,0.2575509,-0.4981107
person89,0.34195805,1.9914052,-0.9364804,-1.6356044,-2.1844428,-0.53891665,-1.2330943,0.116852455,-0.3570127,0.6537443,-0.88731444,0.12056495,-1.023508,0.80227566,-0.95877576,0.87242556,-0.8394323,0.33922434,-0.0111865625,-0.7101082,0.5813982,0.4433209,-0.75895435,0.890533,1.4568182,-1.5160121,0.5892025,0.97552633,1.43086,-0.31082946,0.113862276,-0.5188124
person9,-0.66753453,-0.5204653,-1.1941134,-0.112760566,-1.2933141,-1.2877829,1.3015501,0.3027614,-0.7362381,0.7839911,0.012648189,0.2572185,0.95015013,-0.26072556,-1.1897908,0.20763944,0.91250926,1.3207952,-0.17248721,-0.88437104,-0.25612086,-0.5240933,0.27605864,0.7379345,-1.2455978,-2.1302495,0.35131493,1.3522654,-0.8731992,-0.7970205,0.21011485,-0.07155313
person90,-0.51905376,0.28775173,-0.24702021,0.0862329,-1.7979546,-0.04655486,-1.3429577,0.7257185,-0.24819389,1.0584288,-0.27299538,0.31804428,0.9798402,-0.41727105,-0.9911272,1.5450155,1.434877,0.646592,-0.98905927,-0.10884298,0.43657705,0.42356473,-0.81860125,0.42389503,0.6509499,-1.0961059,-0.22508216,-0.24025363,-1.5666351,0.19408427,0.15289307,-0.22655691
person91,-0.2725299,0.55088574,0.92658836,0.22853255,-1.7282008,0.06674901,0.9662535,0.49348205,0.556768,0.3721135,-1.0338415,-0.09084489,-0.47066534,-1.2758969,-1.3502707,0.97423273,-0.2966068,1.2399111,-1.023643,-0.15963589,0.53007036,-0.35316944,0.41539302,0.98832357,1.0543398,-1.1554946,-0.9818233,-1.4003863,1.3109674,1.1217337,0.5672519,0.07424398
person92,-0.76831967,0.7792206,0.29806873,-0.4253762,-1.5511807,-0.053083785,1.3762344,0.86085385,0.46701035,1.2350463,-0.6387137,-0.47983444,-0.05272032,-0.6706904,-1.5972565,1.5433962,0.7405505,0.6144163,-0.439633,0.50556964,0.1932518,-0.13563047,1.0145878,0.48318845,1.2264621,-0.7585426,0.12911482,-1.1852167,1.2839187,-0.2537075,-0.33508432,-0.2757812
person93,0.38048378,0.71699655,-0.65089256,-0.23643906,-2.1683009,0.5852422,-1.3046823,-0.4449233,-0.022810783,1.1360666,-0.32939807,-0.6696458,-1.1703672,-0.32105023,-0.9479518,0.96313846,-1.1170233,-0.8791113,1.2602407,-0.7180129,0.60174394,0.10081779,-0.7899037,0.86198026,0.9516338,-1.1528478,-0.5965394,1.0502064,1.108011,-1.1762829,0.115422286,-0.30474278
person94,-0.81928587,-0.46195012,0.6258627,-0.14134301,-1.6410062,0.60082644,0.99006045,-0.048720375,0.17855772,0.89289933,-0.9971457,-0.11753495,-0.7002583,-1.7966728,-1.24003,1.3518836,0.45691177,1.2157996,-0.208244,0.13458385,0.39682376,-0.08324194,0.35961488,0.54451174,0.134875,-1.0484961,0.09993701,-1.3897569,0.98904794,0.73016906,0.056754924,-0.24976695
person95,-1.5069021,0.5270435,0.49271798,-2.0469463,-2.107446,-0.009771181,1.4734491,0.46193445,0.7683543,0.9624358,-1.111303,-0.32118148,-0.1477738,-1.4347353,-1.6459452,1.7246742,0.5195091,0.96726507,-0.20916742,0.30448204,0.289523,0.71505326,1.0187308,0.33322185,0.7592144,-0.99761146,0.30623612,-1.5912563,0.6183405,0.6607283,-0.6120071,-0.10009521
person96,0.46327737,-0.9777672,0.46929973,-0.11228777,-1.7376343,0.5805826,1.0710869,0.77009726,0.20813817,0.82035065,1.5192708,-0.6504746,1.4163488,0.23314454,-1.3741915,1.0730022,-0.5825344,0.56097907,0.5166409,-0.10843101,0.49892753,-0.29873183,0.6098163,1.05651,0.48666325,-0.92482114,0.20614885,0.7868108,-1.1406666,1.0731009,0.30417255,-0.4277117
person97,0.7737655,1.6011583,-0.26505035,-0.59940755,-1.6855603,-0.6631021,-0.9395284,0.3421141,-1.2599332,0.6688441,0.16163914,0.31804207,-0.753151,1.2762657,-1.0312839,1.0747168,-0.20439196,-0.040145293,0.24958088,0.27799347,0.3649553,0.055059053,-0.97230315,0.43313757,0.994504,-1.0960407,0.0009744819,0.61516476,0.9837418,0.16120306,-0.034043852,-0.44460884
person98,0.4372768,0.98354757,-0.32746005,0.52599233,-1.3231611,-0.327559,-0.791345,0.8714864,-0.11798364,1.1614428,-0.60388565,0.078236595,0.75339824,0.26147124,-1.3433168,1.2610039,1.2914317,0.11098697,-0.64310056,0.22794734,0.22281194,-0.22144742,-0.70789975,0.057790115,0.6114378,-0.4986832,0.051989377,-0.97673863,-0.73727256,0.79657793,-0.40692323,0.2671071
person99,-1.176624,0.078894824,-0.6142008,-1.1773593,-1.6322988,0.47499594,0.9294176,0.6376336,0.71990794,1.1627226,-0.5974582,-0.35187578,-0.54942167,-0.8651021,-1.3066647,1.1627233,0.77252626,0.28758717,-0.10975945,-0.23621625,0.120660454,0.44498226,0.18581364,0.045581743,0.6278595,-0.54920644,-0.635303,-0.95902765,1.012764,0.38933927,-0.32309774,-0.561873
