,0,1,2,3,4,5,6,7,8,9,10,11,12,13,14,15,16,17,18,19,20,21,22,23,24,25,26,27,28,29,30,31
acquired_abnormality,0.34017324,0.2407678,0.6719884,0.6613242,-0.86316276,-0.9496784,-0.46538445,-0.39519852,-0.085208,0.030260151,-0.38507155,0.033689335,-0.3004824,-0.21455857,-1.3228462,0.33924517,1.4156778,-0.14521113,1.251598,0.7456922,0.49783027,1.5405986,-0.47397935,1.7378473,0.15460722,-0.4087746,0.97901344,0.74825466,0.41882125,0.78168064,-0.5970118,0.7099692
activity,-0.2816019,0.1559754,0.058346167,1.0435766,-0.97438467,0.6314777,-0.14696491,0.11316363,0.60397875,0.7662217,0.44691053,1.6322975,-2.7949877,0.77017057,-1.9480993,0.4466044,1.8230537,-0.39966315,-0.04697386,-0.8384712,0.49658245,1.1057929,-0.14351615,0.8089212,1.0388573,0.7441771,0.49119532,-1.0609713,0.35142076,1.5730982,-0.12773545,0.7517501
age_group,0.39514604,0.31711635,0.8622783,0.24768028,-1.4108297,-1.6507928,1.3659945,0.2730606,0.68668884,0.21875979,0.52300423,0.6351098,-0.51322997,0.8898683,-0.79272735,0.21561837,1.8279833,0.28941655,-0.7305146,-0.21165399,-0.6642956,0.22220105,-0.7394203,1.3778709,0.32939437,0.0023481562,-0.28017887,0.13215478,1.3695402,1.1474236,-0.19936989,1.3640695
alga,0.5529708,0.6132253,-0.14779514,0.4949554,-2.0559628,0.65325236,-1.0656674,0.43833905,-0.2435322,1.0711721,0.20434463,1.0141647,-0.39558622,0.82232386,-0.28035593,0.098507345,2.0682054,-0.38022336,1.1994743,-0.9557228,-0.9273406,-0.769956,-0.08911114,0.8926734,0.91785705,1.3416802,0.6671513,-0.41311926,0.8742944,0.9485959,0.64461833,-0.05798505
amino_acid_peptide_or_protein,0.6972011,-0.7450279,-0.10516486,0.7100575,-0.79423094,0.87558526,-0.405859,0.04497636,-0.49548802,0.85685736,0.26495448,1.3607053,0.25107977,1.2741374,-1.067481,1.0617949,1.1656462,-0.3039975,-0.84947795,-0.27530536,-0.19494012,0.42612448,-0.5632842,1.4852717,0.17876935,-0.63795555,0.53718024,-0.4943966,-0.07110839,1.1223549,-0.23208888,1.3072879
amino_acid_sequence,0.99636185,-0.37174892,0.88415426,0.6171417,-2.0283577,-0.3864531,0.10183376,-0.21865225,-0.23282032,0.1354157,-0.04275809,0.37025046,-0.3003344,0.6175738,-0.41279143,0.55870694,1.0768484,-0.70727414,0.008243278,0.0934326,-0.09770174,-0.22897854,-0.3512771,0.69728553,0.32007742,-0.25942782,0.50297004,-0.7732238,0.5269829,1.3793116,-0.31830657,0.7442441
amphibian,0.8177114,0.3372817,0.31089464,0.60047394,-1.5178306,0.68030584,-0.82484937,0.86985886,-0.19671182,1.3963002,1.9972956,0.3042159,0.2981877,-0.061131958,-2.1389644,0.41213715,1.7347977,-0.58162916,1.3526785,-1.0410892,-1.5404124,-1.795776,0.79689205,1.4901438,-0.90828174,0.007926804,0.066764474,-0.34247458,0.8542241,1.2335569,0.17324643,0.1387348
anatomical_abnormality,0.27121893,-0.27299935,0.08175161,0.47443318,-0.92027235,-0.94641244,-0.30997723,-0.2633373,0.63576615,0.29164228,-0.55860287,0.19008516,-0.5396341,-0.19397502,-1.0705466,0.43467012,1.3971734,-0.7948678,1.2789179,1.3251594,0.60722804,1.4495708,-0.37112895,1.2952888,-0.35895216,-0.68445104,0.959371,0.7505298,0.6185225,1.017422,-0.64523464,0.5397627
anatomical_structure,0.19289243,0.98192513,0.2453345,0.44084445,-1.9336747,-0.00023015076,-0.24822702,1.2077495,-0.3651267,0.4394932,-0.50485575,0.25541207,-0.4952483,0.9392332,-0.91701066,1.2585725,0.5005703,0.16400816,0.013010052,-0.091520675,0.018770888,0.4212126,-0.11137754,1.4440019,0.26955646,-0.014817696,-0.046614654,-0.21724716,-0.5275262,1.6477969,-0.14846225,0.15540737
animal,-0.10543168,-0.292108,0.2871715,0.846213,-1.7691712,0.4386984,-0.6732358,0.41208518,2.9107828,1.2414354,0.75537944,0.6253583,1.0485951,0.5900586,-1.3819106,-0.18717138,1.3720969,-0.3624095,0.5014713,-0.24835226,-0.64354897,-1.6705053,0.05845657,0.27714455,-0.93574184,1.1775789,0.65973026,0.44893357,0.767808,1.3887408,-0.28362137,0.51522976
antibiotic,0.5251638,0.25980407,-0.4050891,-0.23914562,-0.8431395,0.103638396,0.19061399,0.5945328,-0.21125123,1.280246,-0.40042722,0.69042015,-0.3406082,0.89063776,-0.989708,0.42954406,1.0511905,-0.392302,-0.9435738,-0.29122543,-0.89122045,0.042525627,-0.30965176,1.0458858,0.44536352,-0.9387048,-0.70506775,0.15203324,-0.07113333,1.390626,-0.27261737,0.2864162
archaeon,0.41231292,-0.4549402,0.4715166,0.7179617,-0.9996687,0.3991043,-0.803673,0.5982272,0.4390513,1.2480742,0.9585675,0.61249286,0.34043133,0.5263588,-1.458698,-0.36278948,1.6253586,-0.24795046,0.9751408,0.08963524,-1.4327724,-0.9266654,-0.3320427,0.5452113,-0.8320476,0.9464162,-0.68613756,-0.26196682,0.3908048,1.3705312,0.76421267,-0.0008894829
bacterium,0.73113984,-0.5616114,0.4632375,0.42458683,-1.5543364,1.0204096,-1.2909087,-0.027305897,0.08394296,0.6392765,-0.5923197,0.47296995,-0.3250773,0.444597,-0.9076025,0.25218824,1.5552537,0.9967478,0.88384795,-0.5168467,-0.6023659,-0.5003311,0.6258947,-0.5656428,0.07048545,0.6940037,0.5554697,0.55408406,-0.13445324,1.0484905,0.49342424,0.065674305
behavior,0.79675674,0.5691794,-0.46236065,0.84585637,-0.12050761,-0.80386484,0.79757553,0.1452929,0.87402916,0.93817014,-0.21059953,0.7111352,-1.4903802,0.7969239,-0.64903414,0.8342523,1.0446924,-0.47876132,0.64486927,-0.61426294,0.4590932,0.42297265,0.5125384,-0.14851843,-0.6858021,0.57265335,-0.8511223,-0.14967039,0.09913238,1.986945,-0.030585892,-0.504124
biologic_function,0.1864842,0.005433888,-0.49792737,0.24421014,-1.0766922,0.008797389,-1.1029186,0.373596,1.1407825,-0.57201,0.480334,1.5056059,0.9595946,0.4860468,-1.3393623,0.25421852,1.185341,0.2729094,1.8301191,0.55329037,0.67982906,1.5762625,-0.80497557,0.3994269,0.47256994,-0.014346634,1.1060324,0.61546904,0.08855308,1.0595738,0.2071679,0.45059687
biologically_active_substance,1.0929435,-0.08549583,-0.5264514,0.50662965,-1.0492325,1.2072643,-0.31714046,0.31007284,-0.17198129,1.655906,0.47887886,0.9138771,0.28366593,0.31673396,-0.5190816,0.688958,1.5121022,0.13998042,-0.84956163,0.3302806,-0.6239096,0.53280365,-0.9017831,1.4226751,1.2087861,-0.53413916,0.8699805,0.50434005,-0.4281139,1.3540318,-0.02698749,0.5541452
biomedical_occupation_or_discipline,0.019885227,0.49356344,0.6948016,0.87497693,0.11466755,-0.37955332,0.8628957,-0.006837103,-0.15158015,0.6815781,-0.24483787,-0.2732015,-0.68215704,2.0408726,-1.6722215,0.8281157,1.3186958,0.24699648,-0.20372087,1.0000917,0.3037346,0.30275303,-0.0036346144,0.29973617,-1.1378545,-1.3657262,-0.9423479,-1.1420441,1.14674,0.83058184,-0.8808835,0.03299671
biomedical_or_dental_material,0.50739306,0.3009687,-0.48348582,0.71266294,-1.4188205,0.42582715,-0.3901294,0.7598405,-0.7516223,1.1630447,-0.81885797,0.7208264,-0.5794207,0.2575851,-0.7324649,0.019094452,1.2199455,-0.22804302,-0.8835596,-0.78173614,-0.6093456,0.32022676,-0.36203253,1.3320825,0.079659805,-0.9850658,-0.4086037,0.105311885,-0.23294544,2.0152853,-0.6005625,0.67450035
bird,0.09592723,0.45625678,0.743481,0.4621975,-1.0969521,-0.30604705,-0.51204485,0.08431904,0.64151686,1.6694697,0.429028,-0.020214057,0.26127163,0.42087698,-1.4984739,0.1449662,1.5755172,-0.31972045,0.7895734,-0.60111195,-0.82416105,-1.479624,-0.10553067,0.7525711,-1.4752023,0.1465689,-0.05880024,0.4528275,0.6165576,1.0460612,-0.2976054,0.791044
body_location_or_region,0.8652376,-1.5550677,-0.49603632,0.82394457,-1.5420594,-0.56107295,-0.34689373,0.9307649,0.16150786,1.1823373,0.6522984,1.754337,0.18200383,0.5506533,0.31424895,0.78057486,1.7593869,0.14508761,0.19065936,0.082030244,-0.422991,0.5488477,0.7667582,1.3300685,-0.2933398,-0.81542087,-0.3448393,-0.72221553,0.27742186,1.7891998,0.0011145081,0.30667102
body_part_organ_or_organ_component,-0.015766675,-0.78195536,0.0858979,1.2822788,-1.3004016,-0.78576314,-0.3707631,0.041889094,0.09653391,0.07208192,0.35245395,0.8959463,-0.65772676,-0.9544805,-0.6697232,0.68115056,1.6869512,0.20110527,0.34084436,-0.13491277,-0.025669493,1.2125014,0.8229169,-0.044027213,0.7599212,-0.27006847,0.23509008,-0.51323164,-0.5296603,1.7501824,-0.22546734,0.2999611
body_space_or_junction,0.629139,0.30581212,0.8044763,0.54075533,-1.3168291,-0.45442322,-0.044030316,0.2521043,0.18976474,0.8474044,0.9491917,1.2290887,-0.9711835,-0.36140108,-1.01314,0.29135218,1.7912294,-0.57575476,0.09944113,-0.73883885,-0.39027494,0.4625566,0.27645513,0.9604995,-1.8093002,-0.33780164,0.37697452,-1.2439971,0.103318244,1.0515106,0.06515271,-0.37324873
body_substance,0.9664475,-0.5625279,-0.7948512,0.64701176,-1.3206058,1.062633,0.8656778,0.4232276,0.45687667,-0.08490672,0.69280386,0.91649216,0.23606052,-0.6319628,-0.62809515,1.2911721,1.9389663,-0.046188515,-1.1012981,-0.7901073,-0.80186945,0.32311118,-0.18275839,1.4372808,-0.00018821866,-0.29297456,0.3185128,-0.07529031,-1.1347916,0.42752373,0.10672508,1.5892051
body_system,0.71157265,-0.854763,0.21248068,-0.4119942,-0.922752,-0.43006718,-0.5285533,0.8258263,1.1712626,0.83357257,-0.42542493,0.106608465,-0.08435167,0.27879024,-1.2014775,-0.27665582,0.9302349,0.49660724,-0.5040144,-0.12802663,-0.04844055,0.5152399,0.2434002,1.2719896,-0.8063097,0.111571066,0.23263747,-0.94696116,-0.3986891,1.7189683,-0.7595215,0.19455518
carbohydrate,1.10125,0.44640034,0.5737988,0.45296854,-1.690597,1.3871243,-0.4296176,0.16825338,-0.6119158,1.3090321,-0.49528414,1.1292746,-0.016982168,0.9166193,-1.5319061,1.2803652,1.3454953,-0.9472822,-1.0306219,-0.5548724,-0.6146222,0.41097596,-0.35008785,0.93884957,0.96343994,-1.445511,0.41770345,0.1983556,0.28087476,1.0423667,-0.42630377,0.9701315
carbohydrate_sequence,-0.24156073,-0.3307671,0.37848946,0.21352275,-1.6755795,-0.0043243663,0.3742943,-0.39993665,0.7537185,1.01923,-0.20587118,1.5848005,0.61632633,-0.0010447875,-1.4151744,1.4352455,1.7997117,-0.40727174,0.65791094,0.0044931783,-1.1700091,0.13337013,-0.14900446,1.7163224,-0.50560564,-0.86084324,-0.30818987,-0.91450596,0.5317418,2.109253,0.07427223,0.9954278
cell,0.2750611,-0.35973015,0.2628142,-0.30361807,-2.2586925,-0.4328227,-0.31014025,0.43461332,0.06288138,0.42970827,0.62630844,1.2697488,0.10258492,-0.2723787,-0.43540633,1.4856541,1.3330724,0.11257359,0.5037433,-0.79222536,-0.76769865,0.9296506,0.9412392,1.0806265,0.37281868,0.48757634,-0.56885546,-0.89213324,-0.549201,1.1032087,-0.21645848,-0.0010246797
cell_component,0.35348973,0.022192705,-0.09578735,-0.32953054,-1.6650021,-0.6911844,-0.86703235,-0.296398,0.3051923,1.2926071,-0.43005085,0.81645715,0.12042871,-0.45288748,-0.41425794,1.3257008,1.5232939,0.018477468,0.050715968,-0.15086341,0.053259008,0.6436892,0.2850183,0.14751057,-0.59319544,0.048681602,0.8430456,-0.717652,-0.63446003,1.5858133,-0.523794,0.14948072
cell_function,0.15012433,-0.40577963,-0.47765154,0.12706068,-1.5741348,-1.2880235,-2.1196773,-0.26898044,0.584619,-0.7123585,0.20023353,1.4204704,0.18952325,0.43762672,-2.1127584,0.14390536,1.2041945,-0.43886113,1.958909,-0.13425764,0.41335526,0.41944975,-0.29083148,1.0081122,0.7738105,0.90279967,0.57832026,-0.14166336,-1.4483414,1.2058823,0.2347172,-0.38199005
cell_or_molecular_dysfunction,0.31464994,-1.137451,-0.6165498,-0.22969332,-0.8459486,-1.0885046,-1.3366141,0.026527535,0.49402797,0.2377542,-0.8870164,0.17486802,-0.11356355,0.12321933,-1.5733014,0.17890166,1.2773349,-0.8190219,1.7882195,0.69423336,0.7979633,1.6218519,-0.94310313,1.6943903,0.49428406,0.019327419,0.350332,1.0396975,0.0042762123,0.678951,0.13058504,0.5736654
chemical,-0.14682612,-0.64364254,-0.30082238,0.9692827,-1.3857031,0.68781364,0.19839726,0.99663186,-0.40986198,2.2355297,-0.41076818,0.9840927,0.13545954,0.89939153,-1.0437694,-0.6422182,1.3457578,-0.052234057,-1.0252036,-0.80687183,-0.40150958,-0.054235846,-0.74135506,0.8825741,-0.109125935,-1.6163892,0.24689636,-0.37156805,-1.3333815,1.934166,-0.20997544,0.45332527
chemical_viewed_functionally,-0.2069629,-0.020810217,-0.10613739,0.71246517,-1.4929936,0.8100194,-0.13818528,0.15174773,-0.7573268,1.281576,-0.11183574,1.1686002,-0.21213281,-0.1001831,-0.821009,0.4590916,1.5851511,0.39943397,-0.8534733,0.0009923816,-0.7129236,0.09184094,-0.5055597,0.40791944,0.36412922,-0.7000452,0.01713515,0.06149921,-0.8564226,1.1498355,-0.9943755,1.1349078
chemical_viewed_structurally,0.21770601,-0.45965904,0.38279557,0.8130241,-1.653976,0.49490136,-0.5327884,0.89326924,-0.14516518,1.090422,-0.47123027,1.1961495,-0.59646875,0.12287682,-0.70573145,0.1867506,1.2698145,0.28160244,-0.61203533,-0.2986151,-0.4185689,0.60743874,0.04830397,0.49753007,0.65217876,-1.0055621,-0.57335156,-0.5140364,-1.1859854,1.2133778,-0.3374584,0.14328277
classification,1.2381232,-0.24369313,0.18067372,0.036904365,-0.71533203,0.30653402,-0.082701854,0.67796814,-0.3126035,-0.20798343,0.25356057,0.77887243,-0.7292773,0.46075836,-0.68409973,0.8295421,1.4354112,0.002676189,0.4570338,-0.50199383,0.3541523,0.5555041,0.19393611,2.1531107,-0.1700498,1.2240527,0.5451274,-0.5177036,-0.21419351,1.2792842,0.005606047,2.7803352
clinical_attribute,0.25328088,-0.6845911,-0.756365,-1.5398306,-1.2494923,-0.97372836,-0.5345244,-0.515647,-0.34590113,1.81416,0.42163697,0.7111737,0.47253728,0.604915,-1.3757992,0.76869506,1.9088515,-0.11908099,0.7246365,0.7490235,-0.658827,1.4988121,-0.16604176,0.36258495,-0.39574793,-1.3606635,-0.6371053,-0.37438366,0.6267838,1.0477355,0.40809554,0.9536798
clinical_drug,0.9506616,0.63536197,-0.5231748,0.8011415,-0.87345856,1.1726121,1.4418657,1.677671,0.40125015,-0.8815656,0.20691451,1.5459832,-0.43113488,0.515069,-1.9252782,-0.63839585,0.77954686,0.61852765,0.50000215,-0.14166433,0.024953643,-0.6574119,0.73744124,2.648117,0.37791672,-0.29517233,-0.622095,-1.1887294,-0.27298668,2.126369,0.2906901,0.97698885
conceptual_entity,-0.1844896,0.51862925,0.6093853,0.71722215,-1.1268702,0.19759943,0.74676293,1.4361222,0.7178329,0.85865694,-0.5109827,-0.27152202,0.097400516,0.12755331,-1.4594831,1.1297599,0.71082073,0.33524597,-0.57092625,-0.6172343,0.6582276,1.3138928,1.7301491,0.6756593,0.3889149,-0.09569999,-0.59457725,-0.5558383,0.12253387,1.8198906,-0.5725181,0.6126598
congenital_abnormality,0.55590135,-0.02139876,0.3541404,0.74410224,-0.78887117,-0.9577577,-0.038496494,-0.48737112,0.7015551,0.1698598,-0.22861023,0.020568945,-0.305647,-0.074776605,-1.2025291,0.3351244,1.4421588,0.29495656,1.6824093,0.99928445,0.6966119,1.5016543,-0.48750606,1.4533163,-0.39990997,-0.39418977,0.928936,0.74403816,1.1205108,0.86420655,-0.7469395,0.6930102
daily_or_recreational_activity,1.1265851,0.25234875,0.28308222,0.93843484,-2.1728184,-0.4979197,-0.32652438,0.4006327,1.8366661,1.2457888,-0.46332458,1.1080459,-0.7672122,0.5691912,-0.8936764,1.4098814,2.0633833,0.5370215,-0.15113822,-1.2687422,1.6942896,1.0635179,-0.43522012,-0.4956826,0.4269265,-0.22677013,-0.3394457,-0.45464945,0.9685439,1.5054668,0.39196223,-0.13430688
diagnostic_procedure,1.044956,-0.64863795,0.45220938,0.6735385,-0.75360614,0.15590128,-0.6674799,0.36796787,-0.27622893,1.2984134,-0.87272114,2.1205122,-1.2021353,0.3931392,-1.2745675,0.62624276,1.360858,-0.07100393,0.013791203,-0.5118316,1.1706582,1.1682416,-0.32110894,0.95607275,0.6087624,-0.23503348,0.58609766,0.08850265,0.23633978,0.9557368,-0.053448785,-0.5318493
disease_or_syndrome,0.23980062,-1.2030325,-0.37173522,-0.17327979,-0.9001917,-0.95675206,-0.72925687,0.24076265,0.65346307,0.11548524,-0.6908671,0.08406715,0.16488557,0.100252815,-0.936206,0.58960277,1.270496,-0.33548674,1.488944,0.54562724,0.8911017,0.94801265,-1.263684,0.7047483,0.67921245,-0.15853874,-0.14826827,1.2830285,0.15282339,0.52200645,0.25909737,0.13003613
drug_delivery_device,0.95273787,-0.7609027,0.34866136,0.1451827,-1.5349685,0.39217237,0.65180224,0.6730467,-0.25009364,0.737548,-0.11986315,1.8671187,-0.17618027,0.5642896,-0.88768834,0.25649816,1.0771841,-0.13890854,0.61203647,-0.7067913,-0.3077343,0.39236155,2.5782852,1.0377322,0.40350989,0.41023797,-0.2141564,-0.24953625,0.4422297,1.3338461,-0.38299736,1.6186312
educational_activity,1.1661433,-0.71935165,-0.0244694,-0.29666728,-1.4392257,0.1888066,-0.11144339,0.39059022,0.12026703,0.5421976,-0.6071468,2.3475826,-1.5416812,0.789467,-0.64791816,0.8233139,2.0646772,-0.36279052,-0.6640844,-0.9053695,0.20726521,1.4376978,-0.14940488,0.06086757,0.31840715,0.32540613,1.0974789,-1.1458652,0.0015902815,1.3194112,0.3305564,-0.73176104
eicosanoid,0.6969359,0.49054256,-0.9963885,0.15466465,-0.93156254,0.6137497,-0.76316684,0.2718129,-0.47320643,0.9270778,-0.6932482,0.76184934,0.30817878,1.4749905,-1.5261241,0.603444,0.94312185,-0.5405605,-0.78846776,-0.0014515789,-0.7604213,0.36722586,0.33219954,1.0528758,-0.024292352,-0.8592501,0.6125832,-0.23498651,-0.12540281,0.9882614,-0.15839729,0.5640691
element_ion_or_isotope,1.0448406,0.31452078,0.35631958,0.8323476,-1.4116427,0.37770092,-0.1674841,0.22029118,-0.25947142,1.5978619,-0.38478902,1.2587458,0.34320652,0.41275743,-0.52411866,-0.095354535,1.6025028,-0.47681347,-1.0566788,-0.30915937,-0.23694779,1.5957168,-0.85135263,1.5636654,-1.2664315,-1.0502158,0.16550931,-0.44996372,0.16014344,1.8036574,-0.98126554,1.2074541
embryonic_structure,0.4989106,-1.4606076,1.1681054,0.031394985,-2.0841029,-0.77161974,0.23315729,-0.6562196,0.21273282,1.2486506,0.594625,1.1836247,-0.022362037,0.049352366,-0.81912684,1.5692807,1.688095,-0.08559944,0.20498341,0.2697757,-0.38499725,0.41723445,0.2112856,0.79785126,0.063513495,0.8639792,-0.091245286,-0.48515242,0.35401925,1.3358722,-0.5843796,0.2285388
entity,0.24490397,-0.4992595,-0.43140128,2.1129107,-1.9709105,-0.124910295,1.050752,1.5518486,2.4831612,1.12638,-0.39915574,0.18695527,0.34506965,0.43709546,-0.21997598,1.1743534,0.5008064,-0.16345826,-0.6351283,-0.57071966,0.97445524,0.48137853,0.71234244,-0.52760136,0.39402056,0.6949194,-0.6745355,-0.27271846,0.19628347,2.1498535,-1.0102607,0.8066811
environmental_effect_of_humans,0.61354387,-0.2882308,-0.49471298,1.090888,-1.6543568,-0.6693629,1.1054518,-0.022719692,0.22121516,0.520394,-0.7183586,1.499001,-0.2705188,0.08312318,-1.5251808,-0.68453413,2.3108263,0.79899704,1.4257177,0.26204512,0.38185886,0.10502055,-0.18619722,0.73725075,0.40113214,-0.30011103,0.36535677,-0.75351924,0.67850864,0.40053388,-0.19761242,0.19431773
enzyme,1.3484526,0.050919827,-1.0313889,2.0861368,-0.545435,0.78190315,-0.16059561,0.41867036,-0.6079683,1.5675745,0.6332028,1.122676,0.49624604,0.31634024,-0.42950085,0.8303802,1.5386676,0.4427003,-0.9821395,0.6889276,-0.8081389,-0.35082483,-0.40197638,1.4564708,0.81685543,-0.9570886,-0.33098778,0.23835301,0.21381767,1.6084955,-0.36366096,0.66079164
event,-0.27358323,0.15238944,0.24469107,-0.21983016,-1.3552891,1.350948,0.5621013,1.120475,0.6531048,-0.41123095,-0.6490453,1.9957024,-0.14104256,0.41630977,-0.44335464,1.074803,1.1763791,0.5379952,0.13663405,-0.9653458,-0.5272232,0.74918395,-0.559062,1.4881077,2.2343059,-0.14672586,-0.5232605,-1.6351312,-0.4922206,2.0991852,-1.7291734,0.74079704
experimental_model_of_disease,0.3554596,-0.3680037,-0.4695417,-0.412238,-0.45393637,-0.47007278,-1.0999748,0.015760021,0.7831069,0.0004717902,-1.1648339,-0.26381466,0.6519555,0.2054301,-0.9465192,0.04525032,1.7638412,-0.5979639,1.8557688,0.90330446,0.5970112,1.400785,-1.0970206,1.0454226,0.24513815,0.11797535,0.0720972,1.140646,0.08774214,0.8234359,0.07259587,-0.32038158
family_group,0.3026597,0.21386106,0.95732546,2.2706802,-1.5791684,-0.8738427,1.6474817,0.23299092,-0.23274052,-0.38640812,0.7640123,0.7403556,0.39328775,0.2980669,-0.1410049,0.645182,1.7980204,0.22827724,-1.0455781,-0.37758353,-0.27598503,1.0326793,-0.6442194,0.97204715,-0.019538283,0.049427617,-0.63527316,-0.07350449,0.85787296,1.4270587,-0.061886553,1.250628
finding,0.3164093,-0.24371578,0.32828382,1.8434035,-1.2508065,0.28077427,0.48743382,0.6997183,0.061466172,0.7150424,-0.10759255,1.0592403,-0.093906656,-0.32339847,-1.0501113,0.40293026,1.6635638,-0.7072477,-0.053233374,-0.39089325,0.107587025,0.8659094,-1.5033808,0.28432387,0.60255593,-0.0952918,0.11759933,-0.12405273,1.1093472,1.2071397,-0.15419386,0.3816333
fish,0.39165017,0.3566422,0.69053066,1.2686248,-1.098615,0.37077293,-1.0440218,0.11364645,0.6881039,1.4049522,0.7301184,0.7470533,0.7753514,0.5870555,-1.6936473,0.046863746,1.7870291,1.0182039,1.5000584,-0.5789421,-1.2543674,-1.3175868,0.5603828,0.9591285,-0.41655266,-0.13852425,-0.75186765,-0.9548921,-0.2112626,0.8816632,0.3965026,0.31476635
food,1.5630192,-0.094217636,-0.18339841,-0.18112674,-1.6857065,0.8104467,-0.07599504,1.2310871,-0.10579142,0.3743269,0.38016757,1.540969,0.116235726,0.3264194,-0.8277697,0.9531808,1.3857113,0.22148895,0.1888195,-0.31013495,-0.576658,0.78688645,0.5862553,1.1717298,-0.017780995,-1.2345563,0.16903429,-0.42247128,0.8663074,1.9213703,-0.42231598,0.3315449
fully_formed_anatomical_structure,0.49610722,-0.023864344,0.38317373,0.0807711,-1.4537557,-0.12617306,-1.0058395,0.41747522,-0.7156309,0.8843621,0.16388518,0.5814042,0.08888039,0.07258944,-0.41202393,1.1872777,0.90223956,-0.50844884,0.34757787,-0.25081062,-0.047116306,0.68237203,0.56436026,0.8447441,0.028937208,1.4011551,-0.41184315,-0.5275944,-0.9164931,1.4303097,0.03726946,0.27370673
functional_concept,0.8719038,0.41161475,-0.038622424,0.49809468,-1.2995005,0.022608027,-0.19870752,0.6538789,-0.08716744,0.4155406,0.3094549,1.031946,-0.71718585,0.13839197,-0.40050575,0.56051075,1.6712886,0.24996512,0.2757441,-0.09214612,0.21051084,0.5649966,-0.32459432,1.0638237,0.23930362,-0.9555888,0.52537644,0.1810007,0.059611727,1.5595418,0.53810334,0.54202163
fungus,1.2162131,-0.20982541,0.15577778,0.30790493,-1.9394457,1.3200837,-1.8486136,0.5111082,1.7716184,0.7266913,0.43052545,0.77087724,0.34172624,0.36198348,-1.818687,-0.08584892,1.9584314,-0.6072982,1.1729321,-0.68417233,-0.19163956,-1.7365428,-0.18882255,-0.13845478,-0.5163773,0.5136597,-1.4952714,-0.15911973,0.34145164,0.29453862,1.023701,0.10744357
gene_or_genome,0.17893408,-0.6624139,-0.11287837,-0.9087721,-1.962508,-1.0020198,-0.7489362,-0.5163492,-0.47932813,1.7995222,0.4550517,1.3628378,-0.6752845,-0.11081035,-0.48912087,1.0376323,1.9667326,-0.40225652,0.0788559,-0.122228414,-0.39458743,0.70890176,0.7509223,1.1015006,0.3653271,0.84837186,0.40725338,-0.4582066,-0.508432,1.3690116,-0.9223618,-0.28764507
genetic_function,0.33882552,-0.62877995,-0.3761962,0.38745168,-0.7858789,-0.7771726,-1.4472603,-0.115223065,-0.057681177,-0.9648312,0.28668305,1.2484895,0.1708103,0.057598613,-1.7511317,0.45229477,1.0541028,-0.85376585,1.7487223,-0.80129653,0.33995104,0.48433864,0.05976446,0.57863295,0.021589974,0.5809412,0.38273102,0.57469386,-0.4209866,0.8600061,-0.091687046,0.08912135
geographic_area,-0.014488481,-0.60011894,0.5262201,0.013134705,-1.6814643,-0.50923634,0.6689242,0.82995874,0.01663709,1.248963,-0.018882953,1.4517368,-0.5314024,-0.2119907,-1.5878624,1.3001453,1.8107735,0.24551412,-0.75267404,0.34522447,-0.1945749,0.5879457,-0.6025327,1.987818,-0.02678583,-0.319609,-1.4707346,-0.20998813,0.82532704,1.4179553,0.086094156,0.6135092
governmental_or_regulatory_activity,1.378279,-0.50160027,-0.3217268,-0.22101463,-1.2316929,0.055309944,0.5292633,0.62905097,0.19660252,1.1823269,0.14982505,1.9990847,-0.29289594,0.1937789,-0.12431746,0.8289139,1.8220778,-0.60138696,-0.20826663,-0.663707,0.49110398,0.3748154,-0.19407687,0.32506883,0.22408368,-0.40568432,0.80892044,-0.23847976,0.38413596,1.0558238,-0.0323714,0.1117464
group,0.35665834,-0.5305871,0.8842819,1.1107469,-1.1936809,-1.268296,1.3306829,0.93725944,-0.13661964,0.059725218,0.57403004,0.7755464,-0.29083705,0.5089818,-0.7597907,0.20576091,1.4770646,-0.33222067,0.1657488,-0.6182193,-0.61806315,1.3592764,-0.21633533,0.85410637,-0.15323922,-0.38157484,0.32585442,-0.19869861,1.2885338,0.95053124,-0.34927854,1.112443
group_attribute,0.5940865,0.2754491,-0.14638802,0.30729142,-2.155091,0.7354405,1.7058097,0.6965145,-0.53784996,0.49174434,-0.16219613,1.1464863,0.26476827,0.18447962,-0.6518933,1.481281,2.0890653,-0.6794291,0.34428185,-0.006457437,-0.13321605,1.6918923,0.9952663,1.8356663,-0.4365124,0.088857695,0.08354601,-0.060234778,0.2088867,1.0574408,0.45732614,0.9363938
hazardous_or_poisonous_substance,1.3149989,-0.12812074,-1.0623833,0.7970584,-0.8614823,0.28585932,-0.4214443,0.8794152,0.1741977,1.9659039,-0.31544626,0.83719665,0.47280416,0.30172938,-0.39066112,-0.76419336,1.8718697,0.5104411,-0.5547506,-0.17265984,-0.6258298,-0.006211344,0.012219331,1.1625404,0.12783766,-1.5180173,0.52812946,0.24475813,-1.5448394,1.9132432,-0.8533734,0.5370679
health_care_activity,1.271922,-0.57545465,0.17204934,1.6817505,-0.9220605,0.29460436,-0.422962,0.20043369,0.56849277,1.3364159,-0.99659926,2.4462,-0.32318217,0.97622424,-0.6678359,0.67551583,1.8927536,-0.039803613,0.6965216,-0.7422032,0.54044604,0.57119876,-0.16101752,0.06681982,0.40375075,-0.3031164,1.4298916,-1.267092,0.088854924,1.2580804,-0.0060852864,-0.9505106
health_care_related_organization,0.06113548,-0.9372004,-0.7669798,0.44271982,-1.1955086,-0.31878048,0.1653123,0.05722926,0.7732046,0.47718227,0.46889058,0.30882314,0.50461626,0.17800812,-0.9049272,0.4169451,1.506444,-0.27662143,0.25136,-0.88229823,-0.70362353,0.5693749,0.22740074,1.3120941,0.2622366,-0.5412137,0.5923553,-1.2321078,0.5488609,1.796464,0.16514494,0.64434993
hormone,1.1822481,0.6075349,-0.8862221,0.36141366,-1.0630683,0.85903937,0.39607984,0.35590088,-0.29759845,0.9399848,-0.09121087,0.7225478,0.36726275,0.4079235,-0.8293953,0.5136924,1.240741,-0.16269323,-0.7583914,-0.101647496,-0.99006283,-0.06300087,-0.7357906,1.7567763,0.14573587,-1.1331557,-0.04614896,-0.30975595,-0.052679688,1.5132314,-0.04407295,0.8827027
human,0.68131423,-0.6809688,1.6980646,1.0988703,-1.4714718,0.21500188,-1.0641787,0.40908802,-0.83935434,1.15121,-0.28212562,0.25297502,-0.22558802,0.37161538,-1.0142713,-0.15935318,1.6116953,-0.68433666,0.8595673,-0.023268476,-1.3146158,-0.73653966,-0.3106688,0.3397099,-1.496093,-0.30982754,-0.7009418,-0.7964443,0.4898428,1.0798205,-0.14059086,0.5622887
human_caused_phenomenon_or_process,0.38448352,-0.12257882,-0.5741439,0.9014368,-2.3793612,-0.61890364,1.1542462,0.17281798,-0.023053603,0.8704611,-0.67645556,1.250722,-0.22322452,0.40143636,-1.7602781,0.23820284,1.1007792,-0.3118094,1.2055562,-0.4210717,0.6321529,0.8002918,0.13233115,1.8306446,-0.9766249,-0.120319314,0.9029238,-0.75839806,0.055204764,1.4761549,-0.09426743,-0.43285063
idea_or_concept,0.14024383,-0.18044627,0.009366814,0.6272961,-1.2599741,0.32504573,0.2797757,0.3975554,1.215836,1.1569307,0.30056274,0.991108,0.29178163,0.53901315,-1.3315508,1.5756437,1.462458,-0.4109698,-0.34222803,0.74092245,0.05058162,1.0978615,0.1634938,-0.39457065,-0.5839477,-0.28729358,0.08132228,-0.39191556,0.33705026,0.8818844,-0.18512279,-0.1544215
immunologic_factor,0.8368086,0.24232438,-1.275023,0.94429964,-0.7695969,1.0620506,-0.37035796,0.42251372,-0.2733357,0.6033422,0.66413915,0.92109245,0.31872365,0.17251433,-0.4349427,0.6362096,1.2961149,-0.06457631,-0.9599286,0.35519314,-0.4304973,-0.1318933,-0.8780952,1.1656262,0.22506624,-0.9766755,0.19219236,0.59706956,-0.71927595,1.3692565,-0.11889378,1.0714232
indicator_reagent_or_diagnostic_aid,1.0286733,-0.57226324,-0.35905936,1.2950302,-1.1897669,0.45921645,0.5360581,0.9935778,0.31409952,2.0038052,0.12620845,0.94626594,0.012944584,0.5593639,-1.0344057,-1.5302277,1.7546268,0.25838584,-0.4258834,-0.1883791,-0.84420913,-0.020319944,-0.6421354,1.706666,-0.12590936,-2.1170855,0.29020432,0.18804708,-0.060394272,2.4836333,-0.3552205,0.4722956
individual_behavior,1.1489415,0.30701226,-1.0146742,0.94454306,-0.008422796,-1.7125684,0.631959,1.0476437,0.41476017,0.5539208,-0.1582351,1.2035506,-0.9152453,0.67343897,-1.163566,0.96968883,1.4307814,-0.62275463,0.33791292,-0.78961515,-0.05697152,0.42888558,0.4658706,0.6156325,-0.29597408,-0.22618711,-1.021702,-0.1158287,0.63465923,1.2833798,0.24949516,-0.024659552
injury_or_poisoning,0.63705033,0.15858981,0.82916135,0.9482429,-1.5026733,-0.8076754,-0.0068471706,0.0011984279,0.21482743,0.22557122,-1.170456,-0.43330228,-0.8413715,0.33076805,-1.1858481,0.44664493,1.4588472,0.36049676,1.5069646,0.7608682,0.96655226,1.8297285,-0.5828002,1.3846053,0.7437197,0.06309587,-0.12965788,1.0257963,-0.6234639,0.37677488,-0.123794,1.1598525
inorganic_chemical,0.4773837,-0.47303838,-0.69026196,0.1679765,-1.908921,1.2085763,-0.22609355,-0.19741985,0.43946612,1.0318289,-0.2736481,1.6083993,-0.14238799,0.31554046,-0.42097428,0.21962999,1.6484416,-0.099189185,-0.69838893,0.014922799,-0.5584031,0.45907024,-0.39269978,1.6689318,0.5252034,-1.5223757,0.45723918,0.34053442,0.33063906,1.4890064,-0.79255134,0.21485242
intellectual_product,0.8560821,0.16782881,-0.18675102,-0.049900584,-0.6415451,0.5333471,0.5896315,0.5918505,-0.03465668,0.85270053,0.4107825,1.6203392,-0.6760545,0.6433621,-1.0512819,0.15282267,1.5018743,0.42063558,0.30872452,-0.38694692,0.9511746,-0.2893558,0.37744796,1.5972434,0.390595,0.49043292,-1.8549439,-0.4742782,0.13435425,1.4597429,0.23630957,3.4019809
invertebrate,0.021117026,-0.043199252,0.642291,1.630079,-1.6761931,0.8302881,-0.7666631,-0.011283252,-0.018513732,1.0317537,0.65687764,0.23195271,-0.018833993,0.024100851,-1.3702248,0.1143396,1.643897,0.19979408,0.92221373,0.4502732,-0.9949489,-1.1579614,0.16178739,0.5666837,0.07762385,0.31996536,0.80517143,-0.36057577,0.18877137,1.8973395,0.67782795,0.44602123
laboratory_or_test_result,0.3898677,0.032293316,0.83863354,1.2545773,-2.08817,-0.117601275,0.9714835,0.6441752,0.4753225,0.58737946,-0.15263207,0.39105895,0.25013816,0.26491037,-1.600984,0.7729537,1.3233901,-0.31886476,-0.85997087,-1.0452869,-0.57227516,1.0003387,-0.8112445,0.95070547,-0.22300774,0.4199152,0.6991476,-0.48178774,0.81085676,1.4120364,0.016797774,0.10071574
laboratory_procedure,0.9755764,0.23206635,0.33615458,0.16069992,-1.0086775,0.2385418,-0.7418586,0.427195,0.56936496,1.2840897,-0.32548413,2.1290436,-0.79389364,0.11609374,-0.70746773,0.029138919,1.6735626,0.19682828,-0.29171744,-0.9299108,0.6299348,0.40627816,0.32605436,0.3952204,-0.22670814,-0.511601,0.109398015,-0.39884523,0.18209681,0.57971466,-0.743274,-0.4580711
language,1.7297057,-0.44435918,1.8141996,2.2387369,-2.1923373,-1.4585066,-0.016829055,-0.00479763,-0.5947302,0.7489833,-0.6108834,1.6967891,-0.20845291,0.8144846,-1.2751467,0.91752404,2.6735144,0.4638402,-0.19921398,0.04166885,-0.6008697,0.2723897,-0.41123584,0.73456407,-0.6198482,-0.2467102,0.3763122,-0.5144159,-0.04889389,1.6272186,-0.29084015,1.4961154
lipid,0.9027146,-0.53271526,0.010180486,0.14853388,-1.2961302,1.1086481,0.06950697,0.7229774,0.9526598,1.267126,0.2528119,1.1030481,0.6895757,1.2675228,-1.6039238,1.4675816,1.2273241,0.3839262,-0.91247386,-0.2750981,-0.32159773,0.99475604,0.059385177,0.3576783,0.6379289,-2.0697691,0.14677456,-0.13726869,-0.7514954,0.9850577,-0.9347746,1.6818436
machine_activity,1.617567,0.074676,-0.4791255,0.097087726,-1.0747701,0.3487576,-0.20426959,-0.17861223,0.71807903,0.7501101,0.7298459,1.0363339,0.022896277,-0.12136116,-1.8729956,0.45411882,2.0357091,0.40142235,-0.9355772,-0.4607747,0.7257978,0.048241053,0.8216126,0.1722751,-0.5159406,0.11478223,1.3262668,0.5540975,0.6121273,1.6947358,-0.29205027,-0.41977346
mammal,0.6858971,-1.5773,0.733644,0.32878247,-1.0037389,0.28611597,-0.7896124,-0.08800946,0.46981993,1.2651378,0.22941303,0.8410311,0.55714184,0.34122878,-0.9849898,0.080840155,1.6912642,-0.6343316,1.4021589,-0.69961876,-1.0199727,-0.8753744,-0.2568691,-0.17499906,-1.1566523,0.30946925,-0.32036713,-0.5646763,0.7862911,0.9346014,-0.58138776,0.16871427
manufactured_object,0.8707524,-0.3740573,-0.4147223,0.13024023,-0.84588474,0.03664748,0.16941117,2.0719855,-0.6171763,0.65245456,-0.57469165,1.3421937,-0.024234276,0.5787119,-1.6503019,0.4180665,1.1757374,0.9613408,-0.19553715,0.28140265,-0.016844323,0.16621214,1.5383894,0.05960069,0.0499457,0.42713875,0.29054332,-0.1672082,0.3529543,1.1941069,0.3059266,1.8694204
medical_device,0.679746,0.63113993,0.22060421,0.18345097,-0.8304103,0.3093968,-0.087583534,1.8776449,-0.5145764,1.0093126,0.22987531,1.4106925,0.13660516,0.52516395,-1.6008149,-0.051866904,1.3109502,-0.8215156,-0.21279542,-0.5361257,-0.33387902,0.30993924,0.8948489,2.201782,0.41473722,-0.061367657,0.2572691,0.06872078,2.035954,1.0783331,0.3154358,0.9314657
mental_or_behavioral_dysfunction,0.277222,-1.0028406,-0.39560407,-0.28669584,-0.55869853,-0.8535771,-0.86613226,0.07605666,0.81561023,-0.11738863,-1.0318369,0.15845846,-0.034648888,0.3125168,-1.0423485,-0.0041050753,1.2977477,0.18160078,1.3923986,0.7312392,0.639237,1.0524182,-0.961553,0.72117984,-0.2033112,-0.2556845,-0.25616604,1.0103498,-0.09605432,0.568905,0.06967206,0.23544158
mental_process,0.038821872,-1.252732,-0.7711292,0.028636605,-1.4628758,-0.77038455,-1.2025641,-0.1932798,-0.35542712,-0.72990966,0.41279057,0.9609023,0.21136849,0.5725866,-1.5127475,0.028279906,0.9845637,-1.1654159,1.4392986,-0.6256097,0.38861346,-0.2656234,-0.2882366,0.69798726,0.9187538,0.20830846,-0.047774065,0.106747836,-0.118735075,0.32639712,-0.020271555,0.07726
molecular_biology_research_technique,0.813914,-0.17887183,-0.069186196,-0.18010691,-0.8973295,-0.569041,-0.38256624,0.14046097,1.3624773,1.2630631,0.5279068,2.6322727,-0.5379039,0.33737156,-0.3157889,0.50642914,1.6508815,0.7832202,-0.8208199,0.23372939,0.00392242,1.0097331,-0.081278175,0.4513773,0.36643153,0.15860315,0.46015665,-0.6366369,0.6052111,2.0581386,0.16686846,-0.19711636
molecular_function,0.30570838,-0.5385772,-0.34235263,0.19656663,-1.0338821,-0.7533944,-1.8883234,-0.39287502,0.2754335,-0.3756089,-0.6082623,1.4840868,0.9348038,0.07243659,-1.3136592,-0.4120551,1.4167279,0.027984483,1.8484404,-0.39991748,0.5152874,-0.051071268,-0.15831581,1.022338,-0.07197016,1.149101,0.6311781,-0.07500069,-0.15689556,1.1172694,0.2621404,0.12756516
molecular_sequence,0.4998258,-0.47970816,-0.38855016,0.41191,-1.4161723,-0.4520033,-0.2931774,-0.008893547,0.54943866,1.5201288,0.670317,0.59758824,0.2858061,0.3020454,-1.1484168,0.72554797,1.6486303,0.5313166,-0.5276832,-0.34527305,-0.5331149,0.15858056,-0.05861852,0.6000802,0.1045208,-0.4322957,-0.09526889,-1.3419938,0.67729956,0.66129005,-0.23930542,0.21421516
natural_phenomenon_or_process,-0.44232145,0.60705817,-0.82227844,0.777679,-0.44811806,-0.08079391,-0.75083345,0.70916134,0.08298572,-0.13679825,0.4562614,1.1545913,0.2325662,0.52888644,-1.2645862,0.17785248,1.1500643,-0.8477217,1.9695338,-0.30485538,0.07335269,0.6281725,-0.39048544,1.1856343,0.18626715,-0.2089388,-0.13423766,0.2728401,0.20073779,1.6586467,0.38051978,-0.09542784
neoplastic_process,0.25661772,-1.2086699,-0.28294536,-0.14249831,-0.5859948,-0.96406424,-0.8213586,-0.22875619,-0.53688705,0.03435725,-0.77126616,0.24733862,0.025971169,0.17250594,-0.78318095,0.08445645,1.3819076,0.006295725,1.5198302,0.66746044,0.6296697,1.0038843,-0.97358394,0.71284777,-0.12885107,0.08642662,0.51633215,0.9760399,-0.28859776,0.8093872,0.049696524,-0.11871623
neuroreactive_substance_or_biogenic_amine,1.2394406,-0.2160567,-1.0237596,0.7437522,-1.3633039,0.94267863,-0.18148153,0.7126833,0.372776,1.0297375,-0.38582757,0.61073345,0.49098265,0.3751502,-0.7939864,0.728273,1.3026774,0.5875254,-0.83871466,0.16241305,-0.72449034,-0.5363916,-0.5034232,1.2083914,0.8966821,-1.1507597,1.0605298,0.36978307,-0.38803157,1.4913366,0.11710243,0.2680691
nucleic_acid_nucleoside_or_nucleotide,1.0713847,0.0903484,0.63342226,0.12915988,-1.1781512,0.46923876,-0.7660582,-0.2945179,-0.5745249,0.94288063,-0.7038821,0.8652884,0.37118137,0.22946636,-0.8979431,1.2497926,1.1079745,-0.0017107821,-1.4581977,0.14534067,-0.43511018,0.38966957,-0.28026345,1.1419246,1.1573,-0.77704656,0.049288988,-0.5767911,-0.65612435,1.6940821,-0.34554586,0.1609898
nucleotide_sequence,0.66388154,0.34249768,-0.94501966,1.8455225,-1.7939733,0.079608,-0.11969544,0.7852051,0.43888152,0.7969666,-0.18381335,0.45268238,0.4581899,0.8189918,-0.49482846,-0.01438012,1.3195364,0.45874926,-0.3051737,0.2323695,-0.28762794,0.032070324,0.17498873,1.3305091,0.46529946,-0.7382786,-0.57702655,-0.2570332,0.80859447,2.3723378,0.46927783,-0.14544393
occupation_or_discipline,0.4866286,0.27194482,0.09863617,0.9499023,0.029764095,-0.09358508,1.4873979,-0.004268407,0.41452372,1.3701577,-0.33490792,-0.6873665,-0.7968869,1.9799602,-1.8366073,1.75557,1.817623,0.2834556,-0.56788224,0.9903006,0.033098478,0.13473094,0.08511804,-0.18243453,-0.69172245,-0.8666398,-0.046011068,-1.1500187,1.9751141,-0.023285776,-1.4381895,-0.082368806
occupational_activity,0.41330236,-0.34894598,-0.61976427,-0.19737166,-1.347977,0.16136442,-0.030942045,0.14028618,0.9576134,1.42964,-0.19740486,2.5990667,-1.3800554,0.0254515,-0.3143499,0.10932711,1.9940577,0.11071943,-0.86504996,-1.2973877,-0.07427242,0.403732,-0.221194,0.83436316,1.1146631,0.69027764,0.7405468,-1.6654279,0.48748103,1.5557469,-0.12006762,-0.015247843
organ_or_tissue_function,0.2883327,-0.36953378,-0.5200242,-0.0038322504,-0.7236977,-0.72044927,-1.5755516,-0.22601117,0.40500295,-0.47996873,-0.28477812,1.1462492,0.36385804,-0.14020635,-1.8816814,0.62870705,1.1114465,0.36059067,1.4636047,-0.47676528,0.38949054,0.22644141,0.01402685,0.58458084,-0.19897859,0.24430527,0.9626117,0.4260858,-0.2694652,0.88809335,0.02662438,-0.58792007
organic_chemical,0.25991103,-0.6364422,0.3599528,1.4886717,-0.5776284,0.6383765,-0.5950568,0.21629213,-0.36327165,1.1548051,-0.6273174,1.1116908,0.24317347,-0.51336277,-1.3590893,1.677912,1.7196484,-0.57698536,-1.0772171,-0.19684978,-0.6423979,0.09579125,-0.6739229,0.5675459,-0.10492993,-1.1071006,0.46791178,-0.519421,0.11912224,0.8584231,-0.30033168,0.032253757
organism,-0.33412015,-0.18018001,0.5657478,0.6137411,-0.5802548,-0.7715463,-0.8571847,0.5917882,3.7598598,1.636977,0.80754626,0.074079834,0.027842836,0.48180476,-1.2361294,0.3785337,1.588338,0.43177667,1.2843534,-0.35014406,-1.2423934,-0.9921025,-0.05938956,0.11404957,-0.4652454,0.677232,-0.20240611,-0.05358907,0.77326953,1.5721208,-0.56826067,0.64645314
organism_attribute,0.15547232,-0.12676224,-0.2994504,-1.4782119,-1.490529,-0.91385734,-0.42613843,-0.5219557,-0.37119696,1.5497086,-0.12315857,0.47321853,0.36232704,0.7976809,-0.95724857,0.77792996,1.6595782,-0.9845565,0.45169708,0.2402405,-0.39133674,1.1852642,0.026035354,0.36838865,0.44280165,-1.0411003,-0.58717704,-0.42576528,0.91034716,0.7493559,0.45265597,0.6050242
organism_function,0.45216012,-0.7630014,-0.6643033,-0.3961433,-1.1711227,-0.8560634,-1.734025,-0.08820265,0.9581128,-0.6618735,-0.20511267,0.7996302,0.5699013,0.5257396,-1.460669,0.33898312,0.9987447,-0.32005453,1.5217779,-0.62852985,0.614893,0.40284503,-0.20187178,0.4865436,-0.3388585,0.8027602,0.17286439,0.34527734,-0.45242923,0.9484856,0.07660972,-0.014402794
organization,0.08617201,0.27255675,-0.5120148,1.3528967,-2.0817475,-0.32993296,0.6251986,0.4575808,1.4504275,0.63210243,0.20459495,-0.29215822,0.31108367,0.43815422,-0.9722553,1.0241381,1.3556745,0.45399857,0.2175912,-1.1425091,-0.7354742,0.81549686,-0.28510118,1.5383728,0.25360507,-0.50210935,0.44890556,-1.439704,-0.16076885,1.74265,0.39175957,0.57916087
organophosphorus_compound,1.1083332,-0.08372198,-0.38533375,0.12159168,-1.8267083,0.25080413,-0.5494475,0.6562117,-0.09350132,0.88468415,0.69226456,1.363763,-0.055823576,0.2725895,-1.2450778,1.7381086,1.5096022,-0.48698404,-1.2431886,0.46635765,-0.5673082,0.5484694,-0.46056533,1.3050401,-0.12749933,-1.9320939,0.40297142,-0.083595216,-0.44411376,0.7818826,-0.7891198,0.8180594
pathologic_function,0.102258876,-0.9150035,-0.31014824,-0.41877455,-0.7421384,-0.7999965,-1.1643741,-0.28729323,0.47950947,0.39493564,-0.76300883,0.19876382,0.18403396,0.39419633,-1.0617933,0.21768863,1.1906743,-0.114861615,1.8102396,0.98216057,0.86367023,1.2879045,-1.0097749,1.0683421,-0.09418299,-0.08547213,-0.065333,0.8421162,-0.39923126,0.92585707,0.18692511,-0.09573279
patient_or_disabled_group,0.042060554,0.09180204,0.57224804,0.23182681,-1.440386,-1.8357079,0.9957063,0.81362945,-0.11655181,0.15793131,0.36287686,0.8293083,0.0028435024,0.31917116,-1.0064878,0.11962328,1.8090152,-1.4274846,-0.45790303,-0.04277931,-0.9821638,0.94880104,-0.4987003,0.89135873,0.2635108,0.024197696,0.46962082,0.25720447,0.6842356,0.8155334,-0.55284834,0.7003881
pharmacologic_substance,0.65788573,-0.16597563,-0.10426062,0.13527603,-1.420559,-0.019187555,-0.70166266,1.3446205,-0.20352137,1.6578398,-0.39361724,0.8581656,0.08402946,0.6293848,-0.92216206,0.27302262,1.2904309,-0.3801647,-0.91352785,-0.48221594,-0.6988982,0.28909305,-1.003846,1.8437043,0.9041684,-1.1541185,-0.25459626,0.07630369,0.2571088,1.7126299,-0.07528632,0.93274206
phenomenon_or_process,0.24411334,0.52286434,0.48793402,-0.29404992,-1.7207661,0.5675294,0.63772136,0.9411112,1.1986147,0.053249802,-0.4772549,2.3654253,0.47538397,0.31598198,-1.4384011,1.042548,1.5821799,0.05371246,2.399344,-0.6291999,0.46271786,0.62786835,0.50380695,1.1205742,0.92948246,-0.27159193,0.3123738,-0.71111244,0.11000396,0.9263645,-1.091689,-0.21774535
physical_object,-0.10899529,-0.5083855,0.043307442,0.8865565,-1.7955123,-0.5037163,0.10732726,1.542042,0.30779022,1.3715929,-0.45591593,0.9054677,0.7909386,1.1160003,-0.13136466,0.89983636,0.9746503,0.004674193,0.095906615,0.22764596,1.1166745,-0.0658951,0.24792458,0.03200242,-0.31993243,0.7635818,0.37975112,-0.035778318,-0.08009647,1.7460042,0.081483655,0.46605682
physiologic_function,0.26198524,-0.18335357,-0.14318748,-0.208823,-1.1971155,-0.6911675,-1.7292404,-0.11681555,0.33207995,-1.136364,-0.11556229,1.587933,0.94667006,0.08476294,-1.3254817,0.40685675,1.3651552,-0.25062132,2.0547168,0.019872464,0.5355969,0.5369801,-0.21663544,0.40739536,-0.24627146,0.38769066,-0.1759789,0.08139637,0.32499877,1.2574801,0.23364906,0.29805437
plant,0.39805856,0.4187642,-0.0953899,0.66294706,-2.012925,0.36853883,-0.84130573,0.7022587,-0.108847804,0.23142694,-0.015460827,0.32743427,-0.09827375,0.59549165,-1.0014892,0.40563297,1.4842607,-0.3579968,0.911368,-0.7770478,-0.5178494,-0.9424443,0.6664048,0.21375749,-1.2714385,0.10032248,-0.5107928,0.029778654,0.9956254,0.888365,0.6217087,0.24983373
population_group,0.21283497,-0.44703758,1.6423817,0.55682665,-1.7754939,-2.053784,1.4405984,0.49618337,0.03056752,0.4285968,0.36692733,1.631822,-0.4177542,0.53936756,-0.8743826,1.08797,2.3770473,-1.1566099,0.32814854,0.6707201,-0.6295637,0.61549705,-0.09765561,0.60365254,-0.210746,-0.6292054,0.15918802,-0.1652929,1.2626575,1.0829562,0.16685781,0.71967304
professional_or_occupational_group,0.27904198,-0.53285486,0.554449,1.5730606,-1.2491212,-0.6682229,1.4756134,0.39191946,0.10579613,-0.021287488,0.11853351,0.51207507,0.4626621,0.21792507,-0.54773945,0.4040065,1.7985334,0.100687146,0.52969134,-0.041382335,-0.4231796,1.0879074,-0.3676453,0.69812816,-0.28672162,-0.038466685,0.15587965,-0.40976846,1.030917,0.9797625,0.0973687,0.58172303
professional_society,0.40350914,-0.42416033,-1.0732042,0.15583532,-1.6859131,-0.98570126,0.8529904,-0.03826248,1.1917181,1.2492678,-0.13547623,0.14233753,-0.04959173,1.0325785,-1.6418452,0.2945444,1.2233038,-0.40083012,-0.29615167,0.29618713,-0.5320219,1.1509055,-0.17330886,0.93091244,-0.50714725,-0.38748917,0.6803591,-1.2890141,0.36716267,1.69126,-0.040723376,0.83689725
qualitative_concept,0.90384406,1.2176983,0.6579481,0.59194314,-0.7903568,0.7706383,0.44731715,0.14265433,-0.3405204,0.8177728,-0.39802387,0.9424738,0.22726625,0.15653309,-0.529367,0.06478759,2.2766695,0.64413106,0.47937602,0.7986154,-0.13412115,0.13514079,0.2851019,1.2508152,-0.23699032,-0.005989398,0.528343,-1.187575,-0.28066555,1.4250231,1.147812,0.26653197
quantitative_concept,1.0481496,-0.40246904,0.1917127,0.050303824,-1.9254737,-0.5945046,0.4245136,0.49837837,0.8186155,0.66301847,0.55515385,0.1357967,0.48265412,0.97180474,-0.61939996,0.5927904,1.1457981,0.612781,0.05205632,0.01720639,0.32900253,0.07752631,0.408448,1.0621227,-0.24460918,-0.90747815,-0.30435064,0.6345198,-0.15365173,1.8146785,-0.002373607,0.16432264
receptor,1.0980841,0.56471854,-0.80168015,0.5630371,-0.8493939,0.77584815,-0.28990114,0.17880538,0.016531412,1.2450268,0.23894012,0.3247579,0.1369574,0.43911806,-0.55603707,-0.03221124,1.2917005,0.57046443,-1.0563065,-0.037722,-0.7164236,0.27890447,-0.95844465,1.5082678,0.3709438,-0.8048058,-0.51130694,0.3214934,0.06064099,2.273864,0.18220107,1.4909574
regulation_or_law,1.3223771,-0.117080525,0.5371696,-0.7155391,-0.0019468013,1.3697737,0.6251237,-0.053598933,0.64053726,0.976279,0.23978937,1.1421379,0.69372946,0.033038646,-1.5395129,0.268634,1.5055708,0.32227075,-0.3574889,0.5300323,0.18430007,0.5305824,0.99701977,0.80549455,0.3898636,0.12880282,0.12752353,-0.26620027,0.68298393,1.6797931,0.10238903,0.27007365
reptile,0.44211513,0.32980314,0.8233143,0.8840383,-1.0720266,0.0446937,-0.39911163,0.20411442,0.17825922,2.0005171,0.4617255,-0.0026071311,0.2424448,0.025272109,-0.8818742,0.21869464,2.0006092,0.5223493,0.89082164,-0.26480952,-0.9188837,-0.86681074,-0.076506905,0.19998874,-0.59609413,0.09344084,0.072455354,0.20765744,0.64960766,0.58868754,0.14881709,0.04864566
research_activity,0.8553885,-0.42086244,-0.24549818,0.26183352,-0.9047886,-0.43600377,0.10299665,0.33536142,-0.15344696,0.95902455,-0.4151402,2.12872,-1.8205067,0.26769128,-0.6346512,0.67309695,2.2761886,0.4156211,-0.60729486,-0.69982785,0.037251674,1.2810304,-0.69576055,0.72943544,0.7393374,0.043672062,0.1075955,-0.6631976,0.26947904,1.1257353,0.7648917,0.51757455
research_device,1.290422,0.38687983,-0.4368292,-0.80406314,-1.8337634,1.132602,0.2986597,1.3540756,-0.39003405,0.67685795,-0.837585,1.6295413,-0.5917556,0.79376847,-0.41807628,0.84911376,1.081406,-0.17319612,-0.3667355,-0.13286339,-0.039330516,-0.28466648,1.715228,3.3341236,0.29600108,0.8644,-0.552439,-0.027711306,0.21883744,2.5052419,0.11117643,0.10419951
rickettsia_or_chlamydia,0.74928993,0.8721619,0.2304253,0.3107648,-1.7020361,0.22316776,-1.2120353,0.33781493,0.60189253,0.82786214,-0.5035337,0.55555385,0.29076877,0.28268328,-0.94170374,-0.46597144,1.4087051,0.4788767,0.9866337,-0.028590322,-0.5267262,-0.83470494,-0.056451246,0.18755157,-0.6239358,1.0058186,-0.45938274,0.015732687,0.913763,0.7967249,0.8146924,0.5027489
self_help_or_relief_organization,0.34549513,-0.56099755,-0.94697773,0.24822551,-1.8697695,-0.29692242,0.15650141,-0.21558988,-0.017838638,0.7895255,0.61963546,0.40851566,0.3946545,0.5220654,-1.1853598,0.33371672,1.4147564,-0.17086965,-0.26872477,-0.9395783,-0.40490663,0.7901185,0.33837783,0.8444881,-0.2254468,-0.1982533,0.33695832,-1.5079871,0.0142773595,1.5273697,0.2196319,1.2215286
sign_or_symptom,0.5286433,-1.6319088,0.905338,0.7961745,-1.5402774,0.20729308,0.41618267,0.5487545,1.6862372,0.5639581,-0.7263424,0.48504582,-0.72101253,0.08618621,-0.6280372,0.86804944,1.6725477,-0.29000515,-0.24504344,-0.36361256,-0.17570499,1.33696,-0.75748867,0.9663569,-0.49898973,-0.57323223,0.8001784,-0.24155694,0.93052125,1.2124342,-0.28006053,-0.013472712
social_behavior,0.93952394,-0.27574125,-0.46429977,0.446319,-0.077448934,-0.5601578,0.74506104,-0.041655984,0.3634495,1.1797057,0.013995763,0.54027575,-0.7323152,0.074257165,-0.9974281,0.6939808,1.1927818,-1.3518625,-0.29255405,-0.6244586,0.18944664,0.529221,0.34613982,0.29964772,-0.87101275,0.21815547,0.24267264,0.45468742,1.5341337,1.6065658,-0.30324945,0.40938205
spatial_concept,0.22994001,-0.30530402,0.3364694,0.3571438,-0.76746196,-0.48099563,0.22757602,0.89799196,0.35758284,0.9629095,0.20883696,0.8203474,-0.7032737,0.30135858,-0.83906955,0.5504454,1.2475277,-0.5728621,0.077800155,-0.58234483,-0.087850444,0.709214,-0.277748,0.29842678,-0.9285103,0.4152744,-1.8274829,-0.42493626,0.6020029,1.2251645,-0.28585094,1.6553723
steroid,0.97645235,-0.119963825,-0.41009015,-0.16591637,-1.1159624,0.6257168,-1.1472347,0.27686122,0.4608585,1.0618987,-0.09891741,0.9828696,-0.4791739,0.27582702,-1.0220007,1.5422517,1.3327278,-0.4992803,-1.3631536,0.639251,-0.77410364,0.41500348,-0.15793577,1.0998007,-0.13162448,-1.2095498,0.36843264,-0.057608936,-0.27491766,1.4224153,-0.38691008,0.5570898
substance,0.18038025,0.07571186,-0.37430024,0.58994514,-1.6659553,0.4860536,0.28123006,1.7043166,-0.25667918,2.1710234,0.56602854,1.4939804,0.856509,1.2116019,-0.90523654,0.8812505,1.5025301,0.16332588,-0.3624722,-0.78952,0.18646331,-0.22212124,0.60516834,0.71037745,-0.40673745,-0.07197369,0.314098,-0.105470784,-0.62389886,1.214866,-0.0496785,0.97451717
temporal_concept,1.1798635,-0.5090206,0.109418854,0.87967443,-1.7566402,-1.140282,-0.7632981,0.8523558,0.2573134,1.2557502,-0.48541275,1.1141751,0.13189018,0.56887203,0.56081474,0.74258596,1.6630816,-0.6993237,-0.27842954,0.091010444,-0.014633994,0.7796405,-1.3491577,0.5069418,-1.0687414,-0.77459323,-1.0156432,0.0132655455,0.2647829,1.8229859,-1.0485998,1.452617
therapeutic_or_preventive_procedure,1.2410413,-0.035748005,-0.088369384,1.2292013,-0.703034,-0.02897779,-0.72813517,0.26674402,-0.27471757,1.0147645,-1.2504457,3.0535295,0.2766917,0.85386354,-0.81759286,0.442771,1.5707074,0.043546867,-0.018471047,-0.33511108,1.0228921,0.09637641,0.06999754,0.78193986,0.554169,-0.0087068435,0.6436753,-1.1506209,0.4279088,1.0590256,0.021313611,-0.8078962
tissue,0.49590486,0.8341101,-0.12009788,0.36336175,-2.0431726,-1.580767,-0.06059316,0.40267795,-0.07214239,0.23592377,0.0825375,1.1423285,-0.20286492,-0.3686174,-0.12226289,0.7671883,1.6807119,0.7543208,0.2812135,-1.2029818,-0.9268412,0.3533988,1.053789,1.1876864,0.11088527,0.70124304,0.5782961,-0.6425047,-0.81079084,1.039533,-0.56544584,0.33874473
vertebrate,-0.06923802,-0.3843984,0.680106,0.7535135,-1.4451877,0.26910204,-0.26368985,0.28778893,1.5691547,1.2674826,0.15651625,0.38992417,0.35771415,0.18509501,-0.8759686,0.13210194,1.6821216,-0.61836034,1.3655167,-0.954004,-0.90528977,-1.3409252,0.36801124,0.786648,0.28050235,0.48743236,0.552534,-0.011862582,-0.0873217,0.9617152,0.021035027,0.34073445
virus,0.6425881,-0.13934052,0.36271438,0.9468003,-1.7742379,1.2472466,-0.9642777,-0.92333406,0.32281703,0.88730913,-1.3459315,0.51282614,0.44005683,0.87090236,-1.0177178,-0.3855278,2.0688226,1.4528018,1.2037416,-0.44507268,-0.46088895,-1.0017055,0.041600928,0.18421644,-0.027304655,0.52205783,-0.46454266,-0.35488778,0.29298308,0.59859437,1.1303627,0.777883
vitamin,1.0683645,0.1988046,-1.0824302,0.49920556,-1.3059859,0.8365518,-0.4138443,0.17509124,-0.1633257,0.9357194,0.26074246,0.3656257,0.4110514,0.2943875,-0.51308876,0.47025368,1.2054988,1.1173366,-0.8486277,0.4223282,-0.5416121,0.15435044,-0.22415563,1.5165166,0.957695,-0.6615159,-0.36924726,0.17436604,-0.38684645,1.2706481,-0.1113637,1.2623047
