,0,1,2,3,4,5,6,7,8,9,10,11,12,13,14,15,16,17,18,19,20,21,22,23,24,25,26,27,28,29,30,31
person0,0.0029768122,0.14394622,-0.82122207,1.5075989,0.9496106,0.01962725,-0.62659085,0.42430714,-0.70724636,-0.11992662,0.11118692,1.1530641,1.4819863,-0.42043957,1.1016892,0.6067755,-0.0096641425,0.29675806,-0.1626126,0.58743596,-0.35996813,0.32519937,0.35167924,0.6743873,-0.8963918,-1.626678,-0.31301606,1.345038,-0.22062734,-1.2819502,-0.952977,0.6978042
person1,0.32596797,1.514642,-1.235917,1.360837,0.14677338,0.16873679,-0.9388431,0.053211708,-0.8582601,-1.0574938,0.55518645,0.84345293,0.87416816,-1.3829199,1.66516,-1.101389,0.4766147,-0.23859091,-0.51585704,0.61405814,-2.425232,0.25413743,1.015814,-1.1893312,-0.41585538,-0.34093225,-0.47415498,1.2528201,-0.8392263,0.97209275,-0.07362613,0.79120576
person10,-0.298458,0.06251735,-1.4213053,1.9239926,1.4329314,-0.047698874,-0.79885554,0.06599197,-0.75494385,-0.73664314,0.56127256,1.1970088,1.8143717,-0.7702361,1.6508466,-0.19442366,-0.27974898,-0.3999905,-0.47749496,0.7342479,-1.1977428,0.09618601,0.7509822,0.6498761,-0.94306207,-2.0857403,-1.0406657,1.269322,0.9914106,-1.7115934,-1.3299826,0.22260864
person100,0.018549481,0.46619788,0.2615463,0.89157426,0.13177456,-1.2010925,1.2071155,0.42431223,0.74297607,0.4853269,-0.7012971,0.08683002,1.438602,-0.92743134,1.2488171,-0.57694745,0.03437763,-1.1292865,0.048151545,0.891506,-0.50789946,-0.5087402,0.77577233,0.59274495,-0.13570555,0.99362767,-0.059861194,1.737215,1.2784115,0.28250176,0.15116036,-0.9648531
person101,-0.5319479,-0.60851204,-1.9805645,1.2209798,-1.4938525,-1.8882467,1.3040441,-0.8129864,-0.71445227,-0.81178445,-0.49511272,-0.40342054,-1.3487908,-0.90119654,1.7962441,0.45406353,-0.5017966,2.0413516,-0.35654885,-0.568826,-1.5687385,0.022700198,-0.18079703,-0.46523267,-0.9006661,0.56038356,-1.1337922,1.2226396,-1.591035,0.39362893,-1.2853216,-0.95513713
person102,-0.9095699,-0.18227398,-0.84402114,0.81388026,-1.0212238,-1.3708211,-0.98617244,0.78334945,-0.50551677,-0.9477924,0.2744042,-0.26896268,0.5867814,-0.13045985,1.4699328,0.13780883,0.71516186,0.87745506,0.42004177,-1.5063896,0.9413893,-0.43749154,-0.008763648,-0.4959972,0.79764235,0.8065667,-0.24874197,1.3197442,0.4479351,0.5244717,-0.3590152,-0.17489912
person103,-0.8925219,0.49672142,0.6222992,0.3817905,-0.84450155,-2.0498812,1.1489621,0.14744559,1.3747143,0.19469403,0.41147798,-1.0676242,0.8882518,0.9197634,1.3266096,0.14224912,1.351299,-0.21622711,0.5232049,-0.11059368,-0.48828554,-0.07728466,-0.63350385,0.35838303,-0.3281043,-0.9545251,-0.68009144,2.261439,0.21623544,0.031751823,0.87486726,-0.63645095
person11,0.23920006,0.5468137,-0.21188267,1.410967,-0.6508449,0.07745838,-1.2478203,-0.7065866,0.8820342,0.7788091,-0.2076775,-1.2821047,-1.0030681,0.36731198,1.824181,-0.05073376,-0.5019362,0.3390216,-0.0067928485,0.7226994,0.90821624,-1.2600198,-0.51667035,-0.13672094,-0.61420995,-0.95867693,-0.4816222,1.1514791,0.8163956,0.49761662,-0.4451812,1.2887763
person12,-0.9081854,0.39110067,-0.34936908,1.4350955,-0.108943634,0.10098413,1.1933875,-0.035467267,-1.1489435,-0.4326508,0.8684617,-0.72427016,-0.73316854,-0.64292026,1.778155,-1.1259626,-0.47088674,-0.37531903,1.5860207,-1.1449379,-1.1972166,-0.1664779,0.8134418,0.012263399,0.5778485,0.3624856,-0.7926624,1.0458344,0.5048297,-0.7248076,0.82975084,0.9882533
person13,-1.1490601,0.48602775,0.2767068,1.2997133,0.45859012,-0.10017641,0.98075855,0.75219196,0.81740904,1.9852811,-0.9961492,0.9133119,1.1065853,0.95120215,1.6518941,-0.714777,0.4405094,-0.85801744,0.25496933,0.27856886,-0.86097664,-0.49868348,-0.6823578,-0.2985319,-0.81928194,-0.5694263,0.4936373,1.0980804,-0.09040072,0.2964675,-0.692003,0.6769444
person14,1.0418583,0.3257706,0.8665726,1.416415,-0.1171046,0.0710626,0.9683336,0.9153388,1.1288613,0.9482732,0.35207132,0.83756346,1.2666988,1.1098015,1.6566197,-0.4382785,0.5302361,0.4540229,0.5806251,-0.58967227,-0.21586515,-1.0251169,-0.55128086,0.595302,0.38850185,0.21575455,-0.38601163,1.3854479,-1.333542,0.23654956,0.6187593,1.0984209
person15,-1.3113065,0.70424443,-0.6066928,1.6435,0.13025558,-0.13609335,0.96328557,0.72028697,-1.1096756,0.15599418,-0.34943703,-1.1475685,-1.1820569,-0.66966593,1.3847353,0.5603787,-1.1491411,0.98196083,-0.61619043,0.28572893,1.1274085,-0.33536714,0.56605786,-0.7886994,-0.47890884,0.56373274,1.7051141,1.0949064,-0.19341227,0.71899426,1.0724914,0.7024095
person16,0.48979804,-0.6688703,-0.84215933,1.1470026,0.08641122,0.0826765,1.024793,0.12783113,-0.8722468,-1.0803539,0.73033786,-0.49111342,-0.65584403,-1.1465502,1.8656541,-0.40592232,-0.96245897,-0.07055164,0.9680742,0.42080384,-2.012527,-1.0249192,0.67987704,-1.0614401,0.1609644,-0.48605153,-0.046875548,1.0072116,-0.17423166,0.6662828,0.8591672,0.072053164
person17,0.5645058,-0.11956019,-1.1568651,1.2245265,0.20718986,0.16635217,0.86330825,-0.44572875,-1.4046706,-1.2371576,0.83884186,-1.0644271,-0.98171866,-0.8059261,2.028931,-0.52895516,-1.2644427,0.9447828,1.388543,1.4102792,-1.0726942,-0.50857186,0.6732626,-0.39797348,0.6077822,-0.039793845,0.56723785,1.3708905,-0.28533494,0.4137218,1.3465655,-0.035288732
person18,-0.47023612,0.37443045,0.2244726,0.9995008,-0.13071941,-0.18491685,0.94538647,0.4693333,0.6788267,1.5675288,0.61145425,0.038499124,1.0727291,0.0056701927,1.586418,0.529844,0.6368596,-0.5368249,0.58309495,-0.22691415,0.056112286,-0.8089746,-0.35888642,0.7802668,0.043876767,0.43471915,-0.02260143,0.83397347,-0.48429564,-0.88575804,0.88278353,-0.052417994
person19,-1.1531653,0.44208854,-0.57445705,1.4336141,0.25958273,0.19656867,-0.8194497,-0.26153713,-1.1886817,-0.71209604,0.5731154,0.82854545,0.9686315,-2.08228,1.8267039,-0.18965848,0.41430503,-0.98608965,-1.8208541,0.6221826,-1.4553906,0.81578344,0.8456935,-1.2488273,0.0013777912,-1.0662214,-0.0026197848,1.3737807,-0.11524833,0.3162314,-0.43724534,1.3889134
person2,-0.45166668,-1.7286977,0.24766748,1.3139347,-0.2839917,-0.7595025,1.3869404,0.44513574,-0.9205305,1.3146869,1.0816476,-0.66144884,-1.061979,0.24994393,1.5659173,-0.40921277,-1.2267119,-0.63874817,0.40866423,-0.5133066,0.43842083,0.31764713,0.5035264,-0.5559378,-2.0332842,1.5701907,0.71702516,0.89901346,0.12519734,1.0851436,0.4017838,0.031565987
person20,1.5054712,-0.6812712,-0.88288736,1.8810383,0.007867578,-0.017216457,1.2531047,0.084819734,-1.0208114,-0.34329844,0.062724665,-0.40056637,-1.053257,-0.46415007,1.6044412,0.7828736,-0.70156103,-0.37335134,1.7594012,0.7403229,-2.6294394,0.4715912,1.2964337,-0.11763915,0.001958288,-0.5303063,0.7071652,1.0283,0.17590955,-1.6823719,0.7018312,-0.3675936
person21,-0.5142148,-0.16608271,0.11081288,1.0220702,0.3182033,-0.032898996,-0.6960781,0.38915867,-1.1424278,0.00021383888,-0.1485456,0.711104,1.2772949,-0.6409772,1.4952035,-0.23616354,0.14601274,-0.0147306295,-0.782225,-0.12180403,-0.6714811,-0.739688,0.5978168,0.74329704,-0.91966903,-0.5337984,0.5856617,1.3037381,-0.68142337,-1.154833,-0.9578011,0.61439204
person22,-0.8895771,1.0082377,1.2619679,0.97967875,0.62360877,-0.2606403,-1.2042179,-0.011921575,1.0229403,0.44711822,-0.08169733,0.19095936,-0.9027225,0.25552464,2.2351038,-0.57748663,0.13847977,0.45245492,-1.1026683,-0.35349792,-0.23329979,0.46675867,-1.1466333,0.54171216,0.39449158,0.498338,1.3311126,0.8171958,0.8250282,0.20350274,-0.84954363,0.15073851
person23,1.3226821,0.08569851,-0.291228,1.6720002,-0.8639039,-0.20897472,1.5279418,0.63479465,0.44790897,-0.2994296,-0.052618627,0.74613774,1.5475253,0.55952406,1.9884503,1.2160151,1.3548528,-0.683008,-0.629465,-0.14668693,-0.2022997,-0.6486426,-0.9947819,-0.3438444,0.14249751,0.24212153,0.45104483,0.79206425,0.17781787,0.07489629,0.98468506,0.059553005
person24,0.06919072,-0.26805875,0.3595514,0.7373365,0.08350475,-0.32233784,1.1148982,1.0483605,0.691416,0.6644892,-0.06862262,0.59249246,0.8969444,0.6759369,1.31867,-0.25736088,0.33859003,0.24693237,0.7227286,0.57327634,0.5889771,-0.74825877,-0.5244109,0.17967021,-0.08200429,-0.05032026,0.45415866,1.4394058,-0.080589235,0.2989609,0.75176257,-0.3819785
person25,-0.04021151,0.015905483,0.34744754,0.90167814,0.5509445,-0.339565,-0.8521555,-0.4903708,0.80112064,0.81791914,-0.12944748,-0.22531094,-0.7987419,-0.16735972,1.540672,-0.16248521,-0.011645607,0.87264305,0.34605578,0.6245487,0.32723576,-0.9179174,-0.3909683,0.530047,-0.3470201,0.33739096,-0.5423211,0.61943656,0.43219045,0.6467358,-0.44319135,0.2670397
person26,-1.5618585,-0.8038804,0.90202945,1.3562152,-0.23914553,-0.25999963,1.3429,0.33364484,1.0767362,1.0865608,0.22337067,1.1098516,0.84569854,0.48453003,2.0937269,1.2613591,0.39414904,-0.28127357,0.65579844,0.04129857,-0.7853718,-1.1965264,-0.58599687,0.745849,-0.24484558,-1.3055553,-0.47779644,0.9159043,-0.9370765,0.10304509,1.1355157,-0.25919068
person27,-1.545007,0.48863137,0.24890913,1.5877459,0.50237256,-0.2624241,-0.98391044,-0.5291662,1.1410269,0.3873278,0.9889995,0.75849074,-0.6818945,-0.4777468,1.3793052,-0.34831682,-0.6793108,-0.010895675,-1.4426117,-0.7428265,-0.89374286,0.16600214,-1.4616158,-0.17124677,0.13959205,0.6999989,-0.303328,1.1264477,-0.8064425,0.6562366,-1.0366274,-0.8769388
person28,0.5659758,1.1291195,-0.8211226,1.6957455,-1.0319718,-0.40485334,-1.2713294,0.25248402,-0.8247299,-0.84579897,-0.6888041,1.251214,0.42143092,0.24035765,1.7208139,-0.9019919,0.34091467,1.0098774,-0.0011100983,-0.7333367,0.66213435,-2.0396497,0.37084344,0.00626563,0.3835087,0.81327087,-0.33554682,0.81477386,1.0240425,0.19166693,-1.0699947,-0.52098
person29,-0.8317242,-0.52217555,0.16375189,1.597769,-1.270675,-0.42983142,1.2876736,-0.34505814,-1.3540506,0.5131061,-0.33606738,-1.2609253,-0.9542974,0.7015965,1.9391466,-0.34680483,-1.1136816,0.23193519,1.4304533,0.45872858,-0.89541197,0.0329253,1.0049268,0.68949217,-0.49340978,-0.0638478,0.74995697,0.8659926,-0.5045258,-0.2407376,0.37878877,-1.1668905
person3,0.18589659,-0.09390455,0.3298141,1.3840481,1.040031,0.077119894,0.9377931,1.0777899,1.3649243,0.51213235,0.57684916,0.49297675,1.2126125,1.9494909,1.4188671,-0.65919936,-0.38777807,-0.33186635,0.91025496,-0.117271185,-0.7433528,-1.1896752,-0.8252155,0.4188581,-1.098348,0.5300859,0.87684923,1.677787,-0.7549697,0.1053774,0.33842325,0.80645126
person30,-0.8390453,-0.3866951,0.44058284,1.7185303,-0.43183312,-0.36004904,1.8080435,0.29015994,0.67193985,0.47650057,-0.35720292,1.3279765,0.93738633,0.5412917,1.882375,0.7641593,0.65832764,-0.8103888,0.43770942,-0.32578146,-0.87097687,-0.9005315,-1.0652466,0.7716645,-0.4554112,-1.9058181,-0.83197606,1.1334429,-0.53732485,0.79483116,1.2904159,-0.6661811
person31,-1.1851144,0.49559852,0.076297365,1.419694,-0.34521094,-0.5731838,-1.0573936,-0.9557558,1.1882167,0.8036958,0.12999325,0.0036226686,-0.62866735,-0.53515416,1.7332749,-1.3205805,-0.8329188,0.4413605,-1.7613188,-0.7649061,-0.91414666,0.16783766,-0.97609705,1.008888,0.7908546,1.2784407,-0.67710835,1.04457,-0.35713917,-0.58524454,-1.2166725,-0.78307384
person32,-0.338572,0.23135562,0.49268052,1.951703,-0.10148871,-0.057341985,0.8770009,0.004999892,1.0292428,1.3929812,-0.33787698,0.90194654,1.1520567,0.37809068,1.0152475,0.505666,0.28963187,0.056858875,0.20881811,0.45374593,-0.94162196,-0.8394577,-0.68900704,0.50386894,0.58911854,-0.5343963,-0.65120834,1.09899,-0.646553,0.18632847,1.1227566,-0.06285435
person33,-1.1607289,0.39567146,-0.092774376,1.5160645,-0.56656307,-0.68166363,-1.5719587,-0.7514129,0.8474909,0.26468244,-0.20694257,-0.12846713,-1.215849,-0.37583587,1.9534293,-0.6358158,-0.96389467,0.23302229,-2.0070276,-0.6628835,-0.8995383,-0.118815646,-1.0851358,0.213086,-0.19467486,1.261617,-1.3288915,1.178437,-0.27002314,-0.5416809,-1.0432112,-0.79278225
person34,-0.8340544,-0.7288932,-0.7429823,1.5747867,-0.45274648,-0.10387155,0.9803513,0.012778321,-1.3025378,0.7909616,-0.3406465,-1.362895,-0.9796449,0.0939408,1.2996278,0.033404384,-0.27486265,-0.79815197,1.5227422,0.14750868,-1.2784742,0.7473986,1.6139557,0.7826687,-0.728047,-0.2077844,-0.86523247,1.2729683,0.18757404,-0.69090134,0.1941565,-1.1327962
person35,-1.0772827,-0.5056512,-0.13786964,1.5474818,-0.6233304,-0.06637952,1.1146327,0.04155231,1.1059551,1.5958941,1.023895,1.4049908,0.79729253,0.9784706,1.4808116,1.5864276,0.2723494,-0.055002954,-0.11269487,0.17268254,-0.66092306,-1.375034,-0.6686195,0.8766364,-0.23842382,-1.0348634,-0.98882896,1.0088525,-0.2046078,-0.10600018,1.1300641,-0.24364935
person36,-1.3722008,-0.6253665,0.62388307,1.6076651,-1.012652,-0.20663594,1.1729,0.7566436,0.8541762,0.6792557,0.49431455,1.5007725,0.97450805,1.1274874,1.5541779,0.3997599,0.58801657,-0.20799907,0.75615084,0.31239927,-1.0887685,-1.7061181,-0.6343047,0.85827726,-0.069552824,-1.2193546,-0.41286173,1.3572911,-0.799383,1.1898036,1.3397801,-0.17579168
person37,0.30409056,1.0534421,-0.28088304,1.4447896,-0.79295033,-0.36256382,-1.1965898,0.18330114,-0.77819705,-0.9187165,-0.49494565,1.1770897,0.47556373,0.39724728,1.7438431,-0.16218278,0.962766,0.012705551,0.41252932,-1.152422,0.88080454,-1.5861257,0.38971722,-0.47654843,0.45022845,0.5602826,-0.57004005,0.81830126,0.86319846,-0.46424273,-0.81994426,-0.6989606
person38,-0.4092137,0.57707953,0.58669424,1.3044771,-0.22492519,-0.5328306,-0.9023762,-0.82375044,0.84522766,0.6971768,-0.610397,-1.6210173,-0.67527163,-0.4636294,1.6625742,-0.40051112,-0.6381682,0.86918944,-1.2393765,-0.79537845,-0.25608006,0.8595588,-0.50390166,0.87492585,-0.82038635,-0.018448457,-0.12135692,0.7074002,-0.28077188,-0.10039816,-0.9633546,-0.76715267
person39,1.0569744,-0.44617313,-0.310038,1.4466658,-0.13948801,-0.4377901,0.9076341,-0.67417115,-1.1110117,-0.20297779,0.23069133,-0.7120474,-0.4257669,-0.033975694,1.2949796,0.696886,-0.4311938,0.65331674,1.6101328,-0.101741165,-0.6252995,0.6170683,0.78959835,1.0159565,-0.45986533,-0.65029955,-1.0829945,0.9867227,0.15058945,-0.88115627,-0.5044185,-1.0351915
person4,0.97584915,0.09177213,-1.4998499,1.3717393,0.43343502,0.06657291,0.9179846,-0.4149194,-0.3589139,-1.0615717,1.1948614,-0.26321086,-0.78753626,-1.5771036,1.9032004,0.4258399,-1.109438,1.1128695,1.434858,0.3239789,-1.1086042,0.12718822,1.6471363,-0.50518364,-0.44578448,-0.13795635,0.7358233,0.8952611,-0.42157134,0.63622624,1.2731413,0.18018024
person40,0.07857321,0.38023558,0.3646952,1.4293932,-0.47988743,-0.23161544,-0.6064253,-0.26365033,1.1643037,0.48616734,0.47701833,-0.70420665,-0.55892074,-0.11927651,1.2191377,0.09569362,-0.14674592,0.66422063,-1.7885225,-1.1593521,-1.0197821,0.31396097,-0.94423425,0.19982523,-0.8903905,0.50554925,0.49904922,1.0696156,-0.9471179,-0.027403485,-0.5893668,-0.9727417
person41,-0.3619974,0.28592783,0.96140313,1.1728779,0.13590077,-0.5740613,-0.7880953,-1.0652812,1.0144123,1.1341566,1.1078448,-0.08510331,-1.2887398,-0.5794494,2.0734653,-0.20684323,-0.24733782,0.34370384,0.49818778,-1.0470939,-1.1898956,0.43065202,-1.0699494,0.49886712,-0.8308425,0.62456256,-0.36016685,0.65564597,0.210931,-0.58657867,-0.3266998,-0.5641176
person42,-0.46870306,0.64264673,0.5701029,1.0360173,0.6168561,-0.5005476,-0.8890627,-0.92256725,0.9415808,0.82196355,-0.061419386,-1.1531559,-0.7755487,-0.27105737,1.8441877,-1.0560534,-0.8861462,0.29818535,-0.9232195,-0.7678504,-0.47416607,1.0660412,-0.25949064,0.7218173,-1.1915679,0.47302115,-0.091419056,0.82449013,-0.36152345,0.55814433,-0.47494358,-0.61736554
person43,0.16314332,0.45206377,-0.14084424,1.7074918,-0.82099116,-0.44632164,-1.0640098,0.29102972,-0.61301154,0.036301002,-0.85031825,0.22982036,0.46036828,0.54598254,1.3352042,0.99700725,0.7973788,0.9665237,0.37273106,-1.363503,0.67280453,-1.1578649,0.5075001,-0.41871774,-0.083039165,0.9043744,0.1581123,0.6015991,0.397774,-0.3876854,-0.8509126,-0.28300986
person44,0.9789894,-0.06342025,0.05325135,1.7237964,0.24271956,-0.41339308,1.2375327,0.6800691,0.6411289,0.86419123,1.1254375,0.96909213,1.1427405,-0.3849008,1.7226069,0.31533182,0.9306795,-0.678396,0.8973847,0.75421274,-0.80049825,-0.96466684,-0.471526,-0.9193899,-1.583763,0.4741424,0.25619504,0.95961803,1.1715658,-0.012322116,0.73989254,-1.3882025
person45,0.02801731,0.56514347,-1.3797288,2.0312788,0.90997213,-0.7770231,-1.2245346,0.44674388,-1.5175368,-1.2374638,0.16354924,0.21321847,0.81249046,-0.7862845,1.4238704,0.58815914,-0.61029494,-0.42498726,-1.4347173,1.6857047,0.4782643,-0.35392427,0.78324336,0.26332435,0.45871124,0.08187347,-1.6877029,0.875238,-0.096244775,0.32532302,1.4333587,-1.2807956
person46,-0.69628257,0.34833047,0.86809206,1.9248182,-0.69805914,-0.13571401,0.7970121,-0.37423432,-1.280768,-0.2118186,-0.36672014,-0.6293853,-0.9027048,0.43484804,1.084566,-0.19507025,-0.31734917,-0.3378546,1.2509104,0.03192877,-0.6806721,-0.06934008,1.5929551,0.23783503,-0.2518424,-1.153513,-0.4914875,1.0644025,0.01113477,-0.43162563,0.3460957,-1.2105285
person47,0.5432504,-0.43002206,0.6192915,1.7213136,0.7338946,-0.7471567,-1.3938942,-0.955752,1.117196,-0.21666902,-0.8503014,0.061068732,-0.34098408,-0.38754296,1.5635165,-0.09568994,-0.7343691,0.63956946,0.58409446,1.6577479,0.57970285,-0.2751782,-1.1086941,0.24188358,-0.6282281,-1.0483837,0.7291606,0.8689296,-1.28196,0.58388793,0.6455109,-0.642212
person48,-0.42827064,-0.32539147,0.26871136,1.5417205,-0.5534425,-0.70719457,1.3034077,0.9724772,-1.409687,0.14836644,-0.395523,-1.5350965,-1.0763716,0.18265383,1.756792,-1.1852303,-0.46585566,1.1500801,0.42535296,0.13847835,-1.3372036,0.28594935,0.90933067,0.61361396,-0.4070673,0.010997604,0.5777998,0.6690582,0.29901394,-0.5670933,0.39774764,0.084601946
person49,-0.103659034,0.69597787,-0.26144522,0.9352226,-0.49052948,-0.29986528,-0.98532516,0.46712837,-0.7269582,0.055166617,-0.52778673,0.82158405,0.8259413,0.09444199,1.821564,-0.57798475,0.90351605,0.19188954,0.14781553,-0.97166795,0.3959615,-1.3043116,0.021122335,-0.88316107,1.5036641,1.1277918,-1.1042844,0.96464866,0.75839835,0.725044,-0.54621744,-0.16761568
person5,-1.4285443,0.3568583,-0.46560055,1.225135,0.6547406,0.11506895,-0.8822488,-0.17217322,-1.211104,-0.68880254,0.677489,0.74462324,1.3066143,-1.2753721,2.0968914,-1.7021466,0.66287804,-0.22995684,-1.2226669,0.8563152,-1.4570086,1.0540185,1.1600147,-0.034174804,-0.26819077,-0.36140507,0.49633458,1.2854569,-0.86950076,-0.19320223,-1.206295,0.9722431
person50,-0.71192247,-0.057981092,-0.7751581,1.2278671,-0.08083909,-0.16679883,1.1214554,-0.62927926,-0.8754788,0.12457087,-0.055318482,-0.64980704,-1.0942074,0.3745016,2.0104253,1.3164878,-0.61654776,1.1840341,0.85464066,0.99682236,0.11161637,0.32829982,0.7761767,-1.3332303,0.20003663,-0.6997524,0.07275428,0.9105918,-0.60203844,-0.089911275,0.93830806,-0.41766927
person51,-0.11396652,-0.26710814,-0.5288997,1.1750414,-0.47662735,-0.9061138,-0.7186654,0.45175496,-1.4524244,-0.47148076,0.6891054,-0.5388348,0.6999536,0.77213967,1.1309671,-0.11983235,0.54269844,-0.32222775,0.45979643,0.7983855,0.13744804,0.23921259,-1.0592456,0.77257824,-0.92877775,-0.9822867,-0.80077654,1.465889,0.46982214,0.18294054,0.27228755,0.78632134
person52,-0.71835357,-0.33452415,-0.45809084,1.3698033,-0.30556923,-1.486421,-1.5828813,0.51472646,-1.7999625,0.79541034,0.019738479,0.24190052,0.2390375,-0.5515461,1.2440023,0.057917207,1.0952438,-0.67697376,-0.030004952,0.98192525,-1.3816029,0.7737769,-0.6757717,-1.0269035,-0.17469835,-0.016818741,-0.69956565,2.018507,-0.77569467,1.4086217,-0.429051,1.086804
person53,-1.1313254,-1.303114,0.062197957,1.4600435,-0.046682287,-1.1048579,0.9388789,0.23435016,1.4877491,-0.14761078,-0.29294747,0.2530793,1.1767944,-1.0535347,0.83774465,1.6726575,0.86577094,1.3121479,-0.23402384,0.4919678,0.39594394,0.15719853,0.31704333,-0.78616375,-1.1722939,-0.87397945,0.85078806,1.8213667,0.875068,-0.5673375,-0.70932394,1.551391
person54,5.6099845e-05,-1.7440209,-0.23750281,1.5895234,0.09089885,-1.6986697,-1.3349558,-0.22240797,1.7844342,0.19500686,0.3747225,0.9352104,-0.6293715,-0.20955287,1.0592061,-0.63242584,-0.5663575,0.3288863,1.2099613,1.3793434,0.0836002,-0.25404862,0.14537495,-0.3740496,-0.39849448,-0.08453584,-0.19341773,1.6830307,0.4225544,0.016822394,0.02783963,1.1364264
person55,0.80807006,0.16675086,-0.5170151,1.2107422,-0.35715497,-1.2694157,-0.9282551,0.8058905,-1.116642,1.7426279,0.5167055,-0.12908557,-0.04676429,0.042657208,1.012603,0.7210964,1.1156744,0.00027224142,-0.3546269,0.48398343,0.42773005,1.2639109,0.2522705,-0.52646065,0.6814117,-0.17381358,-0.67979246,1.2296361,-0.8860391,1.04288,-0.35485652,0.86996895
person56,-0.84732926,1.6098784,0.18823884,1.4997798,0.41036338,-1.4324281,0.7238696,-1.4426726,-1.0142267,0.7151843,1.9497131,0.47409478,-0.5878284,0.74085146,1.2593948,1.0955815,-0.37395707,0.62744313,-0.5345164,-0.6376465,-0.011275179,-0.16704139,-0.5365286,-0.9660051,0.37369916,0.20339505,-1.7303654,1.0487016,0.11770308,-0.040818553,0.08936679,1.1643217
person57,-0.4231212,0.9157474,0.05331823,1.4785929,-0.24136536,-1.3284426,-1.1692488,0.76060194,-1.6767584,2.4693294,0.5229696,-0.2543368,0.08852925,-0.38766834,1.2466165,-0.29539454,0.33540502,0.00027214736,0.010862596,0.8873366,-0.52827924,0.90931624,-0.24829364,-1.0741503,-0.16886675,-0.8275639,-1.3870227,1.3983318,-0.25428528,1.2092223,-0.49397245,0.69370914
person58,-0.5216607,-0.028117023,0.7703662,1.706599,0.062821284,-1.1070051,-1.0770624,0.6225296,-1.3303386,0.60778826,-0.22659144,-0.6635983,0.30091542,-0.4231716,0.8327542,-0.4114426,1.0831223,-0.14497742,-0.07498501,0.68372744,-0.9543462,1.1950345,0.08929474,-0.60673213,0.92236245,-0.36764732,-0.798997,1.351736,-2.1628854,0.9811534,-0.18189278,0.9849959
person59,-0.123685606,-0.5280845,-0.3944867,0.9225095,0.33593547,-1.9707584,1.3763968,0.080835156,-1.0834491,0.97813445,-0.107442915,0.68718195,-0.98591095,-0.7218882,1.1675234,0.55612624,-1.182325,0.60029995,0.38562322,0.43618912,-0.32504436,-0.40292954,-0.33626148,-0.3203039,0.90635747,-0.92944485,-0.05039605,1.7616007,0.05658882,0.14217499,0.80518955,0.32744038
person6,-0.22613576,-0.25063235,0.5239165,0.92633307,0.55849737,0.0351946,-1.0520012,-0.47883368,0.8152595,-0.057936326,0.029494843,-0.94837046,-0.68443793,0.15326199,1.8274856,-0.35935834,-0.65417385,0.6776014,0.4021236,1.1421639,0.94583446,-0.7089416,-0.39875877,-0.035688575,0.8199763,-0.72987694,0.3468481,1.042748,0.006072847,-0.013927482,-0.6692491,0.9031603
person60,-0.011761318,0.36433983,1.553828,1.2104182,-0.2116839,-2.0358555,1.4225119,1.1010602,0.6204976,-1.2734556,0.49149823,-0.097412795,0.8201498,0.28370097,1.2314514,-0.87264854,1.0572344,0.4563199,-1.286086,-0.08509533,-0.81247646,0.3928167,0.6002767,0.13661219,0.24475843,-0.81079805,-0.18483493,1.4959939,0.8522827,-0.5837498,0.61727375,0.6801856
person61,0.60191244,0.2710732,-0.487813,1.1349932,-0.2624979,-0.9060488,-1.0345875,0.7812515,-1.155459,1.0361435,0.5778928,0.097511634,-0.059520245,-0.18892711,1.0317532,0.40618193,0.66211075,0.43452063,0.56474227,1.2573358,-0.1670091,0.760356,0.15213361,-0.62492067,-0.05262309,-0.26577306,-0.33626404,1.3362567,-0.50798434,1.4634614,-0.5761483,0.77734053
person62,-0.1582931,0.24941395,0.17127323,1.2717983,-0.38108766,-1.2181215,1.0614364,0.6812119,1.0058166,-0.36596286,0.9106743,0.29464802,0.2808666,1.0793928,0.72153276,0.12598704,1.4338028,-0.50470805,-0.23215151,-0.8638235,-0.44432724,0.17161444,0.693408,-0.7251649,-0.8885763,-0.33468437,0.31138945,1.4400138,0.35927504,-0.6839068,0.5933725,0.6510643
person63,-1.1428583,-0.33167326,-0.4657748,1.1399938,0.8150689,-1.7966266,1.0953094,-0.5905465,-1.0835767,0.29235947,-0.28440255,-0.0127024725,-0.8638073,-1.0823132,1.0326642,-0.05380614,-0.46085927,0.9734865,0.7677079,1.258498,0.86727333,0.047326807,0.1793253,-0.65561295,0.46512,-0.7886515,0.6374686,1.683289,-0.715812,0.09069523,0.72434413,-0.48953542
person64,-0.07984559,-0.45174173,0.7515774,1.0864187,-0.94662124,-1.4083692,-0.9777555,-0.15938559,0.8733239,-1.2889208,0.56774944,0.19842729,-0.93200207,-0.43562508,1.050464,-0.99049705,-0.66684127,-0.11647424,0.88909864,-0.0785381,-0.31285197,-0.84248435,-0.7045997,0.770767,-0.97528327,-0.008879636,-0.026259648,1.5681152,0.10848942,1.2247142,-0.6723827,-0.044817567
person65,0.91173214,-0.06489663,0.4040598,1.4811392,1.4763417,-1.667041,-1.3528142,-0.55024767,1.2336217,-0.14661205,-0.9302872,-0.0142837595,-0.7733044,0.05341901,0.94161904,0.017680936,-0.38468215,0.76492876,0.3107255,-0.36975545,-0.6407025,1.1899452,1.1872054,0.37095788,0.44344494,0.21967554,0.60083574,1.5530621,-1.0861809,-0.01508248,-0.6505323,1.0259653
person66,-0.13101076,-1.1169637,-0.8143802,1.8732363,0.9433651,-1.155274,-1.214446,0.5348878,-1.0772105,0.2432473,-0.6070105,-0.7917781,0.93675864,-1.2308509,0.69692487,-0.7158717,-0.1623407,0.7482635,-0.2100595,-0.68076456,-0.15940586,0.39487168,-0.0020312546,-0.13323474,0.1634503,0.9862332,-0.5322627,1.5903398,0.015972054,-1.6937134,-0.7473655,-0.12008501
person67,-0.3551378,-1.4611769,0.11709051,1.439002,0.15844905,-1.3749605,-0.908959,0.9347395,-1.1464539,0.39606166,-1.00049,-0.2671767,0.8831968,-0.17159158,0.7409848,-1.1575032,0.88409173,-0.37571102,-0.16449933,-0.6602798,-1.2097447,0.57577884,0.47055185,0.09799524,0.36408073,0.73224723,0.11229331,1.5528629,-0.60697937,0.37275967,-0.7805804,0.8760774
person68,-0.03796007,0.36197287,0.63915193,0.9350457,0.40601,-1.218509,-0.8307982,-0.95096713,1.0844895,0.14664222,-0.64396477,-0.32049286,-0.98757285,-0.13314152,0.9358335,-1.1030442,0.07914441,-0.14100009,0.86135495,-0.057519164,0.16346025,-0.4995375,0.3075042,0.14257073,-1.0517473,0.7735696,-0.8691892,1.7536576,1.5458378,0.25293717,-0.52193177,1.1832376
person69,-0.910118,0.30454403,-0.90386564,0.9663388,-0.7335062,-1.6208336,-0.971973,0.56430846,-0.8558559,0.6492744,0.028518878,-0.11648813,0.29599124,-0.12659886,1.2708323,-0.041381653,1.0471771,1.3707197,0.14531952,-1.4770124,0.45088398,-0.31387532,0.011105153,-0.57074636,0.5202316,0.72433066,-1.1357487,1.268159,-1.1349757,-0.52417827,-0.35217917,-0.44226518
person7,-0.41507468,-0.08891681,-0.58251363,1.6634957,1.0143383,0.15879694,-0.72241163,-0.18650782,-1.0350341,0.041525904,-0.40817368,1.3126686,1.7341988,0.016980741,1.4362011,-1.2799708,0.12977837,-0.64095855,-0.35256395,0.64010847,-1.4120655,-0.2367709,0.6286765,0.9493593,-1.4997995,-1.6131842,-1.0604438,1.3472466,0.29903814,-1.5729533,-0.8699378,0.785885
person70,-0.213717,-0.77636194,0.17995678,1.1067209,0.40384504,-1.5946715,-0.88947016,-0.15910935,1.1804286,0.22882777,-0.5427784,-0.086046904,-1.2553174,0.04184934,0.9287258,0.42573336,-1.0701275,0.9633714,-0.44050083,-1.2923574,-0.33047065,0.43993524,0.8901398,1.6491824,-1.005224,0.5629947,0.45427206,1.7729986,0.69724643,0.03868166,-0.7623973,0.20396025
person71,-0.043198742,0.3829101,-0.801962,0.9715203,-1.1690806,-1.9312683,-1.6291268,0.32118136,-0.49817345,0.1040934,-0.93459684,-0.75677854,0.84708726,0.14030898,1.7567338,-0.47752732,1.1114808,1.0759907,0.6570363,-1.6797256,0.92278,-0.71893245,0.087099746,-0.49084154,0.2236235,0.9450369,-1.6261109,1.580746,-0.24565212,-0.31850106,-0.85370505,-0.35069624
person72,-0.69376,-0.22889957,-0.75367236,0.876101,0.7702333,-1.2498262,-1.2115552,0.16312978,-1.0150657,0.106263876,-0.39057872,0.098907046,0.7743145,-0.5012763,1.3440639,-0.31091094,1.0910808,0.9498412,-0.086110234,-0.74978656,0.7139795,-0.44061843,0.26059636,0.33736438,0.08533104,1.0820911,-1.2773975,1.642296,-1.0696564,0.8199433,0.6718237,-0.6224507
person73,-0.8905622,1.009956,-1.1867186,0.9624347,-0.94759184,-1.9833176,1.1125988,-0.92596555,-0.8110979,0.22489606,0.16087025,-0.45793712,-0.9074893,0.19701922,1.3285655,0.7848503,-0.6532384,-0.7530545,-0.37726986,-0.6997021,0.57590485,0.934325,0.23683381,1.3311956,-0.65917546,-1.1126788,-1.0599915,1.535131,0.32882106,0.45782354,-0.015997171,-0.7670071
person74,0.57264316,0.2827433,-0.27357557,0.44576612,-0.15800864,-1.7223276,-0.8466269,0.11801616,-1.145024,0.77348465,-1.136415,-0.27079612,1.4525719,-0.27154934,1.4810461,-0.5765916,0.20054473,-1.0176562,-0.27258155,-1.1562368,-0.8443393,0.94398403,-0.3758527,-0.5040211,-0.33497804,0.34392187,-0.2248348,1.7819576,-0.8478737,-1.6688895,-0.32148468,0.21347141
person75,0.3941322,-0.102513865,-0.01263444,0.5749696,-0.37022412,-1.4981468,-1.359719,-0.62591076,0.7688579,-0.08157778,0.29578003,-0.34080437,-1.0048785,-0.46537292,1.4569917,-0.63305503,-0.6782968,1.1165866,-0.3500081,-0.6918154,-0.051662497,0.9437102,0.32371628,0.53872657,-0.6049432,0.7995245,0.14569166,1.6164602,-0.4398619,-0.16786918,-0.5581527,-0.3180425
person76,0.27180707,0.60857445,0.3480239,1.7237719,0.6649702,-1.3767341,-1.2495693,-0.7332318,1.0805292,-0.028255653,-0.8524571,0.008309376,-1.1419075,-0.02357459,0.7521839,-0.8926781,-0.306535,-0.2913512,0.05310418,0.14895795,0.6627647,-0.4004562,0.4985702,0.11855898,-0.7187887,0.6164922,-0.58211845,1.6099417,1.0739784,0.27663583,-0.92777354,0.7908603
person77,-0.8856253,-0.01431917,-0.38008335,1.1608771,0.6471807,-1.4447702,1.0449419,-0.683948,-0.89305985,0.4593638,-0.4345715,0.18388917,-1.0260667,-1.5728292,1.1311343,0.005518325,-1.0179962,0.7981906,0.48549864,0.91212904,0.306365,-0.20693192,0.4542655,-0.8020856,-0.01830266,-1.1919739,0.86328787,1.5729914,-1.123002,-0.54180384,0.6058885,-0.2659113
person78,-0.35322592,-0.47797978,-1.1877414,1.1174885,0.6495598,-1.6006919,-1.1316506,-0.07524558,-1.1119603,0.64296883,-0.99478364,-0.10949445,1.141881,-0.3743103,1.5166028,0.19914965,0.5902574,-0.04665541,0.38942564,-0.6898962,0.4437006,-0.5080813,0.8526291,0.13283025,-0.07652807,1.5549498,-1.4991429,1.5621803,-1.3725075,0.5955716,0.36875725,-0.7712635
person79,0.2239445,0.91389334,0.40381175,1.5322114,0.63099086,-1.6613127,-1.24199,-0.72364753,1.0729774,0.1338189,0.09031414,-0.041161645,-1.0644566,0.019015018,1.0400834,-0.38448328,-0.11153543,-0.19795717,1.0342942,0.12537591,0.3888535,-0.5855494,0.73801124,-0.06758217,-0.37588662,0.91741973,-0.25124356,1.4503214,1.645103,-0.052650504,-0.77191037,0.8408507
person8,-0.8529849,0.21756786,-0.7719357,1.3024251,0.075645864,0.07765419,1.0370237,0.8644638,-1.1383065,0.7282112,-1.0490441,-1.1665409,-0.9428232,-0.8912894,1.42318,0.27813968,0.029541131,1.2447909,-0.8004182,0.425873,0.883983,-0.42417672,0.5086693,-0.84920657,-0.04625977,0.3186659,0.5652922,1.2428721,0.04139377,-0.09839818,0.82572573,0.53195244
person80,0.61359984,0.4728102,-0.28712204,1.5678947,-0.29571566,-1.3360691,1.2055074,-0.37451792,-1.2930098,1.5943396,-0.6104508,0.5015362,-0.85047895,0.83849764,1.104285,0.4574634,-0.098636076,0.04377782,0.07976125,-0.39303005,-1.270933,0.2713404,-0.13493109,0.7350572,0.09553422,-0.6667365,-1.6290421,1.1177335,-0.65551096,0.27471167,-0.08633723,-0.11337022
person81,-0.65944654,-0.21400352,-1.4101824,0.97528946,0.6268278,-1.8780961,-0.8602089,0.30753067,-1.1963915,-0.2332428,0.2963371,0.6297507,0.6929468,-1.1798297,1.234239,0.57683146,0.46543938,0.9637826,0.45996118,-1.0629652,0.98873425,-0.40494138,0.23979245,1.0537393,-0.7379994,1.0871464,-1.0952665,1.5835404,-1.0411271,0.5368556,0.04865731,-0.8108479
person82,-0.8920446,0.60733294,0.08895222,1.4511898,-1.8427871,-1.8282328,1.2525945,-0.2970461,-1.2393558,0.7192046,-1.9434612,0.29774353,-1.0532138,-0.6529874,1.0491775,0.123339325,-0.17121702,-0.2326648,0.6715165,-0.67596906,-0.87581825,-0.18911771,-0.07836636,0.54405326,0.31079865,-0.2882499,-0.25732422,1.47943,0.45852107,-0.3192527,-0.29250762,-1.0966545
person83,-0.7340848,0.58149546,-0.52851236,1.3730692,-0.5631536,-1.4309231,0.8947663,-0.36559814,-1.0188859,0.028516669,-0.3305743,-0.16040666,-0.6873755,-0.24024017,0.90557235,-0.5893527,-0.32160085,-0.13943261,0.8495568,0.26300448,-0.15363403,0.17403193,0.8232042,0.6914118,-0.06282852,-0.36179847,-0.44323647,1.0653132,-0.34581208,-0.85855734,0.2826386,-0.99429524
person84,0.6632128,-1.0387903,-1.155227,1.4317695,1.2385837,-1.4733527,-1.0532584,0.6518621,-1.0633221,0.18650363,-0.41666365,-1.2673547,0.746404,-0.9488159,1.103319,0.6478973,-0.08194659,0.22788161,0.5111659,-0.48768649,0.29183713,0.522209,-0.16446751,-0.28622404,0.686922,1.2618166,-0.3622713,1.4830363,0.5238737,-0.26072907,-0.8479266,-0.16664386
person85,0.64664364,-0.09631857,-0.9286671,0.7566972,0.16616543,-1.527238,0.8885312,-0.98590994,-1.011753,0.15870844,-0.8368348,0.747337,-0.71991885,-0.3184606,1.2803488,0.0046864105,-0.54716307,0.9248723,0.67847663,0.12122014,-0.18024606,0.08251568,-0.6136832,-0.89047086,-0.47071597,-0.84090245,-0.3991622,1.4930031,0.073953755,0.087196656,0.95509714,-0.032532424
person86,-0.5577718,1.3948709,-1.3429157,0.9263772,-0.77915597,-1.822596,0.87584645,-1.0804017,-1.1163113,0.8455336,0.20372157,-1.0963596,-0.7433584,-0.3415716,1.4370381,1.1740297,-1.0586324,-0.6865159,0.17582233,0.110300586,0.73710924,1.0823513,-0.00057460985,0.985112,0.32142702,-0.38375714,-0.64996684,1.4243633,0.3537127,0.17616954,-0.17049055,-0.8992266
person87,-0.58448845,0.48320937,-1.0473022,1.1828569,-0.37520948,-1.6493088,-0.9581139,0.85394883,-0.4653556,-0.07873836,-0.51168764,-0.26483318,0.7736922,-0.99435955,1.0444641,-0.28208274,0.2583998,1.2809275,0.8035513,-1.564283,0.6990423,-0.9185561,-0.09619771,-0.52903384,0.4553099,1.0163537,-0.8511211,1.5767382,0.37716767,-0.027479453,-0.5432057,-0.5384751
person88,-0.5319858,0.16980377,0.15562548,1.6078335,-0.984768,-1.3154402,1.4877101,0.75100285,0.9233548,0.4859186,0.7469075,0.6467536,1.1387244,-0.03413663,1.0551885,-0.40995848,1.2089748,0.37679973,1.0908815,0.34223515,-0.16424167,-0.42713764,-0.0059214146,0.7163615,-0.6000534,-0.40617245,0.27369368,1.6636341,0.7448081,0.037899606,0.3392362,-1.3357928
person89,-0.15171428,0.6006337,0.36171162,1.0089808,0.521294,-1.195853,0.998121,0.7444362,0.9214942,0.42694935,-0.6981024,-0.7043201,1.2762946,-0.8787877,1.2950388,-0.38093185,0.5784105,-0.8662003,0.8593348,1.3913755,-0.41844815,-0.39398184,0.58122164,0.45864785,0.015199637,0.74857694,0.32565874,1.6978071,1.2369153,-0.6158471,0.32379627,-0.9928447
person9,-0.79465747,0.73451644,-0.92366993,1.1849433,0.35264254,-0.073421024,-0.9473463,0.26026824,-0.84970635,-0.29726592,1.2051793,0.80600184,1.0137014,-0.7639194,1.7519904,-0.7464416,0.7393,-0.2806361,-0.65775543,0.86970884,-0.8971605,0.28653637,1.1171225,-0.21152252,-0.57866126,-0.35758212,0.6289553,1.1169176,-0.011417816,-0.57783145,-0.6086549,0.85843647
person90,0.22021101,0.21670666,-1.0852114,0.89951056,-0.9251422,-1.4074064,1.039043,-0.8421659,-0.89003766,-0.4234432,-0.16171603,-0.19006555,-1.0585912,-0.37036836,1.5561635,-0.7981632,-0.51625586,2.197501,0.9998017,0.8336019,-0.32416025,0.14280881,-0.20361559,0.10240456,0.120117344,-0.1992299,-0.6904531,1.4567744,-0.14321192,0.21732762,-1.0493069,-0.7901838
person91,-0.12894496,-0.30074796,0.5317319,0.80589336,-0.30003202,-1.5422928,-0.86307025,-0.36346072,0.72009885,-0.06180597,-0.42456293,0.29689294,-0.8308299,0.40972522,1.253335,-0.08660307,-0.7659235,0.9028704,-0.08705607,-0.36740732,-0.49285918,1.1236333,0.4010773,0.84194857,0.13304706,0.13764355,0.5769476,1.1235259,0.13515748,1.0794183,0.061471336,-0.6984341
person92,-0.6892526,-0.34949335,0.2413044,0.4100907,0.06000847,-1.4673307,-0.9881039,-0.6170808,0.8176114,0.01659431,-0.38901746,-0.13377249,-0.81244123,-0.52388716,1.3173639,-0.16680565,-0.8394761,0.89484036,-0.9699383,-0.21914354,-0.5483666,0.5200539,-0.14535709,-0.6770426,-0.13990326,0.18818934,0.71968937,1.4359405,-0.48610538,-0.23138177,-0.41324311,-0.72643334
person93,0.33347097,0.14400621,0.1675479,1.1419286,-0.30789354,-1.2183986,1.3789928,1.047815,1.0924311,0.2937334,1.1173191,0.6629427,1.1480283,-0.12749816,1.4145615,-0.47342184,1.5302693,0.70062107,1.1909863,-0.29317924,-0.4716928,-0.7251102,0.0091996305,0.6669925,0.035911337,-0.11668399,0.121272914,1.667252,0.6422828,-0.4729051,0.1634641,-1.1461375
person94,0.075444736,-0.48434263,0.4405447,1.1965437,0.40792716,-1.8558793,-1.0768086,-0.6576594,0.8005438,-0.20273171,0.38951036,1.1022826,-0.795318,0.079898804,1.1145042,-0.6863962,-0.4558825,1.1368431,-0.40942597,-0.55451334,0.010894729,1.6149176,-0.58111185,-0.66228735,0.33053124,0.20863046,0.29473597,1.3312433,-0.06346024,0.7474765,-0.6753806,-0.7164811
person95,0.35208604,-0.39268148,-0.23984227,0.70909166,-0.33030838,-1.1667713,-1.0568255,-1.0635593,0.66420484,0.31319743,0.26930213,0.07287634,-1.0680907,-0.29911047,1.2131644,-0.8616107,0.005318118,1.3804139,-0.71114767,-0.59640783,-0.43235487,0.46363255,0.22681321,0.60796493,-0.62827754,0.620742,0.3100645,1.5005122,0.21480596,0.04042361,-0.7790212,-0.48138657
person96,-0.21584326,-0.11631244,-0.39636853,0.9686195,-0.067213535,-1.0067898,-0.92544293,0.8504012,-0.99421793,0.31851822,0.3715888,-0.1837044,1.043772,0.16356662,1.4246464,0.889059,1.1479117,-0.748263,-1.2470069,0.12283875,-0.682504,0.41262752,-0.3067123,0.78654706,-0.23477277,0.1420942,-0.4804844,1.2110777,-0.14439203,0.0132898,1.1356032,-0.4990315
person97,-1.0331497,1.3893828,0.58032113,1.1545726,-0.43051395,-1.7340233,1.7618839,0.4970147,0.72929674,1.2085519,-0.6680825,-0.5739599,1.7277571,-1.154718,1.6714567,1.202632,0.14285682,-1.0391862,-0.43358564,0.22077528,0.23402756,0.7821407,0.6901911,-0.3506849,0.7306842,1.7668967,0.553779,1.9140472,0.92878073,-0.035291377,0.36552128,-1.3354163
person98,-0.07852456,-1.1288295,-0.42231184,1.2032115,-0.2878091,-0.9039304,0.9728225,-0.8963166,-0.79606634,1.1122779,0.41765827,-0.16730657,-0.7497475,0.36552182,1.0755122,0.22325088,-0.1271168,0.9626177,1.5739435,0.023381302,0.5178171,0.09466615,0.63937354,0.99392295,1.070316,-0.7478914,-0.19753112,1.3706356,1.1665351,-0.42615095,-0.17967795,-1.1810567
person99,0.9127369,-0.007004938,0.78617996,0.71337587,-0.5095006,-1.6369041,-1.1204637,-0.859571,0.66792303,-0.13215803,0.21940152,0.5029668,-0.5318287,0.81657976,1.3646424,-0.23490532,-0.130458,0.96936876,-0.07377763,-0.3219368,-0.5465223,0.8269072,-0.35196897,0.31320664,-0.78459334,0.9170746,0.89095217,1.3652713,-0.41192394,0.19933213,-0.5552663,-0.7284006
