,0,1,2,3,4,5,6,7,8,9,10,11,12,13,14,15,16,17,18,19,20,21,22,23,24,25,26,27,28,29,30,31
acquired_abnormality,-0.265017,1.6303974,1.3010077,0.6002904,-0.2108769,-0.021116111,1.3984507,0.011555833,-0.5016616,-0.21154107,0.8926712,0.0031344206,0.3980814,1.4411222,1.1116885,-0.20007688,-0.05307881,1.6941551,-0.6518725,0.32930094,-1.273095,-0.5676334,0.25907826,0.53285587,-0.50047,1.9457898,0.59745365,-0.12498934,1.1352161,-0.16434172,0.31038105,0.41521576
activity,-1.0108786,2.184314,-0.84331036,0.1506446,-0.35870087,-1.7476557,1.5527501,-0.5833775,0.8915066,-1.0268658,0.6496589,0.07970565,-1.4550658,0.82658935,0.7705361,0.69831604,-0.40466854,-0.4932273,-0.6955175,0.26477727,-1.0748577,-1.8987812,0.4496079,1.9256201,-0.38472834,0.9631344,-0.5680764,0.23924865,-0.8491005,1.4442207,1.7818636,-0.15264924
age_group,-0.8040642,0.5469097,1.0279027,0.9130883,-0.20313641,-0.60440385,1.5359024,-0.06823742,-0.37982544,-0.6901646,1.9117757,0.09246657,-1.2071799,1.5018979,-0.6360445,-0.16933696,-0.68160367,0.28373197,-0.69230515,-0.5855169,-1.1597553,-0.5231232,0.8785959,0.7317135,-0.5314993,0.28446156,0.23726077,-2.4767008,1.2303208,0.95242876,0.19268093,-0.6029775
alga,0.072334066,0.32253307,-0.07275298,0.013902692,-0.5479552,-0.1746808,2.1223521,-0.9429904,-0.09311775,1.1158408,0.27404025,0.22671771,0.089681566,1.4959412,-1.5209014,1.5079892,0.492662,0.5677088,-0.72293127,-0.06356051,0.016137695,0.13925633,0.24491332,1.4037135,-0.06306373,0.6536834,1.1282264,1.2319232,1.5734367,1.459809,-1.1604025,-0.20197807
amino_acid_peptide_or_protein,-0.511032,0.17361295,-0.33220783,0.652834,-0.68874604,-0.43013212,1.5336494,-0.64114743,0.42788184,0.6982779,1.0555245,1.0072576,0.49106085,0.79616123,-0.45440778,1.1333781,1.0770094,0.106740296,-1.1063787,-0.17184837,-1.3822867,-0.4755187,0.7978266,0.6625256,0.77566826,-0.47183922,-0.6492644,-1.2838308,-0.33482817,0.92785,1.4295362,-0.78444463
amino_acid_sequence,-1.3311398,0.5885719,-0.59235674,-0.19106029,-0.43520382,-1.2838696,2.203888,-0.9692672,-0.16907026,-1.7290505,1.0453933,0.515609,-0.7860885,1.3208022,0.24951018,0.5578025,0.40358317,-0.32088354,-0.17783499,0.25762737,-0.8012493,-0.4153376,1.3470612,0.86609846,-1.690378,0.089124575,0.22404079,-0.18739974,1.3053209,0.5981345,0.52893764,0.051552087
amphibian,-0.26861808,0.9372048,-0.53708804,-0.9968803,-0.20583573,-0.9311993,1.1660551,-1.6762319,-1.4839228,1.787476,0.018641846,-0.24085933,1.4832531,1.529912,-0.21797201,1.1665528,0.44503996,0.7437301,-0.8660123,1.2798649,-1.2872827,-0.07799524,0.57780284,1.117105,-0.10652844,0.12978579,1.6249495,0.7071349,1.02952,1.2467937,-0.6588772,-1.3494661
anatomical_abnormality,-0.16906007,1.3093799,1.0994394,0.45798552,-0.09204459,0.12166554,1.2986381,-0.24867278,-1.0486401,-0.34814516,0.57843506,0.24958433,0.617289,1.4474103,1.2311214,-0.29108042,0.13192531,1.4289064,-0.7539049,-0.371823,-1.7074419,-0.7721826,-0.15167719,1.029571,0.33778992,1.9092278,-0.06390563,-0.24350847,1.603698,0.5344566,0.4789937,0.45201433
anatomical_structure,-0.22010444,0.193872,-0.008259589,0.32797617,-1.6211149,-0.29488343,2.0714395,0.5959343,-0.10901827,-1.0363735,0.90921116,0.7885343,0.37496102,0.8888093,0.19232586,-0.03752529,0.52510744,-0.29123044,0.19301704,-0.6509428,-1.023675,-0.4914296,-0.105578825,1.826752,0.07319371,1.3943365,0.8645895,-0.23057741,0.5436302,1.7529639,-0.112213224,-0.15038568
animal,-0.36059263,0.51641905,-0.09154644,-0.40610698,-0.73678243,-0.23128839,1.8612643,-1.5362446,-0.52383727,1.9947687,-0.1283206,-0.18649368,1.2616603,0.8367089,-1.110763,-0.14908016,1.1261914,-0.41684678,-0.90681493,0.61999583,-1.0655293,-0.22252811,0.44153458,1.3181521,-1.2565986,-0.7955753,0.09945626,0.32952252,0.7895952,1.3678868,-0.7078665,-1.0196905
antibiotic,-0.16318022,0.91767585,-0.19184816,0.32998714,-0.5549417,0.79520136,1.8476033,-1.9998711,0.37436682,0.38309464,2.1123443,0.4982185,-0.04920306,1.1313937,-0.7029694,0.9916905,0.51686347,0.07166184,-0.63083696,-0.66668636,-0.7089983,-1.306755,0.46473855,1.5891796,0.47128397,0.20567079,1.1857969,-0.37054744,-0.54176193,0.82232755,1.1007627,-0.9515084
archaeon,-0.45804194,2.111334,-0.43060952,-0.55314416,0.22153863,-1.1747546,1.579295,-2.688533,-0.41571262,0.6016125,-0.3695942,-0.030105565,1.698133,1.3759359,-0.76584935,0.3987395,-0.028600715,1.0175755,-0.79449666,0.59673643,-1.2425754,-0.6923994,0.79426396,1.0323313,-0.84746003,0.15926765,0.77656794,0.19181816,0.3025778,1.4459692,-1.1195718,-0.8563602
bacterium,-0.8529857,1.0403386,0.26968372,0.18760885,-0.74739194,0.101384446,1.8838682,-0.52815574,-0.34300965,0.34231746,-1.4454277,1.058551,0.8676636,1.9987977,-0.97789603,0.9255063,0.59478897,0.9353909,0.034539223,-0.26582405,-0.37606797,0.09472734,0.07777032,1.2994817,0.01990283,0.04537476,1.0277814,1.044319,1.4264126,0.8140526,-1.1956035,-1.7785925
behavior,-1.015112,0.42796537,0.09442338,-0.02815848,-0.007234881,0.005264975,0.94663954,-0.72061646,-0.20708157,0.5146646,-0.09584927,-2.1007152,0.43588948,0.5030046,-0.5066683,-0.25068963,0.45803106,1.2972411,0.2754014,0.21712604,-1.1379944,-0.6954944,1.0084941,1.2305391,-0.36466488,0.9708471,0.78108805,0.8074569,-0.7291954,1.5405601,0.8776296,0.4047626
biologic_function,-0.8641515,0.8908306,0.0878485,0.31979543,-0.3081264,-0.3073546,1.532748,0.096509136,-0.6044568,1.1425894,0.80106074,1.0619493,0.51693547,0.5785229,1.1306165,0.8461449,0.31289127,0.50991666,-0.02832826,-0.32251218,-0.8289288,-0.106602855,-0.05019711,4.0292507e-05,0.055263977,1.5987756,0.3143583,-0.19151428,-0.44390035,1.1080586,0.47085977,0.6669286
biologically_active_substance,-1.0183779,0.62701535,-0.8413593,0.044644203,-0.7789977,0.31406888,1.3319844,-0.76694614,0.70321316,-0.4745439,0.49482682,-0.5616609,0.09765859,1.3640956,-1.3491219,0.31170616,0.6983672,0.76655614,-1.2429442,-0.5549028,-1.5148604,-1.54009,0.12611583,0.574802,0.67680806,-0.37561277,-0.057809096,-0.24400882,-0.8548444,0.42246246,1.5337514,-0.6667006
biomedical_occupation_or_discipline,-1.7111942,2.3953712,-1.0266172,0.8008688,0.49136457,-0.26938552,1.0148335,0.80553687,0.49070078,-1.1690618,2.267077,0.6658353,-1.0134149,1.5183452,-1.5331526,0.95928943,-0.70038766,-0.04678643,0.23353319,-0.3421918,-0.5634695,-1.4557307,0.05880183,2.4358914,-2.2330737,0.14355992,2.1055734,-0.58226794,0.0344419,1.2445228,1.1264316,0.16941327
biomedical_or_dental_material,-1.342668,0.22088294,0.7563308,-0.4528338,-0.39206395,0.17440683,1.264199,-1.001919,-0.1467597,-0.3339379,0.55734646,-0.13483605,0.677803,1.4327431,-0.94194865,0.94531965,-0.70615155,-0.21076728,-1.4167379,-0.21836187,-1.1982223,-2.092979,1.1298335,0.87049264,-0.10372217,-0.5925368,0.8204669,-1.356188,-0.35968205,1.0316141,1.3534034,-1.2372545
bird,-1.0119767,0.37973168,0.30239877,0.007825495,-0.11932083,-0.1548539,1.6822215,-2.4822218,-0.23131438,0.7076549,0.21343069,1.5500515,1.403313,1.8923999,-0.6676059,0.57815814,-0.6292338,1.0660785,-0.55334514,0.5303082,-1.2263508,-0.13507782,0.3530128,0.5211073,-0.6585866,-1.0436243,0.9449884,0.37649226,1.8832589,1.5723238,-0.9119041,-1.4468211
body_location_or_region,-0.9780736,1.1708772,-0.086413816,-0.5300999,-0.11895391,-0.54334706,2.0609994,-1.4410976,-0.8662414,0.39347136,0.5070391,-0.50204295,-0.3608758,0.9059801,0.31183264,-0.14708447,0.8250587,0.13302489,-0.32066777,0.2947398,-0.81125116,-1.143851,0.72617155,0.865914,0.32759848,-0.016378958,-0.28242528,0.11323933,1.8503621,1.3738412,1.065188,-0.9751025
body_part_organ_or_organ_component,0.18990459,0.68063104,-0.8304954,0.8582062,-0.6040242,-0.12818421,1.2979877,-0.16697422,-0.32050112,-0.3413491,1.4301546,-0.042746134,0.55088836,1.1479563,1.0448134,0.10904025,0.6629365,-0.2920609,-1.3909775,0.24292089,-1.140778,-0.83321667,1.4926533,0.5147669,-1.72855,0.38770914,1.0597309,-0.16041426,-0.08074969,-0.019097863,0.63945884,-0.54373354
body_space_or_junction,-0.44498432,1.2922343,0.2957263,0.7221159,-0.24577573,-1.0443082,1.7862645,-1.6171898,-0.75491357,0.26590756,1.0545031,-0.12546483,-0.66977227,0.8128691,0.19883482,-0.29048043,0.19432333,-0.12333736,-1.5687759,-0.7992477,-0.70961267,-0.20537122,0.9074147,0.35220373,0.46541315,-0.01707994,-0.704914,0.8122617,1.144609,1.3391714,1.0781074,-1.830779
body_substance,-0.88745636,0.5112801,0.26663318,0.3115793,-2.21382,0.4860854,1.790273,0.08956175,1.4647702,-0.05647491,0.6297561,0.042149406,0.6209018,1.6975758,-1.0093687,0.7123779,0.43602628,-0.1546543,-1.1633362,-0.4084193,-0.20459898,-1.2508794,0.35885713,-0.32368028,-0.23862581,0.21299171,0.5360738,-0.78275865,-0.7181153,0.035633113,0.23844753,-0.87890226
body_system,-1.29859,-0.6318667,-0.15627597,0.26967132,-0.9728437,-2.623252,1.5798366,-0.7046433,-0.7295755,-0.112595044,1.0697325,-0.28592518,-0.27283645,2.505721,-0.5286477,0.57774466,1.2728306,0.0073055453,-0.5942989,0.7323868,-0.8875588,-0.2972154,0.5188298,1.0968323,0.56550765,0.80387205,0.49884713,-0.555163,1.4451911,0.6733315,1.002852,-1.3731575
carbohydrate,-1.0668458,0.8480381,-1.182676,-0.21171607,-0.5044192,-0.7681086,1.886532,-1.3961866,1.24445,-0.1543381,1.4843918,0.3342204,0.6672328,1.232733,-0.34078684,0.9969801,0.2003377,-0.24743184,-0.071742944,0.30919528,-1.0912555,-1.5547422,0.90019697,0.20719254,0.7179613,0.24878286,-0.3686444,-0.7547932,-1.3248477,0.8785604,1.4743361,-0.7855431
carbohydrate_sequence,-0.8212393,0.8199723,-0.2745029,-0.51124334,0.011968896,-1.7719073,2.438383,-0.94034445,0.027888805,-1.622295,1.9822768,0.32916597,-0.3721273,1.2941649,-0.5582274,0.2719129,0.57663476,-0.8994508,-0.1669174,-0.5587444,-1.1909987,-0.90612704,1.645253,0.967322,-0.34635144,0.39512494,0.3583182,-0.1927518,1.1502681,0.88575333,1.4242233,-0.5767103
cell,-0.73219466,1.8190576,0.4423764,-0.3926703,-0.4779008,-0.38928226,1.6602907,-0.5391477,0.4473959,-0.6522812,0.5378205,-0.17100489,0.33808956,1.2360213,0.8648568,-0.21954286,0.07318244,0.653825,-2.4815767,-1.6215852,-1.0366927,-1.006292,1.3811021,0.7326169,-1.3723385,0.20231687,0.4053327,0.7058065,-0.6025935,-0.14371881,0.29610318,-0.7983398
cell_component,-0.3604801,0.9444609,0.80560344,0.051408064,-0.4495572,-0.47798884,1.1087725,-0.21502444,0.6677026,-0.31939057,1.459472,0.120653845,1.4084579,1.3573585,0.5688243,0.13604161,0.3621908,0.4632489,-1.6476732,0.31336257,-1.1046911,-0.98265195,1.543473,0.74311805,-1.9282126,0.5601723,0.90897757,-0.26967204,-0.69010526,0.66377753,0.83479655,-0.3815328
cell_function,-0.028424133,0.5027509,-0.27294838,0.94383395,-0.11431728,0.685365,1.6184362,-0.45690802,-1.135336,0.7481218,0.92646235,1.1268774,1.6615291,1.297697,1.3867946,0.84353507,0.9132241,1.3007159,0.2020198,-0.5432169,-0.35147974,-0.16593628,0.8399008,0.18246952,-0.39550674,1.3424969,0.07069251,-0.062048648,-0.68715966,1.0894402,0.43603545,0.33743483
cell_or_molecular_dysfunction,-0.45230246,0.33322698,0.544443,-0.787348,-0.032417364,-0.014455086,0.80220115,-0.09488349,-0.74698806,0.70766526,1.1694565,1.1354477,0.24889074,1.2419678,1.1455737,0.38992035,-0.38288444,1.2078078,-0.30360058,0.099542536,-1.2634308,0.08445628,-0.1372021,0.013023874,-0.44521213,1.046461,-0.046535127,0.39239278,0.16314194,0.9292048,0.7441575,1.602276
chemical,-0.16213323,0.21293058,-0.11134162,-0.3015482,-0.23591062,0.09958449,1.051322,-0.76889235,0.05493725,0.40768245,0.50208,-0.39702016,0.07804512,1.7248855,-0.93298036,0.008523887,-0.41474074,0.3364375,-0.7745418,0.7897467,-0.9772678,-2.2508547,0.10574249,1.4173758,-0.08492014,-0.4681816,1.6441392,-0.36832267,-1.2553806,1.4994302,2.1455166,-1.6020172
chemical_viewed_functionally,-0.9201343,0.013654791,-0.15190586,0.17017576,-0.7079066,0.28182083,1.6378495,-0.71014047,-0.115511335,-0.43420213,0.462009,0.10985865,-0.13372657,1.2920134,-0.63743913,0.36475852,-0.65798306,-0.6447057,-0.3162375,-1.3089216,-1.4545534,-3.0330124,0.35730875,1.0523682,0.12692608,-0.86959505,-0.0517982,-0.7435759,-0.99126756,1.2083006,1.5633013,-1.1771889
chemical_viewed_structurally,-1.0342361,0.6064191,-0.796457,0.62221026,-0.21735099,-0.6833351,1.4551035,0.05419719,-0.16419818,0.6361395,0.5211632,-0.13687018,0.7787221,0.8695698,0.1261026,0.7034083,-0.27406028,-0.58474284,-0.89886636,0.43099746,-0.87082505,-2.0536947,1.1371881,0.8662477,-0.24460076,-0.76442456,1.579681,-1.6642771,-0.7103373,0.84681934,1.399247,-1.1038271
classification,-1.3359991,1.2358881,-0.32001543,-0.19647785,-0.99627936,0.37124553,3.1579437,-0.26001963,0.50073093,0.36950594,0.6808594,0.24515814,-2.5073314,1.4035132,-0.09142389,0.7984102,0.02830689,0.4444005,-1.9848834,0.09761128,-1.2601602,-0.37387243,0.20288178,1.6968702,0.26781067,0.5988793,-0.79003626,-0.24854143,1.107059,0.82451755,0.7720317,-1.0736316
clinical_attribute,-1.2521679,0.9979547,-0.29237014,-0.7456336,0.91444325,-0.8502642,1.474397,-0.38863665,-0.59490865,0.2109974,0.47851834,0.18455328,0.30653837,1.9047726,0.49755096,0.4988295,0.6319981,-0.6610549,-0.7321712,-0.73116773,-0.4813353,-1.6938204,0.15772398,0.8257195,-0.12010555,0.6836145,-0.5500701,0.45908594,-1.0446675,0.76658577,0.76921284,-0.28470767
clinical_drug,-2.574627,-0.08721297,-0.8670898,0.6160206,-0.84079134,1.1540017,2.059428,-1.7576312,0.5024944,-0.11091888,0.67131925,-0.55990124,-1.3782582,0.43849534,0.11401712,0.04598147,0.90070677,0.33613744,-0.7765034,0.80649745,-0.97302246,-0.3826205,0.36763352,0.7938989,0.23226437,0.66901743,0.31239596,0.116655074,0.60643107,0.57381266,-0.37838894,-1.3849429
conceptual_entity,-0.87150556,0.12178478,0.4591644,-0.27647838,-1.6613582,-1.6810732,2.3585408,0.1955641,-0.06179036,-0.4196718,0.56927365,0.8316653,-0.46839187,0.9869967,-0.7177598,0.6222937,-0.29246294,0.28036577,-0.85121775,-1.2755376,-0.27037388,-0.7275744,0.15226485,1.0196669,-0.8105798,0.07926359,2.88185,-0.36295205,2.5639317,1.1606423,1.1134555,-0.7673871
congenital_abnormality,-0.4092141,1.1394159,0.8633277,-0.11091729,0.008061105,-0.06878248,1.2746844,0.017219588,-0.62994283,-0.25629476,0.69349265,0.25716805,0.5065937,1.52329,1.187588,-0.29890707,0.064419545,1.0963857,-0.89553976,-0.6504176,-1.2314922,-0.5203496,0.1630281,0.45773295,-0.5276139,1.9856409,0.8993573,0.06521797,1.1211464,-0.10013662,0.39967903,0.5182408
daily_or_recreational_activity,-1.8643758,0.22127454,-0.18536416,0.0035710428,-0.56533813,-0.7625462,2.054619,-0.66325045,0.18600217,-0.8821668,0.36673766,-0.04850288,-0.5515235,1.3120689,-0.23307884,0.66225237,1.381568,1.149237,-0.00071889814,0.26411015,-0.76951814,-1.1127326,1.7818115,1.2758279,-0.56557393,0.41712433,0.52106625,-0.43371028,-0.68480545,1.3795166,1.7931209,-0.20457056
diagnostic_procedure,-0.9703442,0.21687093,0.9378878,0.58762616,-0.65917194,-0.32467413,1.2111002,-0.7069895,-0.5712545,-0.33406153,-1.0226268,-0.456302,-1.1129001,1.5533916,-0.036511056,1.0186713,0.63132083,0.6083502,-1.1634641,0.74412984,-0.40793142,-0.5499914,0.58926,0.8478878,-0.8310613,1.1592959,0.27155527,0.36511266,-0.25685325,1.0704172,1.1958348,-0.049225222
disease_or_syndrome,-0.26567286,0.83099383,0.5344799,-0.5963289,-0.03745531,0.0013392661,0.8381944,0.23235786,-0.5670673,0.4752447,1.020391,1.0169892,0.33962786,1.0992678,0.9851884,0.10587116,0.6268112,1.0143611,-0.40067127,-0.49931738,-0.72957283,-0.23625404,-0.03907099,0.014560952,-0.5454966,0.6756738,0.3374863,-0.45276284,0.104123965,0.7703206,0.44412336,1.53811
drug_delivery_device,-0.5158008,1.070989,-0.026515644,0.3452941,-1.2687961,-0.041525822,1.9595083,-0.3770074,0.6801446,-0.22194731,0.001285797,-0.22254266,-0.9852047,0.9912184,-0.4331507,1.229888,1.3534073,-0.09120292,-0.99667996,0.41599762,-1.1174359,0.29053152,0.3484228,1.6301602,-0.6312751,0.8156091,0.077335715,0.04598025,1.1547836,0.39630157,1.1595836,-1.3120375
educational_activity,-1.4991704,0.37963262,-0.4858846,0.55407625,-0.76011986,-0.68035054,2.2215972,-1.3843703,-0.15304695,-0.39038035,-0.7860017,0.6429276,-1.8587675,1.2746593,-0.34965065,1.0563194,1.1786828,0.37553278,-0.8985662,0.24392718,-0.94044536,-0.023740387,1.5652609,0.5114204,-0.5214001,-0.55569446,0.9527608,0.6481934,0.31913346,1.4421678,2.0200224,0.6913367
eicosanoid,-0.5190106,0.4671329,-1.0817736,0.4735305,-0.42893425,-0.2742857,2.2735198,0.22082087,0.23835683,0.36459517,2.035568,0.32274804,0.17284039,1.249031,-0.94708467,1.8547153,0.8193981,0.20111541,-1.2488775,-0.14948827,-1.1444147,-3.284697,0.010428581,0.8160453,-1.2003753,-0.8619164,-0.85334253,-1.5342408,-1.072243,1.6154963,1.3367654,-1.3164392
element_ion_or_isotope,-0.18987261,0.8590593,-0.5872136,-0.017674614,0.28990015,-0.5604582,1.8966943,-0.7507138,-0.923326,0.40821576,0.9775636,0.21416509,0.17274259,1.9890195,-1.1889832,1.4569331,1.057652,-0.38250977,-1.3730032,0.48970821,-0.7101268,-1.6332606,1.2898208,1.3341081,0.40752825,-0.8822505,0.19288047,-0.33169886,-0.8913121,1.2911906,2.4098477,-0.9047251
embryonic_structure,-1.6586432,0.58132815,0.94154894,-0.5244975,-0.716827,-0.96054506,0.95142514,-1.51533,-0.29022637,-0.47860688,1.2789347,1.6071928,0.7428141,1.9300959,0.9500346,0.40367666,-0.20988385,-0.10698715,-1.382062,0.0898686,-1.391909,0.2303233,2.1394908,1.7691464,-0.02838385,0.29158062,0.6174688,-0.27565747,0.054155063,0.6893702,0.9797598,-0.37406588
entity,-1.0339322,0.07060726,0.32873756,0.6305955,-0.8879773,-1.4967251,1.45288,0.9938795,0.672822,-0.00924197,0.08111729,0.29278538,0.5914092,0.7318115,-0.5464121,-0.8464508,0.14374761,0.2259626,0.53169,-0.95336115,-0.4057702,-3.2897124,0.17231129,0.9386025,-0.92871463,1.1093386,1.5432484,-0.7071644,1.649488,1.5621918,0.9742792,-1.3884792
environmental_effect_of_humans,-0.9237537,0.4442049,0.1841121,0.2931931,-1.2241148,-0.66958153,0.84329176,-0.44762963,-0.8638196,0.3594287,1.1447012,-0.13822892,-0.050031748,1.8649462,1.1020229,0.6519173,-0.8628267,0.5553683,-0.7340528,-0.41173446,-1.4342555,-0.68601525,0.804985,0.54055315,-0.57444656,2.3915665,1.0790979,-0.5700201,0.047513902,1.5600885,1.2654428,0.018450016
enzyme,-0.6495686,1.0683869,-0.21222112,0.674871,-0.8492454,-0.29766682,1.7806281,-1.250868,0.99905854,-0.23250465,1.024594,0.7164878,0.64900017,1.1486062,-1.4266399,-0.16733271,0.8785748,0.57888585,-1.6320852,-0.053502217,-1.6873281,-1.3138124,0.61207336,-0.0010533705,0.38112065,0.07950776,-0.0734952,-0.06558503,-0.66765076,-0.030794965,1.4415668,-1.0842047
event,-2.312185,0.46067777,0.5429221,0.19934247,-0.87160957,-0.7694506,2.2657948,0.019986939,0.3291178,-0.49076578,1.5107213,0.625303,-1.3345895,1.0683922,0.7865559,2.5918546,-1.1583195,-1.4857941,-1.2463503,-0.29297075,-0.8308803,-1.7168908,0.11774029,1.1533865,0.016724665,1.9558629,0.46663955,-0.7556516,-0.23755305,0.7091321,0.17199777,-0.9983896
experimental_model_of_disease,-0.52472657,0.3521473,0.34961966,-0.24842703,-0.24478711,-0.26935953,0.69503504,0.20352842,-0.6108021,0.7466797,0.50254244,1.3017683,0.4738346,1.6506388,1.0142444,0.2539962,0.27540475,0.92620605,-0.1987195,-0.28452638,-1.4008937,0.42770195,-0.041685764,0.2381759,-0.5216706,0.7392551,0.77595776,-0.024205111,0.22615902,0.4897729,0.39414972,1.8439369
family_group,-1.1684202,0.8352102,0.84905577,0.46588948,-0.15010819,-1.443184,1.4975537,-0.15475275,-0.5465601,-0.30654314,1.0444338,-0.42513347,-1.6036198,1.4873253,-0.66158825,-0.5721821,1.0273342,0.35662797,-0.88922656,0.44552064,-1.5913209,-0.34941268,0.93774736,1.1917036,-0.45371908,-0.4062219,0.44287497,-1.6564881,0.8730165,0.6717208,0.0767807,-0.21803764
finding,-1.1212587,0.31225747,0.14832297,0.3324423,-1.0336988,-1.990011,0.90884507,-0.5757739,-0.4621959,-0.9397375,0.8020497,0.4073271,-0.3765068,1.3893633,0.42553845,0.6335617,0.61987233,-0.3705311,-2.11477,-0.8672937,-1.6814032,0.057500023,0.84400016,2.4960575,0.43474424,-0.5791925,0.21339136,-0.43420032,-0.19889984,0.9101051,1.6997452,-0.045322824
fish,-0.11242003,0.30757216,-0.55743235,0.39513913,-0.5636157,-1.0998794,1.277408,-1.4314762,-0.3531117,0.8457261,-0.550278,0.098506056,1.6950562,1.5542824,-1.0937454,1.1550683,0.63827956,0.73962224,-1.1175678,0.06286099,-1.34006,-0.57747614,0.81151843,-0.1240111,-0.47726038,-1.0077767,1.2450807,1.6446881,0.56675285,1.6420729,-0.65978485,-0.7916819
food,-0.9903763,1.9327157,-0.3739913,0.2205144,-1.1079959,-1.8732915,1.7877012,-0.76901466,-0.023465581,0.8642551,0.89750725,0.6075069,0.8932374,1.6097459,-0.8233073,0.6883157,0.5962297,0.26003966,-0.73957396,0.3648297,-1.1190027,-0.8662133,0.73934156,1.2571061,-0.24209519,0.16444671,-0.24461626,-0.3978055,-0.804572,1.1662297,2.2500775,-0.72799456
fully_formed_anatomical_structure,-2.0831687,-0.15925814,0.5703097,-0.4373572,-0.5087622,-1.9380907,1.2236664,-0.17638622,0.2517366,-1.735578,0.5100447,0.9902466,1.0779661,1.8949906,1.1946455,0.60185957,-0.12010192,-0.19770245,-0.33965474,0.047468543,-0.6329045,-1.3397037,1.5295625,0.5739741,0.4761352,0.7131579,0.6342629,-0.53901285,-0.65007675,0.52827823,0.3694953,-1.8252456
functional_concept,-1.5840387,0.55493516,0.3269143,-0.6385565,-0.7439849,-0.40225524,1.6621292,-0.801121,-0.2460945,-0.49339968,1.1051306,0.55896574,-0.24024709,1.6147835,0.1393828,0.44410038,-0.43333384,0.083590165,-0.009903718,-0.26053196,-1.2188225,-0.16885106,0.53354836,2.7042599,0.37544185,0.61145383,0.017917687,-0.0030137,1.9273342,1.7639481,1.0564889,-0.22546521
fungus,-0.46766737,0.65790564,0.26050958,0.43822247,-0.6779813,0.08716528,1.8523421,-0.90711987,0.005014484,1.3482727,-0.2905343,0.8243694,0.19369076,1.6478192,-1.5670153,1.1083452,0.50367445,1.1095185,0.60048795,-0.38364458,-0.0039536557,0.12174871,0.27493995,1.3423944,-0.5049687,-0.26219332,0.8585599,0.15854171,1.4819332,1.0610676,-1.2234972,-0.6034367
gene_or_genome,-0.4382902,1.1345483,0.32266062,-0.22925122,-0.3337639,-1.2659906,1.2692633,-0.08928797,0.4633822,-0.18069361,1.0118586,0.09504434,0.7010186,1.142314,0.5294336,0.20292747,1.1756268,0.15478542,-2.62778,0.35790288,-0.69853973,-0.9220525,1.6314838,1.026987,-0.039815634,1.1853961,0.76720667,0.11221567,-1.1158446,0.9010188,0.8707157,-0.81959045
genetic_function,-0.3486834,0.7770281,-0.4693587,-0.22258581,-0.2784912,1.0401692,1.3714604,-0.32106572,-0.6453165,1.1339045,0.7215118,0.7799609,1.6070199,1.4578156,1.3661933,1.1938462,0.29454714,1.2756553,-0.022766825,-0.30438638,-0.5337171,0.09195722,1.0735941,0.23681757,-0.24262752,1.3766859,0.49056986,0.18185638,-0.65005773,0.84371924,0.3105467,0.32653692
geographic_area,-1.4625498,0.13536382,-0.77889097,-0.43184334,-0.4372826,-0.4344531,2.047778,-1.9731245,-1.6379358,-0.50515264,0.68547916,-0.13120316,-0.8117156,1.7361965,-0.013574084,0.4169259,-0.50020045,-0.9652916,-0.5410101,0.33800754,-1.5461261,0.04358727,0.49459025,0.39890528,-0.10468459,0.4662791,1.0636197,-0.5008825,1.3217703,0.80200505,1.487533,-1.124547
governmental_or_regulatory_activity,-1.4643935,0.4299963,-0.87660635,-0.37482694,-1.425177,-0.74773467,1.8611933,-0.46651217,-0.32007518,-0.37020296,-0.7481351,0.16726783,-1.4089223,1.906404,-0.52134967,0.9837121,3.171336,0.1981995,-1.1663022,0.29250026,-0.7708573,-0.5773955,1.0390711,1.3030528,0.42776978,-0.19384861,0.54255885,0.35463184,-0.13197242,1.1851517,2.7616286,-0.27191645
group,-0.7342616,1.9964962,0.4913202,-0.055970535,0.11445473,-0.13089098,1.075215,-0.0068675065,0.046136096,-1.0321947,1.1975988,0.06905014,-1.6768831,1.6304994,-0.64833707,-0.4100055,1.0714535,0.21563227,-1.8828622,-0.13895239,-1.3862165,-0.92284405,0.66897607,0.66889876,0.21553303,0.6555316,0.38330975,-0.65351164,1.3939735,0.87770224,-0.090551674,-0.79244566
group_attribute,-0.91286284,2.2000172,-0.28582233,0.49980277,-0.48019117,-0.8496396,1.7712809,-0.13262615,-0.3965245,0.8621261,3.0046895,0.14397159,0.58457196,2.7452865,-0.11616971,0.3011216,1.1748127,-0.5636965,-0.4564051,0.38228682,-1.3883892,-0.6279416,0.50265855,0.9737641,-0.7476962,1.6566895,0.22809242,-1.3107224,0.9857489,1.0427114,1.2616225,-0.3863103
hazardous_or_poisonous_substance,-0.6412014,0.5057389,-0.660735,0.2631182,0.24581078,0.7944477,2.0209177,-1.0819057,1.4540803,0.7393462,0.805839,0.15534705,0.5472064,1.6138366,-1.181451,0.8488435,0.4142296,-0.29804894,-1.4221798,0.65577024,-1.4722626,-1.1333926,0.96434677,0.78358036,0.02547559,0.09241277,0.2516217,0.49456427,-0.71327853,0.8962207,1.796633,-1.4660348
health_care_activity,-0.93193746,0.6968359,0.07342599,0.04354112,-0.7214674,-0.36670575,1.645682,-0.69200975,0.008853205,-0.3329102,-1.2092122,-0.20682456,-0.41287252,1.3824797,0.17627645,0.8402704,0.1386295,0.03970073,-0.37404656,0.39210966,-1.0910299,-1.0946189,1.4496826,1.3140072,-0.5950508,1.352107,0.16204147,-0.5655959,-0.43168402,0.94915473,1.2567756,0.65083665
health_care_related_organization,-1.3342996,0.3524601,-0.038889736,-0.72360504,-1.0972848,-0.054701883,1.3394294,0.1788777,0.5020799,-0.058318406,2.6804924,-0.071950026,-2.402271,2.060424,-0.7063329,0.23104353,0.22293693,0.2846077,-0.566753,0.7816381,-1.2600023,-0.18699288,0.8933406,0.8577485,-0.84798497,0.850008,1.0202641,-0.6825286,0.82201076,1.2338933,0.7971797,-0.282386
hormone,-1.782845,1.2868073,-0.8993034,0.43486905,-0.6648082,0.54682297,2.5173209,-0.8210555,0.64962214,-0.130581,0.8244834,-0.14879179,0.6550874,1.1920745,-1.395095,-0.1642422,0.5031465,0.8659309,-1.7009307,0.01690397,-1.35734,-1.5654012,0.9714651,-0.349472,1.2748101,0.34262365,0.4420996,0.11227906,-0.3757023,-0.72370327,1.8323694,-1.6605989
human,-0.23849267,0.5242072,-0.29453638,-0.43605098,0.13539028,-0.52713084,2.0111728,-1.9837341,-0.70148236,0.49195534,-0.3920777,0.21774802,2.1267617,2.0281599,-0.8869471,0.38228652,0.79980934,0.02027632,-0.6738045,0.96198076,-1.0630131,0.020598156,0.72544503,0.9710806,-0.02091732,-1.1183829,0.68312275,0.62435865,0.38245714,1.2530446,-0.99697924,-1.5581115
human_caused_phenomenon_or_process,-0.7360887,1.1198629,-0.008301753,-0.04305799,-0.9618215,-0.90286934,1.7574005,-1.1147951,-0.25525165,0.16683239,-0.13262434,-0.014445269,-0.6040411,0.80301726,0.792671,-0.007526057,-0.19627856,-0.3974063,-1.5981561,0.13760217,-1.9986591,-1.0279856,0.85873556,0.5952425,0.22017817,2.9050682,1.3433176,-0.46876615,0.48323983,1.3265128,1.4894851,0.1731136
idea_or_concept,-1.2073945,0.6999723,-0.14387241,0.4365612,-0.99832654,-0.9425016,2.3520463,0.77454495,0.12187019,-0.13247459,1.0174402,0.72302216,0.698903,1.1632674,0.17533052,-0.03168207,0.30586484,-0.32265577,-0.9459944,0.21682344,-0.18549667,-0.4592968,0.1574834,1.2925886,-0.9080718,0.23016062,1.6410228,0.5197029,1.9254594,0.4178343,0.6177507,-0.86392915
immunologic_factor,-1.3354716,0.6454884,-0.24948004,1.675851,-0.50007516,0.084163964,1.7116839,-0.9744107,1.4459838,0.014629313,1.4913386,0.054839034,0.76665694,0.9542535,-1.4963137,-0.0067639668,0.16170469,-0.10067715,-0.87564754,0.11164932,-1.6043484,-0.9374638,0.55837613,0.09157361,0.5390677,-0.54467744,-0.4392564,-0.73525596,-0.7644374,0.35357028,1.4539258,-0.49119425
indicator_reagent_or_diagnostic_aid,-0.41337276,0.29775107,-0.5063382,-0.5847057,-0.051413413,0.29295337,2.0364068,-1.7595328,1.522725,0.0941795,0.41217414,0.7964259,0.026026204,1.3388658,-1.554409,0.7030028,0.037027214,0.2495153,-0.64876425,-0.5271783,-2.1287801,-1.0668626,1.0669305,0.7839705,0.29972783,0.43013212,1.0277354,-0.7306572,-1.0868809,0.99022293,1.4001482,-0.72894937
individual_behavior,-0.30641925,-0.4781701,-0.2308572,0.552128,-0.5281566,0.00035903067,1.7600489,-0.5437037,-0.20649464,0.43542764,0.33842236,-1.8969749,0.4347196,0.25865474,-0.02516107,-0.17964587,0.41761553,1.0497869,-0.27726427,-0.24449152,-1.5202807,-1.555838,1.2588748,0.5646229,-0.70404667,1.0984309,0.337666,0.79247296,-0.36245117,1.7414165,0.7236522,0.3789338
injury_or_poisoning,-0.26507273,1.6917909,1.4143214,0.30096707,-0.10391054,-0.14376682,1.2570686,-0.7238481,-1.0160437,0.54683626,1.1975391,-0.22446628,0.8060203,1.5144755,0.54964775,0.005310683,-0.86901903,1.245819,-0.5640791,-0.57211584,-1.2621992,-0.5052362,-0.10298718,0.3128129,0.19498377,1.6472833,0.039832644,-0.55621225,0.84994406,0.73719203,0.4696383,1.3301264
inorganic_chemical,-0.17095706,0.3983902,-0.19841333,0.3006599,-0.9607114,0.31939107,1.8911225,-0.7115437,0.54225624,-0.15243873,0.9615584,0.1337696,-0.06942815,1.6079148,-0.9549509,1.5098375,-0.11474488,-0.27963752,-0.34511527,-0.013445304,-1.0653083,-2.5988846,0.5881458,0.9582455,0.68712926,-1.0277683,0.89708275,-0.2432272,-0.44648907,0.7230736,1.5544559,-1.1387604
intellectual_product,-1.900429,1.3488278,-1.2582163,-1.1752902,-1.0663754,-0.3311602,2.953427,-0.35611764,0.031505886,0.014279003,-0.30809376,1.1222868,-2.002255,1.0070018,0.27059647,1.2457207,1.1839705,-0.2170124,-1.7949282,-1.3984421,-2.0800977,-0.20510037,0.06875821,2.174028,-0.4264333,0.44029152,-0.99174386,-0.14836057,2.2958157,1.0184461,0.45196903,-1.0217628
invertebrate,-0.023364883,0.87432206,-0.17069413,1.7070627,-0.19396265,-1.3420746,1.8558497,-2.0556924,-0.07634494,1.019571,-0.1623037,0.8070955,1.2462561,1.4493185,-0.8105924,0.31653342,-0.35968402,0.47293216,-0.9720099,0.19551308,-1.2836716,-0.23532207,0.55912614,1.3185236,-0.43148458,-0.28472534,0.45636842,0.85375977,0.6817921,0.966442,-0.7180945,-0.21462542
laboratory_or_test_result,-0.6346932,0.41955826,-0.4569635,0.29584822,-1.0695105,-1.0202851,1.6128045,-1.2164646,0.2913331,-1.0492525,1.6319159,1.1846434,-0.2975968,1.7845889,-0.23172289,0.7859854,0.32520908,-1.015782,-0.70072824,0.83531153,-0.97284764,-0.33664367,0.9746794,1.2142885,-0.6019688,0.18732834,0.40775487,-0.15574457,-0.742994,0.83363223,1.2294848,-0.35420844
laboratory_procedure,-1.0669591,0.24950685,-0.15442799,-0.44503582,-0.49938792,-0.6111037,1.3545938,-1.0233076,-0.28330573,-0.1472761,-0.8399904,-0.017074421,-1.1692859,1.419055,0.21973668,1.0137678,0.3869311,0.121078625,-1.2704607,-0.47874212,-0.7668412,-0.5029648,1.1273423,0.91447514,-0.67586076,1.3348876,0.26564088,-0.98953015,-0.024815813,1.2850071,1.5831794,0.30903345
language,-1.7127047,0.7596838,-0.9528187,-0.38956806,-0.45870146,-1.0746703,2.8764036,-0.8687032,0.7141579,0.49373978,2.0369043,-0.29245737,-0.5271687,2.8284798,-0.58343595,0.89789045,-0.23060976,-0.12653245,0.016789695,-0.033879176,-1.4150804,-0.2604597,1.5695403,1.3789934,-0.44327307,1.1871215,-0.12838647,0.14443597,0.9935146,1.0041947,1.0014699,-0.48533824
lipid,-0.9308562,1.3421521,-0.0974543,0.61633235,-0.6775476,-0.8279081,2.4160833,-0.36295348,0.40683612,0.19191521,2.2127872,0.3364416,0.19296074,0.5789234,-0.76928747,0.7949711,0.36955872,0.39485615,0.14800115,-0.359351,-1.0896823,-1.4549143,0.7342244,-0.056838848,1.0903529,-0.046707407,0.24391764,-0.7358755,-1.5946702,0.68476814,1.5388858,-1.5548505
machine_activity,-1.0845966,0.49951068,-0.9309531,-0.124850325,-0.23268057,-0.26331556,1.7558907,-1.1631438,-0.8890584,0.7891277,0.35431156,-0.06711671,-1.9581952,2.0122473,-0.22690676,0.6732297,0.97778636,-0.29704928,-1.6948285,-0.5813348,-1.0371177,-0.8478702,1.1765071,1.2897865,-0.6760188,0.6887719,0.39823854,0.26335406,-0.30879858,1.9654609,2.2590718,0.10782271
mammal,0.12820463,0.33104378,-1.2993082,-0.1284997,-0.23923199,-0.70061266,1.9412524,-2.0876954,-0.53279036,1.042961,-0.5105565,-0.68312067,1.6584625,1.3646322,-0.80471945,0.5719188,0.62233496,0.92633384,-0.49901983,-0.032569017,-1.6468548,-1.0069308,0.4445185,1.1320353,-0.10242654,-0.42964512,1.4081683,1.4712837,0.70487666,1.2897748,-0.68204945,-0.9238418
manufactured_object,-0.47902668,0.59708357,-1.4778827,-0.2249665,-1.1107807,-1.1281991,1.4235442,-0.24281392,0.38760096,-0.2275866,0.54705846,0.32439634,-0.54263014,1.7230959,0.75360614,0.323183,0.6556745,0.2650669,-1.3741978,0.32099938,-0.3472497,-0.2439035,-0.049221043,1.7746694,0.1252783,0.3369201,0.08303144,-0.16419873,1.4646682,0.74643046,1.1845677,-1.4644432
medical_device,-1.102327,0.057152953,-0.81492037,-0.12209339,-0.7249374,-1.0927835,1.7684015,-0.5910851,-0.16045293,-0.49182796,0.6892365,-0.0524802,-0.8498002,1.430057,-0.08784901,0.9391269,0.5745151,0.09977142,-1.5345341,0.2110241,-1.2748969,-0.05015658,-0.32381293,0.9753543,0.5681325,1.2590051,-0.045309443,-0.24101964,0.94247055,0.6423272,0.98445386,-1.3223205
mental_or_behavioral_dysfunction,-0.10187554,0.35389066,0.13493338,-0.69039464,-0.1949141,-0.67198056,0.80231917,-0.1295625,-0.34506136,0.7341684,0.76024264,1.1013935,0.56313115,1.1590923,0.75227445,0.13070644,0.18675649,0.98318344,0.20971863,0.08981563,-1.1290016,0.21862736,-0.3677241,-0.020542972,-0.17582405,0.66793895,0.20916171,-0.04240842,0.20480305,0.7462304,0.5955991,1.6204517
mental_process,0.04794572,0.52692765,-0.18742561,-0.19846016,-0.11089555,-0.107570834,1.0517384,-0.5412388,-0.89267254,0.8740397,0.13313863,0.48323065,1.1097263,1.0444348,0.7007224,0.68485165,0.24823047,0.33306155,-0.06261591,-0.121916465,-0.15215503,0.2863917,0.8186287,-0.27879724,0.44512725,0.915517,-0.039100245,0.63893676,-0.65359414,1.1028614,0.7402191,0.2867022
molecular_biology_research_technique,-1.0167809,0.06375981,-0.015359916,-0.7253792,-0.85857844,-0.765811,1.2276107,-0.5610723,-0.07789519,0.35445136,-0.36586526,0.04862298,-1.4941071,1.6096847,-0.2109208,0.49358732,1.215525,0.63538,-0.75458467,0.32681873,-1.0597252,-0.9381193,1.0766971,0.959683,-0.9950242,-0.52426356,0.069776885,0.007892128,-0.5231622,1.043152,1.1750884,0.19266969
molecular_function,-0.79401,1.0229566,-0.89989877,0.6975173,0.0015906801,-0.31136578,0.883585,-0.80945295,-0.7327186,0.69435114,0.70342314,1.3152364,1.4998584,1.8048451,1.4827551,0.96017164,0.22919731,1.3805045,0.04746027,-0.08383871,-1.0116652,0.2918065,0.6012616,0.08978354,0.16317086,0.51724726,-0.33396518,0.031896576,-0.38480347,1.0406432,0.2869159,0.6268151
molecular_sequence,-1.1084698,0.12215331,0.23614202,0.16822918,-0.56713575,-2.8542297,1.7788367,-0.7337726,-0.113589786,-0.7910118,0.8817383,-0.18189849,0.14874162,1.7639903,-0.115567885,0.3789976,-0.48477572,0.22269897,-0.37484795,0.17217542,-1.5745163,-1.6637866,0.07311487,0.4102115,0.7263406,0.50394523,0.49817586,0.19701163,2.255599,1.6123704,1.3763615,-0.12397506
natural_phenomenon_or_process,-0.30596012,0.4862246,-0.79635686,-0.65150297,-0.37137544,-0.8088809,1.243374,-0.9015673,-0.41685206,1.058205,-0.06405312,1.6045061,0.3858912,1.0205407,0.77800137,1.4954336,1.0943155,0.5042399,-0.3031895,-0.58977556,-1.1873454,0.31969053,0.29758623,1.1072571,0.42395025,2.2558954,1.6846873,-0.0052896384,-1.2451283,1.8997908,0.5236611,0.7865068
neoplastic_process,-0.42338243,0.34177107,0.718335,0.45027256,-0.171582,-0.45392713,0.8546765,-0.21598466,-0.30273566,0.6429145,0.5514942,1.3061961,0.30505309,1.0713737,0.9043218,0.10308518,0.6770704,0.40249115,-0.12909009,-0.40228805,-1.1011343,0.40467942,-0.060882684,0.07931405,-0.16703033,1.0177908,0.1497847,0.17185871,0.12275723,0.6590819,0.38273746,1.4576361
neuroreactive_substance_or_biogenic_amine,-0.6342864,1.069682,-0.47213098,0.682289,-1.0498563,0.78130597,1.8921331,-1.1075776,0.72257435,-0.050179046,1.5288482,-0.62067854,0.57705677,1.5577266,-1.3308674,0.021199353,0.20171338,0.51751417,-1.2184331,0.16059998,-1.528857,-1.947899,0.28760123,0.3802823,0.07698128,0.12081595,-0.035792615,-0.34538022,-0.20175649,0.28870818,1.8889189,-0.9583316
nucleic_acid_nucleoside_or_nucleotide,-2.0073495,2.107863,-0.3596179,0.081400275,-0.5126181,-0.6591808,2.0484965,-1.1566986,-0.050757263,0.27035037,1.9887817,0.36153054,0.54017025,0.86670905,-0.40277037,1.992752,0.26867247,0.5453876,-0.7074082,0.84528434,-0.7821611,-0.831662,0.7714579,-0.02041689,0.34293607,-0.8425686,0.14419872,-1.0701586,-1.1299677,0.96871954,2.0555172,-1.1216582
nucleotide_sequence,-1.2999274,0.31972045,0.024063438,0.30706692,-0.39487845,-0.24919279,2.439814,-2.3760073,-0.9166539,0.49111283,1.5759931,-0.1301891,-1.2825588,2.3788507,-0.60646796,1.385309,0.1520439,1.2454413,-0.3626382,-0.47359702,-1.4770397,-0.12578002,0.3694638,2.217736,-0.06952094,0.32703853,0.59548205,1.0362122,2.2563548,1.5257998,1.3736249,-0.3146501
occupation_or_discipline,-1.6407686,1.7076278,-0.67230713,0.5462482,0.46603897,-0.6665748,0.74160665,1.7621505,-0.28614324,-1.0340022,1.5045165,0.65231526,-1.2849251,1.2346058,-0.9724406,1.2608964,-0.51170415,0.5939585,-1.4387224,-0.88870287,0.14885128,-1.1580822,0.41996083,1.9574549,-0.3825912,-0.24446872,1.2279284,-0.512805,0.37640086,0.9379852,1.8357483,0.62561655
occupational_activity,-2.351321,0.03257884,-0.34727162,-0.2218292,-0.57728016,-0.21922176,2.028508,-0.5611086,0.53253907,-0.64463764,-0.28909916,-0.06920195,-1.3174787,0.7428354,0.41526183,1.2866322,0.14122626,0.5667093,-0.40927827,0.35450876,-0.21852544,-1.0942806,0.64447796,1.9601189,0.022866925,0.24170735,-0.20189576,-0.3590063,-0.010724158,1.0873058,1.5321461,-0.19619352
organ_or_tissue_function,-1.0299695,0.10591463,-0.38228297,-0.475187,-0.008273354,-0.32878724,1.2127205,-0.21189465,-0.12782332,0.7929994,0.7946812,1.812049,1.0844736,1.4864378,1.3317933,1.3054018,0.6164031,1.2272137,-0.27130106,-0.60756975,-0.89807934,1.2788972,0.5126365,0.4775096,0.0646905,1.2378862,0.30633655,0.5995432,-0.52457875,0.89898324,0.55495673,0.7328199
organic_chemical,-1.3887933,-0.06827314,-0.54548514,0.29395807,-0.3702162,-0.25715157,1.7100577,-1.1656547,-0.21222745,0.5760269,0.63707125,0.08198375,0.61660004,1.1765714,-0.38751966,1.040184,0.15426554,0.011789868,-0.7816094,-0.42363372,-0.36880484,-1.0081655,0.09801775,1.0383033,1.1271949,-0.24714398,0.6173281,-0.6630492,-0.44387284,0.5034413,1.0256554,-1.1084412
organism,-0.63876855,-0.0537628,0.13102257,-1.0441085,-0.44936314,-0.24287875,1.476037,-1.6168523,-0.14064462,1.6030262,0.10087217,0.3848358,2.4339173,1.1422194,-1.2798538,-0.044859905,0.5038775,-0.10362861,-1.5553573,0.17080072,-0.7903015,-0.67334694,0.05248024,2.0419083,-0.4991114,0.30019665,1.1555388,2.3879282,1.0063803,1.8491538,-0.38243744,-0.58720213
organism_attribute,-1.004489,1.0778415,-0.56789637,-0.8595601,0.60111487,-0.8082307,1.390412,-0.17384693,-0.32036933,0.3596864,0.48019826,0.5301127,-0.011795357,1.6445158,0.88778096,0.37248272,1.1567966,-1.8748587,-0.30583,-0.41731134,-1.6832885,-2.159868,0.3952936,0.68935883,-0.4321161,0.6422245,-0.411406,0.25503215,-0.6685989,0.965167,0.77060556,-0.55842197
organism_function,-0.544028,0.49817297,-0.0782652,0.2438173,-0.080080524,0.026030425,1.3825685,-0.031848475,-0.38125908,0.85180205,0.38936946,1.5405837,1.1802064,0.99526477,0.9233057,1.3799318,0.27645954,1.541435,0.11057415,-1.5308145,-0.67641,0.6222227,0.86837643,0.30118352,-0.02192686,0.75323313,0.001355195,0.13134626,-0.5373015,0.86752117,0.5693794,0.56542873
organization,-2.0936227,0.60046774,-0.3097624,-0.10117539,-1.2236885,-0.56712615,1.9436601,-0.028006172,0.122916654,-0.19680998,1.8005477,-0.36185175,-1.7832955,1.5283537,-0.63444066,0.47403303,-0.34953177,-0.099176474,-0.55088776,0.6107296,-0.9499671,0.062429015,0.6056749,-0.09442824,-0.05627345,1.9793394,1.8312464,-0.26339397,1.8433733,0.72026783,0.69943786,-1.2385101
organophosphorus_compound,-0.280004,1.1140226,-0.4388796,0.828201,-0.5650533,-0.6846701,1.9343656,-0.30880693,-0.15922184,0.2881555,2.4041386,0.134206,1.0515746,2.1148546,-0.82354504,1.5015821,0.90991914,-0.04103898,-0.9105368,0.6261844,-1.0519856,-1.9625052,0.40204877,0.6041015,0.018082555,0.5281832,-0.5731396,-0.96873575,-1.3243331,1.2475386,1.7427645,-1.1871566
pathologic_function,-0.4126672,0.4518561,0.7216104,0.6376018,-0.02900023,-0.1572151,0.9157314,0.07904584,-0.61179274,0.8554936,0.03494941,1.2222031,0.54786503,1.1882281,0.9250109,0.21149586,0.9563406,0.36241332,-0.27676606,-0.5234868,-1.0343599,0.05944943,-0.036083866,0.17300771,-0.30039373,0.8913856,-0.036144882,-0.19665092,0.17320757,0.82466,0.3987225,1.5569025
patient_or_disabled_group,-0.31759265,-0.6087032,0.5751904,1.9494256,0.1392995,-1.1061305,2.0344594,0.069237135,0.30750605,-0.798612,1.126976,0.1964752,-1.6496704,1.7788423,-0.4169141,-0.27458012,0.06336623,0.17374533,-0.75860816,0.26092607,-0.9181994,-0.22429456,0.96814567,0.7391906,0.15332839,0.50662553,0.3964926,-1.8540723,1.3532779,0.86402947,-0.41853604,-0.88634723
pharmacologic_substance,-0.679492,1.6230658,0.06362458,-0.0425247,-0.18423408,0.00029595086,1.6232572,-0.8217123,1.3689919,-0.47550386,0.052622486,0.01041194,0.14236654,1.3715682,-0.78117853,0.92039984,0.28242695,-0.33564585,-1.7883931,-0.24504846,-1.12675,-1.6571165,0.52843237,1.2642287,0.62324274,0.81081206,0.42897645,-0.092498116,-0.45890015,0.6519212,1.9555862,-0.94197136
phenomenon_or_process,-1.4603877,1.200902,0.2300316,0.22393802,-0.3291694,-0.6299431,1.9295284,-1.6421372,0.073188975,0.29372406,-0.026134538,0.17243215,-0.20877245,1.1678448,1.2712711,1.2724148,0.07448214,-0.48371458,-1.015917,-0.29649773,-1.9746554,-0.5309079,0.42214966,1.4904125,-0.06992189,3.3489687,0.55229187,0.46992925,-1.4414022,1.4960262,0.28532127,0.8302445
physical_object,-0.44089308,0.25759226,0.29854992,1.0594771,-0.63319474,-1.4681722,1.296973,0.53579175,-0.5498612,0.5342091,0.40972668,-0.44761872,0.7452707,0.9958006,0.0930827,-0.9714624,0.13719088,-0.7225189,0.9739619,0.6733316,-0.3632011,-2.7426393,0.13616847,1.0686488,0.5401575,0.52540714,-0.18276885,-0.9293003,0.032367557,2.1896777,0.77113456,-1.9691814
physiologic_function,-0.13803431,1.3453019,-0.27864882,-0.012789937,-0.70159334,0.532939,1.2496561,-0.5948541,-0.620847,0.86208385,0.4222292,1.1309634,1.4922273,1.4037755,1.4152976,1.0459576,0.41878936,0.779448,-0.070755355,0.5913869,-0.7628023,0.0010791856,0.8510086,-0.31053334,-0.20647897,1.0122302,0.6126801,-0.04256671,-0.7153252,0.75115764,0.15468867,0.3723143
plant,-0.16202207,0.55852765,-0.691386,-0.43882003,-0.5838224,-0.648489,1.5459528,-1.2888203,-0.57361495,0.6380256,0.08274725,0.59243834,0.7152883,1.5078743,-1.094162,1.084523,0.5384981,0.25902918,-0.56909853,1.5739526,0.04277768,-0.008863931,0.44772595,1.5414383,0.115860835,0.8406832,1.4218687,0.57930905,1.0159438,1.5495918,-0.934943,-0.25146446
population_group,-0.9009753,0.33324486,0.51339173,0.61270005,-0.7328656,-0.5858457,1.1993451,-0.077581815,-0.5884189,-1.2239985,1.1341571,-0.6518455,-1.5993513,2.0372093,-1.1961658,-0.5336352,0.5925223,0.27248392,-1.729897,-0.84779465,-1.3672915,0.08261818,0.795686,1.3177602,-0.36338225,0.23522188,0.34485033,-1.8982112,1.4149922,1.2888553,-0.3623932,-0.90659344
professional_or_occupational_group,-0.83845174,1.3508797,0.6689106,-0.3203571,-0.35552675,-0.15035516,1.6948166,0.022879982,-0.13468726,-1.0553336,1.1540538,-0.51843005,-1.7062659,1.4680789,-0.65305376,-0.4872972,0.074959785,0.19978137,-1.1318561,-1.0084615,-1.2507838,-0.27931193,0.8628767,1.3344892,-0.7239541,0.10721897,0.42371166,-1.3960077,1.2453011,1.1364635,0.30165625,-0.1587234
professional_society,-0.21122466,0.08756144,-0.049361605,-0.6261694,-0.8678351,0.21669276,2.3989236,0.6918278,0.13589914,0.051653214,1.8602895,-0.7053026,-1.2173157,1.0389068,-0.83815336,0.9813999,1.2595723,0.50527406,-1.1651586,0.6178122,-1.7805738,-0.6524037,0.7596473,0.6865366,0.54238814,1.5737927,0.7191006,-0.1236993,1.356826,1.3194579,0.742272,-0.36927402
qualitative_concept,-1.907631,1.5679096,-0.42973673,0.4826149,-1.2886674,-1.1630056,1.4885337,-0.29495034,-1.2044861,0.23206091,1.3449827,-0.78977954,-1.1794521,2.0167992,-0.9689888,0.5130951,0.3359473,0.65363675,-1.5950261,-0.06481654,-2.0952663,-0.6088651,1.2093267,0.2572908,-0.3521758,0.18650989,0.037485443,-0.1856869,1.3112488,1.0532426,1.0348675,-0.1724457
quantitative_concept,-1.0683659,-0.04869207,-0.46539247,0.53983474,-0.2734786,0.68741935,1.9733491,-0.1325634,-0.7196603,0.085274026,1.3547565,-0.27972227,0.16448337,1.6183095,-0.03633804,0.53329164,0.6100607,-0.5036893,-1.262077,0.44704214,-1.8937764,-0.6978988,0.5145115,0.75744075,0.71533275,0.7831144,1.0461535,0.51985204,0.5352023,0.8161463,0.9562926,-0.7055963
receptor,-1.625072,0.83881664,-0.470462,-0.12231004,-0.5244734,0.07591235,1.4814355,-0.80551404,1.7815026,-0.12907964,0.7405373,-0.038018584,0.35029262,1.2149826,-1.5746571,0.073902585,0.6986338,0.8370198,-0.9535977,-0.69818413,-1.6994724,-1.9650722,0.4047356,-0.007421761,-0.5355424,-0.031759802,0.36479536,-0.7831252,-0.48554975,0.27091372,1.3831129,-0.9537168
regulation_or_law,-0.6871787,0.6524644,-0.3313795,-2.2739773,-1.4996034,-0.46285665,2.2140326,-1.500329,-0.526056,0.140444,0.8462708,-0.9107557,-3.0291183,2.0381033,0.5514025,-0.018214867,0.15898682,0.0626171,-0.43729603,-1.2445067,-1.0835655,0.30150834,0.81183994,1.113167,-0.59056085,-0.15833895,-0.034397345,-0.75057256,0.8617058,0.82437694,0.60033655,-0.38315243
reptile,-0.46766302,1.0591286,0.6981375,0.10964379,-0.08537493,-0.32986674,1.4243569,-1.7456167,-1.6325672,1.5076272,0.6112734,0.823002,1.5086534,1.4322176,-0.6466422,0.28092512,0.05155954,0.33121178,-0.5909555,0.8684314,-1.3928137,0.20487364,0.68691754,0.85992503,-0.3585383,-0.2909449,1.4917538,0.92143875,0.6229373,1.3359855,-0.56736124,-2.0509882
research_activity,-0.99176645,0.602892,-0.3034698,0.44652855,-0.64771783,-0.7454504,1.638384,-0.7990157,-0.08387947,-0.5417009,-0.21750705,-0.79490304,-1.3067132,1.3258647,-0.31276202,1.0466588,0.54482234,0.3953025,-1.8855664,-0.48675352,-0.32759342,-1.0161202,0.73509794,0.86540246,-0.52401835,0.22597162,0.15585136,0.33056206,-0.33979806,1.3397216,2.52245,-0.026689962
research_device,-1.5147444,0.38696525,-1.01795,-0.41956502,-1.204563,-1.5660113,2.299652,-2.0375721,1.0457127,0.6334296,0.54108024,-0.10926421,-0.3559556,1.565259,-0.106503315,0.8916742,1.8770041,-0.59622,-1.1105044,0.6864235,-1.3584783,0.54716694,-0.24685559,1.324162,0.50016475,0.199449,0.76649666,0.46903872,0.9345494,0.60832864,1.1201351,-1.5956546
rickettsia_or_chlamydia,-0.769752,0.9887296,-0.2962274,0.20543155,-0.8966493,-0.55256957,2.1570363,-1.8559476,-0.83740115,1.5869437,-0.5738063,0.7198998,0.9322717,1.7540401,-1.2717478,1.3132939,0.040651258,1.484062,-0.23664895,0.47495422,-0.11639676,0.13777325,0.13935165,1.6771622,-0.21136877,-0.15561931,0.33528784,0.6954722,1.8203273,1.2127411,-1.0581386,-0.7025096
self_help_or_relief_organization,0.28652605,0.19068947,-0.21476318,-0.5500356,-0.8140744,0.46899766,1.7494104,-0.05825218,0.33872333,-0.01568962,2.6489227,0.20328063,-1.2756207,1.674572,-0.8567263,0.6135119,2.1439161,-0.2487941,-0.15437275,0.8874731,-1.6292022,-0.31154487,1.002168,0.8847141,0.11541816,1.00848,1.6336175,-0.08142328,1.1134517,1.2382464,0.8692509,-1.1097529
sign_or_symptom,-0.9056015,0.58174217,0.21420066,-0.5954503,-1.0844389,-1.4537443,1.6103512,-0.3023778,-0.7065799,-0.97944397,0.7990905,0.96462655,-0.53076243,0.82991093,0.46087304,0.16128471,0.32517388,0.17243974,-1.6178973,-0.86728096,-0.8585678,-0.45032984,1.1175727,2.5597131,0.81383204,0.48177144,0.6471234,0.40821323,-0.12037465,0.49906948,0.8920552,0.4916386
social_behavior,-1.3064977,-0.17386375,0.1138373,0.6286978,-0.26499078,0.2040459,1.6721604,-0.46824986,-0.0648078,0.7266977,0.671452,-2.538358,0.088082686,0.3068582,-0.69998246,-0.1743388,0.46680936,1.5523819,0.14434493,-0.19278236,-1.0160543,-0.8540742,0.90061563,1.1286464,-0.16474007,1.332445,0.7745599,0.6116357,-0.35382897,1.4164902,1.2876363,0.13501005
spatial_concept,-0.65490353,0.27547264,-0.35772517,0.13226214,-1.1151369,-0.6708935,1.8928915,0.04762075,-0.46986696,-0.5286987,0.9162684,0.88433135,0.4337512,1.3301394,0.6066902,0.19815806,-0.15197124,0.9996449,-0.78971547,-0.8195009,-0.87317824,-0.6681266,0.361443,2.6176186,-0.0031007892,0.17096198,0.82188255,-0.24118312,2.479683,0.83976823,0.80030787,-0.81063014
steroid,-0.3931349,0.46515927,-0.33239833,0.3978213,-0.48809198,-0.5016652,2.3453784,-0.40840316,0.41974887,-0.16611798,1.120498,0.4205614,0.2914868,1.3082762,-0.5967539,1.283105,0.62170374,0.29704115,-1.6310217,-0.04147975,-1.057935,-2.4533665,-0.16085486,0.7564298,0.1619907,0.07441451,-0.87776524,-0.70450205,-1.1079082,0.8882859,1.4533951,-1.3053988
substance,-0.40115535,-0.47794947,0.026008982,1.5847608,-0.43432412,-0.7825563,2.0702863,-0.059386715,-0.5489482,0.6327632,0.9779457,-0.10484869,0.12898704,1.0057589,0.4257354,-0.28419518,0.8034607,0.10565259,-1.0335915,0.34257346,0.12298897,-3.4937775,0.6675683,1.0305969,0.14927016,-0.23739693,0.43212292,-0.67783004,-0.5676283,1.9412407,1.7586591,-1.3705211
temporal_concept,-1.0537329,0.59940875,-0.7310014,-0.4119555,-0.77855706,0.12918763,1.084846,-0.39275327,-0.43441224,-1.1872927,1.2147872,-0.17201011,0.93833613,2.0806618,-0.81299925,1.0593064,0.7764229,-1.1561198,-1.2526382,-0.19927059,-1.5278206,-0.78530204,0.7395791,1.5355628,0.2881166,0.598989,0.42667034,-0.4503296,0.5604237,0.59212804,0.37067518,0.31915903
therapeutic_or_preventive_procedure,-1.0616505,0.41415608,0.6784704,0.50511265,-0.55664283,-0.38356897,1.5735918,-0.6413919,-0.95304066,-0.094927065,-0.9914197,0.6728115,-1.3031558,0.8324797,0.096386746,0.66205144,1.0528169,0.20667574,-0.77387196,0.6276615,-0.7193489,-1.1518118,0.780262,0.71450853,-0.23008648,1.2727947,0.40925127,-0.5148308,-0.48862576,0.8163914,0.8470024,-0.4098929
tissue,-1.6713868,1.8729643,-0.48303166,0.028527597,-1.3186306,-1.3145481,0.88426834,-0.3431702,-0.44605812,0.4160676,1.3911895,0.4584261,0.059246093,0.9925491,0.8993767,-0.076561145,-0.22604622,0.03372365,-2.0779228,-0.12981872,-0.6946947,-0.31937358,1.0206672,0.9452281,-1.7268972,0.10775358,0.40892425,0.11564213,-0.15198392,0.2026734,0.5369838,-0.3978116
vertebrate,-0.91064256,1.608797,0.36541036,-0.3985995,-0.0657968,-0.27536994,1.5811021,-1.8462591,-0.5826729,1.1819319,0.012518125,0.76805544,0.96809006,0.49747935,-0.89023525,0.29002434,0.5428437,0.16327415,-0.44728228,0.5401807,-1.3948556,-0.16257127,0.30242985,1.9609898,-0.8913383,-0.21940085,-0.06999789,1.1706111,0.2907096,1.1367928,-0.5859579,-1.2908735
virus,0.37618092,0.1562666,0.63268685,-0.70131856,0.38898867,-0.8272587,1.688058,-1.0664334,-0.11336626,1.1167238,-0.28759524,0.54566675,0.2857845,1.0585053,-0.75248134,0.95720726,0.16151735,0.7290722,-0.7178528,-0.10621507,-0.5834158,0.033959415,0.08755697,2.0334053,-0.46597862,0.25537974,0.26218474,0.6421215,1.0698236,1.3192813,-0.6614707,-1.0106076
vitamin,-0.62427753,0.4745256,-0.3731532,0.6974842,-0.7759247,0.14810467,1.997386,-0.94784766,1.0360546,0.7505751,0.32538027,-0.042963672,0.34261253,1.2678328,-1.6676685,0.16137475,0.48232818,0.49825308,-0.93853205,-0.7452064,-1.8676338,-1.2770387,0.57852805,0.3418923,-0.24145448,-0.10896736,-0.031891555,-0.3898344,-0.7610087,0.17406268,1.6220785,-1.0000446
