relation,0,1,2,3,4,5,6,7,8,9,10,11,12,13,14,15,16,17,18,19,20,21,22,23,24,25,26,27,28,29,30,31
accusation,0.6657347,-1.8569628,-0.7445799,-0.39437768,-1.5074446,-0.61861104,-0.83912563,-2.0667984,-0.66844803,0.93865985,-2.6514452,2.4038997,-2.6519437,0.5804435,1.5222154,-0.4679061,-2.0378072,-2.3977222,-0.38327694,0.823353,-1.3199167,-2.1496742,-1.1068981,-2.63522,0.74728477,-1.6333842,0.08915249,-0.94034314,-0.26944053,-3.653071,0.7796624,-1.4619055
aidenemy,-1.3145844,-1.8980235,-0.27457052,-2.6760411,1.4014142,-0.24954233,-0.87257546,0.5592647,1.1984295,-0.09435703,-1.2594068,-2.4351552,-1.6207355,-3.4528883,-0.27613828,-3.5009878,-0.12240233,-0.40011257,-0.30305424,0.4485405,-2.2314975,-1.1728528,0.96386373,0.08804137,-0.7831315,-4.0937996,-1.5395145,0.89959013,-2.4403546,-0.65808016,1.1279106,1.7822518
attackembassy,3.8110807,-3.3804061,-2.7489614,2.3294253,-0.2597836,0.8563069,-0.87491107,-2.7318206,-2.0443804,0.58301693,-2.1125276,-1.533808,0.17986494,-1.0677332,1.305546,-0.77109504,-1.6214854,-2.0638185,0.9247604,0.66857743,2.7241898,1.0352181,-0.14570631,-2.0047529,-0.23455869,-2.2347424,0.8505597,-0.5115024,-1.773686,3.8476775,1.8540293,-2.1204395
blockpositionindex,-0.14841455,-1.2669455,0.11561596,0.7229979,-0.45711523,-0.62010133,-0.67276883,-0.14949422,-0.67623496,1.3598399,0.0648976,1.0178003,-0.65310496,0.3736529,-1.4170038,-3.7994952,-1.1880424,1.0440556,-0.27828327,0.8554697,0.4429084,-3.748569,0.79355717,-0.7337364,-4.110607,-0.1000225,-1.2494879,-0.16762435,1.1673927,-0.12704572,0.3442346,-0.95187587
booktranslations,0.20493361,-1.9928255,1.9765085,-0.92744297,0.5665664,-0.3219959,-0.8680418,-2.9213922,-1.664733,-1.156155,0.20673397,-0.080842495,-1.29152,-1.1580333,-0.7849823,-0.7131977,0.2590614,0.07532922,0.89724493,0.15054785,-0.65368,-1.2048442,-2.0926259,0.6628946,-1.5275589,-1.0147401,1.8137225,-0.02399487,-1.1138164,-1.5467203,0.19011946,-1.5867147
boycottembargo,-0.36854187,-3.9263155,-1.1700531,-3.9101028,-0.37801075,-1.0882356,-1.1417457,-1.6019828,0.56846267,-1.1900848,-0.28749505,1.7697262,-3.1524394,-2.250912,1.1315154,-0.47064528,0.5148204,-0.9990806,0.4600381,-2.0058095,0.9803293,1.0112828,0.044573124,-1.1777483,-0.28583616,-1.8582721,1.6054546,3.8334558,-1.5727158,0.0505476,0.6128138,2.9650807
commonbloc0,2.3066049,-2.3684387,1.2771561,-0.7763464,-0.28296292,0.016774284,1.9276344,-0.6024531,-1.200158,0.86140573,0.09842266,-0.5360739,0.73876995,-1.6753796,-0.35590848,-2.3467133,1.1064037,-2.2279809,0.47342563,-0.18940385,0.006697301,-4.3109026,-0.6614268,-0.17849216,2.7070155,-0.2124599,-0.5254185,-1.2099524,-1.2476169,0.67110485,-0.53701204,1.5692031
commonbloc1,-5.0529857,0.3751576,0.3519872,0.5610452,-1.4080387,0.33346435,-2.009455,-1.8314639,1.4950672,-0.6500358,0.884751,0.13404752,0.18586972,-0.17756534,-0.9197096,-0.26456082,0.5027967,-0.4967786,-2.8211753,-0.8456943,-0.28986263,-0.4961273,0.5572996,-0.12615436,-1.0213189,-0.10010835,-1.7780213,-2.213187,0.2652421,2.3039575,-0.152759,1.7317647
commonbloc2,4.330409,-1.4862965,1.5642158,0.7901057,-0.39501023,-0.13302138,-0.7717453,0.02128695,-0.85747653,0.6033113,-3.009814,-0.084131815,-2.1646276,-0.5175522,-1.7794538,3.4619312,0.23240986,-1.905298,-0.29470488,-0.9845645,-0.007509213,2.8292243,-0.1021527,-0.52660006,0.022099178,-2.5581784,0.71189445,-1.9694769,-2.7958598,-1.2076167,-0.5509745,-0.7263869
conferences,0.78066486,0.05226618,0.66963273,-1.9511784,0.045942232,-1.4350556,1.0207455,1.6012559,-0.79351294,-1.1024517,-2.207975,-1.7249272,1.1208315,-2.0492508,-1.2553899,1.1336571,-1.7664561,-1.2819947,2.0078988,-2.3717463,-1.2573998,-1.5549542,-3.5538478,1.1465247,-1.33023,-3.0271137,0.83798796,-0.85316163,0.80531514,-2.711637,0.6886326,-1.1669431
dependent,-0.15983702,-1.9568796,1.1494704,-0.66757417,0.18939538,-1.8728272,-1.1126164,-2.6625195,-2.7998197,-3.966239,-0.14169204,-0.7584804,1.8843135,-0.41052213,-0.632045,-1.4527596,-0.6603972,-0.62479186,1.5186088,-4.2777348,0.11285194,1.7539996,-3.109626,-1.63913,-2.080817,0.13556506,1.8202801,-1.307044,-2.6621656,-0.67118764,0.26736352,3.3767192
duration,-1.5228746,-3.4227288,0.58734006,-1.8586831,1.6113479,-1.1806978,-2.593221,-2.4642136,-0.57322836,-1.3791643,-0.9940475,-1.5503721,2.7939696,-0.057627983,0.013124175,-1.6144006,-0.473629,-0.395459,-3.5673912,2.2832434,-1.4532301,-1.0702968,1.2369151,-2.335439,1.675871,-2.1227062,0.31622845,-0.14611124,-1.1885068,-2.0928977,-0.015565967,-2.3226247
economicaid,-0.3729881,-0.7325085,1.3688588,0.21597467,1.822123,-0.65569144,-2.727101,1.9338188,-4.3353457,-1.8459197,-2.8480577,-0.1377822,-3.606132,-3.3087802,0.32049635,0.69569707,0.19012839,2.9171264,4.482202,-0.8922866,-1.5751092,-0.09926917,-0.600455,-1.6916417,-3.2791848,-0.6917475,-4.5853844,-1.2556044,-2.7897747,-0.5208895,-1.9526554,3.218532
eemigrants,2.9773114,-1.3931327,-0.23453775,0.6160387,0.7186928,-2.0467088,-1.8006046,-0.18047556,0.373676,0.4461853,0.032860223,-1.2468874,-0.2556474,-1.893359,-0.45463553,-2.9741247,0.90520656,-0.20753424,1.0329276,0.19738562,-0.7224718,-0.33594483,-0.9490704,-0.87364995,-2.1996605,-1.6771678,-0.12604044,-0.30024225,-2.5906377,-2.5040288,-1.3972708,-0.8519036
embassy,-0.380834,-0.029227298,-0.96678174,0.73303574,1.531353,0.21695745,0.16013093,-0.35067117,-0.36160612,-0.5877667,-0.76090145,0.25678986,-0.24023229,0.2284864,0.70131886,-0.38696814,-0.9931481,0.7329132,0.57181346,-2.2569969,-3.7071693,-0.4796756,-0.13447824,-0.0006174701,-0.32727745,0.3203024,0.4890181,0.71304697,0.8407139,0.5650664,0.34263104,-1.2371125
emigrants3,2.8786376,-1.3397229,-1.0573708,0.37980253,-0.16232225,-1.5144583,-1.4813882,-1.5313754,2.9718318,-0.3642533,-3.4751527,-1.6855042,-1.1583897,-1.4087477,-0.83921623,0.19234309,0.52777076,-0.07534811,-0.09261729,-0.04978124,0.038331907,-0.17330638,-0.18769445,-1.063791,-0.57370114,-4.59755,-2.1089995,-1.3854016,-2.2916257,-0.9735559,-0.2104038,0.4131447
expeldiplomats,1.7337992,-0.8393834,-2.3418257,-1.6539855,-0.6273295,-1.3660941,-2.5487359,1.5354648,-0.3222575,-3.978495,-1.1965096,-0.49590212,0.17112489,-2.478338,2.6788383,-3.1520486,0.86713856,-2.5234587,0.049528155,-1.0096881,-0.86780185,-1.2953333,0.19513665,-0.33361492,-1.256023,-2.1478705,0.24172975,-1.2259631,-3.1253006,-0.18222217,1.5273558,-1.2682271
exportbooks,1.7295732,-3.1313684,-2.4757903,-0.6075304,4.489255,-1.6190448,-0.8140284,-1.7661829,-3.4732428,-3.8891742,-0.32251734,-1.0391141,1.0848318,-6.1914215,0.11897291,1.7772596,-0.8221806,-0.71790683,4.8383894,0.820209,0.38357234,0.82080686,-1.7792925,1.0026424,-0.3034418,-2.2306523,-0.44023722,-2.7215507,3.3763406,-2.379932,-1.0266978,-0.5056759
exports3,2.1909518,-0.49230933,0.7464591,2.565219,1.6966172,-0.14463697,-0.80359715,0.4204229,0.22791621,-0.4814659,-1.7621073,0.74666697,-1.1381825,-1.0196887,0.42812753,0.5045468,-1.1657044,1.284,-0.13862157,-2.6367915,0.2876212,0.13766949,-2.0304503,-1.240524,-2.6119606,-0.24948227,0.08802369,-2.2309597,0.39475504,-1.7525531,2.47729,0.53523004
independence,2.3376558,-2.431594,4.3320723,-0.6728678,1.4736507,-0.20256256,2.8855484,0.54196286,-1.1770564,-1.1546383,-1.2484276,-1.7465115,-1.2826785,0.027500326,-0.103149906,-1.059325,-0.5720224,-2.0749292,-1.5283889,-1.5306548,0.928843,0.033934765,-0.07675999,-2.417548,-0.5608977,-0.1723595,-0.21915475,-0.7610073,1.1901407,1.521384,-0.96061134,-2.8332453
intergovorgs,0.5756622,-2.1048748,0.5947075,-0.7475452,-0.41087797,-4.527873,0.52395797,-0.2465581,-1.5533899,-0.57825875,-0.79460865,-1.7102561,-0.25671625,-1.5242771,2.232891,-2.9535897,-0.109121144,-1.3036878,2.6547034,-2.3835442,-1.5556352,2.1380994,-0.6771213,3.8381014,0.2207063,-1.163718,-3.6235888,0.96516675,0.23903254,-0.9779095,0.20627598,-0.0067394767
intergovorgs3,0.13628788,-0.87893337,-1.2972114,0.7839372,-0.35492638,-0.37342232,0.8084154,-0.17518717,0.107321955,-0.6223264,-0.4776135,-2.016546,0.24867396,-1.0428315,-1.2574433,-0.7034558,-0.5937161,-0.31039572,0.31304654,-0.96437335,-0.54749805,0.3524647,0.39702594,0.97418994,-0.24681626,-0.28232086,0.46016052,-0.94644886,0.8922286,2.1816607,1.4188209,-0.6302172
lostterritory,1.8462162,-3.1721642,0.33054838,-2.799766,-0.5755878,-6.803486,-1.3922356,-0.53738683,-0.28705913,-2.9146945,0.017278157,0.17131893,0.19556357,0.9176115,3.8346698,1.3385087,-0.8510422,-1.291385,-0.14004761,-1.2722654,2.5954654,0.12266754,-0.102869384,-2.3924477,0.49960443,-2.0709136,0.62322366,-1.5563996,1.4693716,-0.60208225,-1.7629185,-2.2375808
militaryactions,-0.46655726,-2.9975827,0.72549456,-2.0868661,1.6988913,-0.6052677,-3.6968853,-0.46883002,1.841458,0.39742362,1.0914364,-1.200274,2.6820385,0.46509087,0.9450074,-1.6557783,0.27285618,-0.94570786,-2.0220318,1.2321496,-1.1816493,-1.1556683,-0.01079645,-2.2297792,1.0594981,-1.4671243,-2.2548108,-1.0561507,-0.7098761,-2.9651582,-0.17313102,-3.2087214
militaryalliance,1.055511,-1.9556432,1.8903855,1.0809599,0.9756043,-3.4564896,-3.1085348,-0.26817337,-2.1688125,-0.16199026,0.57834005,0.15360738,-3.3239925,-4.6524034,0.24218167,3.4370582,-1.37892,0.12684801,3.5512288,-1.0013555,-0.94510984,-1.2033534,-2.6391563,0.29925418,-1.5249131,-1.2315149,0.14809138,-1.7558985,-2.3417082,-1.2412605,0.4875951,-1.5385039
negativebehavior,0.24452804,-1.2971853,-1.4195983,0.2493234,-0.8401396,-1.4379203,-1.6680824,-3.751449,0.30553693,-0.77559245,-2.8728254,0.9729707,-1.5974002,0.4446224,1.6638347,-2.5417023,-1.3788571,-1.063277,-1.4265208,0.74316,0.8570635,-2.1709726,-1.4975363,-1.3393404,1.2484332,-0.6301067,-0.1326475,2.9800208,0.56046796,-3.9527113,0.8149612,-3.3211336
negativecomm,0.7620528,-1.6230097,-0.87378854,-1.5525912,-1.8556075,-1.3570107,-0.91847146,-0.61331236,1.1006212,1.1160903,-2.7272577,2.2919207,-0.913297,0.48500758,0.64783746,-2.2504811,-0.8144959,-1.0732318,-1.2401867,-0.97267795,-0.41525102,-0.8611765,0.26574174,-0.4833052,1.4801263,-2.995148,-1.8932734,2.67917,0.074675426,-1.7466301,0.7806269,-3.3788185
ngo,1.0803668,-0.7685398,-0.06206629,2.5679698,-2.846546,-0.050761197,1.3028817,-1.7307574,-0.4880708,-2.6872272,0.4889658,-1.2075007,-1.385063,-3.0780146,-2.7683752,-2.8781118,-1.9707171,2.6777475,-0.31802016,-0.45574605,0.9254823,2.1017838,1.8958879,1.5915912,0.008543758,-1.0673437,-2.2761512,-1.3658885,-0.5328689,-1.0405537,-0.053680256,-0.7608388
ngoorgs3,-0.66745406,-0.60781676,1.9813005,-1.3146529,-0.9301048,-1.483825,0.830847,-2.4868944,-0.43005943,0.35657036,-1.1382868,-0.8779888,1.0614182,0.30844557,-1.1596563,-0.23444512,-0.23971544,1.6306574,0.017763536,1.1660397,1.8081545,0.52515435,-0.382001,-0.06441547,0.32156107,-0.9445826,1.5561155,-0.06389584,-1.1641948,-1.146223,-0.059927568,0.60792613
nonviolentbehavior,1.106681,-1.2775002,-2.77445,-0.67954373,-0.43341166,-1.282947,-4.1576133,1.6112349,-1.285796,-0.03573274,-3.2198014,-1.5574288,-1.9737538,-1.3146077,-0.6635544,-1.439329,-0.82823694,-0.7660196,-0.9400859,0.13116495,-1.6282281,-2.2772615,-0.5338251,-0.14185016,1.6124514,-1.3072311,-1.9975768,1.0993041,0.15612422,-0.7194414,0.47765753,-0.41535434
officialvisits,1.0406388,-0.15428385,-1.1369463,1.2009712,-0.7804302,-0.28525686,-4.670623,-0.07156216,-1.2804472,-3.7852874,-2.132701,0.52043974,-1.8709278,-3.9541476,0.14992537,1.0844054,2.8365977,-1.8474513,1.1731293,-2.451021,-2.5049152,-1.0325954,-0.4793081,-0.58663654,-3.0524867,-1.1702687,-0.44846162,-0.23213166,1.8136122,-0.1672487,-0.09296287,-0.7538832
pprotests,0.7590611,-2.4337554,-0.5821351,-1.903959,-2.003994,-1.201096,-1.1195688,-0.8143561,-1.719858,-0.23223963,1.3243334,-1.2452759,-4.915629,0.613158,-0.26673046,0.53056866,-0.97492546,-1.0487845,-3.1804926,-0.6006787,-0.7823608,-1.1051686,-0.29869246,0.22502121,3.8093536,-0.8839183,0.48942584,-1.4102482,-1.0640068,-1.5958984,-0.037505794,-0.98827493
relbooktranslations,0.47292542,-1.4118334,-1.1341267,-0.6427102,-0.099470526,-0.17794558,-3.0434368,0.23274288,-2.4042172,-0.6993411,-0.8169644,-0.42198288,-0.36196724,0.39859417,-0.23026343,-1.9420482,-0.36655664,-0.54095185,1.5695757,-0.25189033,-0.9326998,0.6299229,-1.8153119,0.688375,-1.0710319,-0.89779484,0.48114175,0.13059913,-2.970886,0.31167778,-0.70502937,0.2593856
reldiplomacy,0.3219225,-0.40366143,1.2680619,-4.004404,-0.8304912,-3.3939261,-1.2673492,-1.1389081,-3.5444922,-2.7954574,-0.87860966,0.13764527,-0.5295192,-1.3272555,1.7670289,-0.0012721862,-6.1621785,-1.9917068,0.18195131,-2.6623878,-1.0527718,1.2421513,-0.6989952,-0.32484102,-3.226609,4.0967083,-1.6806446,-1.1260607,0.6659604,-2.2119896,-0.454329,-1.0722682
releconomicaid,-1.8191597,-2.1328952,2.3716063,0.84131,-0.21997234,0.7313065,-2.6813016,0.23986082,-4.916798,-1.9695164,-4.3563514,-0.13094658,-2.9211514,-2.307553,0.85960096,0.605306,-1.3842349,2.2036066,-0.13585526,0.072792724,-2.040927,1.2581111,0.860568,-0.9233421,-0.620528,-0.847078,-4.5850606,-3.6267662,-0.3939003,-1.4564897,-1.515305,2.5553012
relemigrants,1.2723452,-1.3203697,-3.8242047,1.5415468,0.14701791,0.41804165,-2.9205828,0.32072166,0.78629935,1.3077946,-1.5094092,-2.3881564,-2.9224346,-4.659681,-0.13800025,-1.8345494,1.463279,-0.11256394,-0.036280844,0.46965176,0.56677866,-0.81661046,-1.0448705,-0.1752807,-5.582916,-1.9545972,1.4133741,-0.55068445,-0.16264799,-0.41027987,0.32216746,-0.48309058
relexportbooks,1.1489141,-3.3874302,-1.8956087,-1.4084051,2.9780176,-1.8105013,0.65382844,-1.123053,-5.6020985,-3.610237,-1.1708399,-1.332684,-1.9845401,-4.43261,-0.94841486,3.1842544,-1.6477978,0.4232828,5.3439145,-0.5624446,0.3204107,0.29324958,-1.5506082,0.50972533,-1.2562435,-2.0003679,-0.9118357,-2.5693576,0.22896047,-2.4786885,-0.64978606,-3.3982842
relexports,1.5889188,-0.5053459,0.30917144,1.2166452,0.34757027,-1.388227,-1.5046061,-0.6788525,-1.3664255,-0.2774192,-0.0037358934,-0.10948564,-1.0710809,-0.5482373,-0.90843207,1.0145997,0.56713736,0.5116341,-0.15476845,-2.0700903,0.08337264,0.45493037,-1.8498816,-0.6930957,-1.8574125,-0.7604971,0.9984378,-1.5643766,0.7678172,-0.341299,0.17553379,0.16825438
relintergovorgs,-0.023899524,0.052341685,-0.38716614,0.18697895,-1.0168726,-0.869827,0.18027587,0.55691946,-0.41734162,0.16472615,-0.4504372,-0.35899964,-0.6660671,-0.010091286,-1.1446263,-0.5785489,-0.051673904,0.928483,-0.35390395,-0.14469288,-0.5506308,0.9054389,0.64069456,0.380118,0.27699092,-0.07458483,0.18567592,-0.19022948,-0.6013926,-0.43317637,-0.577051,-0.21779445
relngo,-0.23901686,-0.33909285,0.73117834,-0.15100387,-0.64285576,0.24519154,-0.11367425,0.50663567,0.6374655,-0.34387246,-0.79349625,-0.52934533,0.021505926,-0.014739579,-0.66406846,-0.49957812,-0.2539935,-0.5211607,-0.22507674,-0.1740455,0.35748288,0.16298306,-0.01706243,0.071716875,1.0557941,0.105177864,0.24521856,-1.3115424,0.113845795,0.71547395,-0.020123966,0.35511518
relstudents,-0.13242953,-1.038154,0.14141013,1.1225717,-0.15877236,-0.6108234,-2.2691095,-0.4985958,-0.9478424,-1.1872927,-0.63480926,-0.9659468,-0.7703642,-3.9257753,-0.6160104,-0.46010807,2.689602,-1.3022605,1.9373988,-0.5595851,-0.09973182,1.0819321,-0.38703024,-1.4631288,0.32599208,-1.7148049,-0.7496318,-0.49875143,-0.5801269,1.4119654,-0.96534044,-0.4962426
reltourism,-0.6645764,-1.3646843,1.1694016,2.0695503,-0.9048077,0.7224373,0.71948534,1.1710624,-1.7287065,-1.5213705,-4.4364905,0.433355,0.053461574,-4.4226303,-0.37607133,-1.679544,-1.771503,-1.5828933,3.171533,-0.9386981,-2.0618126,-0.22283325,0.37518567,0.44435075,-0.097635485,-0.96725726,-1.0357047,-0.23749809,-4.8174915,1.301631,-0.12622058,-1.4794562
reltreaties,-0.5389267,-0.14062174,0.9638387,0.52771515,-0.80859727,0.19052586,-0.50275767,-0.51690614,-0.35621974,0.507696,-0.49105278,0.71701884,0.33138725,-2.7307086,-0.3748754,-0.5834926,-1.7189153,-0.4388139,1.125998,-1.6147386,-1.8165214,-0.7526149,-0.87785065,-0.5658366,0.4398745,-0.622892,0.996507,-0.46016058,0.6638629,1.0334498,0.54826784,-0.20688917
severdiplomatic,0.48471934,-0.83548534,-0.33208117,1.100055,-0.81709045,2.4768538,-2.6349525,1.4570079,0.24582273,-1.9827888,0.34896776,2.2368104,1.3451935,-1.6426691,-2.5163653,-1.286159,-0.6439884,0.019156124,0.8465866,2.6156776,-0.36217356,-2.6318529,-4.2416687,-0.74817455,-0.14960593,-1.561862,-1.0213255,-0.45875654,-1.1527766,0.18474978,1.3749895,-4.7565
students,0.62060213,-0.92298806,-1.3627459,1.0442208,-0.5133712,0.5214236,-1.0960603,-1.8644009,-2.0158415,-1.480109,-2.441945,-0.41914722,-1.1421659,-1.7487689,-0.34374723,0.9010062,0.072499365,-1.5375775,1.3693818,0.1590164,-0.13901672,-0.0325529,-0.11171881,-0.89552265,-0.3029751,-1.7011347,-0.766732,-0.020827824,-1.3337228,-1.7476088,-0.8994833,-0.28444132
timesinceally,0.8523699,-3.1584625,2.038585,1.6559128,-0.6381324,-0.8845555,3.7530892,-0.13517272,-2.0469806,0.5173825,-2.984964,1.4258156,-2.2343237,-1.133671,0.5289144,-0.5560142,-1.0893787,0.7308096,0.17984715,-0.114501245,-1.0895507,-0.9945746,-0.679072,-1.1701311,0.046115763,-0.6026558,-2.3178155,-1.5974104,1.2822677,-1.185432,-0.0021235459,-2.81926
timesincewar,-0.21649957,-1.2815332,3.6760128,-4.727102,0.9998654,-0.24236785,-0.8367668,-2.768614,-0.93277705,-1.0634626,2.0646255,-1.3386307,1.1169738,-1.5209745,-0.7220959,0.723039,-0.78560084,-1.7506703,-0.62672246,-0.15726592,-0.4403,1.183003,-0.9807755,-2.1527467,0.42094645,-0.73338777,0.36467037,-4.5305505,-2.4716809,-0.8595166,0.53293294,-2.2068257
tourism,-0.78743243,-2.3072212,0.40384674,1.6884166,-0.14754134,-0.9758551,0.2416378,-0.95941895,-2.9936926,-1.9946414,-1.0271734,-0.83057594,-0.4732476,-1.5066229,1.8805172,0.82658005,0.10902526,-1.6232013,3.27985,-0.8178447,-2.3043063,1.3465407,-2.3631406,-1.6457372,0.62569934,-2.0938911,-0.1966993,-0.41583124,-2.8453047,-1.5331321,-1.1275114,-1.177069
tourism3,1.7786454,-1.513759,0.93238926,5.0198207,1.6501209,0.14056017,-1.3390957,-0.7945158,-0.39583054,-2.7398248,-1.170209,-1.1306804,-0.08848994,-3.2495494,-1.0822463,1.2542877,-0.45232433,-0.6621116,1.4939052,-2.6574142,-0.19261728,-1.6179466,-0.38287967,-0.5888864,2.1563249,-1.2344824,-0.54855657,-0.87670344,-3.1268067,0.05465233,-0.35663167,-1.8286583
treaties,-0.6661092,-2.801702,1.8895193,3.717089,-3.0429013,-1.4206442,2.3112938,-1.1457342,-3.3207018,-1.3404183,0.5611081,-1.3458437,-3.9615538,-0.5058791,-1.46108,-0.58547944,1.175181,-1.084354,0.8562537,0.7455031,-2.5763354,-1.0087062,-2.5248287,-0.21099496,-2.4631948,0.086443156,-1.5535108,-2.207662,-2.031877,0.7514568,0.08427128,0.7990209
unoffialacts,2.94628,-1.5453547,-1.5896225,-1.3042377,1.5744275,-0.3820399,-2.0569453,-0.39948872,-1.7609543,-0.78847283,-2.1346376,0.5129196,-3.2721727,-3.8231514,1.1287336,-0.5888172,0.6132727,-2.1016831,0.3712828,3.2356036,-0.33137473,-2.573942,-0.13530795,-0.64156264,1.3974651,-1.6158692,0.2006636,-0.7211879,0.5929411,0.16871846,1.4358861,0.97972614
unweightedunvote,0.9289576,-2.4519663,-0.08270983,0.24368751,-2.6542268,-0.9690445,0.8341192,-1.2680119,-0.20879903,0.033055104,-2.355744,0.63785195,1.8446215,-0.7243219,-1.8338642,-0.44686866,-3.0534382,0.44028133,0.7145359,0.9012315,-0.5711242,-0.5853427,-1.1237633,1.3038754,-1.1230086,0.90506935,-0.21011043,-0.6879215,-5.4690313,-2.5900476,-0.9851819,-1.5116066
violentactions,0.9493752,-4.0901704,-0.9174894,-1.0665447,1.1494871,-0.7203317,-3.2674823,-1.1571012,-0.92990035,-1.9112881,0.36101577,1.5129977,0.52432865,0.8247122,0.1739346,-1.7052505,0.42139846,-1.455943,-2.5504262,1.896582,-2.7848845,-3.6821172,-0.24491,-1.4941512,0.14049575,-0.044038758,0.17509522,-0.5206766,-1.3758048,-2.8165586,-0.2525128,-2.505612
warning,-0.54658645,0.58747995,-0.4346809,-2.8873453,0.10958605,1.079078,-3.65338,1.0783772,3.5647874,-0.7390476,0.8059247,-1.2918152,2.0027533,-2.5353825,1.5237123,-1.6996381,-0.44830778,1.3347937,-0.5436432,-0.012188482,-3.588071,-0.40764952,2.7241597,-1.5672039,-1.3131915,-2.4447982,0.22939526,-1.2871435,-0.94635093,-3.2375507,1.452703,-0.8956417
weightedunvote,0.9207297,-1.2128701,-3.718859,0.6954366,-3.4618735,0.792379,1.2371126,-1.191521,-1.1795514,-3.5105069,0.32002637,-0.33427936,-1.4126552,-1.6170529,-0.45599338,-3.108949,0.520412,-0.7875807,0.34079027,-1.7317234,-0.6724719,2.4268143,0.07759415,-0.27856287,-2.0431964,1.843318,-1.6501428,-1.8364502,-3.0625296,-1.9606771,-1.3427372,-0.9118644
