,0,1,2,3,4,5,6,7,8,9,10,11,12,13,14,15,16,17,18,19,20,21,22,23,24,25,26,27,28,29,30,31
acquired_abnormality,1.165212,0.40725395,1.9969568,-0.012864626,0.06976597,-0.85659295,0.5861953,-0.90569806,-0.68176746,0.042630754,-0.12489312,-0.82924634,-0.047230564,-0.71315503,1.0728467,0.09744043,0.557533,-0.6374782,0.07365959,0.5316203,1.7018377,1.6329921,-0.3889414,1.5518346,-0.4714602,-1.2551191,-0.43341902,-0.13482676,-0.065995894,-0.8260158,-1.6313641,0.0009007881
activity,-1.4034538,-0.44196033,0.40011787,-0.5774371,0.7109334,-1.5800787,0.20350647,-0.44405454,0.4737362,0.8155179,0.07211964,0.015303424,-0.59860426,-0.13244951,0.68448776,0.57334167,1.0887823,-0.950172,0.28408387,0.16427307,-0.75661904,1.2252631,0.54609513,-0.047209542,-1.6464897,0.16477394,1.4975893,-0.43382737,0.23131563,-1.3994015,-1.5445952,-1.3639314
age_group,-0.13768893,1.1717427,-0.44741684,0.26503968,0.9742921,-1.7417325,-0.25483194,1.0152805,-1.1332092,-0.93031895,-0.5748827,-0.39453748,-0.5271434,-0.42901483,-0.015835814,0.3931232,1.0333428,-0.30442035,-0.44618592,1.2506515,-0.96916234,1.2942827,-0.4131522,-0.53206336,-0.57827365,-1.7945496,-0.06602349,0.26935637,0.27113533,-0.7560296,-1.6280915,-0.8916084
alga,-0.022715203,-0.35602126,-0.6140202,-0.39034018,1.2597431,-1.8647772,-0.64149106,-0.03602755,-0.94648767,2.0358722,-0.6132434,-1.5586395,-0.24449168,0.7609478,0.4608115,-0.061411396,0.9181258,-0.2532867,-1.6857303,0.0204935,0.7275314,1.8541958,0.40141323,0.31518182,-1.518745,0.27557522,-0.05439764,0.32500672,-0.35272753,-0.97324187,-0.7780458,0.5538396
amino_acid_peptide_or_protein,-1.3439832,-2.065276,-0.34064794,-0.693802,-0.018474583,-1.4035716,-0.24691428,0.3946229,-0.83322096,-1.2761106,-0.13850173,-0.779986,0.061553765,0.03052717,-0.29972282,-0.39230114,1.0645514,0.06271314,-0.8231216,0.9179029,0.7656907,2.0112338,0.43091673,-0.95977724,-1.7381077,-0.5281268,0.31360522,-0.4785304,-0.93196344,-1.3100979,-1.502037,-1.1348071
amino_acid_sequence,-0.03999759,0.32254833,-0.49286497,-0.08970581,-0.516632,-1.9130512,0.1780833,0.4744367,0.17494851,-0.72496086,-0.5423844,0.1397101,0.91385037,-1.5093946,-0.42650223,0.60379136,1.1766059,0.18635537,0.24803193,0.41387838,-0.23595239,1.4937904,0.0035075222,-0.39196885,-1.4586848,-0.5646752,-0.437869,-0.36454767,0.32247034,-1.2618244,-1.3403218,-2.159592
amphibian,-0.01765949,0.36278206,-0.4461286,-0.44266996,-0.2454268,-2.2073138,0.5814132,0.18704289,-2.3081377,1.7833014,-0.3402322,-1.6206565,-0.14284088,-0.20692185,0.3479243,1.3469865,1.2582302,-0.54709667,-1.3503044,-0.10510643,1.4552414,1.1079175,0.24194986,-0.45193818,-1.2854383,0.16789934,-1.3540907,-0.18768676,-0.65669155,-0.5777269,-1.9655836,-0.44337907
anatomical_abnormality,0.95189464,0.74789244,1.9088439,-0.40040928,0.16528445,-0.92291325,0.62656754,-0.73982954,-0.19447939,-0.1046441,-0.13046578,-0.4980718,0.24978602,-0.499611,1.084444,-0.81387275,0.3855058,-0.68578,0.1973845,0.8209928,1.5830857,1.4738183,-0.23577571,1.4741607,-0.16055524,-1.2997872,-0.29252222,0.53419507,0.23798841,-1.2880217,-1.261629,-0.056054797
anatomical_structure,-1.3962015,-0.34584936,0.38298637,0.7311381,-0.8045583,-1.4927771,-0.72654325,-0.25668186,-0.4066281,0.1290874,-0.45460746,0.4280699,-0.70470464,-0.6385123,0.79981035,0.18986265,1.7522643,-0.05363423,1.2995161,1.3053151,0.90235305,1.4573703,0.08065758,-0.5034528,-1.3852947,-0.8784737,-1.018257,-0.050375897,-0.67575985,-0.518666,-1.1192955,-0.29112706
animal,-1.2331446,-0.035137165,-0.33110848,0.003157414,-0.38700312,-1.7362086,0.6213633,1.1034813,-1.6409907,1.4118891,0.047484703,-1.1022379,-0.11089963,0.5270629,0.71746147,0.65581566,0.58631516,-0.39039108,-0.7762694,0.81015426,1.1293789,1.0591177,0.34033313,-0.08990464,-1.4244546,0.89275426,-0.85783404,-0.18992788,-1.3062588,-0.7207095,-1.305417,-1.4131851
antibiotic,-0.6677641,-0.4741298,-0.13591972,0.34250227,0.17182383,-1.3671016,0.5381711,-0.029161647,-1.1197987,-0.42417696,0.46822396,0.6244861,-0.36164734,-0.6615149,0.19703631,0.38370746,1.0723649,1.016558,-0.7761014,0.81069374,0.64858294,1.3264103,1.5152344,-0.60563385,-1.0537398,-0.7005077,0.67365503,-0.16546449,-0.9621847,-1.8620578,-1.1517011,0.15118255
archaeon,-0.9678605,0.19938049,-0.6799588,-0.567609,-0.6849665,-1.8900634,0.27262446,0.04403959,-1.7348757,1.4808699,-0.6571211,-0.7179951,-0.92049515,0.35998824,0.24488536,-0.270251,0.14454941,0.33850765,-0.7614569,0.72459006,1.9100235,1.301737,-0.36736202,0.25905842,-0.28224814,-0.33540952,-0.4462017,-0.15750974,-0.073840946,-0.014305478,-1.941261,-0.8616707
bacterium,-1.3096145,0.7069964,0.29311275,-0.2913764,0.8376638,-1.3679857,0.080837235,0.052067958,-1.177197,2.336152,-0.2852634,-1.0489955,-0.74740463,0.9650044,1.2296422,0.9464475,1.0211662,-0.28962678,-0.11477029,-0.4893671,0.48382437,1.8605256,-0.0234352,0.60489887,-1.0761223,0.19890267,-0.38604373,-0.28831118,-0.8095415,0.32532585,-1.5145029,0.6305597
behavior,0.2623366,0.14674138,0.107332096,-0.45382133,0.77747244,-1.8043795,1.5599641,-0.8496732,-0.41608977,0.9500969,0.52043796,0.37065604,-0.07628835,0.14651273,-0.35104474,0.59001446,1.1525384,-0.98482853,-0.1291492,0.3690529,-1.838436,0.9155357,0.3637163,-0.14279972,-1.4284868,-0.49920195,-0.095019355,1.7660056,-0.3566215,-0.6473782,-0.18095303,-0.24842979
biologic_function,-0.16821061,-0.19327205,0.73305666,-0.48242775,-0.123221904,-1.186927,-0.6680636,-0.8947938,0.14802283,0.8680919,1.7104644,-1.3019637,-0.31136444,-0.8981002,1.0708597,0.15321666,1.7880336,0.35041642,-0.35708436,0.62750953,1.3227371,1.5665556,0.23653346,1.7139109,-0.9762061,-1.206124,-0.6408789,0.3634774,0.52425027,-0.11238654,-1.1142454,-0.11204852
biologically_active_substance,-0.7274831,-0.76042587,-0.08227406,0.053317554,0.34211823,-1.2473918,0.43166915,-0.68569005,-1.3701713,-1.5483532,-0.14995438,-0.88732874,0.6188055,-0.440223,0.21001488,-0.15811782,0.991015,0.8995405,-0.17967351,-0.045725595,0.05641932,1.5918376,1.0550655,-0.99052584,-1.0765687,-0.17102225,0.00683714,-0.47155178,-1.4970071,-0.9228768,-1.1792995,-0.73695225
biomedical_occupation_or_discipline,-0.46766028,0.38398805,-0.15162441,0.14439029,-1.5745728,-0.81547457,1.612445,-0.21523279,-0.35665163,-0.3417496,-0.6417401,0.13683654,-2.0016203,1.2092372,-0.024220545,1.2246697,-0.2318788,-0.6747847,0.09262993,1.811682,0.051793225,1.9301182,0.44844106,-0.9408635,1.1634991,-0.8934374,0.19945876,-0.11144944,0.37023813,-0.28562996,-0.15850437,-0.6271287
biomedical_or_dental_material,-0.6636097,-0.6442306,0.53277457,0.22620073,-0.31008923,-1.6299828,0.14612448,-0.19539532,-1.4053769,-0.78447324,-0.23526946,0.03298354,-0.82298476,0.2458053,0.5930627,0.008928398,1.1289536,0.6094024,-0.19786513,0.5021064,1.0040537,1.361368,1.6193516,0.51090354,-1.0656728,-0.94658804,0.6907991,1.0899746,-1.7429179,-1.1327987,-1.6344332,-0.38971475
bird,-0.39646208,-0.07106413,-0.5869455,0.22881687,-0.24395151,-1.8616838,-0.46845695,0.032555733,-1.6106318,2.402086,-0.06447349,-0.3988403,-1.2698704,0.57909423,0.41990563,0.46009696,0.45844218,-0.6253538,-0.7309052,0.24968661,1.4288265,1.5873711,0.7124036,0.67907953,-0.59711874,-0.6163337,-0.9023087,0.071725465,-0.1262714,-0.5458768,-1.7279048,1.4284955
body_location_or_region,-0.29805294,0.004985181,0.24435928,0.5646001,-1.3570513,-1.6712488,1.1506242,-0.015023681,-1.1322635,0.14088343,-0.6616998,-0.47747707,-0.11010849,0.14094509,-0.28509673,1.0739814,0.76717997,-0.2547092,0.3066106,0.032434534,0.95893246,1.6291602,-1.2629042,-0.017022086,-1.6794925,0.2274596,0.20443094,0.08381059,0.581769,-1.2898715,-1.526133,0.28268084
body_part_organ_or_organ_component,-0.43327713,0.10547082,-0.028746132,0.7079769,-0.9569807,-1.6702616,0.6519893,0.47084403,-0.14591743,0.6178598,-0.18784027,1.3025476,-0.22505681,-0.7357786,-0.067541644,0.2897486,0.88386357,-0.6888541,-1.0753616,-0.033380624,1.3530058,0.94030094,-1.427794,-0.81171054,-0.86884826,-0.8631622,0.19708091,0.015085817,-0.4011855,-0.37211832,-0.91444427,0.7344844
body_space_or_junction,-0.019063748,-0.09635919,0.871749,0.39462352,-1.1041877,-1.4442574,0.85055566,0.4382216,-0.032876816,0.2932562,0.13760164,0.01253144,0.1209621,0.5703162,-0.71766084,0.62468517,1.149904,0.04879476,0.04378803,0.2956006,1.1427467,1.2626824,-0.89983886,-0.023248663,-0.23962256,-0.044189956,-0.051076885,0.027636226,0.0640796,-0.34821934,-1.429677,0.7642881
body_substance,-1.7170198,-1.3017182,0.67939764,0.9638849,-0.40802303,-1.0860411,0.5803306,0.47550517,-0.5241948,-1.3682121,0.3207638,-0.60031486,-0.19586681,-0.5628106,-0.15468235,0.7205468,1.2541921,0.46937862,1.3070791,-0.27588627,-0.0682762,1.3529528,-0.71030647,-0.50741404,-1.0802648,0.06932378,0.53828686,1.6525959,0.15739568,-1.0623187,-1.6034355,-0.22638328
body_system,0.71513,0.38120577,0.011277685,0.89980954,-2.2088287,-1.8931429,0.12181421,-0.02454626,-0.6630387,-0.5919932,-0.26184273,-0.8257174,0.17862013,-0.6677362,-0.37888828,0.6507657,0.86514753,0.19792591,0.6998956,-0.049010575,0.6846497,1.3228378,-0.24744126,0.42451066,-1.6858149,-0.022507306,-0.59210396,-0.15187156,0.13441493,-1.8341106,-1.4189303,0.21285243
carbohydrate,-1.1115618,-2.070638,-0.1595783,-0.84434557,-0.25712457,-1.3583173,-0.89791316,0.26901814,-0.17246749,-1.0264913,0.5513317,-0.5113967,-0.44620493,-0.23973094,-0.1619621,0.79251784,0.89556223,0.08375061,-0.35486892,0.4566765,0.26123217,1.5470619,0.69422597,0.41303757,-1.3817586,-0.26081175,0.5674197,-0.4718773,-0.101614006,-0.77250016,-1.6754994,0.34441975
carbohydrate_sequence,-0.49048907,0.63537925,-0.047777526,1.0726709,-0.83832985,-2.0812016,-0.31178042,-0.87793225,-1.5733126,0.036118675,-0.5272359,0.30845827,-0.0903321,-1.1428841,-0.8477857,0.813205,1.3098527,0.108606435,-0.2775471,0.357421,0.65802884,1.9755965,-0.55783993,0.4064644,-1.2322872,-0.5406703,-0.12898262,0.69490254,0.13914852,-0.0874228,-1.5013934,0.03665756
cell,-0.5993165,0.73739904,1.0102211,0.86529356,-1.0599606,-1.5431509,0.8318502,0.7531861,-0.03505305,1.0266929,-0.1538631,-0.056607313,0.3681954,-0.55114347,-0.2695756,-0.24429563,0.73461556,-0.72034734,-0.5746012,-0.14972503,1.490635,1.0844395,-0.517933,-0.7786703,-0.6666803,-0.8373116,-0.03848246,0.13510089,-0.47323295,-0.61073506,-0.63600826,0.46878746
cell_component,-0.8823866,0.68835235,1.5191904,0.678176,-0.5366536,-1.6260501,0.16716813,-0.2242323,0.3415902,0.3256077,-0.03539871,-0.16860539,-0.49386293,-1.3223488,-0.027255464,0.39930743,1.2137966,-0.43126103,-0.8978048,0.552851,1.7603222,1.1406372,0.43334794,-0.5166298,-0.42100093,-1.5970936,0.50845164,0.23483406,0.092956,-1.7631161,-1.0347369,0.5206388
cell_function,-0.36512992,0.29837394,0.45359945,-0.5949553,-0.73894405,-1.5054884,0.08480383,-1.4985874,0.15647142,0.96201336,0.7928698,-1.6605594,0.09516313,-1.4366214,0.12267109,0.20276143,1.3858593,1.1921502,-0.32730705,0.87882054,1.2881246,1.4563855,-0.38067722,1.5106983,-0.34826913,-1.1547523,-0.43887916,0.70504445,1.1942995,0.83298403,-1.2266225,0.41311628
cell_or_molecular_dysfunction,1.2842667,0.13258621,0.9004682,0.05918632,0.88435006,-0.9922996,-0.43483987,-1.6033117,0.15953884,0.9478411,0.6793435,-1.1906881,-0.68656874,-0.7666644,0.7401489,-0.45342767,0.53081983,0.7157993,0.35801762,0.18876551,1.4254832,1.4393315,-0.60037476,0.94230735,-0.5449441,-0.8772128,-0.6297111,0.26964432,-0.58491904,-0.38170764,-0.8869273,-0.30907887
chemical,-1.0208529,0.04537089,1.3986914,0.19247073,-0.40255097,-1.7316885,0.5164964,0.3542251,-0.9152712,-1.4194726,-0.24897316,-0.11313992,-0.6088729,-0.2826301,1.1692991,0.86164045,1.0002795,1.8292469,0.37704635,0.59371555,-0.16897503,0.899828,-0.44170865,0.48001108,-0.5258946,-1.3694339,1.090654,-0.2809021,-0.022569783,-1.1735965,-1.1185718,-0.27717468
chemical_viewed_functionally,-1.4129388,-0.94728225,0.030119063,-0.43555948,-0.53353673,-1.4640106,0.18998808,-0.128447,-1.207986,-0.7190271,0.56720144,-0.41786042,-1.2158486,-0.9255176,0.9485644,-0.61002654,0.9650336,0.7951059,-0.9303149,0.53232324,0.103162356,1.322943,0.63796216,-0.8037494,-0.98902833,-0.9266445,0.6682957,0.28140008,-1.112802,-1.2935244,-0.6615803,0.31576508
chemical_viewed_structurally,-1.1172196,-0.7995215,0.4630564,-1.0780895,-0.70608896,-1.5794863,0.5759355,0.105032206,0.12729338,-0.82790416,-0.4393816,-0.75820243,-0.76533115,-0.2715658,0.75494057,1.3228489,1.2192447,0.05630579,-0.48803806,-0.24172588,0.6254351,1.0935946,0.19925705,0.3780101,-1.2729146,-1.8088962,0.71964777,0.22860107,-0.009587105,-1.3136197,-1.7041042,-0.30552372
classification,-0.29988715,-0.54231995,-0.117475696,0.036243454,-1.9590312,-1.0577633,0.1466547,0.18927653,-0.80769676,0.5944491,0.30576724,0.10131662,-0.28907332,-0.63577574,-0.26472872,0.21101367,1.0135659,-0.39780575,0.08869538,0.6074782,0.33663917,2.1231408,0.17665014,0.8316207,-0.94318134,0.6182224,0.37964737,0.6338829,0.5130434,-0.84249586,-0.03567533,1.1263808
clinical_attribute,0.35732934,-0.7001323,-0.55932945,0.89182395,-0.8809604,-1.3111421,0.48012602,-1.8733209,-1.341873,-0.43085754,-0.08999749,-1.2718881,-0.48679876,-1.212924,0.17383419,0.19216062,-0.16117518,0.77775687,-0.8034384,0.9734732,-0.5681646,2.0922737,0.5537957,1.1000065,-1.3723198,-0.1993521,-0.28789264,0.6904014,0.21081391,-0.8916573,-0.57706803,-0.3107085
clinical_drug,-1.8273832,-0.68630224,-0.25941205,0.4442466,-1.0754116,-0.6969947,0.92295194,1.4702142,-1.6865586,0.8131001,-0.2337551,0.27715588,-0.5860577,-1.2511493,-0.015258746,0.29330927,0.1585378,-0.5757603,0.30182192,0.7374089,-0.36718732,2.3150005,0.29513928,-0.05337056,-1.5682272,0.68804586,0.9501694,0.12738387,0.32782787,0.3865879,-0.79805636,0.18258953
conceptual_entity,-1.2387949,-0.40365568,-0.8530619,0.60456645,-0.49626476,-1.1807889,0.095096156,0.63681,-0.713529,0.64994204,-0.84856176,-0.6315745,0.031990144,0.34919253,1.3691382,0.2445998,1.3846822,-0.76276046,-0.9983932,0.72414213,-0.74309176,1.237948,-0.03370423,0.50605893,-1.4589678,-1.5892808,-0.6544594,-0.4945965,0.48489523,-0.4323935,-0.8940218,0.45045605
congenital_abnormality,1.1883218,0.37031502,1.5122896,-0.1316289,0.2860351,-0.9360837,0.5606179,-0.9121157,-0.20504703,0.47754586,-0.15268478,-0.20017032,0.43984106,-0.5630734,0.97184783,-0.37425312,0.2425762,-0.21930839,-0.23267615,1.1207125,1.7162945,1.7378169,0.21340245,1.4161766,-0.09573223,-1.6641754,-0.19018222,0.33365974,0.28637767,-1.2737564,-1.1162165,0.06575996
daily_or_recreational_activity,-0.063394845,0.70902336,0.08687649,-0.365541,-0.4911209,-1.0943044,0.95515335,-0.56881595,-1.3027003,2.118881,1.1927124,-0.4057617,-1.3809606,-1.4002942,0.25084686,0.26748583,1.5625125,-2.4436824,-0.60902226,0.019696863,-0.0632415,2.879491,0.720402,0.12581077,-1.2291697,0.24122532,0.04129514,-0.84433156,2.5594342,-1.5330904,-2.6369593,-0.7888253
diagnostic_procedure,-0.016651247,0.94770825,0.2632874,-1.0616298,0.6214958,-0.86595726,-0.24731554,-0.8496413,-0.19371818,0.7237176,0.050817516,-0.2547925,-0.2093574,-0.0033821387,-0.11941811,0.076942086,1.1624156,-0.61177796,0.08472346,-0.14412901,0.5156715,1.636252,1.0950335,0.373348,-0.20771073,-0.15376292,1.3119347,0.75284284,0.5544994,-1.2291095,-1.1901578,-0.75501734
disease_or_syndrome,1.2088941,-0.17530374,0.49789807,0.32847634,1.3191228,-0.73157716,0.017791523,-1.1533482,0.015482155,1.035171,0.567256,-1.0922699,-0.18072379,-0.7803329,0.71967167,0.1270436,0.62294436,1.0925025,-0.4844831,0.84639776,1.1548879,1.4251665,-0.3532117,1.1028877,-0.7699412,-0.90395784,-0.17666744,0.21769778,0.15412562,-0.48200816,-1.0631499,-0.6574165
drug_delivery_device,-0.90963274,0.072234586,0.24747828,0.23122573,-1.1366293,-1.2290287,1.0848665,0.6411109,-0.7636635,0.81709385,0.32647216,-0.20757696,-0.39623085,-0.85755074,-0.62987894,-0.7772483,1.1776271,-0.6612979,-0.40967804,-0.32928824,0.7695837,1.9767475,-0.23776186,0.23462942,-1.7293713,0.18568143,-0.4001466,0.14144513,0.018713038,-1.3582816,-0.46241006,0.13822687
educational_activity,-0.03601192,0.4576505,-0.17738011,-1.0333036,-0.69765973,-2.2471669,-0.21926235,-0.2778251,-1.012107,0.6282776,-0.046521995,0.195943,0.18563963,-0.17189583,-0.55784494,-0.44010916,2.6234837,-1.9649097,0.4294979,-1.0886346,0.14685084,1.7721968,-0.21333127,-0.7204519,-1.1167585,0.59881866,0.16925299,-0.6083586,-0.7044213,-0.57732815,-1.4306684,-0.369611
eicosanoid,-0.7736227,-1.9927869,0.50470275,-0.10168781,0.05271249,-1.4755722,0.9305191,0.11604723,-0.9611564,-1.3146334,0.5071021,-0.5919229,-0.9987172,-0.34193075,-0.26349357,0.21250239,0.30177504,-0.015086043,-1.425685,0.033883974,0.48522678,1.7351485,-0.36796138,1.0297027,-1.1054056,-0.22411677,0.41710684,-0.5326579,-1.1184567,-1.3989763,-2.1331062,0.16675474
element_ion_or_isotope,-0.3531605,-1.0638041,-0.07535021,0.7604163,-0.23233064,-1.52788,0.6683566,-0.12678526,-0.7726929,-1.117104,0.07175197,-0.54645985,0.017389556,0.19747795,0.0763889,0.29356933,1.3091779,0.095027864,-0.23338668,-0.51912415,0.43123886,1.3793535,0.75205606,-0.7636911,-1.3340833,-0.81872815,1.2961153,-0.4241791,-0.20881602,-0.7343808,-1.4694601,0.9367227
embryonic_structure,0.057791308,0.5112923,-0.33597034,1.2414701,-0.79339755,-1.69957,1.7177255,-0.15327989,-0.32332432,0.6082613,-0.49784204,-0.028994983,0.49007124,-1.1560427,-0.09191509,0.6055944,0.9706411,0.30446422,-0.44058353,-0.03539758,0.56255585,1.1132054,-0.41107553,-0.9712507,-1.1563835,-0.79346234,0.36798263,1.2114745,-0.54920274,-1.6052846,-0.93934757,0.057476528
entity,-1.5509162,0.59119415,0.28434786,-0.09063182,-0.6202579,-1.2764465,-0.365186,1.0647441,-0.5645492,-0.32038626,-0.98776245,0.853623,-1.0978228,-0.41310742,1.239223,0.8006921,1.0915473,-0.9026808,0.119510256,2.3780072,-1.1466246,0.8781861,-1.0105214,-0.14806609,-1.8295597,-0.49618247,-1.4349904,0.39350593,1.6839892,-1.5242987,-0.5980024,0.16708426
environmental_effect_of_humans,-1.2647257,-0.24630922,0.15397172,-0.28383297,-1.2518317,-1.9213678,0.49663007,-1.470984,-0.27802283,-0.72009575,-0.56497765,0.21274826,0.07852071,-0.3519121,-0.08789395,0.5595281,1.0613409,-0.873566,-0.4819799,0.7014003,0.41477656,1.8326441,-1.0566459,1.4126997,-0.7749399,-1.1232065,-0.1084252,0.99519295,-0.17966224,-0.7618297,0.21090047,-1.6642833
enzyme,-1.2401501,-1.0362011,0.4808435,-0.18883991,0.33945155,-1.0662436,0.22195798,-0.6590412,-1.8723876,-0.6686643,0.35234857,-1.2911993,-0.52207416,-0.4960141,0.37918237,0.53458863,0.9090522,0.4289723,-0.6913651,-0.61498505,-0.17342405,1.6515069,0.17190313,-0.88856626,-0.7769247,0.19312948,0.08890857,-0.33463603,-1.7223722,-1.8382149,-1.1128253,0.5988562
event,-3.1018398,-1.1842766,-1.0150169,0.17673369,-0.0029347092,-1.7325399,0.4257799,-0.13761163,0.048470005,1.5915039,1.985473,0.2172039,-0.46803412,0.98745877,1.0909512,-0.20764922,2.1080537,-0.6023715,0.12400428,0.58668065,-0.03499943,1.8223242,-0.2824134,1.1623582,-1.778281,-0.53627807,2.6431465,0.40356082,0.36731282,-1.6162331,-0.9197465,-0.33258796
experimental_model_of_disease,1.7923888,-0.39179727,0.5140384,0.41285306,1.202887,-1.3532735,-0.4791051,-1.6882902,-0.37066916,0.45869672,0.74711597,-1.1852231,0.15853094,-0.6156003,0.75211895,-0.7557824,0.2121824,0.2660713,-0.47298348,-0.16691488,1.5859755,1.4771359,0.024551518,0.738677,-0.09713502,-0.9569213,-0.8246094,0.40288812,0.656654,-0.49597093,-0.8603411,0.016329108
family_group,-0.4451115,0.94427955,-0.54455346,0.29157427,0.3411207,-1.3651677,-0.25928646,0.08198502,-1.3524051,-0.9295945,-0.7253842,-0.30278885,0.07186917,-0.6992701,0.01915838,-0.106738456,0.36444458,-0.5906726,0.55116415,0.5296391,-0.8550786,1.0590099,-0.013432516,0.7526931,-0.77106184,-0.82650626,-0.01954918,0.21821013,-0.12338204,-0.3602335,-1.8545101,-0.6491374
finding,-0.17321366,-1.2021381,0.09793759,0.3624086,-0.7465361,-1.2689458,0.0032708184,-0.3897231,-0.047078744,0.38715568,0.16625333,-0.43101758,-0.108267926,-0.5601693,0.74158597,-0.47635603,2.0779483,-0.7685911,-0.4500636,0.09664962,0.49274242,1.1580936,0.12829953,0.8290617,-1.052784,0.08766313,-0.33877102,-0.39888704,0.10121059,-1.4839026,-1.9743111,0.7636558
fish,-0.111825146,0.1865811,-0.4069216,-0.30889943,0.28104258,-1.7748475,-0.6999816,-0.011026118,-1.5868804,1.8507407,-0.54043627,-1.1880852,-0.6891696,1.2330729,-0.26280698,-0.07848678,0.56182915,-0.3649271,-1.0409938,-0.04746392,0.94489,1.7201588,0.37988392,0.57745284,-0.7851604,0.13440953,-0.22972247,-0.5918824,-1.423631,-0.43964446,-1.0833411,-0.13844195
food,-0.9103226,-0.03353408,0.40399903,-0.5096575,0.5916611,-1.8993988,1.0889878,-0.99198323,-0.42694604,-0.145622,0.06142558,-0.18107174,-0.41930073,0.04897896,-0.13754158,0.6973884,0.869166,0.18267293,-0.5579079,0.08556799,1.2406875,1.7200018,0.49480695,-0.36507493,-1.2000805,-1.9149185,0.9279969,-0.84806734,-0.3864547,-1.2561098,-2.0759668,-0.4478944
fully_formed_anatomical_structure,-0.3014697,0.38929453,-0.20001733,1.3084787,-0.8479331,-1.1519152,0.8190434,0.12883839,0.1310469,0.9877618,0.27001035,0.051881764,0.9777484,-1.0298599,0.0626485,0.80149245,0.120921336,-0.9603266,-0.6658282,0.08692147,1.0433893,1.1413746,-0.8079154,-0.5631078,-0.41463187,-1.0650653,0.04498022,-0.15022051,-0.30484357,-1.1469976,-1.3868685,1.5290749
functional_concept,-0.40940022,-0.31452584,-0.62245214,-0.1874242,-1.2371702,-1.5228121,0.2180709,-0.5467544,-1.112647,0.044053175,-0.7249011,0.9179838,-0.42845288,0.4962222,0.514147,0.4767338,1.522606,-0.45581672,0.37308392,-0.625013,-0.8103635,1.7853132,-0.70393354,0.44263378,-1.9450605,-0.8871496,-0.35693136,0.8876145,0.7438054,-0.76734203,-1.1774205,0.07111434
fungus,-0.7561316,-0.16158755,-0.22410078,-0.55368304,1.1714052,-1.62333,0.20919317,-0.030103281,-1.1537607,2.110032,-1.0810199,-1.1181772,-0.02941563,0.86409956,0.66791946,-0.3207939,1.1649328,0.030757852,0.42291194,0.6605559,0.76474434,1.3950434,0.09086044,0.6505562,-1.0453889,0.48662943,-0.6660838,0.5766767,0.10520236,-0.24598496,-1.6469053,-0.52815634
gene_or_genome,-0.8562888,0.35892895,0.9022045,1.1455957,-0.6037792,-1.5486537,0.27809888,0.024874331,-0.24117658,0.38495055,-0.4344364,-0.5755563,0.18404818,-1.2939216,-0.29126093,0.91896284,1.0544428,-0.49595994,-1.5693592,-0.18709102,1.4073677,1.3204851,-0.98931634,-0.417154,-0.23310716,-1.2625536,-0.21021935,0.2367038,0.06561865,-2.1522238,-0.57875973,-0.107884035
genetic_function,-0.20073384,-1.0241601,0.83187515,-0.7557511,-0.49011454,-1.0849067,0.55416507,-1.5617639,0.22234444,0.7477448,1.2376308,-1.4810332,0.6335755,-1.364304,-0.19793196,0.9592381,1.4592268,0.0928755,0.39277658,0.9279993,0.53609866,1.376103,-0.44776192,0.9309036,0.053089768,-0.84694856,-0.6930353,0.51797396,-0.7372085,0.6248735,-1.2070137,0.04996392
geographic_area,-0.1585446,-1.0421743,0.43398312,-0.60882485,-1.8958601,-1.6016202,1.5004374,-1.1357516,0.43387842,-0.24977398,-0.19955356,-0.3340404,-0.20756388,-0.24693082,-0.47888547,0.57679945,1.2786047,-0.38332656,0.021146912,1.1093014,0.11310738,1.8770777,0.16822246,-0.29806826,-1.2960298,-0.08904702,0.16891336,1.5201575,0.012264333,-0.52255845,-1.4179358,-0.5746414
governmental_or_regulatory_activity,-0.4107953,0.050851323,0.16308872,-1.7334596,-0.846658,-1.5386796,0.14065221,-0.7079702,-1.1489605,0.6580973,0.32920963,0.27654007,0.44186518,-0.20640013,0.076087534,-0.4286392,1.6437739,-0.80716854,0.28535578,-0.39430326,-0.62111723,1.762863,0.6318759,-0.08590726,-1.9794725,-0.08184397,1.2270234,0.20341267,0.5177426,-0.28157514,-1.5524402,-1.0837544
group,-0.32759315,1.6370796,-0.33803993,0.086914785,0.57991254,-1.7836107,-0.29686815,1.309998,-1.6124238,-1.0880897,-0.66233265,0.1616202,-0.4644535,-0.40546218,0.5314727,-0.42170945,0.52114826,-1.422917,-0.05120613,0.47735685,-0.8516898,1.194982,-0.50946367,0.3816845,-1.0665193,-1.8358585,-0.2455371,0.35352796,0.049851812,-0.2757691,-1.7787786,-0.5916841
group_attribute,0.5392542,0.15004495,0.36055773,0.29334238,-0.57404447,-1.6134917,0.054146882,0.415248,-1.2196712,-0.67484754,-0.6345666,0.31612253,-0.25331146,0.32046318,0.4459557,0.7693169,0.42727262,-1.1884011,-0.5581872,0.65373635,1.2913901,2.4375048,0.7109381,0.08895551,-1.9257393,-1.4223574,-0.4180644,0.77378976,-0.067502484,-1.4460658,-1.9966348,-0.48395535
hazardous_or_poisonous_substance,-1.0642798,-0.005023157,-0.029347505,0.28767434,-0.43185383,-1.6848252,0.8402422,-0.4419533,-1.8897513,-0.9286533,0.4130185,-0.5299781,0.11410063,-0.14619346,0.12844506,0.56752163,1.194496,2.0321126,-0.7543306,0.23938043,-0.0036836816,1.5387852,0.7882849,-0.6676285,-0.08449422,-0.3895186,0.8780292,-0.1671747,-0.2509767,-1.176687,-1.6382345,0.7026989
health_care_activity,-0.5132555,0.39179644,0.49517366,-0.5760973,0.23182683,-1.7425903,-0.13456623,-1.5844728,-0.6752448,0.47708428,0.07261322,-0.7872583,0.21295947,-0.17992595,-0.10386692,0.26721463,1.9297628,-0.94169354,0.77,-0.9993787,-0.42152736,1.7950011,-0.09443936,0.5812886,-1.308299,-0.3857057,2.0246725,0.07603091,-0.079908244,-1.2558913,-0.9914251,-0.10764554
health_care_related_organization,0.012236629,0.6193658,-0.40597156,1.1218228,0.5178634,-1.9348687,-0.51214916,-0.16619085,-1.2124766,-0.16595383,-0.3797937,-0.10033266,-0.16308413,-0.32568112,0.12625405,-1.8255374,1.5203522,-0.61367065,0.12957211,2.7518044,0.36708334,1.4723724,-0.23316225,0.7774447,-0.6755551,-0.9957766,0.6548204,0.6793094,0.17079107,-1.0705435,-0.9440933,-1.0272075
hormone,-0.9131669,-0.38563412,-0.39770135,-0.6553038,-0.19457273,-1.8323754,0.26284647,-0.61108226,-1.6653378,-1.7632486,-0.26924554,-0.2839793,-0.025277631,-0.34776673,0.22420725,-0.61900747,2.0719943,1.5212729,-0.1299732,-0.06764318,-0.46521285,1.4852535,0.08053437,-1.0814549,-0.97659296,-0.023053423,-0.010621486,-0.35991147,-2.204389,-1.8675927,-1.4361143,-0.77806884
human,-1.6524283,-0.23526108,-0.8742401,0.3751849,-0.350926,-1.87709,-0.8377997,-0.049707536,-1.5642762,2.3848906,0.44650894,0.06515223,-0.7207008,0.94129914,-0.26356027,-0.8710563,0.461715,-0.35106197,0.07294126,0.35685605,1.1580563,1.5235894,-0.092691205,0.043523617,-0.0970172,-0.24130726,-0.6644017,0.58561176,-0.93993765,-0.47644228,-1.6210923,-0.45965362
human_caused_phenomenon_or_process,-0.6996157,-0.3897065,0.1636205,0.3717977,-0.34052986,-1.8490471,0.747813,-1.3438926,-0.7967982,-0.15339915,-0.34225503,1.4052544,0.41930917,-0.45841438,-0.23395148,-0.3005544,0.94565237,-0.8169685,0.4133192,0.82933366,0.09488363,1.1629755,-0.36504784,1.5055325,-0.7510484,-0.39580268,-0.33822662,-0.67092645,1.4039168,-0.6378489,-1.8554227,0.75366354
idea_or_concept,-1.7246834,0.5957043,-0.57980275,0.04541879,-2.0327034,-1.5986316,0.084782414,-0.19416933,-0.33447927,0.16320597,-0.4390311,-0.17929994,0.54687995,0.24813965,0.8392393,0.20343731,1.37604,0.26266348,-0.7375905,0.17708533,-1.820401,1.4119725,0.93710804,-0.116833165,-1.5722272,-0.5741829,-0.6748803,-0.46491146,0.91821474,-0.9986404,-1.192394,-0.012257021
immunologic_factor,-0.82098836,-0.60072696,-0.269756,-0.21523881,-0.055597596,-1.4261955,0.06804241,-0.41118646,-1.6517187,-1.9455719,0.69871855,-0.60312366,0.4581466,-0.7121243,0.58057225,0.16358116,1.3901467,0.8636937,-1.0442885,0.13069804,-0.27772343,1.5851171,0.46675953,-0.77410614,-0.7347889,0.23420864,0.78751916,-0.5633402,-1.5030987,-2.1319292,-1.4496007,-0.3807009
indicator_reagent_or_diagnostic_aid,-0.67216825,0.14240454,-0.43050185,0.13135725,0.04757268,-2.0403318,-0.0897154,-0.13256255,-2.0504644,-0.9819779,0.67619824,-0.11340874,-0.24757549,0.12634881,0.11532926,-0.5157334,1.006888,1.8861941,-0.3627874,0.41407132,-0.1258176,1.2435694,0.6016715,-0.15070601,-0.7775027,-0.7447047,0.6062609,-0.089926675,-0.12300204,-1.8033317,-1.903479,2.142647
individual_behavior,0.07609277,0.43436742,0.45602617,-1.1122303,0.7399636,-2.1667585,-0.16719522,-0.7598657,-0.66498154,0.7736746,0.58167684,-0.12876375,0.45861146,-0.10510501,-0.61488754,0.25362957,1.3911572,-0.724458,-0.19691117,1.5383245,-1.6554195,0.98353237,-0.23781638,0.18278372,-0.9387663,-0.62743574,-0.41481572,1.4620343,-0.56225204,-0.35152453,-0.07198759,-0.57655203
injury_or_poisoning,0.7428069,0.39015946,1.8270193,-0.2638717,1.0082203,-0.7991782,0.68997264,-1.0920938,-0.25969455,-0.38485476,0.31452578,0.6083589,0.2092097,-0.21648666,1.1417028,-0.091082476,0.45196944,0.11453384,0.26125845,1.1898209,1.0172358,1.3908721,0.023625338,1.2939703,-0.1442623,-0.71525234,-0.11208062,-0.44366077,0.65285265,-0.7390503,-1.4137775,-0.90866244
inorganic_chemical,-0.33097062,-1.6915565,0.19608697,-0.35113588,-0.8933192,-1.3240174,0.7590016,-1.0449166,-0.8606482,-0.6617663,-0.105015725,-0.33015078,-0.61702776,-0.04221525,0.2658907,0.1639105,0.1027241,0.42662802,-0.5113521,0.31142625,0.83356065,1.4718364,1.6834265,0.29921117,-1.553327,-0.06610793,0.8075294,-1.1540523,-0.6225569,-0.56283367,-1.8708639,0.22947305
intellectual_product,-1.2700739,-1.2831751,0.23479216,0.20050439,-1.1884415,-1.2977504,0.29206318,0.1239687,-0.019601407,0.56209373,-0.23861928,-0.4794528,-0.14584336,-0.41891727,-0.8401027,0.19758713,1.006465,-0.7723279,0.16275232,0.2573042,0.7311713,1.8215097,0.395207,0.6344509,-1.7656969,0.5379178,-0.5782281,0.4302305,0.24485676,-1.7390679,-0.7384969,0.802715
invertebrate,-0.83509916,0.1207522,-0.7025345,0.50217843,0.4058842,-1.9182023,0.38505128,-1.0280075,-1.7065054,2.202876,-1.010934,0.026026817,-0.30011934,0.7628972,0.6338882,0.7011939,0.12924597,-0.05492435,-0.14975479,-0.103261285,0.89540917,1.5970032,-0.038727902,0.3101809,-1.1993824,-0.03137678,-0.7181483,-0.19164829,0.31887063,-0.32260028,-1.3127385,1.2682724
laboratory_or_test_result,0.16534257,-1.0277392,-0.3483352,0.39603287,-0.47328457,-1.7956334,0.06494944,-0.4940412,0.45467982,0.09387076,-0.5799349,-0.08883956,0.7747069,0.036588848,-0.029839043,0.44061163,0.28667036,-0.8493473,0.40778276,-0.092615835,0.82347095,1.1691117,0.5042741,0.41752973,-0.96757627,-0.27603832,0.42077568,-0.21060584,0.050095808,-0.82514197,-1.6880676,-0.25072634
laboratory_procedure,-0.49244022,1.3732808,0.44040486,-1.4983766,1.1506526,-1.8991578,-0.7026247,-1.2268804,-0.74391705,0.68142563,0.7145227,0.10046909,0.07712668,-0.56217456,-0.17692415,0.38408795,1.2840393,-0.733439,-0.082552835,-0.19879028,0.14117497,1.402032,1.412176,0.40801287,-0.3283121,-0.4199202,1.802794,0.2730829,0.42779657,-1.6377592,-1.3164166,0.031276833
language,-0.57499695,0.65920866,-0.13848919,0.6792725,-0.1616335,-2.4863565,0.41901165,-0.28264254,-0.8221523,0.14957085,-0.5772822,-0.18889257,-0.8118458,0.3842009,-0.99759007,0.10332083,1.0946908,-0.5872071,0.5801935,1.3698326,0.8923309,2.3037424,-0.48671615,1.877602,-1.2600731,-0.85268736,-0.42098382,0.6973088,0.11321169,-0.261108,-2.3074038,-0.046151653
lipid,-1.2149807,-2.0191932,-0.20286404,-0.44327492,-0.0018694411,-1.4709294,-0.07582827,-0.5181327,-0.8887947,-1.3538344,-0.2701779,-0.46336603,0.17213829,-0.14967428,0.18658115,2.1580586,1.0916342,0.37894967,-1.0485059,0.488746,0.17392005,1.9284116,0.5167611,0.24329132,-1.7430955,-0.45275223,0.13177869,0.21354607,-0.86776817,-0.5674743,-1.0023671,0.013749081
machine_activity,-0.5748577,2.0297055,-0.40153638,-0.86600506,-0.3213088,-1.8278158,1.1351663,0.08567325,-1.9122982,0.5077184,0.6990212,-0.121325985,0.5594183,-1.1909701,0.1721584,0.2590538,1.502169,-0.42118764,0.5683188,0.2933106,-0.92056817,2.000315,0.09051112,-0.6016424,-1.077558,-0.40758845,0.64097667,0.4713709,0.5802928,-0.75614566,-0.65352744,-0.089189544
mammal,-0.29065314,-0.2845154,-0.10342102,-0.103993446,0.02361098,-2.1226895,-0.2887326,-0.13120739,-1.7439345,2.2681544,-0.8809459,-0.51875335,-1.002143,0.23987222,0.51193494,-0.2698657,0.5693585,-0.31710362,0.0027067545,1.8402945,1.4407533,1.3687956,-0.0039166687,-0.04242493,-0.4737323,0.15875828,-1.298127,-0.27262428,-0.31177786,-1.0226696,-1.09894,0.22425893
manufactured_object,-0.80501324,-0.120248966,-0.48977903,0.61008435,-0.8472744,-1.207325,1.2857594,0.3029234,0.038857326,0.8487127,0.506867,0.3806049,-2.3013318,-0.7620741,-0.32536867,-0.6415617,0.22132398,-0.4963404,-0.754605,0.41949487,0.39764518,1.6609659,0.77329034,-0.90696615,-2.285468,0.55461055,0.24055804,-0.23374502,0.26616186,-1.5636265,-1.2115146,0.44012854
medical_device,-1.0167158,-0.47468954,-0.41478205,0.37984663,-0.58600336,-1.4178308,0.46325555,0.39743853,-0.73423165,0.27178735,0.26678017,0.4904819,-1.8179207,-0.8487172,-0.28654996,-1.0138713,0.35903212,-0.47892287,-0.02859449,-0.19054852,0.7755155,1.5917304,1.5696653,0.030035399,-2.1316388,0.18813257,-0.11911491,0.073290244,-0.10581486,-1.4941144,-0.70583785,0.3726827
mental_or_behavioral_dysfunction,1.3446555,0.19154744,0.56890965,-0.14060852,1.1609114,-0.9597449,-0.27122003,-1.3981194,-0.12514293,0.65859973,0.9756728,-0.9794661,-0.2831355,-0.73752934,0.80184996,0.008016494,0.381523,0.8453352,0.30023193,-0.0713838,1.2518098,1.3341782,0.20380968,0.8329721,-0.39604685,-0.57368696,-0.26476222,-0.065321594,0.29016858,-0.43742108,-0.8801607,-1.5217814
mental_process,-0.25761527,-0.11554209,-0.058035694,-0.055471983,-0.43489194,-0.6498637,-0.56441176,-1.4779994,0.6581596,0.98251164,1.0514301,-1.0545565,0.057796378,-1.0535793,0.14231886,-0.2471284,0.9828401,0.25873515,-0.019631663,0.032837696,0.8255629,1.3057278,0.4397707,0.84283555,-0.5737972,-0.48604533,-0.106306076,0.5811657,-0.40448433,0.21878488,-1.2725297,0.8474199
molecular_biology_research_technique,-0.45348442,0.90911096,0.06532169,-1.0962294,-0.089631826,-1.7307968,0.4159332,-0.1127011,-0.67942375,0.25464922,0.209834,-0.022055456,0.28261462,-0.41722682,-0.13130878,-0.8724812,2.075878,-1.2889009,-0.36589935,0.35382128,0.55855805,1.3545638,0.5552075,-0.17828508,-1.2979233,0.08732421,1.4897351,-0.08919111,-0.8724918,-1.0370934,-1.3238755,-1.473673
molecular_function,0.010274449,-0.16807082,-0.05051658,-0.7906366,-0.44162816,-1.1956583,-0.35369733,-1.3035954,0.0076656,0.6202678,0.7660272,-1.152025,-0.18771763,-1.1932555,-0.10224376,-0.20381185,1.4061809,0.2526652,-0.5373925,0.91369843,1.0561451,1.2615827,0.13657883,1.3269317,-0.08183834,-0.7795167,-0.41587305,0.84267575,0.779786,0.80553573,-1.0028207,-0.042363834
molecular_sequence,-0.40137506,0.5426899,-0.3496428,1.3658357,-1.2311201,-1.6554084,0.93437636,-0.7235794,-0.46018854,0.28682563,-1.806031,0.45866325,-0.070634775,0.18540098,0.6619097,0.07326797,1.5526936,0.16066447,0.57168627,0.6553126,-0.48854056,1.3597713,0.36294422,-0.337931,-1.5480391,-0.07887337,0.27721676,-0.35329887,-0.23091638,-1.127941,-1.2555081,-0.96106434
natural_phenomenon_or_process,-0.052042603,0.13480553,0.65398973,-0.13917299,-0.29748577,-2.083729,0.67712116,-1.3613329,-0.21543813,0.9889783,1.0378671,-0.6085876,-0.8221721,0.2389652,0.57970655,-0.31659615,1.0336652,0.9551203,0.37471586,-0.36976045,0.8704753,0.81084335,0.762761,1.1303997,-0.80013,-1.0704085,-0.27889785,0.34306154,0.87704986,-0.3551992,-0.6112262,0.8985674
neoplastic_process,1.5194967,-0.017291564,0.39982784,0.09487844,1.4172673,-0.95010436,-0.3557791,-1.2973475,0.15080774,0.7709714,0.5327923,-1.4064325,-1.0977323,-0.9312152,0.9479512,-0.3907856,0.340241,0.2958977,-0.27642417,0.44782418,1.4693711,1.4213469,0.7226224,1.2811136,-0.4547289,-0.9151457,-0.40862006,-0.03175981,0.9519885,-0.47220555,-1.4858731,0.032144036
neuroreactive_substance_or_biogenic_amine,-0.4106734,-0.4179375,-0.24602935,-0.1899601,0.07400982,-1.4852848,0.2850745,-0.62351775,-1.3452725,-1.567105,0.36398667,-0.9026175,-0.51993906,-0.47850582,0.08380673,0.92004496,1.1998798,0.8346723,0.07393093,0.48899558,-0.11054753,1.3967692,0.8430971,-1.4733491,-0.99881107,0.2226223,-0.023094196,-0.3054168,-1.4152226,-1.9919617,-1.4963697,0.063294835
nucleic_acid_nucleoside_or_nucleotide,-1.3877083,-2.210684,-0.15273914,0.28632843,-0.39263842,-1.3487508,0.51898324,0.5808642,-0.6518423,-0.87776226,0.64828134,-0.4889754,0.4095661,-0.19763283,-0.16783845,1.9950169,0.9192723,-0.4632875,-0.6683187,0.041973725,0.14860661,2.012684,0.5292016,0.32818523,-1.5226173,-0.8619139,0.71245277,0.02610508,-0.8637331,-0.4807989,-1.4931175,-0.16045436
nucleotide_sequence,-0.16888565,0.1282912,0.5449799,-1.2928399,-1.0676655,-2.117386,-0.10798242,-0.14856039,-1.8188175,0.026903246,-0.42502668,0.30642068,-0.58174086,-1.6678314,-0.7321597,0.36817685,1.5523669,0.032037113,0.33573645,0.44312975,-0.6948966,1.8023804,-0.0051328996,-0.08576861,-1.3016713,-0.40700424,-0.39703295,0.14881462,0.6250674,-0.5222251,-1.4364983,0.22267692
occupation_or_discipline,-0.68932754,0.45864093,0.112242006,1.404742,-1.0072354,-0.77215475,1.2958088,-0.0025918074,-0.25801677,-0.16917764,-1.2441285,0.24986665,-0.83666885,0.7772471,0.07353582,0.8752475,-0.08296479,-0.89902157,0.12288634,0.34426895,0.22205445,1.95224,-0.32549068,-1.1722133,1.3712385,-1.5558279,-0.19683455,0.27504542,0.25588787,-0.058603823,-0.3293533,-0.5156969
occupational_activity,-0.65142983,-0.4112747,-1.0724506,-1.8201603,0.25519612,-2.1126456,0.83170223,-1.1389588,-0.46190193,0.2881161,0.1278577,-1.5140674,-0.49684095,-0.040542208,1.0065486,-0.37798548,2.1308348,-0.48560464,-0.1692312,-0.20503576,-0.5663527,1.0187584,0.5242533,-0.8767236,-2.1752524,0.010047536,2.1916418,0.22124375,-0.8467456,-1.339596,-2.2818508,-1.6343607
organ_or_tissue_function,0.1550111,-0.6521587,0.10203452,-0.5782288,-0.6966479,-1.197398,-0.3160339,-1.5175034,0.25795358,0.7381145,0.43722314,-1.4307646,-0.08961166,-1.0722415,0.023356166,-0.097338945,1.2416955,0.4805411,0.4996117,0.68607074,1.4007914,1.295277,-0.5407007,1.1324135,-0.38208327,-0.93049586,-0.564485,0.1977005,0.81869906,0.38812643,-1.359063,0.03273198
organic_chemical,-0.75201917,-0.55720365,-0.20371701,0.40009958,-0.42545497,-1.3383317,0.9821003,0.31424788,0.009634716,-0.93172824,-0.47322422,-1.4665775,-0.88574094,-0.13642865,0.66215235,1.4616354,0.75668895,0.007617738,-0.8695185,-0.09403748,0.25581443,0.990236,1.1745429,0.8276248,-0.6458051,-0.59067,0.55485404,0.45899594,-0.33479196,-1.1585804,-0.9021485,-0.25194344
organism,-0.8030795,0.4529919,0.9138511,-0.61319,-1.8476954,-2.093244,0.36303985,0.18862589,-1.4079665,1.612191,0.40554228,-0.4497736,-2.118191,0.55132294,0.84033984,-0.14550692,0.25486287,-1.346238,-1.0471991,0.21313432,0.4164242,0.91200083,-0.78844047,0.6970103,-0.46328342,0.3765213,-1.845733,-0.13993089,-0.6753829,-1.0454545,-0.6235498,0.082979046
organism_attribute,0.39635125,-0.15596882,-0.19220321,0.30892012,-0.9234752,-1.4835726,0.34935188,-1.496945,-0.9582297,-0.20334351,-0.59063697,-0.794598,-0.52971274,-0.94468945,0.3616004,-0.23796327,0.19631718,0.6987672,-0.55274796,0.6938673,-0.7190288,1.4985241,0.15334614,0.8274861,-1.0554289,0.49479595,0.078990705,0.74486935,-0.060488664,-0.970881,-0.2976138,0.034585148
organism_function,-0.104399316,-0.21563578,0.49614218,0.3269116,-0.44081652,-1.1276873,-0.27505767,-1.5532955,0.3490172,0.8493823,0.7638844,-1.2313006,-0.33916536,-1.1115865,0.0648489,-0.44097546,0.8759919,0.58741885,-0.014263026,0.181714,1.7678674,1.4763753,-0.5407168,0.92829686,-0.59190094,-0.797613,-0.0524049,0.48474023,1.0470268,0.61051613,-0.88880754,0.13104755
organization,-0.16419296,1.0298519,0.29314712,0.6741952,-0.19741994,-1.6580743,-0.39128497,0.22786844,-0.91995347,0.09252063,-0.7108368,1.0099965,-0.040087733,-0.2502514,1.0680172,-1.6685774,1.2115808,-0.2826859,0.32918027,0.6644174,-0.24091358,1.2442906,0.4052803,0.9835306,-1.1094558,-0.89415973,1.4936032,-0.30098075,-0.21389103,-0.1929704,-2.221691,-0.45353287
organophosphorus_compound,-1.0416415,-1.4863237,-0.33904687,-0.3753027,-0.40052927,-1.1274418,0.9597948,-0.17762463,-0.54473954,-0.9141317,0.052875377,-0.41095567,-0.95066506,-0.36599797,-0.24336225,1.0549924,0.359068,-0.034625974,-0.9620685,-0.27507374,0.5671928,1.8761834,1.4872687,-0.050139956,-0.9959676,-0.9965479,0.29420903,-0.7472783,0.21996644,-0.7660848,-1.6753151,0.29876435
pathologic_function,1.3129393,0.44535592,0.30132422,0.38128373,0.95560557,-0.91920805,-0.004024786,-1.4699382,0.16958869,0.8266932,0.81577593,-0.9299126,-0.14988825,-0.7512898,0.8175664,0.29125944,0.40955466,0.7534364,-0.31320438,0.606905,1.3762882,1.4222006,-0.25215352,0.88452625,-0.46746385,-0.85152495,-0.5433591,0.38931406,0.75780606,-0.4902408,-0.77514285,0.38923723
patient_or_disabled_group,-0.5638181,1.4285522,-0.13819885,-0.43652332,0.65533847,-1.6555251,-0.98551756,0.4891514,-1.6200697,-0.8758645,-0.49656868,0.00053394487,0.11146592,-1.2780216,0.08238093,-0.2819871,0.28595862,-0.67592055,-0.048140615,0.6609479,-0.3212127,1.032602,0.03274359,-0.16088574,-0.36485562,-1.1603988,0.77285403,0.10335977,0.4698283,-0.3714798,-2.1582599,-0.33563066
pharmacologic_substance,-0.7890367,-0.36389413,-0.27795276,-0.50425994,-0.19954102,-1.4903634,0.66095096,-0.35976687,-1.097078,-0.7912929,0.0003442287,-0.017444888,-0.5746015,0.17313242,-0.3803286,0.18737651,1.0318923,1.1693723,-0.45114478,0.6273691,0.32930607,1.5277733,0.5638276,-0.44417936,-1.2635925,-0.9807673,0.25555184,-0.3778044,-1.13094,-1.7439328,-0.6330063,0.35797444
phenomenon_or_process,-1.9995586,0.42957932,-0.044199422,0.090227604,-1.1156069,-1.638896,-0.054986343,-1.0679083,-0.14481802,1.3007753,0.82850206,1.8974264,-0.42370138,0.185048,0.14594755,-0.3002287,1.8429554,-0.16237937,-0.516791,-0.41788813,0.4371411,1.7454176,1.0807166,1.9342705,-1.4519559,-1.3322896,-0.11480375,0.53216606,0.5580177,-1.0200696,-0.91680163,-0.09892879
physical_object,-1.191271,1.0984131,0.077972196,0.11947909,-1.7726845,-1.5699453,0.2469228,0.48290172,-0.6799604,0.99876666,-0.5334787,0.047406793,-3.7078636,-1.0123314,0.9774166,1.1482408,0.014084255,0.4717504,0.5062769,0.78303695,0.7353446,1.2021606,-0.58307123,-0.8358786,-1.5415701,-0.339565,-0.034722906,0.31754443,0.10286521,-1.5034684,-0.15896322,0.8607749
physiologic_function,-0.098290466,0.05201636,0.6488429,-0.43548045,-0.48460487,-1.0695455,0.77625597,-0.92564476,0.012409389,0.9376239,1.2626249,-1.2065026,0.17937598,-0.9706529,0.72659224,-0.50464696,1.3427653,0.67713255,-0.04496426,-0.26697585,1.0900548,1.0939392,0.08741737,1.240448,-0.2731409,-1.0296094,0.013192175,0.67316204,0.16828477,0.56326276,-1.6093134,0.2921843
plant,-1.0053833,0.108870015,-0.59103477,0.09863403,0.6201623,-1.6317647,0.75110775,-0.20619482,-0.9748123,2.0601537,-0.97610635,-1.1113652,0.1274013,1.0087479,0.15454294,-0.0068467213,0.67819166,0.82008755,-0.34012094,0.8214315,0.8562643,1.5732532,-0.2037268,0.72879374,-1.4139427,0.7381023,0.3333175,-0.18391168,-0.0043961164,-0.8302124,-1.7753347,0.1929548
population_group,-0.30174062,1.8409748,0.23430337,0.42027524,1.0780021,-1.6246161,-1.5295771,0.20771222,-1.229779,-0.6026751,-0.8769596,-0.51017493,-0.5222113,-0.8474759,-0.036507413,0.23797901,1.0711436,-0.22916482,0.5514286,0.78925693,-0.53644365,1.3818482,1.0416583,0.9666417,-1.1179615,-0.76400816,0.39269704,0.4619206,0.40891373,-0.41601485,-2.1208885,-0.93347853
professional_or_occupational_group,-0.23675346,0.9721685,0.2925103,0.06483637,0.6323394,-1.610772,-0.108591616,0.6504025,-1.1800017,-0.9202758,-0.59544533,0.9561629,0.39575464,-0.46267423,0.19149342,-0.7026521,0.5787738,-0.4437741,-0.42260498,0.7720871,-0.5089523,1.3385881,-0.012660055,0.007316257,-0.9612579,-1.0021181,0.83725595,0.13400955,0.5572547,-0.13687734,-1.4059224,-1.1635305
professional_society,-0.22326714,1.0969349,-0.24055569,0.98615897,-0.4533254,-1.4880333,0.55661625,-0.46673766,-1.284647,-0.18312795,-0.31920815,0.11981648,-0.07330984,-1.062904,0.076730326,-1.2217054,0.95001906,-0.6579767,0.08722401,0.75436366,-0.14377323,1.5902433,-0.11179519,1.2938671,-0.23293115,-0.9200215,1.4387844,0.07124888,0.280332,-0.60349077,-1.0901295,-0.26975045
qualitative_concept,-0.8170882,0.7248735,-0.54777557,1.4117248,0.52494866,-2.2127085,3.1194465,-0.28132093,-1.2986345,-0.7513065,0.33042794,-0.6159896,0.18630366,-0.23494904,-0.27458766,1.272359,1.1696686,1.1268417,0.036766607,1.5273273,-0.33060607,1.5027182,-1.770872,-0.1758103,-1.2016448,-1.6310521,-0.17999674,0.5437191,0.6532507,-0.93513316,-1.4137172,-0.041917693
quantitative_concept,0.1763935,-0.67941016,-0.6830219,-0.010595299,-1.270296,-1.5369477,-0.054256245,-0.77470773,-0.51327735,0.3386324,0.41468412,0.6898728,-0.5607384,-0.4349302,0.3052131,0.6745561,0.5302496,0.13831446,0.18553843,-0.80437684,0.49025893,1.6402591,0.27090225,-0.36547792,-0.5383873,-0.5010963,-0.0825385,0.24401629,-0.063606516,-0.85379213,-1.6881253,0.6068291
receptor,-0.5355396,-0.13366416,0.1256614,0.38189816,-0.31396955,-1.4476084,1.0317509,-0.5699585,-1.4704757,-1.7371237,0.37924126,-0.6662838,0.43456784,-0.68025506,0.27805522,-0.54218924,1.0468237,1.0848993,-0.9289078,-0.13423185,-0.02369856,1.2922622,1.1015543,-0.52335393,-0.50059414,-0.33494043,-0.4307081,-0.63808936,-0.31803122,-1.1311096,-1.2405182,-0.36882743
regulation_or_law,-0.5374753,1.3709956,0.5124967,0.46973887,-0.5421572,-1.101282,0.8497868,0.43974993,-0.47878549,-0.062027484,-1.332914,0.3835223,0.79141647,0.108136445,-0.19285348,0.42190444,0.5631873,-0.5357201,-0.26735216,0.5744411,0.3972604,2.452015,0.20657025,0.83258665,-2.4351666,0.4350371,-0.34995505,0.12333754,-0.6563372,-1.3200771,-0.40137404,1.6087166
reptile,-0.45158926,-0.17252147,-0.30097753,0.3568321,-0.28033447,-1.633779,-0.42096165,-0.40921217,-1.6332405,1.7895463,0.0885323,-0.5921638,0.35243997,0.45827436,-0.008853051,0.026953306,0.56388414,-0.92621106,0.029608399,0.23237084,0.81964403,1.3458606,0.22394715,0.6127172,-0.8261831,0.31966504,-0.62822,-0.82418406,-0.1107283,-0.23366195,-1.2736503,0.38333502
research_activity,-0.4933343,0.9682159,-0.67054987,-1.1011771,-0.7876302,-1.5949544,0.23984732,-0.42486453,-1.3414787,0.79317313,0.07901865,0.9280963,-0.93808866,-0.33383664,0.11370695,0.21492085,1.8961508,-0.99662817,-0.92102885,-0.2312337,-0.09606883,1.542131,-0.25090146,-0.031257793,-0.9390881,0.69418997,0.20757782,0.40060478,-0.60373527,-0.59762603,-0.96246666,-0.62114567
research_device,-0.8628081,-0.13686526,-0.32891425,0.29355928,-0.7898612,-1.6199417,1.009765,0.3578561,-0.07511462,1.1004633,-0.21105613,1.0016861,0.5331187,-0.35521314,-0.62868774,-0.9806034,0.77310526,-0.4413146,0.31608397,0.6927992,0.37645468,1.7586558,0.08735153,-0.5831722,-1.7427282,-0.0683476,0.22131683,-0.2263266,-1.6415445,-1.9467082,-0.30301765,0.018418022
rickettsia_or_chlamydia,-1.0737602,0.10486886,-0.6229612,-1.1026559,1.0052637,-1.5767567,-0.12687573,-0.04558386,-1.5948395,2.0787382,-0.7784693,-1.7230955,-1.1585517,0.40498096,0.49012437,-0.04792633,0.99160075,0.05395405,0.12573433,0.54078424,0.96694905,1.8158814,0.19811498,-0.24955417,-1.483455,0.66533667,-1.0681376,-0.62350005,-0.05616103,-0.06965308,-0.96818775,-0.18233277
self_help_or_relief_organization,0.07761563,1.3541452,-0.199069,0.86644095,-0.003486936,-1.7909359,0.072019346,0.27094942,-0.4654618,-0.11195351,-0.29730904,-0.20692012,-0.1794871,-0.1650813,-0.19738789,-0.706306,0.9629937,-0.31728083,-0.21165964,0.7309476,-0.12965585,0.9952031,0.19662073,0.76643854,-0.8739019,-0.6720417,1.0608875,0.14747451,-1.247515,-0.1123942,-0.9637953,-0.26255643
sign_or_symptom,0.33070585,0.05077339,-0.41304109,0.01272683,-0.10835111,-2.0187562,0.17119727,-0.7871661,0.27507198,-0.13275251,0.28825969,0.55646044,-0.9244395,-0.43091017,-0.25440943,0.16782106,1.4010563,-0.8403007,0.44061,0.06966294,0.84331673,0.91825694,-0.13288897,-0.36074257,-0.51017714,-0.42627612,-0.6154545,0.24619474,0.3154826,-1.5464045,-2.429065,-0.1785431
social_behavior,0.046856746,0.37643287,0.12731574,0.1093157,0.5930877,-2.0580406,-0.0054564364,-0.47249228,-0.54794085,0.82027715,0.8496802,-0.09467646,1.1830565,-0.29117,-0.14315979,0.80204904,0.8465138,-1.2398896,-0.44806752,0.33125564,-1.5450603,0.7494937,1.5709443,0.056469303,-1.1580809,-1.0092483,0.2751597,0.6905887,0.3749944,-1.0142885,-0.31071758,-0.65019536
spatial_concept,-0.7484469,0.53876626,-1.0637729,-0.039110243,-1.8441709,-1.2280614,-0.02524384,-0.73791134,-0.849895,0.33478695,-0.8145853,-0.381073,-0.43563005,0.018695934,0.826891,0.7342317,0.7521357,0.42686355,0.25874144,0.81108665,-0.4764567,1.3190873,-0.5992641,-0.06438529,-1.6298189,0.2749187,-0.20890713,-0.6036795,0.9361121,-0.16304581,-1.7348421,-0.33584052
steroid,-1.3062643,-1.5553863,0.23342602,-0.9565015,-0.23757553,-1.1513529,0.33716747,-0.63033897,-1.4829603,-0.9921473,-0.19756636,-0.5069218,1.0317475,-0.7673662,0.14524469,1.6742301,0.69769365,0.40104115,-0.97341996,0.80437213,0.83783746,2.0404234,0.33315882,0.43043524,-1.840573,-0.49397603,1.244696,-0.09573701,0.7494446,-1.5879838,-1.6971644,0.20739657
substance,-1.622453,1.6546199,0.51745284,-1.1220075,-1.2360957,-1.8144538,0.7574278,0.43131506,-0.43566853,-0.43857285,-0.15240315,-0.027715988,-4.1242385,-0.06530797,1.1361113,0.882233,0.84384274,0.07662369,-0.27165458,0.5759023,0.3499213,1.5995542,0.04834654,-0.86898386,-1.621049,-1.9008864,0.5423107,0.25190154,-0.24110857,-1.379078,-0.89616644,0.16372116
temporal_concept,0.19386512,-1.0995138,-0.52091414,0.37433347,-0.7763891,-1.6813884,-0.05541659,1.499539,-0.73376226,-0.54052037,-0.60187066,-0.17199647,0.31915036,-0.058265395,0.011344087,0.70679885,1.1542426,0.40497458,0.0184496,0.63899285,1.8882196,1.6662216,-0.54860556,0.10512593,-1.9380563,-0.57314223,0.2640218,0.35286385,2.1480074,-0.3247829,-1.67751,-0.64530843
therapeutic_or_preventive_procedure,-0.6158214,0.67097455,0.71926534,-0.5468194,0.65806764,-1.2045903,0.20221727,-0.06393212,-0.29738593,0.26749662,1.1099763,0.87844515,0.12445628,0.63779265,-0.022850886,0.2871113,1.2642967,-1.0741918,0.41820535,-1.502642,0.55664,1.3676373,2.0288193,0.7747507,-0.9961478,-0.11160684,0.7757506,0.9028754,-0.23627204,-1.4185749,-1.3203837,-0.22109967
tissue,-0.6266074,0.2228614,1.1370592,1.4484783,-0.92015153,-1.5341651,1.5908802,0.9491565,-0.3513827,0.71390307,-0.5222511,0.37603277,-0.09321557,-0.91975814,-0.3287699,-1.0062099,1.1574551,-0.15342247,-2.0019665,0.014062194,0.87452257,1.0889901,-0.70486754,-0.5127056,-1.2166588,-0.7193699,-0.3526088,0.11594717,0.0072786408,-0.71622574,-1.0902183,-0.09325714
vertebrate,-1.2283677,0.29035634,0.048821855,-0.21878275,-0.08339532,-2.2475984,0.5917374,-0.0057040504,-2.1339557,2.1889458,0.10708899,-0.9336588,-1.5340778,0.1864716,0.41103712,-0.50298387,0.43049103,0.14495844,-0.9008779,0.5467939,0.65597093,1.2168287,0.25534478,0.1680667,-1.5879136,0.21036324,-1.5698795,-0.33775213,0.28190252,-0.97689646,-1.2296678,-0.013319595
virus,-0.69096595,0.7141927,-0.4962346,-0.37334242,0.6019293,-1.463936,-0.098976426,0.17212543,-1.1932579,1.6245232,-0.72637403,-1.7458874,-0.15575963,0.7632917,0.885936,0.89475805,0.7715286,0.19863184,0.23170726,0.37132564,1.0969377,1.5480683,0.55408216,-0.78300583,-0.8808431,0.9053125,-0.23324822,0.08914643,-0.8189502,-0.18924426,-0.70432365,-0.49266842
vitamin,-0.7553495,-0.375942,-0.051341876,-0.21835867,-0.15674737,-1.7326869,0.6101619,-0.57343984,-2.1831062,-1.0517625,0.42710838,-1.0837026,0.009355316,-0.51128244,0.098795384,-0.054722928,1.5324805,1.5040356,-0.57366025,-0.16565876,-0.3547832,1.6176703,1.0409019,-1.8167129,-1.2476536,0.851097,0.30218711,0.047525123,-0.48049784,-1.8782082,-0.8307149,1.0205321
