,0,1,2,3,4,5,6,7,8,9,10,11,12,13,14,15,16,17,18,19,20,21,22,23,24,25,26,27,28,29,30,31
person0,0.10605055,0.32708463,0.57970524,0.97907054,-0.09484415,-0.25663522,0.1377646,-1.0475113,-0.53804564,1.237857,-0.3145555,-0.08359598,-0.5549578,-0.49583396,-1.0442812,0.53364563,0.05635662,0.3170244,0.57659966,-0.26040068,-0.87019783,-0.79924136,0.67756134,-1.8884324,-0.9036923,0.3896817,0.27400744,1.3834532,-0.17638382,1.1277704,-0.5593648,-0.5332217
person1,0.47469875,0.35787797,1.0878533,0.8126073,0.43042296,-1.2875855,1.7912023,-1.1643771,-0.6985685,0.8108031,-0.6214105,-0.38445014,-0.46125025,-0.2698247,-1.1494244,-0.541594,0.18685956,0.48462075,1.4677254,-0.86248356,-1.0129958,0.051796257,1.0328038,-2.0195127,0.41362768,0.7377921,-0.11837836,0.91761935,0.36553606,1.1563158,0.8878558,0.4838651
person10,0.45750985,0.13003835,0.627192,1.1140716,-0.4416677,-0.6700815,-0.06906846,-1.9071634,-0.85552603,1.1141592,-1.0417621,-0.9169661,-0.48199964,-1.1549444,-1.0742518,0.45319107,-0.4923134,0.5834154,0.9037204,-0.74266857,-1.022653,0.02317905,0.47712564,-1.868658,-0.16160956,-0.12831843,0.26303968,1.1091949,-0.58400786,1.8811909,-0.40380508,1.1634552
person100,0.14639983,-0.29885024,-1.7576997,-0.65738,0.32641253,0.20882101,-1.2614939,-0.59098923,-0.73536533,-0.8142355,-0.6601963,0.570113,-1.2816067,-1.0585527,-0.694645,0.6564705,-1.329224,-0.8697566,-1.4482905,-0.61885536,-0.94064355,-0.04072692,-0.50681865,-1.5695999,0.6581838,1.2459646,0.79656506,0.67045975,0.99191827,-1.3273566,0.31019977,-0.412608
person101,0.104346134,-1.009759,-0.10930137,0.34379733,0.16990708,-0.64515316,-0.72654116,-1.4841412,0.19723971,1.2853872,0.49426734,0.105154015,-1.1802198,0.53948325,0.7458769,0.15141398,-0.6744275,-0.30614132,-1.0407832,-0.21892275,-1.0602407,-0.9886787,-0.15602645,-1.3026307,0.35937735,0.34337395,0.11937598,-1.2498447,-0.8740767,-0.5613141,-0.08429894,0.43649948
person102,0.44402903,-1.0010215,-0.47186777,0.82550114,-0.49251196,0.14501561,-0.46099567,-1.4785875,-0.113502316,0.81752056,0.85925776,-0.7292354,-1.2737929,-0.4237435,-0.9373192,0.6735978,-0.4295601,0.057364035,1.1675427,-1.8912991,-0.84227854,-0.22172022,0.6325102,-1.0387256,0.06868829,0.6054923,-1.1723775,-0.9622835,-0.9037789,-0.9301145,0.0053765113,-0.11783215
person103,0.785516,-0.18063326,-1.401787,-0.7962169,0.2701914,-0.2077266,0.09464143,-0.87956196,-0.14655015,-1.3182335,0.4847342,0.7541786,-1.0815792,-0.71663743,-0.25650477,-0.15933098,-1.2125666,-0.9007339,-1.2998965,-0.77934515,-0.7659745,1.1319326,-0.9739257,-1.4104334,-0.46552825,1.7739645,-0.0022858093,0.50524884,-1.2880989,1.535612,0.4710739,0.52264935
person11,-0.42522416,0.71936715,-0.025002204,-0.87250346,-0.21418257,1.1188533,0.53722066,-1.4586854,-0.40258217,-0.82740647,-0.5282257,-0.062245995,-0.16018578,-0.020786807,1.1615653,-0.28217992,0.26999584,0.2326344,0.60004085,-0.16511996,-0.6982945,-0.16771561,-0.021637086,-1.6575844,-0.9414215,0.28916135,-0.12401442,-0.44092274,0.7894592,1.1079717,-0.5151954,-0.12186301
person12,0.14237227,0.1207309,0.14767684,0.816697,0.020474223,0.6899501,0.23687577,-1.1243781,1.1268799,0.52282315,-0.7222115,-0.061677102,-0.031079656,0.3330812,1.3062183,-0.15218605,0.052351486,0.5613282,-0.9491717,-0.18525031,-1.2268237,-0.75326383,0.68117696,-1.7520732,-0.6239577,0.21004725,-0.1656996,1.7239,-0.2965793,0.50500154,-0.13574244,0.89706224
person13,0.017437557,0.93663156,-0.19989096,-1.1926204,-0.8905821,0.018935295,0.58737487,-0.7502796,1.1544532,-0.84746563,-0.18989433,0.36428228,-0.33947682,-0.8560255,-0.9251805,-1.145179,-0.9689734,1.1640036,-1.0446855,-1.0781041,-1.070392,2.8443546,-0.44852605,-1.7796787,0.70361245,0.26154962,0.41352147,-1.3204564,0.48163763,0.0015867592,0.19544452,-0.08615884
person14,0.0014993483,0.6571247,-0.005658064,-1.1283345,0.27656904,0.3257498,0.59206283,-0.8282661,0.567712,-1.0587952,-0.24339354,-1.0168339,-0.11826204,-0.74285907,-1.0963938,-1.7668598,0.15735066,-0.045534104,-1.040364,-0.1712232,-1.1335794,0.39185354,-1.3571428,-1.8977904,-0.5190704,1.2815299,0.08794162,-1.5068864,0.13844183,0.8620362,0.49374497,-0.6075118
person15,1.0116901,-0.34395286,-0.33192635,2.0501873,0.20526327,-1.3644162,-2.909317,-1.1605403,0.22798942,0.51464194,-1.0763509,-0.910123,-0.06802104,0.9164959,1.1773458,-1.0050759,0.2934519,1.1062597,-1.5266314,-1.4965389,-1.0409348,-0.45523053,-0.53787893,-1.9897277,-0.756443,1.0516963,-0.18002883,1.1405619,1.2614444,0.74188304,-1.3635142,0.19134218
person16,-0.6786004,-0.56054366,0.15634997,0.715732,-0.09134087,-0.040794615,0.06951352,-1.0541538,-0.16764775,0.62480897,-0.7792636,-0.31417286,-0.26366192,1.1254886,0.71863085,0.4076351,-0.9885012,0.36946222,-1.4545245,-0.8223063,-0.38706183,-0.04403895,1.9152094,-2.0105996,-1.0396175,0.62103784,-0.41518098,0.3749221,-1.5439416,1.1338,0.528986,-1.014322
person17,0.3956277,-1.0240543,0.56146157,0.80095744,0.48532712,-0.07835902,0.20302087,-0.841036,-0.2844602,0.9710722,-1.4024178,0.09705599,-0.08597377,0.94130087,1.167633,0.46684054,-0.5428467,0.9399725,-1.0540076,-1.1454486,-1.1127411,0.3369102,1.5550537,-1.8619988,-1.0879025,0.71209145,-0.9886221,0.7751601,-1.8168225,0.8993966,0.021873944,-0.4074922
person18,0.47568142,0.124142915,-0.46870053,-0.91172624,0.68355244,0.6823844,0.81631553,-0.5085785,0.94149876,-0.785249,-0.7948727,-1.6547658,-0.1682757,-0.9886489,-0.47650036,-0.016334288,-0.6174145,-1.1442655,-0.94172895,-0.03316364,-0.6284547,0.16945614,-1.2284962,-1.9435672,0.052335195,0.8475248,-0.2955371,-0.54375094,0.37268066,-0.19753069,1.6188873,0.13586125
person19,0.36729166,0.28635976,-0.13881053,1.0047129,0.20973559,-1.5936118,1.8219844,-2.076576,-0.07834266,0.97515,-0.169632,-0.08421268,-0.43045682,-0.56810546,-1.0121298,-0.19123188,0.13058348,1.1176459,1.0457488,-0.43136537,-0.56195813,-0.58682805,1.3101995,-1.9907261,0.48345578,-0.0035240706,0.20843093,1.0764842,0.40268344,1.41191,0.6652386,0.5655869
person2,1.100696,0.7440589,-0.5452186,1.0295622,0.38299143,-0.63967496,-0.31646684,-0.21603376,0.30794322,0.1626333,-0.053909004,-0.7199617,-0.11281363,0.6174424,1.2139344,-0.97272426,-0.34077474,0.004642902,-1.2880777,-0.9630407,-0.86793166,-0.33004364,0.17936856,-1.5581664,0.5797252,0.9722429,-0.7259933,0.86122704,-1.8898662,-0.8747204,0.50254554,1.0993055
person20,-0.46018648,-0.41975185,0.24772033,0.6938568,0.019248812,1.2309191,0.40975165,-0.28732833,0.91726226,0.6508565,-0.88251597,-0.48120797,-0.2638326,1.1813148,0.5111736,0.61861634,-0.78560024,0.10999456,-1.3841248,-0.8315362,-0.9162507,-0.61832774,1.1802443,-1.9648764,0.31620902,0.50323266,-0.7059758,0.20169833,-0.5780701,0.7472286,1.1172217,0.11526947
person21,0.22786972,1.4545783,0.035958655,1.0671651,-0.8394048,0.33471,0.6342305,-0.61717105,-0.6623844,1.1461453,-0.8810314,0.39394844,-0.29120666,-0.63776326,-0.92500377,0.82068783,-0.27542552,0.30321497,0.9830348,-0.16961794,-0.73485106,0.23880686,1.6504312,-2.2790015,-0.2702215,0.963324,0.03199122,1.4382032,0.26283044,0.14303511,-0.5071875,-0.07939502
person22,0.9720586,-0.48923084,-0.27683717,-0.7056121,0.23921625,0.0405485,-1.1060119,0.021324508,-0.7999333,-0.21410029,0.40523657,-0.47642872,-0.074402615,1.2203807,0.96446985,0.30206463,-0.5278472,-0.011719847,1.4845376,-1.8046551,-0.65634453,0.37397987,-0.9289582,-1.8382336,0.25909016,0.92675394,-0.15899043,-0.6886034,-0.29135624,-0.48252708,-0.01842238,-0.7684902
person23,0.52599436,0.17336398,0.05879498,-1.0363346,-0.3893313,-0.665079,0.99220103,-0.94174266,0.036647327,-0.40376037,-0.26813352,-0.71599007,-0.09635526,-1.1350374,-1.1511197,-0.12445609,-0.27236715,-0.46419534,-1.273845,-0.94094276,-0.7983822,-0.28789884,-0.8046856,-1.6333014,0.24731219,0.673304,-1.2841014,-1.1575345,0.5756419,-0.723215,-0.23099807,-0.3388539
person24,-0.0034804768,-1.60412,0.86036915,-1.1007307,-0.5723958,-0.8448851,0.82615334,-0.76744795,1.2947564,-0.8582577,-0.6835414,-0.04751561,-1.0529412,-1.1128371,-1.4097224,-0.045387547,-1.3240802,-0.8662773,-1.2790889,-0.30123162,-0.78987527,0.08484211,-0.9061751,-1.8988231,0.63678366,1.1932281,-0.49816138,0.055106614,0.7913656,0.10923547,-0.028674215,0.26761395
person25,-0.2926821,-0.32009348,-0.469671,-1.1074394,0.74306214,0.82469195,-0.17689015,-0.68992215,-1.5241989,-0.6582482,-0.96463424,1.2919321,0.085167475,1.750804,0.20634899,0.96611744,-1.4516374,0.09988007,0.9094626,-0.37478787,-0.36025748,-1.0661057,-0.1355161,-1.7890536,0.18045425,0.47247496,-1.3078133,-1.0375054,-1.8626914,0.40509415,-0.014556888,0.30858755
person26,0.12126773,-0.19762622,-0.614615,-0.95442754,-1.1803117,0.003989108,-0.004112616,-1.3056786,0.88961536,-0.9806856,-0.6311372,-1.0984472,0.5638949,-0.89707553,-0.8395158,0.20870453,-1.5703645,-1.1530997,-0.7130391,-0.66149133,-0.44204742,-0.5349112,-1.3054651,-1.5096834,-0.3502274,0.7892994,-0.6734098,-0.06109451,-0.007288549,0.8800315,0.49631163,1.5410682
person27,-0.3669054,-1.0113853,-0.31276932,-0.7791249,-0.41515175,-0.86825484,-1.2615573,-0.63412476,-1.2319902,-0.58081955,0.2795374,-0.11354339,-0.24929345,0.8371283,0.9710791,1.3648334,-0.38345936,-0.019901358,1.229899,-0.7585245,-0.816202,0.53953034,-0.28889346,-1.7969552,0.5286653,1.0305666,-1.6407099,-0.06547594,-1.0125641,-0.8133936,-0.40209374,1.3110632
person28,-0.44720852,-0.6425796,-0.30840066,0.6904863,1.117468,1.4456811,-0.4280993,-1.1805297,-0.51296216,0.83809257,-0.8640712,-0.38651955,0.19027375,-0.08436099,-1.1721504,0.9025187,-0.0052607656,-0.20175496,1.2359457,-1.4890596,-1.2200029,0.032809656,0.7789843,-1.3776244,1.1335586,1.0589691,-0.64297795,-0.35392654,-0.58689475,-0.6459465,0.5611489,1.0068018
person29,0.18118113,-0.48150384,-0.28373337,0.4011698,0.9633286,0.21692301,0.11901834,-0.7600877,0.8471561,0.7871904,-0.6841837,0.5987496,-0.0028683804,0.46981713,0.66862375,0.21990447,-0.5956547,-0.4172447,-1.1451354,-0.8361456,-0.9200512,0.83418167,1.2717763,-1.5886376,1.0963018,0.45622683,-0.52417207,-0.9709577,0.8050332,-0.3594501,1.219259,-0.2280829
person3,0.07975735,0.7731115,-0.25016198,-1.0443351,0.5749255,0.23974274,0.106483765,-0.030326528,0.4497167,-1.0598687,-0.8550158,-1.1430445,0.19383404,-1.0421104,-0.7430567,-1.6649553,-1.3469944,0.27631322,-1.1734909,-0.3967731,-1.3065287,-0.26693553,-1.731782,-2.1608787,0.14072539,0.56973404,-0.10225069,-1.1530333,0.16814253,0.98777694,-0.7485443,-0.7343154
person30,-0.18256459,0.08621726,-0.32283652,-0.55915976,-1.0336646,-0.12589796,0.41628027,-0.6898507,0.6679985,-0.814608,-0.93512845,-1.3559822,0.30433065,-0.7690135,-0.7291389,0.39501306,-0.7874938,-0.7630582,-0.79630136,-0.41677192,-0.6257517,0.33655393,-1.1151762,-1.5167283,0.51553696,1.0934157,-0.17291214,-0.6030915,-0.067383975,0.6309378,0.15120728,0.38737938
person31,0.47186896,-0.95837176,-0.21906596,-1.0715485,-0.4115008,-0.6740553,-0.8596666,-0.72216976,-0.9161866,-0.8764114,-0.79297274,-0.39886332,-0.3083353,1.3251567,0.6015095,1.2632573,-1.0835007,0.061994657,1.0321137,-0.86584646,-0.59663886,0.28638104,-0.3092549,-1.9553833,0.32678822,0.70249814,-0.9156611,-0.5360665,-0.26246426,-1.4381813,-0.91872096,2.304186
person32,1.0280545,-0.19534437,-0.2066574,-0.8208663,-1.3690733,-0.111658975,0.73842365,-1.265447,1.3625739,-1.279081,-0.8217923,-0.6878719,0.6240367,-0.555057,-0.89618695,0.08254402,-0.56679285,-0.9839872,-0.53010863,-0.50122166,-0.6394452,-0.14157727,-1.3518668,-1.6153275,-0.4569964,1.1986818,-0.43237948,0.16150777,-0.7415688,0.5799712,0.8506195,0.9854269
person33,-0.41548815,-0.9528636,-0.64530796,-1.2135713,-0.5060277,-0.5268385,-1.2984892,-1.1046903,-0.7588455,-1.1642821,-0.14987351,-0.34099457,-0.2295364,1.1291097,0.56317306,0.61167365,-0.43881398,-0.12491813,0.7425137,-0.5505115,-0.6991165,0.9416957,-0.7894549,-1.7738576,0.44580445,0.4048734,-1.3623008,0.26671723,-0.13236184,-0.7344964,-0.48976123,0.42082968
person34,-0.13993622,-0.7623591,0.18038844,0.6958116,0.9021522,-0.07147674,-0.029227406,-0.5844542,1.4985968,0.81745595,-1.0352725,1.0940742,-0.43606067,0.59218115,0.8544851,-0.1154697,-1.085977,-0.34693623,-1.3819782,-0.97884214,-0.7971637,1.6421272,1.1711003,-1.8616598,0.27827302,0.6347417,-1.4727488,-1.0511426,1.2922946,-0.41909596,0.70162004,-0.32004002
person35,-0.61950123,-0.42271498,-0.12507547,-0.9265177,-1.5356047,-0.063106544,0.059878614,-1.3926597,1.1606772,-1.2135866,-1.1703198,-0.940379,-0.053667255,-0.8592169,-0.9938704,0.21176635,-1.0994729,-1.2323903,-0.89152694,-0.54311377,-0.5383891,0.76715827,-1.4537737,-1.7996354,0.25428304,0.75419176,-0.36542082,-0.06709206,-0.5518609,0.7765244,0.8950452,1.4121842
person36,0.39998785,-0.06390422,-0.54280055,-0.73944527,-1.5092528,0.083028056,0.45496637,-1.3425578,1.4409039,-0.8954486,-1.1997038,-0.8665922,0.13106236,-1.1561372,-0.97677076,-0.41452464,-0.8985907,-1.3206887,-0.7159112,0.16639782,-0.43576047,0.9463389,-1.5297127,-1.7828629,0.33418334,1.2846882,-0.6462397,0.022589915,-0.16916575,0.5858414,0.7673629,0.8288119
person37,-0.4907282,-1.396317,0.1197877,1.1793771,0.7348018,1.2765486,-0.55403423,-1.3258945,-0.22207884,0.8106133,-0.5561349,-1.2161517,0.13884574,0.20070095,-1.2370561,0.6020325,-0.3481283,-0.37277222,1.3257934,-1.255199,-1.2367979,0.1754515,0.83893776,-1.4788531,1.0403572,0.63198525,-1.0033096,-0.6334889,-0.5828149,-0.4670303,0.75101495,0.24924147
person38,-0.0997096,-0.80041534,-0.43095288,-1.2584063,-1.045937,-0.851706,-1.0898533,-0.8097858,-0.4505903,-0.9462597,-1.1317275,0.13336058,-0.27834603,1.0235263,0.7480293,0.71347606,-0.28733003,-0.34073868,1.2116643,-1.1077217,-1.0895951,0.69520676,-0.9202172,-1.6046978,0.43416494,1.0195023,0.0373194,0.1392359,0.1423,-0.39046323,0.26611063,1.0971954
person39,-0.8121422,-0.3210714,-0.9351164,1.2934891,0.5851158,0.902569,1.1681936,-0.8514726,0.88892066,0.66007614,0.4249997,-0.16060825,-0.6747433,0.7882871,0.85120934,-1.5258343,-0.39657655,-0.96625376,-1.0881393,0.33940068,-0.7954373,0.40261626,0.15440883,-1.8558385,0.43701738,0.988303,-0.38672322,-1.2138338,-0.88933825,-0.2858689,0.13230567,-0.32305896
person4,0.16713877,-0.86035913,0.4218828,0.6636983,-0.13943192,0.005969853,0.5081679,-0.60380936,0.13895358,0.4607457,-0.80906546,-1.0313634,-0.32124448,1.1938689,0.75667983,0.1807785,-0.44833794,0.5749696,-1.5949386,-0.7729935,-0.7574585,-0.57232714,1.6555983,-2.1508055,-0.5448176,0.7890282,-0.2690953,0.5601379,-1.0881776,1.4064837,0.8480399,-0.8350559
person40,0.47590268,-0.80321115,0.20947397,-0.8548032,-1.2906716,-1.3714211,-1.3854873,-1.0493252,-0.77131784,-1.1473478,-0.33817485,0.05116429,-0.13360715,0.85235643,0.7081096,0.8632495,-0.0747059,-0.11594506,0.92084587,-0.8570075,-0.8928322,-0.36717126,-0.9212713,-1.5972577,0.5117342,1.3799622,-1.904935,0.002215429,-0.09574893,-0.4982718,-0.78196305,-0.001049571
person41,0.20261136,-0.39077497,-0.586831,-0.7831933,-0.28299257,-1.4143955,-1.5236175,-1.371954,-0.7009503,-0.8965304,-0.47382087,-0.5705465,-0.09768914,0.9528064,1.072639,1.3611339,-0.43005514,0.4762897,1.0361767,-1.0137643,-0.33536127,-0.9378542,-0.31373724,-1.7756962,-0.08957158,0.95363307,-1.4091129,-0.1349145,-2.7128217,-0.48286012,0.028695138,1.5292045
person42,0.110525414,-1.0344876,-0.036991566,-0.40293306,-0.4776095,-0.7200152,-1.0599772,-0.8291513,-0.62217486,-0.7754167,-1.2583224,0.47069496,-0.34031358,1.1478508,0.7962978,0.8206764,-0.51603633,-0.32347444,0.9116375,-0.9466165,-0.57927215,0.90654427,-0.5528585,-1.6195699,0.59497696,1.0614516,-0.23835412,-0.23726556,-0.6757446,-1.2321541,0.2430965,1.2675116
person43,-0.7836358,-1.5194325,-0.39266312,0.83749676,0.9574229,1.5555823,-0.3785592,-1.0060776,0.00066740625,0.77221817,-0.1334919,-0.5215878,0.13198633,-0.30462936,-0.7416909,1.0362265,0.018821636,-0.322641,1.1594231,-1.2263669,-0.99274087,-0.14959045,0.4258373,-1.5196737,1.304843,1.0820326,-1.1914687,-0.37077966,-0.8619392,-0.5875086,0.7707104,0.74317586
person44,-0.31670982,0.009422675,-0.5222625,-1.2956389,-1.3409694,-0.44654822,0.19466427,-0.53670615,-0.09398182,-0.7087174,-0.3297164,0.4346419,-0.18502106,-0.75016224,-1.1132492,0.6078039,-0.39495125,-0.8423694,-1.2280331,-0.5189191,-0.83484095,-0.22318406,-0.482697,-1.9184849,1.1813104,1.1032593,-0.15678738,1.4920442,0.73420185,-1.1212919,0.31016353,-0.7462794
person45,-0.38703105,0.42295942,-0.31430805,1.188967,0.15684445,0.09891932,0.37934586,-0.9127531,-1.1968195,1.141338,0.31568453,0.29366,-0.38187402,-0.82802796,-0.60330427,-0.45946524,-1.046483,-0.4118534,1.0945385,-0.20621066,-1.5620029,0.06721054,0.42240342,-1.4616942,0.9395792,0.36064377,0.42924213,-1.0779127,1.0701381,0.7733093,-0.13011684,-1.2439836
person46,-0.16490588,-0.91968054,-0.075735606,0.5067274,0.9014427,0.19778927,-1.7177199,-0.61793417,0.90956664,0.8654677,-0.25650555,0.18790813,-0.85715914,0.38140318,0.732552,-0.018701132,0.0073886067,-0.5075232,-1.5558767,-0.6433742,-0.625479,0.3801806,0.8233999,-2.2085998,0.62206423,0.6906352,-1.2416719,-1.4891638,0.8610663,0.65572375,0.595511,0.032098807
person47,0.14791995,0.22346456,0.53756917,-0.6885289,-0.20106459,1.3732861,-0.6084725,-0.66526616,-0.78820115,-0.4813425,-1.057648,0.3345755,-0.060663085,1.2988462,0.73438466,0.07472373,-1.0325178,-0.31436032,1.2893187,-0.54531264,-2.3328564,-0.6664119,-0.25614578,-1.3196493,0.09934886,0.577463,0.25376034,1.5515484,0.5659399,1.0127565,0.5070492,1.4449886
person48,0.5169814,-0.014824921,-0.13697538,1.6611382,0.9877523,0.7450981,-0.010591945,-1.2526844,0.59725344,0.88423026,-0.9510863,1.157286,-0.016579935,0.17487635,1.3200293,0.69174534,0.017712442,-0.0077171614,-0.9419192,-0.30028597,-1.4662689,1.0534493,0.72230816,-1.6766087,0.36723593,0.28289518,-1.4751409,0.11082903,-0.311429,0.7531799,0.20951565,0.69809055
person49,-0.8621283,-1.4199781,-0.032127097,1.0030208,0.71086353,0.77215225,0.004602769,-1.0402068,0.21005203,0.8314573,-0.055379312,0.03240756,-0.5232069,-0.054706708,-1.1923746,0.048827477,-0.009481423,-0.29811123,1.037519,-1.0397848,-0.7442025,0.949326,0.29147446,-1.5369498,1.159477,0.88271254,-0.7897353,-0.14884049,-1.2603894,-0.91916466,0.52993363,-0.042361535
person5,0.53385276,0.67825085,0.074996024,1.1258608,-0.36861166,-1.7144616,2.3759012,-1.5282922,-0.07736516,1.2818408,-0.6351702,0.770615,-0.33876973,-0.13996929,-1.1016258,-0.50575835,-0.15075807,1.1032249,1.2617483,-1.669247,-0.6291441,0.0463402,1.5316902,-2.209175,-0.24949929,-0.074331015,-0.4085802,1.4966667,0.38847724,0.6136183,1.2352556,0.8173124
person50,-0.2596558,-0.57566595,0.2810225,1.4434286,-0.52033967,-0.5555892,-1.3759468,-1.3585912,0.49437836,0.984811,-0.5700607,-0.66398966,-0.35387105,0.6139564,1.3314738,0.8412047,-1.0781702,0.72971857,-0.9627426,-0.7848985,-0.8844415,-0.094630554,0.47888225,-1.7488571,-0.61771244,-0.0016283987,-0.40488237,-0.24756859,-0.5022699,1.4724561,0.091689266,0.24857348
person51,-0.45638302,-0.11302217,-1.0127695,0.6042573,0.009806601,-0.70280707,-0.27440053,-0.53350914,0.2337757,1.0517306,0.46258223,-0.791622,-0.2352158,-0.48864383,-0.62225586,0.15736942,-0.3251156,-0.3048685,0.8051742,-1.4852916,-1.4386394,0.0928753,-0.43289685,-1.0108986,-0.30305254,0.82821405,-0.48642704,0.6545816,-0.24850695,0.38225636,0.14898252,-0.5089272
person52,0.02035389,1.166947,-0.27105242,0.8578947,0.40734217,-1.3401803,0.85486776,-0.68602574,1.0832629,0.6034878,0.2452031,-1.6524945,-1.3813928,-1.4168766,-0.8270617,-0.035917908,-0.81598395,0.2457887,0.99023974,-0.67380834,-1.4285622,-0.64789104,-0.2949075,-1.1640533,0.7386524,1.3092465,-1.5091174,0.9345368,0.14480047,0.43476504,0.57465214,0.25699404
person53,0.12701115,-0.64402914,-0.6500916,-0.71761334,0.42215797,0.42896006,0.30349794,-1.3228216,-0.13378945,-0.90165466,0.73381346,-0.41877016,-1.3965784,0.3405481,-1.6008244,-0.22116931,-1.4253432,1.0905695,-0.65147376,-0.8266474,-0.88606,-0.28584382,0.7703533,-0.81930745,-0.48385894,0.86469156,-0.13554701,-0.11049182,0.93414235,0.7429418,-0.614176,0.81166106
person54,-0.8029595,1.3608389,-0.8001895,-0.7280314,-0.09152155,0.25036392,0.16599368,-1.0445071,0.24589396,-0.79944825,-0.35797945,-0.8945022,-1.1619321,0.8179941,1.1120085,-0.45887798,-1.4155904,0.7243084,1.0139644,-0.52545905,-1.8746921,-0.7487187,0.7707066,-1.0363077,0.1455087,0.74763685,-0.0642743,-0.5207832,0.19579822,0.6880314,-0.15329407,-0.4666544
person55,0.40809608,1.16355,-1.711708,0.5360541,-0.32858318,-1.4144953,0.73936343,-1.0047537,1.0777605,0.8943779,0.8141515,-0.49803227,-1.1818414,-1.0388117,-0.63673097,-1.6234739,0.060477927,1.3527434,1.2710863,-0.7459689,-1.6271241,0.8442691,-0.40428263,-1.2131916,0.8170185,1.282451,-1.2894386,0.7837582,0.12653506,-0.12879524,0.13204223,-1.1050218
person56,0.34777573,1.1594396,-1.659707,0.4247321,0.45939925,0.006198996,0.61205757,-0.9010879,-0.84296936,1.0136313,0.33304265,-0.9593442,-0.764915,0.83006674,0.9769012,-0.011354938,-0.6254761,1.0651357,-1.1477325,-0.7687417,-1.9479972,-0.3176226,-0.31905085,-1.241439,-0.37161472,0.41538444,-0.13008165,1.1460812,0.40676802,-0.15958516,0.18924645,0.5737409
person57,0.5416561,0.5630755,-0.9238563,0.24980545,-0.3243731,-0.8893356,0.95992637,-0.6963602,1.5313567,0.4887868,0.21260667,-1.9446008,-1.4406475,-1.4902812,-0.8992773,-0.50046164,-0.73845,1.1042857,1.4076287,-1.1016091,-1.3144683,-0.2764642,-0.8179427,-1.3703979,1.0961306,1.3712827,-1.239193,0.9589454,-0.53680044,0.9145027,0.76629126,-0.009141333
person58,0.41881302,0.9871589,-1.1480376,-0.49076283,-0.42643502,-1.3615575,0.94201875,-0.67236984,1.0309353,0.8955452,0.56048405,-0.16898146,-1.1032364,-1.2634139,-0.5427098,-1.7323271,-0.13430429,0.8078243,1.3448498,-0.87778777,-1.8438,0.3787805,-0.040099226,-1.3233069,0.92858666,1.3473493,-1.2134465,1.2363753,-0.569795,0.32138267,0.50289035,0.3331769
person59,0.22812697,0.313464,-0.82731766,0.53027755,-0.14709441,0.7020235,0.6836826,-0.62820965,-0.37889072,0.5587965,0.9355521,0.50882137,-1.325532,1.3377248,0.34967345,-0.32366726,-0.924123,0.98915637,-1.3362951,-0.5079627,-0.6463993,0.39461714,0.1470396,-1.2843741,-0.42920092,1.6865144,-1.0439645,-0.15652525,-1.2928294,0.8915356,0.5929401,-0.47783336
person6,0.049960013,1.943985,-0.54846597,-0.6242754,0.17998725,0.6416455,0.10545632,-1.0536026,-0.22095738,-1.1894099,-1.2384189,0.3353029,0.34797147,-0.17325087,0.78848726,-0.23996927,-0.4780644,1.0769912,1.4666355,-1.3759624,-0.31383798,-0.7356453,-0.16262826,-2.1524293,-0.45295227,0.093876325,-0.19000362,-0.42773387,-0.009999734,1.1053088,0.35706782,-1.4228272
person60,0.43833306,0.4046237,-1.5221004,-0.33607402,0.879654,0.29243195,-0.06089896,-1.3277506,0.16610725,-0.9729183,0.7357774,-0.15463811,-1.2328255,-0.74108225,-0.8710073,-0.60575956,-0.33776486,0.11517376,-1.0017637,-0.8408144,-1.089181,0.058642413,0.42747968,-1.0613282,-0.09536123,0.7529053,-0.93193513,-0.4143372,1.249216,1.349151,0.8686446,0.14859058
person61,0.93743736,0.436463,-0.4790065,0.39113915,-0.014576243,-0.8454743,0.7687994,-0.94576246,0.8563021,1.000836,0.13742083,-1.078989,-1.2165878,-1.3651326,-0.3409051,-0.27100816,-0.4412932,0.42178562,1.0011933,-0.77626646,-1.1153681,-0.06401324,-0.3818904,-1.1485502,1.0747474,0.8742266,-0.93890816,1.5065414,-0.87057877,0.41120777,0.4177665,0.45548037
person62,-0.3151816,0.8350091,-0.38747567,-0.2945064,1.610961,0.69732934,-0.3414086,-0.9110994,0.10495672,-0.7224275,0.09021803,-0.7963102,-1.2286856,-0.5627919,-0.8456745,-0.41997105,0.11079682,0.12695235,-1.3146623,-0.93223184,-1.0194501,0.12776747,0.03211119,-1.1030139,-0.18842266,1.419844,-0.8226368,-0.43336284,-0.49538666,0.9017829,-0.09310063,0.14212556
person63,0.31513155,0.34795615,-1.481739,0.42019847,-1.2610921,0.336353,-0.3129874,-1.1153158,-0.3249614,0.76648986,0.28177282,-0.7515855,-0.17763005,1.6923995,0.13294317,0.70903695,-2.051428,1.4703168,-1.3044602,-0.13908961,-1.122604,-0.25472638,0.46427462,-1.1388879,-0.54965186,1.4332463,-0.8885077,-1.1851345,-0.7290256,1.1487898,0.7817623,-0.9278162
person64,-0.59383726,-0.1461548,-1.6446496,0.105766244,-0.43548858,0.27049178,-0.39266735,-1.1131139,-0.5527089,-1.0222031,0.55697083,0.5098905,-0.8040893,0.7200273,1.1672091,0.51135343,-0.993202,0.38559327,1.1289653,-0.46629524,-1.8128526,-0.1770126,-0.28764728,-1.1617112,-0.44847253,0.65322965,-1.3828346,-0.034965925,-0.13568977,0.8005136,-1.282743,-0.511917
person65,-0.41904378,-0.29355964,-1.0459764,0.3457352,0.047242887,-0.17528173,-0.23006664,-0.50249606,0.019437727,-0.89911973,1.0485818,-0.5587203,-0.9088013,1.0742165,0.60849625,-0.40498054,-0.18754508,1.3508565,0.98142356,-0.9846953,-1.0138491,0.572102,0.12636445,-1.1949588,0.9177979,0.981047,-0.39936963,-0.039183527,-0.7491611,-0.31962854,-0.4072077,-0.9485777
person66,-0.60929185,0.05101694,-0.79711473,0.37914318,-1.4079665,0.2158114,-0.16536158,-0.675654,-1.1080861,1.1736064,0.48831978,-0.6104464,-1.0770699,-1.0027791,-0.9859933,-0.34306216,-1.5090679,-0.037357576,1.4758213,-0.8261809,-1.3867152,-0.3939485,1.2075841,-1.4475099,-1.1273454,1.4355861,-1.5406922,-0.6515932,-0.6598203,-0.46811706,-0.8573368,1.1011372
person67,0.80760556,0.41069582,-1.1266432,0.08582313,-0.16783427,-0.26956248,0.51095504,-0.75340444,0.5762494,0.75730866,0.12330179,-0.92080724,-0.69873345,-0.74835664,-0.9988688,0.51567787,-1.0785842,0.15291065,1.3393922,-0.306582,-0.7728591,0.031359605,0.23269115,-1.2937071,-0.22223929,1.0629658,-1.4013299,0.6687552,0.016541515,-0.16765985,0.22145502,0.8916654
person68,0.49104795,0.08541914,-1.467531,-0.8665079,0.85203606,0.59746957,0.68166095,-0.8445073,0.003522521,-1.1271472,-0.3652251,-0.17146227,-0.6325249,0.7663956,0.6149464,-0.4560405,-1.24578,0.12780914,0.9977968,0.06621253,-1.0183239,0.6739441,0.45834646,-1.3530618,-0.6769536,0.9316404,-1.6375029,-0.67058164,-0.48542446,0.0762628,-0.8912667,-0.40563455
person69,0.34774104,-1.241769,-0.33901614,0.8640016,-0.042460646,0.15652849,-0.26182368,-0.8483592,-0.35973895,0.7751119,1.0709126,-0.099162355,-1.7093885,-0.49894235,-0.9106668,0.627061,-0.77691877,-0.027483974,1.2889392,-2.0777085,-1.2438766,-1.2620785,0.35354036,-1.1388223,-0.16334699,0.8657609,-0.6707866,-1.422665,-0.8448568,-1.1246973,-0.12099778,-0.42083973
person7,-0.5352916,0.6065094,0.3309859,0.7631005,-0.031915158,-0.43186963,0.03563365,-1.4539447,-0.61018604,0.7281628,-0.8362452,0.030547358,-0.28154284,-0.2709807,-1.3046424,0.61229336,-0.17206241,0.41009519,1.114073,-1.1502242,-1.0231254,0.568964,0.13993461,-1.6552114,-0.39441976,0.11210203,0.18504542,1.3117429,-0.47668266,1.6699463,-0.52980053,-0.38018787
person70,0.13087845,-0.39608222,-1.1211967,-1.186109,0.59868294,-0.71532273,-0.056769595,-1.1874597,1.0051154,-0.81310713,0.33514348,-1.0699397,-1.0022798,1.0507414,0.81470853,-0.5644691,-1.1505653,0.5493936,1.5192853,-1.0630972,-0.40960288,0.7552594,-0.23904836,-1.3706138,0.63593334,1.3422151,-1.8257864,0.26026943,-0.6037684,-0.72993135,0.066464,-0.30065447
person71,-0.21763311,-1.2968819,-0.88930964,0.56552726,-0.35468104,0.16556463,-0.27055687,-1.3817905,-0.4436847,0.6467267,1.1939698,-0.56088567,-1.344473,-0.35464105,-1.5090882,0.571879,-1.2646483,-0.2741081,1.7008193,-2.2274036,-1.1162221,0.43880722,0.7038614,-1.241119,0.2942513,0.3900095,-1.2735385,-0.91055924,-0.53253746,-1.2270174,-0.3058336,-0.42660552
person72,-0.29066324,-0.17181,-0.68173254,1.3121578,-1.0475631,1.171747,-0.538252,-1.8785443,0.029746974,1.3879814,-0.33898893,0.19787514,-0.7339941,-0.455972,-0.6130397,0.4598868,-1.417634,0.38617045,1.3345294,-0.98333687,-1.0904784,-0.9075689,1.5363678,-0.9099016,-0.26590252,1.7614352,-0.41354623,-1.3758657,-0.1484237,-0.23546721,0.25590244,0.15654364
person73,0.40824097,0.6921363,-1.3345115,0.02659225,-0.67672855,0.91406757,0.45837653,-1.5703391,-0.10860331,1.2002271,-0.59314156,-0.57216,-0.83799857,0.21545637,0.6471411,0.14145131,-0.63674116,0.11463505,-1.262562,-1.2200029,-0.9738821,0.25383002,0.11717807,-1.0266027,0.6820362,0.7024353,-0.5542311,-1.1826605,-0.5660154,0.23149075,-0.7481161,0.6511209
person74,-0.32499605,-0.23617071,-1.468695,0.28493395,-0.9473087,-0.99656713,-0.17163819,-0.56260383,-0.09533499,0.92560744,0.30197328,0.17413394,-0.5735297,-1.418776,-0.767325,-0.7500681,-1.390922,0.76743996,0.96534216,-1.3840969,-1.0902544,-0.44406423,0.28660655,-1.3458378,-0.11563933,0.65118915,-1.3629389,-0.44956106,1.3014786,-0.36236203,-0.4925553,0.812649
person75,-0.48503757,-0.4115172,-1.2609667,-0.08974527,0.6640522,-0.50801295,0.78215903,-1.1622508,-0.27136934,-0.51834625,-0.032380566,-0.11653761,-1.1578745,0.9706318,0.72814894,0.8291784,-0.7924883,-0.3677143,1.578343,-1.1375477,-0.85896665,0.11979968,-0.45336324,-1.2264099,-0.0021439218,0.80455613,-1.0977356,0.28519437,0.18343708,-0.87311226,-0.29681534,-0.32827023
person76,0.53680986,-0.026709668,-1.7154461,-0.47364274,1.5543225,0.67458755,0.23431443,-1.0245786,0.039766967,-1.2454617,-0.20192307,-0.54166067,-0.5873731,0.7696713,0.5208434,-0.71824265,-0.5511762,-0.051744368,1.4013457,-0.030947467,-1.5324341,0.25850543,0.22516568,-1.4004147,-0.3667571,1.0638236,-1.8225662,-0.6539582,-1.7151737,0.26724687,-1.0193125,0.095967904
person77,-0.028717987,-0.20324332,-1.1008197,-0.1478725,-1.0684199,0.25099716,-0.36647737,-1.326861,0.25110534,0.90708435,0.384905,-0.0074668475,-0.96759474,1.2125357,0.428594,0.7404647,-0.94167614,0.8966193,-1.0236126,-0.11361625,-1.0922887,-0.68816745,0.9179381,-1.1680304,-0.6594917,1.088671,-0.4483092,-0.53842896,-1.1747698,1.5028082,0.65279406,-0.38161492
person78,0.44060215,0.11492816,-0.55569,0.75243074,-0.2839901,1.0393162,-0.7318159,-1.3375177,-0.028217511,0.84093076,0.289541,-0.3595481,-1.3913635,-0.04381536,-1.0369178,1.0917763,-0.33296797,0.10352844,1.136339,-1.372408,-1.0271165,0.6256197,1.2843027,-0.963235,-0.1777881,1.4496381,-0.68413943,-1.3568537,-0.66169125,-0.56866866,0.06253558,-0.31945032
person79,0.7892039,0.86428255,-1.0205626,0.046598397,0.81680995,0.40926683,0.30937952,-0.63348603,0.5184728,-0.8317564,-0.08246317,-0.49887583,-0.8584194,0.88980985,0.44755134,-1.1142473,-0.9137473,0.23114878,1.2836748,-0.56104547,-0.86275995,-0.22727065,0.20630053,-1.3276626,-0.52190286,1.1022346,-1.913633,-0.36680117,-1.5988994,0.326474,-0.5852329,-0.45283186
person8,0.23634098,-0.3765451,0.36733127,1.7397637,0.25208256,-1.2028883,-3.0270267,-0.7390795,0.14880745,0.30790555,-1.0619092,-0.41516262,-0.26947457,0.94772893,1.5264716,-1.0434401,-0.15192334,1.2621423,-1.8163971,-1.9709874,-1.2189286,0.6219219,-0.7737374,-2.077317,-0.90799713,1.2600646,0.1610187,1.1219232,1.2485199,1.0638106,-1.0870696,0.75133246
person80,-1.552252,-0.26257172,-1.7403235,0.118226096,-0.22150247,0.6856698,0.22599132,-0.45559472,-0.23793843,1.2264444,1.1775458,-0.82106143,-0.4084646,0.8094494,1.4941691,1.5488355,-0.5733206,-0.34379023,-1.4210279,-0.49523693,-1.6454949,0.9614924,0.29633984,-1.7513667,0.49261332,1.4039297,-1.9400958,-0.5406984,0.24057378,0.080751024,-0.6600318,0.91099954
person81,-0.97223496,-0.13979292,-0.44718352,1.0202056,-1.0567963,1.537786,-0.96256053,-1.6160965,0.1045482,1.3969959,-0.53312147,-0.7224605,-1.6668435,-0.3503077,-0.6443637,0.21361426,-0.6175696,-0.44999605,1.5019073,-1.4803692,-0.9615844,0.45048058,1.7183146,-1.0808475,-0.72922736,1.958906,-0.6432521,-1.2133459,0.3520168,-0.13082694,0.036631584,0.1427983
person82,0.3747612,-0.2883185,-1.0076317,0.23214218,0.29777807,0.5230584,0.608635,-0.6457265,0.26304078,0.79620224,0.059591793,0.35192886,-1.2232637,0.7556546,1.4047093,0.61822283,0.05006569,-0.3283735,-0.99984705,-1.0429327,-1.395572,0.64497215,0.2166243,-1.2749753,0.81290096,1.0666276,-0.6044199,-1.3448728,1.4740181,0.04982103,0.30439457,0.6930307
person83,-0.33872902,-0.3552094,-0.9162444,0.35735103,0.2834301,0.29369357,-0.38432792,-0.614503,0.32634792,0.81762016,-0.41293925,-0.3382805,-1.3065715,0.5238735,1.0102019,0.4930619,-0.7155369,-0.25533393,-1.1990445,-0.9700313,-1.330259,0.35977107,0.9669072,-1.1716331,0.4149331,0.8015208,-0.56779176,-1.1909132,0.40872467,-0.111573115,-0.28807467,-0.25206324
person84,0.09932474,-0.15087222,-0.29773405,0.24913418,-1.3802736,0.027966613,0.18827614,-0.7447423,-0.8824892,0.9359023,0.99801314,-0.83708334,-1.3407755,-0.9118636,-1.0136952,-0.04084215,-0.9332652,0.51000315,1.4392105,-0.98265684,-1.4399582,0.7371698,1.1972034,-1.3084745,-0.5925447,1.5080942,-1.5365726,-0.3826959,-0.57747763,-0.916464,-1.1211407,0.9315768
person85,-0.6001198,0.2957346,-0.89429474,0.64742804,-0.50108755,0.0359931,0.580067,-1.2281069,-0.23057868,1.1075141,0.7364347,-0.8556457,-1.1766995,1.2582827,0.45960242,0.17227077,-0.8916341,1.2890699,-1.0909475,-0.04693247,-0.7297946,-0.15712437,0.40134564,-1.4668291,-0.7318853,0.919141,-1.1282831,-0.6024327,-1.082996,0.7854284,0.27416074,-0.02706963
person86,-0.13600372,0.7131473,-1.2546717,0.39578775,-0.623237,0.88909656,0.34322095,-1.410195,-0.43746632,1.1114727,-0.36732844,-0.38133252,-1.8527205,0.36690482,1.1322054,0.9090624,-0.41023463,0.17493235,-1.5102774,-1.2861181,-0.9060028,0.62142485,-0.27278227,-1.3942436,0.7256265,1.079998,-0.7207408,-1.571535,0.10659474,-0.311849,-0.934751,0.51879287
person87,1.7750024,-1.2060161,-0.45606834,0.43635136,-0.26970643,0.8320676,-0.29429317,-1.6173936,-0.49015146,0.7516904,1.2717634,-0.87250847,-1.6746292,0.09271702,-1.6818635,0.47935072,-0.9872755,1.5642577,1.3318784,-1.2667159,-1.3027856,0.062960684,1.1117798,-1.1023407,1.1145065,1.0858994,-1.3645942,-1.4074086,-0.09381863,-1.0891583,0.028529365,0.059442747
person88,0.2552378,-0.8400368,-0.8916453,-0.7136215,0.23522863,0.22305621,0.46997017,-1.3166935,0.58024293,-0.637003,0.27258533,0.3307464,-1.1595292,-0.9799952,-1.0511143,0.50908375,-0.7251932,-0.62523466,-1.5180352,-0.51919407,-1.6420625,0.9957465,-0.85045785,-1.2337698,0.76637655,1.6810222,0.93088496,2.0253742,0.062645696,0.39717713,0.38804203,-1.4541483
person89,0.118441984,-0.4609549,-1.2751012,-0.17614754,-0.33132675,-0.21919651,-0.9619663,-0.50780743,-0.060723368,-0.95144874,-0.25191444,0.17972977,-1.0860007,-0.7593989,-0.9299393,0.9287642,-0.93419236,-0.5692431,-0.83294344,-0.636036,-0.9092701,0.32773736,-0.37554318,-1.2869881,0.84108245,0.87823105,0.5922204,0.6016918,1.0225053,-0.6758212,-0.0047455304,-0.61167914
person9,0.6961677,0.5242324,-0.14282131,1.3605767,0.46266523,-1.536518,2.2655413,-1.4912486,-0.3346572,0.73319477,-0.47409353,0.30543622,-0.10884804,-1.1787338,-1.1430329,0.07179707,0.08150217,0.8541991,0.9032574,-1.0188398,-0.88724554,-0.6423988,0.6927655,-2.0953736,-0.3414375,0.2383785,-0.124655254,1.1072919,-0.34416324,0.80615366,1.752642,0.24735449
person90,1.0129354,-1.1345708,-1.1254274,0.8332779,0.09380302,-0.45599997,-0.5814268,-1.0843054,0.84805155,1.198744,0.86321604,0.5652792,-1.6883358,1.2718962,0.39378834,-0.35099125,-1.131506,-1.6110796,-1.1430842,-0.51322263,-0.8490896,0.047062058,0.23564221,-1.4657335,0.39737123,1.1061301,0.118758716,-1.2696146,0.6288232,-0.56743616,-0.05093244,-0.019204076
person91,1.2222029,-0.26995945,-0.38428515,-0.66814,0.09666126,-0.7362266,0.8670357,-1.3730401,-0.040825643,-0.9456736,0.21181771,0.16203612,-1.4527609,0.855517,1.0644554,0.012695432,-0.2201437,0.054184288,1.1699313,-1.1496817,-1.3035874,-0.31324416,0.07927161,-1.2146281,0.042780086,0.6696533,-0.49224335,1.076521,-1.4228135,-1.4421022,-0.3530938,0.493863
person92,0.41479975,-0.5791226,-1.1257241,-0.20903642,-0.37593356,-0.7078565,-0.029856833,-1.2355665,-0.28021646,-0.95430666,0.35461682,0.51841676,-1.2013955,0.44808927,0.76756877,0.9437292,-0.6608538,-0.6536546,1.4355108,-0.98864925,-0.7673054,0.33907983,-0.89356387,-1.2453738,0.50569504,1.0429746,-0.63317156,0.8674948,1.4750342,-0.082704395,-0.48499918,-0.2250673
person93,0.089512154,-0.78071165,-0.8477645,-0.60607153,-0.17884803,0.4093689,0.26617822,-1.0274054,0.011192037,-0.48654512,0.5931726,0.023586545,-1.1421324,-0.76203716,-1.0847403,0.34257683,-0.85943335,-0.47094586,-1.3499564,-0.5245725,-1.4975833,0.5755323,-0.8968027,-1.1835583,-0.16705392,0.9208894,0.7456683,1.4092723,-0.06880626,0.65992355,0.088064104,-1.251315
person94,-0.2178987,0.027325548,-1.2077538,-0.909682,0.38535273,-0.9265233,0.7270351,-1.3763745,-0.55658996,-0.97846806,0.15983735,0.1685982,-0.9943843,0.7981941,0.7494718,-0.016489271,-0.40501937,0.24479975,1.0757906,-0.7781101,-1.3168032,0.40244302,-0.6508958,-1.0431144,-0.10351627,1.0595523,-0.4303561,1.4014258,-0.54757756,-0.84365684,-1.0236349,0.75665224
person95,-0.11270475,-0.58205247,-0.32692948,0.06107843,0.8638508,-0.5230004,0.79393333,-0.82445747,-0.00043473393,-0.48647916,-0.2241875,-0.12936074,-1.6199687,0.96090376,0.6435494,0.6563033,-0.7134754,0.1893902,1.3899053,-0.8972165,-0.56112784,0.026218792,-0.9221779,-1.2615819,0.56416416,1.4173846,-0.9065482,0.590032,0.25663644,-0.75889194,-0.42537612,-0.24651006
person96,0.02490001,0.7765167,-0.21604688,1.1679424,-0.43788192,-0.3082807,-0.15405495,-1.0924532,0.30750957,0.9674343,1.4182259,-1.0982078,-0.75333047,-0.8183582,-1.0425327,-0.2805147,-0.6947644,-0.90707755,0.9447632,-0.8728323,-1.5196189,-0.129888,0.74831903,-1.1965148,-0.25560278,0.8656064,0.36963418,-1.2599453,0.10189619,0.53074455,0.10209409,-1.067148
person97,-0.054756038,0.10091869,-1.2527276,-0.3390341,-0.033943344,-0.46688583,-1.7792196,-0.9093976,0.25504622,-0.7052913,-0.55767035,0.50000405,-1.3559641,-0.9614812,-1.0864209,0.61772305,-0.7458294,-0.7266134,-1.0995117,-0.7466567,-0.90854275,1.0034857,0.6402645,-1.4811808,0.73606306,0.7639892,0.5212885,0.7807219,0.2165736,-1.1377566,0.3521227,-0.6991393
person98,-0.17602414,0.34064382,-0.5345399,-0.053865097,-0.4600577,0.67231464,0.3425215,-0.7074104,0.70813555,0.6091227,0.003119241,0.51834613,-1.5458577,1.0370867,1.1043594,-1.1979485,-1.1275349,-1.3498688,-1.382151,-0.387593,-1.4982018,0.99330264,0.4614109,-1.422322,0.4755356,0.90157735,-0.31551993,-0.9713475,-0.33654374,0.36984557,0.02986419,0.9770213
person99,-0.22526526,-0.37505224,-1.5633904,-0.110020354,0.060205605,-0.53539836,0.0012291679,-1.0275174,-0.5328949,-0.91479754,0.038140547,-0.4991852,-0.82484263,0.68658507,0.7969999,-0.20383689,-0.92100346,-0.2444711,1.2472547,-0.81673396,-0.94418436,0.54951966,-0.8811204,-1.197672,0.04531218,0.7613222,-0.68819714,0.7333143,0.35089403,-0.8412747,-0.6452432,0.28858948
