,0,1,2,3,4,5,6,7,8,9,10,11,12,13,14,15,16,17,18,19,20,21,22,23,24,25,26,27,28,29,30,31
acquired_abnormality,-0.16466913,1.5136844,-0.06846803,0.12822595,0.9835253,-1.0636227,1.0953645,-1.1077605,-0.34171042,0.58812267,2.0687773,1.2437897,1.5158758,1.435354,1.2636553,0.84148073,1.4665791,-0.7130368,0.55711836,-0.11413785,-0.72296983,-0.52402943,0.40412915,0.41208023,-1.1535715,-1.0413951,-0.68995285,0.61294305,-1.7192034,-0.9386719,1.2089195,1.2568283
activity,-0.6394514,0.4181548,-1.3537879,0.1866875,-0.29843748,-1.042043,1.2774422,-0.63066643,1.6064922,2.1085486,-0.29699105,-0.87071943,-1.8931556,1.3775461,0.98946047,-0.27322653,0.5481523,0.021115404,0.3417997,0.71327066,-1.2333747,1.5667394,-0.8637555,0.77973336,-0.32684642,-0.28279358,0.81456304,0.37727597,-1.9712677,1.0833209,2.3776958,-0.03048129
age_group,-0.5415849,2.1138282,-2.5378814,-0.2428436,-0.32019442,-1.5879209,1.5929008,-0.7114301,-0.32460877,-0.8333907,2.1804392,-1.6553289,-1.274937,1.811339,1.1654643,1.5424684,-0.6811799,0.47663143,1.0172688,-0.83560187,0.06980838,-0.73141146,0.6422759,0.8373174,-0.6044306,-0.36468592,0.983455,0.08798182,-0.8388501,0.09743317,0.7933774,-1.8680089
alga,-0.20001395,0.3841742,-0.42949262,-0.16268387,-0.9031178,-1.0800464,2.1455173,-0.9832158,0.026771221,0.95465094,-2.515291,0.7181181,0.33250815,1.4665977,-0.14323187,0.96608335,0.7394571,-0.37958187,-0.2099261,0.07967935,-0.89680445,-0.017555369,-0.17585798,-0.8523204,0.29924023,0.4198756,-0.066845834,0.76476884,0.323615,2.757466,1.5912791,-0.9465021
amino_acid_peptide_or_protein,-0.5180722,0.75756973,0.24610499,0.70314354,-1.3322654,-1.3045309,1.9038475,-1.5431483,0.08543767,-0.6139081,0.41044712,0.7606652,1.0197647,1.2824978,-1.8027205,0.5783663,0.2636543,-0.0753774,1.8640945,0.7171005,-1.1576385,-0.021587892,0.01787823,0.16572325,-0.42175743,0.004718859,0.5469593,-0.41059038,-1.3515576,-0.5205034,1.0172437,-1.8462178
amino_acid_sequence,-1.2106115,0.6085556,-0.7711435,-0.27010873,-1.4404954,-1.7671852,2.4815862,-1.5709326,-0.09373603,-1.2606099,0.3882736,0.08788725,-1.1235574,0.55976474,0.37668398,0.09492032,-0.08114507,-1.3517764,0.25599653,-0.19738264,0.6913152,-0.19387287,-0.09122418,1.5205929,-1.3641747,-0.2936123,-0.37687218,-0.096691266,-0.55279845,-0.056441132,1.6976209,-2.119636
amphibian,-1.4558321,0.46695402,-0.6867025,-0.97026616,0.0021500662,-1.728382,1.4988463,-2.2228198,0.33315158,1.6126634,-2.6329052,0.642222,0.65333897,1.3319552,-0.3212495,0.3551794,0.74461454,-0.12434617,-1.3905444,1.0656658,-0.062782705,0.08913091,0.5696167,-0.21208455,-0.34059626,0.26836574,0.7852146,0.42579278,-0.34566125,1.9284543,1.6520398,-0.55115825
anatomical_abnormality,0.19499302,1.4659474,-0.85553336,-0.25488055,0.8028959,-0.8585968,1.1964529,-1.6190795,-1.1200905,0.8895417,2.1882422,1.3420448,1.7730834,1.3376465,1.3275996,0.118429646,1.3128948,0.09782342,0.9982077,-0.09008388,-0.43819806,0.3820864,-0.6234144,0.32865497,0.045468427,0.03486053,-0.88372284,0.29770204,-1.2804645,-0.8411853,1.3323154,1.2557143
anatomical_structure,0.037320126,-0.22184466,0.08353011,0.31074926,0.44105598,-1.2107433,1.7289995,-0.7589874,-0.31079614,0.52724624,1.4615811,0.15196878,1.7984725,1.2400166,-0.029896602,1.3755275,0.6267954,-0.59454906,-1.4497066,-0.26806882,-1.2336153,-0.09456483,-0.21316081,1.2123246,-1.198248,-0.85860974,0.09865157,0.87423587,-1.341189,-0.32414544,1.5965388,-0.26486006
animal,-0.70526284,0.7540059,-0.7037101,-0.41923952,-0.3421162,-1.6599281,1.8628067,-0.05450815,-0.40188572,1.1692414,-2.1999986,0.26690507,1.0468336,1.4883803,-0.68578684,-0.117710814,1.7773468,0.058139816,-0.6651381,0.68143266,-1.1139027,-0.38140342,-0.45302212,-0.51236194,-0.76174915,0.21720904,0.2159766,0.8247976,0.77016896,1.583303,1.0850502,-1.0015811
antibiotic,-1.3447285,0.88547313,-0.26615196,0.4279438,-2.41813,-1.1274537,2.0806627,-1.3581929,0.25334343,-0.20597376,1.0239016,0.64502627,1.4679848,1.1259372,-1.472739,1.502177,0.7160275,-0.9832509,-0.35264814,-0.3146249,0.17437012,1.1270247,0.48522478,-0.4984959,0.9531408,-1.5592917,0.28651294,0.22650734,-1.4413499,0.013473464,0.85974765,-1.248779
archaeon,-1.0475379,1.4673728,-0.5067097,0.21009168,-0.8248907,-0.9200803,1.9806263,-3.2011585,-0.21362023,0.68431616,-2.823001,0.36508694,0.70859456,1.2569485,-0.2984758,-0.09922558,-1.704763,0.6202088,-0.3032908,0.6630353,-0.09730013,-0.026632844,-0.076219745,-1.1611507,-0.648208,0.06682059,0.36440393,0.7341295,-0.12519185,1.6186475,1.0638859,-1.3251443
bacterium,-1.0917784,0.7911271,-0.42254448,0.2576776,-0.4365651,-0.6326886,1.8238817,-0.4318718,0.451288,0.55923015,-2.2511086,1.0580143,1.5228679,1.4369364,0.028980684,1.4934942,1.0259026,1.5635341,-0.28388098,0.100554645,0.35617185,-1.2346466,0.32208195,-0.14976422,0.44463143,-0.49275035,-0.13673672,1.0433118,-0.123565644,1.9884033,2.1127386,-1.2275841
behavior,-0.33967194,0.20816414,-0.19157772,-0.086463615,-0.025411777,0.92543125,1.1110122,-1.0255154,-0.12167876,1.5775199,0.42544425,0.43039733,-0.6839328,1.2362282,0.6592311,-0.115870655,0.9305293,1.0705161,0.81682116,0.41595346,-1.782188,0.01291336,0.52483463,1.3116438,0.89107335,0.24826972,0.23700945,-0.9498817,-0.95144945,0.6019446,1.3412102,0.0016829462
biologic_function,-0.5457776,0.69866455,-0.41704777,-1.6882328,0.87592393,0.14416428,1.4392564,-0.750692,-0.7750818,1.5687045,0.90395004,2.0672367,0.5570854,1.2373214,0.10315114,0.8614974,0.2858373,0.7681194,1.42272,-0.8160773,0.24110773,-0.4194593,0.14600435,-1.2356133,0.16249137,0.0013506338,-1.4638654,1.4506289,0.16034421,0.3992638,1.0521752,0.17243022
biologically_active_substance,-1.1238843,1.5593013,0.11485533,0.027328081,-1.8371711,-1.4485495,1.4048334,-1.0592595,0.2875279,-0.58698446,0.3631657,0.21344581,0.63473624,0.63980025,-1.4136763,0.3157638,0.92097473,0.0255927,-0.23220436,-0.11070751,-0.64272386,0.17024875,0.5653249,-0.07500835,0.48534265,-0.6859747,0.9365823,-0.28467113,-0.7328464,-1.6430782,1.011922,-0.53463024
biomedical_occupation_or_discipline,-1.2267778,1.4894,-1.176193,0.10736845,0.86852944,-2.183712,0.26151708,-2.1131976,0.7112909,-1.0459355,0.30497292,-1.2485749,-0.49164534,0.3796177,-0.019335598,0.3442224,-0.82968664,0.28874603,1.1094533,-0.65708,0.13942719,0.18477277,-0.685877,-1.985575,-2.1911235,-0.20199679,0.061391752,0.9569779,-2.17919,1.3015534,0.5599405,-0.20630044
biomedical_or_dental_material,-0.21890093,0.46997368,-0.5347996,-0.51513404,-1.2060653,-0.6281728,1.430268,-1.0553336,-0.32422072,-0.41834858,0.5293965,0.37355378,0.653756,0.7576642,-1.1454747,1.0559716,-0.057012238,-0.99002886,0.1217087,0.36921984,-0.77394235,-0.94653744,1.3084637,0.42164567,-0.18097311,-0.037788536,1.086689,0.4027535,-0.4903036,0.34866732,1.5687156,-1.2870287
bird,-0.70996654,0.29179895,0.59881693,0.7563864,-0.50917244,-1.5739374,1.8714863,-2.0467267,0.056302544,1.1024808,-2.363482,0.68460333,0.90707403,1.2665936,0.2456516,0.7210329,-0.8953146,0.040452354,-0.44136992,0.7824177,-0.25117046,-0.4806932,0.29589054,1.8369184,-0.6988175,0.5729718,0.5308515,0.7512887,-0.5679063,2.255651,1.4133061,-1.1848277
body_location_or_region,-1.0218242,1.2552623,-0.9335231,-0.21863332,0.04260928,-1.3877113,1.5621372,-1.6097859,-0.92807454,0.62840056,-0.45380133,-0.54338574,-0.0034357952,0.6568983,0.94708025,-1.0696595,0.7060382,0.9050213,-0.666923,-0.26887354,-0.3031676,-0.34042317,1.3714106,0.7021742,0.24251732,0.27524015,-2.160734,0.71132225,-0.13405333,0.69759697,1.7016287,-1.6702232
body_part_organ_or_organ_component,0.25110674,1.2675476,-0.50361854,0.25797537,0.12146217,-0.2170957,1.7364676,-0.38167354,-1.2568606,-0.11519104,1.179918,-0.9954957,0.85425645,0.619051,1.0272568,-1.269624,-1.6855145,1.0619209,-1.5545981,-0.4288265,-0.8078878,-0.8826403,-0.19134614,0.6696411,-0.5336505,-0.5393983,0.3261919,0.6219689,-1.2453271,0.7803707,1.7839043,-0.7695411
body_space_or_junction,-0.60144365,0.514258,0.417726,0.61284524,0.51582986,-1.6902406,1.3321948,-0.9419918,-1.3019886,0.38241348,-0.38549915,-1.0549113,-0.20756075,1.3922917,1.0390716,-1.3816601,0.058550477,-0.22621384,-1.4209698,-0.675733,0.10754239,-0.057648197,-0.32507175,1.6379659,-0.11132979,1.3490738,-0.729291,0.6856746,-0.12712426,0.23891519,1.3595611,-1.1084752
body_substance,-1.17627,0.640332,-2.0310943,0.59506845,-0.076617286,-1.4160446,1.1977552,-1.4660333,-1.5685339,-1.0504354,-0.20665953,-0.79073447,0.93900126,1.1166844,-0.9476007,0.5550312,2.456856,-0.11377891,-1.5494218,-0.81242466,-0.048364084,-0.6820861,0.21550904,-1.0704805,-0.22559494,0.13963918,-0.23176654,-1.017434,-0.334602,-0.9041472,1.4195769,-1.7325429
body_system,-1.5878388,0.35909954,-1.13754,0.21076202,-0.32009035,-1.4333632,1.2093033,-2.0191684,-0.6389973,0.80002254,0.149751,0.11806505,-1.1259288,1.3825723,1.207589,0.24509358,0.3975387,-0.63462454,-1.2934889,0.7115381,-0.28239372,0.34427515,0.17660123,0.09236944,0.11601503,-2.4034517,-0.040722527,-0.8351444,-0.49148902,0.55832136,1.5624154,-1.8565575
carbohydrate,-0.9257163,0.67535233,-0.9270954,-0.12050464,-1.340726,-1.6047003,2.1951609,-0.6428055,0.043340817,-0.9605154,0.68477756,0.96216685,0.9646077,1.293634,-1.8217053,0.06809573,0.43997,-0.50368685,0.8326119,0.94781494,-0.78057027,-1.0836859,0.5848416,0.12122919,0.46716055,0.08663541,0.2762605,-0.4759341,-1.0418106,-0.35577703,0.6487479,-1.6567259
carbohydrate_sequence,-1.0121566,0.80860656,-0.41785038,-0.454694,-0.33495173,-1.6196464,2.3146102,-1.0432297,0.23255634,1.310745,0.8559171,-0.006338646,-0.7536852,0.880098,0.71959174,-0.3828911,0.11702027,-1.6237245,0.5548287,-0.723231,-0.31870142,-0.4358281,0.69769794,0.9606873,-2.245839,-0.39991397,-0.27251023,-0.21251334,-0.47124258,0.48961622,2.0404696,-2.385447
cell,-1.2559755,1.7070366,0.26683325,-0.61292565,0.20527533,-0.5923398,1.8313037,-0.6398535,0.6490199,1.2585307,0.7523529,-1.4873825,0.9215568,0.9754643,0.95502543,-0.7687392,-0.67952114,1.1106538,-2.2048588,-0.94245636,-1.3061777,-1.3946838,0.69915605,0.44683835,-0.011996219,-1.1674525,0.10382597,1.2424115,-1.6764915,0.9962093,1.2230856,-0.50383806
cell_component,-0.2165297,1.1392936,-1.4617338,0.29368126,-0.5471747,-0.053589176,0.9734181,-0.68011177,0.65645814,0.4656701,0.6718284,-0.79175353,0.99229646,0.89361745,0.74520355,-0.6104903,-0.33957967,-0.0129505275,-1.1527773,0.3076421,-0.5844276,-1.1507725,-0.14157999,0.5886216,0.25963,0.53825974,2.0901759,0.8498246,-1.1272291,0.92368525,1.9605443,-0.94177455
cell_function,-1.0214803,1.8743653,0.018904885,0.39024866,0.022469526,0.11367117,1.777362,0.23217162,0.049263682,0.5544111,0.50316656,2.5734396,0.8228576,1.0461128,-0.038723662,-1.0831834,1.0185809,-2.081191,1.1389928,-0.94839185,0.38182104,-0.50131494,-0.6520488,0.16985187,-0.39850816,-0.53539425,-2.1644087,1.3468055,-0.27398178,0.78326106,1.0014504,-0.0280004
cell_or_molecular_dysfunction,-0.04900454,1.04055,-0.9004332,-0.6795877,0.5053597,-0.15133716,0.95253265,-0.76332515,-0.17718834,0.93006206,0.93426937,1.6920121,0.9676014,1.4655794,1.1391729,-0.18111175,0.50986034,0.22104667,0.76782507,-0.27665052,0.23764493,-0.2584042,-0.22131296,-1.1034697,0.3953468,1.0449058,-0.8578633,1.1032487,-0.9802629,0.34615666,0.64874494,1.276381
chemical,-0.00401048,0.10236647,-2.120691,0.08699434,-0.9663313,-1.9903382,0.77467877,-0.4493321,0.13777775,-0.86890775,0.24536672,0.37369654,1.7239149,1.5255014,-1.5658741,0.43879667,-0.14675815,0.013002049,-0.20499119,0.35510662,-0.5758483,1.0075134,-0.11140835,-0.09502451,0.399935,-0.8099857,0.56821674,0.16084698,-0.7522828,0.12613781,2.1596236,-1.2910334
chemical_viewed_functionally,-0.7644845,-0.1231288,-1.4348555,-0.17496055,-1.0504299,-1.1285377,1.4808547,-0.35627365,-0.02887218,-0.8990053,0.45880613,0.9797218,1.8489096,1.5862913,-1.3657322,-0.10211256,0.6979693,0.073598556,0.14826593,0.29636478,-0.2025021,-0.51811254,0.07130668,-0.34597653,-0.3668552,-0.9075843,-0.039226804,0.5513536,-0.9911596,0.39887264,1.5543752,-0.9361343
chemical_viewed_structurally,-0.73551357,0.29683024,-0.21300884,0.66303694,-0.73704386,-1.5076945,1.7477363,-0.874854,0.5408117,-0.5684589,0.661983,0.47582012,1.1178973,0.88146055,-1.7284803,0.44224533,0.3356748,-0.42821056,0.7656733,0.33921546,-1.0209739,0.7831641,-0.08871263,-0.09391724,-0.07133438,-0.54512537,1.4136878,0.44993505,-1.146722,0.093548514,1.9884765,-2.1171496
classification,-1.2961885,1.7690113,0.68675786,-0.18520458,-0.9571627,0.15091488,2.2267287,-1.5070342,0.85805076,1.3937415,0.29439786,-0.84205824,-1.4672083,1.159219,-1.0288159,1.0200388,-0.09919201,-0.23206052,-0.22352184,-0.66422635,-0.033667803,-0.14151539,-0.41592002,0.43664148,0.35142043,0.2848802,0.02576058,-1.1407367,-1.0014005,-0.07476404,2.0433662,-2.5277753
clinical_attribute,-0.2409983,0.7131105,0.023406843,-0.24380587,-0.4279828,-0.84243065,1.2261738,-1.4262118,-0.17852609,-0.99178064,-0.78012496,1.1078284,-0.12049151,1.6926959,0.5650461,0.40937644,1.5103467,-0.015094194,1.3898156,-2.1854641,-0.36443743,0.78762466,-0.09917756,0.8607072,1.4320985,-0.83095044,0.033162296,0.0127376,-0.85135347,0.40318877,0.547074,-0.6516449
clinical_drug,-2.307618,0.2028503,2.4661667,0.19599807,-0.27924213,0.34678823,2.0789096,-3.2054088,0.791724,0.03487842,-0.029559767,-0.2216531,0.029692896,-0.0050508077,-0.49167636,-0.56239116,0.29102573,-0.661472,-0.029893689,-0.12841228,-0.21929292,0.12197102,1.6017617,1.0840304,-0.098019525,1.0603176,0.008050531,-0.023348609,0.66148263,1.0951056,1.6216843,-1.4013815
conceptual_entity,-0.4057622,-0.16174348,0.23362127,-0.1694376,-0.5537368,-2.6763666,1.694301,-0.09984849,0.92102927,0.07583022,-0.42274344,-0.06593579,-0.993748,0.9886631,-0.12310193,0.7384463,0.1512289,0.1927877,-0.20640476,-1.3542719,-0.051078457,0.11403386,0.14633185,0.9195912,-0.52216494,-0.67704844,-0.6792919,1.212521,-1.505745,0.21770658,1.1969191,-1.0049964
congenital_abnormality,0.09819346,1.0555722,-0.34678814,-0.31328368,0.9811712,-0.6976602,1.017331,-1.0616462,-0.32981816,0.50312394,2.1263947,1.4075006,1.6665734,1.8634894,1.3587154,-0.22847742,1.2246666,0.30586404,0.5147812,-0.46774483,-0.82174563,0.101501375,-0.23425084,0.6686913,-0.5992036,-0.72827166,-0.58568263,0.22318809,-1.3326526,-0.7029771,1.5126525,1.1548183
daily_or_recreational_activity,-1.2092583,0.63641155,0.24429257,0.06926606,-0.8238261,-0.66737896,2.232415,-1.0162553,0.12908612,1.6585304,-0.891485,-0.75629455,-1.4816995,1.5571456,1.4933068,1.037026,1.4635285,1.5668254,0.5918143,0.2473028,-0.9169366,-0.431113,2.0890481,0.15110797,-0.54108405,0.20736015,0.8051818,-0.23209973,-1.1878824,0.6174106,1.3748938,-0.7289222
diagnostic_procedure,-0.6351,1.1609107,-0.25986892,0.34815773,-1.4339167,-0.48236546,0.9472977,-0.8140576,-0.86230874,0.57065123,0.14988023,0.16866305,-1.9433844,1.6491803,1.9098958,0.73760355,-0.5148326,0.13980182,-0.20504454,1.2314231,-0.109148875,0.5205833,0.017202802,0.5235539,-0.7157275,0.57565075,0.77479666,0.83790547,-1.0167278,0.48478305,1.4509555,-0.7883077
disease_or_syndrome,-0.04501972,1.0077127,-0.936257,-1.0119948,0.56854004,-0.28368023,0.9403105,-0.36002272,-0.44113564,0.52863336,0.70384145,1.4540308,0.712629,1.0074819,1.020027,-0.4435422,0.8521078,0.3498887,0.73617744,-0.48843825,-0.5394068,0.28045002,-0.9008017,-0.7817044,0.19666342,-0.12934309,-0.6343142,0.9607256,-0.19187039,0.49017242,0.744381,1.2726433
drug_delivery_device,-0.7060005,0.96215975,0.3443373,-0.8138108,-0.8771966,0.32720724,1.9691986,-1.0269096,0.7019597,0.3517577,0.30983475,-0.022488669,-0.45397153,1.3896257,-0.19428225,0.64956945,0.5426866,-0.1465443,-0.6766702,0.21984968,-0.025854757,0.45989868,1.9538814,1.0521419,-0.549047,-1.328624,0.3363064,-0.3873419,-1.794129,-0.42463884,1.6464646,-2.7296813
educational_activity,-1.0130504,1.3275839,-0.30416387,0.63409877,-1.7200665,-0.2163136,2.195522,-1.7950035,-0.03970503,0.48281986,-0.37919545,-1.5661988,-2.518559,1.3258758,1.054932,0.6921118,1.3724715,-0.3096019,1.620295,0.44166118,-0.03150079,0.18572393,-0.62827945,0.5547384,0.25284228,-0.3882501,0.5728848,0.68091774,-0.97195417,1.2110584,1.5294033,-0.088127896
eicosanoid,-0.72604907,1.6145284,-0.6184137,0.66975325,-0.9392332,-2.3706405,2.098206,-0.4717586,-0.060027804,-0.91380525,1.1022464,0.79103553,1.0888648,2.1077244,-2.3671079,0.6128959,0.46591878,0.10700994,1.5733725,0.15647112,-0.48252043,-0.5585369,0.87997144,0.10543625,-1.4786465,-0.07229113,0.6038333,-0.33230314,-0.6941792,-0.88650376,0.5990194,-1.5576648
element_ion_or_isotope,0.08030619,1.6900249,-1.1471881,0.668509,-1.4739591,-1.5180304,1.8329985,-0.90944695,-0.9084455,-1.1084341,0.2172267,0.11907762,1.3579963,1.3703622,-1.7200167,-0.4791639,0.69341314,0.08602766,-0.7018825,0.88858336,-0.13422693,-0.3225375,0.8729159,0.40700114,-0.15829566,0.29447317,0.6733241,0.93260586,-0.50467163,0.036516637,1.7545846,-1.7772427
embryonic_structure,-1.3740387,1.2925708,-1.8428928,-0.594042,-0.04480585,-0.44422418,1.1130581,-1.7130455,1.8330177,0.31851688,1.1161484,-1.7881215,1.2300961,1.1507509,0.116672374,0.3357758,-0.8377969,-1.0026038,-1.7282735,0.09682921,-0.4344971,0.89106405,0.9232755,2.110052,-0.15937437,-0.6012846,-0.35559323,0.22690383,-2.245104,0.6363272,1.9406624,-0.5731591
entity,-0.81007236,-0.45752132,0.13112783,0.88202155,-0.54873425,-3.2429373,1.646915,1.039975,1.1379415,0.635127,0.2742998,-0.80549634,0.51728904,0.8380891,0.07476519,0.72256476,0.76601917,0.6793064,-0.13779454,-1.9052728,-1.0580604,-0.21684738,-0.0433248,0.49829003,-1.032171,-0.19052844,-0.26473725,-0.13960467,-0.73482573,1.5765244,1.4175957,-2.0173967
environmental_effect_of_humans,-1.2890005,0.2764149,-0.05089552,0.9393893,-0.76182365,-1.8108859,1.7252607,-0.8535934,-0.20384184,0.23978668,0.07739107,1.3546866,-1.3051567,2.981151,0.07180789,-0.5595565,1.1715337,0.7575928,2.637148,-0.61048895,-0.95143074,0.59393543,-0.2917862,0.000766641,-0.60554737,-0.7571266,-2.6125348,-0.6764552,-1.9692351,-0.20762609,1.3878201,-0.34578598
enzyme,-0.6879403,2.1338875,-0.25236028,0.36243472,-1.0392886,-1.3772157,1.4245263,-1.3983123,-0.38372108,-0.347653,1.0183833,0.10995091,1.0499473,0.85166544,-1.5459652,0.06548487,1.2279431,0.11405665,-0.23266557,0.19877759,-0.2539061,-0.5193261,0.73300004,-0.8389899,0.27844512,0.048369713,0.9191441,-0.23468678,-0.70672727,-1.6359087,0.85607404,-0.87995195
event,-2.137662,-0.9611559,-1.3979248,-0.75290406,-0.08959455,-1.4384996,1.8676249,-0.3774972,0.56853586,3.9446454,-0.5009176,-1.3348287,-1.066278,0.9146415,-0.026542218,1.5250978,0.35398617,-0.38022232,2.5359693,-0.5047609,-0.88969105,-0.6273252,-0.0786082,-0.003944223,0.45052278,-0.32682705,-0.31640336,-0.2328513,-0.63762534,1.5785433,1.2217078,0.76722014
experimental_model_of_disease,-0.8078025,0.76917547,-0.2957225,-0.041610744,0.8706121,-0.2606686,0.9107207,-0.4164589,-0.16761154,0.6594512,1.0270711,1.6422405,0.6859188,1.6673764,1.1800983,0.7431715,0.4521997,0.34246942,0.7834217,-0.5474487,-1.4054253,-0.20010464,0.14138287,-0.81757426,-9.2922244e-05,-0.42017344,-0.49843818,1.0288613,0.4653429,0.4828927,0.73645616,1.48255
family_group,-1.0226785,1.2924756,-1.6240968,0.54216653,-0.40069026,-2.756774,1.9970084,-0.7642303,-0.5153988,-0.8589547,2.3230138,-1.2062404,-1.2102478,1.0715736,0.7764251,-0.037691403,2.5548546,0.58235365,0.64424187,-0.17902474,-1.1380439,-0.0381363,0.026543453,0.60595256,-0.21959251,-0.5808768,-0.28796086,-0.075052544,-0.15014167,-0.10691984,0.5494706,-1.3874582
finding,-0.9459271,0.4933776,-0.10559689,0.3656543,-2.1921375,-1.4527276,1.7430019,-0.74728924,0.059768878,-0.77743906,0.56185615,0.03955189,0.48548827,0.8747313,0.9054501,0.4165001,0.5279395,0.74786264,-0.25367197,-1.1306062,-0.30128253,0.7269233,0.809802,0.10739856,0.38767362,0.8946793,-1.3601564,-0.35874254,0.17748597,1.5939837,1.0533925,-0.71918595
fish,-0.8494468,1.0614402,-1.0915309,0.6550088,-0.10767997,-0.9707625,1.424353,-1.5392742,-0.27882785,1.2272501,-2.267868,0.44233635,1.0085635,1.3919127,-0.49463612,1.4838603,0.40040213,0.98773885,-0.6513857,0.31365633,-1.0021279,-0.44589025,-1.1915329,-1.327728,-0.6192564,-0.39265546,0.466129,0.7572814,0.58305615,1.711396,1.3441383,-1.2395236
food,-1.1791011,1.5664312,-2.0914047,-0.12241628,-1.9988085,-1.1459686,1.8583002,-0.28303578,-0.037575357,-0.40609646,0.32503435,0.97429585,0.96334606,1.9384458,0.23324777,0.004587115,0.65870225,0.7153299,0.044053495,0.5977511,-0.43881163,0.16612804,0.48983625,-0.05719383,-0.26685277,0.31253466,0.23450102,-0.13666604,-1.1182346,-0.21384622,1.6096516,-2.450747
fully_formed_anatomical_structure,-2.2466745,0.18474084,-1.5888861,-0.5535767,0.15559086,-0.46093756,1.746848,-0.20795344,0.44585508,0.865961,0.7722187,-0.88425165,1.7326331,1.3973395,0.92363864,0.7090455,-0.93224907,-0.8622353,-0.65690327,-0.22747844,-0.24455638,0.14747474,0.8944007,0.5434206,0.66664773,-0.41398802,0.5371534,0.7859836,-2.2636282,0.83490807,0.49172965,-1.1558702
functional_concept,-1.3630996,0.50518584,-0.49041685,-0.49444234,-0.9343521,-1.0521544,1.4948957,-0.109273955,0.53703505,1.0976394,-1.5173041,0.61783785,-1.0903246,1.643807,0.33178768,0.4060898,-0.5853025,-0.45780075,0.10301523,-0.8226664,-0.385678,-0.07158715,0.1464422,0.18896692,0.35928205,-2.1097226,-1.1088358,0.028506137,-2.0167181,0.5713627,2.1547115,-1.3977973
fungus,-0.6179899,1.4716146,-0.8894752,0.4144705,-0.65889525,-0.7233134,2.076943,-0.8476906,-0.08709176,1.0300896,-2.4139447,1.1158613,1.3501277,1.4395632,0.028359912,-0.21872391,-0.019871451,-0.4321542,0.19851774,0.12658335,0.722346,-0.014746388,0.4990525,-0.6148774,-0.4170832,-0.7538329,0.043626387,0.8384177,0.006489653,2.1317725,1.7167106,-1.1947596
gene_or_genome,-0.297651,1.5819234,-1.9922167,-0.69440806,0.07304048,-0.33712488,1.3508737,-0.44492224,1.1363912,0.39319277,0.78289294,-0.97135675,2.26363,1.0168651,0.6541324,1.5039432,1.2698151,-0.045266584,-1.1853673,0.5231804,-0.6895433,-0.77423835,-0.48816526,0.05772086,0.15125592,0.84178764,2.1383061,0.8869072,-1.8439274,0.97067416,2.031457,-0.86734766
genetic_function,-0.41699314,1.3851244,0.39521828,-0.6911419,0.55260235,-0.21143734,1.8399391,0.07597901,-0.0817557,1.1471324,0.8492913,2.24909,0.4426648,0.9982286,0.17203586,-0.67803323,-0.96179515,-1.698917,0.34267336,-0.67105246,-0.6347714,-0.42111048,-0.04812407,-0.20565034,0.48136315,-0.03093116,-1.8315783,1.3028251,-0.30898252,0.6053308,0.45871255,-0.2725204
geographic_area,-1.3833725,0.60035574,-0.87833095,-0.43749803,-0.68402433,-1.2512537,2.2185702,-2.8103845,-0.7172727,0.1325885,-0.24395598,0.7315864,-0.64205396,0.69657946,1.4577976,-0.18890773,-0.12103821,-1.1857837,0.8825468,0.17680351,-0.40911818,0.13002765,-0.4638337,-0.424678,-1.0635498,0.19196406,-0.91889805,-0.16747144,-0.5913632,0.75825065,1.1315367,-2.0814645
governmental_or_regulatory_activity,-0.8448827,0.973188,0.96138597,-0.48810917,-2.1796737,-0.15283896,2.3932493,-1.6264813,-0.54172736,1.0967093,-0.24052256,-0.43741563,-2.8549242,1.6425159,1.7238572,-0.13668495,0.71648765,0.21051814,-0.6226347,-0.5374949,0.13823454,0.15656893,0.62530917,0.5924964,0.4421562,-0.57774353,0.6881531,0.5998808,-0.42906082,0.703882,1.8034971,-0.3951209
group,-0.42085496,1.3113658,-1.3265125,-0.024222711,-0.4872898,-2.45326,1.0847391,-1.0976666,0.5630471,-0.8843801,2.5993154,-0.6013782,-1.2153072,1.6546909,1.1598995,0.73298174,1.3974571,0.49144918,1.2093548,-0.8303212,-0.44954482,0.27641,0.11152824,0.6673469,0.19857574,0.328666,-0.032689705,0.21000168,-0.43945223,0.008260354,1.5190529,-1.5475359
group_attribute,-0.9171045,1.4737661,-0.45998186,0.24715942,-1.161174,-1.873353,1.5303285,-0.7199674,-0.051094826,0.056940604,1.5408396,-0.3536868,0.28181803,1.7891208,1.3266048,0.17126074,1.5902032,-0.7138341,1.0605522,0.53048426,-0.13923807,0.51415825,-0.24067467,-0.042118303,-0.90964097,-0.56794643,-1.413192,-0.7110255,-0.9994585,0.14020093,1.0688032,-1.2505357
hazardous_or_poisonous_substance,-0.5170845,1.4500474,-0.20169835,0.2684614,-1.7056313,-1.4701148,1.7482579,-1.5182016,0.28898662,0.41944563,0.8313294,0.22148871,1.3530744,1.2423794,-1.7439007,0.490589,0.6044803,-1.1303487,-1.3876846,0.32708243,0.30564874,-0.9362555,0.3526891,-0.7993529,0.3331127,0.18990351,1.2481974,0.032823198,-0.42283264,-0.28087917,1.4389321,-1.2601802
health_care_activity,-0.48882958,0.95663834,0.5432396,-0.11059432,-1.4919426,-1.072739,2.002945,-0.8891692,0.48518562,0.62910175,-0.24389592,0.80852103,-2.2138014,1.3427919,1.4827526,0.76308924,0.12893836,-0.42399088,0.6375664,0.6280393,0.20619793,-0.23478931,0.46667057,0.11746243,0.59437615,-0.47740275,0.73896176,0.058090873,-1.4322867,0.70397514,1.1938877,-0.09713728
health_care_related_organization,-1.6622481,1.6199808,-0.88735473,-0.33532873,-1.2050906,-1.5173948,1.1319386,-0.15634769,0.68278843,0.059811577,1.1317693,-0.10040157,-1.9455037,1.6899757,0.7742799,-0.395772,-0.6776323,0.32096812,0.08839499,-1.6962266,-0.67036986,0.3890608,0.007894172,-0.5625432,0.10717613,0.3586858,-1.7686391,1.2303307,-1.9504972,0.33755052,2.3964183,-0.7849031
hormone,-1.0670134,1.8367484,0.085845545,0.6320195,-1.1504198,-1.6063659,1.6106466,-1.5902636,0.31418118,0.16840109,0.87933815,0.095979966,1.5318208,0.9276766,-1.8295802,-0.50650823,1.1233448,-2.3179166,-0.5734843,0.4542652,-0.7267016,0.21561918,0.2615545,-0.67709625,-0.11286654,-0.029242862,0.66538024,-0.15552542,-0.6554528,-1.3663886,0.79523325,-0.7091309
human,-0.3091222,0.38563356,-0.41567203,-0.47925565,-0.3170377,-1.4490197,1.4716191,-1.3294088,-0.35724252,0.8189977,-2.3806827,0.031874903,1.1187204,1.4764389,-0.022864835,1.7083267,0.9042187,-0.008789543,-0.72914666,1.6254507,-1.4760408,-0.72997427,-0.12312816,-0.47714671,-0.15543231,1.164184,0.798109,0.5155189,-0.1629014,1.0550648,1.4915231,-0.72623175
human_caused_phenomenon_or_process,-0.3804029,1.3157637,0.29489633,-0.1681579,-0.64938164,-1.7172219,2.0632799,-0.87541264,-0.2970816,0.03789142,1.4704924,1.2581773,-0.6354731,0.76499295,-0.015312087,0.9126657,0.8108248,-0.8953598,3.7492437,-0.26753974,-0.8222103,-0.6042635,-0.22680949,0.6941243,0.59012157,0.5454425,-2.2092657,-0.34308144,-1.1106876,2.1706707,1.9139012,-0.42270344
idea_or_concept,-1.1815042,0.9456872,-0.56862736,0.6918954,-0.42322025,-2.1445637,1.6877363,0.26455522,0.30845115,1.1105863,-0.035652753,-0.038846254,-0.5651404,1.0812962,0.24056593,-0.16711164,0.062490754,-0.64409614,-0.47077018,0.018734219,0.22086267,0.14636832,-0.20337284,0.6441066,-0.82632774,-0.22903986,-1.7642759,0.441459,-0.8596087,-0.19533867,1.25962,-1.6272589
immunologic_factor,-1.341523,1.050093,-0.086896144,0.5838305,-1.2410595,-1.4494076,1.5867709,-1.1595883,1.0856009,-0.5912229,0.33407322,0.46242183,1.1772342,0.76927966,-1.6791719,0.58553356,0.585245,-0.7084789,-0.5289982,0.7804204,-0.7089604,0.32669288,0.5408872,-0.2762065,0.6176471,-0.48761085,0.6718024,-0.72592825,-1.1013829,-2.3541424,0.9410741,-0.5922022
indicator_reagent_or_diagnostic_aid,-0.14786658,1.0540987,-0.7888797,-0.4193504,-1.0077375,-1.0654757,1.8266897,-1.003565,0.38146815,-0.30046117,0.4075255,0.51289606,1.7816787,1.2799885,-1.6759194,0.68139493,-0.12312458,-0.4155421,-0.19592571,0.13973111,-0.97062594,-0.48327413,1.1850971,0.86587256,0.044815887,-0.17297901,0.2818945,0.60124844,-1.092675,-0.002458402,1.1164551,-1.2432135
individual_behavior,-0.08125033,-0.0040275576,-0.18670253,0.4306628,-0.12835935,0.25304,1.9701377,-1.2975852,0.03373071,1.425831,-0.16942869,0.56732017,-0.62288433,0.25895864,0.8809272,-0.71812487,0.9941957,0.59695435,0.9098848,-0.062111832,-0.80310214,-0.28202644,-0.6781886,1.230628,1.2035184,-0.6672368,0.5518701,-0.8941001,-0.73640513,0.62450975,1.0260082,-0.089841045
injury_or_poisoning,0.059604734,1.413862,-0.49075523,-0.85060304,0.9033814,-1.2976989,0.8393952,-0.6574331,-0.54072416,0.79574996,1.7799976,1.0886669,0.7723822,1.6878419,1.272991,-0.30804583,1.1903741,-0.48578802,0.24454299,-0.56036985,-0.17600697,-0.18990012,2.5939353,-0.58516663,-0.27610427,-0.5940073,-0.7510989,-0.42378047,-1.0823351,-0.98809165,1.1116445,1.3130593
inorganic_chemical,-0.62850577,0.84634227,-1.3653364,1.6729515,-1.4215292,-1.693298,2.0613344,-0.97099805,0.6922797,-0.80620044,0.5611664,0.62933,1.0206364,1.2365768,-1.9568586,0.88638496,-0.15971094,-0.58427197,0.24109674,0.022647442,0.084131934,0.0030141324,0.25458574,1.0348319,0.5051202,-0.32571754,0.86866003,0.3844469,-0.5601917,0.28609017,0.98685247,-1.6889559
intellectual_product,-2.104086,1.5493888,-0.008507168,-1.2325829,-1.1950186,0.29406375,2.4873147,-1.0437602,1.1766398,0.43007067,-1.1203445,-0.68895507,-2.3456028,0.6385209,-0.06804146,1.5312616,0.31759486,-0.3649345,0.28928655,-1.4860843,-0.51299405,0.20236766,-0.17043331,0.41218942,-0.54073226,0.349067,-0.45808372,-0.89872223,-1.6436396,0.36520347,1.4212599,-2.4255068
invertebrate,-0.4765606,1.0047926,-0.2931107,1.4349856,-0.81323713,-1.9390268,1.7971021,-1.1837174,0.52391946,0.08917702,-2.5526843,0.6507077,0.61441463,1.3333443,-0.17581496,-0.17744654,-0.8169583,1.2099278,-0.6402815,0.28977704,-0.0033134464,0.182025,1.2395071,0.5831308,-0.4220214,-0.5674446,0.62771773,0.09585351,0.12227859,1.452928,1.137675,-1.0723966
laboratory_or_test_result,-0.57561105,0.37359098,-0.5522183,-1.6290152,-2.3329575,-0.95410895,2.1034307,-0.22921963,0.5580039,-0.43087202,0.8582005,0.28780958,0.7566471,1.1743358,1.4048209,-0.2976456,-0.11757884,1.0111709,-0.28343046,-0.9734113,-0.32828784,-0.29747537,-0.3256838,-0.17092241,-0.59783214,0.092361525,-0.66334975,-0.29144406,-0.36274147,1.0606618,1.2202849,-0.8200133
laboratory_procedure,-0.227524,1.0251058,0.2679496,-0.28108054,-1.4179828,-0.94558156,1.14558,-1.2701885,-0.5759725,0.46216992,0.6223072,0.1403463,-1.8640862,2.3846374,1.9572803,0.9241715,0.22045018,0.06763716,-0.59718615,1.2970167,-1.1505009,0.35701546,0.6332018,0.69495046,-0.12206396,0.8113063,0.9769638,-0.28365445,-1.2888831,1.4267343,0.76013345,-0.76802385
language,-1.711079,1.9480699,-1.0383528,-0.26139587,0.06701876,-1.4669245,2.4040458,-2.3328483,0.50660163,0.79572475,-0.59576714,-1.1337129,-1.5685867,1.2251626,-1.4168096,0.96619934,-0.055874962,0.18314005,0.39389193,-0.27001625,-0.17338815,-0.06896172,0.5214624,0.9177129,-0.5945994,-1.0609707,-0.6854576,0.19542764,-1.6480006,0.4122964,2.1346207,-1.9399642
lipid,-0.72001296,0.3227178,-0.45261964,1.0158,-0.64179415,-1.625505,1.8148967,-0.9353081,-0.6103536,-0.3833226,0.9765583,0.98898166,1.0795579,0.7914033,-1.7670515,0.020920584,0.2061529,-1.3132334,0.58041185,0.11388219,-0.106682144,-0.38800055,0.80182153,-0.5377649,0.02281876,-0.2637331,0.86304504,-0.22522739,-1.0382924,-1.0853279,1.5338551,-1.4004289
machine_activity,-0.8715436,1.1708279,-0.5730578,0.5453099,0.14063378,-0.6516027,1.8496455,-2.5691936,-0.26138,1.5533158,0.4043774,-0.9712281,-3.3656738,2.2969375,0.5352691,0.37635747,0.004620169,0.15416312,0.40418026,-0.18114258,-1.405997,0.70021886,0.6077051,0.82289964,-0.54025704,0.44334355,0.7276542,-0.0522812,-0.6623413,0.45660108,2.2554111,-0.305896
mammal,-0.22699589,0.7804699,-0.5787896,0.013304558,-0.82802963,-0.9186253,1.8528244,-0.7022773,0.68195105,1.1600103,-2.2104194,0.41887003,1.2364992,1.61715,-0.10210976,1.0872314,-0.28287286,0.9233534,-0.7877963,0.056429066,-1.0312061,-0.24949759,-0.6336543,-0.96070004,-0.05380145,-0.3114256,-0.35424724,0.41956487,-0.27609986,2.0967681,1.0592548,-0.92066514
manufactured_object,-0.29570246,0.9367851,-1.4206964,-1.4754364,-0.75780785,0.47178784,1.3775373,-0.77449596,0.39314035,0.088019885,-0.4908262,-0.5546534,-0.41151944,1.8343587,-0.21720742,0.8789297,0.56901413,-0.6472109,-0.7123263,0.3513823,-0.3380795,-2.5650136,-0.12409648,2.2762945,-0.4078548,-0.34011155,0.09758938,-0.52035666,-1.2487135,0.25445586,1.2391365,-2.6694221
medical_device,-2.1277444,0.26857224,-0.28588867,-0.3223666,-2.009734,-0.09425156,1.8859047,-1.4768225,-0.17246121,-0.43494892,0.64630955,-0.14348681,-0.5561722,0.83247584,-0.1718115,0.58416384,0.33472443,-0.35894874,-1.5886325,0.42810127,-0.92977715,-0.23038472,0.4289275,1.2392727,0.23761822,-1.3519657,-0.71289355,-0.19417532,-0.6747448,0.5069129,0.83938026,-1.9392458
mental_or_behavioral_dysfunction,-0.6502905,0.755373,-0.96432984,-1.3319806,0.8013617,-0.42958075,0.8365193,-0.2815602,-0.18328376,0.3962743,0.4218074,1.5847338,0.80380166,1.6029698,0.95491755,-0.021005616,0.50022805,0.19873695,0.6542545,-0.40238017,0.45170233,0.09222167,0.052324228,-0.8680871,-0.10806605,-0.3270195,-0.49030802,0.70399773,-0.38299215,0.5049511,0.48407394,1.3813125
mental_process,0.13723253,1.4091967,0.46393803,0.105070315,0.12728451,-0.45760974,1.2559336,0.24288423,-0.34202543,1.5343863,0.38865873,1.9506192,0.47622758,1.3707572,0.17420916,1.0994631,-0.32599768,-1.1280767,0.3561852,-0.72597665,1.5093589,0.4490413,1.0180355,-1.2569199,0.62659925,-0.83359647,-1.5720047,0.9469572,-0.83386177,0.29233608,0.6828632,-0.45302486
molecular_biology_research_technique,-0.83654356,0.9114601,0.08200415,1.3399364,-1.6851785,-0.7313519,1.5055101,-0.6960921,-0.015708953,0.36724484,-0.16468635,-0.1370815,-2.0978575,1.9265668,1.8006545,-0.28235036,0.4188348,0.9356411,0.30409864,0.69279623,-1.119002,-0.23149607,1.3677531,0.15554905,-1.057387,-0.02108594,0.49075502,-0.20626384,-0.7692269,1.7765874,1.7011907,-0.6124325
molecular_function,-0.52051723,0.8528185,0.19674644,0.31451112,0.5719257,-0.07087017,1.6029847,0.14914222,0.24028818,1.2082773,0.34435877,2.2451303,0.699411,1.2708155,0.391305,-1.4246904,-0.32138306,-1.583474,0.6132712,-0.41405874,0.07583445,-0.06260617,-0.1902507,0.08105903,-0.15472464,-0.73645055,-1.6981277,1.253731,-0.35606366,0.7839313,0.818575,-0.13931197
molecular_sequence,-1.0182666,0.6769935,-1.3552934,0.2080062,-0.60139376,-2.6684597,1.5375301,-0.54841036,-0.73739815,-0.11076843,0.37437597,-0.065510646,-0.8145212,1.5532619,0.16017194,0.24105701,-0.4936202,2.9930918,0.09401389,-0.15698138,-1.8347615,0.58940774,-0.77440715,0.25247717,-2.0741816,0.10894118,-0.28874585,0.5542974,-1.3383157,0.0137263425,1.8610091,-2.0688617
natural_phenomenon_or_process,-0.4559844,0.03402805,-0.16960947,-0.49749476,0.44415247,-0.11313892,1.2150439,0.07242724,-0.0024609063,2.0608182,-0.48793116,1.9568543,0.49836808,1.8042127,0.0066418084,0.37393203,0.51421046,1.1614944,1.0130899,-0.55486256,-0.3894798,2.2210925,0.041339472,-0.4716754,-0.15239972,-0.43991515,-1.0271035,0.48539555,-0.8352595,0.58483696,1.3585354,0.62798756
neoplastic_process,0.056485828,1.5552537,-1.5589451,0.36180642,0.33468962,-0.3046381,0.7113352,-0.50881255,0.31763682,1.3353738,0.69709724,1.5104537,0.46401978,1.3395324,1.5186051,-0.066583164,0.5958743,-0.37392178,0.94515425,-1.0671586,-0.21989612,0.96734834,0.4687518,-1.8661976,-0.05438749,1.2254525,-0.7775596,0.6641135,0.27871284,0.19595295,1.072417,1.3847665
neuroreactive_substance_or_biogenic_amine,-0.7075756,1.8418316,-0.34871882,0.53622615,-1.0976313,-1.3111858,1.5449946,-1.0634153,0.5904227,0.5833992,0.595717,-0.0076257186,1.159386,0.81092376,-1.662318,-0.10924528,0.68033403,-0.4194648,-0.80762625,0.55198956,-0.7723182,-0.19197048,-0.2143462,-1.3469393,0.40612572,-0.35837165,0.5763486,-0.4098964,-0.5552182,-1.4987268,0.7952167,-0.44757771
nucleic_acid_nucleoside_or_nucleotide,-0.6403561,0.728759,-0.31218806,-0.086174786,-0.93547785,-2.012897,1.9631412,-0.6565383,0.013543219,-0.94032556,0.7741113,0.684284,0.944535,1.6030862,-2.0552576,0.1527759,0.09218924,-2.0032496,0.21526513,0.9783268,-0.3922103,0.015125061,1.6872104,-0.085365474,0.62180233,-1.1917101,0.6716244,-0.07501552,-0.21831879,-0.31721017,0.9632801,-1.7073007
nucleotide_sequence,-1.9516473,0.6793096,-0.17820847,0.25070727,0.29304016,-1.3139888,2.2724845,-1.9877367,-0.40287638,0.82423246,0.7777084,-0.063417695,-1.5684828,1.746698,0.38789138,-0.45554438,-0.4237284,1.2557542,0.08803428,-1.1942592,-1.0323945,0.040187996,-0.47866204,1.4336009,-0.33438328,-0.81252503,0.3193602,0.35073856,-0.7478247,1.302044,1.1013063,-2.8253846
occupation_or_discipline,-0.9254269,1.2529641,-1.2382333,0.22420125,0.7552947,-2.3441188,0.24936299,-1.941966,0.36806354,-1.1465032,0.011183121,-1.3916333,-0.5140345,0.38467255,-0.3156231,0.34288412,-0.8941301,-0.122566976,1.03285,-0.555182,0.24268451,0.64165527,-0.45908833,-1.6656107,-1.2142471,-0.2225839,-0.08953989,1.041195,-2.1790352,1.3025558,0.58164996,-0.52946687
occupational_activity,-0.49932963,0.6963697,-0.19308406,-0.08888322,-2.6364334,-0.5315855,2.3666155,-0.63582116,0.75642395,0.9994721,-0.25554714,-0.62790036,-2.4338367,1.4759947,0.9267681,-0.51334834,1.7202401,0.47776628,0.5642928,0.19478914,0.27652305,-0.54607296,-0.32262772,0.24921598,0.07109682,-0.55385184,0.6326401,-0.27395642,-0.88526565,1.0926324,1.6013442,-0.48092285
organ_or_tissue_function,-0.76114535,1.4005584,-0.18347144,-0.3245029,0.087384924,0.067210644,1.3304125,0.06170191,-0.31661943,0.4766419,0.78438,2.3114111,0.39886415,1.2676834,0.3064259,0.51028603,-0.0032463106,-1.2497586,0.99393713,-1.0029811,-0.49532405,2.1552792,-0.35873064,-0.6380294,0.08477639,0.19433771,-1.7433498,1.0049632,-0.5148559,0.4210447,0.7965132,-0.3112732
organic_chemical,-0.30994073,0.21607009,-0.3616495,0.24172729,-1.3489001,-1.9577017,1.3114578,-1.3812956,-0.17438903,-1.0914938,0.15405811,0.67963713,1.156605,1.8751637,-1.4529734,1.2289448,0.35445383,0.47562847,0.38717374,0.17329948,-0.4988044,0.07625564,0.54307735,0.1404655,0.17025384,-0.9046516,0.5293357,-0.289956,-0.7206022,-0.63397914,1.4121968,-1.7222452
organism,-0.7587209,0.091122,-0.65865654,0.531138,-1.2295911,-1.0106151,1.2608038,-0.10393842,0.32221484,1.5229411,-2.4388409,0.7513049,0.5664332,1.3948463,-0.1582322,0.86396325,-0.056408174,-0.17474324,-0.9970306,0.34512326,-1.6838887,0.95837504,-0.35638046,-0.33240467,-0.8157275,-0.23344302,0.6470799,1.4151064,0.01340165,1.7233845,2.3205566,-0.8915921
organism_attribute,-0.6813237,0.9828239,-0.88638616,-0.6985893,-0.39200056,-0.7513863,1.0802947,-1.6565105,-0.18774672,-1.3094478,-0.68721807,1.3011421,-0.21203168,1.4675884,0.464235,0.21514785,1.7344028,0.2254158,2.3191044,-2.0551674,-0.73196065,0.5596365,-0.39724898,1.0920426,0.5792001,-0.7740736,-0.20292498,0.2932599,-0.42195323,0.93073815,1.1665466,-0.67785734
organism_function,-0.52267444,1.3437394,-0.48125258,-0.5194167,0.1493633,0.18282618,1.4788971,0.06891485,-0.4664867,0.5798097,0.88785046,2.382551,0.22959368,0.91260856,-0.051812984,0.30186236,-0.4676265,-1.1552885,0.7125668,-1.4081714,0.08096856,-0.14966096,-0.48372698,-0.3566445,-0.96447676,0.44253847,-1.5386097,0.8833912,0.38348505,0.5567916,0.9615164,-0.27478963
organization,-1.4131535,0.6034411,-0.82219756,0.4717926,-1.1361011,-2.6470928,1.9057757,-1.4551952,0.08911653,-0.045398816,0.86166954,-0.5802732,-2.2663763,1.7145143,0.8409076,-0.28842467,-0.50459397,0.3711146,-0.1122692,-1.5477861,0.031609107,0.25635165,-0.33559552,-0.58555466,0.36509836,1.0076593,-1.2423726,0.60462767,-1.5199053,0.24091625,1.341227,-0.9396718
organophosphorus_compound,0.008077182,1.4413686,-0.38040498,1.4658952,-0.678543,-1.8317411,1.8231198,-1.4040796,-0.5231848,-0.80185384,0.8398412,0.7144998,1.1026624,1.4963355,-2.0147593,0.3570843,0.08494751,-0.65335274,0.63288707,0.718268,-0.49181923,-1.9454756,-0.49735275,0.15026534,-0.17930464,0.43780673,0.5316847,0.05067406,-0.70919347,-0.6860304,1.2268702,-1.8534693
pathologic_function,-0.18460764,0.920129,-1.2443638,-0.14977047,0.58416,-0.11442624,0.8993107,-0.34027207,1.1584207,0.98364854,0.6178393,1.737509,1.0102514,1.3723189,1.1312343,-0.29392457,0.9215719,-0.12733991,0.9973479,-0.8838545,-0.56845665,-0.017435003,-0.7047465,-0.5493244,-0.35625407,-0.52354294,-0.6458512,1.1490461,-0.007045274,0.44376728,1.0686929,1.4782761
patient_or_disabled_group,-0.6994488,0.54386485,-0.52609783,0.74790055,-0.3635657,-2.1462677,2.204067,-1.287106,0.17752293,-1.1246912,2.7402058,-1.0386411,-1.176782,1.5874947,0.70492566,0.51782334,0.21083695,0.40961224,0.5410644,-1.265206,-0.7668186,0.5814917,-0.73751885,0.5596957,-1.4422657,0.63907564,0.3042765,0.5066799,-0.593396,0.40119824,0.08203072,-1.4416701
pharmacologic_substance,-0.72650605,1.4804677,-0.52268046,-0.12987633,-1.6121471,-0.74280846,1.3845106,-1.5265893,1.066313,-0.48974892,1.1743978,0.4973059,0.9287144,0.89425087,-1.1291745,0.107620604,1.1650282,0.10936184,-0.4140664,1.7854596,0.04595844,0.6393316,0.5635957,-0.20608124,0.6855229,-1.2004561,0.3453775,0.22439389,-0.9162927,-0.1369094,1.216642,-1.1933988
phenomenon_or_process,-0.16922142,0.059925955,0.206598,-0.4534128,0.49632654,-1.0770086,1.4667469,-1.138408,0.027082706,1.3315167,0.93672705,0.82750857,-0.27758554,1.448624,0.469738,-0.093572035,1.3894354,0.94118464,2.3147414,-0.60606396,0.32209465,-0.78758544,0.94425863,-0.8633273,0.20411943,-1.0659013,-1.2307683,-1.6926163,-2.1542733,0.9894551,1.7986389,0.540978
physical_object,-0.68860734,-0.5284808,-1.2974228,-0.0964931,-0.56357926,-2.9853609,1.8716059,0.6446801,0.059975665,0.40442526,0.5754734,-0.33153832,2.9530206,0.90575546,0.6029203,-0.49587953,1.1095031,0.40363014,-0.749391,0.43991008,-1.4284526,1.7257694,-0.5016259,1.8284206,0.15658541,-1.3691624,1.3663179,0.055234212,-0.75837076,0.7138168,2.2890544,-1.9574016
physiologic_function,-1.2928157,0.8844318,0.01832829,-1.0987964,0.6976835,0.00037635723,1.2997767,0.11170035,-0.13860202,1.162207,0.60929906,2.260801,0.64240897,1.0706843,0.18451108,-0.3266274,-1.1758144,0.23236662,0.45777154,-1.7275516,-0.32417703,-0.10121379,1.4695572,-0.26294556,-0.1666918,0.06300846,-1.9069854,1.4716134,-0.76706785,0.7126244,1.2099135,-0.21398103
plant,-1.2476021,0.7456353,-0.9849912,-0.5727857,-0.36730945,-1.1822201,1.6166627,-1.3040627,-0.30472368,0.9377803,-2.5058372,0.80934405,0.084321275,1.7064571,-0.5099468,0.31858087,0.32373402,-0.11193363,-0.49117383,1.1092267,-0.61068726,-0.07769758,0.5114001,-0.87907207,0.08820273,-0.12526715,-0.10131031,0.22902283,-0.07741617,2.686263,1.2880507,-1.1034325
population_group,-1.1221204,0.5965669,-2.0079386,0.7545471,-0.8734361,-1.4146651,1.761546,-1.252573,-0.45113438,-1.0446639,1.8179997,-1.0046386,-1.3258494,1.7106398,1.275015,-0.21901271,1.0856249,0.4768794,1.0107954,-1.2126545,-1.1120373,0.20223674,0.8557629,0.9976249,-0.10879647,0.45494142,-0.033056937,0.8706238,-0.33772263,0.42518464,0.6092375,-1.0950749
professional_or_occupational_group,-0.7334553,1.2601361,-1.8987519,-0.29737365,-1.1996944,-1.3255082,1.8574436,-0.20649666,-0.14521949,-0.9221874,1.9354542,-1.0522531,-0.80384564,1.4005458,0.15685824,0.21582684,2.321749,1.2877564,0.70863074,-1.0474396,-0.4592826,-0.6067309,0.18331315,0.5200381,-0.41922155,-1.256233,0.6490924,0.7017269,-0.7776543,0.18986456,0.5374038,-1.141461
professional_society,-0.22365431,1.7063595,-0.81469977,1.3731533,-1.9323306,-3.079674,2.4398236,-0.1899997,-0.33077845,0.09500433,1.5119064,0.11795718,-1.5602105,0.79181236,0.49599352,0.6501321,-0.30133066,-0.011236911,-1.1159356,-0.32815498,-1.1265752,-0.56582344,0.124080725,-0.70166254,0.44416767,1.5165724,-1.3054149,0.32877982,-0.34714493,-0.011621752,1.9533309,-0.9280714
qualitative_concept,-1.1402006,1.7122835,-1.409373,0.5571371,-0.37509337,-1.54811,1.3231914,-1.553059,0.54441214,0.32577947,0.61291206,0.46766946,-2.6272426,1.8794483,0.24113111,0.3712571,0.032907244,-2.9268491,-0.53151006,0.57809776,-1.8433298,-0.054775476,0.42951593,-0.39350873,-0.4339387,-0.7122613,-0.8358466,-0.20864627,-1.2412231,0.8807622,1.9951923,-0.5068397
quantitative_concept,-0.85945195,0.28636414,-0.970983,0.37451476,0.13288671,-1.6428481,1.8638904,-0.8884052,-0.086427234,0.08169545,0.6692892,0.42614555,-0.75244826,1.7079306,-0.8018433,0.90224093,0.568991,0.7247106,-0.8080197,-1.301347,-1.9403403,-0.17789343,-0.8103439,1.2554924,0.37894467,0.3138906,-0.023662575,0.14088953,-0.8261813,-0.49497855,1.5403978,-2.2374506
receptor,-1.6577133,1.5024515,-0.84876937,-0.16730313,-1.6622398,-1.2440957,1.0027874,-1.1353577,-0.20025593,-0.45673215,0.65924364,-0.021953236,1.2191553,1.2421107,-1.411061,0.05902549,0.39396268,-0.72267705,-0.6380677,0.16623181,-0.1348119,0.9538987,1.3137316,-0.8265732,-1.1502941,-0.51902175,0.7632858,-0.2425647,-0.72765803,-1.439326,1.1285244,-0.6707423
regulation_or_law,-0.7703253,0.9518143,-0.72733366,-1.8786958,-0.05870265,0.48436075,1.7073413,-2.3260646,-0.35881996,0.5618566,-1.9087958,-1.80235,-2.4375033,1.9104785,-0.70881474,-0.07826089,-0.13818516,-1.102115,-0.06702102,-0.289195,-0.48000687,0.7968541,0.6789544,0.7220697,-0.6146282,-0.35074854,0.71982044,0.8290752,-0.78897315,0.24719265,1.0525068,-1.9941641
reptile,-0.85120934,1.2532566,-2.0361462,-0.4890618,-0.12778527,-1.838026,1.6446689,-1.4943275,-0.5002705,1.550096,-2.5182745,0.55077034,1.4737458,1.518346,-0.28466216,0.3183864,0.6013943,1.2709044,0.0042258985,0.78792614,-0.22508118,0.2486982,-0.71569407,-0.68617225,-1.0588984,-0.1270702,0.09354994,0.9335509,-0.63331914,1.3781387,1.2116235,-0.9356975
research_activity,-0.6559329,1.0548866,-0.2871719,0.68812895,-1.8437687,-0.6832389,2.1728976,-0.8901147,-0.20602208,1.0766944,-0.78935236,-1.0554826,-2.0891426,1.1819806,1.6653992,0.40254784,0.39703366,0.58908635,0.9981872,0.6290828,0.23373513,0.7509412,-0.061697517,0.44525152,-0.42174795,0.67579055,0.09708392,1.0059048,-1.141458,1.6116086,2.0309289,-0.5651411
research_device,-1.690788,0.20353524,-0.032799885,-0.7872859,-2.098938,0.24218372,2.2881873,-1.3032521,0.84382355,2.074777,-0.12483081,-0.70805126,0.39987156,1.539993,0.37453863,-0.17292058,-0.6494783,-0.914455,0.12885258,0.66252553,-0.70956093,0.3617063,-1.1270235,1.5188874,0.15913266,-0.3807763,0.22197613,-0.78597677,-1.0059553,-0.6244442,1.2338879,-2.1195786
rickettsia_or_chlamydia,-0.49375248,1.0204055,-0.7286123,0.2181941,-0.44742432,-0.606182,1.919938,-0.933577,-0.1777091,0.5894226,-2.164772,0.814239,1.2348078,1.4337758,0.30193365,1.1880442,0.14036885,-0.08929326,-0.43823704,0.38935632,0.41664037,-0.6189446,0.7443417,-0.5018752,0.35821968,0.0012749711,-0.30240655,1.1413121,-0.38662273,2.3973846,0.9828908,-1.4768205
self_help_or_relief_organization,0.38133803,2.0673137,-1.3763508,1.4782947,-1.6356941,-2.0566127,2.2536774,-0.47841412,0.868985,0.1996314,1.4481059,-0.55232525,-1.9792659,1.3639627,0.7920836,-0.34521657,0.88346916,-0.4708579,0.04889956,-1.8382442,-0.5746523,0.028627982,0.798219,-0.35775065,0.26681867,0.3291678,-0.8556181,-0.08443809,-0.8992577,0.2536463,1.7798578,-1.1351773
sign_or_symptom,-0.64462364,0.788418,-0.40327054,-0.13814345,-2.557167,-1.77903,1.8362563,-1.2189524,-0.11545684,-0.7208672,0.5788763,0.26615763,0.21844837,0.6397025,1.2412267,-0.34128842,0.084034115,0.7374925,-0.07062367,-1.2395595,-0.14768066,0.86686146,-0.72465676,1.012665,0.32328546,0.22593722,-1.4126998,-0.17786932,0.19740094,1.6489882,1.566493,-0.24451923
social_behavior,-0.4573055,0.1303563,-0.28980935,0.7657692,0.14966482,0.70822495,2.0777478,-0.90477574,0.7082282,1.9553964,0.07947154,0.57117987,-0.828365,0.26813188,0.7608367,0.7900389,0.106433704,0.39835373,1.0223069,-0.40449846,-2.1934974,-0.10634225,0.5692388,1.0468343,0.11565831,-0.22129004,0.21948797,-0.7221421,0.5053976,0.9057691,1.4869657,0.040448286
spatial_concept,-0.7607458,0.44923756,-0.65423673,0.22050038,-0.9133198,-1.7455003,1.7179592,0.04960074,1.388794,0.8802635,0.35210353,-0.06458234,-0.34232643,1.8903061,0.7109952,-0.09752334,-0.31572738,-0.7173417,0.39455062,-0.8259651,-1.2065237,-0.39216584,0.42532936,0.92834365,-0.32744005,0.31510025,-1.2104715,-0.37532187,-0.743033,0.6377808,1.5748723,-2.4675217
steroid,-0.28508905,0.7939819,-1.1052716,2.008657,-1.2194909,-1.9611923,1.9870782,-1.3076982,-0.37589,-0.3971042,0.47858125,0.81389475,1.4909799,1.6258088,-1.9900198,0.7711584,0.31366286,0.03925412,1.6655107,0.093629286,0.6070128,-1.5348748,-0.79647976,-0.50321037,-0.67876726,0.08416641,0.604942,-0.4078246,-0.80625814,-0.44591758,1.1010307,-1.594152
substance,-0.3621774,-0.33833882,-0.9499445,0.83289,-0.7308509,-1.5322155,1.6806414,-0.6035491,-0.15178621,-0.93897307,0.74096745,-0.120257415,1.3516692,1.0091118,0.09324874,0.43485227,1.2709153,-0.4672365,-0.38470733,0.14228877,-0.4850059,0.09495497,0.24511333,0.46880108,0.099763125,-0.32146737,0.36731097,0.30728868,-1.0780306,-0.19605462,1.8212339,-1.7463286
temporal_concept,-0.9382045,-0.19325586,-0.8248653,-0.27170253,0.49600193,-2.3598208,1.1151522,-3.6215355,-0.21045399,-0.38263318,1.0662105,-0.93988657,-1.3648192,2.750657,-0.6551519,0.94581145,-0.599873,2.1872606,1.2779667,-1.1146055,-0.31696653,-0.72971636,-2.1512468,1.8346893,-0.7216988,0.35271633,-0.61166894,-0.15664479,-0.98402447,0.171365,0.83546275,-0.63907516
therapeutic_or_preventive_procedure,-1.9096197,1.4887177,0.4845945,0.39155912,-1.4974818,-1.2445178,1.6478003,-0.93891317,-0.5771298,0.22950096,0.71279424,0.84898084,-1.7729887,0.24651194,1.4870918,0.82271093,0.1874443,-0.0373036,-0.11270337,1.3386558,0.44119197,0.19210576,0.104864016,-0.48766837,0.552044,-0.67013794,0.38327762,-0.11073964,-0.2558387,0.8216369,1.1175992,-0.8148751
tissue,-0.76906943,1.0122411,-0.6204651,0.4330999,0.47587085,-0.7377467,1.5026153,-0.55766976,1.0874958,0.6667571,1.2652667,-1.5014235,1.0137928,0.8122357,1.1137785,0.06340483,-0.7059035,-0.47620097,-1.9825507,-0.17899163,-1.6286427,0.57991004,-0.5323459,-0.118209,-0.06932522,-0.24499331,-0.1406781,0.6134022,-1.03459,0.80932486,1.1027925,-0.18901716
vertebrate,-0.7750284,0.9489173,-1.4213704,0.82294023,-1.0845901,-1.5257089,2.1813738,-0.075724065,-0.5491111,1.3988792,-2.1905675,0.57334274,0.5926167,0.38074803,-0.097196504,2.3813682,0.31072932,-0.26535413,-0.41706857,0.70850086,-1.2582431,0.008298307,-0.3272101,-0.891504,-0.87046075,0.5684979,0.74451226,1.6000909,-0.38851127,1.9114828,1.7880296,-1.1528697
virus,0.30197686,0.35283,-0.8413986,-0.2802644,0.8014801,-0.25736618,1.7767893,-1.9929506,-0.5655863,0.08868306,-1.8674473,0.88072574,1.0119498,1.3830695,-0.17891206,1.0288023,0.109929025,0.6017311,-0.16101624,0.3856233,0.7419041,-0.49184495,0.9558723,-0.17101496,-0.29260516,-1.7614118,0.4356989,0.88521373,-0.15103072,2.4784236,0.91555125,-1.5482231
vitamin,-0.3592468,1.827171,0.1420778,0.5154972,-1.3852258,-0.6114931,1.2889829,-1.3586134,0.46292403,-0.8501476,0.40143144,0.011233588,0.47622198,0.766218,-1.5938995,0.44212776,0.78030396,-0.28908634,-0.48810413,-0.41604838,-0.22264914,0.45668814,0.4380155,-0.42592463,-0.16143149,-0.25924054,0.8953001,-0.15489852,-1.2653688,-1.0663772,0.9956497,-0.721734
