,0,1,2,3,4,5,6,7,8,9,10,11,12,13,14,15,16,17,18,19,20,21,22,23,24,25,26,27,28,29,30,31
acquired_abnormality,0.35664985,1.3480359,-0.39033666,-1.5549673,0.9545413,0.09673716,-1.8126411,1.2437093,0.34491155,1.378923,1.303754,0.32205144,1.1759583,-1.0535744,0.5004914,-1.7521437,0.06805244,-1.0097623,4.391772,-0.37510103,1.6167743,-1.4494472,1.4728665,0.47359046,2.806601,0.40997592,0.45666775,-2.0952623,-0.08744312,0.9612923,-4.926997,-1.9122678
activity,-0.12001772,2.125443,0.06428114,-0.5132294,-1.0082808,-0.104853064,-0.17667787,1.7169774,0.9746574,1.3477739,1.9404117,0.11331094,0.6683537,-0.22310832,0.87639385,0.27300048,-1.9732683,1.8318895,0.42541963,0.9029757,-0.7976391,-1.5144975,1.0798618,-0.18229002,-2.3735633,3.3901007,-2.4885707,-0.91349435,1.4186337,0.58108395,1.3495771,-2.947172
age_group,-0.12540634,1.1560035,-0.3481945,-0.2178116,0.6801609,-0.65909535,0.73362887,0.53738415,-0.6743052,1.8813719,1.8850203,-0.009111585,0.41118065,-0.6041656,0.87298477,0.5971759,-1.1992157,-0.7213094,-2.528656,-2.109389,-2.957968,2.371888,1.0847943,-2.1288202,0.4736012,0.6955091,-0.5042445,0.6934158,2.2324772,2.0700245,-2.9283204,-2.8842537
alga,1.3612261,1.9845678,1.823303,-0.7846169,1.3652128,-0.17614512,0.35750163,-0.12752305,-0.2064661,1.8581389,1.1811414,0.6660593,0.3110593,0.49754757,-0.23160426,-0.44109273,-1.451724,-1.1636906,-2.1370559,-1.4532737,2.3361099,2.4624157,-2.9682636,1.7700142,-0.51629174,-0.123629294,0.022783183,0.6478957,-1.3640376,1.4628185,1.9156836,1.8977034
amino_acid_peptide_or_protein,0.33610943,2.0394118,1.9294331,-1.3280681,-0.19205986,0.7528216,0.9101992,0.019527664,-0.8813884,2.1502957,1.2594492,-1.1424059,2.1202657,-0.23595804,1.4946736,1.5239161,0.38030872,-0.51439494,-1.5507611,2.330265,-1.4802507,3.1123874,-1.8970492,-1.2068628,3.7740095,-0.40298042,-0.16959134,1.4873285,3.1978261,2.3908346,4.275342,1.5919353
amino_acid_sequence,-0.5823163,1.4726539,-0.13622113,-0.86164933,0.6126487,0.2292592,0.673557,1.4932446,-0.8105896,2.4637446,0.8440291,-0.23551184,2.0920665,-1.0567058,1.6773505,0.89522487,2.0450528,-0.5075914,1.739116,-2.5479958,-1.5683756,1.2894446,-1.3444252,-1.6830227,-1.9431329,2.0120876,-0.32763875,2.7580621,1.1441149,-0.38005695,1.4741597,-4.4350004
amphibian,0.72518265,1.8234195,0.83640754,0.1986205,-0.17051198,-0.67517096,0.8406133,0.98249215,-0.57085925,2.0590167,1.4710428,0.32820898,0.9240675,1.635921,0.52854574,-0.2051697,-4.032392,-0.7667955,1.740069,-1.7935042,0.102615975,1.0371474,-2.6569738,1.4368553,3.6002247,-1.3443781,0.33481187,-1.0039315,-2.1551,1.9249439,-1.2278527,-1.0039569
anatomical_abnormality,0.18330537,0.80114484,-0.4197907,-1.2490101,0.8802759,0.8492114,-1.8198541,1.3665996,0.4899346,1.5373329,1.5139177,-0.26765275,1.5561907,-0.71738464,0.0753456,-0.788977,0.31725574,-1.6701171,3.7341416,0.13092268,3.881031,-0.7434473,0.6748575,0.5467049,1.7394813,1.1595209,0.92991954,-3.8600821,-1.042751,-0.7276526,-4.33131,-2.4551997
anatomical_structure,0.8201736,1.6801842,0.12672496,-1.0065104,-0.20847663,0.45325187,-0.08132173,1.9749677,0.7508795,2.1107852,1.6256211,0.45427978,2.3106985,-0.32514504,-0.39119953,-0.15743937,-0.5513988,-1.0904381,-0.05148012,-0.4808736,1.680989,1.7829564,-2.8890948,3.4405215,4.015096,1.4507079,0.8974891,1.2510854,0.9122994,-1.995521,4.58134,-3.3932574
animal,1.3069111,2.1825838,1.3965127,-0.29259494,0.9681767,0.36817217,0.724316,0.38013548,-0.6998366,1.0710515,1.5220927,0.29663876,0.8173351,1.308663,0.7872181,0.65476954,-2.827423,-1.2034026,2.4314666,-2.0704622,1.1199965,1.1212747,-2.2095733,1.9467907,1.9275717,-0.24381831,-0.52515227,-1.4007356,-0.6747312,5.214696,-1.0014902,-0.3585981
antibiotic,0.74225,1.8724928,1.831178,-1.0789486,0.30185115,-0.1761208,0.35429585,0.9461041,0.0072044088,1.386965,1.4179375,-0.7780324,1.0006402,-1.2838414,-0.19894554,0.6385784,3.4998415,-0.026067715,0.8223048,0.5244228,0.16657448,1.0631516,-2.6791995,-2.621558,0.8770994,-1.2803144,-1.3981965,0.9512236,2.0983822,-0.8463966,2.4477544,1.6490664
archaeon,0.13151638,2.2065637,0.6813825,-0.24999113,0.13985455,-0.0432837,1.212939,1.1544477,-0.06931092,1.9103295,1.505863,0.47437626,0.025792234,0.7456568,1.8757936,-0.25405264,-4.743908,-1.2947549,1.8107485,-3.839432,-0.5618831,1.2461972,-1.3173009,1.0663824,4.0204797,-0.44058922,0.199743,-0.32623887,-1.3860779,1.1897306,3.1759717,-0.16720821
bacterium,1.3098537,1.5691533,0.6649342,0.051712446,0.16631654,0.36426058,1.0903183,0.67804205,0.35547662,1.7991953,1.3909853,0.87888056,0.3074791,0.552533,-0.566789,0.38003692,-2.089058,-2.2828681,1.6364763,-1.1518301,-0.028136594,-2.0261695,-0.3070251,1.8869765,-0.036206566,-1.8972661,0.06312631,-0.5874887,-1.1582557,0.009696267,0.043203108,1.4435911
behavior,0.7592235,1.7098632,-0.13958474,0.22801946,0.77041566,1.5741518,-0.59652895,2.1769521,0.17846182,0.81867146,1.4335356,0.13945407,1.7141957,0.10628421,0.60243595,0.22576018,-0.9712889,2.8392296,-1.8345077,-0.16954881,3.3595324,-2.3374493,-4.6853075,-1.6690735,1.4854401,4.7780886,0.9537601,3.636254,-1.9826938,-0.1289248,0.8378591,-2.7570426
biologic_function,0.65594697,1.1115788,-0.07589249,-0.49336973,1.2045326,-0.38267094,-1.1435951,0.94607663,-0.5186429,0.61758786,0.95646286,0.75965846,1.3523307,-0.72072196,-0.2002297,0.7267073,1.4274383,0.9174287,2.1741242,0.44230837,3.8488233,-0.23703796,-1.3352139,0.99763924,0.26799092,0.043090742,1.4140218,3.5073318,0.08522023,-0.82102615,-1.9907651,2.7466772
biologically_active_substance,0.8062911,1.4111991,1.6535534,-0.17810377,0.7210367,-0.49291077,0.36629224,0.58494955,0.15447704,1.1867919,2.0055654,-0.10930405,0.7834549,-0.5276614,-0.27190217,0.34853145,3.1848755,0.20832253,1.1213613,1.3396533,-2.0498817,0.005537904,-0.37401962,0.7260386,3.340993,-1.2278274,-2.571761,-1.337923,1.7838081,0.34549114,3.0254276,1.5235935
biomedical_occupation_or_discipline,0.4922764,0.35717806,0.43084586,-0.17010903,0.9505075,-0.12392739,0.78796566,-0.52697384,0.689295,2.36325,1.3516676,-0.06929762,2.9991877,-0.7957754,-0.38668925,0.15996125,-2.350241,1.9597679,-2.7208848,1.6631938,-0.19670975,1.7928114,-0.90223426,-3.6636667,0.70404893,-0.77584004,1.0456684,3.9067829,0.8889355,-0.37344798,-1.5382365,-2.8618567
biomedical_or_dental_material,-0.6533285,1.6557814,1.5216845,-0.94608563,0.31970733,-0.2554437,0.67102605,1.4041415,-0.6582586,2.0522776,1.6135558,-0.33675176,1.1121658,0.22405279,0.49117482,0.63331276,1.5301728,1.4193461,1.6911768,1.4530665,-0.5389235,1.6091938,-1.1568937,-1.9460684,2.6470976,-0.2635634,-0.17772067,4.5336404,1.3126538,-1.7715406,3.3841827,1.1538712
bird,0.8615568,1.6193964,0.83528703,-0.506393,-0.7445617,-0.15811291,0.090707496,0.28676802,-0.019350518,1.8164515,1.7375808,0.20587695,-0.87402487,1.453519,0.69803756,-0.749798,-1.6436597,0.60957205,1.8644392,-2.0789871,1.3062797,0.47019225,-2.0256383,1.4784038,0.5877617,-0.81730807,-0.8641246,-3.7645712,-1.6940725,0.5734278,0.17507239,0.65172356
body_location_or_region,0.9892393,1.623029,0.27062598,-0.38483995,-1.4249822,0.18083338,1.038923,1.4462522,-0.32285792,1.718114,1.82512,1.0840333,0.88871634,-2.1592305,0.231071,0.40954548,-1.0558044,0.7248696,-1.5622082,-2.1430514,1.4276772,2.576475,-0.8174117,0.030764265,-0.15191236,2.1455417,0.9296468,-1.3007668,-2.2118356,1.2697512,-3.512261,-1.5686284
body_part_organ_or_organ_component,-0.057601865,1.7074865,0.13536489,-1.2579445,0.404007,0.9515606,0.32864067,1.6193588,-0.071730584,1.2773017,0.7698211,0.4046302,1.4901179,-0.076757364,1.8207451,-0.10719427,-0.23635444,-2.4747722,-2.659082,-0.23703884,4.044288,2.9666195,-0.86704874,1.252452,1.5724678,-0.19130145,1.6894257,-1.186507,0.8742693,1.969646,-3.7346945,-2.4271073
body_space_or_junction,0.84589183,1.5730798,0.7470048,-0.6203211,-0.45278934,0.31364426,0.41412786,0.5711448,-0.2021351,1.6604564,1.0029699,0.50399566,0.82453,-0.9798559,0.23864916,-0.22955664,2.9643593,-2.9687464,-1.0493795,0.77786356,2.8738341,1.1320813,-1.5071609,-0.15737562,-0.72048044,1.497693,0.8652241,2.3250008,0.018944776,2.1441677,-2.3177836,-2.910805
body_substance,1.2138784,1.2519423,1.1613221,-1.4114618,0.29903054,0.2188383,1.3937943,0.72529405,-0.5014599,0.9614649,2.220826,-0.5590381,0.85902387,-0.62452227,-0.40091154,0.52559495,2.323789,-1.1277666,0.7028855,2.288318,-0.32025445,1.1300966,1.5387056,0.5669067,1.2540776,-1.7837081,-0.29913628,-0.94492984,1.6226401,3.9762747,2.190187,0.7773028
body_system,1.3087943,2.3551686,0.17075871,-1.7305565,0.08858019,0.2641295,1.3373812,2.084512,-0.40244305,-0.4474454,2.5965197,2.0662348,2.48113,-1.9374617,1.8492311,0.44654724,1.2441374,-0.95928293,1.7176243,-0.21004522,2.5839763,4.403094,0.15707536,-2.0176435,0.693587,3.71261,3.21165,-1.2851346,0.8012816,0.53694403,1.1229166,-2.63712
carbohydrate,-0.46110862,2.3314223,1.7831701,0.04958297,0.64140874,0.06166366,1.3951763,1.5362781,-0.50785935,1.5163561,1.2383838,-0.734249,1.079892,-1.52915,0.8065144,0.8882411,1.8182142,-0.17765242,-0.44577226,3.3598127,-0.10081799,0.4100479,-2.561962,0.1572085,1.8822818,-0.0017825464,0.049931146,-0.3375697,2.2130082,2.3841872,4.3450646,3.4710426
carbohydrate_sequence,-0.41250366,1.7530278,0.98272866,-1.6842906,-1.23791,-0.07512042,0.63908064,2.4851196,-0.2691964,2.1945703,1.8789957,0.008253437,0.32822743,-1.3036811,0.9538161,-0.06655013,0.97453606,-0.86834604,0.84079856,-3.3181021,0.018046346,4.103953,-0.8846981,-0.33655828,-5.049633,2.2241101,1.1765654,-0.7358098,0.12639284,1.1264342,1.2604114,-0.89882356
cell,0.53167975,0.74362326,0.8510338,-0.013271565,0.24553114,1.4371563,1.0280625,1.9514987,0.09859203,1.6994739,1.2642047,-0.028219383,1.1790941,-0.8513162,1.4139608,-0.054311525,0.76179004,-2.6644707,0.3537355,1.478491,4.0229635,2.4259138,-1.1806698,1.5548983,2.2842414,0.54345703,1.8584241,-0.8564617,-0.45079333,1.5047789,-0.9242482,-1.6150907
cell_component,0.22619203,1.523199,0.5848565,0.09761784,0.5873373,1.6472679,1.3624897,1.3117987,-0.51370203,1.3277973,1.4094359,-0.029318852,1.5226754,-1.1522729,1.1563541,-0.014014967,-0.14944896,-0.77046305,0.17113584,1.70061,1.7600191,0.8689999,1.0886939,1.7317355,3.5218008,-0.8149082,1.4457706,-1.3502227,0.14940973,3.6403286,-2.3531528,-1.1120622
cell_function,0.3068687,1.219457,0.02719854,-0.5898054,-0.26464558,0.6938513,-0.8310553,0.89217246,-1.6232363,0.912433,1.4837265,0.3425123,0.8088199,-1.2660495,0.5235725,1.2565728,2.6777165,1.3386922,2.4193711,-1.4851981,4.203915,0.29474834,-1.2702398,1.484741,-2.852825,-0.62689286,2.7823515,3.2323835,-0.5094859,3.1266372,-1.1227586,1.3039995
cell_or_molecular_dysfunction,0.48918682,1.300143,-0.2023851,-1.5409222,0.17622903,0.72767526,-1.7794672,0.8597641,-0.23509343,0.91843307,0.86956984,-0.28603014,1.2422092,-1.2433869,-0.6185798,-0.5672525,0.312814,-0.6105181,3.3821914,-1.6082526,2.0212092,-0.9538673,-0.03310943,-0.04546505,2.2503846,-1.010677,1.1814386,0.9636025,-1.2963743,-0.28056777,-3.7996252,3.9494562
chemical,1.3696334,1.5309466,1.6414222,0.15260471,0.34703544,-0.19886671,1.635183,0.48506063,-0.36268306,1.7604568,1.485264,0.09513472,0.49688524,0.13595633,0.80360925,-0.07916219,1.7701573,1.2636964,-0.6940406,0.56121516,-1.8250222,-0.756058,-1.7562177,0.35367835,0.29269856,-0.09038677,-2.563985,3.0663624,1.9871842,-1.9750335,1.0444804,4.0206113
chemical_viewed_functionally,-0.06619408,1.7904477,1.3518323,-0.26095665,0.7243148,0.77292603,0.7235355,0.31143704,-0.38434702,1.6177617,1.6848505,0.031544823,0.4827774,-0.815829,0.32673615,0.17693835,1.9523028,1.9853106,-1.3643647,0.9328395,-1.5252308,1.7277845,-3.4498436,-1.7560632,3.983388,-0.004093055,-1.6708856,2.7215953,1.5927501,-0.26719198,-0.5956373,3.5929387
chemical_viewed_structurally,0.4556564,1.0936592,1.9378852,0.017938772,-0.0023007211,1.1848804,1.6244524,1.4811413,-1.3430735,2.012287,1.6919446,-1.0753961,1.5882006,-0.21291193,2.3642437,-0.34810618,4.699267,-1.056671,-0.84619147,1.7972811,0.83251137,1.0856129,-1.1683707,-0.71849626,1.8046653,1.4466376,-0.54398835,1.9114444,0.6762347,-0.5089165,1.5890617,2.8025925
classification,-0.37147382,1.2864805,0.7682025,-0.98217493,-0.4245187,-0.70388365,0.07702909,0.58800983,-0.7627479,2.020043,1.6639457,0.52064246,0.56413674,-0.64508915,0.18230015,0.5938625,-2.547303,-2.5792346,-0.7356639,2.3296824,3.3610396,-2.5597024,-1.4239031,-0.9049647,3.0887704,-1.4085268,-1.4714298,-3.0259113,1.9365236,0.29943067,-0.16502775,0.26162282
clinical_attribute,0.5173888,0.9341484,0.14887944,-3.0794494,0.750524,0.52496266,-0.79796404,2.483119,-0.19474888,1.40319,1.5480962,-0.04876635,0.8762879,-0.41547456,1.6461514,0.61275846,2.38327,0.19751704,-0.9563269,-1.3209019,-0.93551755,0.5334778,0.028437983,-0.45940349,-0.097815536,1.1858246,0.9746789,2.6441689,-2.9803355,3.5984836,0.033461258,1.5365534
clinical_drug,0.4207782,0.7114049,-0.26342538,-1.1944793,-0.3176402,-0.6254727,2.5483844,1.0231824,0.895201,1.5892247,2.6365361,0.61600554,1.8016336,0.15428075,1.6064643,0.4062795,-1.1034693,-0.87636554,-0.5863695,-1.9945995,1.9200481,-1.4016432,-0.54291755,-3.049738,1.9453675,-2.8497365,-2.5379825,1.8318669,1.018285,1.7724817,1.748077,-3.6194131
conceptual_entity,0.72079015,2.1627107,-0.21903269,0.626779,1.7731837,0.69972825,-0.028206853,1.2483352,-0.13864884,1.2018771,1.2032021,0.1375097,1.3156635,-0.20013377,0.4289537,0.46856782,-1.7640104,0.2585233,0.55494165,3.7976625,1.0738561,3.3721528,-1.1237938,-0.1022204,-0.3610581,3.4809644,-1.3637778,-0.3686951,3.6979449,-1.6565095,-0.32296136,-0.42985988
congenital_abnormality,0.31182486,1.4217116,-0.45692703,-0.9015472,0.7909284,0.347896,-1.8461224,1.426859,0.87333024,1.2047594,1.1516018,-0.22848313,1.2207344,-0.9955514,0.182046,-1.1450199,1.6209466,-0.98255765,3.599852,-0.48282543,3.066702,-0.6284239,1.0083624,0.22004052,2.7959814,0.40855774,0.3053185,-1.9404424,-1.7140449,1.4367305,-3.4753058,-1.375013
daily_or_recreational_activity,-0.18622974,1.8202279,-0.14883396,-0.8567596,-0.08786394,0.0989898,-0.06672468,1.0811807,-0.70141244,1.5896692,1.392101,0.21798842,1.8325621,-0.79824454,-0.04678315,0.38138154,1.2632599,-0.120720126,-0.052631106,2.151968,-0.94534135,-0.90940326,-0.24644162,-2.0692244,-1.3225539,3.0778368,-1.8810526,-3.4504638,-0.96479195,-0.0903838,-1.3091085,0.6533258
diagnostic_procedure,1.2256238,1.9064366,0.914029,-0.93632215,0.7187227,-0.4073811,-1.37843,0.6926791,-1.630522,1.8401197,1.0853051,-1.8652422,0.4500763,0.3820734,0.55037236,1.1265414,1.6267564,-0.5630693,-0.15513615,-0.83921117,0.90109795,-3.065441,-1.9377024,-1.387192,-3.6057103,1.4971582,-0.9344977,-1.7214044,1.5826386,1.3933319,-3.1052976,-1.9504513
disease_or_syndrome,0.44781062,1.2392908,-0.38064018,-1.1830086,0.25313473,0.93507606,-1.4631481,0.4895412,-0.77014333,0.65359515,1.0573986,0.24210222,0.75678,0.0016562361,-0.3114287,-0.4045688,0.86157155,-0.96561944,3.0300133,-1.5803058,2.7476082,-2.220315,-0.06237393,-0.66231716,2.4044063,-0.4815844,0.820096,1.1817114,-0.5608875,-1.5261605,-2.1631608,3.3863282
drug_delivery_device,0.8053964,1.9933447,1.2364278,0.23453543,-1.0130142,-0.15126146,0.15235393,0.6897395,1.3759369,1.0344613,1.91664,-0.91889787,0.9227855,-2.9134943,0.6303384,-0.20774797,-0.4252091,-2.2721634,0.1224591,-0.5228108,1.157506,-0.7306559,-2.2282748,-3.0845854,2.7825084,-2.0676148,-0.2814834,-0.2771919,1.0703619,0.78106874,1.0005306,-1.4419827
educational_activity,0.51484317,2.2752578,-0.18921259,-0.3047067,0.37264273,-0.066043645,-0.19261114,1.3644965,-0.38018382,1.3457664,1.6237144,0.39564735,1.4233812,-0.5881905,1.383772,0.5649161,2.1152344,-1.0380105,-1.8164982,3.4076836,-1.9991285,-4.1547503,-1.2854259,-0.7415665,-2.4314883,2.123092,-2.641025,-0.75381374,2.3572783,1.294126,0.32038042,0.9086678
eicosanoid,-0.35178462,1.2547421,1.096308,-1.0208282,-0.3865058,0.06918563,1.5306621,0.96983784,-0.8898617,1.9666195,1.6808861,-0.72976387,0.25502867,-0.7026473,0.9643959,1.4899977,1.4373273,0.62693626,-0.98645735,2.494649,-2.3535953,-0.78804564,-1.4664168,0.38155928,2.1201305,-0.13694096,0.5870823,3.660193,1.7318527,2.2311773,3.2537253,1.4400666
element_ion_or_isotope,-0.22874181,1.7651061,1.0804274,-0.049643192,0.8833211,0.22240968,1.8551314,0.8919017,-0.25706202,1.7483257,2.05885,-0.66215533,0.47483197,0.097101025,1.4162672,0.9150638,0.9146944,-0.23744361,1.8468453,1.9272921,3.6335738,-0.27320477,0.72366035,-1.3762724,3.3434646,0.8903048,-1.793594,-0.83267015,1.7387488,0.5200896,3.91307,3.8379703
embryonic_structure,1.6022043,1.8048617,0.7342436,-0.38476515,-0.7718072,0.74218136,1.2961588,2.2174273,-0.22027767,1.8112195,1.4436361,-0.63273674,0.71968085,-1.2459853,0.7134911,0.08027538,0.066430286,-0.9208652,-0.15416506,1.4897796,1.0287222,2.2421453,1.2892764,1.7459059,3.0315077,-1.4793168,2.2276824,2.4270885,1.4186563,3.088656,0.76654816,-1.1091027
entity,0.24627385,1.852151,0.67759943,0.18137088,0.049196053,0.7573212,0.9290032,2.3422394,0.08323789,1.3803824,0.19458485,0.25986916,2.2247095,0.13464126,1.5218071,0.05243923,-2.9694083,-0.942469,-2.528451,2.603709,1.1240731,5.372437,-1.8511429,0.11088628,1.1384565,3.750597,-0.60399264,0.011809591,3.9006562,-0.6109434,1.5566813,0.9890668
environmental_effect_of_humans,-0.22932573,2.4193337,1.2817416,-0.37775972,0.8603526,1.2285937,-1.3913676,1.4188149,0.06467471,2.2619762,0.5708008,0.8846507,0.6597825,0.96610796,0.8847229,0.13226731,2.5829084,0.1904058,-0.9930836,0.62929344,0.63360566,0.60989684,-1.3852526,1.2915791,4.1500454,1.270259,1.2198235,-0.063411474,-0.04618294,1.4216231,-2.835997,-1.3982204
enzyme,0.95524144,1.8166702,1.5698164,-1.4338456,0.89662206,0.19056705,0.8210848,0.742462,0.5626776,1.2962958,1.6672848,-0.40260026,0.45481175,-0.60404295,0.083818465,0.19457902,1.4326036,1.0956186,2.0133827,0.38056237,-1.0826086,1.5742525,-0.7472088,0.08377436,4.0737405,-0.89634496,-2.1394036,-3.1358137,2.3981965,1.8036427,5.3943777,1.9552884
event,0.5941185,1.322512,-1.9856619,-2.7505262,-0.65019006,0.42655072,-0.790594,1.551463,0.1102206,2.4279256,1.5545573,-0.115207724,0.72411376,-0.47000858,-0.08437017,-1.0050498,-0.23317057,3.0548174,-2.1429534,0.44590315,4.2680945,-1.9047006,1.9956601,1.1244574,-2.437764,2.1664867,-1.0966033,0.71714807,1.8336054,-2.1699543,-0.49482504,0.70612615
experimental_model_of_disease,0.66811544,0.7786758,-0.50967914,-0.41249257,0.48293844,0.56243354,-1.6493356,1.0416356,-0.3238435,1.365634,1.0201237,0.055422213,1.2386405,-1.1058518,-0.5598545,-0.5116845,-0.45355016,-1.036322,3.206826,-1.9649156,3.128127,-1.1226461,0.7952276,-0.3537082,2.8983865,-1.0104704,1.5550492,0.73737407,-1.1785808,1.0126818,-2.1843765,3.5852487
family_group,0.6540978,1.3570594,-0.56135684,-0.15222457,0.064118475,-0.2683316,0.6128243,0.9587551,-0.2843643,1.9323472,1.6571689,-0.17046034,0.6839728,-0.7259775,-0.066635735,1.0396322,1.0451672,-1.5862403,-0.9099413,-1.1415508,-4.494249,3.439729,0.97193664,-3.2194695,-0.45885947,2.68778,-1.2876779,-0.62652314,2.5117428,-0.21950233,-2.6594584,-0.8996258
finding,0.9783779,2.09913,-0.82758474,0.32939538,0.019887427,0.27573252,-1.4914974,0.886638,-0.1967029,1.0084072,1.4381278,-0.567902,1.4051683,0.022938533,0.6624661,0.68315583,-2.0189962,0.7069777,1.1682179,-0.60997784,0.3688669,2.8152518,0.52722424,1.3726815,0.07008353,1.4869395,-2.1524484,-0.66768736,-0.25142118,0.85042834,2.1651158,2.0811691
fish,0.509095,2.5517192,0.47121152,0.585613,-1.1659923,-0.7444617,0.43182558,0.8615511,-0.08007413,1.6855149,1.4628983,0.7868747,0.3027416,1.5129857,-0.16866575,-0.0012766065,-4.7215023,-0.44768718,1.8697934,-2.6340559,-0.21616882,1.744905,-1.51097,2.3626454,3.373823,0.2810778,0.7615385,1.4041519,-1.4051183,0.38024706,0.12388299,0.056949608
food,-0.10562421,2.4824097,1.2976109,-0.83433443,0.7804155,1.338506,0.49861294,1.0518342,-0.94953775,1.9933919,0.80836034,-1.2768368,1.4526595,0.10623882,0.7196176,0.020123927,0.668855,-1.3555353,2.608794,-1.1191356,1.5199617,2.1036875,-1.5266138,-1.3892608,1.3747126,-0.17765626,-0.83945405,1.29015,0.17755264,-0.6053132,0.5218362,-1.770881
fully_formed_anatomical_structure,0.55959433,1.118465,1.3996034,0.058664575,-0.27400932,0.19026333,-0.45099702,1.0444959,-0.8578694,1.8829516,1.0293328,0.9615124,0.4194779,-1.1576833,1.2601737,-0.3262134,-0.90183175,-0.4551434,-1.2239057,0.42578045,3.8227544,0.90968776,0.17695233,2.3300164,2.046556,-0.086968705,1.3697927,-1.8700718,1.5075146,1.2702806,0.25170356,-0.3968262
functional_concept,-0.23208107,1.610085,-0.105072446,-0.41480213,0.02932745,0.4634728,0.006121753,0.91509354,1.4343239,1.7276677,1.7558872,0.758302,1.3767501,-1.3084917,-0.9328617,0.53760624,-1.6981908,0.9705798,0.10747399,1.0611548,-0.12356044,2.2132246,-1.207088,-0.36436707,3.4990385,0.9772731,1.1783103,-2.0480452,1.6332968,-1.2121836,2.3045526,0.50470906
fungus,1.6546274,1.3086078,1.1639357,-0.38060415,1.2749988,0.19695097,0.6347952,0.6139489,0.3185953,1.427042,1.6467764,1.1911801,0.60552996,0.47329533,-0.47743502,0.16884883,-1.4939942,-1.6134137,0.83568573,-2.2157438,0.16304053,-0.97012067,-1.7085186,2.3980544,-1.16615,0.121691205,-0.5680326,0.7991094,-1.8713567,1.9024185,0.21335505,1.6034619
gene_or_genome,0.36356395,1.5497764,1.139519,-0.14693351,0.21491563,0.7199194,1.0689641,1.6445197,0.06191056,1.4136702,1.360395,-0.26130402,0.9107827,-0.72443223,1.554195,-0.5743561,0.2043082,1.1050801,-0.65417475,0.88358873,2.4699538,0.7244468,0.031838022,3.137391,2.2073975,-0.8619567,0.23207732,0.67947006,-0.6515828,2.6327915,-1.8159034,-1.5563451
genetic_function,0.31386897,1.3750587,-0.2517289,-0.4098913,0.22820923,1.2220638,-1.1114719,0.9746508,-0.0030394774,0.91918176,0.7492309,-0.2187492,1.5885115,-1.412139,0.2679224,0.8716082,2.077961,1.193416,2.3898442,-0.5257561,4.098019,1.8113931,-1.082654,1.8809819,-2.1701303,0.13980004,2.6879804,4.5756407,-0.7779546,4.742135,-1.150853,1.1522497
geographic_area,0.9490315,2.0247827,-0.86432755,-0.08726646,-0.69839984,0.5609299,-0.72037554,1.5002846,-0.8878435,2.0981123,2.1835113,0.6328687,0.31073296,-1.237013,0.53675413,-0.3048137,2.6149058,1.27859,-1.4437236,1.2752758,-1.876204,3.8141694,-1.6357048,-4.1785274,-2.007206,3.630382,-0.86609584,0.3118353,-1.4419851,0.85840493,-1.6514767,-2.7934701
governmental_or_regulatory_activity,2.0371368,2.0626936,-0.8135977,-1.1345698,0.1458526,1.6105537,-0.78613013,0.9429234,-0.08026497,1.413787,1.8242196,-0.19675076,0.51349926,-0.16997154,1.2367212,-0.33009878,1.4507834,0.5784864,-2.6603189,2.0727878,1.6650299,-0.264425,-1.8605705,-1.297662,-4.289504,1.7694592,-3.0351803,-2.5171275,0.070919216,1.3201833,0.20304656,0.87893665
group,0.08454072,0.7925977,-0.040813327,-0.09737767,-1.085489,-0.3232667,1.032176,1.1095909,-0.5074249,1.581325,1.5486324,-0.6428215,0.7635445,-0.49443603,-0.45303947,0.9873125,0.62138987,-0.8534214,0.7794634,-0.43454075,-2.425395,1.8726447,0.43784535,-2.777678,0.08966247,1.5759859,-1.61105,0.08836616,1.212819,-0.36493036,-2.9609168,-2.818391
group_attribute,1.6006844,2.6493433,0.09662736,-1.4478668,0.21731256,0.31263003,0.43300804,1.1167998,0.4653861,1.4479061,1.4670722,-0.6470506,1.7739842,-1.1209995,1.7906294,1.2543545,-0.27896485,0.28158453,-0.80135673,-0.60129154,-2.1173096,0.8289395,0.9828678,-3.0577943,-0.35055336,3.2732503,-0.24897276,1.976651,1.4014164,2.317877,-3.4663668,-0.6452587
hazardous_or_poisonous_substance,-0.0022180756,1.6775954,1.2594843,-0.8216305,0.2439266,0.48246458,1.4899415,0.8007411,0.88958263,1.2380403,2.0645502,-0.43201905,0.36482525,0.09178856,-0.36645484,0.3431579,0.8855212,1.7803993,3.1968393,-0.1596242,0.7034631,-0.75633967,0.12177141,-0.13690382,0.06869009,-0.9508313,-1.7433004,1.2100222,1.4569896,3.2313952,3.0994737,2.2825818
health_care_activity,0.5462716,2.1932228,1.2496531,-0.41010803,0.6260853,0.19314194,-2.1833198,0.82495403,-0.5652791,2.1045487,1.4831032,-0.64426184,0.8160848,-0.036791448,1.0291026,-0.09408179,-0.56023437,-0.33493418,0.61923045,2.3751814,-1.9210416,-1.3291045,-3.6234708,-0.6749077,-3.9439588,2.3052397,-2.074368,0.18725495,0.88497216,2.5745037,0.2604317,-0.34877333
health_care_related_organization,0.44707763,1.8784561,-1.9550431,-1.6402175,-0.3600204,0.06691889,1.5465603,1.4847739,-1.7996521,1.2841142,1.8295777,0.15371363,1.8427279,0.040188752,-0.54733074,0.7572318,0.6929512,-1.3925949,-3.246608,1.6831951,-3.631825,2.671835,-0.93939036,-1.4906878,0.5736945,1.6545352,-1.002218,0.4778107,1.0033336,-0.7844802,-1.4216396,-1.7323443
hormone,0.013452008,1.7206582,1.4787344,0.05746268,0.106721416,0.5716095,0.16135398,1.5591983,0.83214504,1.7877748,1.3264111,-0.04262436,0.84174985,-1.1111593,0.009701807,0.1689786,2.1868947,0.17642213,3.328891,1.772985,-2.377793,2.217014,-0.63290614,-1.0241748,4.4404893,-1.6698519,-1.5603619,-1.46965,1.822819,1.0721861,2.0708568,3.9590838
human,0.27335683,2.300043,0.5916053,0.23514655,2.5006602,0.01425791,1.036042,0.67028594,0.08341836,2.2352655,0.90833163,0.00512765,0.9079107,1.5798063,0.30848512,-0.39533192,-4.2505097,-0.26072466,0.72534037,-1.8322304,-0.063153654,0.865598,0.044699047,1.4109093,0.65595025,-0.58098876,-1.6753637,0.40396076,-3.0528848,-1.3284577,0.9987756,0.43357778
human_caused_phenomenon_or_process,1.6501764,2.0200293,0.92778224,-1.6586328,0.6639366,-0.24887909,-1.2290429,2.1208255,0.23199554,1.34758,1.438472,0.5793374,0.5575276,0.4949865,2.1676712,0.6931345,3.9391172,-0.511571,-1.8364111,0.2892148,2.8232698,-0.1833479,-3.5241039,0.07092416,3.7067842,2.913478,2.0439236,1.0410347,1.4142889,1.684237,-1.3927088,-2.2337227
idea_or_concept,0.27204558,1.0518361,0.0943301,-0.5910747,0.9418235,1.5910853,0.61852545,1.6072203,-0.51569784,2.6944354,1.9241817,-0.78328836,1.1936255,-0.8583342,-0.6210889,0.64499843,0.805696,-0.4976469,1.1314156,0.7708747,1.572177,1.2814094,-1.129967,0.32384613,1.9164627,3.9019165,-0.38601658,-3.1459403,-0.63004816,-3.126636,-2.6797466,-0.2408905
immunologic_factor,0.048291575,1.8835007,1.3403412,-1.6722134,0.3087988,0.38482594,0.14035696,1.1860543,0.9088373,1.1503782,1.3972808,-0.5240908,0.62042075,-0.9767867,0.62904465,-0.44166654,1.6752617,1.1177504,1.4074365,-1.2652475,-3.7576556,-0.76227045,0.52444154,-0.5157574,2.073008,-1.4912143,-1.6516635,-2.1741772,2.152051,1.7884731,3.7372606,2.5438378
indicator_reagent_or_diagnostic_aid,-0.3836121,1.8017151,1.6858872,0.321643,0.6257659,0.001199019,0.753701,0.40762058,0.043742597,2.106449,1.4443614,-0.028780522,-0.17828399,-0.4744889,0.6274966,0.5299115,-0.10810302,2.0527809,1.0387235,-0.08562584,0.276048,2.0342205,-1.6394664,-2.7414978,4.0930767,-0.5069643,-1.9647647,-1.2880518,2.9911494,1.2907319,2.5575495,3.2651443
individual_behavior,0.6815393,1.0385532,0.26620695,-1.0060757,0.33265606,0.7970143,-0.47319424,1.3851212,-0.20358106,1.0833098,1.6567664,0.51862645,1.0512447,-0.72028303,1.2217956,-0.06161275,-0.85762113,1.8586997,-1.9871788,1.2659729,1.6540279,0.24234954,-5.44563,-1.9872645,1.1303105,3.278414,0.21527064,2.9279041,-3.5077262,1.0037285,2.9970715,-1.4277588
injury_or_poisoning,-0.6904895,1.6056235,-0.41085047,-0.8305197,-0.09027551,0.20722339,-1.810666,0.80605865,0.3920455,1.0136081,1.3402133,0.20482534,0.21430239,-1.1394122,-0.53302544,-0.011687774,0.5921961,-0.68589413,3.343392,-1.3209169,0.65463835,-1.6696862,0.090504944,-2.5267608,1.4935874,0.43282807,-0.0753829,-0.95268357,-0.5687859,0.008300336,-3.4920967,-0.54822755
inorganic_chemical,0.18571636,2.1735322,1.3441651,-1.3128754,1.3539412,0.6609584,0.18191989,0.7729795,-0.42151418,1.3386874,1.1660295,-0.45681882,0.3546678,-0.94378597,1.0474544,0.7880744,2.4846394,-0.9390115,1.3469411,2.123574,2.0705044,1.7642844,0.9320524,-2.9738302,2.058116,-0.5710538,-1.1649247,2.778985,0.41256607,-1.5599891,0.25747934,4.0234294
intellectual_product,0.49613455,1.0849054,-0.356605,-0.10258753,-0.0016803704,-1.1963056,-0.2968726,1.462365,0.9535402,1.7873187,1.8892,-0.68412554,0.56651515,-0.67930365,-0.017058095,-0.1345145,-3.1189256,-0.27841145,-0.9429437,-0.32320553,3.1440525,-2.1010602,-2.1066275,-1.6048046,0.7926934,-0.009555577,-1.506233,2.5477386,3.1889045,-0.23863348,0.30290544,-4.3769207
invertebrate,0.95302737,2.0696852,0.7062466,-0.7294927,-0.3466641,0.5063566,-0.12176334,0.80089724,-0.3520118,1.6596911,1.3452566,1.191282,0.037776157,1.1308236,-0.51409715,0.3529801,-3.2595925,-1.6042103,2.4243758,-2.0749,0.07263848,0.526666,-1.5228122,0.7009993,1.468342,1.356004,0.75478524,0.760872,-2.2240553,0.27124235,1.0131612,0.85395074
laboratory_or_test_result,0.9731529,1.8735979,-1.3265595,0.32720906,0.05947452,0.6335506,-1.0461017,0.856308,-0.027053794,1.2754737,1.5586853,1.0481393,1.2473226,-0.51965904,1.0667474,1.2260203,2.3855896,0.16556238,-1.6560225,0.6522958,2.0700145,1.5543123,0.39366794,-1.7071087,0.36939102,1.1026846,-2.4111364,0.8735731,2.0566027,-0.87437665,-0.7601506,0.6535976
laboratory_procedure,0.5031296,1.7379823,0.925902,-0.23671106,0.44963592,0.25423092,-1.6275473,1.0607466,-1.1931885,1.7337176,1.0011114,-1.3742762,1.2951936,-0.6069128,0.8217738,1.542456,1.775971,-0.13677306,0.9885536,1.9743571,0.604539,-1.9379364,-3.496302,-0.7414434,-1.8317343,1.729912,-0.67602617,-0.9875851,1.944338,2.552292,0.88181543,-1.4281766
language,0.35606757,2.0408514,0.627268,-0.33834445,-0.06259919,-0.32745388,-0.4352809,1.1984994,-0.10106426,2.6035895,1.3462592,0.77258795,0.050195254,-1.3372351,1.2851826,-0.6238343,-4.5349073,-0.73127294,-2.8369343,0.85438734,-1.652329,-0.21391338,-1.4743773,-0.51901823,0.071137875,0.16369319,-0.614219,0.95862734,3.4234753,2.555977,-0.7868119,1.3162003
lipid,-0.6205543,1.8225129,0.91728544,-0.34967372,0.7342603,0.79747725,0.7667959,1.109216,-0.16024636,1.2088319,1.320646,-0.12203275,1.1530892,-0.8735183,2.4068234,0.4684537,2.7837243,-0.44043776,-0.69366074,0.12468079,-1.075149,0.74792457,-2.6085165,-1.7762076,2.8876238,-0.1948162,0.03467535,3.1014626,2.8995976,3.8424754,1.8004063,1.5855662
machine_activity,0.6007057,1.951175,-0.72449934,-0.8954282,0.0845979,2.4343948,-0.1546475,1.6951587,-1.7261187,2.0175781,1.4374839,-1.0120652,0.818821,-0.65789837,0.26109576,1.4850525,0.9406363,-0.43644002,1.7117698,3.135189,1.5774664,-1.9340612,-0.4794231,-1.3604796,2.7424033,1.7868301,-1.1367252,-0.18569143,-0.8911099,0.44740793,1.8291347,-0.096641995
mammal,0.7426245,2.0032783,0.57990515,-0.12582575,2.0696537,-0.43442127,0.11615483,0.009136593,-0.13938542,1.5078568,2.0538788,-0.22176985,0.64842254,1.9378232,0.8143932,0.5996124,-4.5127554,-0.1740439,1.333492,-2.3356428,1.325251,1.5662922,-1.6229185,0.62382317,1.2854297,-1.1275269,-0.61756897,-2.4698036,-0.6196076,0.28549317,1.604187,-0.28464755
manufactured_object,1.0142765,2.2507136,1.1529301,-0.31010073,0.163489,-0.8797138,1.9889363,1.2225251,-0.7781407,0.7813698,1.8288375,-0.025576629,0.9383588,-0.3220334,0.9354799,0.62013096,-0.38820094,-2.255703,-0.17006367,-0.08096541,1.9004737,0.5674349,-0.957871,-1.5446897,0.7776917,-0.29977566,-2.8658926,-0.38827974,2.534495,3.0638733,2.1409717,-5.421498
medical_device,1.6763324,1.143767,1.2419572,-0.31761417,-0.03379081,-0.0906973,1.1508845,1.2850192,-0.5631325,1.5109234,2.089648,-0.37542954,0.7427858,-0.3501149,0.25673348,-0.36329758,-1.1452733,-2.53886,0.83280706,-0.74104005,2.213251,0.7010372,-1.2453848,-1.7432923,1.2066816,-1.7890227,-1.6587064,0.6969111,-0.31677172,-1.9762481,0.95132333,-4.0491557
mental_or_behavioral_dysfunction,0.18280123,0.9386432,-0.57146513,-0.93227863,0.19998792,0.8766279,-1.3837163,0.69828606,-0.21486787,1.0186847,1.0229737,-0.30274138,0.8097226,-1.1366774,-0.6824005,-0.31210628,0.10218242,-0.4030293,3.0887182,-1.1900266,1.340581,-1.8013468,0.29211155,-0.7289929,2.0114305,-0.51693296,1.0679568,0.6102665,-1.3858366,-0.076388,-2.3396733,3.4715726
mental_process,-0.3371985,1.2374609,-0.38246137,-0.7788179,1.0296111,0.20163818,-0.2931959,0.77129304,-0.61430544,1.1158198,0.46252772,-0.57645315,0.50765073,-1.2475753,0.22303808,0.1794548,1.536205,1.8366973,1.3725617,-1.0858256,3.6139843,0.26797664,0.17239776,0.22552386,-2.2575476,0.0483006,2.0245798,0.72580785,-1.7087576,2.3772185,-0.034775294,1.0925596
molecular_biology_research_technique,1.409845,1.5219772,-0.33937988,-0.58202195,-0.58415776,-0.008406624,-0.88420177,0.89641404,-0.8003925,1.4421233,1.3392227,0.64585483,1.5988224,0.69704413,-0.11551281,0.59190154,0.37716484,0.90995854,1.418973,3.177019,-0.09629995,-0.881838,-2.0397398,-0.94276124,-3.3619184,0.9610254,-1.3744578,-0.96022636,0.08480028,1.9809587,0.9488548,-1.7824912
molecular_function,0.8326088,1.4184229,0.1696325,-0.56346214,0.1673578,0.56871206,-0.9093777,0.90993273,0.926371,1.2469313,0.4449302,-0.50549835,1.3029362,-0.010845925,1.0704681,0.6416252,1.7076924,1.7600259,1.8226743,-0.1258232,4.2560425,-0.679267,-2.7229927,0.7789241,-1.7379199,-0.6692619,2.4973423,4.2567477,-1.1815895,1.7521749,-0.84017354,0.9922019
molecular_sequence,0.66614443,1.7146213,-0.15507108,0.017059486,0.38400045,-1.0105675,0.5545842,2.3158402,-0.83537686,2.5397959,1.4787248,-0.12353884,1.4530839,-0.73991287,-0.70654285,-1.537843,2.3368804,-1.0084716,-0.9591597,0.9825245,0.0039038283,3.403335,-0.5305806,1.7301186,-2.2906,2.7679234,-0.66066253,1.3516536,0.96549726,-0.39939633,-0.65612787,-0.121112615
natural_phenomenon_or_process,0.37354088,1.1910743,0.23938124,0.014339021,0.196627,-0.3169641,-1.1606982,0.670055,-0.3306906,1.9428476,1.3206108,0.11868335,-0.40419286,-0.9502506,0.52304614,0.82826185,-0.14256686,1.9642587,1.5760556,0.039938737,4.81323,-1.5466976,-1.8181136,1.2461956,1.0236998,0.57542974,1.7035391,0.89961433,-0.33281475,-0.95911765,-0.21266802,3.801681
neoplastic_process,0.3379969,0.9065413,-0.24077131,-1.0689183,-0.0644288,0.69462824,-1.7025932,1.1810936,-0.41145834,0.8548747,1.4354562,-0.4356171,0.3659613,-0.961791,-0.5594019,-0.15521595,1.1395336,-0.7819451,3.3268785,-1.5452526,4.2332845,-1.5965878,0.65655684,-0.18306045,1.2755007,-0.812384,0.88983214,1.1850759,-1.8024948,-0.28478503,-2.6324885,3.2220294
neuroreactive_substance_or_biogenic_amine,0.379823,1.604663,2.1275163,1.0420827,0.71451426,0.71867394,0.3957587,1.567017,0.37294486,1.738373,1.7671573,0.12843205,1.5807395,-0.72366065,-0.0145749515,0.09671791,4.0692167,0.6826386,0.3431763,1.6330951,-2.680933,1.2126735,-1.3725579,-0.911619,4.648094,-0.42430472,-2.007594,-2.0618644,0.86777854,2.93873,4.210145,2.7589495
nucleic_acid_nucleoside_or_nucleotide,-0.40095374,1.9130784,0.98866445,-0.5451579,-0.29977113,0.9515595,1.568902,1.7466731,-1.0048127,1.507703,1.3926408,-1.134647,0.39037594,-0.52670956,2.2601087,0.53717774,1.8990915,-0.3984285,-0.5007497,2.167723,-1.2796038,0.28002834,0.7364552,-0.49904272,2.210626,-0.5075765,0.0959925,2.9703987,1.021896,0.6255633,3.087854,2.6429617
nucleotide_sequence,0.6368224,2.3502562,0.74677825,-0.70190555,0.3202627,-0.54229295,0.5956394,1.2236189,0.43989566,2.0603158,1.1856724,0.6123347,1.7439263,-2.2419794,-0.06169985,-0.30318582,3.2141304,-0.22111906,-1.5391649,1.1316243,0.8771794,2.225897,-0.6980755,-1.2182313,-2.4084392,1.601455,0.24650612,-1.503225,2.0358236,2.5930572,-3.880795,-2.4676921
occupation_or_discipline,0.2421746,0.39831963,0.48213306,-0.31090838,0.542722,1.3111122,1.1990734,-0.49866557,-0.10540647,1.7849498,1.515426,-0.08064422,2.5691347,-1.3587573,-0.15778568,-0.16783461,-4.1125283,1.30189,-0.5485926,3.1118367,-0.52098674,2.3462229,-1.0413659,-3.7407348,1.2010462,-1.3126265,1.513036,2.1545253,0.54838353,0.9664099,1.1462588,-2.5308373
occupational_activity,0.8908678,2.0967822,-0.3515069,-0.34764796,0.47584102,0.63659406,-0.8791635,2.0170522,-0.2406975,1.0660926,2.0844383,0.65098494,0.2709214,-0.7137636,0.63082445,0.40650287,-1.5156742,0.4270419,-2.248128,1.9243145,-0.23595667,-2.1960433,0.7297834,-0.43249172,-3.9125476,2.451267,-2.961872,-0.5692136,1.3551332,0.16863574,1.3623248,-0.7462402
organ_or_tissue_function,0.42849013,0.6027953,-0.43730158,-0.3424449,0.55544126,-0.9001919,-0.75584555,1.1401434,0.40167686,1.4809453,1.2216699,-0.108672835,0.8051035,-0.83729994,0.6044496,0.2429605,3.3523078,0.45332375,2.5370214,-1.1883504,4.4012275,-0.44234902,-1.2638283,0.74433255,-2.9710255,0.14390817,2.4999735,1.6339128,-0.31587943,3.7494016,-0.6043973,2.8139453
organic_chemical,-0.606957,1.4718369,0.885264,-0.42930263,-0.6673705,0.9111703,1.0229082,1.7307308,-0.7943846,1.3907732,1.696409,-0.51423067,-0.31381416,-0.37625322,2.6762145,0.41620386,1.9370615,0.23724219,-0.48131183,1.2825327,-0.31552255,1.823426,-2.8280985,0.418769,2.001409,-0.9739517,-0.14782055,3.1396394,-0.0024624132,-1.3153692,1.7444162,3.122571
organism,0.33807033,1.7248359,1.0154344,0.23389356,0.40216666,0.27264014,0.24284805,0.55980784,-1.2038629,1.1691175,1.0475605,-0.5591173,1.0131437,0.44193253,1.1455048,1.329476,-5.364465,-0.50008523,-1.0171672,-3.1772532,0.15825891,1.4636756,-1.0155256,0.43285295,2.2452855,0.81850934,0.4425268,-0.19027275,-1.4246792,2.6863577,2.161441,-1.1034422
organism_attribute,0.60480803,1.1898926,0.20508012,-2.1462862,0.71130776,0.53559095,-0.65763456,2.0898464,-0.606539,1.1502175,1.6797484,-0.48798838,0.7235317,-0.290138,1.9671788,-0.7546405,1.830276,0.22944824,1.2191309,2.3388414,-1.9820445,1.4261436,1.443162,1.0266755,-0.3911395,1.7337011,0.21883675,1.5187604,-1.9661237,1.1048663,0.58138865,0.86469656
organism_function,0.5096754,1.1309395,-0.3409793,-0.22514658,0.3632685,1.0607619,-0.5196449,0.9395395,-0.6540656,0.31660497,1.2676698,-0.09474186,0.8762469,-0.9216376,0.28947052,1.304477,1.9521806,0.9699334,1.6932226,-0.62801486,3.2021804,-0.28719237,-1.2695812,0.47363275,-2.1975338,-0.07734691,2.5760472,2.9688075,-0.2918552,1.9295461,-1.5426781,1.5100092
organization,-0.3244249,2.2323754,-0.63494956,-0.52099794,-0.8249633,-0.17736083,1.2400317,0.6313773,-0.8584708,1.5295871,1.5444362,0.9661272,1.2675414,0.48001885,-0.25137195,0.21899399,0.21986017,0.49667132,2.207672,3.539851,-2.0682764,3.681504,-0.50796115,-0.69343436,1.5645581,2.1896145,-1.6344045,1.3076717,2.302049,2.2369516,-2.7548678,-2.9742098
organophosphorus_compound,-0.28811544,1.3242503,0.9784929,-1.0387963,0.9513334,0.471299,1.1779913,0.15121527,-0.32694376,1.194443,1.9858682,-0.5642819,0.6676583,-0.8316217,0.6767522,1.266312,1.9656215,0.08113354,-1.2598598,1.9064513,-1.4684273,0.80038023,-2.3976512,-2.0245821,4.1652446,0.56782055,-0.8254771,0.64740217,1.0616685,2.5159504,2.1791863,0.97757727
pathologic_function,0.8341899,1.2954612,-0.28368858,-0.6783496,0.20703222,0.7020683,-1.663177,0.75474024,0.15294299,0.4319508,1.0702627,-0.4366155,0.47340083,-1.2433838,-0.7384746,-0.38498604,0.033375785,-0.5503574,3.151535,-1.3265848,2.6423488,-0.8378071,0.79814583,0.027480368,1.2572203,-1.0470586,0.9734971,0.59228045,-0.6929518,-0.90866345,-1.8000981,2.8611097
patient_or_disabled_group,-0.13036282,1.3929654,-0.15671204,-0.067836024,-0.27282363,-0.8548532,0.7616007,0.7190241,-0.040450014,1.6940929,1.1199038,0.042862788,0.2866454,-0.4461088,0.1884876,0.2863267,-0.83518606,-0.5527582,-2.2350032,-3.5847578,-1.8947138,1.3600137,-0.10243579,-2.1773152,-0.28883883,1.0246571,-1.4621879,3.2709858,1.3660326,0.8646128,-3.7625546,-1.6488041
pharmacologic_substance,-0.033154123,1.4975516,1.967455,-0.7117468,0.9004208,-0.26083165,-0.2381805,0.44827357,-0.4681801,1.7513267,1.4664627,-0.26957425,2.3162947,-0.7233727,-0.05560203,0.104197405,1.5304356,0.481719,1.2256227,-0.3365931,-0.418715,-0.10146059,-3.3102493,-0.98183256,4.9079514,-0.842597,-0.8557685,0.940669,2.7286,-0.93227464,2.6444833,1.3465788
phenomenon_or_process,0.06401072,1.3627176,-0.5748126,-2.1145291,0.4762263,0.83131504,-1.8281704,1.519648,-0.7213047,1.781213,1.4748054,0.8942127,0.55658233,-1.1408787,0.43535292,-0.1855752,0.07929865,1.7369009,-1.4914062,1.8083314,2.8659482,0.86823165,-1.9709113,0.43986732,-1.0492353,0.958853,1.3401995,1.9879079,0.2599446,-2.613687,-2.881986,1.0089197
physical_object,0.31637397,1.2343361,1.0610639,0.10582904,-0.87325263,-0.070926376,1.258888,1.7139058,0.9056269,1.3087244,1.0266438,-0.1818266,1.7207701,-0.11778435,2.1102986,0.86901075,-0.083701044,-1.3308418,-4.307175,0.10208429,1.9869155,0.1766055,-2.0130491,1.7207553,6.061993,1.462359,-1.5432388,-0.26261583,1.7084428,0.8851542,0.08538094,-0.5712465
physiologic_function,0.4243571,1.3111423,-0.012397866,-0.44672897,0.272016,0.18402697,-0.5691743,0.8215088,-0.23841368,0.85955715,0.92798847,0.27172714,1.468351,-0.8331091,1.1937299,0.91700035,1.2587577,1.2619338,1.7138574,1.1117328,4.036121,0.05763135,-0.53206056,1.868753,-1.7367587,-0.408167,2.5252237,4.4361167,-1.501706,1.6925042,-1.3599085,1.4519035
plant,1.2054468,1.1634357,0.6551297,-0.79694426,0.33399883,-0.42126936,0.8761508,-0.4699034,0.20519152,1.3753184,1.6601175,1.3176397,0.37373212,0.32746786,-0.5812446,-0.8722483,-2.8784294,-0.9660242,0.14040767,-1.381081,1.3800495,-0.00064763427,-1.4710269,-0.16564196,1.0737232,-0.19234855,1.5213904,-0.36229172,-0.93516356,2.7476664,-0.8471592,0.31984898
population_group,0.51701844,1.1771175,-1.2715927,-0.68256116,-0.06384523,-2.337781,-0.30704582,1.0153178,-0.6515428,1.9365488,1.8965487,0.6213335,1.102072,-0.10976735,0.36799774,0.9307981,1.595675,-0.9916385,-1.2788867,-0.019128203,-2.300129,0.4472795,0.2510891,-3.8705757,-0.5790942,1.2788559,-0.274942,0.06366399,1.4831167,2.6527503,-4.4748588,-2.4124656
professional_or_occupational_group,-0.28611884,1.5596716,-0.8468201,-0.9231722,-0.30160332,-1.31655,-0.03563942,0.56194544,-0.41322365,2.091041,1.4600954,0.23190217,0.66507846,0.37131783,-0.53808117,1.5439208,0.29237762,-0.83172095,-0.88576984,-2.732862,-1.9308949,0.24167131,-0.074021384,-3.6728408,0.72872806,1.3240656,-0.39576977,1.5102807,0.9737035,3.3527727,-3.5927427,-0.46055323
professional_society,0.9594931,1.1634268,-1.1273023,-1.0461228,-0.5968059,-0.22597526,0.10469006,0.45211232,-0.98361623,1.7591132,2.0338888,0.7533574,1.3522588,0.15122561,0.04660544,-0.07548759,1.6378651,1.8726002,-1.6668488,3.9682894,-1.1433371,3.6927762,1.4024606,-1.2274939,2.8817291,0.80643773,-1.2973393,1.2223808,1.7931057,2.0547228,0.24051845,-2.872493
qualitative_concept,1.7347362,2.0182452,-0.056527443,-0.6881561,-0.39664736,1.3600706,-0.3785413,1.321503,-0.09569575,1.1435932,2.4552703,-0.51720244,0.45139715,-0.93734413,0.98498994,-0.03256102,0.322967,0.82947713,0.027000885,3.6374094,-0.657039,3.7233036,-1.4624192,0.7934237,1.330261,3.9789405,-0.05468405,-2.7617183,1.2989223,1.1061752,0.64289236,1.606342
quantitative_concept,0.65153897,0.86858,-0.44295433,-1.2940497,-0.5869678,0.47232905,0.0920192,1.4614968,1.8851266,2.5775657,2.2744186,0.10033405,0.70033056,-1.3488806,-0.16237247,-1.684299,3.9484122,1.3027163,-2.4382477,1.3412789,3.7308395,1.3659155,-1.3788203,-2.8284569,3.0979369,0.7657033,-0.4340576,1.8923621,-0.42416263,2.897683,2.4627702,2.3612542
receptor,0.95164686,1.392842,1.0373336,-0.18472904,-0.4885342,0.6015674,0.59582716,0.9689602,1.0536281,1.336545,1.7333221,-0.55326396,0.8143141,-1.1042495,-0.2551549,0.40474164,1.3600153,1.7423003,2.765342,-0.074567646,-1.6522461,0.47287303,-1.4049312,-0.7215209,0.6425728,-0.14263752,-1.2029638,-3.0307097,2.980014,2.0189314,4.542203,3.9576542
regulation_or_law,1.5292414,2.3468583,1.1068509,-0.035924505,-3.1572616,0.39182496,0.49243206,0.9915887,-0.2710502,1.3975194,1.233705,-0.386105,0.33866966,-1.33866,1.4929612,-1.0751948,-1.2214559,0.13024758,-1.2394538,-0.94042814,4.4264407,-1.0838858,-1.9699271,-1.7727752,0.038619798,0.31825072,-0.80292964,-1.5619427,5.109169,2.461457,-1.7531565,-1.7462958
reptile,0.3303102,0.82357115,0.3976795,0.5170913,0.6184858,-0.27417272,0.08851274,0.42063323,-0.8207067,2.1003757,1.4896457,0.11033297,0.34272358,0.81411606,0.7487929,-0.15136525,-3.2940297,-0.19753003,0.4023928,-1.632906,0.035397004,1.3945704,-2.525908,0.89375275,2.9144533,-1.121665,-0.39054078,-0.40033147,-1.2557,-1.5267699,0.32456446,0.37073937
research_activity,0.8824957,1.9488765,-1.025296,-0.21912979,-0.3133486,-0.11817017,-0.82181805,1.1697185,-0.7573152,1.7586688,1.4381407,0.2974748,0.7538155,0.58087546,0.74114144,1.4555268,0.2384653,1.9082893,-0.79938823,0.78839916,0.7816886,-2.5931401,-2.5423338,0.44544804,-1.9466702,1.2628493,-1.9802303,-4.0866723,0.7914416,2.5879445,0.85870117,-1.5941652
research_device,-0.1509635,1.7819049,1.5210491,-1.1677835,-0.2070609,0.18530317,2.135384,1.251241,-0.18734598,1.4559678,2.588221,0.5724284,0.7435404,0.03145384,0.6889327,-0.425735,1.5260015,-0.75981486,-0.3238633,-2.3702846,0.61352193,-0.73825896,-0.6623007,-2.9240916,-0.31415942,-1.6561093,-1.6461716,-2.3754106,2.8176355,-2.6195402,1.9484106,-4.6680875
rickettsia_or_chlamydia,1.4495351,2.3092494,2.494632,0.114924535,1.1026464,0.08390748,0.4963455,1.0364969,0.34764048,0.8837519,2.245417,1.2728682,0.3598906,0.19497044,-0.2537576,0.17411537,-2.5404663,-2.3846915,0.6400089,-1.6506567,1.2818363,-1.3649205,-2.4119334,3.7036686,0.18869808,-0.42841575,-0.84336805,-1.1664658,-2.277478,1.2632419,-0.35737517,1.5729977
self_help_or_relief_organization,0.7585286,1.3750976,-0.20468009,-0.93351877,-0.5559682,0.26081043,2.5472853,1.0810593,-1.0996469,1.6083865,2.2244284,1.6140308,1.812442,0.47518802,-0.8246965,0.8018174,-0.26707605,0.98610604,-1.5056936,1.8579501,-1.7933292,6.2273593,-1.1498959,0.32935733,1.4698848,0.8522602,-0.42433298,3.5042892,0.5866008,-0.13525467,0.64852554,-3.4378417
sign_or_symptom,1.0819857,0.82376826,-1.8923694,0.17837977,-0.46568137,0.40843308,-1.3326458,1.265496,-0.38461196,2.2270539,2.218974,0.50497544,2.2812362,-0.9596045,0.20420699,0.8907553,-1.1127189,0.16837753,1.9489492,1.2291338,1.4452649,2.691474,-0.3704518,-2.6533992,-6.1675906e-05,1.7069982,-2.3476567,-2.0381153,0.9608772,3.5715687,1.2640499,-2.2109838
social_behavior,1.3036494,0.8728891,-0.67260385,-0.3062697,0.95659256,0.9343461,-0.12500915,1.7902706,0.07280457,2.1020784,1.6790024,0.24232797,1.4268613,0.005451112,0.643835,-0.41528687,-0.11150244,2.8097503,-0.79614085,1.9722083,3.5705845,-2.4849384,-5.017287,-2.133904,2.8842208,4.2399664,0.26174155,3.5597818,-3.0913942,0.9592759,-1.212765,-3.2479274
spatial_concept,0.06756148,1.3788005,-0.24467224,-0.044133294,0.5982557,0.04532937,0.986769,1.6490082,0.91909397,1.8274609,1.4828632,-0.03941041,0.78498626,-0.14196678,0.16438508,0.44976404,0.3404224,0.16547248,1.5529698,0.98929834,1.5870929,1.2125373,-0.21589819,0.7408269,-3.3698351,2.6877666,0.18628497,-0.018665403,-0.09171502,-1.5402325,0.93709105,-3.8560128
steroid,-0.44514155,1.4695106,1.0401369,-0.32402182,-0.28671873,0.06420367,0.9272662,0.4621875,-0.082797825,1.8567003,1.9699062,-0.51897335,0.3814956,0.57825613,2.168312,0.96753347,0.22017919,0.11287341,0.55315053,4.0228252,-1.3986851,1.2852341,-1.8736364,-1.3649371,4.177594,-1.0342468,-0.13060082,1.6568592,2.8522108,1.9437289,1.9918869,3.0946608
substance,1.0783838,1.3393707,2.1656082,0.10139443,-0.4997753,-0.2512117,1.793541,0.9766182,-0.13219506,2.2068515,2.1977947,0.16059907,0.39528415,-0.34077552,-0.060345583,0.35816726,1.2094167,0.78985864,-3.4152575,2.7031863,-1.6647675,1.7576733,-1.1182207,0.7818018,2.277675,2.0531971,-1.6343015,3.6826315,0.767544,-0.4915967,-3.8196537,-0.52766097
temporal_concept,0.9558526,0.9136445,-0.5018322,-0.085091285,0.4846388,-0.19806623,1.1227282,1.031308,1.2415781,2.1785746,2.1752338,0.8748915,2.001943,-0.8038655,0.20035876,-0.27081284,0.8909747,1.4220334,-2.4291918,-2.1752827,1.5512999,0.8989359,0.54834884,-2.9845262,1.8776171,2.47302,0.78711015,-3.5183933,0.12763894,1.3815612,3.5800328,4.1868987
therapeutic_or_preventive_procedure,0.557796,1.2337878,1.4539741,-0.17934914,-0.20660289,0.20590371,-1.6758565,0.6101647,-0.07100424,1.6262391,1.786824,-0.7834395,0.08351175,-0.117022626,0.13669981,0.7790776,-1.5726602,-1.4140295,1.1591496,3.774445,0.3493006,-1.6490965,-4.4982147,-1.4051974,-4.4639893,1.8727934,-0.1525924,1.6396329,0.25483117,1.9367905,-1.7875366,-0.034119785
tissue,0.846887,1.627139,0.29730433,-0.05080018,-0.3066565,0.3122701,2.1209424,1.5413603,-0.71289563,1.0273888,1.3077925,0.49572283,1.4102354,-1.1552508,1.1702508,0.2026256,-0.54126984,-1.1563146,-0.85622483,2.912411,1.3558968,4.6266923,-0.93690753,1.1868751,3.0275803,-0.8163198,1.6037794,-0.18395126,0.685502,2.731927,-2.4261215,-0.5513749
vertebrate,1.0496725,1.7911476,0.75691116,0.08887928,0.16105734,-0.71582735,0.03267487,0.76251954,-0.36404476,1.4676138,1.3678428,0.112723954,0.08914218,0.9209812,0.35277545,0.34885514,-2.7898717,-0.64888096,1.1636002,-4.2298284,0.5108278,1.4434302,-1.2832034,1.011009,1.1116642,-0.058372818,-0.4267055,-3.033503,-0.7509298,3.9166436,0.15946192,-0.040139373
virus,0.71111584,1.5922109,1.394821,-0.8366972,0.4202732,-0.35009277,0.8248379,1.0299265,0.33040026,1.5371431,1.6160713,0.9449626,-0.0043437807,-0.6389853,-0.8237173,-0.41934502,-2.4222183,-0.9578256,-1.8989023,-3.1540244,-1.08719,1.1211449,-1.3331487,1.4546856,-0.24999145,-1.3128512,-0.13876013,-0.58972853,-2.9874156,-0.073043525,-1.9491131,1.2452343
vitamin,0.012813518,2.0331118,1.1313995,-0.8560954,0.40085492,0.08255573,0.63468355,1.2177806,0.956791,1.395237,1.1353718,0.10499118,0.10488996,-0.61258185,0.003930703,0.47647774,2.758012,0.19195837,3.2476106,1.0238433,-0.42816442,-0.67888784,-0.09494115,-0.36664322,3.157495,-1.7544553,-1.1778697,-1.8523729,2.015517,3.4184213,2.8577123,3.1303637
