,0,1,2,3,4,5,6,7,8,9,10,11,12,13,14,15,16,17,18,19,20,21,22,23,24,25,26,27,28,29,30,31
acquired_abnormality,0.058533918,-0.8770368,-1.040306,-0.23119882,0.7673848,-0.58158255,1.1594611,-0.17952007,-1.9983165,0.12671515,0.57238764,0.47158173,-0.17863093,-0.62489456,-0.26703116,-1.3593963,0.16070612,-0.3405412,0.47346872,-1.6898783,-0.048387814,2.1985219,0.16520698,0.32680652,-1.2127546,-1.0177665,-1.1604403,0.8220858,-0.82328314,-0.19153647,0.88297004,-1.3347948
activity,0.1167061,-1.0988208,0.8701193,1.4406976,0.6659673,-0.59135395,0.9378293,0.86940116,-0.6771472,0.94584274,-0.0738658,-0.3616435,-2.2050028,-0.6328638,-1.6327068,0.49997053,0.31277785,-0.44797534,-1.0839953,-0.6659853,-0.110709235,1.1792728,-0.35966966,1.2324317,-0.8134239,-1.818874,-0.77449834,-1.2108467,-0.6396973,1.141401,-1.4873813,-0.22206663
age_group,0.4363538,-0.3749214,0.5431187,0.9524288,-0.0458544,1.4476438,0.9072549,0.6933499,-0.7184143,0.41766804,-0.3398068,-0.6852363,-1.5266064,-0.75324196,-0.42141542,0.46372065,-0.6120535,-0.62551355,-0.5037023,-1.4716601,0.6336949,0.25886592,0.5930906,0.20582768,-0.57384396,-1.5276134,0.33689946,-0.40359706,-2.0866485,-1.2223985,0.8754068,0.21934216
alga,-0.93407965,-0.18614367,-0.31144786,1.1602197,1.3145304,-0.5890014,0.80398345,-0.24430086,-0.69767755,0.004476963,0.63461244,-0.7417784,-0.6506936,0.36235318,-1.530224,1.7874434,-0.8286395,-0.0067455303,0.28533614,-1.5375277,-0.8355037,-0.39829877,0.60549927,-0.36657667,-0.4275784,-1.7261887,0.07999239,-0.5201929,-1.1171691,-0.19370316,-1.4922905,-0.50211287
amino_acid_peptide_or_protein,0.19452752,-1.2480116,1.4386789,0.68500406,1.2430652,-0.21548767,0.3980064,-0.55610776,-1.0397888,0.37499562,0.1220837,-0.66730684,-0.07934373,0.20550096,-0.85364103,-1.962678,-0.085958906,0.17839845,-0.067166746,-1.6193832,-0.06038282,0.25314507,1.022315,0.5334054,-0.6935702,-1.9919618,-1.0764377,-0.86154926,-0.32462198,-0.6347496,-1.4167718,1.128074
amino_acid_sequence,-0.5910438,-0.33248362,0.36696842,0.7817942,0.9083623,0.03706308,1.1458162,0.016088212,-0.22240688,0.4746624,0.6276635,-0.38045996,-1.0218049,-0.23043205,-1.458657,0.50523245,-1.5460404,-0.26361892,0.24189825,-1.8177986,0.24986584,0.72286344,0.14765017,0.3345506,-0.4741549,-1.8669327,0.4032106,0.11612533,-0.2948083,-2.6938286,-0.89258283,-1.5828577
amphibian,-0.60719293,-1.382494,-0.60126823,0.8431782,0.22648615,-0.73032767,0.925232,0.2992674,-1.4113647,0.9281275,0.23272584,-1.75771,-0.4768709,0.29794836,0.2249015,1.7606623,-1.1563494,1.1916485,-0.28132927,-1.1958379,-0.93866736,-0.61948496,0.7442603,-0.82922286,-0.9795269,-1.9625695,1.0487939,-0.82695574,-1.7608552,-1.2393712,0.6440682,0.5824217
anatomical_abnormality,-0.0510416,-1.6555598,-0.9103445,-0.026278375,0.53364193,-0.7321239,1.4591341,-0.01549163,-1.4326572,-0.12644443,0.088744864,0.160299,-0.68861246,-1.4032143,-0.3863045,-0.6173943,0.043852013,-0.46705478,0.8022166,-1.1340328,0.061556153,2.666105,0.037673272,0.8746408,-1.2361519,-1.2177066,0.060259774,0.7877968,-1.2259293,-0.44029272,0.88528746,-0.97698414
anatomical_structure,-0.30164918,-0.56212693,-1.1839714,1.6946516,0.17102951,0.014335862,-0.34568328,1.0298963,-1.4992855,0.6560409,0.1356698,-0.8829669,0.10670001,-1.0697078,-0.08829434,-0.7649713,-0.27700895,0.73623973,-0.46665582,-1.1221684,-0.35259652,1.1802125,0.47198588,1.3244321,-0.14347273,-2.035546,0.36831445,0.27080667,-1.7185796,-0.5658465,-1.2254359,0.40456194
animal,-1.3918536,-1.5743754,-0.106943205,1.2681782,0.47471476,-0.5964421,1.0018284,-0.73149663,-0.6084886,1.1915698,0.28975356,-1.4482543,0.04154101,0.81222767,0.03443694,1.611034,-0.5524969,0.8023764,-0.55735564,-0.7734301,-0.68506604,-0.57390094,0.7257354,-0.02394228,-0.52389866,-1.9009997,-0.23981076,-0.71142584,-1.4083581,-1.7561347,-0.3162836,-0.63029903
antibiotic,0.3646358,-0.8595162,0.84263504,0.70234746,0.8302181,0.035069376,1.12113,0.101126395,-1.1881211,0.82308674,0.55783325,-0.9548937,-0.54496944,1.259698,-0.006338954,-1.5551395,0.7958678,0.91840565,0.06664544,-1.543713,0.08034555,1.5407801,0.19366592,0.12899785,-0.4015275,-1.8895262,-0.23537739,-1.491059,-0.8351717,-0.06333687,-0.2471447,-0.66592205
archaeon,-0.20263408,-0.11876908,-0.097816385,0.46937945,0.43755826,-1.3307556,0.9885395,-0.5034749,-0.66030633,1.6510518,2.156132,-0.6367721,-0.5003195,0.0032833165,-1.4671079,1.5740516,0.29420355,0.70206416,-1.4966092,-1.3482605,-0.8247603,-0.40227276,0.39834663,-0.81691664,-0.32691374,-1.8883593,-0.09915807,-0.7586104,-0.25147256,-0.83852,-0.4286176,-0.22837307
bacterium,-2.3529832,-0.48748916,0.06067956,0.8995218,0.96083564,-0.7902301,1.0762476,-1.639024,-1.0492296,0.43852842,0.351493,-1.3056397,-0.85717607,0.10371972,-0.33764833,2.170116,0.14567539,-0.2672584,-0.041089445,-1.2856791,-0.779645,-0.08576534,0.72133213,0.5101314,-0.1525134,-2.0925045,0.21818092,0.4428378,-0.7906307,0.4020641,-0.22971916,0.11646382
behavior,0.47541094,-0.7997236,0.49652267,1.0780222,0.5976272,-1.1074722,0.04273912,-0.40794685,-0.36842,-0.022192094,0.30222946,-0.6423327,-0.509263,-0.6388422,0.55698854,0.5026673,0.2982877,-0.48029423,-0.7984481,-0.6963906,-0.12804009,0.44405445,1.1322739,1.7543808,-0.7740729,-1.563611,-0.15833291,-0.2928151,0.05268817,0.08346333,0.32283542,0.6814097
biologic_function,0.4030202,0.14110984,-0.7609021,0.6131691,0.95884454,-1.046219,0.7045569,-1.013334,-0.9766257,-0.08869758,0.8342438,1.2461286,0.4162272,-1.2529254,-0.99578005,-0.14632867,-0.3559065,-0.1462019,1.5033945,-0.8000151,-1.2386861,1.5324394,0.28855813,1.3658,-0.504181,-1.4034165,-0.118477166,-0.3336546,-0.26910445,-1.5428767,0.2249723,0.0054122955
biologically_active_substance,1.2647709,-0.9201234,0.7943941,0.67623866,0.13172606,1.2024235,0.7716993,-0.23933698,-0.8800999,0.7989179,0.12167297,-0.88057494,0.40142414,-0.19601272,-0.40285715,-0.9279283,0.70406306,0.66476744,0.96859527,-1.5079334,0.41865572,1.0299054,0.50530183,-0.06824212,-0.02088198,-1.9117504,0.27060723,-1.3953649,-0.28155938,-0.45687374,0.876116,0.10252281
biomedical_occupation_or_discipline,0.30175596,-0.7706627,-0.24483453,0.57668394,0.59934366,-0.035265602,1.5264227,0.50253534,-1.5048821,-0.465797,0.8522328,-1.9663349,0.27777976,-1.8858128,-0.05801803,0.30381438,0.43578503,0.43162796,-0.064991005,-0.0963179,1.1417586,-0.46213245,1.1576792,-0.39277732,-3.289457,-1.0775914,-0.5324058,-0.37669703,-1.0867903,-0.7992257,-1.1343052,0.07015416
biomedical_or_dental_material,-0.19853406,-1.3297077,1.3012913,0.9261161,-0.059260905,0.060754284,0.877651,0.13447395,-0.35317385,0.94229525,0.085513346,-0.9482106,-0.34902602,0.053553343,-0.84021586,-1.1444861,0.38631025,0.0819445,0.18720923,-1.6085565,0.46915892,1.8570157,0.26458395,0.60423195,-1.2321247,-1.535768,-0.18358321,-2.095993,-0.65105885,-0.46587348,-0.2696688,-0.862578
bird,-1.4320399,-0.4762881,-0.06872822,0.571639,1.4462177,-0.5802364,1.1973821,0.21807939,-0.4533611,0.98053443,1.181848,-0.6084736,-1.0441524,0.28350455,-0.5290609,1.094987,-0.83122206,0.9783228,-0.7429386,-1.5720029,-1.202471,-0.06144972,0.7946873,0.08051616,0.027100407,-1.929855,1.0333166,-0.3543894,-1.3681793,-0.5454503,-0.6842825,0.23084801
body_location_or_region,-0.3005633,-0.34981063,-0.62305075,1.1342038,0.33891314,0.89215136,1.2597547,0.10741023,-0.5034533,0.48447147,-0.49630073,-1.7723858,-1.9348024,-0.06758359,-1.0121188,-0.448755,0.7524423,0.054407082,0.4339497,-2.0217113,-0.920522,1.0695736,1.9717072,1.467237,-1.0736341,-1.8516164,0.53313565,1.2914793,-1.0878466,-0.508901,-0.34956986,-0.5077634
body_part_organ_or_organ_component,-1.3724939,-0.10148226,-0.31010187,0.39714402,0.15284856,0.27849528,1.1108063,-0.07417972,-0.41537896,0.7796431,0.64786583,-0.8664857,-0.003987006,0.1640301,-0.1411949,-1.3747509,0.33536986,0.25614214,0.3634904,-1.255308,-0.20515648,0.92518747,-0.70139784,1.6147689,-1.3072803,-1.2556831,-0.37315333,1.6511213,-0.50905806,-0.46518612,-1.8452157,-0.1398787
body_space_or_junction,-0.24921006,0.49579284,0.014345363,0.28876877,-0.076065846,0.0905702,0.778126,-0.69671506,-0.5129979,0.41669202,-0.6486013,-0.56684685,-1.0653375,-0.534994,-0.39049867,-0.05485378,1.1480055,-0.4988514,0.8542377,-1.4638348,-0.7551225,0.4413995,1.1959065,0.58830297,-0.7548877,-1.535135,-0.16994905,0.62304115,-0.2212528,-0.44603994,-1.0912083,0.29475954
body_substance,0.43372786,0.38765267,0.92797357,0.57542044,1.9003117,0.8420193,1.2149026,-0.43454403,-0.14823051,0.84548366,0.52720296,-0.76099765,-0.3261055,0.37661076,0.77897537,-0.7923784,0.20455761,0.7291417,0.66662383,-1.2333193,0.6555933,0.71962976,-0.11565838,-0.9804809,-1.0782115,-1.9102988,-0.14888829,-0.74664897,-0.730607,-0.32672435,0.40134656,0.7104323
body_system,-0.69642943,-0.28885177,0.06448984,1.3212912,0.59522074,0.27363256,-0.110226914,-0.79752594,-0.66761196,-0.40171745,0.43561816,-0.514552,-0.0012859274,-1.3111995,-0.6826882,0.04000767,0.11510894,-0.077462606,-0.4645204,-1.4695885,-1.0672218,0.55048484,-0.23931475,0.51958764,-0.67524785,-1.4962397,0.07912938,0.32825196,-1.3282379,-1.3802059,0.07871488,-0.6837802
carbohydrate,1.2558565,-1.0352395,1.9952995,0.7773343,1.6182609,0.24577264,0.74421555,-0.043130808,-1.8414264,0.6149666,0.19391184,-0.7171233,0.089703225,-0.050250616,-0.6975006,-1.6425723,-1.7202809,0.98672533,0.09907215,-1.9115678,-0.44536442,0.20737122,-0.13608572,0.36190882,-0.36914542,-2.310552,-0.58361644,-0.92781216,-0.6611789,-0.09263142,-0.66274136,1.4050242
carbohydrate_sequence,0.065997265,-0.7310724,-0.47891426,1.1494385,0.07793956,0.025076004,1.5565834,-2.09617,0.1684782,0.82792693,0.3522934,-0.5472247,-1.4866588,0.20624773,-1.0546088,0.043012153,-2.3955004,0.36863044,0.20530199,-1.4202447,1.0381366,1.265057,0.7284622,1.2059653,-0.9789752,-2.4077723,0.10224075,-0.26254874,-0.62272793,-1.4714051,-0.116525166,-0.18574136
cell,-0.89647955,0.21258913,-0.7737537,0.21966274,-0.5629901,0.5308847,1.8810776,-0.40457287,0.042896412,0.81681234,0.9113044,-0.8502551,-0.5403289,-0.13708729,-0.033584464,-0.82577515,-0.23400757,0.44670346,0.96757144,-1.1347189,-1.0073678,0.8917283,0.05015185,0.8920084,-0.67747587,-1.8516914,0.009422824,0.58565676,-0.16609894,-1.437302,-1.9360827,0.27810463
cell_component,-1.8697089,-0.23293525,-0.02309461,0.43006262,-0.554821,-0.113445476,1.3423071,-0.08068436,-0.18606646,0.3870715,-0.13730127,0.08731981,-0.1536071,-0.04160364,-0.54219794,-1.2858981,-0.6972497,0.87683654,0.7447754,-1.3544134,-0.9022792,0.7574413,-0.50097764,0.9712174,-0.9209745,-1.7599546,-0.78662694,1.353859,-0.7622285,-0.94821423,-1.0575202,0.48541844
cell_function,-0.28278875,1.6931999,-0.93080217,1.0118443,0.65146124,-0.5932925,1.0199702,-1.8948836,-1.4514612,-0.1153128,1.4436448,0.96751374,-0.17735057,-0.09324758,-0.7274527,-0.14749517,-1.4783827,0.386811,1.170096,-0.8619591,-2.2899745,1.8370513,-0.198088,0.35349742,-1.0959804,-1.4481685,0.46994755,-0.6129446,-0.12410796,-0.42613158,0.14891851,-0.7781877
cell_or_molecular_dysfunction,-0.73935264,-0.9667164,-0.63389826,0.35178176,1.0422679,-0.8700081,1.4622675,-0.45367765,-1.1127384,0.19907632,1.1938566,1.428034,0.35998017,-0.14308278,-0.6539682,-0.6930136,-0.24951337,-0.62934166,1.5915704,-1.0575427,-0.5048105,1.3969504,-0.49057752,0.61566085,-0.6577548,-0.8418932,0.23599775,0.11872838,-0.053695455,-0.9084186,0.83807445,-0.52007365
chemical,0.972276,-1.3117594,1.2840728,1.4103866,-0.013753977,-0.47587624,0.52058166,-0.4183007,-0.436831,1.4340953,-0.2811691,-1.0209316,0.3360243,-0.7981814,-0.11990689,-1.1044677,0.052114606,0.02901889,0.7497355,-1.102123,0.7606939,1.391189,0.25263023,1.0914646,-0.8842256,-1.2733256,-0.65787774,-1.0716304,-0.8765812,-0.899084,-0.5697897,1.264057
chemical_viewed_functionally,2.254662,-1.1423304,0.43669474,1.5106761,-0.06814479,-0.065724716,1.1176308,-0.34729934,-0.48571908,0.71785384,0.069926284,-0.7423762,-0.17850871,-0.67753667,-0.26719958,-1.9725325,0.22518502,-7.369803e-05,0.6372342,-1.8136939,0.30276638,1.8586757,-0.21931335,0.87502265,-0.61988693,-1.2717425,-0.5603431,-1.2992389,-0.88863605,0.04893831,-0.6060809,-0.07719022
chemical_viewed_structurally,-0.095632926,-1.0739778,1.4500926,1.9366938,0.6285432,0.33356708,1.1449597,-0.18521386,-0.6965584,0.7761238,-0.0021689497,-0.74937373,0.6091481,-0.07600755,-1.0870507,-1.1208255,-0.18701462,0.10218121,-0.5670961,-1.965674,-0.4979772,1.0808452,0.0846551,0.5364511,-0.5873304,-1.8794878,-0.102423705,-2.3545632,-1.4183204,0.19929141,-0.49105388,2.7195654
classification,0.43839464,-0.86492354,-1.017031,-0.30113044,0.19900465,-1.386742,1.4248456,-0.29631272,-0.40594912,0.5177315,-0.5387206,0.5998761,0.8894616,0.19835848,-0.8743067,-0.31496227,-0.42721912,-0.8246011,-0.6141167,-1.0874902,0.52705044,0.061753474,0.46673465,1.9596933,-1.0554901,-2.456798,-0.5618505,-0.81384677,-1.1054423,0.14168322,-0.45873135,0.5865556
clinical_attribute,0.19206929,-0.81584215,0.05009322,0.54870474,0.9612119,-0.37593806,1.3274926,0.6100566,-1.0372729,0.1341754,0.5791808,0.5024683,-0.82648194,0.23050028,-0.9898796,-0.55748856,0.4177056,-1.0674118,0.4935085,-1.5215629,-1.4730593,0.90025735,-0.78601694,2.0968952,0.15644535,-1.7678605,-1.0264193,0.25612178,-0.9792661,-0.43191522,-0.90868664,0.40456426
clinical_drug,0.2566527,-0.42888775,0.2556114,-0.38455617,1.6420139,0.20143062,0.7272145,-0.71505886,-0.9280735,1.5982151,0.61122984,0.14273249,1.514152,-0.22473697,-0.26532242,1.004735,0.24318916,-0.81821316,-1.5191041,-1.2179191,-1.4614582,1.0784379,0.5216069,1.7163106,-2.5109284,-1.8423297,-0.41387177,-2.8449638,-1.6090555,0.35400525,-1.5316656,0.44948137
conceptual_entity,-0.19136733,-0.12705131,0.4420208,1.0145483,0.5242546,0.077062406,0.20730422,0.59422207,-1.1451522,0.9831927,0.28165504,-0.8368401,0.95773405,-2.9338496,-1.8751944,-0.75823206,0.05926734,-0.38406593,-1.6369998,-0.079060204,-0.27038863,1.4289669,-0.800966,1.0483004,-0.5994748,-2.587293,0.20309164,-0.05325821,-1.8427125,-0.7530315,-0.06826348,-0.006097157
congenital_abnormality,0.5508736,-1.3243222,-0.4872,-0.052659445,0.5639379,-0.49545324,0.8536769,-0.11951792,-1.7327883,-0.06644628,0.42063752,-0.093425065,-0.38670403,-0.5836081,-0.18444501,-1.1345824,-0.4421228,-0.4566151,0.6248287,-1.7518992,0.24425076,2.4841576,0.079820134,0.9103582,-1.088501,-0.8888153,-0.14713983,1.1652764,-0.97217375,-0.01185228,0.88293505,-0.27156994
daily_or_recreational_activity,0.005315935,-1.2958299,-0.53223944,1.1470699,-0.11171445,0.37664035,1.107985,-0.35440752,-0.5193417,0.08674044,0.66996604,-1.310614,-0.018007504,0.91561997,-0.798822,0.25954887,-0.21757464,-0.01694991,-1.066911,-1.6227599,0.08509257,0.72730845,-0.32883808,2.0744865,-0.80209744,-2.2816072,0.4530813,-0.6209907,0.2298001,0.10831958,-0.5784881,-0.0063976375
diagnostic_procedure,0.5804153,-0.74966997,1.3476174,0.3414265,0.52065724,-0.71137935,0.67836744,-0.23471023,-0.9654208,-0.19382843,0.56558347,-0.77556777,-0.34685063,-1.1510398,0.16316828,0.16924357,1.2142025,0.7582869,-0.46787828,-0.9441378,-1.1881746,0.7225396,0.36215585,0.47179967,-1.5278153,-1.7722409,0.25815836,0.111133985,0.45620698,-0.38886777,-0.5097797,-0.87059844
disease_or_syndrome,-0.82824576,-1.0844367,-0.6507708,0.7160373,1.3826057,-0.70814556,1.4326686,-0.26863798,-0.94989896,-0.31768823,1.4011416,0.97748446,0.17936023,-0.19870311,-0.7506733,-0.38473278,0.107656285,-0.4240385,1.7237037,-0.9629574,-0.111386076,1.3488402,-0.24101284,0.6776728,-0.71453685,-0.7088407,-0.041421637,0.28449473,-0.7313155,-0.80191654,0.67639774,-0.7671418
drug_delivery_device,-1.4754729,-0.74319965,-0.4190437,0.11475517,1.2771873,-0.1704932,1.0407554,-0.6917776,0.17097317,0.8242792,-0.15216888,-0.5143553,1.7744442,0.75981,-1.1086725,0.5558126,0.583164,-0.25213802,0.08466862,-1.4417027,-0.47574863,0.44371238,0.022424929,0.5500086,-2.0733314,-1.8823061,-0.62324476,-1.3392104,-1.8361707,0.12013584,-1.5233235,1.0523189
educational_activity,-0.6090234,0.026426885,1.2742167,0.8942899,-0.5606453,-0.03519919,1.063021,0.010181897,-1.2852259,-0.2975764,-0.11389126,-0.474244,-1.2613721,0.28440684,0.009976002,1.7929837,-0.23161095,0.4865026,0.12569574,-1.4734951,-0.4376559,0.6791045,0.69300926,1.196186,-1.8593208,-2.042142,0.24655527,-0.42655602,0.102964565,0.80213726,-1.3381103,-1.1604644
eicosanoid,0.75723696,-1.1520412,0.80690557,0.7205778,1.4228615,-0.30626926,1.5638294,0.036579747,-0.7773015,0.7118967,0.38610917,-0.1773688,-0.25244033,-0.2880146,-0.59494144,-2.2668633,-1.5074542,0.92926836,0.4353308,-1.3819605,-0.10989824,0.32331583,0.36870736,1.4060917,-0.009641223,-2.2188492,-0.09406486,-1.5787054,-0.78069484,0.028165556,-1.6177047,0.47265893
element_ion_or_isotope,0.7604189,-1.265715,1.1710162,0.8767096,1.4137957,0.09607581,0.6786118,0.6026883,-0.42341605,0.7706525,0.62529105,0.4492769,-0.32754263,-0.46984255,-0.5966245,-1.2627573,0.29624486,0.9986594,-0.48253596,-1.8123039,0.3158194,1.1595358,0.2622332,-0.23297969,-0.37035915,-1.5883803,-1.400394,-1.2540258,-0.3727662,-0.8305723,-0.59004545,0.54231215
embryonic_structure,-0.16032971,0.7062772,-0.9914117,0.6056644,-0.6997506,0.4170805,1.3685253,0.05010344,-0.5094897,0.936855,-0.2964933,-0.52085686,-0.49496594,-0.123126626,-0.6170093,-1.4689654,0.02162749,0.5542866,0.79800016,-1.8364483,0.30464268,1.8154163,-0.4615798,1.9397415,-0.9163605,-1.5094457,-0.28287512,0.00075932033,-1.4844984,0.37843975,-1.3292062,-0.057564367
entity,0.72695583,-1.0583143,-0.19419107,1.4491116,0.018033398,-0.8516412,0.13417536,0.21301518,0.047289766,0.5771028,-0.76464176,-0.8655676,1.558284,-2.1102123,-0.86738306,-0.24285886,1.6300421,-0.5012638,-0.931359,-0.9949862,0.51505023,2.00074,-0.6114566,0.9989523,-0.94695127,-1.1295543,-0.6013968,-1.2871205,-1.6368917,-1.8135296,-1.9087883,0.95634145
environmental_effect_of_humans,0.37208277,-0.47994834,0.2628489,0.41555613,0.24283639,-0.71417016,0.20405887,-0.9849211,-0.22151402,0.82302785,0.59777135,0.7388706,0.101057105,0.5827387,-1.5035975,-0.5093876,-0.6204953,-0.11626425,0.1279252,-1.4244988,-1.1041379,2.0760143,0.6999951,0.754511,-2.1887026,-1.637038,0.37120774,-1.0434525,-0.2573527,-0.580269,0.05095737,0.5978256
enzyme,0.22543067,-1.1781253,0.91748726,0.55751187,1.1256087,0.80333126,0.863047,0.014962416,-0.6957792,1.0354578,0.3264276,-1.686126,0.6069019,-0.1870369,-0.2668269,-1.4993157,1.4976071,0.63978904,0.73565257,-1.5652201,0.38741052,1.1209086,0.62075347,-0.6960305,-0.29494166,-2.2376845,0.30349302,-0.7245682,-0.3027724,-0.11333105,0.39065933,0.15392862
event,0.5715171,-0.68432593,0.09618921,0.26233938,-0.2570582,-0.86934155,-0.44908628,1.2768849,0.26887995,0.49199313,-0.48833174,0.9642947,-1.4322122,-1.5626938,-0.6697721,0.25606716,0.06577474,0.31650993,-0.24240352,-0.7184376,-0.2160658,0.28849208,-0.31552163,1.5960776,-0.2152578,-2.1334853,-0.19302343,-0.91943127,-1.1080177,-0.54514617,-0.93011165,-0.74413574
experimental_model_of_disease,0.5764055,-0.7757769,-0.5022084,0.26023158,1.2565056,-0.68687004,1.3292854,-0.098046824,-1.0103979,0.11845985,0.49271467,1.129948,0.17624904,-0.34863466,-0.43664962,-0.31289905,-0.33265835,-0.4910098,1.6384649,-1.1137768,-0.34893477,0.9071695,-0.07015291,0.37023023,-0.47349727,-0.59588027,0.0030135817,0.31774557,-0.13975875,-1.326826,0.8023253,-0.44149113
family_group,1.1431565,-0.5764327,0.5206922,0.83091235,0.39113742,1.7328013,0.8698128,1.029768,-0.5890458,0.6622285,0.75700545,-0.45611265,-1.2813315,-0.8323919,-0.34797207,0.8201381,-0.7168778,-0.8774564,-0.95695496,-1.5656179,-0.55926967,0.59437776,0.5552098,0.12526529,-0.45039696,-1.5932101,1.4075223,-0.6352396,-1.5006171,-1.0270302,0.052474562,-0.08289105
finding,0.7212956,-0.76985407,-0.26296848,1.1132869,1.2333057,0.5241967,0.6606166,0.42243016,-0.5133266,0.5174157,0.7089991,-1.6584224,0.22198996,0.04140512,-0.58401126,0.2806627,-0.15305702,-0.19864598,-0.41703418,-0.9966458,-1.2803476,0.3024094,0.59525484,1.2225243,-0.8402673,-1.6241013,-0.19827089,-2.1355214,-0.8394288,0.042728186,-0.80861616,0.04519956
fish,-0.47521952,-0.7975437,-0.6967023,0.92945725,0.9978523,-1.1255065,1.0072728,-0.31416753,-0.8042076,0.7436164,0.4894265,-1.4210219,-0.5046001,-0.60135406,-0.380793,1.9976423,-0.564324,0.85283023,-0.9863453,-1.6607717,-0.69873106,-0.46259448,1.3147101,-0.91014737,-0.29445866,-1.8101791,0.65129423,0.1560856,-1.4424614,-0.74793744,-1.2630489,0.4032748
food,-0.4506383,-0.89903164,2.010241,1.4673648,0.27375102,0.16292764,1.6277446,-0.8236834,0.0019103175,1.0392795,-0.16516961,-0.7444909,-0.14748335,0.04530889,-0.7386723,-0.073901534,0.6927044,0.08537863,-0.17464215,-2.048507,0.097066484,0.55203086,0.6596855,1.3607451,-1.4630306,-1.6221603,0.08836338,-1.6551614,-0.277934,-0.8648021,-0.846969,0.12016756
fully_formed_anatomical_structure,-0.9337684,0.46272576,-0.3370155,0.6189645,0.06434212,-0.19995561,0.78921664,0.35931632,-0.664897,0.5590236,-0.11476947,-0.09554061,0.45082963,-0.9502371,-0.45822328,-1.0558047,0.76760995,0.9621471,0.46202776,-1.1978834,-0.80360824,1.1727741,-0.597216,1.5434504,-0.6265852,-1.4368742,0.17529637,1.627548,-0.7923417,-0.8253995,-1.7581681,0.5306788
functional_concept,0.0031086395,-0.37855953,0.628432,0.2290097,0.09238859,-0.5146001,0.99567986,-0.04547754,-0.37364882,0.22238177,-0.07926105,-0.6787137,0.5018879,-1.7565372,-0.5484536,-0.6209028,-0.4840421,-0.47782597,-0.13061108,-0.9018232,0.43058497,0.4567497,0.47797337,1.3598044,-0.7287333,-1.9050056,0.41423142,-0.54048645,-0.81179595,-0.9449219,0.03028394,-0.703763
fungus,-1.968842,-0.27287588,-0.37427196,0.9620445,1.8481109,-0.3224409,0.6987647,-0.7145956,-1.3604102,0.3842134,0.715303,-1.4286671,-1.1995585,0.05238811,-0.33169174,1.7904813,0.08343299,0.20403662,0.0024464477,-1.2464689,-0.80628276,-0.7041919,-0.21852641,1.0520456,-0.6772352,-2.0952291,0.72151744,-0.04156344,-0.67546546,-0.33600515,-0.48703423,0.12946706
gene_or_genome,-0.26172596,-0.28222352,-0.47960111,1.5124241,-0.30848935,0.45583716,1.2507328,0.48407802,-0.83995116,0.17275663,0.15858185,-0.4457375,-0.313508,0.4105077,-0.47865212,-1.7181821,-0.67722976,1.1831083,1.0654871,-2.6184108,-0.6683733,0.061287176,-0.15037937,1.3247137,-1.5018255,-0.9251286,0.12980787,1.6666223,-0.6458421,-0.6095256,-2.3291004,0.22444509
genetic_function,-0.172888,1.5479579,-1.0335634,1.0759146,1.0355871,-0.75532365,1.0671648,-1.4561386,-1.0228289,-0.117943466,0.4351577,0.64900595,0.1297183,-1.3847365,-0.6854279,-0.4354561,-0.031052714,0.44205865,1.3290967,-1.0434091,-2.103619,1.8729931,0.020722507,-0.36048543,-0.79874307,-1.1023917,-0.38540408,-0.6580711,-0.07302159,-1.5866687,-0.0478135,-0.6999895
geographic_area,-1.40114,-0.7924529,-0.12849481,0.68741053,0.23615986,0.5968114,1.176825,0.5819393,-0.7165578,0.6110255,0.21007015,0.26466838,-0.21134806,-0.067593455,-0.91270167,0.16813897,0.60699975,0.012502462,-0.47237992,-2.3358448,-0.34741563,0.06443081,-0.25776312,1.4055973,-0.75826603,-1.9844714,-0.12778178,-2.0606785,-0.77359575,-0.28934255,-1.2880028,-0.7332643
governmental_or_regulatory_activity,-0.84300303,-0.44693446,1.2113311,0.84225976,1.0604447,0.38634208,1.1021794,-0.49847305,-0.47781315,0.25751105,-0.0826629,-0.24727039,-1.3151491,-0.18509018,0.019283717,0.37165734,-0.12905198,0.3190132,-0.38477415,-2.2223532,-0.01899888,0.031349204,-0.06937029,1.2566594,-1.2528187,-2.201235,0.49168354,-0.9090244,0.591433,-0.40341145,-0.789104,-2.0391104
group,1.4601074,-0.42210302,0.45863762,1.1172942,0.3851667,1.4049326,0.8495681,0.43359402,-1.1266742,0.5437346,-0.15882339,0.08229931,-1.5464271,-0.97309667,0.16419336,0.5443232,-0.998368,-0.6619997,-0.78775114,-0.9733907,0.067659944,0.38277656,0.6802791,-0.3231188,-0.71204877,-1.1136444,-1.0026252,-0.4282803,-1.7541229,-0.9672632,-0.36614683,0.3414136
group_attribute,-1.2602636,-0.7078522,1.0394539,0.8963518,-0.99723816,-0.79266065,2.1147594,0.62464106,-1.5368339,0.70891297,0.53276795,0.2791477,-0.9440371,-0.3748141,-2.0664704,-0.100203596,0.2923661,0.18373026,-1.5252085,-1.6966897,-0.092201635,-0.23347157,0.9323289,0.6035996,-1.7984332,-1.8769614,0.30735537,-0.33732367,-2.4834456,-0.0917518,-1.4265443,-0.12848788
hazardous_or_poisonous_substance,0.20354572,-0.5858845,1.0757176,0.7483989,0.3849192,0.114730336,0.48956022,0.8838881,-0.70498484,1.0758651,0.13408725,-1.9715134,0.55873656,-0.6501364,-0.4136838,-0.81298286,-0.02581371,1.1718129,0.5013448,-1.9314588,-0.403205,1.0612575,1.2261167,-0.04303348,-0.2757597,-1.7630837,0.193165,-1.5299302,-1.8548875,0.18197504,0.098003134,-1.1207162
health_care_activity,0.47627977,-0.62138695,0.36551958,1.0978756,0.8264794,-0.19143556,0.8641352,-0.0077423844,-0.9190022,0.5667306,0.26100862,0.24713229,-1.8938901,-3.0713565,-0.5124958,0.27131018,0.21408312,1.1746328,-0.63590205,-0.9189907,-0.8478289,2.122629,0.9256881,1.0415921,-1.1447299,-2.1914253,0.3411819,-0.59315133,0.47575668,0.36177567,-0.5906198,-1.57348
health_care_related_organization,-0.61529624,0.07321391,1.0574696,2.1375012,0.4816438,1.2720071,0.08730684,0.29267633,-0.72775143,0.2825185,-0.23841132,0.0021246225,-1.1068335,0.6416629,-0.70181465,-1.2437965,-0.13451694,0.48127645,-0.56471896,-2.1791906,0.4178726,0.7900476,0.72818124,0.5120046,-1.1332473,-1.2188807,0.50974804,-0.252655,-2.1847003,-0.6154521,0.23833632,-0.128675
hormone,0.62271816,-0.71159977,0.8781949,0.7897793,-0.041960217,0.95603424,1.5514885,-0.35529557,-0.6397771,0.9206487,0.4817711,-2.336878,-0.30129907,0.19968355,-0.10466041,-1.052007,1.0709888,0.9706172,0.96983296,-1.3925203,0.12212362,1.0028304,0.75571483,0.1677862,0.3153852,-2.2855022,-0.35516244,-0.3517227,-0.43621978,-0.86657625,0.44896412,-0.004476452
human,-0.42996958,-0.38312688,-0.8548493,1.1682916,0.5653857,-0.68337446,0.5812276,0.25079694,-0.4639288,1.031947,0.73127997,-0.6719313,-1.3082433,0.4201915,-0.191991,1.6005592,-1.0300201,0.69706905,-0.65675765,-1.8940086,-0.8750114,-0.17417037,0.61441034,-0.024450772,-0.19162624,-1.6202735,0.2829905,-0.20890039,-1.739092,-0.013821868,-0.475978,0.77625006
human_caused_phenomenon_or_process,-1.0397979,-0.41258743,0.32400182,1.1526755,-0.14942257,-0.57778925,-0.09444237,0.37642166,-0.5216188,-0.124649584,-1.3931789,0.119957045,-0.14319964,-0.37500554,-0.86464703,-0.29139426,-0.09023131,0.504256,-0.056231838,-1.2997423,-1.3876101,2.0690815,0.2029636,0.7336741,-1.2953438,-1.6942034,-1.0968965,-1.0012677,-0.51548266,-0.62538666,0.17471161,0.7839643
idea_or_concept,0.805304,-0.07098937,0.22249834,0.85242283,-0.85828245,0.13030888,0.6454658,0.8797592,-0.4189014,0.5410451,0.089240365,-1.1832322,0.67980653,-0.8202872,-1.3517818,-0.45041996,0.62236124,0.21576993,-0.24293599,-0.8285023,0.0731322,0.25351974,-0.47175604,0.42334548,-0.7596295,-1.8153454,-0.116500765,-0.3480184,-1.7244625,-0.42704624,-0.9187785,-0.6254964
immunologic_factor,-0.4673344,-0.9724781,1.3846438,0.43111777,1.2041731,0.6311353,0.69801307,-0.31826752,-1.2362424,1.0571012,-0.07846512,-0.9752258,-0.026275653,-0.20093563,-0.31107223,-1.6913829,1.4904145,1.6590259,1.7409523,-2.2860682,0.61366385,1.1226486,0.24112576,-1.2789356,-0.40832105,-2.1566331,-0.07040277,-0.42257202,-0.07739975,0.1960412,0.12800568,-0.2296989
indicator_reagent_or_diagnostic_aid,-0.6624778,-0.33518973,0.82929915,1.0250058,-0.34549037,0.5476281,0.09396307,-0.28060892,-0.70586306,1.5169475,0.74455374,-0.99022776,-0.0011498113,-0.26880154,0.033998147,-1.1654384,1.7834449,0.5244004,0.62803316,-1.896112,-0.12184038,1.2881608,0.5045072,0.7327349,-0.5146263,-1.9970837,-1.0463775,-2.3413844,-0.7815821,-1.2681428,-0.5804853,-0.6038414
individual_behavior,0.0041486807,-0.8667216,0.48035252,1.4453425,1.2690961,-0.8750104,0.35802963,-0.6301042,-0.41870025,-0.111247204,-0.31584698,0.044195693,-0.24706744,-0.8657496,-0.0754077,0.6409454,0.06882298,-0.08477983,-0.6885141,-1.1128724,-0.3435147,0.45390958,1.0290902,0.9675726,-1.119908,-1.2337229,0.78720546,-0.9709896,0.2450998,-0.19548509,-0.15301737,-0.28816187
injury_or_poisoning,-0.3184325,-1.0704378,0.16698243,0.23947327,0.146112,-0.64975137,1.228058,0.31100312,-1.1214356,0.10991625,-0.50139225,0.7852395,0.29973102,-0.5425022,-0.33318806,0.19313782,0.81106156,-0.41203362,0.8604772,-1.3160393,0.6500951,1.9654732,-0.5893586,0.48443896,-0.86152554,-1.013053,-0.017460227,-0.09927879,-0.6586127,-0.2208506,0.7641171,-1.320447
inorganic_chemical,0.34916487,-0.55729336,0.63261867,0.91105926,0.63868046,0.5272425,1.1346043,0.68149287,-0.8123931,0.57880485,0.57248974,-0.9594025,-0.9934368,-0.5961069,-0.041485824,-2.4679358,-0.3681414,0.15843046,0.36128888,-1.6671646,0.337416,1.8454714,0.07710871,0.2925546,-0.16109173,-2.0431714,-0.26940677,-1.7125981,-0.31352025,-0.15710759,-0.39538452,0.05648433
intellectual_product,1.0040542,-0.6566403,0.1599254,0.6937513,0.24778414,0.057193603,1.3995013,-0.79257846,0.018692084,1.1036003,-0.099181786,-0.10778733,2.1260154,0.4078139,-1.1515255,-0.12854141,-0.15101667,0.0972695,-3.0258818,-1.4938977,-0.4949989,-0.017830266,0.54200554,2.0207582,-1.7802961,-2.118284,0.089996666,-1.1671833,-1.2186788,-0.20984423,-0.2268685,0.06584295
invertebrate,-1.2545196,-0.2978044,-0.8783519,0.9336836,0.13057509,-1.2638667,1.3949778,0.1445165,-0.308387,1.0715979,1.5869637,-0.6296578,-1.4440342,0.30002207,-0.33889386,1.1449289,-0.3845505,0.48327985,-0.36803976,-1.3842231,-0.8975066,-0.18103655,0.038347103,0.807609,-0.19698991,-2.1997635,0.32290822,-0.1900735,-1.4332489,-0.243062,-0.5468746,0.5514219
laboratory_or_test_result,-0.52850413,-0.5196663,-0.017208662,1.3187308,0.27216047,1.1643258,0.72056067,0.976772,-1.273533,0.5310977,0.32325125,-1.7795808,-0.045045756,-0.17127544,-0.46048546,0.12967472,0.119943336,-0.23687564,0.40418664,-1.4191847,-0.019037712,0.46003452,0.6574744,1.0397409,-1.3360443,-2.028193,-0.43742537,-1.9484509,-0.59692293,-0.08332444,-0.7241271,-0.7430621
laboratory_procedure,-0.028509296,-0.25250345,0.97888553,1.0520606,0.45679706,-0.5186983,0.32384226,-0.34846023,-0.89613235,0.056356557,0.9076116,-0.87256753,-1.0835557,-0.38586488,-0.30218565,0.26237872,0.8657193,0.008884701,0.038208876,-0.8795484,-0.8655285,1.6961505,0.49626264,1.0455675,-1.8858699,-1.8376727,1.1052033,-0.71223634,0.46596184,-0.67152333,-0.5825955,-1.0528082
language,-0.2871953,-0.2820499,1.3261429,1.0736657,-0.3542882,-0.1925543,1.0039308,-0.16176082,-0.47318655,0.56493104,-0.31605065,-0.41005436,-0.16490789,-0.43303117,-1.0086752,-0.29819402,0.57892704,-0.06391889,-0.4393533,-1.8056496,-0.49853662,1.0035114,1.6135651,2.066165,-0.7885659,-2.1145616,0.22779429,-0.16486226,-0.99087286,-0.055345133,-1.4169772,-1.3109305
lipid,0.4006036,-1.5497844,0.80486685,0.8292811,1.3659207,0.13882513,1.4437456,-0.6010451,-1.3947778,0.56043905,0.09467158,-0.41156107,-0.3156041,-1.1162182,-0.9394187,-2.9401236,-1.3091273,0.679501,0.69703346,-1.2123879,-0.030070983,0.5513953,-0.12643017,0.21377625,-0.58023083,-2.3420646,-0.73044646,-0.72832656,-0.9238882,0.59973407,-0.8297331,0.33141062
machine_activity,0.68674964,-0.607025,0.5569024,1.0954379,-0.6511281,0.93003684,1.5564669,0.19169049,-0.43856168,0.4800856,0.41088274,-0.62426615,-0.05615399,-0.016124178,-1.6539123,1.3235842,-0.58535886,0.5739637,-0.5982833,-1.1420157,0.14711381,0.33784172,0.4509557,0.9933744,-0.65831256,-1.9801822,0.31899744,-0.1592286,-0.022853062,0.22826582,-0.5474156,-1.1900315
mammal,-0.71868515,-0.010000241,-0.7499962,0.82016206,0.2655621,-1.285153,0.38760254,0.32023785,-0.54464763,1.2092832,0.8270876,-0.8389804,-0.6158613,0.08778995,-0.0067533003,1.7041632,0.11734132,0.9349441,-0.67488533,-1.1694579,-0.9723851,0.15566051,0.5616186,-0.13186027,-0.4246671,-1.9225398,0.26357612,-0.52582294,-1.1342194,-0.6038603,-0.8289043,0.6135997
manufactured_object,-0.11243962,-0.33385745,0.26704177,0.9687957,1.0825193,0.076975204,1.2068517,-0.24669398,-0.535888,1.0361105,-0.3950852,-0.4129072,1.9263997,1.5220666,-0.51797265,0.97378296,0.83414,0.20013523,-0.7691356,-1.4023523,0.11513744,0.013616716,-0.06104884,2.5881507,-0.5572632,-1.834984,0.041130822,-1.8637083,-1.1888345,-0.32827047,-0.97163993,0.4340473
medical_device,-0.19338657,-0.85248214,0.24986044,0.45104074,0.07509989,-0.26901406,1.1259012,-0.33444095,-1.0095066,0.582201,0.11668453,0.6137087,0.6588409,0.75929713,-0.0054467293,0.55910903,1.508146,0.35565686,-0.46795037,-1.0621908,-0.35190153,0.59057283,0.63113904,1.3753785,-0.25315437,-1.7384545,-0.039124742,-1.2687887,-1.3704145,0.49376693,-0.9499959,1.092384
mental_or_behavioral_dysfunction,0.30733174,-0.91858166,-0.61837554,0.32339796,1.3353695,-0.54632837,1.2788198,-0.36300147,-1.2649448,0.13557695,1.2750024,1.4501581,-0.15433969,0.32451475,-0.6892301,-0.3104121,-0.37349465,-0.3184348,1.4956746,-1.0825186,-0.4025772,1.1819988,-0.45070374,0.16105612,-0.5930677,-0.7072987,0.25794354,0.055471834,-0.5394322,-0.42996043,0.69360816,-0.38563865
mental_process,1.0914406,0.9216449,-0.2577274,0.6979961,0.63123524,-0.75549793,1.224691,-1.3840142,-0.54988366,-0.2551828,0.6255832,-0.10209825,-0.52722985,-0.032566715,-1.0641794,0.16721341,-0.13890745,0.27992854,0.6064679,-0.8201659,-1.6808771,1.3876941,-0.21083209,-0.2506823,-0.86533284,-0.71733403,0.150324,-0.115978844,-0.048157856,-0.21004641,-0.1437157,0.60577655
molecular_biology_research_technique,0.25950766,-0.458414,0.7561663,0.25044724,-0.802863,0.27945906,0.56543165,0.4240841,-0.9440626,0.3941517,0.63255924,-0.5572118,-0.8055791,-0.32958987,-0.9656197,0.29996496,-0.6462896,0.24332504,-1.1725247,-1.4946429,-1.0712308,0.018835576,0.6984115,1.0587293,-1.2728205,-2.3488407,1.0901041,-0.24241334,0.57757926,-0.41763633,-2.2050595,-1.2794634
molecular_function,0.33608273,1.116829,-0.9281435,0.45014447,0.76975363,-0.6641265,0.92706484,-1.2154076,-1.3089063,-0.30062973,0.315211,0.7014268,0.38597935,-0.39179948,-0.3626249,-0.35052863,0.012810683,0.5855547,1.2978971,-0.7500386,-1.7394572,1.498389,0.11195798,0.16063036,-0.5838586,-1.416987,0.28482875,-0.6405113,-0.14696425,-0.4219495,-0.2593133,-0.4758845
molecular_sequence,-1.9795504,-0.8389515,0.3067214,1.2927401,0.34866416,-0.30975124,0.19535768,0.49996692,-0.5515913,0.24603552,0.1167534,-0.6179888,-0.02714705,-1.3231174,-0.37314954,0.16373803,0.15649915,0.3955387,-0.0029907161,-1.3947682,-0.041591197,0.5411543,0.69854283,1.785969,-1.1074191,-1.9738985,0.41078287,-0.4506623,-2.238966,-0.62950784,-0.35849208,-0.84058994
natural_phenomenon_or_process,0.06561824,0.13659094,-0.5501813,1.5181319,1.0208011,-1.0770706,0.48001465,-0.59431666,-0.39243448,0.32164916,0.3713452,1.1039698,-0.8025466,-1.414442,-1.5040833,0.25426543,-0.16248003,0.5937583,1.344439,-0.56819236,-1.7022521,1.3703095,1.182098,0.6050125,-0.395056,-1.4075809,-0.08480384,-0.7902854,-0.5030275,-0.81795806,0.10249938,0.63307005
neoplastic_process,0.2409793,-1.1007231,-0.72073895,0.46091595,1.313667,-0.7802875,2.181477,-0.34543702,-0.9147455,-0.14470962,0.71456194,0.98198813,-0.5086572,-0.6453296,-0.48586056,-0.0064169816,-0.7900953,-0.46266186,1.5158608,-0.67129153,-0.14181222,1.7168552,-0.38028938,0.8203244,-0.32413188,-0.93920213,0.35859635,0.24016473,-0.74950236,-1.2086054,0.57818836,-0.6778686
neuroreactive_substance_or_biogenic_amine,0.6426834,-1.2630306,1.4731772,0.816526,0.7401468,0.9160425,0.7899203,-0.25708327,-1.5324179,0.60008824,0.45554912,-1.3987906,-0.39583918,-0.18517199,-0.8465527,-1.3335449,0.76897454,0.75743085,0.68770474,-1.3356906,0.07275448,0.9986459,0.8715078,-0.23088408,-0.32806286,-2.1609497,-0.14664528,-0.012730773,-0.3264757,-0.26989204,1.174743,0.31719565
nucleic_acid_nucleoside_or_nucleotide,-0.29141697,-0.3784384,1.007168,1.1479948,0.7900981,0.2661196,0.980153,-0.8287908,-0.5552787,0.57633406,-0.33359897,-0.44194272,-0.24800038,0.10840642,-0.24506772,-1.5732447,-0.41659924,0.64316696,0.36051258,-1.8824506,-0.58355176,0.23973832,0.209842,0.27234268,-0.5746095,-1.9207938,-0.12403403,-1.9312001,-0.58088005,0.14197402,0.19744864,1.8160635
nucleotide_sequence,-0.50366586,-0.28478754,-0.19261812,1.1571838,-0.045944348,-1.0353609,0.34360367,-0.021323316,0.13605182,0.36042407,0.16723375,-0.4396966,-1.3245292,-0.34893557,-1.1579396,-0.5291105,0.67917913,-0.21147412,-0.05573595,-1.9075593,-1.2894771,0.64427435,0.6143451,0.5856757,-0.14772908,-2.5363424,-0.14411171,-0.88804513,-0.7541353,-1.5280198,-1.6057987,-0.3561587
occupation_or_discipline,0.22320215,-0.76720846,-0.04964412,0.6121314,-0.43806997,0.58458453,0.9481269,0.4931266,-1.8838347,-0.82608026,0.8077031,-2.0906334,0.80439276,-3.8163397,0.09073224,-0.12344524,0.4771313,0.39853933,-0.43239528,-0.55775315,0.562096,0.2748927,0.46117386,-1.0707577,-3.482663,-1.3104452,-0.32712185,-0.15556985,-1.6191437,0.1044358,-0.44917884,0.6429175
occupational_activity,-0.23714606,-1.550422,1.6001645,1.4326981,0.7716858,-0.30514202,1.3197852,0.6279786,-0.68221235,0.5177178,0.10253277,-0.5635573,-2.3000808,-1.1562458,-0.7652421,0.10982127,0.3613153,0.46822327,-0.6049421,-1.0368694,-0.7024607,1.1474476,-0.47111776,1.2226061,-0.71437925,-1.901861,-1.6908966,-1.1308192,-0.20360708,0.7077995,-0.99723816,-1.1257597
organ_or_tissue_function,-0.2098657,1.0846392,-0.6175225,0.5034028,0.7560562,-1.0169165,1.4930402,-1.4533734,-0.5867173,-0.005095829,0.5052261,0.50046825,-0.2004237,-0.39802328,-0.68808985,-0.020431925,-0.8274369,0.16567264,1.2626189,-1.2292413,-1.6573302,1.8042945,-0.0344954,0.18339017,-0.22530496,-1.2319672,-0.22440638,-0.31262162,-0.15004586,-1.106414,-0.40454933,-0.4905585
organic_chemical,-0.060548507,-0.5888304,1.6470451,1.1277701,0.7325733,-0.24154171,1.4320784,-1.4584634,-0.3864371,0.84887093,0.5539302,-0.45260516,-0.7101479,0.5599946,-0.9223201,-1.4704634,-0.32136768,0.055712245,0.1183112,-1.4358515,0.10842439,0.482561,0.02929452,1.6361035,-1.1198086,-1.633708,0.17098208,-0.76810914,-0.88148046,-0.14667149,-0.22973797,2.3908744
organism,-0.42367828,-2.2452438,-1.2057313,2.2051036,1.1925291,-0.5641929,0.6691711,-1.4098117,-0.18823615,1.2144097,0.25862053,-0.94226956,0.19737585,-0.23052117,0.1587201,2.0165255,0.27832726,0.42132306,-1.3854944,-0.86086535,-1.1232469,-0.053566787,0.8477772,-0.060506146,-0.65346247,-1.356945,0.13695051,-0.28636304,-1.179426,-1.5720104,-0.30100235,-0.15039958
organism_attribute,0.2723693,-0.46818614,0.020763109,1.2594519,0.748554,-0.49677572,0.5397822,0.10061714,-1.4792197,0.37460333,-0.38568687,0.7879747,-0.7809678,-0.20194586,-0.09793991,-0.2577099,1.074662,-1.5468004,-0.21465708,-1.8283478,-1.0017269,1.1680399,-0.34226397,1.0235151,-0.029242404,-1.2636478,0.25187582,0.17286243,-1.6860578,-0.7374753,-1.2679666,-0.01251559
organism_function,-0.1754062,1.3752624,-0.2598839,0.7012381,0.72023374,-0.53546506,1.1048762,-0.9351348,-1.0848305,-0.21796887,1.1408374,0.7687557,0.1555368,0.5377451,-0.7453544,0.66339445,-0.942996,0.05870367,1.2597375,-0.84639126,-2.0688093,1.5045747,-0.19277525,0.14053531,-0.673079,-1.3368837,0.1022164,-0.19088952,0.10705985,0.12117715,-0.41619724,-0.72478855
organization,-0.6982482,-0.23324265,1.1807581,2.193796,0.7571711,0.12953575,0.36652818,-0.07078848,-1.502611,0.3797827,0.30267814,-0.054551307,-0.6485931,-0.4784958,-0.36967957,-1.4409881,0.26208937,1.4113518,-1.5212374,-1.0709459,-0.032476418,1.3902007,-0.036582544,0.6184402,-0.7340258,-2.1521688,0.4146315,0.49823585,-2.8979874,-0.7831182,-0.4339131,0.47853315
organophosphorus_compound,0.87355256,-0.7724741,0.038042348,1.1043546,0.86554265,1.0976696,0.49202716,-0.379442,-0.7288683,0.65606457,-0.07965278,-0.5126576,-0.07200267,-0.75733787,-1.3922539,-3.0622213,-0.76561165,0.52662164,0.92374235,-2.3501384,-0.3785163,0.3358052,0.3787239,1.1878787,-0.56458086,-2.162677,-0.6595705,-0.6717366,-0.28121674,-0.04866279,-0.5168028,2.0780752
pathologic_function,0.54412395,-0.91384315,-0.5318832,0.20004307,1.0690985,-0.97545195,1.6673476,-0.527556,-1.1079354,0.079619616,0.5264906,1.2575427,-0.17259169,-0.73004514,-0.40808162,-0.46573925,-0.3637059,-0.72967726,1.6531923,-0.81499135,-0.5329447,1.4734092,-0.066564225,0.66147345,-0.19681199,-1.0560197,0.0037448627,0.44521517,-0.7147579,-0.45930555,0.89370525,-0.18685853
patient_or_disabled_group,0.5786807,0.14253788,0.3004292,1.1679579,-0.46588454,1.1964031,1.2813793,0.19788945,-0.83567387,0.39767516,-0.51691514,0.016595146,-2.075956,-0.7781426,-0.63439345,0.21734771,-0.039733052,-0.87498015,-0.6177276,-1.468763,-0.30350837,0.7561941,0.37027094,-1.0340672,0.09486093,-1.1010948,0.3719592,-0.007232259,-1.4317499,-0.56742054,-0.70276636,0.7515697
pharmacologic_substance,0.6303195,-1.2817901,1.2839139,0.74962777,0.028072154,0.55768615,1.2788013,0.6776144,-0.9180089,0.68623954,0.2075246,-0.57462496,-0.003869664,0.079944484,-0.15631215,-1.513128,0.6947757,0.49142522,0.059957832,-1.2359148,-0.5645906,1.466324,0.41329944,0.45425385,-0.37298086,-1.9499764,-0.40097594,-1.0745615,-0.88766515,0.0035091075,-0.16025797,-0.4806128
phenomenon_or_process,-0.0026667574,-0.12167908,-0.81431246,0.98680365,-1.245048,-1.1449168,-0.018165339,0.36873147,0.057293624,0.6464625,-0.36963323,1.1162455,-0.09679692,-0.82435507,-2.0911334,0.8458102,-0.34606838,0.461921,0.50206375,-1.1000732,-1.580299,1.8683634,0.44047207,1.8211621,-0.8373445,-1.7101849,0.16052254,-0.91685236,-0.24507807,0.25214094,-0.292191,-0.39742994
physical_object,-0.13041344,-2.0550349,0.24775618,2.2775686,-0.26881927,-0.9349487,0.13728346,0.1721268,0.3557757,-0.045351196,-0.7389226,-1.6118965,0.9186202,-0.7680273,-0.7443384,0.37098202,0.9709822,-0.030454807,0.1714718,-1.0518523,0.48932713,0.3982117,-0.17131384,1.5499085,-1.1643817,-1.2136141,0.5983435,-1.2397163,-1.0882156,-1.5928158,-1.2370486,1.6233253
physiologic_function,0.13489975,1.0850049,-0.85691667,1.1519907,0.6275752,-0.8647379,0.81109565,-1.4980023,-1.503029,-0.028292753,0.2738402,1.32678,0.68001896,-1.4131383,-1.2368902,-0.4938889,-0.4592245,0.7160058,1.5837759,-1.3120965,-2.013698,0.8904266,0.010566208,0.50361973,-1.0934145,-0.7447206,-0.4742456,-0.13509615,0.102086104,-1.4223554,0.14992231,0.22376937
plant,-1.1079836,-0.6136369,-0.43904352,0.9385275,1.4367479,-0.5090489,0.24258454,0.017249133,-1.3160757,0.73007107,0.9906397,-0.6163461,-0.6490108,-0.4795849,-0.36986953,1.6935151,-0.01105282,0.9140578,0.05995318,-1.46514,-1.4244529,-0.7924019,-0.24094513,0.32939416,-0.91948426,-2.0798361,0.3172213,-0.6472127,-1.3773401,-0.7859661,-0.50399846,0.0032108396
population_group,0.20168266,-1.3596514,0.11594999,1.5463486,-0.4242255,1.3948953,0.6368313,0.7489355,-0.6831897,0.17929551,-0.49441946,-0.24299826,-1.6570338,-0.017639197,-0.054511786,1.1835649,-0.9558953,-1.0494015,-0.57050586,-2.3542585,-0.6630721,0.6810359,0.072631314,0.79274297,-0.9287414,-1.342108,0.85525435,-0.54133373,-1.9455501,-1.0051873,-1.1659923,-0.12658766
professional_or_occupational_group,0.83704627,-0.20844778,0.22995539,0.9634826,-0.20761402,0.39963874,0.8490514,0.83106613,-0.61844724,0.07109564,-0.18656446,-0.78005844,-0.651822,-0.7408583,0.44583446,0.7245103,-0.76732475,-1.9167527,-0.5154052,-2.006397,-1.133636,0.62881523,0.6186392,1.2148753,-0.99876434,-1.2221669,-0.10903983,-0.3116906,-1.1629745,-0.7697463,-1.0427788,0.5791516
professional_society,0.46095073,0.6252848,1.6775836,1.7934207,0.28525123,0.6469903,1.4731699,-0.114840135,-0.92870164,0.5273533,-0.52155423,-0.53479534,-1.5251204,-0.7088029,-1.3452847,-1.4941835,-1.2102857,0.45669302,-0.48629466,-2.1384692,0.28622293,1.3943402,0.7206478,0.2855376,-1.3291392,-1.3566781,0.61340815,0.18261117,-3.0203319,-0.39477277,-0.2794072,-0.32403666
qualitative_concept,0.1499617,-0.482476,0.65310615,0.93247074,0.69567513,0.63332766,0.66095227,-0.09481037,-0.45181364,1.1763432,-0.2887933,1.0198649,-0.9442886,-3.0202098,-0.8318693,-0.6229247,0.20067063,-0.10824601,-1.4395525,-1.6236479,-0.24217391,0.8515476,-0.37352592,0.39633635,-0.6123777,-1.8746824,0.7984582,0.22522983,-0.8092898,-0.7944112,-0.5878844,-1.4100026
quantitative_concept,1.1717674,-0.9781063,1.5703924,1.4064827,1.1963646,-0.07941053,1.5642778,-0.6141036,-0.30097002,0.42138243,0.083173245,-0.2549096,0.45093298,-1.0691324,-1.585075,0.36150536,-0.3576402,0.16815013,0.062031694,-1.7351995,-0.010524561,0.44505093,0.41756368,0.8711511,-0.21535757,-1.6184791,0.40558213,-0.8405625,-1.176553,-1.3936695,-0.13228531,-0.35152248
receptor,0.21266091,-0.54670936,0.8471109,0.3559693,0.51351565,0.48516837,1.2460791,0.29060853,-0.7872336,1.1410284,0.2523347,-1.0099744,0.169652,-0.08592844,0.147717,-0.991568,1.2954589,0.98222554,0.77089554,-1.1319396,0.59389335,1.0706137,0.74831593,-0.3918135,0.03598581,-2.050382,-0.28401452,-1.1115589,-0.42153275,-0.82923824,0.5071051,-0.2405922
regulation_or_law,0.638304,-0.03171303,-0.09707571,0.35851428,-0.6008296,-0.043601576,0.7699563,0.031317916,-0.503423,0.70061725,0.27614215,-0.6311979,1.2920191,-0.5294552,-1.2854514,-0.38999116,0.30746928,0.83638585,-2.394216,-1.9767754,-0.49880505,-0.88992923,0.48131683,0.8192125,-1.2561253,-1.9595991,1.2266213,-0.6982492,-0.7471342,-0.38040563,-0.13271408,-0.21405888
reptile,-0.30690262,-1.4716121,-0.8767762,0.82407004,0.7089182,-0.44980574,0.45337343,-0.14100626,-0.7348705,1.18005,0.5028189,-0.78232294,-0.5362977,0.21667567,-0.08767499,1.906437,-0.54358906,1.1792336,-0.6532491,-1.7390449,-1.4836959,-0.6076793,0.99864846,0.36602998,-0.5074756,-2.0158453,0.2543964,0.11476954,-1.8143805,-1.0067205,0.1879816,-0.05051636
research_activity,0.21429011,-0.58409023,1.8419623,0.6428836,0.47221124,0.18920359,0.61852616,-0.23195988,-0.99072003,0.059810277,1.2178719,0.15062541,-0.15128128,-0.7853491,-0.61905986,0.23395963,0.44712055,-0.3232818,-0.909578,-1.7595255,-0.9326864,1.0570406,0.21058743,0.68086374,-0.9909814,-1.9337333,0.8260412,-0.12551676,0.47126842,0.14070842,-2.1629689,-0.7646381
research_device,0.6858334,-0.5683942,1.0543138,0.3594734,1.6266584,0.165078,1.3125232,-1.1911551,-1.0030246,1.3147911,-0.8461346,-0.6644162,0.97000515,0.15112528,-0.5271449,1.3740436,-0.037226044,-0.14221434,-0.75330275,-2.1782324,-0.28838482,0.39120108,0.57116795,2.2963328,-0.9489498,-1.7682761,-0.6188303,-1.1925097,-1.4342699,0.21160334,-1.8905936,0.48424006
rickettsia_or_chlamydia,-1.0781535,-0.49998453,-0.54307705,0.24705061,0.82193524,-0.5214126,1.337913,-0.47165295,-1.2192421,0.6063944,1.6192592,-1.4903971,-0.9116991,-0.43373653,-0.868174,1.3127129,0.54330355,0.62271446,0.07850114,-1.1369648,-0.5863269,-0.42652375,0.030185731,-0.5703508,-0.2533959,-1.7883154,0.47430056,-0.23104215,-0.68504447,-0.06891988,-0.41216296,-0.559721
self_help_or_relief_organization,-0.23855121,-0.26976076,1.0457597,1.8710418,0.4538824,0.037068304,1.157647,0.4056469,-0.7851005,0.024618067,-0.19015494,0.09635856,-1.9166517,0.37954327,-1.4291172,-1.3013146,-0.0949688,0.07896989,-0.5047156,-1.3163477,0.5668762,1.5954022,0.47482505,0.40806907,-1.276512,-1.6502515,-0.39531663,-0.7338123,-2.8391023,-1.3978668,-0.05412368,0.22078665
sign_or_symptom,-0.331782,-2.1970084,-0.24718691,0.5093545,0.23713367,0.36015183,0.8192636,0.34689388,-0.35952333,0.49661016,0.2467799,-0.9106309,0.18312243,-1.5166779,-0.738522,0.25058722,0.8388565,-0.14573245,0.36819127,-1.8197186,-0.08790876,1.1074883,0.77392626,0.9490077,-0.7923185,-1.5923723,0.17649259,-0.7883189,-0.11105261,-0.12431134,-0.58945525,0.07803244
social_behavior,0.34097025,-0.5885094,0.5308593,0.74662495,0.5741489,-0.8385439,-0.0082052415,-0.78335303,-0.3378341,0.18517,-0.38007572,-0.6831685,-0.002201605,-0.40810624,0.43083286,-0.007962039,-0.27524424,0.051154815,-1.4166081,-0.925034,0.049107663,0.6906054,1.2056663,1.6860132,-1.1101252,-1.7465032,0.42971602,-0.6362161,0.27380493,-0.564666,-0.34762624,1.2303948
spatial_concept,-1.2028136,-0.46439737,0.081294864,0.88990295,0.37841853,-0.39703056,0.42151392,0.9636878,-0.8971378,0.23104443,0.47527942,-1.142537,-0.5918611,-0.14356618,-0.37550214,-0.5386888,1.2041281,-0.15855649,0.082791865,-0.20376179,-0.27766097,0.21805196,0.04468568,1.0177772,-0.91772383,-2.0129519,0.32525608,-0.7034465,-1.1734122,-1.1374128,-0.6631071,-0.40723217
steroid,1.0381697,-0.90058434,0.7848383,0.5763703,1.5689715,0.070959,1.5489693,-1.0838424,-0.40403405,0.7476261,0.11553664,-1.1014686,0.26189134,-1.0478061,-0.4833068,-2.4218373,-0.5349897,0.26694757,-0.32168096,-1.4380721,-0.25296178,0.3197847,0.14569867,1.3115616,-0.17817608,-2.4208686,-0.7903919,-0.8121449,-0.7275377,0.2068396,-1.1287047,0.33633745
substance,0.49546897,-1.3947577,1.2967787,1.7836989,-0.21932483,-0.19524044,0.93697834,0.08509926,-0.241764,0.084554605,-0.085633256,-0.5428233,0.3514759,-0.8457489,-1.1280177,-0.95994467,0.40485585,-0.13901518,0.5191679,-0.8998116,0.87783915,1.9506068,-0.076366365,0.5751386,-1.0294641,-1.7570609,0.12429144,-1.6766039,-0.5757575,-1.1554116,-0.8491861,1.7350035
temporal_concept,-0.27662158,-0.11838055,-0.17958106,1.4622897,0.03674313,1.0034127,0.52280176,0.52102786,-0.30109093,0.2331657,2.5663717,-0.61656165,-0.17054054,-0.46867564,0.17330292,-0.22935876,-0.80996656,1.3434657,-0.34869272,-1.4610552,-1.6104788,0.42910957,0.41900247,2.209339,-0.71730745,-1.7338796,-0.41710144,-0.29401004,-2.3641744,0.03804902,-0.040837258,-1.0928178
therapeutic_or_preventive_procedure,0.3990217,-0.66985947,1.0286447,0.5069764,1.1818504,-0.59645665,0.46269435,-0.19437353,-0.81426597,0.1624277,0.60197777,-0.062410492,-0.8217903,-1.4089845,-0.12156607,0.87044376,1.2061206,0.5812138,0.24080347,-0.6301707,0.12522241,1.2650526,0.106785886,0.046768345,-1.1294594,-1.6101056,0.9227845,-0.6931857,0.27484232,0.34992748,-0.9674026,-0.24159443
tissue,-0.7966862,0.38275155,-0.36862525,0.3899198,-0.8799678,0.82709646,1.6307906,-0.18757187,-0.22130898,0.5417721,0.5506123,-0.6922257,-0.20806229,-1.2642741,0.77167666,-1.4412544,-0.12456205,0.45621738,1.0471809,-1.5726846,-0.4522786,0.70320946,0.3571563,0.58547664,-0.9363081,-1.39785,-0.061600313,0.55086225,-0.84286493,0.056363184,-0.9782064,-0.5198412
vertebrate,-1.3298236,-1.8409623,-0.46361488,1.5460641,0.96847105,-0.3820641,1.4217867,-0.6783283,-0.2727248,1.1370312,0.90633386,-0.19320406,-0.16169165,-0.70751244,0.037398662,1.5083904,-0.07220651,1.3222923,-0.46990335,-0.34619427,-0.97832173,-0.15813413,0.54998785,-0.36490932,-0.7175462,-1.6451548,-0.16069995,-0.27920824,-1.0167341,-1.4202656,-0.52351516,0.3501989
virus,-2.5289671,-0.9498144,-0.15921006,0.5134194,0.569016,-0.76406753,1.7883998,-1.2273313,-1.025192,0.33713213,0.15763707,-0.7416272,-0.552439,-0.80962217,-0.23818749,1.1662892,0.91442233,0.29156327,0.0809789,-1.3314788,-0.8204475,-0.5032115,-0.14109579,0.321715,0.0029097458,-1.7529914,0.5622247,0.31072932,-1.0976301,-0.1234012,-1.5494175,0.7576313
vitamin,0.18114594,-0.576928,0.8195658,0.62394804,0.8440497,0.6432139,0.6970246,0.24963734,-0.8113032,0.832409,0.6386092,-1.4288394,0.09850553,0.3104334,0.23584962,-1.0448465,0.69040805,0.6500573,0.7942914,-1.0442252,0.43467867,0.76723784,0.5963293,-0.33867463,-0.101626605,-1.845372,-0.024101494,-0.55600995,-0.036028445,-1.0862476,0.15948546,0.03262514
