,0,1,2,3,4,5,6,7,8,9,10,11,12,13,14,15,16,17,18,19,20,21,22,23,24,25,26,27,28,29,30,31
acquired_abnormality,-0.5430447,0.06523205,-0.034138147,-0.016999476,2.133565,-1.205869,-1.317457,-0.658939,0.15273067,-0.1227966,0.44546536,0.46585652,-0.047952786,-0.5929405,-0.8843483,-1.0374987,0.004929308,-1.0786303,-0.42404026,-0.6436885,0.10950879,-0.08337253,-0.6158855,-1.3424642,-0.710784,1.6390564,0.787484,-0.22407031,0.8172345,0.046503253,-0.033808738,1.1495491
activity,-0.11247051,1.5883292,-0.38733336,-0.05683293,0.13868365,-0.33905578,-0.45413753,-0.20511357,-0.013079598,-0.6256827,0.5309895,-1.0512592,1.0202298,-0.48968372,-2.146658,-1.5946084,1.0726209,-0.92462236,-0.39233086,-0.4419486,-0.105740264,-0.8196709,0.6186176,-0.9344195,1.8169732,-0.6125959,0.55206275,-0.036765456,-0.3373807,-0.8617417,0.61306804,1.3118031
age_group,-1.0321425,0.52223474,0.33988747,0.5674588,0.38174182,-0.32520646,0.5124222,1.0452019,0.43991354,0.26584974,0.2764925,-1.2522947,-0.28647503,-0.8533781,-0.5806844,-1.1401429,-0.25906557,-1.2455422,-0.006502212,-0.4066081,-0.3177351,0.0784123,-1.0155169,-0.5784257,0.3885773,-0.37917158,-0.08942942,0.96992826,-0.14964862,0.011445189,1.0380106,1.4712813
alga,-1.8350443,0.36744735,0.5715726,0.09780672,-0.13410316,-1.1723737,-0.410541,-0.01779712,-0.1772741,-1.1938654,-0.6707338,-0.97682387,0.73100686,-0.22989662,0.083869375,-1.3983015,0.98034614,-0.7757412,0.037902594,-0.14412045,-0.71867967,-0.4374189,-0.45919755,-0.5347608,-0.36329392,0.89766955,0.8109111,-0.046379503,-0.20247616,0.7432712,0.51604754,2.010272
amino_acid_peptide_or_protein,-0.4157043,0.6286099,0.16161136,1.0695752,0.4373293,0.16775605,0.31324705,0.4957071,-0.19015896,-0.28364608,0.054226838,-1.1472,1.2019956,0.015991783,0.5150046,-1.0113525,-0.3867888,-0.6751543,0.58073306,0.4594121,-0.50844914,0.7709687,-0.80769396,-0.837057,0.9813485,1.3411791,0.6821053,-1.629883,-0.2092043,-0.24643503,0.16897354,2.0689929
amino_acid_sequence,-0.7536354,0.49309874,-0.17672077,0.5258652,0.93680716,0.53750074,0.66273546,0.20512478,-0.46830383,-0.81980795,0.60661274,-0.32443655,-0.13100828,-1.7912141,0.07689695,-0.314078,-1.6923509,-1.7005361,1.5618544,0.08467951,-0.6626052,-0.17673555,0.3580904,-0.265375,0.24401055,0.47661227,0.3768259,0.15037993,0.027960131,-0.063810475,-0.30622134,2.3907745
amphibian,-1.6154522,0.7108557,0.8277604,-0.295349,0.30561972,0.030329613,0.25155395,-0.08183984,0.4651814,-1.0608141,-0.13500905,-0.10417483,0.66653293,-0.19713297,0.24893352,-0.76857394,0.45624965,-0.859148,-0.70902044,0.5581296,0.0262305,-0.32192978,0.29112262,0.011162017,-0.6807869,-0.36993194,0.7051722,-0.02275026,0.32587916,-0.033466503,0.022897454,1.7388136
anatomical_abnormality,-0.62614113,0.14210235,0.544583,0.0578659,2.2987506,-0.30162185,-1.4996101,-0.29269743,0.2007302,0.09916942,0.4666869,0.906505,-0.7507714,-0.9597837,-0.40884522,-1.3641568,-0.21152097,-1.2687645,-0.4763437,0.18255825,-0.09389875,1.0127091,-0.85979736,-1.4697223,-0.033757884,0.97499794,1.1353878,0.043170895,1.0446217,-0.3463348,0.21218592,0.91059905
anatomical_structure,-1.5671734,0.9191342,0.22528039,1.1230179,-0.057462826,-2.213496,-0.49416915,0.4305332,0.4785875,-1.3526012,0.49256212,0.6442959,1.9564301,-1.1524862,-1.034468,-1.4979342,-2.5548313,-1.45739,-0.96536064,0.21724229,0.10589576,-0.6357756,-0.45330268,-0.51142657,0.058366284,0.52159613,1.0699835,-0.36194098,-0.28337708,-0.5021703,-0.03816208,1.8067973
animal,-1.8664645,0.58831817,1.3712713,-0.0011109887,0.5993993,0.30583185,0.52377766,-0.84120697,0.7342806,-1.687064,-0.19426803,-0.38246056,1.3350819,0.13788658,0.11110817,-1.4833322,0.17990354,-1.0809289,-0.8812316,0.64205116,-0.92396593,-0.31636482,0.76889074,-0.4427897,0.28787032,-0.521501,0.58476716,0.28739294,0.1185221,0.04983726,-0.07548125,1.2633142
antibiotic,-0.9333818,0.8304269,0.33087757,1.2590041,0.24716437,-0.3341329,-0.53666395,0.90909034,0.35783973,-0.0607028,0.4924349,-0.88090265,0.2645126,-0.104315735,-0.07606918,-0.85550845,0.45555872,-1.2615024,-1.3211977,0.3102402,-0.14000808,0.008782993,0.009624564,-0.7902315,-0.5503168,0.5626934,0.851427,-1.383062,-0.15713114,-0.39316607,-1.248783,2.0696893
archaeon,-2.4116135,1.5144235,-0.08995376,0.60422945,0.5994915,-0.46787238,0.7174985,1.0115921,-0.09690079,-1.8553116,-0.620211,-0.41995645,1.187365,-0.19843385,0.23015,-1.213746,-0.2890237,-0.60992396,-0.56291145,0.6611994,0.1511653,-0.7423599,0.8822135,-0.012073838,0.038627017,-1.1311249,0.38545915,-0.2458422,0.72532547,-0.21016404,0.7416049,1.9923149
bacterium,-1.6566948,0.6239258,-0.07538234,-0.2897203,0.69494474,-0.37916428,0.16568926,0.09769843,0.30543184,-1.1572719,-0.393603,-0.82659936,-0.42455056,-0.8901837,0.39147615,-0.98472327,1.2033185,-0.5913876,-0.39596847,0.74692994,-0.056489863,-1.3003869,-0.025958348,-1.0642806,0.6012105,0.016576765,1.0207164,-0.11615631,-0.2835139,0.50481313,0.97385633,1.6552169
behavior,0.7866018,1.0876877,1.2064197,-0.3048216,0.96239793,-0.82616675,-0.58668226,0.991613,-1.6117989,-0.2875377,0.117290206,0.35330814,0.45509312,-1.1001457,-1.9294459,-1.6129667,1.063349,-0.80209255,0.68418247,-0.095325746,0.5229157,0.43045148,0.7367566,0.21616709,-1.2329793,1.1808251,0.6919621,-0.52628815,0.7825985,-0.8792764,-0.35864472,1.2883117
biologic_function,0.12218424,0.26123825,-0.46413976,0.44549525,0.5784377,-0.664467,-1.0114923,0.9861903,0.044866107,-1.1899132,0.17438032,0.8285685,-0.6822582,-0.4306823,0.07398701,-1.1608063,-0.6188622,-0.7609032,0.39495537,-0.8832288,0.5972183,-0.30402836,-1.0480223,-0.6106339,-0.46951002,0.7960336,2.0234613,-0.76719815,-0.47790074,-0.34852564,-0.903575,1.2744094
biologically_active_substance,-0.8760164,0.7030124,0.29170966,1.261378,0.66784745,0.38809592,0.50085294,-0.03178688,0.2373556,0.6779699,1.1253937,-0.46117356,0.49228817,-0.7381918,0.66200227,-0.7967995,0.12253701,-0.5419501,-0.87552124,0.6875668,-0.0070031723,0.156023,-0.60127145,-0.9047828,-0.214804,0.08703782,0.26068863,-1.4460421,-0.02714603,-0.5989924,-1.1543723,1.6635848
biomedical_occupation_or_discipline,-0.6735892,3.4511168,0.20897456,-0.5563821,1.5604801,-1.0046624,-0.5977008,0.9595267,0.6327475,0.7975709,-0.2704281,-0.5694004,-1.4015225,-1.430572,-0.7421887,-0.7393447,-1.0791154,-1.4906005,-0.11599483,0.44684628,-1.1180525,-0.03766902,-0.11722388,-1.9436951,0.7467313,-0.46082574,0.43483505,-0.6388255,0.24006374,0.77728003,-1.2272742,0.95052284
biomedical_or_dental_material,-0.90537435,0.67059314,0.56671834,0.39595976,-0.34313467,-0.30114013,-0.015381736,0.3606826,1.7307361,-0.49027157,1.1240208,-0.8178244,-0.16138567,-0.53866243,-0.4206126,-1.3790414,-0.4663353,-1.7358828,-1.1347529,0.84234196,-0.51445246,-0.44006732,-1.0503697,-0.6484158,2.0099688,0.34726575,1.0066426,-2.2560148,0.8570832,-0.5546344,-0.14208631,2.1934872
bird,-1.8194144,1.3279326,1.2384337,0.34352726,0.42070478,0.8068308,-0.1466745,0.7475609,0.7702834,-1.4734333,0.06810179,-0.9421077,0.9997779,-0.7863681,0.4173513,-0.83160985,0.33199596,-0.75565666,-0.8255183,0.5029694,0.6801272,-0.6005066,1.3855295,-0.4837265,-1.0681298,0.10058453,1.1757035,-0.20079008,-0.055492327,0.6466502,0.63419026,2.2216935
body_location_or_region,-0.2616382,1.1580379,0.2764375,0.71304864,1.4552237,0.09458751,0.10503572,0.88921714,-0.23159218,-0.55168945,-0.017651005,-0.05895874,0.3833384,-1.0277543,-0.105722055,-0.781946,0.3288271,-0.94826806,-0.39363357,0.61042523,-0.86346716,0.89121103,-0.5490374,-0.2671793,-0.07867534,0.5256576,-0.0674097,-0.44062412,0.948381,-0.0076936986,0.12023163,1.8196514
body_part_organ_or_organ_component,-2.2031915,0.31438464,0.4703367,-0.4495047,1.6198846,-0.13130917,-0.3062813,0.48116595,0.33018327,-0.56680125,0.67288625,0.21707448,1.109177,-0.4316585,-0.38843974,-1.6677964,0.76619834,-0.6589581,0.0339366,0.7578217,-0.98612684,0.44342,-0.08342071,-0.5602348,-0.57882446,1.1277269,0.29420775,-1.0271112,0.03670601,0.17271638,-0.587939,1.1753261
body_space_or_junction,-0.5259654,0.54696745,0.57161117,0.2856964,1.4999113,0.9841499,-0.5099849,0.89657617,-0.39702854,-0.68611896,-0.031789597,0.56124085,0.56874424,-1.2012953,-0.19921976,-0.7733228,-0.38938567,-1.0416708,0.28991598,0.76944983,-0.017855184,1.0795571,0.27396014,-0.2372451,0.2766895,0.29409122,-0.31408933,-0.7578528,0.074745335,0.35252702,0.5545569,1.4125328
body_substance,0.2382906,0.89849263,0.26443696,-0.32178038,0.9513108,-0.74462336,-0.043028813,0.5550693,1.0986956,0.5064695,1.1795082,-0.38146335,1.1398647,-0.24917328,0.8431514,-1.0651542,0.7533337,-1.2421044,-1.2384709,1.2695866,0.15761548,0.96846724,0.9578158,-0.7645492,0.63980746,1.2681035,-0.27697742,-1.0141991,-0.20237221,-0.4324659,-0.8805384,1.8177656
body_system,-0.8983416,1.6576781,1.3464389,0.7820277,0.524508,0.13875966,0.40005028,0.9266885,-0.743886,0.5505917,0.07210808,-0.6552898,-0.37196606,-0.375884,-0.84734046,-1.2168579,-0.7382359,-1.6539968,-0.07669084,0.40006536,0.3372251,0.57111627,0.21079223,0.2836981,-0.3741058,0.3939093,0.8050956,0.624142,0.91811687,0.4136024,0.148405,1.5311666
carbohydrate,-0.35992306,0.71905327,-0.17702754,1.099623,0.30033115,-0.33413017,0.8773343,1.7903764,0.80899847,-0.110204875,0.31237346,-0.8715204,0.8165138,-1.2392708,1.0289599,-1.2582841,-0.5897635,-0.7861996,0.8285528,0.3570903,-0.6405812,0.7761323,-0.5927768,-0.685323,0.91402406,0.08941294,1.0512295,-2.2012289,0.34513637,-1.5400558,0.664921,1.9309263
carbohydrate_sequence,-0.3361739,0.45824146,0.30316675,0.046586677,1.0562143,1.1442304,-0.26585257,0.1356793,-0.69028497,-0.4807468,0.47163647,-0.476499,0.7320139,-1.4764386,-0.1009677,-1.0175093,-0.73869854,-1.0970042,-0.7784574,-0.41035846,-0.6438652,0.444867,-0.20323236,-0.06318225,0.2587367,0.42408872,0.5983916,0.14668423,1.1280854,-0.21977456,-0.3210498,1.8071604
cell,-1.7687689,1.4313068,0.5223169,-0.05892452,1.7205448,-0.21695045,0.26804614,0.6500396,-0.46748838,-0.40799928,0.5271114,0.35057884,1.7838204,-0.90691435,-0.9147791,-1.2960025,0.30922842,-0.4701385,-0.012712664,-0.09022503,-1.0435743,0.08413542,-0.014239021,-0.16941711,-0.47282764,0.33129415,0.5084244,-0.7281968,0.021143831,0.5983785,-0.6779431,1.0360314
cell_component,-1.2804618,0.6457187,-0.015088856,0.8022327,0.1457964,-1.0191275,-0.090347536,0.7173184,-0.6378372,0.5321304,0.1931981,0.3039258,1.7341856,-0.7492816,-0.87789094,-1.878035,0.6646265,-0.6597979,0.028795809,0.11874642,-0.9156258,1.3624332,0.05982322,-0.5241747,-0.103260174,0.91825736,0.42347056,-0.6584328,-0.12673418,-0.18009175,-0.81564254,1.1229869
cell_function,-0.4566724,0.11149843,-0.18436968,0.98035306,0.56409603,-0.38978338,-0.9369608,0.54093516,0.29220396,-1.0547676,-0.24350537,0.3740146,-0.46994832,-0.09836164,0.434114,-1.1461116,-0.6747202,-0.44850582,0.10557858,-0.53182304,-0.77118665,-0.30918932,-0.65906227,0.32890448,0.01816422,0.92462087,1.7970132,-0.40441996,-1.4866079,-0.38073415,0.28594536,1.0920091
cell_or_molecular_dysfunction,-0.16830026,0.0059955865,-1.332351,0.9943054,1.2074169,-0.49373087,-0.8867625,-0.18560678,0.1767785,-1.2723327,-0.6281939,0.796168,-0.2897642,-0.8347811,0.23383275,-0.5140474,-0.788688,-0.44421154,0.8252014,-1.0964779,0.44458225,0.63752335,-0.51972836,-1.3094358,-0.40321878,1.0723531,1.7906967,-0.3007285,0.65112036,-0.19816697,0.011051456,1.3482525
chemical,-0.50342864,0.4562042,0.3562827,-0.61979884,-0.6754982,-0.06308479,0.17184705,-0.92112285,0.08650062,-0.69943047,0.5527883,-1.2841457,1.0307846,-0.45701972,0.742558,-1.5933269,-1.2782044,-0.7775256,-0.14881788,0.2438042,-0.17559372,0.4060815,-1.2576712,-1.0600111,-0.4622801,0.0029226793,0.52257377,-1.7158182,-0.018649053,-0.054631837,-1.1661564,1.4731989
chemical_viewed_functionally,-0.35478893,1.1247296,0.4508055,1.4524444,0.23070787,-0.55124104,-0.38597223,-0.023623496,0.5882619,-0.08104827,0.67732424,-0.84299624,0.28646037,-0.01960052,0.6877627,-1.4637628,-0.107211374,-0.9385624,-0.23289475,0.8441152,0.048520792,0.78995585,-0.6521478,-0.8198898,-0.13623093,0.0017139436,0.28658193,-1.281429,0.42901862,-0.09392517,-0.9150675,1.330642
chemical_viewed_structurally,-0.7894175,0.8470064,0.9346071,-0.03929055,0.23155506,-1.0589759,0.6752263,0.66016716,0.09075234,-0.002825676,0.35492224,-1.8508203,1.3129085,-0.7171592,1.0159216,-1.6640896,-0.0058655613,-1.1856236,0.3783028,-0.65773183,-0.32210928,-0.04963286,-1.1590967,-1.2134161,0.2253837,1.409994,0.77621937,-1.5487492,0.63257414,0.119811125,-0.08501907,1.5675308
classification,-1.0645876,0.6110027,-0.12959129,0.52521795,0.8038691,1.2406411,-0.28037846,0.012519902,0.35367668,0.07941258,-0.10996242,-0.88564265,0.6747368,-1.191883,0.18431628,-0.9660272,-0.25034383,-0.5369085,-0.41416314,0.10895999,-0.25699186,-0.60980815,0.6770481,-0.9046561,-0.32009536,0.21071286,0.6060133,1.2382716,0.13201654,-0.7781129,-0.36934242,2.034405
clinical_attribute,-0.49293557,0.6462266,0.5360841,-0.2528176,0.9414503,0.36425725,-0.18976566,-0.9763415,0.91519576,0.30398318,-0.5134552,-0.5941736,-0.0036108685,-0.9153576,0.10564358,-1.2801247,-0.12653734,-1.2756041,-0.21654631,-0.90345097,-0.30253807,-0.32340506,-0.68532526,-0.50884527,-0.35843202,-0.36882186,1.4430844,-0.98766696,1.2350863,0.5674256,-0.055242576,1.6251295
clinical_drug,0.27827772,0.44475073,0.049486194,-0.37796795,2.148766,-0.6832245,0.09813548,0.30159912,-1.1943918,-0.015888592,0.67815727,-3.2633874,0.5235713,-2.459399,0.35372227,-1.0663029,0.5039071,-1.6390303,-0.007435901,-0.0037491294,-0.41928244,0.18559882,0.96665215,-1.1859123,-0.13814965,-0.0882446,0.95950884,0.58772194,-0.21516575,0.8143605,-0.48438296,1.867852
conceptual_entity,0.6323801,1.8766762,0.8659508,-0.0019186432,0.46268195,-0.6634249,1.3475678,-0.34199548,1.0964247,-0.53801364,0.46558157,0.28438327,0.77619815,-2.466877,-0.9650611,-2.0101275,-0.15865849,-2.154246,-0.7544946,0.56347775,0.91484576,0.24161121,-0.7167002,-0.44905442,0.38741443,0.39062768,0.011099899,1.1184253,0.5179932,0.2269308,0.24216312,0.8896182
congenital_abnormality,-0.98684627,-0.077781,0.29087207,-0.25546852,2.208614,-0.6387391,-1.7851014,-0.10400686,0.04337171,-0.07864948,0.5196865,0.770722,-0.18589544,-0.7990821,-0.6697295,-1.161854,0.43615603,-1.084546,-0.41832453,-0.22716779,0.2553629,0.4806595,-0.3444569,-1.502958,-0.44951707,1.3053906,1.0315903,0.1227075,1.2903984,0.08164088,0.09440057,1.1880155
daily_or_recreational_activity,-0.08835956,0.4842033,-0.64838034,1.033948,0.91599613,-0.1336851,-0.19003136,0.3676609,-0.23703684,-0.9432119,0.6527947,-0.85118765,0.8907836,1.4248108,-0.11915494,-1.1517442,-0.33391666,-1.5849032,-0.5728465,-0.44842374,-0.5633864,0.13292587,-0.07995183,0.70283484,-0.25004983,0.7936216,0.60212415,-0.54458624,0.0111305695,-0.066423506,0.8787482,2.0132973
diagnostic_procedure,-0.07073247,-0.01373132,-0.1519004,-0.108472824,1.7294191,-0.8456267,0.5914744,0.72459394,0.61497885,0.12460581,0.37685287,-1.3001859,0.24871649,-0.84005123,-1.9152126,-1.2740109,-0.20625627,-0.084907316,-0.5720162,0.011432368,0.81285566,0.15009046,0.56617063,-0.23069933,-0.29905918,0.24521594,1.0567137,-0.38017142,0.6166087,-0.46748754,0.22822018,1.6441785
disease_or_syndrome,-0.18195392,-0.15710993,-0.7992765,0.327857,0.82425034,-0.4018563,-0.7235825,0.4152536,0.45780915,-0.78809595,-0.35214636,1.1741006,-0.24050814,-0.3833426,0.4777919,-0.7213741,-0.29833335,-0.82876706,0.9730333,-1.4798875,-0.10757741,0.54679316,-0.36233625,-1.2580872,-0.4130874,0.8298629,1.4427744,-0.05898361,0.35935733,-0.2858091,0.22876668,0.9146967
drug_delivery_device,-0.13854258,0.82791436,-0.20647262,0.70121354,1.3784848,-0.10873603,0.0669403,0.014238635,0.67022073,-0.11148946,0.05900808,-1.5622797,0.23275304,-1.2683822,-0.25350258,-1.0441152,0.40199947,-1.0843955,-1.0415884,0.18478055,-0.25823689,0.37440395,1.8962572,-1.5093225,0.2367184,0.51347303,0.7702614,-0.18858545,0.13303253,-0.9457536,-0.53769577,1.6478955
educational_activity,-0.023230908,0.6818962,-1.7673907,0.8713851,1.47825,-0.038549427,0.33562234,0.71221626,-0.5219558,-0.73695934,0.24948134,-1.2981439,0.7936113,0.14297017,-0.59154963,-1.4132485,-0.73785716,-0.35859233,-0.8076236,-0.9248654,-0.4781063,-0.086161904,0.31422034,0.52121556,0.768504,-0.15060975,0.9417756,-0.4952559,1.3396727,-1.2829095,1.4351285,2.611532
eicosanoid,-0.46369824,0.6789383,0.5005586,0.24538685,-0.22624362,-0.4736157,0.74082756,0.1650315,-0.53882504,-0.13252006,0.40374008,-0.37311593,0.70784867,-1.1043271,0.48334393,-0.8308719,0.3655431,-0.78948385,0.16515367,0.41863388,0.26537588,-0.35036483,-0.30667636,-0.73230124,0.7899351,0.605487,0.72669065,-1.2078713,-0.41382715,0.28939265,-0.59814787,2.0035424
element_ion_or_isotope,-1.0544175,0.8676222,0.8803231,0.09833118,0.73227435,-0.21845795,-0.7048117,0.3513145,0.67484486,0.31674773,0.3076953,-0.9626123,0.58472943,-0.118959986,0.8173305,-1.1945963,-0.70759946,-0.60506463,0.10594542,0.33439377,0.64335185,0.111377664,-0.47584847,-0.8955703,0.6220337,0.3104955,0.94517624,-1.6014378,0.32093725,0.52043897,-0.02554543,1.9711696
embryonic_structure,-1.5171149,0.75256956,-0.583978,0.32431057,0.4032032,-0.87289363,-0.43615696,0.69471616,-0.45042264,-0.4426116,-0.020535799,0.34991375,1.90871,-2.0711384,-0.46366978,-2.0089252,-0.7950174,-1.1789325,-0.8864886,0.81172335,-0.9171146,0.37031612,0.41830546,-0.50317746,-0.31439346,0.8533254,-0.2921339,-0.4476137,0.2580587,-0.74625957,0.7458505,1.1558583
entity,0.81284827,2.582732,2.6899827,0.25012025,-0.050964937,-0.110615745,0.10116122,0.12153967,0.24255031,-0.16455668,-0.13545805,-0.90674406,2.195484,-3.5461545,0.11553068,-1.7977194,-0.8441068,-2.4562573,-1.9364623,0.20917462,0.42649603,-0.09862986,-1.0600581,0.6034407,0.121732265,0.0058543608,1.0292228,0.13195832,0.19705528,-0.028565057,0.37333626,1.0302806
environmental_effect_of_humans,0.043845423,0.6540796,0.6012479,-0.28728223,1.0461601,-0.40876147,-2.2450337,0.09708537,0.3086964,-0.043391477,0.5320094,-0.874889,0.9664427,0.24949925,0.42204243,-1.7093569,1.2207052,-1.5658025,-0.46226785,-0.0024024737,-0.71537614,0.14660347,-1.4143392,-0.5487881,-0.6656844,0.579107,1.421246,0.14504692,0.65593356,-0.48835894,0.07311386,1.5139213
enzyme,-0.5967599,0.65330684,0.222549,-0.3026049,1.122691,0.33526674,-0.54793614,0.6776604,0.66665024,0.8525973,1.0488912,-0.51861954,0.59377795,0.13852511,0.34377137,-0.82048774,0.18917988,-0.5151374,-0.2652982,1.0160135,-0.006546019,-0.5942525,-0.35976106,-1.2998488,0.18827786,1.1547039,0.24445496,-1.9264208,0.77681863,-0.85189503,-0.7354809,2.0256712
event,-0.6716529,1.9062474,-2.3865423,-0.32829764,0.321989,-0.7163197,-1.1718938,-0.27216008,0.79174936,-1.4695358,1.9850262,-0.7702136,0.579312,-1.9904894,-1.9790983,-1.6683997,1.2980678,-1.9851308,0.2012068,0.049871616,0.18812555,-0.06986979,-0.31625673,-1.7327988,0.38501975,-1.22284,0.032816526,0.08195304,-0.73194045,-0.8375493,0.7001091,1.3017762
experimental_model_of_disease,-0.12546635,0.13351397,-0.77933526,0.49020758,1.0610636,-0.17399979,-0.65830916,-0.7140529,0.759492,-1.1712443,-0.5617552,1.1990484,-0.09179513,-0.54217106,0.0034184288,-1.0658952,0.12033821,-0.73687524,0.6474289,-0.59249943,-0.0005593803,0.2118935,-0.36583385,-1.3466663,-0.80174017,0.9894678,1.4869297,-0.0093248375,0.3298656,0.37881017,-0.3046571,0.9394229
family_group,-1.2955952,0.14879866,0.48603627,-0.35994366,1.4223855,0.7920376,0.12163403,0.97208124,0.7713392,0.41501698,0.15073974,-1.2884508,-0.5013032,-0.7474281,-1.3793236,-0.8463511,-0.5491159,-1.2125292,0.47913322,-0.2222978,-0.80047464,-0.17337003,-2.3519197,-0.89516836,0.15905547,-0.1351224,-0.095258705,0.06806023,0.01574221,0.41154805,0.9131856,1.6274195
finding,0.06234074,0.8954217,0.3208573,1.2163877,0.7048923,-0.39131296,-0.41069853,0.8192481,0.39441332,-0.77525616,1.1297473,-0.71252877,0.17165665,-0.32720965,0.18906613,-1.181981,-0.18827744,-0.84935486,0.34054297,-0.13216728,0.21915022,0.32244134,-1.0412713,-0.51198924,-0.083430566,-0.04669994,0.3604891,0.065984435,1.224878,-0.7065906,0.34092247,1.3991903
fish,-1.8314358,1.3706475,0.30372328,0.089376,0.020041145,-0.16319925,-0.46683934,0.25244695,0.31582585,-1.6560613,-0.27301356,-0.32778955,0.90404487,-0.152377,0.22654665,-0.9181309,0.33947513,-0.79684734,-1.1522411,1.0083097,-0.17079186,-0.51520705,0.31334314,0.35152596,-0.5817222,0.12499523,0.68983066,0.49973193,0.59331334,0.55072665,0.35819072,2.0732946
food,-0.6843944,1.0759035,-0.264827,0.526448,0.174345,-0.65932,-0.33748403,0.1795196,0.33111936,0.38333815,0.7083639,-0.9925924,0.7808287,-0.03799228,-0.6752368,-1.0125548,0.043404516,-1.1598748,-0.25016347,0.08567001,0.1540394,0.053228073,0.25566834,-1.4491198,-0.11426665,0.7444192,0.9648536,-0.7084702,0.023238119,-0.19124599,0.21798748,1.8061475
fully_formed_anatomical_structure,-1.1586399,1.27708,0.4653556,0.13504736,1.1759179,-0.5623092,-0.05225927,-0.064174175,-0.42416918,-0.04049098,-0.055326268,0.034889027,1.6954529,-0.30424446,-0.29361993,-1.3733355,-0.76713353,-0.5268271,0.07150029,0.98386234,-0.25492018,0.5501678,0.26577637,0.6124747,-0.03270942,0.75185627,0.032504827,-0.70322394,-0.17449896,0.3206839,0.20607363,0.9355819
functional_concept,-0.31645647,0.6957151,0.22291452,0.20352502,1.4500203,-0.49389136,0.256987,-0.24599445,-0.17872801,-0.5121796,0.16789939,-0.5194107,-0.19504005,-0.6736327,-1.3494551,-1.3669527,-0.44116256,-1.5711418,0.023248805,-0.11745924,-1.0671242,1.1517965,0.36108133,-0.7808167,-1.1504204,1.0875052,0.22298053,-0.051873654,1.2260284,-0.20502365,0.46164134,1.5257025
fungus,-1.422985,-0.103194386,0.40080312,0.56749475,0.35814455,-1.1798906,0.30545488,0.81664944,0.16434944,-1.6144545,-0.9147114,-0.9257758,-0.24106465,-0.35611835,-0.2042205,-1.0409949,0.7712517,-1.04061,-0.1420077,0.351268,-0.023734622,-0.6208927,0.051426142,-1.1517787,0.2426936,0.28358456,0.44745678,0.015188025,0.1914364,0.50420266,0.83650184,2.076958
gene_or_genome,-1.72186,1.0600942,-0.09189706,-0.013711013,0.5411429,0.10869097,-0.42582324,0.831696,-0.38279355,0.36343008,0.5689442,0.12683596,1.8298826,-1.0212861,-0.5359248,-1.6479377,-0.73743844,-0.43558705,-0.57955176,1.0477276,-0.48009264,0.6523391,0.0036732368,-0.20763102,-0.07136627,0.48748162,0.4652743,-0.9219915,-0.32129785,0.7052814,-0.41859356,1.3926193
genetic_function,-1.160287,-0.40587446,-0.4627843,0.65158737,1.0341725,-0.35572064,-0.52477014,0.71401757,0.67542917,-1.0500547,-0.40216827,0.335914,0.17871024,-0.58294183,0.52875704,-1.015857,-0.24152091,-0.9037088,0.5126783,-0.75761324,-1.0233923,0.20118406,-0.8877544,0.47694686,-0.074077666,1.0804228,2.0507011,-0.21714681,-1.3816922,-0.508014,-0.2238167,0.7821878
geographic_area,0.023849286,0.7380423,0.5810664,0.870296,0.355795,1.7783438,-0.27967513,0.4397027,-0.111428894,-0.2061242,0.15368909,-1.1501493,1.2277737,-0.37899825,-0.59003717,-1.5283039,-0.601232,-1.4609998,0.28559986,-0.11310493,-0.70522743,0.35763246,0.16735803,-1.3584468,-0.15785907,-0.24913391,0.25171497,0.19400293,0.86456156,0.5443549,0.0804359,1.8497654
governmental_or_regulatory_activity,0.40894526,0.4152101,-0.8435914,0.4574823,0.5431649,0.12739503,-0.13213827,1.0637925,0.01154646,-1.0019284,0.27594447,-0.9766711,0.57196397,0.45112452,-0.99238026,-1.210834,0.06018465,-0.5973634,-0.6168765,0.37222797,0.17383872,1.4642602,0.59312195,-0.6712925,-0.06999898,0.37494394,0.016095785,-0.016005382,0.5491981,-0.4519537,1.6976478,1.8447082
group,-1.3352684,0.4537965,0.08380232,0.33091545,0.7732662,-0.6166162,0.5657818,0.75695604,0.25821775,0.66053504,0.08007764,-0.81980073,0.23280697,-0.978949,-1.3073375,-0.99839014,-1.0449373,-0.8516671,-0.022915341,0.4338744,0.21669863,0.48625386,-1.3442262,-1.0435965,0.41135606,-0.43169045,0.42369893,1.1354183,0.67029166,-0.30009508,1.1721941,1.421817
group_attribute,0.08071814,0.6977025,0.5582515,0.105769426,0.44469535,0.32683793,-0.82439613,0.27672112,0.5238734,-0.2446377,-0.19100106,0.14401112,0.14107731,-0.6197974,-1.4407429,-1.0232918,-1.4724514,-1.6186993,-0.67005295,0.68048376,0.07672717,-0.9134,-0.30574363,-1.3054993,-0.01739183,0.51142186,-0.0748918,-0.06532071,0.25205064,-0.37257802,-0.297679,2.0538495
hazardous_or_poisonous_substance,-1.0799743,1.5784738,-0.18101047,0.32612276,0.69252926,0.19591941,-0.007039465,0.23257986,0.23388718,-0.66677874,1.1165991,-0.46264243,0.99359506,-0.06474702,0.46675837,-0.9049071,-0.8405007,-0.39971292,0.10368664,1.0748756,-0.1667322,0.4401884,-0.8057944,-0.07374728,-0.525708,0.61982185,0.35881454,-1.5479473,0.540182,-0.08770625,-1.2701648,2.1849504
health_care_activity,0.64646566,0.46489018,-0.21010748,1.6855378,0.95022,-0.19340579,0.44367272,0.6126904,0.19571413,-0.57954776,0.115497924,-1.82731,0.32337838,-0.30482474,-1.9854999,-1.555584,-0.9337049,-0.30601045,0.0559073,0.52839404,0.39264578,-0.23224564,0.3087547,-0.82334274,0.45077363,0.031719543,0.8285913,-0.81145376,0.55436295,-0.7332523,0.8899186,1.5511755
health_care_related_organization,-0.14153123,1.8203468,0.15300676,0.49995703,1.2626632,-1.0810823,0.4025477,0.47529522,0.3516544,-0.74268246,0.40968895,-1.0892649,-0.5962417,-2.6039557,0.2408425,-0.894233,0.28300804,-1.9213735,0.3770749,0.8526523,-0.6148313,-0.1287308,-0.68400913,0.19242555,0.56167936,0.2707684,0.47983184,0.5170696,0.7430266,0.9587186,-1.0484666,1.7435384
hormone,-0.4378179,0.67499936,0.90036625,1.0085413,0.93747294,0.38997588,-0.46899328,0.22954023,0.38565922,0.13665712,1.1762742,0.16889018,0.7959596,-0.49481398,0.6913432,-0.6223094,-1.104815,-0.79332334,-0.17326777,0.8348429,-0.24236484,-0.8427438,-0.29383168,-0.713093,0.37597597,0.88031954,0.17251185,-1.6217551,-0.26472062,-0.3489883,-1.0530199,1.9143114
human,-1.9675157,1.2693675,0.24253938,-0.0044517536,-0.060197093,-0.37658557,0.7494116,0.79211867,0.024170328,-1.9913657,0.49644944,-0.6793198,0.96473795,-0.17770317,0.4555439,-1.1316298,1.0363942,-0.8529994,-0.16074413,0.2028315,0.21840458,0.9431968,1.9872196,-1.1143415,-0.2892294,-0.5801145,0.22835712,0.42113045,0.9294339,0.76323646,0.99279356,2.5859199
human_caused_phenomenon_or_process,0.008477651,1.0782322,0.40541482,0.23140816,1.028796,-0.6116363,-1.2837607,0.12747893,0.18185219,0.57877773,0.17932367,-0.5925552,0.434439,-0.40554374,0.18224406,-1.2832763,0.2524368,-0.73509514,-0.27469626,-0.40442622,-0.449069,0.26915878,-1.4710478,-0.09894903,-0.11027505,-0.3971243,0.85588956,0.4079964,-0.07645881,-1.1067756,-0.29315358,1.278586
idea_or_concept,0.6055127,0.9747169,1.7120746,0.19638528,-0.47692966,-1.4005026,-0.035836373,0.7377289,0.34978727,-0.109194756,-0.0037507205,-0.11399545,1.2347956,-1.1994612,-0.8643249,-1.3727622,-0.1747649,-1.8218755,-0.37165147,-0.0106684435,-0.17664818,0.12589066,-0.012239814,-0.2616013,-0.62371796,0.24524474,0.59503025,-0.41515756,0.7297388,0.67293763,0.19918327,1.2802535
immunologic_factor,-0.4898288,0.43557766,0.0069147553,0.15894522,0.44429654,0.05213303,0.01820273,0.073857896,0.5477699,0.4319223,0.9426964,-0.35570386,0.2750021,-0.34957278,0.86695385,-0.77481306,-0.6147895,-0.6520994,-0.06605386,0.9598389,-0.25094825,0.566694,-0.2942071,-1.1335356,0.7040694,1.1661104,-0.36521727,-1.3764557,0.18448748,-1.024273,-0.9541619,1.7862885
indicator_reagent_or_diagnostic_aid,-0.6211765,0.8619135,-0.62259257,1.1436319,0.16273096,0.16517168,-0.07937582,0.27142757,0.97695994,-0.33037952,0.38813528,-0.26948035,0.00392511,-0.7243472,0.22572121,-0.7897936,-1.1498624,-1.469933,0.025829475,1.7699082,-0.57004124,-0.18381636,-0.663747,-0.37284178,-1.0753279,1.0308635,0.26732957,-1.6484001,0.97323465,-0.5197755,-0.81989616,2.2912512
individual_behavior,0.7841838,0.98381394,0.61170644,0.30301896,1.2622906,-0.6101129,-0.83139294,1.6084226,-1.5577886,-0.36647743,0.022472162,0.02960566,0.21342576,0.25343493,-1.6885709,-1.3871317,0.83949625,-0.8874981,0.43972513,-0.46342507,-0.38506526,0.5295962,0.40565363,-0.25471777,-1.943392,0.8708463,0.22793038,-0.60690165,0.8504193,-0.7317367,-0.8370477,1.6040944
injury_or_poisoning,-0.11407796,0.0206904,-0.3226151,0.34151402,2.302837,1.116653,-1.2474802,0.16247737,0.5130903,0.13391297,-0.51440847,0.5302209,-0.5744737,-0.8249284,-0.3120438,-0.9291511,-0.08293926,-1.2031581,0.307457,-0.55786955,-1.1451414,0.33192703,-0.10810367,-1.6343416,-0.74862,0.8448511,0.54636467,0.32404083,0.74893165,-0.34041995,0.27029407,1.1365391
inorganic_chemical,-0.6116816,1.0482967,0.35698447,1.4833971,0.17452583,-0.51205766,-0.24611525,0.23276459,0.20374943,-0.5774949,0.669917,-0.91231215,0.34871632,-0.07257946,0.73126405,-0.9870072,0.16927627,-0.50703114,0.16956365,0.27588204,-0.47294477,1.3773435,-0.5474754,-0.12412395,0.8702478,0.98061335,0.6961838,-1.1970025,0.92441624,-0.30678606,-1.239195,1.94569
intellectual_product,-0.041698065,1.217092,-0.21562076,0.7391111,1.4062561,0.34504306,0.57639563,-0.10858462,0.90389097,0.39501768,0.21607776,-1.8656006,-0.0867008,-2.581791,-0.1854706,-1.1319169,-0.52264106,-0.7478304,-0.1844462,0.47244576,-0.69888276,0.7355295,0.009010761,-0.90845615,-0.106071234,0.1538553,-0.07441311,1.3035705,0.2537858,-1.69844,-0.36115792,1.7395124
invertebrate,-1.9321748,1.1139278,-0.115468934,-0.41916996,0.5463834,-0.21698003,-0.5705989,0.8021373,1.5604386,-1.4543917,-0.08999347,-0.4311714,0.49187165,-0.2894104,0.5496098,-1.160072,0.4090851,-0.97082204,-0.5316919,0.49716914,-0.28289267,-0.6052514,1.5530571,0.05378346,0.040441412,-0.59766656,0.6811976,-0.12969874,0.4017043,-0.25032675,0.43426952,1.6830401
laboratory_or_test_result,-0.6796857,0.67217064,0.09100199,1.6997355,0.8662747,-0.30867943,-0.9080617,0.6716555,0.85812384,-0.7840494,1.0610867,-0.23229238,0.5888134,-0.40509966,-0.17220265,-1.1675608,0.07386502,-0.5294981,0.3668594,0.77097297,-0.2614896,0.029323775,-0.19924487,-0.16769968,0.33222014,-0.75247693,0.47501686,-0.3843639,1.1833425,-0.09163774,1.4766814,1.6767681
laboratory_procedure,0.083373025,0.5749143,-0.40387246,0.009684232,1.6273186,-0.25391784,-0.86426777,0.9420646,0.7418778,-0.5921048,0.5382883,-1.623537,0.66317576,-0.42506298,-1.903339,-1.2415649,-0.4735269,-0.37518555,0.8398134,1.0864445,0.67028093,0.55089176,-0.292392,0.05892289,-0.34684524,0.03479623,0.5720037,-0.21705914,0.20576498,-0.53141344,0.46390414,1.716469
language,-0.31689957,0.35364595,0.69156796,-0.07599454,1.3080698,0.570159,0.88281035,-0.33168322,0.0015411131,-0.74618226,0.65199876,0.50731426,1.321652,-0.6498308,-0.6682232,-1.3806764,-0.96819264,-0.6690608,-0.7252234,-0.09490296,-0.36867633,0.25096166,-1.1779145,-0.3394982,-0.2920479,0.3239844,0.60601246,-0.0690095,-0.27310342,-0.13141201,-0.38893944,2.1406715
lipid,-0.43462697,0.45979926,-0.09329444,1.6279225,0.35250843,-2.117345,0.3983086,1.2198083,0.18721375,0.1470214,0.29888877,-0.63720745,0.7667126,-0.82090074,1.4906808,-0.90568984,-0.76376146,-0.7700615,1.1300067,-0.1148468,-0.6546717,0.6023026,-0.76506263,-1.0316093,1.0220431,0.766184,0.71533394,-1.9455018,-0.09499587,0.034886464,-0.31398192,1.967185
machine_activity,0.2540093,1.3527747,-0.30110252,-0.085906565,1.3711739,0.6527051,0.6325936,0.9882998,0.58913785,-1.6795553,0.89293396,-0.3398416,0.576994,-0.7691919,0.41666958,-1.1600581,-1.0121582,-0.96103615,-0.16455187,0.18113285,-1.0343189,-0.03217392,0.063505694,1.4864908,0.4371498,0.5471261,0.027147833,-0.53222406,-0.9793269,-1.242688,0.45899177,2.0218961
mammal,-1.9512329,1.2163422,-0.15309311,0.026253203,1.09625,0.6284508,0.47024384,1.1850411,-0.46955687,-2.004176,0.5093499,-0.94818836,1.0050597,-0.28133726,1.1921673,-0.81492484,0.13434482,-1.3662666,0.047931053,0.19142315,0.52225935,-0.09833091,1.353837,0.20930286,0.15674199,0.0047386577,0.6788328,0.21570277,0.19988346,0.6502159,0.6156377,1.9500736
manufactured_object,0.27197254,1.0321254,0.21485725,0.5084468,0.2999946,-1.7904267,-0.41776234,0.016746249,0.44627687,-0.38989633,0.35119435,-1.2663888,0.14118825,-1.6813092,0.21800408,-0.96169215,0.1623048,-1.109463,0.0034122071,-0.053366758,0.11910775,1.0670748,1.4465882,-1.0062346,0.3877996,-0.20698448,-0.09071408,0.19637167,0.77695745,-0.97077185,-0.5869983,1.5089681
medical_device,-0.75222224,1.2160434,-0.08044624,0.79944694,0.7640934,-0.5741881,0.032406904,-0.07681053,0.42474756,-0.4712869,0.7669032,-1.0349131,0.97792476,-1.7021316,-0.55390704,-1.0224818,0.32803285,-0.9783232,-1.2247362,0.042314358,0.013300767,0.7280548,1.739098,-1.9345473,-0.13624369,0.28930432,0.5751327,-0.61554027,0.3434552,-0.57076573,0.48426518,1.8269392
mental_or_behavioral_dysfunction,-0.14401533,-0.056347564,-1.2633028,0.77833724,1.1733849,0.26323837,-0.6556987,-0.24820511,1.112838,-0.75539607,-0.47664323,1.4645047,0.221513,-1.4870259,0.38407794,-0.8746343,0.03503579,-0.574174,0.8915306,-0.35493582,-0.36497703,-0.25277334,0.16244957,-1.3420676,-1.0493925,0.84424645,1.434164,-0.27946332,0.20582868,-0.7001276,-0.46388486,1.0263741
mental_process,-0.5863891,-0.45254102,-0.1618147,1.0501007,1.1802033,-1.0648983,-0.25326985,0.6088256,-0.2750145,-0.9124701,-0.31648237,-0.06298482,-1.0609175,-1.6628588,0.12565836,-0.96457314,-0.17524295,-0.4385195,-0.26070192,0.8334161,-1.208751,-0.5668655,0.3457558,0.089989014,-0.8599212,1.1909028,1.8525952,-0.23938745,-1.1829076,-0.5909614,-0.75797474,0.8859447
molecular_biology_research_technique,-0.3695764,0.4498446,-0.22642112,-0.14162582,0.94846654,-0.07687944,-0.29999816,0.7995752,-0.3690139,-0.9037691,0.316297,-0.7831956,0.58024013,0.4158942,-1.7871828,-1.0840875,0.21404047,-0.39216775,-0.30776435,0.483311,0.15419151,0.6433944,0.2207354,0.2502421,0.48718053,0.24467406,-0.13216244,0.08999845,0.023681406,0.06803545,0.73970217,1.5002024
molecular_function,-1.0632952,0.082526185,-0.056003176,0.66711605,0.10950744,0.23746228,-1.1101383,0.32626936,0.24784856,-0.76204056,-0.5089776,0.73453784,-0.662012,-0.7671643,-0.11366966,-1.3888305,0.18893264,-0.44419363,-0.17520462,-0.61611813,-0.22524416,-0.4072942,0.33590826,-0.03586911,-0.2243456,1.0782281,2.248035,-0.45791712,-1.7479522,-1.6860676,-0.020297462,1.1200191
molecular_sequence,-0.09447476,0.05423243,0.4085729,0.087647445,-0.021178603,-0.20431156,-0.15317222,-0.24347231,0.3291902,-0.42507592,0.18373571,-0.45572275,1.3221781,-0.80461025,-0.16920188,-1.6118274,-0.18699534,-1.148312,0.27672395,0.14368246,0.1747752,0.9907117,-0.18230532,-0.6222245,-0.41561946,-0.42155227,0.62069106,0.47921315,1.4240481,-0.015683157,-0.42697197,1.4940169
natural_phenomenon_or_process,-0.439698,0.34589309,-0.8405439,0.14885652,0.10296598,-0.08160834,-1.3249068,0.5390949,0.84060496,-0.7675387,0.51582855,0.34151855,0.08383303,-0.94524413,0.7980225,-0.97049165,0.32485065,-0.67516583,0.6975076,-0.15519978,0.2629032,-0.57951385,-0.124188505,-0.40678385,-1.1248217,0.2656755,1.4434648,-0.38415045,-0.293589,-0.05560165,0.010964397,1.371674
neoplastic_process,-0.031935614,-0.07147399,-1.1838341,0.3933571,1.1315254,-1.0531417,-0.8065428,-0.3298016,0.1518723,-0.8448533,-0.43049437,1.090911,0.27318308,-0.15674423,0.5428461,-0.71269625,-0.6089615,-0.7078338,0.76628566,-0.95521134,-0.5310726,-0.2346976,-0.3684226,-1.5071297,-0.1349455,0.67982924,1.4858426,-0.008740624,0.3727477,-0.17776267,-0.052243523,1.0098776
neuroreactive_substance_or_biogenic_amine,-1.0689288,0.01805333,0.44681415,0.38708222,0.87506795,0.17359781,-0.43051162,0.6695154,0.8620378,1.1109565,1.5695046,-0.58189815,0.82891595,-0.44863334,0.36192513,-0.7952414,-0.062898286,-0.4677336,-0.3138679,0.76847345,-0.77069813,0.14026026,-0.37172094,-0.5044528,-0.24833176,0.7091365,0.031735316,-2.0987167,0.4357968,-0.29796866,-0.8880403,2.2959385
nucleic_acid_nucleoside_or_nucleotide,-0.40022096,0.5807367,-0.15387167,1.8781804,0.14215215,0.56057405,-0.16261934,0.97069603,-0.5450972,0.21936788,0.68443257,-1.3816522,1.0601943,-0.20146503,1.2482668,-1.0647964,0.19335136,-1.3531045,0.12935284,0.28649828,-0.6028721,0.2783448,-1.028414,-0.23263791,0.34353253,1.1196798,0.84917986,-1.238196,-0.35584703,-0.17689683,-0.26631635,2.0244539
nucleotide_sequence,-0.10903528,0.8039587,0.21764696,0.27638018,0.4829912,1.1917026,0.07542353,0.11924737,1.4533069,-0.11580268,0.12173716,-0.62441945,1.7579293,-1.0168598,-0.43262306,-1.0647788,-0.8588714,-2.2794032,-0.32941806,-0.28457057,-0.49036664,-0.61128026,0.15829001,-0.6598285,-0.44722864,0.67364067,0.4916873,0.11498186,0.16803446,-0.7464608,-0.06483272,1.9940599
occupation_or_discipline,-0.8608175,3.3523326,0.18078707,-0.23111193,2.8103025,-0.55325776,-0.43133378,0.8203142,-0.009008288,1.1182388,-0.5135528,-0.49057359,-0.91342634,-1.1357622,-0.44860455,-0.67060083,-2.5616992,-1.1249962,0.14496085,-0.33848634,-1.0156884,-0.31612134,0.26919216,-1.0538632,0.27230343,0.5341281,0.2498101,-0.490517,0.5440707,0.56951296,-0.7360265,1.1516753
occupational_activity,0.6118389,0.4341211,-1.1786141,0.39769873,0.32508817,-1.4325495,-0.17538571,0.20137662,0.22919917,-0.7856087,0.79582715,-1.669403,1.3321435,0.5858228,-1.8066865,-1.8786576,0.20047557,-0.9057424,-0.7664516,0.07814876,-0.53020847,-0.14927714,0.2899771,-1.3830925,-0.34834656,-0.15437445,0.6379471,-0.07696677,0.55509317,-1.537184,1.2121134,1.5849311
organ_or_tissue_function,-0.88243604,-0.061055392,-0.60606915,0.50830775,0.8953759,-0.47752216,-1.2529113,0.6650855,0.8852251,-0.6905602,-0.4144193,0.64397025,-0.1390572,-0.9250084,0.12378876,-1.2097918,-0.4330094,-0.56663376,-0.22115469,-1.1422378,-0.64214617,1.5076867,0.14257249,0.12963091,-0.020198528,0.7150257,2.367259,-0.28469405,-1.4772726,-0.58567864,-0.9328999,1.1676003
organic_chemical,-0.8355709,0.6845068,0.13707542,0.20437944,0.09024964,-0.40049434,0.95231307,0.19712849,0.50207144,-0.063589066,0.5367891,-1.7046057,1.5822297,-0.6039154,1.0729686,-1.4441193,0.33040538,-1.4006057,0.8598465,-0.27210066,-0.027748005,0.050249297,-1.1195319,-1.0587904,0.22681488,0.6713533,0.98559624,-1.2076118,0.064640366,-1.12935,0.10504995,1.9164219
organism,-1.4416693,1.1824394,0.75954735,-0.30678698,0.46245673,0.9225484,-0.1076213,-0.028628003,0.3288876,-0.888441,-0.5216247,-0.542896,1.229065,-0.1657348,0.5887239,-1.3651284,-0.7008035,-1.0052927,0.10464857,-0.43302664,0.75751984,0.20568319,1.4523067,-1.0680116,0.0642462,-1.0137936,0.9542048,0.20383978,0.4747883,0.7371243,0.8451216,1.4207078
organism_attribute,-0.6148976,1.0756772,-0.021883585,-0.5295738,0.59624213,0.31694257,0.086673535,-0.8632946,1.0851926,0.19305114,-0.33226383,-0.45860162,-0.20641795,-1.0250264,-0.42705262,-1.0735776,-0.080416575,-1.209602,-0.50351983,-0.7605665,-0.32987478,0.3014746,-0.66547847,-0.15404052,-0.15637349,-0.5439792,0.8517731,-0.8308487,0.5508792,-0.40588984,-0.049108222,1.3001496
organism_function,-0.56252503,0.26777828,-0.17912234,0.5025329,0.57397157,0.060483165,-0.6888234,0.8286209,0.49522167,-0.8688028,-0.6020852,0.3323804,-0.58368355,-0.058464296,0.7020745,-1.3128835,-0.8722547,-0.29484543,-0.25734687,-1.4911519,-0.29740632,-0.07726401,-1.0413656,0.02730959,0.094585896,0.8776894,2.2302117,-0.1513647,-1.2509949,-0.52784175,-0.19226868,1.1859846
organization,0.07509303,1.6591125,0.7299343,0.27901524,0.33583635,0.1397505,0.3537061,0.051741086,0.784882,-0.3599851,0.7958868,-0.05919452,-0.0077938735,-2.2248356,0.43715453,-1.1994299,0.35144103,-1.8773423,0.082387574,0.001336813,-0.49801543,0.5830489,-0.049449354,-0.18849306,0.107725695,0.40208748,0.64544874,0.91498953,0.30637255,0.67055845,-0.62489706,1.1301714
organophosphorus_compound,-0.01840987,0.76882225,0.5883237,1.8177092,1.2849625,-0.054920517,0.46188396,0.5750097,-0.26831067,0.09661805,0.46549588,-0.4358111,1.5248586,-0.8991183,0.9862157,-0.9524814,-0.28156838,-0.19342554,0.05685962,-0.5042857,0.0827587,0.8844033,-0.18529542,-1.1611819,1.2088076,1.5728282,0.6589042,-1.2018495,0.46393543,-0.16659448,-0.14492564,2.5033278
pathologic_function,-0.61038494,0.2385955,-0.8605972,0.8468066,1.1088152,-0.786088,-0.9882275,-1.1330862,0.27131972,-1.0503739,-0.6026337,1.3883436,-0.011182563,-1.0586885,-0.18953541,-0.9857185,-0.35116455,-0.4363575,1.4292977,-0.6730614,-0.3592124,-0.27910563,0.5567975,-1.0914681,-0.99919,1.299515,1.6881375,-0.22885922,0.47047237,-0.71217984,-0.21894626,0.98193485
patient_or_disabled_group,-0.73667186,1.007125,-0.33552116,-0.7270254,0.036704347,0.39362937,0.58260494,1.3117725,0.7835047,0.20251572,0.50337875,-1.5615275,-0.23892324,-1.0634071,-1.427988,-1.192328,-0.338513,-1.2960011,-0.12391453,-0.40049025,-0.7110523,0.3110327,-1.0838104,-1.6854514,-0.15159263,-0.20369965,0.14719228,0.50397176,-0.16667272,0.46113947,1.4261271,1.7279028
pharmacologic_substance,-1.1451496,0.5338401,0.6884872,1.2723624,0.83368355,-1.1602349,-0.3992444,0.8785203,0.3194798,0.1001557,0.5243983,-1.7628233,0.6491666,-0.138065,0.31691307,-0.93414986,-0.48056597,-0.8843716,-0.4280226,1.171039,-0.39273626,0.0090165,0.08256474,-1.1851753,0.13192263,0.3371001,1.1646398,-1.5448884,0.15444389,0.6179238,-0.60739726,2.2312856
phenomenon_or_process,1.0217988,0.9766524,-0.5320941,-0.5923376,1.3853188,0.3181108,-1.6189852,0.359128,0.29277104,-0.66782945,0.61034054,-0.29956526,0.22441259,-1.7807055,-0.34265235,-1.4743075,-0.9695814,-1.1699934,1.0029016,-1.3091549,0.4661537,0.22272831,-1.2007412,-0.77803814,-0.37390646,-0.15878078,1.6797417,-0.46362862,-0.35805392,-1.1721791,0.1852205,1.3260031
physical_object,-0.052580997,1.6821127,0.8576627,1.0444875,0.14888698,-0.76331043,0.3767656,-0.18825075,0.35465166,-0.5887866,0.42042977,-1.5328797,1.5583228,-3.0075092,-0.103288345,-1.3850021,-1.5139657,-1.4186872,-1.3575499,-0.13049378,-0.18452936,-1.0579206,0.681577,0.20416974,-0.050000045,0.223482,-0.15069322,-0.6793785,-0.48554933,0.29881427,0.10662795,1.1602244
physiologic_function,-0.705638,0.47071773,-0.34729674,0.90230644,0.27488542,-0.950999,-0.99364954,0.45482594,0.07437544,-0.9384903,-0.1925719,0.6740831,-0.7647581,-0.45361552,0.23174484,-1.3661158,-0.042786,-0.60309273,0.15330769,-0.31082594,-0.34216562,0.011638906,-0.30209962,0.11706172,0.26952416,0.6820869,2.1141572,-0.63232154,-1.58092,-0.76030463,0.43181285,0.81401414
plant,-1.2468795,0.39328548,0.29909462,-0.13029958,0.6562802,-1.1914434,0.18154627,0.14399324,0.64469004,-1.3078613,-0.66641754,-0.6932461,0.52615994,-1.7945713,-0.7462808,-1.2602334,-0.069279216,-1.1622095,0.38670805,0.9156316,-0.6443335,-0.71660256,0.5152135,-0.43018255,-0.24696055,0.117112085,0.47333068,-0.13646446,-0.16619831,0.56513757,0.9350205,1.3730052
population_group,-1.2765628,0.20497686,0.23673718,0.27897057,0.38610736,0.26373607,0.6434871,1.2059778,0.3661372,0.41491556,0.59863746,-1.1647944,0.17536241,-0.6151251,-1.5430517,-1.2634794,0.021718845,-1.2241145,0.51050097,-0.21869172,-0.43777844,0.58303475,-0.51211834,-1.3046954,0.22619532,-1.0253098,0.4702098,1.1072472,-0.084330976,0.11581144,0.7942537,1.6463939
professional_or_occupational_group,-0.9543557,-0.09543523,0.19501907,-0.96302366,0.5675441,0.17663477,0.31157073,0.9120741,0.2067595,0.41180262,0.67286825,-1.325405,0.1806927,-0.8676137,-1.2877706,-1.2280877,-1.0261205,-0.5819437,-0.05467902,-0.034073602,-0.4747008,-0.058943775,-0.32703048,-0.7524379,0.60253596,-0.39550588,0.29508093,1.1353703,-0.28469858,-0.032301076,-0.41813427,1.7121799
professional_society,-0.51243126,0.95813704,0.74454534,0.20068389,0.53246266,0.27185398,0.039982613,0.045541987,-0.90625244,-0.06370721,0.1668147,0.09794869,-0.2969329,-2.231893,0.26576763,-1.2627635,0.13466845,-0.6262905,-0.28494313,0.029037371,-0.59692496,0.65758765,-0.53264934,0.1039885,0.33871573,0.613708,1.0543057,0.8102694,0.31641042,0.012492482,-0.5108633,1.3127592
qualitative_concept,-1.0488857,0.914021,-0.8203449,-0.40702862,0.14867683,0.022702925,-0.1637881,0.006252774,0.90199465,-0.70723605,0.17906873,0.4525254,0.94306445,-1.1984078,-1.4631851,-1.7350377,-0.25441092,-1.6516715,-1.1697949,-0.5491608,-0.8201535,-0.59077704,-0.5198408,-1.019654,-0.8412817,0.014144887,-0.5910832,0.7188838,-0.2870546,-0.81690806,0.47697476,1.6869605
quantitative_concept,-1.1310595,1.093228,1.0175503,0.49539635,1.3781297,-0.086866215,0.08583435,0.108367816,0.04672703,0.5657639,0.1880537,-0.56329906,-0.11139025,0.17627779,0.70687073,-1.5030913,-0.18393882,-0.1790517,-0.1255242,-0.14523712,-0.59435844,1.9929469,-0.3923052,-0.5687622,0.13445865,-0.1646956,0.3620567,-0.9002885,1.7216471,0.58746696,-0.5773076,1.7782667
receptor,-0.47753474,0.7730121,1.4010141,0.6385194,0.5294115,0.7116986,0.03809459,-0.22846173,0.93183714,-0.25917682,0.3699874,-0.05974245,0.11170782,-0.6152729,-0.12390021,-0.6551358,0.13852352,-0.69317466,0.10607232,0.74230105,-0.3841023,-0.78164876,-1.0960221,-0.5051094,-0.23055068,1.1842713,-0.036935758,-1.7025243,-0.24354579,-0.7438535,-1.345298,2.0390542
regulation_or_law,-1.0079807,-0.037227668,-0.33117896,0.34246483,0.62764156,-0.18172257,1.3049657,-0.43891722,-0.27551943,-0.3343528,0.44008043,-0.49694616,0.49585038,-2.0115514,-0.38605058,-1.1553823,-0.6000716,-0.28657126,0.2514809,-0.38419023,-0.19655715,0.11327932,0.87667,-1.1116621,0.7074406,-0.31601226,0.20458402,0.21085012,0.81816775,-1.4877276,-0.31967357,1.6284987
reptile,-2.149571,0.5185794,0.4513275,-0.07543776,0.40912762,0.105188556,0.773049,0.26544514,-0.017866174,-2.0872843,0.41536584,-0.7023841,0.93628436,-1.5392187,0.0898706,-1.0386692,-0.0001618914,-0.9123825,-1.2722859,1.0634028,-0.40160206,-0.865404,0.5970494,0.056397445,-0.7622926,-0.19938017,0.5786915,0.37656847,0.80896395,0.6260458,0.12854283,2.1290524
research_activity,-0.5494162,0.18311349,-0.86381906,-0.63300025,1.2859923,-0.5402795,-0.24593772,0.73246324,-0.60051095,-0.6531159,0.6990822,-0.8929613,0.82061684,-0.12283927,-2.8151774,-1.4080727,-0.05370341,-0.5174683,-0.69239444,-0.6137901,0.10684872,0.17147692,-0.53123736,0.053024676,0.12735578,-0.24606296,0.04620191,-0.43415862,0.81232053,-0.3064713,0.638078,1.975555
research_device,-0.11894227,1.679075,0.13813369,0.28133553,1.0599672,-0.87082976,0.34486473,0.57609695,-0.13550529,-1.0984008,0.43419644,-1.2294642,-0.3916846,-1.2831652,0.5396811,-0.43910527,-0.18248717,-1.744641,0.9365126,-0.51908004,0.8776601,0.6132405,0.8770785,-1.7928513,0.038150854,-0.033792645,0.8245942,0.343495,0.5225951,-0.7429418,-0.32053706,2.4400277
rickettsia_or_chlamydia,-1.5973628,0.45644933,0.5283106,0.17809977,1.0113914,-0.99743783,0.36722234,0.109206244,-0.019427756,-1.9623474,-0.57945794,-0.74022555,0.58659136,-0.27978715,0.15238373,-0.9227798,0.9357504,-1.2791765,-0.067091145,0.5653869,0.3555685,-1.4397997,0.09553416,-0.780233,0.13742098,0.20007871,0.5712659,0.19176461,-0.4291103,0.22617018,1.528838,1.8464307
self_help_or_relief_organization,-0.23811355,0.7988524,0.67829585,-0.13477592,1.593076,0.13898195,-0.15506549,0.90837455,-0.7046202,-0.5746237,0.007003546,-0.5183947,-0.3055948,-1.7272018,0.72248536,-1.1355814,-0.64742017,-2.4398773,-0.18662897,0.3918274,-0.4336975,-0.13492046,-0.34705865,-0.016865777,-0.24220075,0.8132605,0.5933375,0.821047,0.24048851,0.11596744,-1.0516477,1.381958
sign_or_symptom,-0.110425495,0.8420757,-0.041533098,1.2756928,1.1406848,-0.352097,-0.17832291,1.2527903,-0.5209649,-0.09660049,1.2834224,0.113345765,0.73321694,-1.6027845,0.45994413,-1.1920655,0.239437,-1.5353687,0.23276366,0.68177795,0.35027257,1.5133429,-0.13095406,-0.45755473,0.21133032,-0.005855305,0.8664945,0.47213835,2.0149095,-0.112175174,0.75169986,1.8607291
social_behavior,0.85420024,0.56614983,0.39600185,0.41520035,0.26168296,-0.5582441,-0.46410555,0.6011131,-0.9580995,-0.23405166,0.34525123,0.051345877,0.15192893,-0.097091876,-1.711045,-1.7133662,0.44766554,-1.1540955,-0.39715475,0.4845639,-0.12846416,0.68485916,0.64226997,0.24804664,-2.0944846,1.3006653,0.63560706,-0.20891877,0.43462235,-0.30737686,0.06271716,1.7119291
spatial_concept,-0.5285118,0.5973078,0.28558317,0.60699695,0.6684966,-0.51906055,0.15794401,-0.24921945,0.7339498,-0.2793585,-0.3456816,-0.21785685,1.4313537,-0.9113687,-0.4199964,-1.482108,-0.6570031,-1.4239553,0.11896118,-0.58535224,0.6220511,1.7446958,-0.3143387,-1.0046227,-0.27236375,-0.0011549331,0.14237942,-0.10261863,0.6612971,-0.4105197,0.2910206,1.2032485
steroid,-0.63328886,0.09377177,0.20957507,-0.2325067,0.5484152,-0.6873173,-0.14119959,0.18890744,0.6025284,0.6154387,0.39267075,-0.765264,0.9673442,-1.4180776,0.5961803,-1.1579279,-0.061844595,-0.6361175,0.5458502,1.1277903,-0.23390244,0.65575343,-0.81595534,-0.9112502,0.37368834,0.1895934,0.6996347,-1.8483087,-0.25745013,-0.03067536,0.39281583,1.4815671
substance,0.3817267,2.3254654,0.52641577,0.8343835,0.86116,-0.3808046,0.27419275,-1.0257533,0.7311072,-0.20617658,0.7318853,-1.3805375,1.4237185,-0.68442094,0.34856024,-1.9557006,-0.8610721,-1.4087255,-0.9684661,-0.4435497,-0.8281286,0.3489595,-0.7925223,-0.35636267,-0.1577939,1.1680857,-0.011804685,-0.89747983,0.600495,0.069208905,-0.83742166,1.4185688
temporal_concept,-1.1695443,0.9317531,0.4410577,-0.06027392,1.1311322,0.28331476,0.69892204,0.9634176,0.6186826,0.22863518,0.48020113,1.0419352,1.4619406,-0.419551,0.2921271,-1.2785264,-0.9074513,-1.2819318,-0.055070728,-1.7023026,-0.3033817,0.45826608,-0.4424826,0.13769273,0.17813459,-0.28018236,0.3363905,-0.4714708,1.7351856,0.1809299,-0.8760499,1.7836633
therapeutic_or_preventive_procedure,0.31456378,0.6755409,-0.5613616,1.2543423,1.9667103,-1.1010039,0.16535003,1.0214361,0.7726352,-0.9842895,0.44386235,-1.6837883,0.96629333,-0.49602452,-0.86062396,-1.2552253,-0.10452719,0.18760864,-0.60918665,0.18245006,0.7215001,-0.015166193,0.23618287,0.29876313,-0.34177628,-0.63727486,1.102722,-0.71233565,0.7491888,-1.0097817,0.7218165,2.0025086
tissue,-1.7372912,0.93663013,-0.021900244,0.47640973,1.5660654,-0.77044344,0.6060787,1.009084,-1.1789925,-0.22538939,0.44614688,0.3202454,1.4736403,-0.5287272,-0.46969217,-1.3514553,0.24332707,-0.35281914,-0.68434983,0.0897682,-0.22281116,-0.054815844,-0.6868836,0.2018774,-0.317399,0.50750023,-0.09164799,-1.0005449,-0.16789612,0.036543984,0.036802918,0.95820683
vertebrate,-1.5124093,1.3953085,1.0550094,-0.36712974,0.16515745,0.76351583,0.031910043,-0.12548238,1.316673,-1.4301622,-0.3129562,-0.33071125,1.1579632,-0.14937137,0.23950544,-1.3015435,0.20410739,-0.6347121,-0.04793906,0.42527857,-0.3348302,-0.56566674,1.1659483,-0.2843477,-0.5082061,-0.5090184,0.2820461,0.44016758,-0.07745186,-0.006205636,0.6087724,1.5398937
virus,-0.70445096,0.34951663,0.6238053,0.4751824,0.6371042,-0.70587265,0.2692884,-0.15832405,-0.35439968,-1.4333851,-0.42243847,-0.83553594,0.475357,0.23439617,0.18516454,-1.0302926,0.652497,-0.970186,-0.3182093,1.5034502,0.4665304,-0.527762,0.63761973,-1.1237196,0.42524523,-0.35022482,0.64561146,0.1930646,-0.058436707,0.33008623,0.88178146,1.4112985
vitamin,-0.7635882,0.83860964,0.23685601,0.9887371,1.3814088,0.14891958,-0.05899422,-0.38851178,0.87826,0.67968553,1.0947617,-0.6124325,0.5888818,-0.14172022,0.2362283,-0.677495,0.1703635,-1.1257099,0.1071757,0.8975127,-0.6674343,-0.87871516,-0.39971554,-0.81836593,0.9515008,0.7825344,-0.0038882867,-2.364093,0.05985889,0.020799335,-0.6772089,2.1301365
