,0,1,2,3,4,5,6,7,8,9,10,11,12,13,14,15,16,17,18,19,20,21,22,23,24,25,26,27,28,29,30,31
acquired_abnormality,0.5402329,0.96888196,-0.024642963,-0.97945756,0.94558525,-0.38098845,-1.2250785,1.7764803,0.7740127,1.0370492,1.0164522,-0.3710728,1.0771283,-0.7172639,-0.44753778,-1.6147754,-1.5652752,-0.612613,3.1841922,-0.9022675,1.5614961,-3.1817117,-0.55851686,-0.3515371,0.32212055,-0.17004488,1.1411922,-0.34329015,-0.7222574,2.1510642,1.0438974,-1.2381809
activity,-0.8045807,1.9952148,-0.2602118,-0.58217347,-0.16886105,-0.34337994,-1.3354386,1.282786,-0.9078313,1.2222493,1.6402005,0.13719292,0.74835247,0.39002427,0.50327164,0.36197945,-3.974282,-0.062234294,1.2625715,3.2218661,0.8366004,-1.3608016,-1.4936109,-0.493945,-1.2782553,3.6182883,-2.049245,-1.7086905,0.9805826,2.9606845,-0.26577047,-2.2539048
age_group,0.019299213,1.0650691,-0.34941396,-0.979781,0.68861204,-1.0676111,-0.2973963,0.51384395,0.030086335,1.7952156,1.3564544,0.44943553,0.5177765,-0.45794523,1.0733857,-0.7650649,1.3473643,-1.6732756,0.5467034,0.45657927,-1.5540128,0.5989205,1.1561853,-2.334106,1.372847,-1.81282,-2.0593686,2.8860857,1.3871504,1.6898926,2.817169,0.31760374
alga,-0.47125104,1.5665689,1.2035702,-0.44752967,1.0150331,-0.521282,0.42002124,-0.019271053,-0.6130837,1.990267,1.529584,0.39427808,0.1823288,0.43620735,-1.4792639,-0.30692402,-0.6656427,-0.5863274,-2.0334265,-1.0220323,2.261809,2.4938512,-1.7021171,2.295417,0.9932497,-0.570853,-0.3204731,3.679838,-0.83995074,-0.29285637,2.2290022,-2.124476
amino_acid_peptide_or_protein,-1.191938,2.0039487,1.6259857,-1.4112445,1.1851926,0.450283,0.6591852,-0.35175687,-0.57955194,1.808409,1.3676299,-0.9883841,1.1634309,0.00734344,0.30187854,-0.12886548,-0.19858885,-0.6641998,-0.5565984,1.9430035,1.0986518,1.2163353,-5.756118,-0.940508,4.12189,-0.12864009,-0.8458158,1.936725,1.8372418,0.727276,0.32062697,4.129528
amino_acid_sequence,-0.9333173,1.4129014,-0.12197594,-1.018875,0.58181393,0.6697883,0.35480857,1.703918,0.19724776,2.684254,1.0800786,0.3900703,1.9725134,0.4970485,0.19446045,0.67075,2.361053,0.58102775,-0.62733614,-0.36561567,-1.8157411,1.6314898,-2.082002,-2.0490408,-3.3220375,1.172366,-2.1566417,3.1777062,2.416012,1.7654097,2.6639955,-4.0315266
amphibian,-0.4401424,2.0772257,1.2325385,-0.02552685,0.039609827,-0.5596836,0.93048453,0.8407878,0.2959649,1.5816561,1.2635525,0.93331236,0.6364145,-1.5864577,-1.3136965,-0.8264072,-1.9201237,-0.79612684,2.1481168,-0.9028766,4.7755823,0.8511684,-2.5314977,2.237503,4.2751737,-1.4352219,1.1428818,1.1177104,-0.9952801,0.28229615,1.2941607,-0.47618783
anatomical_abnormality,0.44860926,1.0180041,-0.18370993,-0.5022061,0.811038,0.742369,-1.2900536,1.9037462,0.7292356,1.3021291,0.8844027,-0.43688193,0.8442163,-0.5674011,-0.19958274,-0.56589895,-1.299565,-0.92853266,3.19913,-0.79441166,0.6123709,-2.6958473,-0.67956585,0.3696135,0.6483854,0.000723307,0.8155741,-0.6024308,-1.6038938,3.3374362,0.6660793,-3.355249
anatomical_structure,0.2561693,1.2365878,-0.21367416,-1.5101801,0.24792609,-0.09567415,0.6275313,2.2667027,-0.5817248,2.1854463,1.4010313,0.46067134,0.7291486,-0.6489317,-0.53442985,-0.06105736,-3.8814695,-2.202872,-2.5476203,1.2043668,2.4415183,-1.4237099,-1.2400838,2.7245092,3.7280598,-0.09954518,0.3364744,0.32224497,5.3886204,0.2872684,3.7121942,1.0643078
animal,0.23990405,1.9163429,1.097973,-0.4690087,0.38889584,0.7823205,0.13405272,1.3270622,-0.18529898,1.1601303,1.5982832,0.5062199,1.205038,-0.48237482,-0.6714977,-0.0010341555,0.09640442,-1.6935512,-1.7914722,-1.6166942,3.89615,1.7899055,-2.6743822,2.8298228,6.3009734,-1.2616502,0.49926353,1.6992869,-0.84676224,0.045205377,1.1414148,-1.4221591
antibiotic,-0.614775,1.5202736,1.4237536,-0.7930373,1.0639265,-0.064628474,0.6090601,0.6014507,0.15147217,1.1907979,1.5589353,-0.5357249,1.5489119,-0.8538118,-0.7116766,0.29497114,2.8375154,-0.18261614,1.5229412,0.6168031,1.1139305,0.1200865,-2.467294,-1.4152884,2.5450892,-0.84818137,-1.4063307,2.2652135,0.63573235,0.19934306,3.4265988,3.037121
archaeon,-0.37419167,2.1367698,0.19605142,-0.5354869,-0.71626693,-0.13772121,-1.0504524,-0.025810853,0.2923561,1.6694957,1.5239887,0.22937968,1.0352714,-0.10849945,-0.6563234,-0.9358793,-2.8505595,-2.0473642,1.316693,-1.8582095,4.460152,1.30768,-1.5070179,2.5752583,5.3348727,-0.8250397,-0.039223373,0.7062185,-0.17896654,1.7441173,2.0746517,-0.6637846
bacterium,-0.49596268,1.6153666,0.7752582,0.26237065,0.8474043,-0.32071513,0.73338866,0.864456,-0.44329458,1.8272654,1.4873224,1.6883695,0.23957731,0.18911229,-0.9996122,0.57290083,-0.86094904,-0.56203127,2.064069,-0.24539584,3.5376778,2.496596,-3.17291,3.0790794,-0.007965749,-1.568351,-0.014392935,2.5884485,-2.2700007,1.4515474,2.1834795,-0.61346257
behavior,0.083140194,1.5240855,-0.06225512,-0.4328441,2.4386256,-0.084497094,-0.74330336,1.2527465,-0.1217235,0.8203682,0.91201407,-0.016431708,1.3300714,-0.48289648,1.6982042,0.37118033,-0.6016038,-0.9507911,-0.9255757,1.9372991,0.95570344,-1.6251303,-1.7106452,-1.5545783,0.7246366,2.9759297,1.0034599,0.4217128,0.95544213,0.7797404,-0.21500087,-3.3757043
biologic_function,0.25328204,1.0585653,-0.32608163,-0.46705335,0.43209934,-0.5542343,-1.2576214,0.980516,-0.11592041,1.4164268,1.1950164,0.22348703,0.38695788,-1.4768391,-1.1896616,-0.49724734,0.97765696,1.1343509,2.5945845,-0.62606585,1.9617653,-0.13618612,-1.4791518,1.3378898,-3.2577016,-0.08893371,0.9404584,2.4626524,-1.7924788,1.5164652,-1.5626117,2.291454
biologically_active_substance,0.3563664,1.425488,1.3006033,-0.45230955,0.8698771,-0.08893963,0.81541413,0.3079807,0.34827873,1.1237413,1.7882271,-0.70637596,1.1165853,-0.8133238,-0.28687307,0.43763733,2.438756,0.7759943,2.3991225,1.0355427,-1.2179477,-1.3931905,-1.4197495,-0.95768166,2.6927621,-2.089936,-2.915869,0.5674535,-1.0853707,1.7348357,3.3945532,2.583708
biomedical_occupation_or_discipline,0.15522906,0.27452672,0.2501983,-0.028130233,0.055119768,-0.4694099,1.1185755,0.3208302,1.3726158,2.1374278,1.0203187,0.25689366,1.7127542,-1.2715552,0.8358794,-0.46073237,-0.57750726,1.7539194,0.8587798,2.1245315,-2.530236,1.5387062,-2.0503793,-2.5882556,0.59138614,-0.3818176,1.5825305,0.18545912,2.979518,0.97169113,3.0909748,-1.1625928
biomedical_or_dental_material,-0.5536334,1.7172399,1.1123686,-0.4924453,-0.12200505,-0.1257796,0.17756136,0.6355809,-0.66364264,1.6563455,1.4736303,-0.5062192,0.09445297,0.21993016,0.6122977,0.49901235,0.904486,0.17661172,1.9046904,-1.9406674,1.73677,-1.0045065,-0.96715224,-1.894305,1.9513795,-0.017211197,-1.9094765,4.9807878,-0.5804703,0.9670662,1.7779766,1.5769639
bird,-0.49120632,2.4620893,0.9680523,-0.7180228,0.775993,0.9085087,-1.0043099,1.3362088,0.364091,1.3512022,1.4057578,0.66742504,-0.85437936,0.6313129,-1.1072304,-0.9997946,-2.6904812,-1.4416499,2.2029836,0.83208275,5.8068542,1.4018077,-2.7465754,2.9423556,2.6800337,-0.6097459,-0.17018718,1.485372,-1.4250644,-0.9793068,2.9750082,-1.7381605
body_location_or_region,1.0322646,1.5809766,-0.3419125,-0.5978365,-1.0879414,-0.17615156,0.16968322,1.5350143,0.44699886,1.4037012,1.3491722,0.48473275,1.2131692,-2.0602064,0.45225915,0.5651135,-0.07664128,0.83108765,-0.33040363,-3.6965752,0.90006644,-1.2166834,-0.89544016,-0.9939048,1.8878047,0.826743,-1.5775906,1.5085857,0.09706577,1.1615101,1.4288387,-0.66723037
body_part_organ_or_organ_component,0.22598493,1.4191353,1.454097,-0.22169796,0.553596,0.1760299,0.6866072,1.4807147,-0.15294021,1.840695,0.54137874,0.4176474,1.5944185,-0.25401208,-0.50566137,-0.5143244,0.11380462,0.12237789,-1.1370435,-3.1531796,1.99756,3.0068533,-3.0870955,-0.98634195,2.7400897,0.31062958,-0.38060027,0.7987092,-0.5207568,-1.3915594,-0.6048521,-1.1520602
body_space_or_junction,0.07155363,1.1187437,0.6179804,-0.24672829,-0.13970943,0.6671474,0.32528,0.9012875,0.44743997,1.9218211,0.80647683,0.44029403,1.5724784,-1.2440275,1.4142611,-0.09133159,2.0721483,0.32949227,0.7879686,-3.4865801,-0.4072617,1.8109754,-2.2939415,-1.8124893,1.2609165,2.2745526,-1.8337448,2.0202167,-0.49280897,2.0879304,2.3358827,-3.1859887
body_substance,-0.1680214,1.1826649,1.1947925,-1.3957467,-0.019591028,0.18638662,1.0014067,0.584454,0.25475425,1.1559412,2.8754208,-0.8325278,-0.43730226,-1.0544864,0.45445698,0.40429384,1.6348128,2.3215933,2.61406,-2.1769166,-2.4934711,2.9477065,0.37904692,-1.9252121,-0.94208205,-1.1952904,-1.8966135,0.2033487,-1.2428056,0.80974615,1.432837,2.0255609
body_system,0.23290983,2.4408696,0.2143053,-2.0636013,0.6302343,0.7859718,0.91018486,2.1934853,-0.38383627,-0.527502,2.4829502,3.0188496,2.552415,-0.7559602,0.97511065,-0.375333,2.594803,-0.7687635,0.9427124,-3.2474844,2.3278782,2.2687962,-1.8405632,0.39203614,-2.651822,2.9326005,-1.4753705,-0.780175,2.5591202,1.6585552,1.7757813,2.0235171
carbohydrate,-0.7914327,1.9638017,1.6299729,-0.10394241,0.39976358,0.11579269,0.4537975,0.83021426,-0.81327873,1.5906867,1.3425215,-0.6865427,1.1034127,0.955637,0.84686494,0.20711564,1.5313246,2.4678512,1.4435194,-0.42865363,-0.60881925,-0.6899659,-5.3320355,0.26185668,1.4233286,-1.1483107,-1.1186173,2.0964556,1.4908867,1.3793004,1.3615196,3.239737
carbohydrate_sequence,-0.45633802,1.8777936,0.7635812,-1.9210951,-1.0359967,-0.37317955,-0.01086293,2.5631964,-0.18323493,2.2965596,2.0438747,0.120407574,0.55347556,0.2259059,-1.2796528,-0.1867399,3.470352,1.0609722,0.9101783,-0.4910412,-2.3993015,2.8311613,-0.55674624,-2.2042975,-2.4877412,0.6611961,-1.5957078,3.5108907,1.4206345,1.6819068,1.8026,-4.28818
cell,-0.013583212,1.1422358,0.7977476,0.18425016,-0.50952244,-0.34319887,0.8111128,1.3836389,-0.16399592,2.0615036,1.058034,-0.06318258,1.6416695,-0.595121,-0.7113631,-0.58941746,-2.4513981,0.42110875,1.0378566,-1.5209656,3.0342326,2.8450263,-2.5301018,-0.028607609,3.1334772,1.0422438,-0.2093852,0.58792126,-0.6577054,-1.0766232,-1.2724497,2.0999668
cell_component,1.5158699,1.4394624,0.6768959,-0.113050506,-0.54247165,0.60811365,1.1064786,0.5601623,-0.4545703,1.9358233,1.2812,-0.41765884,1.6127391,-0.4635655,-0.5710485,-1.1227096,-0.11621699,1.9549589,1.5355514,-1.9844377,1.152656,1.9939991,-1.3519039,0.9024716,3.2327266,-0.108334236,-0.801803,-1.5490897,-0.69166005,-0.50850385,-1.435564,-0.09872537
cell_function,-0.05415999,1.0020512,0.014234554,-0.9712707,0.22585921,0.4421077,-0.63251084,0.59384334,-0.5056346,1.3731035,1.3558304,-0.031370986,0.26230663,-1.2967037,-0.7093861,0.4611047,2.4843612,2.096549,1.380961,-1.5080209,0.023680001,0.19666712,-2.1583672,2.1185439,-3.225386,-0.95195633,1.274533,3.4643695,-1.5890286,2.2335262,-1.820016,-0.24901856
cell_or_molecular_dysfunction,-0.5668112,0.989387,0.120746195,-1.7777342,0.5209926,0.45261556,-1.4535812,1.5164449,0.20723093,1.0667635,0.6735837,0.30152738,0.650422,-0.07984568,-1.0058193,-0.7463337,-0.3317457,-0.29983544,2.588914,-0.90157986,0.9152885,-2.8428326,-0.3746138,0.5129282,-2.0864885,-0.92892617,1.5288478,2.515534,-1.9168162,2.4573073,1.4093333,2.994023
chemical,0.42943358,1.5886786,1.6197103,-0.24204774,-0.44004154,-0.056271087,-0.25580764,0.30406693,-0.5308439,1.4782661,1.6516687,0.28896657,1.1254122,-0.107262306,-0.3104254,-0.5149965,4.8105865,1.6218737,-0.024915215,1.1874006,1.7054836,0.8281024,-0.50820744,1.6128483,2.2686725,-0.70071363,-2.6874123,1.5390601,-1.4618545,1.067692,-1.8409632,4.383331
chemical_viewed_functionally,-0.9293466,1.9472663,0.7447977,-0.21794856,0.6964653,1.050726,0.45417982,0.4605435,-0.67671347,1.7193911,1.8138953,-0.18949921,0.6413885,0.5505353,-0.42709798,0.9727899,4.356589,1.7466184,1.0447907,0.8802329,0.24991594,-0.94541335,-0.16526018,0.112295374,3.2184014,-0.8357675,-2.6888745,3.9849126,0.4225094,-0.5812573,-0.61952126,2.8845856
chemical_viewed_structurally,-0.18189843,1.3751644,2.247472,0.18066856,1.0070366,0.06918031,0.5456876,1.1432498,-1.0186416,1.753124,1.869602,-0.3425563,0.36742496,0.812156,0.529198,-0.7150402,1.4446082,0.72606593,-1.1123122,1.6586336,-0.9277547,2.3840847,-0.10112508,-0.9689519,2.4821553,0.10293456,-0.9792542,3.6472242,-0.5442377,1.7174162,1.5894437,3.0782504
classification,-0.37573567,2.0365994,0.75996387,-1.8312051,0.104941875,-0.34857288,0.42956102,0.33089042,0.6707281,2.2020638,1.6777586,0.4171379,0.49519402,-0.5707643,-0.6482523,0.33827567,0.9763288,-2.6606855,-0.55894226,-0.38488716,1.3627144,0.07235719,-0.5600339,-1.5182142,0.023690931,-2.600481,-2.3818457,-2.3398576,4.076653,1.260387,-0.72903526,-1.3003131
clinical_attribute,-0.49162558,1.4880952,0.3513295,-0.5827982,0.43245608,-0.22060785,-0.9211829,1.3126506,0.48281395,1.844739,1.6411242,0.53549314,0.5213225,-0.8421555,-0.5841909,-0.03614883,3.3722627,0.7656238,-1.6960248,0.24717279,-3.979412,0.23836325,-0.33468503,1.4052436,3.2158027,-0.90231913,0.6338567,0.010997124,-3.0779681,0.13892242,-0.20651504,1.2084273
clinical_drug,-0.56575066,0.50495446,-0.7232955,-1.062098,-0.03711551,-0.16505833,1.2549875,1.0226258,0.48848027,1.4038045,2.0352468,0.777909,1.5072145,0.3519144,-0.97404975,0.02874087,1.2446316,-0.810704,2.4342124,-2.6283226,1.2538744,3.0443254,-1.7229779,-1.7740868,-0.20669152,-3.0027678,-1.9188489,1.2282416,1.061705,1.5522828,-0.40985072,-2.2306855
conceptual_entity,0.6241645,1.9098895,0.45904952,0.25138497,1.2907916,0.55493444,-0.56568193,1.3191305,-0.82188314,0.9861005,0.7641567,-0.2592681,0.793148,0.012764338,0.10561928,1.1956731,-0.65204215,-0.09864819,0.14920652,1.7114096,-2.7065856,2.4083073,-2.1426773,2.2564774,0.7124215,0.2980271,-2.7461991,1.4314325,3.528312,-0.2962729,0.39856672,-0.7729067
congenital_abnormality,0.26584825,1.2462165,-0.24260615,-0.28921717,0.7601074,0.30148402,-1.1228471,1.96716,0.647489,1.1831771,0.72327614,-0.71298516,0.8503449,-0.19484279,-0.65938365,-1.4062567,-2.114381,-0.72468156,2.4274652,-1.0609412,0.4905343,-2.1261618,-0.42493019,-0.53434825,0.21372205,-0.035913423,1.1291138,-0.94265187,-1.8935733,2.0122929,-0.29760593,-1.7690414
daily_or_recreational_activity,-0.31860417,2.0568721,-0.51751417,-0.9867677,1.2079223,0.04732032,-0.698235,1.4604127,-0.42098826,1.7447591,1.8061006,0.6155617,2.372053,1.0464236,-0.50333726,-0.6031951,2.1339283,-1.5217489,-0.18360898,-0.497993,0.6232681,-0.8410007,-1.6383232,-1.756041,-1.7446419,2.2853994,-3.489809,-1.4960947,0.6034863,3.6466928,0.6236566,-3.3500838
diagnostic_procedure,1.1320603,1.5291935,-0.32554337,-0.7330114,1.4091818,0.51429284,-0.69550574,0.9990145,-1.4526771,1.4173994,0.9401569,-0.8899845,0.6046149,0.90488863,0.01626837,0.5149957,-1.8240947,0.1294948,0.4987595,-0.043153435,-1.4596875,0.40577596,-2.60772,-1.9848394,-2.9310663,0.111765504,-1.9580871,-2.1741214,-1.7221301,0.87215173,1.1802597,-3.180259
disease_or_syndrome,-0.55244875,0.52385145,-0.4779632,0.2598409,0.6798093,0.69666266,-1.2844117,0.97840405,0.28856593,1.2033799,1.0813936,0.12057713,0.087116174,-0.24140407,-0.48499092,-0.4728092,-1.2259016,-0.8894765,2.2047565,-1.4859271,1.5381001,-2.209817,0.066530265,-0.12725076,-0.49826676,-0.6465748,0.9609695,1.4910024,-1.67945,2.2669592,0.25417185,2.094693
drug_delivery_device,-0.22410332,2.1298351,0.7304727,-0.07865498,-0.19935045,-0.039834425,-0.28251466,0.6054171,0.568659,1.3398795,1.6792989,-0.5786443,0.7808219,1.48664,-0.44521427,-0.15144807,3.1392813,-2.0120509,-0.56028664,-2.9911876,1.4886122,2.1885805,-0.09540369,-1.6079485,-1.3083072,-2.6660814,-0.8568793,-0.24759516,3.7653499,0.7611276,-0.02801195,-0.40096593
educational_activity,0.371094,2.005922,-0.56214136,-0.5503073,0.35318774,0.13001585,-0.19915965,1.6846862,-0.66416705,1.485609,1.4444295,0.12495528,1.193912,1.0163611,1.523356,0.08243956,0.28039345,-0.44750524,-0.8873682,3.795778,-1.9700981,-2.3091035,-2.881852,-1.8767333,-2.0822902,0.16187334,-2.6316903,-2.3608272,-1.091152,1.3816295,-1.4186804,-1.6187239
eicosanoid,-0.48469034,1.5336101,1.037954,-1.7738392,0.032751206,0.47638506,1.3517224,0.8300005,-0.8329336,2.1666362,1.1465821,-0.67440027,0.037330795,0.40500525,0.63170207,0.98291475,1.9445624,0.52489364,0.026747545,-0.4159352,-1.9061853,0.19139108,-3.6487546,-0.46618867,4.6547074,-0.59264135,-1.410376,1.933467,-0.8152357,1.1134154,1.5711827,3.058006
element_ion_or_isotope,-0.7965764,2.0571065,1.4431773,-0.27231026,1.0319175,0.4318527,0.0039620567,1.3462341,-0.46809492,1.640498,1.723835,-0.5955982,0.38322628,0.4634214,1.5621525,-0.14590517,1.9370295,0.9191777,3.915494,3.1061118,-0.16266392,0.6164504,0.34807125,1.8640567,2.645881,-0.8999327,-2.1927733,1.0031662,0.4216694,1.8524663,1.90592,4.27739
embryonic_structure,-0.35380542,1.6838015,0.011517869,-0.9240543,-0.68330985,0.6596893,1.4452388,2.2806396,-0.14055288,1.8898944,1.3354362,-0.69954157,1.1519501,-0.9496483,1.3707868,-0.7820016,-2.288391,0.3031339,1.3093481,-1.4928632,1.7301602,1.510123,-0.09390281,0.7242252,3.5976353,-1.3059155,-0.34223968,-0.45826152,1.4773403,1.3020539,-2.4108307,-0.7866179
entity,-0.135268,1.7795103,1.8948704,-0.24094485,0.57374525,0.70532465,0.530455,2.079931,-0.51132476,1.210206,-0.029275754,-0.36289528,0.97593176,-0.82908034,-0.3964015,-0.15646984,0.24295235,-0.3760249,-2.1988444,1.7425462,-1.4556543,3.082493,-0.8276927,2.5384939,3.9834769,1.5429239,-1.1098784,0.76747763,2.8613994,-0.36847973,-1.1994717,-0.9894758
environmental_effect_of_humans,-0.092931986,1.7524568,1.2177732,-0.6468466,1.0722862,0.26355544,-1.737931,1.6296389,0.61113405,2.3413336,1.1544557,0.34017393,0.5985108,0.94962513,1.2095736,-0.75308555,6.144291,1.6366768,-0.6028437,-0.9334805,0.7415663,0.00023188815,-1.7345496,-0.05360633,1.8396062,0.40521342,0.96130294,-1.479289,-0.7218132,4.1002398,-0.3758638,-0.3716666
enzyme,-0.6845168,1.655346,0.37877265,-0.5228393,0.44223136,0.078227416,0.87558436,0.43086475,0.2846934,0.9347221,1.9362702,-0.5724139,0.5802152,-0.19291742,0.1766187,0.12430662,2.0520144,0.3780436,3.3739548,-0.47713625,2.5461123,-0.1409203,-0.6907676,-0.3128828,-0.006546695,-1.7171501,-1.3649974,0.5449308,0.19764382,4.4614987,5.167036,4.518192
event,-0.52966106,1.6023884,-1.5719938,-2.0232434,-0.8420038,-1.1967047,-0.9136013,1.0331206,0.044860452,1.8584342,1.1698935,-0.19108668,0.31919828,0.8622656,-0.062787734,-0.29512298,-1.5485967,0.8061993,1.2763062,-0.024398675,-0.7394759,-0.21379834,-1.9094806,2.8340805,-3.8379445,1.8230929,-0.9398036,0.63851047,0.53960145,-2.7403402,1.683175,0.84593946
experimental_model_of_disease,-0.76537967,0.78419864,-0.29047522,-2.008815,-0.3393968,0.5001062,-1.5178751,1.0795527,0.23256713,1.4121133,1.033438,-0.0015347076,0.57016456,-0.88407224,-0.9035691,-0.5192671,-2.0564597,-0.76496327,2.1220212,-1.4011003,1.0406977,-3.1807919,-0.109902196,0.5362714,-0.6529689,-0.66894144,1.7336347,2.3492033,-1.1969815,2.732368,-0.52190185,3.079214
family_group,0.27602634,1.4693409,0.025874157,-0.12582873,0.856058,-0.119157076,-0.37592745,0.58141404,0.732251,1.5252355,1.3300894,0.16590866,0.48691806,-0.06679526,-0.20906955,0.065923184,0.60293245,-1.5131048,0.24862537,1.3601638,-2.8433177,-0.09275459,0.4095197,-3.841319,1.4043398,0.0018792148,-2.142596,2.4176314,1.2727406,2.221414,4.0056157,-1.2787244
finding,-0.1552856,1.7185509,-0.64400446,0.14779347,0.5515106,0.6268857,0.98613036,0.6731996,-0.025786541,0.99016064,1.1006507,0.4187567,1.8472791,0.54674506,0.68150985,0.5449878,-2.319495,0.61090004,0.12732658,1.2709036,-1.9172176,-2.6647985,-1.5810847,-1.2187543,3.5958352,0.12008393,-1.8555845,-0.1898438,0.37733796,0.70274913,1.5740339,-1.5213876
fish,0.6418833,2.670781,1.1504118,-0.37913668,-0.7859724,-0.18561974,-0.5744504,0.3159852,-0.17263079,1.3403685,1.3915226,0.2409968,0.46348703,0.6137236,-1.4254001,0.49750164,-2.9151566,-0.61177576,2.0776043,-0.6757019,3.581594,2.0003617,-1.3050048,2.468696,3.8503685,-0.7809237,0.43824252,-0.41048622,-0.96561384,-0.78598404,0.2262165,-0.24905315
food,-0.7052174,2.279378,0.6652063,-0.96091557,0.65854853,1.0094731,-0.12312401,0.6567907,-0.8248683,1.7546719,1.5396936,-1.0568484,1.3080872,0.48243576,-0.268743,0.16042706,3.7873213,-1.9892396,2.2249684,-1.2870016,1.5396247,3.7511263,-1.3494354,-1.5211499,0.57551664,0.90609354,-1.8714197,0.92001414,1.0749738,0.3895335,3.8041594,0.7618128
fully_formed_anatomical_structure,0.7790489,1.4962227,0.96090627,0.13975097,-0.7732577,-0.053916924,0.33619493,0.77882075,0.036294963,1.9225005,1.0853581,0.0936144,0.7328836,-0.84704167,-0.17714027,-0.90386224,-0.472911,1.7986394,-0.9893899,-2.1299663,2.9400535,2.7064912,-0.95907253,-0.3244519,2.602881,0.45387116,-0.2481824,-1.2095183,1.1957946,0.9432535,-2.6291804,1.2325007
functional_concept,0.19982745,2.1043062,-0.21984497,-0.70978737,-0.33388036,0.18812479,-0.11462825,0.85244054,0.91099936,2.252967,1.6144022,0.5127666,1.3936597,-1.239783,-0.6470991,0.01569739,-1.3877223,2.2635784,-2.335855,2.6457508,0.7756172,2.4503922,-1.620251,0.82661694,-2.7731526,0.17053832,-3.4733727,-2.272952,0.82607865,1.1946324,0.79945165,1.6011373
fungus,-0.59846246,1.8020905,0.9006789,-0.070876524,1.0987989,-0.11422127,0.4655669,0.89881897,-0.28375348,1.6135725,1.0937222,0.7733821,0.8041842,0.057534784,-0.9139004,0.5303664,-2.9217942,-0.6282813,-0.36526427,-1.4269158,2.5465908,0.47971106,-2.2218645,1.4025143,2.473196,-1.3167796,0.15007423,2.2061172,-2.0940218,-0.3851338,3.615125,-2.6859777
gene_or_genome,0.92975605,1.2739576,0.18175763,-0.2568776,-0.64755946,0.46890482,1.0730947,1.3168255,-0.22339828,1.7099472,1.4097134,-0.82216877,1.2144309,-0.66502094,0.11103283,-1.4058433,-2.0413938,-0.08192901,-0.17804953,0.1947795,1.7485975,2.5770583,-1.9188179,0.14287968,2.3436477,-0.7257611,1.5506835,1.526847,1.6529824,-0.12738357,-0.6562671,0.32587075
genetic_function,-0.24055764,0.97214913,0.04903035,-0.06970129,0.115059085,-0.22630534,-0.7185515,0.67611295,-0.2673593,1.371196,1.135304,-0.065230295,0.36558715,-1.2327269,-0.8240677,-0.2278176,2.9273725,1.54743,1.2875882,-1.297733,1.5906572,0.86321294,-2.7044575,1.9058999,-3.58596,-0.2016317,1.5436398,4.3261075,-1.3500671,2.861816,-1.6618061,1.1300286
geographic_area,0.69109637,1.5338184,1.6076164,-0.1664961,2.8800633,0.6646092,0.18222354,1.8236449,0.59298414,2.0891912,1.8800752,0.42399794,0.40458846,1.3319118,-1.5618743,-0.61073625,4.832604,-0.21405835,-0.82270384,0.7332812,-3.930372,0.009899668,-0.60461444,-0.24089178,-0.29406583,1.7298273,-1.5123289,0.95187336,1.2793494,1.7074337,3.077937,-1.9785806
governmental_or_regulatory_activity,1.7925903,1.8929719,0.22950462,-1.3117739,1.4370053,2.352839,0.2586144,1.1036515,-0.5204122,1.3809084,1.706327,1.2870688,0.43590122,0.47164613,0.2094231,-0.12725504,-0.5537941,-0.021756038,1.6409761,4.32568,-1.2745986,0.07771224,-1.3961184,0.059333954,-4.36046,-1.3607854,-1.5775377,-2.3280725,-1.5765227,0.13677004,0.15620326,-2.0619488
group,-0.2725393,1.2068036,-0.2839973,0.099693365,0.46801442,-0.49709848,-1.0750636,1.2155794,1.1354113,1.717857,1.593482,0.32983008,0.5227312,-0.052447915,-0.04153104,-0.22983763,1.2820724,-1.7567302,-1.1492009,0.44951478,-4.2751217,-0.16436702,0.30850768,-3.6944559,1.2320381,0.5433426,-2.713931,1.7907798,2.9825883,0.99190515,4.0007186,-0.5135235
group_attribute,0.17806724,2.6662376,1.1029513,-1.5827633,1.4550195,0.42020932,0.16745675,1.1669513,0.5329354,1.3487917,1.7085209,-0.37756935,1.8514402,0.49663812,0.62674505,-1.262272,-2.2455199,-1.7212403,0.6052833,-0.26614788,-3.164945,-0.4442808,1.5299579,-1.8994185,-0.5272565,1.5027268,-0.81438106,1.9473476,1.5487685,1.1761714,1.6383839,0.88882595
hazardous_or_poisonous_substance,0.08111592,1.6717285,0.96171063,-0.43968502,0.44901678,0.7024386,0.64205945,0.53912276,0.64451134,1.1430148,2.0817845,-0.88003844,0.59322697,-0.96227497,-0.029700268,0.07140511,3.0655599,0.96069765,5.0267344,-0.35429966,2.615041,-0.9635383,-1.5029505,-1.0567744,0.5241134,0.268607,-1.9402814,2.5713282,-0.15352228,1.5791728,2.9866605,3.6905591
health_care_activity,0.5317211,2.0113034,-0.7066009,-0.30585542,0.93394965,0.57707703,-1.6247891,0.6464633,-1.1294831,1.7080259,1.3786662,-0.75470763,0.37047058,0.9417972,-0.3991322,-0.19027652,-2.4644957,-0.88602585,0.6484664,4.1494503,-0.87898016,0.8534614,-2.011243,-0.35771856,-3.0756927,0.2904111,-1.1311555,-1.640155,-1.2907752,1.065989,1.8770133,-2.3060615
health_care_related_organization,1.1155312,1.6540618,-1.4765134,-0.9454964,-0.22123674,0.266089,0.38996357,1.0130383,-1.0048391,1.8616219,1.661144,0.49092057,2.4287534,-0.0652391,-0.5998804,-0.37734652,-0.17596525,-0.08560082,-0.029886032,3.9222035,-1.9803474,2.4587953,-1.334773,-1.4324396,3.1186342,-1.2927434,-1.6908846,3.2051246,2.6194155,-0.052740302,2.2281919,-4.119999
hormone,-0.52439237,1.334678,1.0865644,-0.23809794,0.22779445,0.72087044,0.97287244,-0.13965887,0.41548884,1.6824548,1.4794868,-0.21090847,1.154819,-0.49844286,0.59855783,0.6650857,1.6376631,1.9267294,3.0989027,1.6322399,0.6228203,-0.44074297,-1.0088611,-0.7459989,2.1314342,-1.2288426,-1.5464892,0.41949686,-0.888926,1.0384637,4.630074,3.0869007
human,-0.21601348,2.1384075,0.46724093,-0.19713458,1.0683153,1.3683536,0.35089755,1.0477227,0.4673388,1.9273618,0.84978896,-0.15140751,-0.57723206,0.9312655,-1.650811,-0.5424928,-1.7620491,-1.8915105,1.8051549,-0.56533706,2.0355587,2.8744428,-0.04882174,3.0426214,4.712559,-2.6015258,-0.12423512,-0.94683665,-1.302548,0.72330195,1.2506539,-1.1058295
human_caused_phenomenon_or_process,0.19107622,1.8525227,1.0472353,-1.0487221,0.6177523,-0.36826354,-0.8745376,1.4944935,-0.2576645,1.4202578,0.8997129,0.694791,0.65922505,0.25036624,1.1766045,-1.9027381,3.6283317,1.8906859,0.5337677,-1.7569413,-0.9579373,0.52916604,-1.4161712,2.2235126,0.04829292,1.257563,0.19870952,0.3783198,-0.45261392,2.7209923,3.0886502,-0.13928077
idea_or_concept,0.3222235,1.0547407,0.10657277,-1.0673418,-0.37547114,2.6963305,0.7023986,1.8601067,-0.38484216,2.6271083,1.7859218,0.10466957,1.6609666,-0.7614331,-0.43122178,0.8534532,-0.19202238,2.947836,-0.21010134,1.6341494,-2.2709312,0.10723023,-1.0884243,0.9350034,1.4502778,3.2837386,-2.3602624,-2.1204183,1.2604009,-1.5439874,0.26533356,2.0400403
immunologic_factor,-1.0056269,1.8685633,0.66041154,-0.7237427,1.016125,0.056603353,1.0967755,-0.042072006,0.30285752,1.1894215,1.5180047,-0.8095209,0.778537,-0.6691097,0.24222623,-0.2332734,1.4027095,1.0153306,2.474359,-1.8845047,-0.28015488,-1.2620523,-1.70331,-0.077863276,0.8798577,-1.5622287,-1.8231448,0.8403255,-0.8358775,1.924417,5.22759,4.2985253
indicator_reagent_or_diagnostic_aid,-0.00048187218,2.118607,0.7790016,-0.764893,0.043402255,-0.26459575,0.10691575,0.942134,0.9303128,1.8369836,1.4587764,-1.0798168,0.16214469,-0.47811663,-0.43624446,-0.7330615,4.5537977,2.226805,4.01395,-1.2038431,3.3917074,1.5573596,-0.70092165,-1.7885821,1.7576312,-0.77689946,-1.6734216,0.61221933,-0.9963391,1.6214751,0.95271367,3.2329793
individual_behavior,0.45264718,1.40457,0.6374253,-0.6483097,1.3332396,0.7702859,-0.5798744,1.0194749,-0.007981473,1.1981251,1.0880255,0.14496979,0.5111826,0.797301,1.2907721,-0.13580306,0.6053956,-1.0454911,-1.4533801,0.4993075,2.3685846,-1.0385429,-3.7553213,-0.7040726,0.26869708,2.6415389,0.88151366,0.99482965,0.8783967,1.3303893,0.39413223,-3.05809
injury_or_poisoning,-0.04290487,1.1707786,-0.18119375,-0.49235353,0.8587077,-0.038629234,-1.2702733,1.508947,0.70581096,0.8752271,1.1648407,-0.56781274,0.18702616,-0.73048675,0.27330425,-0.35277617,-1.3479018,-0.08422917,2.5710006,1.3370574,1.9889587,-2.9772806,-0.32775378,-1.1738105,-0.6437783,-0.05203884,1.2283884,-1.0687286,-1.4159564,2.9628484,1.7914944,0.6863374
inorganic_chemical,-0.25380486,2.4233384,1.6741775,-0.040406734,-0.03130957,0.7445858,-0.32828346,0.59318703,-0.30513272,1.6862683,1.5459615,-0.7148477,0.41866073,-0.01796931,0.020605117,0.48416242,2.6599433,1.0886,1.154346,-0.7014931,0.09124683,0.111248195,-0.76129794,-1.418702,3.9156208,-0.088086516,-1.4186294,2.139272,-0.4704363,-0.3752192,0.7719072,4.037384
intellectual_product,0.7196878,0.8800424,0.67835414,-0.3071472,0.7743033,-0.3557624,0.46583837,1.0586824,-1.6600108,1.7843523,2.0897038,0.18758133,0.9430152,-2.3784788,-1.0985912,0.29055616,-0.16046475,-1.9330788,-1.4644301,-0.86307776,0.23343985,0.28408226,-0.2646974,-2.2952917,3.442446,-2.8427534,-2.8421261,2.1004708,3.5590603,2.4704933,-1.1018848,-1.4738505
invertebrate,0.25208408,2.2832346,0.93219227,-0.3207124,-0.25448725,0.47979844,-0.37351546,1.0920762,-0.5375947,1.6849219,1.1310495,1.3556579,0.18580136,0.537407,-0.8642992,0.39778015,-1.1551847,-1.4415177,1.7516457,-0.8069468,4.4307914,0.09197369,-2.026396,3.442049,2.6005688,-0.93277925,0.87025744,1.4100143,-0.7424962,0.036835622,0.4899673,0.7616558
laboratory_or_test_result,0.76185095,1.0605743,-1.4808917,-0.2536138,0.86488366,1.1466694,0.6438822,1.1094315,0.4859665,1.4180797,1.4422024,1.0223016,1.5316796,0.014213576,0.96079177,0.58118737,0.632893,0.6628044,-0.39298448,0.78417945,-1.4673356,-0.12812224,-0.75686777,-1.7558435,1.1310115,-0.04296383,-1.1823695,1.7284702,0.36669442,1.5102274,0.39132854,0.3987355
laboratory_procedure,0.71173924,1.4628175,0.29786703,-0.61586654,0.39757577,0.09646275,-1.5239462,0.45095986,-1.0677017,1.8509748,0.7076337,-0.37206662,1.1047925,0.49443817,0.0832903,1.245611,1.0985044,-0.5060107,-0.80161595,2.2346826,-2.0514877,0.94959646,-1.2355809,-0.30185902,-0.82395625,0.15323691,-1.1732973,-1.1885338,-2.1320605,1.80693,1.7300959,-2.9396236
language,0.14944106,2.2829387,0.5858819,-0.4648615,0.93734956,0.22619928,-0.67177486,1.6846148,1.3203946,2.5666301,1.7168151,0.82155806,-0.121938795,-0.7612643,0.64034265,-0.57287145,-0.031954914,-0.09221041,1.2087406,1.9273692,-0.8979496,1.8412877,-1.2606528,-0.46371913,1.4294041,-0.61950135,-3.134625,2.4865177,2.7431266,2.9533262,1.3446162,-2.517904
lipid,-0.35950375,1.242572,0.8629924,0.23165971,0.54944587,0.7116181,0.08609833,1.049917,-0.7831654,1.2753894,1.7427132,-0.11175073,0.44169152,1.443281,-0.6223823,0.17697918,0.66343194,0.8645355,0.33908138,1.2195967,-1.3646115,-0.6323005,-2.5299187,-0.08767437,2.133614,-1.2296914,-2.088302,1.3983213,0.6557106,0.45889488,1.3675116,4.0631247
machine_activity,0.9858437,1.7184206,-0.6809834,-1.4654981,0.40573534,1.6507225,-0.34106803,1.3486854,0.8173903,2.0810075,1.2309734,-0.6093018,0.5697514,-0.32679564,-1.111228,1.3160739,-0.2905187,-1.7169381,-0.3426537,0.34624282,-0.51174325,-0.23672512,-4.7521405,-2.7557318,-2.2344496,1.3826853,-2.7384996,0.72715575,1.0409777,3.9742,2.8946362,-3.6998181
mammal,0.24708441,2.0554893,0.5210149,-0.07442937,-0.20661281,-0.18238202,-0.41138163,0.61261064,0.16595708,1.5195416,1.5175618,0.25220498,1.1831214,0.5805101,-0.3193666,-0.1717604,-1.9722992,-0.814418,2.058115,-2.0624857,3.6272693,3.9287968,-3.735238,2.27166,5.7952995,-1.9178027,0.24637347,0.14316852,-0.5822829,-0.29777125,1.582995,-0.85075426
manufactured_object,0.7405672,2.3151226,1.1885166,-0.28332138,1.7356548,-0.2625068,1.1559448,1.1197503,-0.510198,0.961649,1.8635803,0.07405105,0.794267,1.4540025,-0.8758548,-0.48481116,4.057515,-2.034873,-1.672685,-0.09542489,3.6670141,2.157222,-0.04337628,-1.3204061,-0.6995238,-1.9799209,-2.4100945,-0.44210875,3.5498724,3.602977,-2.8140125,-0.5242937
medical_device,0.059228107,1.3562576,0.94123507,-0.116689235,0.16389093,0.22943318,-0.516238,1.2927828,-0.83825755,1.5374318,2.2005794,0.5986605,0.19867459,0.97251755,0.016729875,-0.70243055,1.9752581,-2.7020643,2.0176172,1.7408822,2.7717228,4.0650396,-0.8653113,-1.4658772,-0.8465826,-1.9077337,-1.9218475,1.0871187,4.6777487,1.5351267,1.791043,-0.18022627
mental_or_behavioral_dysfunction,-0.8934475,0.86777043,-0.49432254,0.3552636,0.31016353,0.6298185,-1.090193,0.9948054,0.17705975,1.1825256,0.86666167,-0.3301528,0.501179,-0.61566645,-0.6961579,-0.217197,-1.0621942,-0.20945543,2.4281936,-1.4052529,1.0738411,-1.7513804,-0.3264626,-0.5218819,0.36543208,-0.5459575,1.5461656,1.9089111,-1.9408644,3.0725229,0.6767731,1.5621835
mental_process,-0.13650522,0.48337135,-0.28383285,-1.0658535,1.0636414,-0.20602132,-0.7755827,0.63234276,-0.22075878,1.5219545,0.717977,-0.30377287,-0.07099514,-1.010605,-0.24730779,-0.37657163,0.8959308,1.8899786,0.9737476,-2.0856774,0.75407934,0.3285434,-0.6755872,0.33731,-1.108177,0.5634324,1.5621895,2.7556133,-1.297926,1.8983877,-0.05574156,0.2560747
molecular_biology_research_technique,0.6972312,1.5844793,-0.88102436,-0.4792055,0.30869487,0.22638193,-0.7484237,1.2566848,0.084860966,1.428012,1.2667501,-0.014256047,1.6678829,0.93146634,-0.5473823,0.56699294,2.5543597,0.790313,-0.17631541,2.8239586,0.2600404,-1.804277,-1.1683908,-1.1758139,-1.7315471,0.73696405,-3.0022452,-2.3154569,-1.7417254,2.1963375,-1.9297526,-1.4454008
molecular_function,0.3845032,1.2841997,-0.031664062,-0.12239931,0.07377827,0.31971827,-0.7454139,0.6174095,-0.4702738,1.7728566,0.6317637,-0.1129633,0.821588,-1.1866832,-1.2117845,-0.20782061,2.3334937,0.75528663,0.9495255,-1.054828,0.68571764,-0.6447746,-2.8597832,0.60546535,-3.7548995,-0.76783186,1.958806,3.5729592,-1.6292183,1.522877,-1.0161575,-0.02499415
molecular_sequence,-0.43107074,1.9358411,0.38608348,-0.13633795,1.3490484,-0.36535653,0.13506404,1.8292918,0.41072467,2.7697043,1.1537992,-0.31142154,1.2336565,-0.5505787,-0.7337444,-1.5230448,4.245385,0.41852948,0.38145748,2.2402043,-0.77328485,2.341115,-1.5295446,2.1127448,-2.6029766,0.68956965,-1.869604,1.6529464,2.4276137,1.2774833,-0.5332862,-3.4805162
natural_phenomenon_or_process,0.4099794,1.7856902,0.11358935,-0.17037082,-0.33886567,-0.19969189,-1.2046231,0.8581717,-0.05699402,1.5330161,0.4613887,0.48811322,0.58318776,-1.1433178,0.39981616,0.38030288,1.3536968,0.90009826,1.0445995,-0.07069469,2.040456,1.3109301,-0.6204873,0.9160405,-1.0222336,0.65296644,2.0333157,2.7160332,-0.1829024,1.2758888,1.4368451,4.0465727
neoplastic_process,-0.83303404,0.94208825,-0.54988456,-0.22673036,1.0631908,0.65626323,-1.1663531,1.4919349,0.22235572,1.1978363,0.98347855,0.14120676,0.05601852,-0.5109076,-0.21282993,-0.24582817,-0.546222,-0.12733713,2.4733896,-1.8644329,1.7262176,-1.6445868,0.8047244,-0.12243207,-0.452276,-1.7262127,1.3236661,1.7034682,-2.5077786,2.0064077,-0.18046565,0.98407346
neuroreactive_substance_or_biogenic_amine,0.30912066,1.4497621,1.4629285,0.941527,1.1619556,0.63502866,0.4777044,0.5140002,1.2882947,1.3407652,1.8327409,-1.1840277,1.108372,-0.56597805,0.27668667,-0.12537965,1.7826941,0.9503267,1.2245387,1.2588652,0.6104349,-2.0948043,-0.6348268,-1.0514679,3.0566988,-1.6304957,-1.4861572,-0.6774514,0.035930343,2.2013886,5.172586,4.0181584
nucleic_acid_nucleoside_or_nucleotide,-0.8351167,1.6683183,1.2296485,-0.3550146,1.1781629,0.31401294,0.2894872,0.5083026,-0.98665625,1.5142677,1.2831212,-0.39932442,0.88502127,0.72993875,1.8311617,0.11257756,2.0409958,1.7338855,0.611277,2.201345,-1.6808643,2.7323723,-2.870869,-0.2005961,2.16645,-0.7301091,-1.4177333,0.14800197,-0.059874967,1.4296583,3.101851,3.1793206
nucleotide_sequence,0.6763062,2.248518,0.61540246,-0.8216283,0.91446877,-0.4409129,0.090067044,1.0192213,0.59266466,2.132188,1.1684723,0.70690393,1.7468867,-0.54568815,0.15802845,-0.2979709,3.1528857,2.01453,1.7671211,-0.1343268,-0.9761171,2.3874342,-1.0615612,-1.8392032,-0.12480375,2.3310497,-2.476239,2.2616036,2.3152912,2.315844,3.0033364,-3.6611168
occupation_or_discipline,0.403456,0.22176637,0.4001803,-0.2457737,0.63413286,1.1765689,0.5500835,0.003467114,-0.4853831,1.9902331,1.2355845,0.96844745,1.8757737,-0.7527371,0.60520744,-1.7021227,-0.43375006,1.740878,0.13479854,3.6121585,-3.1080606,2.4314544,-1.071301,-1.5981606,1.6376429,-1.5429392,0.4763722,0.4171689,3.006569,0.241414,2.4301941,-2.3016155
occupational_activity,-0.098913334,1.4562104,-0.42456326,-0.59189206,0.36290893,0.007971564,-0.79933566,1.871068,-0.07245489,1.0431807,1.7424266,0.48753616,0.26077995,0.43875182,0.112273045,0.23903607,-2.3793707,-0.3250553,-1.893762,4.626863,-1.8843594,-1.9472402,-1.0378786,1.019986,-0.8631173,1.1111108,-1.9705462,-2.133157,-0.9157667,1.1650614,0.5826967,-0.6901427
organ_or_tissue_function,0.5051198,0.83367336,0.65017396,-0.08804988,0.82480866,-0.58453685,-0.89372534,1.0878999,0.08190916,1.6434091,1.0731956,0.24166633,-0.06446311,-0.73813486,-0.8654012,-0.009844367,2.1559978,1.2820443,2.3171694,-2.8133934,2.1969094,0.651438,-1.4899162,1.30225,-2.6187098,-0.10931068,1.2527444,3.1721966,-1.4873515,2.112531,-2.1822555,1.219721
organic_chemical,0.4650908,1.4867618,1.9057618,-0.60444885,-0.5253651,0.96780527,0.08244118,1.1859647,-1.1420847,1.8541695,1.5539445,-0.2501054,-0.041146833,0.64448506,-0.59920794,0.4469664,-0.5558294,1.6320243,0.9744546,-0.019529091,-0.34184214,3.7790403,0.19488472,-0.925359,1.8588803,-0.4916723,-1.2885475,2.9289737,2.5430415,1.6777312,0.43169641,4.4118395
organism,0.2519428,1.7862217,1.4828919,-0.20855741,0.825036,0.41576692,0.2873178,1.0218046,-2.1841757,1.0435189,0.9778965,-0.36047664,0.8478247,0.48393047,-1.5394397,0.37902167,-0.6768542,-1.3663797,-1.1136549,0.43934765,3.294406,3.8879871,-1.5901394,2.7350824,4.3078475,-0.8653594,0.58871305,-0.0966264,-0.5906379,1.0766796,-0.8961973,-1.9928067
organism_attribute,0.28179336,1.5455867,0.8239604,-1.4270034,-0.22276333,1.0133556,-1.2747248,1.9697624,0.7300898,1.5855751,1.9225783,-0.6543441,1.8556365,-0.5055291,-0.94237417,-0.6268999,4.535741,-0.22265278,0.6025736,2.4381633,-4.3219275,-0.29384056,0.37008816,1.2455263,2.6492596,0.33936188,0.62306607,2.0953476,-2.49819,0.33045745,2.960582,1.0986505
organism_function,0.16572022,0.9011707,-0.3077334,-0.9522905,0.43198267,-0.046854634,-0.7464416,0.7194492,-0.4054789,0.92953116,1.1585907,0.02393901,0.8503723,-0.94538385,-0.20875648,-0.33076268,1.5693712,1.4072149,2.0221272,-2.4111598,0.68015826,-0.2087349,-0.5265479,1.3530966,-3.0187507,-0.4457845,0.86675984,3.1501987,-1.2245383,2.202708,-2.2273722,1.4414471
organization,-0.12841012,2.0653877,-0.3311536,-0.69207144,-0.41152272,0.046607092,0.59435105,1.4834796,-0.5725052,1.9009761,1.5140855,0.867064,1.1405053,-0.6290712,-0.053892177,-0.4346964,-2.2050087,-1.8075638,1.0242492,2.83694,-0.07519497,1.267227,-1.2770078,-0.6331502,4.813959,0.15686305,-2.8815308,4.109843,3.9956863,2.437985,1.8109599,-4.9789777
organophosphorus_compound,-0.3686772,1.8423005,1.5244298,-0.28647035,0.1695203,0.39246604,0.2390187,0.5408961,-0.4203701,1.04561,1.6894493,-0.7403414,0.787996,0.12510882,0.5819325,0.28918839,1.870831,0.8536189,2.1691577,1.7561644,-1.0169963,1.8190637,-3.2804167,-0.37074682,1.8165703,0.47705248,-1.9560746,2.347249,-0.6961673,1.3047545,3.6577146,2.3677392
pathologic_function,-0.28544348,0.9935074,-0.5059394,0.05099274,0.16002995,0.9572088,-1.391903,0.84288645,0.2650487,0.5463868,1.2845569,0.13946895,0.17186387,-1.3113154,-0.83460814,-0.6407391,-0.5583038,0.1012133,2.0016563,-0.7115109,0.3170775,-2.3074477,-0.60882926,0.014163179,0.46914586,-0.85536337,1.7416658,1.4606398,-1.2227703,2.0468998,-0.61526173,1.4497879
patient_or_disabled_group,-0.021259949,1.0576272,0.1137184,0.31666717,0.79738134,0.6242318,-0.32303035,0.9195691,0.52365494,1.6491818,1.229132,-0.2231582,0.3988395,-0.2454415,0.53897196,-0.30334535,2.2043674,-2.5589647,2.1293917,0.12597236,-1.8216056,0.35844496,1.0414759,-2.2170768,-1.1114206,-0.52126837,-2.361216,2.8619769,2.4998398,0.7175292,3.1659608,-0.9812969
pharmacologic_substance,-0.25229022,1.6058059,1.1860323,-0.68978685,1.3440892,-0.24475482,0.583976,0.22334103,-0.27883253,1.510981,1.7206482,-0.81251085,0.88296443,0.54512095,-0.011329543,-0.76817095,2.0585046,0.032008328,3.1463614,0.58421093,2.02814,-1.3996253,-2.9197507,-0.40133214,0.9569223,-0.52330863,-1.7113743,0.7382201,0.07798986,1.73618,1.969739,2.8704796
phenomenon_or_process,-0.3917341,1.59261,1.1169208,0.11349288,-0.8053404,-1.0041401,-1.3826594,1.83366,-0.6750526,1.8692493,1.1060482,0.26285654,0.6385337,-1.0193475,0.054989405,-0.13499194,4.7281127,1.7363954,-2.5560424,0.45945975,1.5051697,1.0741879,-2.216735,1.6371859,-1.9840108,2.0196643,1.2934839,0.81161994,-0.8402829,0.52426165,0.14710742,-0.6717486
physical_object,0.04713081,1.0950859,0.71527493,0.113592744,0.16668332,0.100785084,0.66941327,1.8250057,-0.22616999,1.5654908,0.31630978,0.55039024,1.2763453,-0.2099943,-0.7942566,1.246614,1.2622492,-0.7486604,-3.7254431,-0.8959234,2.0555966,2.504966,-0.51859564,3.6420488,3.09136,-0.6992977,-1.1481916,0.5916709,2.3152976,1.1563606,-0.092322804,2.0356176
physiologic_function,-0.09600168,1.4809299,0.20319201,-0.20929319,0.11884249,-0.000722619,-0.5881449,0.5906487,-0.539262,1.2724295,0.7700923,0.12965484,1.0160997,-1.0950295,-0.34348178,-0.67731655,2.487728,1.5844313,1.7529658,-0.46685645,1.9802375,0.26156834,-0.95662993,2.0967042,-3.3135612,-0.6200963,1.2098716,3.616197,-1.8405741,1.7708309,-2.2447321,1.4731905
plant,0.55244935,1.3137518,0.50556266,-1.328542,0.75584227,-0.46839425,0.9196169,0.411556,0.042315897,1.8400941,1.2610141,1.2221926,0.50866324,0.1055459,-1.8815802,0.8193442,1.2905092,-0.518063,-0.62391675,-1.6588703,2.6437612,2.0028877,-4.0565276,2.8306818,2.841953,-0.41520402,-0.009865633,2.5518806,-1.1518142,0.73034954,1.1372285,2.038424
population_group,0.067601934,1.1364336,-0.17672914,-0.796861,-0.14629564,-0.2201503,-0.7884336,0.82123244,0.24802943,1.8675404,1.5612526,0.53092146,0.82191634,0.6835511,0.25769,0.5635781,2.2571652,-1.338607,2.1881344,1.3936465,-1.5424758,-1.4091804,1.8601445,-3.271874,1.0638582,-0.3859705,-1.6716309,2.862316,1.8573104,1.1710657,4.6065407,-0.8376971
professional_or_occupational_group,-0.3356558,1.5536989,0.29897845,-0.56113356,-0.3385484,-0.74708,-0.47508064,0.014253524,-0.10234624,1.8250133,1.0069883,0.70510453,0.761611,0.5102735,-0.09130286,0.7877094,0.7590987,-2.7296762,0.16733348,0.19673964,-1.6846056,1.0098338,1.4843433,-1.3446573,-0.08312926,-0.8397746,-2.0996652,1.6435515,0.6408344,1.8221103,2.3532636,-1.6583403
professional_society,0.65657604,1.5016724,-0.6155961,-0.79155153,-0.15695328,0.046932746,-0.005248026,1.0892984,-0.0431597,2.5816782,1.8686793,0.7997562,1.6143962,-0.28834364,0.37746102,0.15615568,0.8726035,-0.91803217,0.96101487,3.8632185,-0.7035452,4.3150516,-1.9063486,-0.8733562,4.4901,-0.86249566,-3.4229734,3.4797187,1.7568588,1.1563855,-0.6874132,-3.8103445
qualitative_concept,0.60545415,2.294608,-0.5539714,-0.62695646,-0.5524758,-0.8310904,-1.6784987,1.3197939,-0.09852831,1.1427318,1.8804877,-1.4756752,0.5277181,0.508701,-0.17742538,0.028889421,-0.87730294,-0.20107897,1.9606253,1.2885364,-0.7804168,3.752364,-1.9609685,-2.8248885,-0.9231559,2.2205753,-2.4815845,0.49994138,0.94685096,1.9871724,2.8344193,2.4104426
quantitative_concept,0.43361765,0.82878864,-0.4623368,-1.9239715,2.7894435,0.4118144,0.29078212,1.1643795,1.6528454,2.4646034,2.5550508,-0.07614873,0.26982653,-1.2157074,0.068670504,-1.1140088,1.8734304,2.4408617,2.1215506,-2.223518,0.06347926,2.4660106,-2.5352986,-0.339823,-0.6191993,1.7233144,-3.6949103,3.3104064,-0.17161852,2.054705,-0.7538212,3.3082042
receptor,-0.08370643,1.3992331,0.63106346,-0.08401351,0.8637203,0.64030105,0.61725104,0.3756377,0.9206573,1.348533,1.8175163,-0.980493,0.80937487,-0.667249,0.5234836,0.28215638,3.3367658,0.956204,2.403211,-0.2735426,1.2936907,-1.8807851,-1.4909762,-1.0802766,2.6281874,-1.5257084,-2.3772256,-0.18401861,-1.5951022,0.84719,3.815886,2.9486558
regulation_or_law,0.045205127,2.4716246,1.0706818,0.06332652,1.1598723,-0.54356,-0.3056898,0.70064074,0.68883175,1.660344,1.3062917,-1.7331275,0.7048405,-1.2568004,-0.1673679,-0.8010145,-0.871124,-1.5258002,-0.0062563177,0.9028977,4.0659504,-1.5310965,-3.731723,-2.4855056,1.0603647,-1.7508599,-2.4543936,-1.0541265,4.192806,1.0325543,1.1108587,-2.4787538
reptile,0.01651031,1.8198072,0.35682893,0.59913486,-0.38686004,-0.83786476,-0.632444,1.1186686,-0.40892777,1.8308443,1.5112065,0.16755585,0.2915647,-0.0052509746,-0.6869864,1.0378677,-2.6123643,0.56015694,3.1834207,-2.5534117,3.642578,1.0858504,-1.6483424,2.7167478,4.596394,-0.9971188,-0.11686573,0.5127921,-0.34823364,-0.37676704,2.439831,-2.8443756
research_activity,0.9311604,1.9959893,-1.2396767,-0.34073722,0.26890963,1.566545,-0.7944616,0.61930585,-0.75898653,1.9202718,1.3730577,0.35900077,1.0532258,0.70495445,-0.008018488,0.83175284,-0.15708017,1.4824046,0.2572287,1.8897054,-0.71129185,0.41204634,-1.7786927,-0.6025159,-1.4102051,-0.07087016,-3.411823,-2.8383043,-2.567151,2.1927176,1.0245184,-1.3366838
research_device,-0.14585234,1.4601275,0.959181,-1.4335531,-0.2034565,0.63376933,0.054769553,1.3599778,-0.1968155,1.6305302,2.4689758,0.35642046,0.43852222,1.0992249,0.0043809526,-0.56344706,2.171566,-1.3487759,-1.2254578,-3.2886047,2.663482,0.2181669,-1.6440738,-0.36745256,-1.619585,-2.6090488,-2.472267,-0.9158493,2.1034489,-2.8191426,-0.4532601,-2.0450306
rickettsia_or_chlamydia,-0.5657025,1.9065918,0.87275827,0.4061406,2.075136,-0.28404918,0.1621412,0.9360899,0.5252884,0.6327183,1.7279478,1.5023614,0.58490354,-0.14595832,-1.2594706,-0.044984847,-2.1894164,-2.170876,2.1875987,-1.1593635,2.8065298,2.5195515,-1.9918678,2.495303,0.5364537,-1.3710394,-0.09531822,3.5329194,-1.4250554,1.553969,2.7194827,-2.446427
self_help_or_relief_organization,0.37226185,1.4293842,-0.2651099,-0.73941714,0.07787801,0.88802224,0.79737836,1.3393841,-0.35339215,1.8968409,1.8361453,0.8229104,2.0056074,0.78497136,-0.41670913,-0.27804258,-0.3722216,-1.2733134,2.0139532,2.1155179,-1.8639364,1.0402778,-1.1850817,-0.021931686,4.493192,-0.076259956,-3.1482992,4.1715984,1.5300423,0.8351192,2.0419762,-2.6343343
sign_or_symptom,0.9996844,0.85335237,-1.0842187,-1.10737,-0.3088801,0.975528,0.42079282,1.112818,-0.09323331,1.8117939,2.1393132,0.8658846,2.6159272,0.24481514,-0.09144089,-0.36300007,-0.3677976,0.75644183,3.6735625,-0.17808427,-2.2467914,-1.0100639,-1.1261835,-0.696552,3.6550882,0.560065,-1.9365687,1.0213459,-0.9884396,2.0368352,1.9796256,-3.6900084
social_behavior,0.85227233,0.50084555,-0.34622213,-1.3680732,1.4072158,0.26174152,-0.13255829,1.0449262,0.29444253,1.8141801,1.4368298,-0.6309114,0.38388222,0.017314807,1.6579745,-0.7303419,0.044108916,-0.58287555,-1.3606585,1.980356,3.103831,1.2315873,-3.5010707,-2.3141205,-1.1089332,3.929169,0.8852446,1.440347,2.1292984,2.9374046,1.035026,0.095184244
spatial_concept,-0.03585626,1.5441669,0.7259157,-1.2729671,1.0684942,-0.6208043,0.59700185,1.1189607,-0.63920265,2.0622146,1.4760143,0.15270859,0.59087384,-0.17779765,-0.61103666,0.2789844,2.517059,2.0875454,-1.4488825,0.071066186,-2.0699167,0.8563242,-1.6875439,1.4933463,0.0060362592,2.7750628,-1.0343528,0.473872,1.6583177,0.53872573,-1.4768215,-3.090592
steroid,-0.6779391,1.5902786,1.2753086,-0.25741705,-0.12279049,0.031110425,0.44279903,0.27616146,-0.53123933,2.1372204,2.2234576,-0.59160525,0.07647684,0.91787726,-0.949416,1.1039426,1.3421398,1.0157111,0.3986906,0.9587405,0.8805021,-0.65087485,-0.47408825,-1.7553273,4.114306,-1.0061383,-2.2064462,1.8232334,0.3875112,0.6572629,2.4752262,4.3548255
substance,0.046046417,1.0662643,1.9890915,0.08324318,0.5577846,-0.44218978,1.5860579,0.99068606,-0.308995,2.473096,1.8783367,0.4849736,-0.115990765,0.5377981,0.26088315,0.056030177,4.9998317,1.4950382,-2.0729313,2.3852346,0.23001277,0.754437,-1.0283811,-1.0677427,0.15481374,0.3472031,-2.236882,2.9547544,2.3888073,-0.6078842,-1.42948,0.6862213
temporal_concept,0.653559,0.9985027,-0.7133312,-0.19751363,0.044200826,-0.14578763,-0.32758608,1.1525588,0.72188514,1.9786438,2.0941446,0.19894429,1.0743273,-0.7276305,0.1550955,-0.60943043,-2.2587283,2.40588,0.6732054,-3.562778,-1.0500062,0.41855833,0.14909345,-0.89668083,3.4632297,0.06254695,-1.5477858,-2.1674,-0.45126948,0.6106775,1.1678773,2.858479
therapeutic_or_preventive_procedure,1.3409045,1.7060227,1.1450257,0.23139401,0.80764854,1.0918127,-0.922327,0.51487166,-0.7493977,1.4855306,1.4013474,-0.5786277,1.006528,0.87928957,-1.0062597,0.06705673,-1.1609313,-0.5285832,1.519213,0.7041329,-2.7035697,-1.6129376,-4.794955,-1.2334056,-2.5338519,0.38597596,-2.0781684,-1.9281936,-1.5743667,0.52039194,2.236336,-2.5417235
tissue,0.3136627,1.569805,-0.31386754,-1.6565641,-0.66110104,0.87943923,1.1693232,1.5807568,-0.114714466,0.95390785,1.2130239,-0.38362283,1.5429921,-1.5831615,-0.54275084,-0.8749944,-0.90049297,-0.32739174,0.315515,-0.98309886,1.620691,3.5652547,-2.8824933,0.17966366,2.4444728,1.7486496,0.2755683,2.4801493,-1.5035782,0.98678046,-0.14472112,0.50388813
vertebrate,0.08779215,2.128752,0.5511491,-0.937948,0.29844558,-0.26016885,-0.23243727,1.0616852,-0.29564863,1.5472692,1.106248,0.48633507,0.15781678,0.35766086,-1.4320158,0.36445987,-2.1232862,-0.1264076,-0.19661328,-2.4195585,4.8707094,2.4022448,-0.80501735,2.562357,3.3683279,-0.76079804,0.41483766,0.7160829,-1.0728642,1.1759188,-0.22057313,0.35905662
virus,-0.77145046,0.95519876,0.801296,-0.61851674,0.38957322,-0.32662404,0.23776686,0.6927727,-0.331444,1.842412,1.3265029,0.8109508,0.6408422,-0.22584102,-0.3431249,-0.12266272,-1.2075417,-1.8620108,-1.284195,-0.8213234,1.3485,2.601545,-2.6370041,3.5128765,1.6198533,-2.0457058,0.0021211635,2.2105696,-2.3034463,-0.051514696,3.1802905,-0.4573926
vitamin,-0.27797493,1.5807679,0.85971725,-0.056442674,0.66963696,-0.15763007,1.2000805,0.5081951,0.76655453,1.4320083,1.3253031,-0.6726375,0.30364665,-0.25674045,0.11776437,0.42304477,1.5700817,0.2350871,2.8988814,-0.060081027,0.19742188,-0.8094376,-0.18641788,-1.5682492,2.6389656,-1.0602934,-1.5850561,0.44184807,-0.7797501,2.1125152,4.4345827,3.925651
