,0,1,2,3,4,5,6,7,8,9,10,11,12,13,14,15,16,17,18,19,20,21,22,23,24,25,26,27,28,29,30,31
acquired_abnormality,0.4046113,-0.42580408,0.19259873,1.0242108,-0.86894655,-1.4273444,-1.2254146,-0.79971755,-0.9033278,-0.2921832,-1.945368,-1.3736869,-1.4827195,-0.48553482,-1.4703892,-0.47842932,0.1703119,-0.2655929,1.6247404,0.4942525,0.32516912,-1.287847,0.73383933,0.17423443,-0.03979331,1.8842728,-1.1847277,1.3073653,-0.005904142,1.813626,0.5720054,-0.42465055
activity,1.5141398,0.82706964,0.7332319,2.29043,-0.6579192,0.2334164,0.7162054,-0.9075332,0.5166467,-0.55849,-0.12007197,0.930674,-1.0104661,-0.16007489,-0.94870573,0.5786814,0.7073238,-0.5393501,-0.16976479,0.12846494,-0.6615214,0.53569365,1.1964362,1.347505,1.1823639,-2.2644818,0.4082711,-0.58334076,0.63186103,1.9263048,0.5762238,-0.19754715
age_group,1.2078804,-1.1052845,0.99579465,1.4962925,-1.0182407,-1.2781111,1.5249958,-0.7328869,-0.0667404,0.110227846,0.64471513,0.5350547,0.61244804,-0.36274263,-0.4818796,0.090673774,1.1844128,0.46277505,1.2143825,0.8604638,0.78093535,1.0273944,-0.48893988,0.55699635,0.08977471,0.8871012,-0.28583044,0.34171766,-1.2485613,1.4301014,0.91037697,-0.22642644
alga,0.47755638,0.36007392,0.7763482,1.2187337,-1.8419999,1.2831233,-0.831605,-1.490886,-1.8237814,1.1697959,0.9329994,1.1357056,-0.813001,2.0504787,-0.34792307,0.7069326,1.5583439,-0.55568063,0.43775606,1.2114462,1.5887078,-0.9305259,-0.39139017,1.449002,-0.27189854,-0.26470622,0.7842333,-0.23427229,1.0135019,1.7130729,0.41589123,0.14015383
amino_acid_peptide_or_protein,-0.27787566,0.18837216,0.01790695,1.171527,-0.6090142,-0.44274983,-0.035227377,-1.4445568,-0.5769754,1.517896,0.43019354,1.064524,0.4495757,0.031754546,-1.1696961,2.579964,1.5095273,0.27622712,0.9799888,0.6351719,-1.8148223,0.16855714,0.9607007,-1.2305088,-0.21381594,0.5096106,0.69733423,0.87467843,-0.1950251,1.2418456,0.7406326,0.33432266
amino_acid_sequence,0.24272084,-0.276305,0.83207774,1.3943717,-1.4035318,0.12613231,0.7533037,-1.1711392,-0.20359063,0.19571063,-0.61943626,0.9529519,-0.563785,-0.31953388,-0.34920815,1.1781163,0.8284193,-0.67274296,0.6434378,0.07046093,-0.84892046,1.0597107,1.9426138,0.19770443,-1.1468569,-0.14747606,0.4489646,-0.783516,0.5624567,1.5839055,0.7146384,-0.7855503
amphibian,0.5760157,1.1009892,0.78961396,1.6625328,-1.6553591,0.20920241,-1.2668074,-1.2628922,-0.60728383,1.2224958,1.8675907,0.5188996,0.18944576,0.60187733,-1.3442854,1.4082699,1.6206279,-0.62156004,-0.5152443,1.3558117,1.2023827,0.83970004,0.9523397,1.6076247,-1.866016,0.024157168,0.08138578,0.27168766,0.032558963,1.1153122,0.22622626,-0.014426504
anatomical_abnormality,1.1370525,-1.2214249,-0.09647724,0.89884734,-0.62395406,-1.0767853,-1.2544935,-0.7087914,0.5597158,-0.18786536,-1.7474118,-1.0608424,-0.033890013,-0.06883231,-1.0115763,-0.20302987,0.3830938,-0.68712,1.3965132,-0.08550548,0.5198654,-1.1679355,0.71845615,0.6115584,-0.25434282,1.9717774,0.04361126,1.2794111,0.3752351,1.9234741,0.7647908,0.54443884
anatomical_structure,0.18168487,0.63916343,1.5466933,2.0190055,-1.18772,-0.54322654,0.3126448,-1.987788,-0.69363666,0.3536037,-1.5320135,0.73702693,-0.6893186,-0.7477917,-0.81852704,0.3969788,0.7672424,-0.3474314,-0.33606425,0.1245682,-0.6504694,-0.49165338,-0.18318966,0.07969394,-1.0132735,1.5340481,0.41752788,-0.7684249,-0.53603745,1.3770916,0.38865924,0.3010624
animal,-0.7802674,0.062717795,-0.019725265,1.1158555,-1.6198218,1.9554211,-1.0462432,-0.9120759,0.3453099,1.0235903,1.1411655,0.47435918,-0.6138065,1.1955519,-0.17579775,1.7396328,1.0150267,-0.3733033,1.0099875,0.4674169,1.1160183,0.015637318,2.5247755,1.6553024,-1.7263166,-0.73528796,0.5050723,-0.72331244,-1.2385018,1.5235553,1.3484185,-0.0697055
antibiotic,1.1453825,1.4264375,0.43046927,1.7058944,-0.7161798,-0.09799096,-0.089869715,-1.0807682,0.15546069,1.860053,-0.06965373,0.9759773,-0.38694283,0.08115307,-1.1111974,-0.32047927,1.3593372,-0.10644023,1.2588553,0.23541239,-0.7316664,0.40081382,-0.07024774,-0.60383743,-1.2325307,-0.06739648,-0.6827738,1.689836,0.12392384,1.2260715,0.8328181,-0.0078949435
archaeon,1.0629549,1.0820843,0.7683149,1.4629358,-1.7431616,2.1943848,-0.63494164,-1.5894617,-0.143564,0.89625597,1.3881574,0.6387898,-0.6090392,1.003396,-0.81175166,0.6072826,1.4027067,-0.2409711,0.6202066,0.97680074,1.0378135,0.33184293,0.10380962,0.14397551,-1.6024952,0.23011674,-0.1086436,-0.45771074,0.05094425,1.0854797,0.6734707,-0.29254603
bacterium,0.19172573,0.68806636,0.425432,1.4303244,-1.4226953,1.3003758,-1.1326903,-0.53134763,-0.03328976,0.76288736,0.9861476,1.126205,-0.12539029,1.682832,-1.0420871,0.16767895,1.1229373,-0.24804023,1.4145143,0.33047926,1.51766,-1.497675,0.40156272,0.50724864,-0.45319667,0.026589196,0.43164176,-0.5439505,-0.46627897,1.3928498,1.2274563,0.5295502
behavior,0.3469589,0.27977163,-0.6392985,0.69634116,1.0661839,0.17105478,-0.19976674,-1.0816059,0.9287203,0.28259072,-0.77392036,-0.08572617,-0.61796236,-1.3836915,-0.5617541,0.3211159,0.10408689,-0.65447664,0.9874361,0.5199639,-0.79097706,0.9347585,0.35938507,-0.1204857,-0.26864567,-1.123998,0.025906645,0.1891163,-0.02448966,1.6992804,1.0105575,-0.498471
biologic_function,0.22205073,1.3171084,-0.2759571,0.3816249,-1.2665763,-1.4531437,-1.8775213,-0.5486043,0.5074015,-1.0726343,-1.4025599,0.16775149,-0.7715336,2.1560555,-0.70065516,-0.42655575,0.9793764,1.2258375,0.68749493,0.647094,-0.8459026,-0.36802816,1.3624349,0.27388826,1.1285878,0.13648209,0.18896176,1.0071055,0.010075603,1.4618242,1.6035672,-0.34667754
biologically_active_substance,0.002167304,0.4361399,0.48836973,1.2442734,-0.1681825,0.100304574,0.014534572,-1.2337818,0.3242768,1.5974566,0.73149943,0.57763857,0.30349165,-0.16397679,-1.4788349,-0.15397371,1.0700252,-0.28225657,1.2584,0.7408211,-1.8031877,-0.6280771,0.33070457,-0.509298,-0.21929993,0.9026888,0.65694314,1.3835151,-0.45494893,1.1402162,1.2540686,0.65111494
biomedical_occupation_or_discipline,-0.4436644,0.1453121,0.19732858,0.27134335,0.23755997,0.27140012,1.3173186,0.288206,-0.2975572,0.7030179,-0.19030628,-0.60534453,-0.59600943,0.09011616,-2.041143,0.9570521,1.9585599,0.26593757,-0.10093532,2.358748,0.11956588,0.9344471,1.71412,-0.036085878,-0.62781084,-0.07691564,0.43067387,-0.41755688,-0.15321055,0.9176805,-0.25128517,0.8964217
biomedical_or_dental_material,1.3651398,0.6587155,0.17287695,1.5319226,-1.761451,-0.700169,-0.03420632,-1.1368665,-0.42903286,2.0320523,0.54010963,1.1062497,-0.94832814,0.31638467,-0.74368715,0.76474965,1.5299828,0.9188642,1.336866,0.05577049,-1.2957543,0.13932586,-0.05590861,-0.88652134,-0.20830652,-0.26893103,-0.16078064,0.57832634,-0.8644906,1.5307992,-0.15761702,0.07656949
bird,0.7719919,0.42352548,0.5633138,0.753183,-2.1036646,0.8482722,-0.92752993,-1.1813955,0.38083383,0.9517866,1.3222955,0.8975957,0.09471894,1.0784689,-1.4024591,0.83521295,1.6569794,-0.71228987,0.4449451,0.505584,1.2706683,-0.021168757,0.20813137,0.26202655,-1.3477843,-0.4262765,-0.87919426,-0.8902042,-0.7478133,1.274544,0.41135383,1.1365921
body_location_or_region,-0.447924,-0.043352634,-0.8152941,1.7598674,-1.0964718,-0.7884259,0.9997578,-1.406173,0.08539793,0.16400398,-0.22656822,0.71767443,0.085258365,-0.51852274,-0.23462212,0.4013777,0.25264734,0.21947873,1.0107464,0.9521475,-0.15381353,-0.28362137,0.9991567,0.5133705,-0.8536992,0.794193,0.60242075,-0.6880015,-0.093324125,1.1955254,0.06178877,-1.071136
body_part_organ_or_organ_component,-0.75805837,-0.53835714,0.4925805,0.40069562,-1.0373988,-0.38998434,0.241867,-0.8697503,0.44476262,0.29951698,-1.0285634,0.6239296,-0.4066771,-0.71154517,-1.3624865,1.5824559,0.5908961,-0.8100599,0.36056158,0.5309577,-1.0130699,-0.63057935,2.1077113,-0.26612514,-1.871177,0.38627177,0.26098594,-1.3885357,-0.3168206,1.8064013,0.5979061,-0.3397811
body_space_or_junction,0.37776178,0.32357943,-0.079774715,0.7797787,-0.56057066,0.029027736,1.0190517,-1.2092049,0.74030167,-0.1483594,0.37974408,0.7736064,0.20188023,-0.94206864,-0.5325898,0.46745473,0.7765631,-0.43800655,0.7345988,1.3685925,0.14500085,-0.51202923,0.56975675,0.83546925,-1.5871145,0.77181095,0.640406,-0.59246826,0.18568592,1.2979456,0.7683916,-0.7672087
body_substance,-1.1711872,1.4625101,1.4098967,1.2104938,-0.0116051035,0.062069107,1.5512275,-1.6211965,0.68704915,0.05113851,1.0197946,0.84991837,-0.055982146,0.5861898,-0.64563924,-0.5023564,1.4555256,0.11335711,1.207943,1.3484596,-1.5289996,0.6494724,0.3833105,0.115263335,-0.7269723,1.2480527,0.49711093,0.56254995,0.972389,0.897469,1.7788856,0.5003085
body_system,0.6611796,-0.45841348,0.40293404,1.5221663,-0.29147798,-0.32097927,1.0754865,-1.427371,1.010384,0.98706865,-0.6957213,0.20075062,-0.2571279,-0.24071762,-1.3119421,0.07950816,0.13890027,-0.37560797,0.36356756,1.3119987,0.09556264,0.66795796,-0.100872025,-0.033103444,-0.8802923,0.7622342,0.26861975,-1.1319095,-0.71695393,1.6595292,-0.31796095,-1.1270698
carbohydrate,0.28074068,1.0476665,0.13304143,1.2787538,-1.1324025,-0.61241823,-0.21813293,-1.7024873,-0.33347505,1.452001,-0.31612986,1.309689,-0.1975428,0.39642176,-0.95617795,1.9368081,1.4259278,-0.866659,0.6915082,0.375586,-1.9524494,0.30948845,0.07388089,-0.5110754,0.10981564,-0.14255135,0.3098095,1.2446128,-0.05806375,1.284411,1.6148707,0.18926264
carbohydrate_sequence,-1.2661383,-0.91842705,0.74573207,2.4513962,-0.8898781,0.28508478,1.2039905,-1.0474325,0.78517306,-0.16875356,-0.20272416,0.9900207,0.52921337,-0.74379504,-0.25866234,1.3528888,1.0124924,-0.64441967,0.989161,0.87776273,0.05450046,1.2207909,1.5400467,0.14978015,-0.8511698,0.43501648,-0.1523534,-0.92301834,0.4335458,1.2619483,2.1473906,0.38797608
cell,-0.060110323,-0.354541,0.4024777,0.7016307,-1.0151554,0.39814025,0.8287821,-0.55336946,0.17814311,-0.093177125,-0.50278896,0.98436457,0.034519475,-1.0813032,-0.2974262,1.4299599,0.87520677,-0.23547664,0.6381218,1.4582247,-0.9580737,-0.42904678,1.1887951,-0.28346357,-0.8341446,1.0351259,-0.19693,-1.0978988,-0.5675366,1.6288619,0.15320338,-0.22391352
cell_component,-0.65994066,-0.27942717,-0.5316367,0.41230473,-1.7491704,-0.20622605,-0.07316288,-1.0324984,0.29496413,0.3114425,-0.10103974,0.37290862,0.30166268,-0.82537854,-1.1928967,2.0297282,-0.1893241,1.1619812,0.76139164,0.6416745,-1.1457828,-0.8311471,0.15987474,0.37975964,-1.4680287,0.83214676,0.6127332,-0.71724534,0.17321332,2.019271,0.36264172,-0.41082177
cell_function,-1.1186535,-0.15004145,-0.9773698,0.98369825,-1.7614902,-0.6952943,-2.1108527,-0.2402865,0.6508455,-1.6028725,-1.2783643,0.38668728,0.04141186,0.06698218,-1.9308317,-1.0237157,0.99736834,1.1447183,0.584711,0.689408,-0.8332328,-0.31612712,0.35505927,0.040565755,0.95941687,0.12809823,0.7212832,0.04758603,-1.8071173,1.1980711,0.59394294,-0.9138119
cell_or_molecular_dysfunction,0.56811404,-1.3732228,-0.7332969,0.34261596,-0.94969517,-1.1118011,-1.6604748,-1.1544595,0.6601154,-0.25651655,-1.3797802,-0.33247992,-0.31227833,1.3542852,-0.97366846,-0.7311491,0.25998527,0.12055991,1.3427935,0.124946654,-0.41259694,-1.4735843,0.6010276,-1.1192385,0.54732084,0.9093731,0.33863753,1.4082112,0.06222272,1.3918735,0.9569326,-0.65818036
chemical,-0.6521956,0.44891173,0.101125054,1.4018034,-1.3576642,-0.66088796,0.042210676,-0.57660115,0.08782876,2.3214576,0.21911326,0.49775437,-0.27184147,0.98085946,-0.72400856,0.941909,0.9307152,-0.0160617,0.2629287,-0.19216353,-1.1412448,0.22964683,0.3607653,-1.1887349,0.018956682,0.29106244,-0.032537654,1.6674763,-0.82793635,2.0120547,1.0684408,0.1006457
chemical_viewed_functionally,-0.3261454,1.3641962,-0.24160518,1.6201472,-1.040066,0.29286164,-0.018787099,-1.3166001,-0.56132007,1.7026674,0.22276263,1.0128834,-0.29671094,0.55983007,-1.0622649,-0.103672944,0.5886454,0.44855678,-0.1464609,0.31853133,-1.3895597,-0.29993537,-0.548489,-1.1503168,0.2798762,0.5987476,0.104774036,1.6366221,-0.70804304,2.0385177,1.0672071,-0.15393186
chemical_viewed_structurally,0.25912023,1.0427331,0.34674624,1.5942997,-0.7958068,-0.5638933,-0.020627763,-0.5982139,0.21553826,2.3523142,0.07632018,1.7846243,0.34183714,0.21123637,-1.6286039,1.3492466,0.75705546,0.32720473,0.5241803,0.2981124,-1.5577409,0.43433124,0.2196812,-0.55260843,0.06893591,0.19058825,-0.55877304,1.4293782,-0.9732591,2.0029721,1.1098756,0.1743777
classification,-1.9308583,-0.06648994,-0.006436577,0.7727806,0.4936623,0.23842655,0.84718823,-3.2721572,-0.23568977,0.115790464,-0.045736533,1.0497885,-0.41432524,0.5253478,-1.266756,1.5488784,0.99408346,-0.23246361,1.319043,1.1763867,2.071873,0.44634277,0.15106812,0.98889136,0.09861439,0.7622855,0.39462435,0.12596054,0.10068715,2.520736,0.120495595,-0.107742086
clinical_attribute,0.017423222,-0.6436728,-0.4532963,0.3487322,-0.83841693,-0.55833906,-0.89834774,-0.6591726,-0.25405842,1.8362494,-0.69820726,1.5214478,0.2182358,3.3678231,-0.579768,0.31209964,1.4050657,2.0802317,1.9477909,1.0716746,0.5158994,0.3116242,-0.4972854,0.13986818,0.80747443,-0.019488987,-0.73188615,-0.48429066,-0.07058331,1.8531442,2.0567067,0.21213661
clinical_drug,-0.40727073,1.8651342,-0.36591008,-0.1159219,0.90447885,0.16213508,0.8800329,-2.0153759,0.38968608,-0.37029815,-1.4165623,2.0659895,-0.9372465,1.4516674,-1.2595838,0.5227629,0.28913766,0.2321315,0.67836684,0.46107128,1.6067482,0.0457093,0.76228786,0.44692487,0.9710186,2.8881416,-1.0071256,-0.20709364,-0.26672924,3.1381264,0.7822789,-0.56385803
conceptual_entity,0.69038093,0.82417226,-0.29851094,1.917271,-0.3875173,-0.97525704,1.4246715,-0.06602038,0.25758302,0.4238739,-0.5719019,0.0045747417,0.7296599,-0.14744097,-1.0500299,0.994572,0.4621384,0.35242695,-0.4743962,-0.3259687,0.8958623,1.4004977,1.3197021,-0.9016139,0.0143652605,0.8169152,-0.6542605,-0.79762584,-0.5712358,1.4354993,2.316726,0.5587394
congenital_abnormality,1.1471146,-0.80661696,-0.20949537,0.8984337,-0.4841621,-1.1364413,-1.4131805,-1.0519192,0.47854537,-0.28061196,-1.7634448,-1.3707906,-0.45191973,-0.27555317,-1.3386768,-0.084938854,0.45580474,0.07903165,1.3209233,0.8045274,0.9425802,-1.0051517,1.4548689,0.5015956,0.011119283,1.7033364,0.17988996,1.1282992,-0.21214935,1.6192915,0.76495624,0.20414263
daily_or_recreational_activity,2.3895676,-0.21503241,0.1378597,2.1966372,-1.0183134,-0.45273015,0.16110998,-2.2164521,-0.87975246,0.29219285,-0.6279269,0.44290733,-0.86887634,-0.6859003,-0.13458714,0.05934889,1.9361217,0.5602199,0.81896675,1.5331969,-0.19130208,0.86948735,-0.45809302,-1.5222466,1.4022965,-1.7326683,-0.37388438,-1.5346936,-0.052830663,1.7719864,1.6571344,-0.5898412
diagnostic_procedure,0.4286309,-0.831853,-1.2195737,1.1116657,-1.044131,1.9235818,-0.49648607,-0.16367327,0.5568305,0.9064672,-0.49960867,1.9019719,0.43705958,-0.46816638,-1.0660198,-1.743335,1.111669,-0.115723155,0.4994044,0.43740237,-0.050784726,0.7964158,-0.23131047,-0.7661441,0.3874471,-1.0977486,0.22418183,-1.5089571,-0.2654947,1.3418438,1.885715,-0.19936877
disease_or_syndrome,0.7690414,-1.4001002,-0.71524733,0.7274168,-0.93068993,-0.9556292,-1.4875343,-0.42982078,0.58120084,-0.3337384,-0.9089356,-0.57380533,0.6502389,0.9059858,-1.0570941,-0.9065763,0.032174088,-0.90384996,1.3370813,-0.08139684,-0.44538435,-1.3315946,0.42699188,-1.1286026,0.8051583,0.66230017,0.63487864,1.2610108,1.021841,1.3885478,0.9076344,0.5338579
drug_delivery_device,-0.15854675,1.223967,-0.3402859,1.4834871,0.045725856,0.287471,1.1558431,-1.620538,-0.35153458,0.7569729,-0.5612702,2.0785348,-0.8309051,0.20152001,-0.87603515,0.0039555454,0.73979044,-0.70100945,0.43516892,0.7953024,1.2950852,1.380083,0.20610097,0.7429987,1.0699635,1.4766859,-0.9748564,0.5467172,1.1030508,1.8861094,0.66237867,0.4480055
educational_activity,1.0044757,-1.4025615,0.07126629,2.1010473,-0.5503907,0.18630645,0.022153314,-1.5106441,0.03375882,0.21758834,-0.41224256,1.0612534,-0.95133513,-0.6412716,-0.7353827,0.27524808,1.7225679,-0.69733495,1.079481,0.5200928,-0.1183654,2.732645,-0.22986044,-0.27076712,0.6612953,-1.60009,1.7764704,-1.6960429,1.2445315,1.7468555,1.0743041,-0.5416428
eicosanoid,-0.113783546,1.0243762,0.012268508,1.2460213,-0.8199569,-0.5544085,-0.033057302,-1.6347648,-0.7219793,1.6594024,0.24130578,0.8029801,-0.3583696,1.2650018,-1.3586069,1.3019041,1.2401766,-0.36407605,1.5125269,0.76060957,-2.2005806,0.6914068,0.05682558,-0.7192671,-0.18915492,0.68919235,0.8748268,1.3337795,-0.12653236,1.4369383,1.0640587,0.17331614
element_ion_or_isotope,-0.3107637,0.4037522,0.29551753,1.2285682,-0.8598185,0.28059316,-0.16369294,-1.0552098,-0.24686177,2.1421123,0.56506073,1.5016327,-0.858265,0.18746829,-0.056010187,0.46617118,1.5347173,-0.5955724,0.8589195,1.8480952,-0.9233518,0.6345566,-0.093251556,-1.3133194,-0.33688626,0.42816755,0.2575036,1.1190203,0.06372179,1.7652781,0.83000493,0.20405982
embryonic_structure,-0.8048641,0.10519105,0.68236125,0.88198966,-0.8233494,-0.5172704,1.1334605,-0.30116153,0.35030654,-0.629752,-0.9848102,0.8573248,-0.13584976,-0.49552977,-1.1492102,1.3858033,0.49023336,-0.4631786,1.0439942,1.8722934,-0.65220565,-0.14299847,0.39724746,-0.0704954,-0.20837899,1.5282574,0.006361176,-1.074378,0.296869,2.0801013,0.45955276,-0.31008163
entity,0.15148973,-0.4575186,-0.8518072,2.2463887,-0.88122016,-0.50610816,1.4327943,-0.22092351,1.6504622,1.4877294,-0.64118075,0.5917438,0.28888434,1.4639262,-0.37341315,0.982615,-0.8230875,-0.2794981,-0.32751632,-0.3862852,0.3601385,0.8445094,0.4725702,0.05343086,-0.62755567,2.429659,-0.72539246,-1.1939437,-0.35486567,1.4176741,2.1104164,0.18869951
environmental_effect_of_humans,0.10360086,0.07260858,-1.0174022,1.056202,-0.12833309,-0.7144322,-0.870919,-1.07516,0.16488692,-0.35005924,-1.7478508,1.0157546,-0.43139762,-0.18435116,-0.6519398,0.4801272,0.8306308,1.3509893,0.45813438,0.8696023,0.19044593,0.4203836,0.34318247,-0.46939218,-0.94926435,0.10517458,0.033504978,-0.22348775,0.2474792,1.7816855,1.676856,-0.5574741
enzyme,-0.79328144,0.5034776,1.7577392,1.3206168,-0.29552025,-0.42392498,-0.10960846,-1.1863048,1.5107945,2.0390382,0.6682581,0.6361511,0.22383225,-0.117495395,-1.6139519,0.58538806,1.0864593,0.41927108,1.3842732,1.4513334,-1.5165045,-1.0076594,0.113262385,-0.6603268,-0.44440335,1.0909239,-0.60188115,1.2872777,0.26428768,1.1772631,0.8471286,-0.049631063
event,1.231787,0.65622705,0.26040164,3.9364946,-1.5484374,-0.07645569,0.52554905,-0.51394665,0.81891924,-1.4107609,-1.9515095,0.32095587,0.020395154,0.51914644,0.39044625,-0.4119469,-0.13984756,0.31200597,-0.9511398,0.8500507,-0.69444054,-0.04573978,0.37239406,0.9342658,2.0080464,-1.9940361,-0.2863935,0.24765702,-0.42203856,1.7072027,2.070226,1.2288511
experimental_model_of_disease,0.3334934,-1.0495735,-0.118751064,0.1978839,-1.1136255,-0.8336879,-1.496104,-0.5950987,-0.63671345,-0.2912702,-0.89733875,-0.47798952,0.41198793,0.85327315,-0.87450266,-0.46952283,0.19552118,-0.5630762,1.2766185,0.7814667,-0.40168798,-1.4098967,0.055253785,-0.19925983,0.5097071,0.48827717,0.09962726,1.2809345,-0.093809135,1.5277894,0.70670223,0.05949442
family_group,1.0172682,-1.5209459,0.7768632,1.522018,-1.9073763,-0.22934036,1.4536146,-0.5960324,-0.050128456,-0.0065983757,1.1199179,0.94840217,0.09527112,-0.661429,-0.8010001,-0.27152628,1.4493177,0.34614658,1.0978861,0.53400934,0.7473476,1.2300112,-0.22307035,0.76654786,0.27215925,1.4301062,-0.6750833,0.53477234,-0.050373346,1.1142234,0.77938974,0.8123143
finding,0.836527,-0.930611,0.8635071,1.6051933,-0.96597946,-2.6025763,-0.03133346,-0.740158,0.0126305455,1.3175377,-0.7275029,1.2783365,-0.2382699,-0.8602225,-0.42154345,1.2637445,1.390398,-0.8077169,0.61703414,0.32158002,-0.9833115,0.53435504,0.94670695,-0.16031346,0.061900876,-0.6369517,0.019023629,-0.6994451,0.11126547,1.5873586,0.5471752,-0.6507288
fish,0.3382993,1.2908677,0.45603585,1.0095029,-1.5816268,0.8503526,-0.72232854,-1.3532461,0.0035741394,1.4795818,1.4023318,0.7634796,0.58688873,1.5332948,-1.2116201,1.7943578,1.3977561,-1.141626,0.88384724,0.38565925,0.66230685,-0.3022412,-0.12625284,0.78152275,-0.3873901,-1.6149726,-0.41795152,-0.8362975,-0.21056798,1.3659263,0.4777354,0.15098535
food,0.29936904,0.67547673,-0.083072945,1.9654005,-2.2422726,0.6536325,-0.26667428,0.12802826,-0.21626092,2.1100461,0.81935185,3.1802166,-0.24083352,0.60422695,-1.1262494,1.2149357,1.1327363,-0.026975011,1.8667109,0.4472998,-1.422917,0.6727712,0.9390441,0.23386887,0.45707247,0.01148979,-0.08164576,0.37713462,0.3969951,2.3970225,0.49367967,-0.043619804
fully_formed_anatomical_structure,-0.664972,0.4059036,-0.35045367,1.1411932,-0.6121744,-0.89931625,1.6051149,0.37778535,0.3165058,-0.26251546,-0.5068981,1.2740564,-0.249958,-0.7458554,-1.2817304,1.0042205,1.15459,-0.59070253,0.378589,0.8310332,-1.477387,-0.41037035,0.0952604,-0.37736183,-0.8268526,1.5484917,-0.411229,-1.4074093,-0.26619157,2.111323,1.0406027,-0.6540457
functional_concept,0.95168144,0.025751662,-0.6884875,2.3909128,-1.233354,0.4723138,0.07297624,-1.6881464,-0.36067048,0.4678411,-0.02710982,0.5680978,-0.8028833,-0.2791134,0.070732035,1.0509633,0.15293884,0.22809312,0.43935332,1.6437578,0.31673163,0.12553667,-0.3200972,-0.52239406,-0.1920745,0.5915895,0.6379872,-0.606547,-0.41461933,1.5989329,2.1925302,0.5869624
fungus,0.5579083,0.7228983,0.94528836,1.0262492,-1.7557261,1.6036469,-0.8441944,-1.8854613,-1.4470147,1.1046531,0.94145614,0.6851708,1.03051,2.3411236,-1.0569347,0.38055754,1.8423892,-0.38733894,0.5128647,1.0805105,1.1045433,-1.687275,0.108491115,1.1965505,-0.65433013,1.0342506,1.2943091,-0.45083672,-0.74126506,0.9606908,1.6325252,0.030742604
gene_or_genome,-0.5399997,-0.103968605,-0.29113188,-0.14770396,-1.4748006,-0.43324077,-0.7505944,-1.290752,-0.08523457,-0.26130402,-0.033771127,1.2834358,0.6555849,-0.8328862,0.12687919,1.5419163,0.6954805,-0.79794043,0.89800704,0.3434237,-1.2217307,-0.9720671,2.2891936,0.2533529,-0.9741882,1.299654,0.5097482,-0.9033988,0.19525321,2.4082174,1.2982887,-0.29958606
genetic_function,-0.258718,-0.21725848,-0.17035273,0.9541297,-0.93225205,-0.9364073,-2.19607,0.11018729,0.6400105,-1.8696748,-1.1806946,0.24618994,-0.03888391,0.86240816,-1.8178784,-0.23307854,0.8515207,0.9762125,0.32609144,1.0195153,-0.8592869,-0.30111352,0.4122725,0.13741921,-0.00644286,0.19898455,-0.82287043,-0.20641465,-0.46284723,1.2561285,1.687005,-0.40478474
geographic_area,0.896969,-0.7530952,0.3594148,2.022367,-1.4288005,-0.105665654,0.030809483,-0.87210435,0.16741909,-0.68115693,-0.34860545,1.8520322,-0.47445354,0.091698505,-0.7956027,0.21897389,1.2937324,0.29679585,2.256308,0.76196384,-0.09238587,0.08624691,-0.09815746,0.47915104,-0.4518242,0.9235876,0.29116714,-0.7969474,0.58013374,1.5175539,0.7451137,0.60596853
governmental_or_regulatory_activity,-0.116105124,-1.0949829,-0.6477844,1.9438101,-0.76303434,0.21917447,0.29708105,-0.6579057,0.3416484,0.36304045,-0.39827436,0.8808394,-0.22542728,-0.38139102,-0.28594428,-0.35299742,1.7886257,-0.55634654,1.3951434,1.2069496,-0.3171114,3.5688164,0.26430824,-0.86393136,0.40081206,-1.6882035,-0.23927908,-1.2587073,0.318438,1.6083237,1.6934974,0.09458213
group,2.0809977,-0.5507258,1.7032568,1.6755892,-1.9013792,-1.3109952,1.5830541,-0.23426431,-0.2930382,0.259716,0.6093538,0.9927103,-0.32458723,-0.5529579,-0.5287056,-0.0071371496,0.977405,-0.0754158,0.65333533,1.2527657,1.5075257,0.87805724,-0.670688,0.16946042,0.28242192,1.1394287,0.23450239,0.90159225,-1.58548,1.7054199,0.8024604,-1.1009941
group_attribute,-0.9678158,0.08405928,-0.584665,1.2307684,-2.614328,0.93245775,1.4811883,-1.0343603,-0.8675049,-0.2753497,-0.027351532,0.18224011,0.20824099,-0.506592,-0.4122717,0.77307945,1.2580353,0.1895011,2.3439407,2.4170098,0.75946516,1.1586299,0.9500224,0.13041557,0.3775836,0.21145256,-0.35074955,0.53669256,-0.026228862,1.9173995,0.5884617,0.60707617
hazardous_or_poisonous_substance,-0.3504081,0.8130905,-0.09691292,1.5476774,-0.6245013,-0.21922503,-0.38970575,-1.0640596,0.5972326,2.113537,0.2858549,0.7750536,-0.018142087,0.073486924,-0.656195,0.26535314,1.8526875,0.64043957,1.4218915,1.4044901,-1.4779406,0.07144592,0.57065254,-0.061300457,-0.4139927,0.43295762,0.44094747,1.8958055,0.073288,1.6228076,0.54666775,-0.27159366
health_care_activity,1.1796376,-0.6043445,0.57454795,1.7918255,-0.6744839,2.0765321,-0.69516313,-0.41493532,0.41783434,1.4980077,-0.8437393,1.2955595,-0.41332102,0.47193602,-0.39917558,-0.15037927,1.5486805,0.14917253,1.4402481,0.24189489,-0.6052405,1.2753788,0.21592623,-0.12289557,2.0051198,-1.5613897,-0.19849476,-1.0431882,-0.45065272,2.0549104,1.0693711,-0.12810947
health_care_related_organization,0.1572791,-0.7563378,-0.578777,1.235587,-1.8886372,0.9906961,0.7838732,-1.6631627,-0.18628758,0.53009844,0.44333035,0.25248203,0.38849294,-0.07843066,-0.90406317,0.5705724,0.5119543,0.793454,0.5568462,0.7369693,1.6962198,1.2852217,-0.08889075,0.92879415,0.43766364,-0.48500252,0.44980013,-2.0104182,0.39817196,2.0554116,1.2189934,0.06488175
hormone,-0.16902275,1.4441808,-0.09351276,1.0628756,-0.31096265,-0.29400817,0.03903372,-1.1553035,-0.17693816,2.0759752,0.5684091,0.79038006,0.21646795,-0.04345178,-1.8384094,0.1355021,1.7771373,-0.23685317,1.5342664,1.1087774,-1.8998042,-0.9496195,0.82266456,-0.25262105,-0.38562924,0.99521124,-0.13078031,1.4503314,-0.51343524,1.2579119,1.1339567,-0.27290574
human,1.2466216,1.1793579,0.96705323,1.3281032,-2.0347524,0.6794059,-0.8073825,-1.4784466,-0.30307603,1.239456,1.0295945,0.74146396,-0.2564171,1.0071949,-0.9539782,0.9332997,1.3894151,-0.24875881,0.43372908,0.33253226,1.0471497,-0.40313435,-0.5233432,0.15517277,-0.12586713,-1.0795718,-0.7164783,-0.8824446,-0.6079764,1.2388191,0.39069533,0.2804113
human_caused_phenomenon_or_process,0.28519678,0.4344224,-0.9400961,1.8191912,-0.8647129,1.105754,-0.4069758,-1.0999302,0.048047315,0.41137654,-2.2464268,0.82622004,-0.35822746,0.058259577,-1.3243265,0.5864904,-0.45220307,0.03738268,0.5864168,0.47931036,0.7049871,0.24832864,0.3443039,0.7365793,-0.56872517,0.13003273,-0.7434601,-0.53038514,0.15801892,2.4211476,1.3448977,-0.53059053
idea_or_concept,0.30681533,-0.8753144,-0.060048938,1.291669,-1.4165457,-0.08233892,0.2531807,-0.74495447,0.4943613,0.5274356,-0.0061170273,0.746393,0.35393822,-0.73005366,-0.69997823,0.7472563,1.2065275,-0.6056378,-0.2128603,-0.47919866,0.15466875,1.031225,0.5050156,0.02524142,-0.4007691,1.3362683,-0.13861193,-0.79112834,-0.33618736,1.4650285,1.038712,-0.5357947
immunologic_factor,-0.3310923,0.7659074,1.1301616,1.4038393,-0.059152756,0.40103844,0.07205411,-1.4440005,-0.25374767,1.7243272,0.47313914,0.42585766,-0.57960993,-0.247648,-1.8222451,0.5957175,1.0530834,-0.13853316,1.1423494,0.6135237,-1.960597,-1.0094117,-0.27977356,-0.7487846,0.011559557,0.67687947,-0.555574,1.3110887,-0.38339475,1.2378544,0.93560874,0.42392263
indicator_reagent_or_diagnostic_aid,0.08678016,0.8633224,0.43034303,1.553886,-1.798065,0.49541688,0.085164346,-1.0091325,-1.1511686,1.3294268,0.22471298,0.8496188,-0.2412282,0.108544365,-0.78743356,0.33408082,1.0756528,0.33600855,1.033668,0.04126733,-1.5579667,0.04511097,0.18654476,-1.6279593,1.2481828,0.89574575,0.2719637,1.087534,0.034280892,1.3355416,1.1273837,-0.30391854
individual_behavior,0.289496,-0.5301965,-1.0018529,1.1558651,0.5015621,-0.1725081,-0.28848493,-1.0484552,0.5395655,0.2860901,-0.5806209,0.101970024,0.33361417,-0.89936996,-1.2053537,0.5041172,0.18697731,-0.5257061,1.3990552,1.4301343,-0.8129781,0.4711487,0.38102546,0.11139876,-0.4155241,-1.0979766,0.33403552,-0.29504913,0.60246867,1.2448114,1.3897127,0.30199954
injury_or_poisoning,0.72035056,-1.277181,1.2036105,0.9209498,-0.6535808,-1.2945669,-1.1895784,-0.8176275,0.091076024,-0.13696705,-1.6049869,-0.76788384,-0.78309345,-0.4292522,-1.3070812,-0.83349097,0.34130904,0.57294333,1.3898661,-0.25991368,0.2741439,-0.7734693,0.40448546,1.222738,-0.36138326,1.1758925,-1.0056199,1.4341192,-0.57822746,1.6970903,0.42336747,-1.0229652
inorganic_chemical,0.2712623,0.22942878,-0.3873637,1.3660003,-1.8268682,-0.09716747,-0.12679765,-1.3038149,0.5730114,1.7364206,0.12964693,1.0025432,-0.34115738,0.927406,-0.47518533,1.3456562,1.7979428,0.760331,0.8355452,0.41190347,-1.130769,0.47584727,-0.3677067,-1.2664055,0.49391013,-0.023774419,0.46635163,1.206073,-0.17343134,1.316751,1.0441209,0.086095735
intellectual_product,-0.23151964,0.058157735,-0.603707,1.3360703,0.31530458,0.2697488,0.629125,-2.0614543,0.08171498,0.2543265,0.032117307,1.1339302,-0.5296353,-0.14269455,-1.2248604,1.1293429,0.5457342,0.20744108,1.0796976,0.12949033,2.2735074,0.47300938,0.25067455,0.8781847,0.5021002,1.1765395,0.046117015,-1.1803753,0.3719511,1.844107,0.6064759,-0.486526
invertebrate,1.1418847,0.8547162,0.66740185,1.4624581,-1.7558073,1.5219723,-0.9967532,-1.0857314,0.25718516,1.27966,1.900532,0.8847185,-0.11227986,0.28078783,-1.6246562,1.3540096,1.7878052,0.308729,0.4424276,-0.032175813,1.7622051,-0.38981405,-0.3489895,-0.5212745,-0.07337402,-0.17119156,-0.04796794,-0.024724955,0.018776698,1.5191448,0.8491432,0.3205073
laboratory_or_test_result,0.6542915,-0.19554119,0.055674713,1.6960912,-0.441405,-2.6620116,-0.7043866,-0.9526822,-0.68917555,0.14168054,-0.5824084,0.9529626,-0.20146966,-0.90822273,-0.76497656,0.96685606,0.30593053,-0.6742309,0.9478611,0.8614985,-1.2807388,-0.1261957,0.9969314,0.10421831,-0.13649419,-0.6806608,0.22828391,0.03288332,0.6364703,1.7781274,0.5111674,-0.017855216
laboratory_procedure,1.3701583,-0.5907668,-0.095988005,1.353536,-0.9120254,2.1916616,-0.60370976,-0.5717087,1.1480844,0.69626284,-1.0037837,0.72487265,-0.46037406,-0.5093622,-0.9383702,-0.09927024,1.8450165,0.40687653,1.134308,0.4832795,-0.19532019,0.7853716,-0.6212258,-1.392581,0.6947604,-0.8275274,-0.54143155,-1.6918068,0.9443952,1.3888433,1.782747,-0.45203245
language,1.4349967,-0.60242236,0.43997213,2.6118526,-2.0535324,0.057991102,0.5436258,-2.5247808,1.9089078,0.9516665,-0.62091553,1.6924627,-0.26138592,-0.4124654,-0.28093305,1.137356,2.0376008,0.44922817,1.704151,0.5820515,0.5473986,0.15088564,-0.26031485,0.05816194,-0.7176109,-0.202685,0.39866537,-0.25835893,-0.71446866,2.0020494,0.19333072,-0.08385739
lipid,-0.7336754,1.3706269,0.15402289,1.8331907,-0.97963244,-0.4620554,-0.04669884,-1.1740001,0.61559826,1.4687042,0.5242113,0.5589336,0.8081539,0.7491459,-1.2321609,2.1070876,1.0002882,0.31059682,1.2165135,0.29372022,-2.5330021,0.75516146,0.22581479,-0.9216539,-0.29103655,-0.45582446,-0.3326112,1.0361456,-0.4313206,1.359697,2.140462,0.1494936
machine_activity,2.1214743,0.4047905,0.25402296,0.8233763,-0.81975865,1.4734282,0.42279422,-2.2750583,1.2289582,0.11226605,-0.005902092,0.36241627,0.024249833,-1.2468411,-1.2722591,0.30277014,1.6461042,0.5656504,1.0851946,-0.0032261787,0.30144954,0.13180305,1.0965555,-0.5797618,-0.55263865,-2.4772017,-0.098342426,-0.91368425,-2.55436,2.390677,1.3484042,-0.5934765
mammal,-0.20496164,1.7319162,0.74300337,0.87602574,-1.3900008,0.9739682,-1.4059885,-1.4141344,0.34120032,1.1083272,0.76069456,1.1779333,0.29841107,0.89636636,-0.9719871,1.4126015,1.593903,-0.40773848,-0.10074191,0.87937486,1.5270988,0.09687883,2.0065503,0.20599945,-0.8008616,-1.3653318,-0.5287367,-0.7226352,0.44866863,1.5982072,0.8308636,0.027775122
manufactured_object,-0.43555883,-0.44113597,-1.244155,0.5310851,-0.098168135,-0.105098546,0.6381437,-1.598152,-0.64311093,1.222759,-0.6093437,2.404499,0.26598218,0.012419639,-1.7232416,0.8341654,1.6202457,0.35256237,0.59971285,0.4510332,0.83449674,0.392879,0.9829009,-0.29505384,0.96641344,2.8166578,0.3923302,0.5196836,1.0396198,1.7716562,0.30276164,0.15241665
medical_device,-0.24638827,1.6053976,-0.32252336,0.7938905,-0.44453833,-0.06385164,0.48069715,-2.3309965,-0.9736699,0.19496891,-0.11033148,1.8839077,0.07210756,0.42962888,-0.2793221,-0.21855463,1.2523912,-0.62724835,0.6348771,0.11152533,0.65287924,1.6477435,1.0503546,0.18529081,0.16344233,1.6193545,0.46243995,0.58515316,1.6908189,1.7774783,1.0071025,0.5172051
mental_or_behavioral_dysfunction,0.4635956,-1.159775,-0.2548602,-0.05364848,-0.66708785,-0.6063792,-1.383064,-0.39071587,0.3271595,-0.121209376,-0.9278803,-0.74125665,-0.27955317,1.1497467,-0.7126649,-0.7554153,0.8014188,0.3027049,1.0524198,0.41322878,-0.3206246,-1.2057985,1.7301627,0.20189941,-0.21893437,0.6040241,0.29390222,1.0914822,-0.08452505,1.2533183,0.6314902,0.1426454
mental_process,-0.32659307,0.16632831,-1.0693803,0.25296006,-0.75746286,-0.378288,-1.4826878,0.10373375,-1.0806047,-0.9346935,-0.6717394,0.48197937,-0.14663903,0.62749344,-1.2327728,-0.2665786,1.2161577,0.82233816,0.6968541,-0.9352567,-0.30753145,-0.008986,0.46907076,0.2063378,1.1100717,0.09746458,-0.36594954,0.2331799,-0.39163122,1.1116849,0.317239,0.18900163
molecular_biology_research_technique,1.4678713,-1.7592154,-0.52091384,1.5052475,-1.2332424,0.85010856,-0.13397045,-0.54938585,1.1671745,0.7945903,-0.010185056,0.90038663,-0.5058809,-0.58854777,-0.79114676,-0.4159072,1.9695922,0.83963,0.34490305,0.85425866,0.4605597,1.690751,-0.29742515,0.15903968,0.97047156,-1.7570444,0.54900795,-2.2701633,-0.4271516,1.7021717,2.7018769,-0.60977334
molecular_function,0.20603074,-0.53548515,-0.45128003,0.85903466,-1.1871387,-0.6221564,-2.0652173,-0.5197759,0.4354934,-1.6864518,-0.9928773,0.47278908,0.9135289,1.5354955,-1.844653,-0.53411126,0.9452992,1.7967788,0.38740358,0.75716305,-0.7379562,-0.34727043,0.3757449,-0.67073005,-0.58895355,-0.55165035,1.4322604,0.29886448,-0.83928955,1.3140153,0.7745631,-1.5700899
molecular_sequence,0.36805984,-0.04339437,-0.7170302,1.554142,-0.9134436,-0.3186357,0.4777057,-1.2175481,0.6200989,0.6449191,0.51240414,0.4176324,0.08875105,-0.47380066,-0.6250539,1.278252,0.59810066,0.57247376,0.6632965,0.6679545,0.10140195,1.3822066,-0.3118087,-0.02630577,-1.141463,0.2363055,-0.07755404,-1.2949778,0.21797661,1.5255407,1.5159322,-0.3169368
natural_phenomenon_or_process,0.028465265,0.49982172,-0.4833323,1.1854534,-1.2777388,0.9562196,-1.3263816,-1.3496253,-0.015363713,-0.7719171,-1.5675013,-0.0051268116,-0.22482936,1.4555199,-0.7420263,-0.21744035,0.11400956,0.5207055,-0.10309083,0.41069892,-1.0272636,-0.003762783,0.15239376,-2.0054736,0.1677137,-0.15309432,-0.25092354,0.7043681,0.51618266,1.6068438,1.5308467,-0.07428692
neoplastic_process,0.89588064,-1.7258383,-0.7536795,0.5143084,-1.4967809,-0.92905325,-1.2356896,-0.9142078,-0.29683965,-0.22039634,-1.1228734,-0.5616105,-0.46309662,1.3341155,-1.247189,-0.58882016,0.2510114,0.20619729,1.3024231,-0.35270894,-0.48870507,-1.4888481,-0.33486968,0.06410181,0.36643443,0.4774898,0.22148041,1.4587481,-0.21698897,1.4273434,0.2879627,0.95499605
neuroreactive_substance_or_biogenic_amine,-0.024904463,0.6551021,0.6114311,1.7343026,-0.4677229,0.5638474,-0.008042259,-1.5293965,0.22988302,1.671401,-0.14093012,0.6220408,-0.27703062,-0.20700517,-1.2472987,0.47212535,1.048029,0.867271,1.6331034,0.7263887,-2.1878936,-0.96653897,0.7875766,0.29234296,0.037277732,0.6286756,0.3718215,1.3390948,-0.36644143,1.2342345,0.68845576,-0.45786408
nucleic_acid_nucleoside_or_nucleotide,0.18646048,1.1891968,0.18731427,1.4365065,-0.9626441,-0.32170475,0.04073332,-0.8884551,-0.24801959,1.7239941,0.4200532,1.0711724,-1.7686226,0.2922968,-1.2843027,0.9121863,1.1272755,0.19417961,0.85150003,0.80525404,-2.003742,0.10779168,-0.3562836,-1.5094581,0.38101977,-0.113112,0.029294886,1.0307642,-0.70817447,1.4744166,1.495618,0.45258284
nucleotide_sequence,0.6608687,0.14085618,0.06491478,2.5612164,-1.0134095,0.5200926,0.08608306,-1.6615925,0.8629695,-0.6035255,-0.6597633,0.2986724,0.37423396,-0.2742961,-0.8378025,0.41328973,0.26506895,0.41062027,1.6980933,0.34432968,-0.5046044,-0.05875571,0.9803042,0.4705514,0.060019553,1.8798673,-0.2507742,-0.46406654,0.6020914,1.3899318,1.2275057,-0.6105063
occupation_or_discipline,-0.326645,0.49353555,0.048851848,0.13464883,0.14169382,-0.16080408,1.5702327,0.27907276,-0.46550918,0.7620888,-0.24103928,-0.7206915,-0.56773144,0.64877677,-2.1378384,0.89847744,1.7623804,-0.23573527,-0.0638993,2.7510037,0.10180662,0.8671707,1.0845484,0.015272563,-0.5552175,0.025113646,0.7661969,-0.44735542,-0.34947807,0.8297987,-0.09980479,0.009868674
occupational_activity,0.62536883,-0.58095175,-1.9064722,1.9015509,-1.0244519,-0.034971565,0.23267648,-1.5768874,1.0032231,0.6774259,-0.37947044,1.4003372,-0.58154905,-0.27005637,-0.46468195,-0.11921624,0.9477288,0.05746324,0.62084854,0.5293733,0.21331598,1.957019,-0.2689217,0.68159956,1.3192981,-1.4795383,0.4102908,-1.9563571,0.77762383,1.5709552,0.9184374,-0.075515114
organ_or_tissue_function,-0.03794184,0.32580632,-0.59840673,0.5348142,-1.144486,-0.9133958,-1.916892,-0.75310224,0.058477018,-1.4473755,-1.2153301,0.11991875,0.021938143,1.5100085,-1.520421,-0.5791278,0.7990797,0.87370163,0.48787338,0.42393145,-0.697137,-0.34023935,0.9322748,0.265563,0.20796695,-0.6758439,-1.2551202,0.17542012,-0.42211682,1.4109972,0.43941626,-0.68012893
organic_chemical,-0.2762833,0.92537725,0.48541436,1.5525893,-1.3095104,-0.37711355,-0.15379404,-1.567903,-0.14198354,1.716129,-0.29811153,0.766059,-0.26736218,-0.7831299,-1.3388082,2.9089274,0.8875099,-0.5575227,0.9647884,0.26313892,-1.5230973,0.5651169,-0.15186867,-0.4612968,-0.08097202,0.29503474,0.66354215,1.5923656,0.007467193,1.3963996,1.2114952,0.4852297
organism,-0.064789206,0.149346,-0.307019,1.251425,-1.5277921,1.7654094,-1.4503667,-0.9997513,0.630833,1.3804431,1.8355733,0.33628368,-0.4864338,1.1266019,-1.1194886,0.91687137,0.07348973,0.37469244,0.83042395,0.5825748,1.984337,-0.28775525,0.40607065,-0.03724029,-0.64979357,-0.32075724,-0.3805004,-0.9024531,-0.2836176,1.8602271,1.2592407,0.74428505
organism_attribute,-0.77547866,-0.60001403,-0.33515662,0.7971038,-1.3769178,-1.0600609,-0.9055551,-1.5443617,-0.49930164,1.3431076,-0.9206905,1.3074079,0.747288,1.417779,-0.20156752,0.07409499,1.1493375,2.156106,2.1871629,0.6782989,0.06984114,0.32599312,0.5877159,-0.103950955,0.7945457,0.5531327,1.0226028,-0.4293215,0.079959966,1.2849916,1.4319621,-0.23321226
organism_function,0.64272475,-0.0930409,-0.41963536,0.831545,-0.7665848,-0.7222155,-2.1362486,-0.27865675,0.28937888,-1.4349675,-0.7064168,-0.25867632,0.45626011,0.32080787,-1.4565507,-0.75164044,1.2901461,0.54526454,0.50238216,-0.3047771,-0.47556442,-0.09635087,1.3600336,-1.5457314,0.67818826,0.07557795,0.53192025,-0.16245812,-0.40037072,0.9351491,0.90821046,-0.5090272
organization,0.00918783,0.5062649,0.87945926,2.2851982,-1.8183169,0.5981734,1.8269966,-0.83909845,0.6957886,0.80680376,-0.26558223,-0.80082583,0.1601686,0.08869342,-0.8404065,1.3864591,0.6015931,0.6819523,0.6009915,0.6877665,1.6925746,1.1385449,0.07387967,-0.021326564,1.067296,-0.43072897,0.43084964,-1.6161357,-0.29292116,1.8675686,0.794088,0.2759288
organophosphorus_compound,0.1391505,1.9037012,-0.0024560245,1.1659791,-1.1696956,-0.4048226,-0.11859594,-1.8688304,-0.11468677,1.3397559,1.294003,-0.08518164,-0.69348586,0.76549214,-0.5729618,1.4268461,1.3468409,-0.14001524,1.1786698,1.1103632,-1.8903731,0.49476898,0.48888484,-0.5565593,-0.39766535,0.6291735,0.5373488,0.7487964,-1.5999377,1.2815846,0.9767415,0.45952964
pathologic_function,1.2612998,-0.92731166,-0.6379065,0.5499833,-1.4526242,-0.9679732,-1.6088337,-1.1641351,-0.18686593,-0.38059697,-1.1145003,-1.1104662,0.13847588,1.2986628,-0.60738087,-0.5962115,0.7075377,0.31016144,1.3304332,-0.35080293,-0.29556578,-1.7430038,1.0522875,-0.8318769,0.5612821,0.43307266,-0.70125836,1.1968839,1.3690016,1.180506,0.49133146,-0.28651467
patient_or_disabled_group,2.503338,-0.01309466,0.35646814,2.0051847,-2.0912688,-1.7322468,1.0550774,-0.5512731,-0.41111562,0.05111229,1.4562423,0.8197354,0.13651998,-0.4607497,-0.6175559,0.5836502,0.6768807,-0.072651215,1.3765675,0.78763795,1.7606473,0.41531298,0.55388796,0.72101784,0.7135091,1.1513529,0.584937,0.5215484,-0.3469658,1.7077339,-0.2546611,0.16372523
pharmacologic_substance,0.6341903,0.9703785,0.20644635,1.6666037,-0.8001079,-0.019749142,-0.4913598,-0.5893814,-0.35830814,1.8754448,-0.25796026,1.3761492,0.3212592,0.27023676,-0.29023436,-0.23651248,1.6416686,-0.29317266,1.6457177,0.5154392,-0.7502071,0.8091886,0.05108051,-0.92602885,-1.0946279,0.45126185,-0.69982606,1.4650369,0.19255054,1.4370404,0.99336106,-0.067255795
phenomenon_or_process,0.50924754,0.67795676,-0.09169361,2.0772622,-0.13105232,0.70995104,-0.85705596,-1.0731218,-0.24589026,-1.0204141,-2.2430184,0.5337177,-1.83142,0.77106434,-0.44523013,-0.19749762,0.3753361,0.5165116,-0.07321217,-0.36863297,-0.6316073,0.088068426,0.5477423,0.20267491,1.1885824,0.12692279,0.3986727,0.038756218,-0.56317115,1.8386265,2.0277293,-0.21552816
physical_object,-0.58817446,-2.5924118,-0.66948247,2.5721657,-0.9356774,0.10819277,0.511396,-0.42694566,0.26248035,1.8385566,-0.59783363,1.5643505,0.2888122,0.4340685,0.07383463,1.9018824,0.05265115,-1.3458673,-0.5636034,0.52528954,-0.34135276,0.014966512,0.2176499,-0.1983134,-1.1296159,1.515915,0.6803208,0.3722069,-0.7712231,1.4813267,2.152061,-0.6671353
physiologic_function,-0.48965713,0.074595496,-0.11450317,0.58107686,-1.5702047,-0.7497558,-2.008901,-0.38745683,0.63443923,-1.6349496,-0.9355857,0.62410253,0.48838782,0.7033522,-1.0774988,-0.6502653,0.83594394,1.2136784,0.39678696,0.7687889,-0.86331034,-0.43459365,0.9697695,-0.27227327,-0.3145015,-0.09035492,-0.8561036,-0.4321863,-0.33615214,1.3069696,1.2804253,0.64401525
plant,1.3020314,1.1441541,0.41564086,0.8124155,-1.373632,1.2863522,-0.7584291,-1.2193416,-0.9321982,1.1931573,0.7290227,0.09378125,-0.26914495,1.7878948,-0.49184942,0.88551295,1.2856345,-0.25176108,0.34626642,0.46067587,1.6178923,-0.8314669,0.78009015,-0.24032028,0.12556522,-0.13660741,-0.08109258,-0.48047125,0.12380709,1.7803556,1.2542086,0.027182326
population_group,1.9830881,-0.959054,1.2238503,1.3748595,-1.6038021,-1.6458184,0.86027867,-0.42530033,-1.2656523,0.35961625,0.5367421,1.4771061,-0.8261085,-0.81836843,-0.022559721,0.67105067,1.7489969,0.63129085,1.4488597,0.80562997,0.9648882,0.010961605,-0.19522774,0.3113938,0.59249735,0.21693915,0.25289035,0.31826025,-0.7892336,1.3481927,1.1628277,0.381664
professional_or_occupational_group,2.1085417,-1.0015876,0.45022205,2.1246257,-2.0715694,-0.19723374,1.3469399,-0.58283454,-0.7718622,-0.11298719,0.43640566,0.29501545,0.110205024,-0.28643692,-0.44635218,0.099268466,1.4764872,0.3840825,1.245192,0.8304437,1.1437988,0.7768759,-0.015663043,0.59248227,0.107328534,0.7066889,-0.060813956,1.2457504,-1.5957416,1.3182653,1.2587699,-0.21580848
professional_society,-0.5945082,-0.28943428,-0.29196793,1.8378507,-1.6672267,0.17379576,1.6684184,-1.1533743,0.77192914,0.20110507,-0.37050563,0.28054067,-0.2304034,0.64727557,-1.2004092,0.6995804,0.70635617,0.6912233,0.9264703,0.552682,1.6255387,1.3839779,-0.25408098,0.5269286,1.3022627,-0.22178996,0.5419524,-1.9044317,0.18194962,2.3474958,0.1964432,0.8568414
qualitative_concept,0.5522135,-1.2882643,0.7370785,1.361544,-1.3534347,0.4658828,-0.13559465,-1.1718447,-0.3254198,-0.21346645,-0.74289256,0.78165406,0.08568611,1.5168859,-0.8922998,1.1193647,1.2634611,0.5817771,1.4084647,1.4381582,-0.111445494,0.9117839,0.7481149,2.059009,-0.56961143,2.232304,0.62880534,-0.13133922,-0.72491497,2.444569,1.978173,0.0060333447
quantitative_concept,0.05595347,-0.39731252,0.23528193,0.60746205,-1.3279428,-0.042140573,0.39382336,-1.193922,0.78363633,1.3591176,-0.7646436,0.15824443,0.27733916,0.35777864,-0.22300483,0.8090677,1.4079714,0.55856115,0.14785354,1.8607476,0.10807643,0.12584148,-0.9128192,-0.75228506,1.5707384,1.0615098,-0.3932861,-0.61747557,-0.38060123,1.5581328,2.0918918,-0.50214416
receptor,0.4779981,0.90562385,0.9604064,1.5680364,-0.642503,-0.20735241,0.19617632,-1.0984336,-0.3225749,2.1845357,0.49564683,0.504279,0.20296134,-0.18707426,-2.168163,-0.1359435,1.2139897,0.45986852,1.534348,1.4810101,-1.714402,-0.45392045,-0.25190818,-1.3265918,-0.24036813,0.6319302,-0.5566219,1.6594303,0.077673964,1.3196223,0.7773421,1.1832532
regulation_or_law,-0.10687786,-0.2656926,-0.23798044,0.043251403,-0.13521965,0.23584984,1.1977934,-1.6943456,1.0025226,0.7600436,0.52074873,0.64084744,-0.0396462,-0.80981284,-0.64594823,0.53182423,0.7837348,0.5475377,0.2838704,0.69724625,2.4325657,1.1481229,2.2661986,0.29328147,0.012272203,0.82360727,0.044465695,-0.8391742,-0.43816873,2.2281709,1.0497267,-0.15517734
reptile,-0.021212187,0.7127408,0.46077517,0.99278724,-2.1028707,2.1359339,-1.035945,-1.6842616,0.7872206,1.0858778,1.0047308,-0.11238067,-1.0891396,0.43060637,0.008606606,1.3647517,1.4659576,0.43692416,0.37386253,0.41277146,0.44674417,0.11019369,0.9601075,1.2534074,-1.0270305,-0.2904209,0.073664345,-0.7398309,-1.2325015,1.5751504,0.5754878,0.58074796
research_activity,1.1013044,-0.89634615,-0.8597545,1.512481,-1.3379165,0.4010439,0.3817332,-0.47677374,0.2004631,0.33263436,-0.36290947,1.0790464,-0.6515112,-0.7922087,-1.0238597,-0.75123256,1.7057729,0.5441489,1.2761483,0.10102875,0.36832196,2.105654,0.39515343,-0.77279145,0.9870085,-1.4693573,1.305113,-2.2695346,0.64385253,1.8360778,2.3509185,0.6609016
research_device,-0.9631429,0.311743,0.7133018,0.72933304,-0.61067766,0.7958468,0.53364867,-2.3306935,-0.8938174,0.48692584,-0.39461473,1.6417623,-0.65167385,0.074572995,-1.0056074,0.8821462,0.022317417,-0.30853972,1.2065034,-0.03743646,1.0584356,0.32979965,0.5107232,0.17856458,0.6204233,1.6150393,-0.39916858,1.221199,1.2804056,2.3493037,-0.36293754,-0.70504373
rickettsia_or_chlamydia,0.038464654,1.0837625,1.2294369,1.3364757,-1.8159479,1.1131104,-1.1274371,-1.0608433,-0.5741344,0.61042213,0.86539036,1.1268253,0.34829375,1.1728786,-0.60247666,0.71257544,1.9433246,-0.21155046,0.55948454,0.7135941,1.3849429,-1.0494397,1.3098183,0.501895,-1.3870285,0.449418,-0.6560328,-0.37246928,-0.07656591,0.93577075,0.54302573,0.65027136
self_help_or_relief_organization,-0.9203534,-0.20932928,0.0952287,0.7336062,-1.7526408,1.0619804,0.9775061,-1.9394196,-0.03307914,0.77832514,0.26820388,0.08927088,0.30323246,0.40708548,-0.98412967,1.0814301,0.6215177,-0.17798522,0.6580546,0.83581054,1.778942,1.3838425,0.4000778,-0.22078928,0.684146,-0.22762649,0.43356043,-1.7126243,-0.07051856,2.1883056,1.3384639,-0.4210057
sign_or_symptom,2.0125353,-2.2262828,0.28950667,1.6263064,-1.8182335,-1.4041349,-0.304729,-0.6240919,1.6730831,1.2721764,-1.1679419,-0.13867188,-0.8992773,-0.87868726,-0.79767966,0.84112406,1.1502645,-0.29037994,0.24982567,1.1488578,-0.32194328,0.40675429,-0.14085427,0.79491127,-0.036822133,-0.60479313,0.52068716,-1.1350908,-0.106861904,1.8412546,0.094045274,-0.11532349
social_behavior,0.18579704,-0.30435765,-1.9278755,0.9265522,0.6711198,-0.5514633,-0.15793782,-1.3599083,0.13221012,0.047299504,-0.66827357,0.06875767,-0.348832,-2.4816034,-0.5098862,0.83715594,-0.19020939,0.101001665,0.91204125,1.6902647,-1.0920753,1.1203833,0.11424823,-0.45856106,1.6344583,-0.4640064,0.5384976,0.17978293,0.027038336,1.8073928,1.0412205,0.04177898
spatial_concept,0.29010206,0.036336895,0.26625812,1.7213576,-0.21408275,-0.23395023,0.45442465,-0.43241796,0.1495258,-0.07796091,-0.44670764,0.95825505,-0.81806517,-0.38134542,-1.1359427,1.0400729,0.66416943,-0.4439738,-0.7249587,1.4690311,0.17229693,1.1494968,1.4436169,-0.2014854,-1.6000899,1.0383877,0.8519004,-0.9754719,0.43960193,1.6467279,0.8770441,0.2355069
steroid,0.22507343,1.0391884,0.28666618,1.5497751,-0.89944816,-0.2665934,0.034041036,-1.3589531,0.99946946,2.1065047,0.14912137,0.4925102,-0.41892383,0.4159389,-1.377174,3.1523707,1.6417414,-0.23785765,1.2716126,0.78812116,-2.0265954,0.6769294,-0.5738608,-0.96868134,-0.4126996,-0.13489273,1.1410158,1.2498695,-0.6375868,1.6754035,0.7761421,-0.2427881
substance,0.23578331,-0.71852195,-0.5673303,1.9736686,-0.87642825,-0.36708355,1.2479101,-0.68335867,-0.4612568,1.8896556,1.1156057,2.5543044,0.0914514,0.35328448,-1.5684994,0.60478026,0.69814074,0.27075484,-0.03038311,0.032835387,-1.3593562,0.29574308,-0.3057396,1.3056386,-0.1475664,1.0161866,0.7048493,0.93517905,-0.73584366,1.8938432,1.8832352,-0.23166347
temporal_concept,-1.493175,0.25758436,-0.3694118,1.9475054,-0.6870684,-1.2243328,-0.1992901,-1.3649325,0.12693825,0.4184332,0.2804312,0.4978415,-2.8315594,-0.63783574,0.8154216,0.71709776,0.81400985,-0.4389981,1.1119797,1.1990995,-0.5589149,1.0276215,-0.97848713,-0.14403592,0.72693914,0.6142919,-0.013149498,-0.4443527,0.5922084,1.4972465,1.9856477,-0.73730534
therapeutic_or_preventive_procedure,1.0553049,0.35691702,-1.2196724,1.4841955,0.09405398,1.6268914,-0.55433685,-0.122250356,-0.10422402,1.1731465,-1.0813235,1.606316,0.58428985,0.5972975,-0.5992624,-1.3765042,0.96421236,-1.7370554,1.1070894,0.725295,-0.523744,0.50500435,0.47872925,-0.021430522,1.1713834,-1.1848849,0.73188466,-0.5217545,-0.91610956,1.6301262,0.5993384,-1.0530205
tissue,-0.8121512,0.6669759,0.28455746,1.0468498,-0.9438963,-0.42578614,0.5786274,-0.027843729,0.642567,-0.18905082,-0.43669024,1.2511376,-0.39444166,-0.62899923,-0.1653197,1.2383153,1.0658472,-1.8219538,0.66212416,1.68489,-1.0412723,-0.5702524,1.4882156,-0.21354914,-0.8604663,0.38733858,0.52210635,-1.0453987,-0.81484073,1.5313792,0.18326606,-0.38885856
vertebrate,0.50957197,0.06265558,0.15006272,1.3753903,-1.7559186,1.5425739,-1.1484878,-1.0546975,-0.011812626,1.2865316,0.90603405,0.7293878,0.61955655,1.8366147,-0.13010299,1.2155,0.97195137,-0.50231844,0.83269525,0.3571075,1.2303398,-0.22345445,0.5377667,0.39394644,0.17541333,-0.7214648,0.5971181,-0.6012591,-0.32740963,1.5719142,1.2947654,-0.10240083
virus,0.343029,2.0968957,0.65606487,0.77492076,-1.7383585,1.0633779,-1.169465,-0.6204555,-0.37105912,0.6675914,0.9857054,0.56533545,0.45375383,2.7001047,-0.6735414,0.51663077,1.5617923,1.3867126,1.6259698,2.2504127,1.6031065,-1.6662874,0.2130433,0.58579206,-0.09396956,-0.344723,-0.83388627,-1.3661048,0.09263931,1.700812,0.9288427,0.7389226
vitamin,0.38605875,1.0223132,0.88413334,1.3478268,-0.66198105,0.49209884,0.19624574,-1.502588,0.4154393,2.0640218,0.47730905,0.3911695,-0.30702674,-0.8129972,-1.8246043,0.5799309,1.4755028,1.1567193,1.0212706,1.4434685,-1.9113486,-0.6354992,0.6017525,-0.41492918,0.21162727,0.94717705,-0.50917315,1.6169266,-0.59649473,1.2762022,0.8968209,0.4298916
