,0,1,2,3,4,5,6,7,8,9,10,11,12,13,14,15,16,17,18,19,20,21,22,23,24,25,26,27,28,29,30,31
acquired_abnormality,0.14105736,-1.4360723,-0.42151573,0.58977175,0.4500193,0.44926652,-1.6258917,1.1377865,-1.1656384,-0.5373681,0.41748065,0.027640007,-1.9423349,-0.93553054,2.5451717,1.0719754,3.3527172,0.8689605,0.43037215,-1.2834944,-0.85462487,-0.042671256,1.8782376,2.3650165,2.661855,-1.3715223,1.0734044,1.8851559,-0.011600863,2.689629,-3.7665358,2.1305592
activity,0.6639871,-0.35557342,-0.36764622,-1.5044756,0.74001616,-0.46432805,-2.772852,1.1952195,-1.1061907,0.19638258,0.13548219,-0.41405553,-2.3399663,-1.558378,-0.19671065,2.0735102,1.041452,-2.188131,1.7296265,0.5692922,-2.9258919,1.6987014,-1.5870472,2.112738,-0.6874821,-3.0116427,-2.3119974,-1.6763548,1.950177,0.8284516,0.6752289,0.74991095
age_group,0.48337883,-1.6169609,-0.52863914,-1.2292813,-1.0487739,-1.390602,-0.67581385,1.1053958,-0.8853524,0.571227,0.57829994,0.2610226,-1.9914848,-1.3630389,-0.81253844,1.7350469,1.75396,0.32620165,-2.2023792,2.6179042,-0.7157894,-2.7842288,0.3002803,-2.1481822,-0.2968483,-1.7184958,-1.3981988,0.12199728,1.0613064,-1.8238797,3.0447447,0.76977074
alga,-0.26537138,-1.773688,-0.80753595,-1.7120523,0.39722306,0.33458155,-0.011135101,1.4839357,0.094801605,-0.47709048,0.5603999,-0.44527602,-1.8518783,-1.3393975,-1.3735756,0.9937715,2.886122,-2.402407,-0.1374594,-1.3633095,-2.5941114,2.0862432,-4.609447,-2.034835,3.2560596,0.5808479,-2.3393145,-2.6436331,1.9142768,2.6207383,-0.6389488,-0.6770035
amino_acid_peptide_or_protein,1.6358523,-0.8502369,-0.5407301,-0.06683672,-1.8770494,0.7026549,-0.43173036,1.6853046,-0.05991759,-0.1408988,1.575811,0.55182,-1.8117094,1.8320864,0.21182856,1.3150189,1.9025714,-1.8627578,1.8617352,-2.328853,1.4133377,-1.0377953,2.0060287,0.673757,3.708054,2.0773644,-2.2226532,-1.0633415,1.4638032,-0.5237383,5.3628497,0.45731232
amino_acid_sequence,0.8306561,-0.6062877,0.15296447,0.5136163,0.8685835,0.24114905,0.32698682,1.0447061,0.18068303,0.9517987,0.57016873,-0.28459865,-2.4572763,-1.534731,0.75851583,1.9169976,2.386724,-0.19901589,-2.6899834,-1.3536085,-1.2947136,0.72874564,-3.3679886,0.4860833,0.43810573,2.0784738,3.1599085,0.30520123,0.6499171,-2.1466243,0.9784436,-1.2001431
amphibian,0.5740167,-1.1768221,-0.33210254,-1.0651295,0.285846,0.34700286,-0.47412577,1.7251964,-0.6274133,0.32288358,-0.15823458,-0.36314768,-2.3037634,-2.130393,-0.45976302,1.0686069,0.46941316,-0.022607468,-1.1650778,-1.799234,3.9675672,2.2708147,-3.968838,-1.503932,2.1498969,-0.99186164,-2.1512516,-1.7525109,2.9648936,0.30966976,-2.1685662,0.6045793
anatomical_abnormality,-0.15268335,-1.2221687,-0.6697017,0.3631996,0.97947174,-0.18758455,-0.7664967,0.7639424,-0.10794004,-0.1808705,0.2399963,-0.4764638,-1.6943341,-0.6018841,1.7133156,0.71850467,2.4781141,-0.11734237,2.475969,0.27300894,0.23053968,0.01562438,1.6274778,1.3338072,-0.6283593,-1.1725738,0.94765854,1.1736051,-0.7962678,1.0364323,-2.4096255,0.9860986
anatomical_structure,0.3026324,-1.6615362,-0.5769572,-1.4928864,-0.5514677,0.5371198,-1.1404172,0.9224299,-1.7909534,-0.30786735,0.76435024,0.36799052,-1.3636234,-0.64212334,0.734377,1.8179845,1.7325537,-2.9296536,-0.19309,-0.3710273,1.2771162,-3.4603078,-0.05168149,1.8034619,-1.6403105,2.689016,2.880061,0.4534976,1.3163928,1.0265563,-0.35013118,1.8355094
animal,1.1776018,-1.3454067,-1.2992319,-0.43309572,-0.5235814,-1.0471961,0.81652534,0.71266073,-0.1541507,-0.124128215,0.3562977,-0.38637722,-1.6961275,-1.1454889,-0.5028092,1.3489608,0.8521092,-0.22036128,-0.68487656,-1.8596423,3.3468163,2.0784502,-2.0251222,0.10685255,0.1306184,-0.92860246,-2.6989355,-3.9972494,2.0203981,-0.6534355,-2.1711552,0.253279
antibiotic,0.71528953,-0.9782691,-0.282277,-0.42357996,-0.5899098,-1.2047049,-0.23748931,1.5786484,-1.3514477,0.23489508,1.9171972,0.26941362,-1.4914061,1.2104762,0.17895025,1.2777869,-1.055071,-0.16275805,-0.97068584,-0.25399452,2.783502,0.0009792573,1.816011,0.15526225,3.4798133,2.1185405,0.8895887,-3.94318,1.1235968,-0.32100308,0.3262339,0.60437924
archaeon,0.8651948,-0.81953824,-0.48053792,-0.29367304,-0.46757475,-0.37717205,-0.0807962,1.5371512,-1.8903437,0.37905076,-0.05239303,0.13998932,-2.4688022,-1.9371966,-1.8157617,0.9465497,1.4638265,1.7811747,0.77320194,-1.952534,-0.6632863,0.95263344,-1.0368239,-1.6212072,1.7174188,1.5269161,2.9516308,-0.99292105,3.0824327,-0.32153785,-1.4603444,-0.25710005
bacterium,1.3595603,-1.3704212,-1.1832192,-0.83547753,0.91384953,0.073577106,0.36613214,1.1115346,-0.9489165,-0.12685293,0.49679142,-0.258582,-2.377534,-1.0349965,0.1393123,0.94431996,1.3501291,-0.8701875,2.514431,-2.8161848,3.693498,-0.35825494,-3.7617135,-0.7157959,3.462794,3.842302,-4.9247274,2.14336,1.129779,-0.33634588,-3.3411417,0.77367115
behavior,0.37268668,-0.069442526,0.62419623,-0.46583417,1.5291253,-0.025734913,-1.1447365,0.7017275,0.23189704,1.0603783,0.4452309,0.2862198,-1.7238353,1.1357946,-0.21744128,1.6237973,-0.0031947624,-1.2571421,1.1806139,-1.2558202,-3.8640797,1.7334983,-1.2027892,0.47632495,0.27123883,-2.2656484,0.29122585,-0.08262501,-0.106612645,-2.208501,-0.42448685,-0.6408236
biologic_function,0.8327369,-1.2426554,-0.9495036,2.1838107,0.14330254,-1.1504087,0.36101595,0.9169354,-0.007566534,1.9477127,-0.47488824,-0.19029962,-1.791755,-1.639586,1.0479169,1.0930275,1.8058019,-0.24110922,0.9946496,-1.6586862,1.4615947,1.8121088,-0.036165513,3.099277,0.13149881,-1.5730141,1.1655763,2.412479,0.81934536,2.2404785,-1.9316981,-0.93616927
biologically_active_substance,0.58094335,-1.0655212,0.62587523,0.7766756,-0.6907667,0.19931155,-0.025736982,1.887019,-0.13420732,0.08678337,0.93733937,-0.08610219,-1.2771505,0.13458396,0.43501356,1.5495582,1.950318,-0.28942275,0.58219236,0.9189246,0.6024671,-2.1048682,0.6024166,1.2667645,2.212028,2.6254065,2.5610085,-3.6241224,0.8161832,2.996277,2.8274162,1.331599
biomedical_occupation_or_discipline,3.0773401,-0.8040819,-0.31244892,-0.5194655,0.21207038,0.08493078,0.62089944,0.95286053,-0.3954815,0.8119215,0.025094707,-0.3205806,-1.2736208,-0.11360325,-0.0671543,1.3887024,2.4524305,-1.7430372,0.2324152,-1.0834152,3.0032687,-0.70988595,-0.95422167,-1.2372797,0.84019834,0.6852355,0.023397606,-2.1517122,-1.6074524,-1.5544,3.1403768,2.053812
biomedical_or_dental_material,1.7153482,-1.6404995,0.176646,0.4934689,0.78265417,0.33674347,-0.6409435,1.3111349,0.27051413,1.0224382,2.469946,0.37962988,-2.2705963,1.4675452,0.45207402,1.1633449,-0.47418907,-0.58865863,3.3531563,0.073378555,4.1078725,-3.2137716,1.6726357,-0.017319284,2.1786149,0.14074895,2.5278156,-0.47698674,1.8603921,0.52715164,2.0704842,1.1871165
bird,1.1163017,-0.79489017,-0.7001901,-0.16956341,-0.22598238,-0.40836528,-0.48581994,1.7326579,-1.8421005,1.5601667,-0.31090963,-0.16174532,-1.9634302,-1.5178022,-0.12154384,1.5580183,0.5735837,0.48673975,-1.843307,-2.768369,1.7264605,0.81321734,-3.521794,-0.8853591,3.2004056,-0.8920951,-3.3591282,0.16020307,1.8763819,-2.4422362,-1.3113601,-1.2170804
body_location_or_region,0.23857932,-1.5095013,-0.5745396,-0.9706665,-0.099529386,0.22004719,1.5521541,1.8566269,0.119103745,1.726038,0.047632817,0.40703258,-1.7913511,-1.2356896,0.53996915,2.036845,2.2572212,-0.52555954,2.9655716,-0.07493871,-0.5874006,-0.6756018,-0.10486622,1.2480043,1.270387,-2.6431677,-0.54829705,-0.69076824,0.2861863,-2.8415363,1.6008439,-0.29972303
body_part_organ_or_organ_component,1.2670335,-0.4274572,-0.71973854,-0.9434604,-0.56659687,1.3374776,-1.3917102,1.0943646,-1.16929,0.85017866,0.57959306,-0.19526957,-2.0634,0.037183367,1.275519,0.5503499,-1.2252953,0.042041853,4.669517,0.91170955,3.0006332,0.31368208,0.299978,-0.09495039,1.0395298,-1.142791,2.2972503,-0.3488534,1.5223632,-0.087303095,-0.13341193,-0.1231226
body_space_or_junction,0.033071592,-0.8445163,-0.79498273,-0.011628946,-0.039841,0.6266884,0.7725355,1.9479606,-0.5605869,2.2698438,0.74603343,-0.43355337,-1.8662599,-0.67867845,0.58583564,0.70549834,2.3427649,-0.9047864,3.459682,1.9245844,-0.16230522,1.476434,-1.1180782,-0.19441159,0.15213448,2.1664557,-1.2435734,0.23131312,0.68425554,-2.2256768,0.3013154,0.011403613
body_substance,1.449547,-1.081248,0.22769462,0.71896756,-0.28711048,0.32004797,0.16411546,1.0512564,0.97160125,0.1532517,0.7560169,-0.14889543,-1.4149383,-0.7700175,1.2923634,1.8902364,3.2222886,-0.51454103,2.5243597,2.6910522,0.008697096,0.03356323,-3.1848953,0.82587796,2.8392396,3.9701176,-0.018807342,-4.1189966,2.5872,1.3045436,1.4351686,0.067042544
body_system,0.72306466,-1.6171557,-0.8715398,0.066330075,-0.07559323,-0.060300343,0.056374226,1.6666784,-0.22076881,0.88019747,0.50730807,-0.5987308,-1.199135,-0.5149767,0.27881056,1.4491016,1.8028753,-1.5060706,3.1067235,0.85663176,-2.6958308,-0.587355,0.9918293,-0.06496837,-0.30266428,-1.281886,0.32172024,0.19990987,0.12282165,-0.16086283,0.25315106,-1.808888
carbohydrate,0.6289237,-0.5947079,-0.44208613,1.1121067,-0.13090883,0.49450645,-0.64992833,1.8720517,1.1324874,-0.09780092,0.8416862,-0.54137343,-1.7982304,1.4932141,0.1474912,1.4141,-1.3793075,0.08856798,2.2463005,-1.0869067,1.705368,-0.7748459,-0.23620345,0.53608006,3.563921,2.6434393,-1.8352236,-0.38097286,1.3808275,-0.39283118,2.826064,1.1439983
carbohydrate_sequence,0.991384,-1.2446759,0.3352378,0.10560026,-0.31936854,2.2490952,0.11530459,2.2525153,-0.22012249,0.597044,1.0315168,-0.3320004,-2.6094718,-0.76708037,-0.5930598,1.4435673,0.91328675,-0.20787312,-1.5696639,0.550961,-1.0886098,-1.175826,-2.115774,-0.5845303,0.14346161,1.91404,2.7489188,-0.20570341,1.9645439,-3.902591,-0.53373396,-1.3888072
cell,0.68771046,-0.90656656,0.13686591,-0.30161002,-0.511082,0.2812954,0.049698625,0.014146369,-0.7547727,1.0224037,1.2247429,1.3088071,-2.1107037,-0.48965046,1.3258862,1.5936878,-0.085281,-1.5333983,2.9444108,0.42828095,1.1871927,-1.085493,2.0794165,-2.3098578,2.7756963,-0.06183676,0.13200986,-1.5445229,1.3744813,0.34511203,-0.20412712,-1.7086618
cell_component,0.18304715,-0.71898824,0.25820243,-0.24958348,0.324937,0.24415137,-0.75451034,1.6948588,-1.8514973,0.95289564,0.58204806,0.6357924,-1.8297814,0.2906112,0.9637764,1.3134685,2.907054,-0.65020436,3.5021217,1.5525895,0.64367247,0.8175391,1.3839247,0.058150485,3.8781083,0.027767904,0.95505005,2.919899,1.067403,-0.31244603,2.0398822,-0.80578274
cell_function,1.1256226,-1.4389739,0.13209985,1.7382611,-0.8346094,-0.66165864,0.1443098,0.21532439,-0.07516594,0.32763436,-0.26735222,-0.07596991,-1.9003559,-0.7487207,1.072338,1.2234817,-0.8548097,0.17550215,2.863039,-2.008683,2.8027403,0.37211996,-3.2894597,1.6900749,1.1452267,0.13500081,0.95547265,3.7381134,0.017108656,0.83132386,-0.9419355,-1.183364
cell_or_molecular_dysfunction,-1.2140948,-1.7513384,-0.0800641,0.7687494,0.80595845,-0.5229377,-0.15579563,0.67979544,-0.2814146,0.37520447,-0.30362415,0.6041053,-1.6009375,-1.0071504,1.8987979,0.8429354,1.3072964,0.88641024,1.3127968,-2.7000158,0.38964254,2.0338998,0.8059524,1.6887444,2.2965937,-0.8419362,1.550406,2.3956542,-0.013851292,3.4832628,-2.4873714,-0.027309107
chemical,0.48172802,-0.9306424,0.66386396,0.21939248,-0.24060544,0.5951376,-0.516693,1.237432,-0.5975672,0.90834147,1.7514832,-0.7152666,-1.4314842,0.14662144,-0.356423,1.313976,-0.027838726,-1.7514855,-1.2196531,0.39093733,-1.1883401,0.8178193,0.47308144,0.282391,-0.3357103,1.0942247,-0.3467813,-2.5883741,1.6103618,3.3633687,3.620494,2.440285
chemical_viewed_functionally,0.8799287,-0.9083483,0.16068387,1.2583164,-0.6324629,-0.17003804,-0.84018844,1.0798688,-0.09792015,0.7799481,1.2571584,-0.48006454,-1.3755908,0.6531053,-0.57728696,0.6421138,-1.207912,-1.1922454,1.3348484,0.63513994,1.5724766,0.2540721,0.7222443,0.78797007,0.76687914,-0.07728082,1.6709956,-1.3647434,1.0231876,0.6379324,0.64043504,1.1427637
chemical_viewed_structurally,0.18299098,-0.94668263,0.18578641,0.16515641,-0.3394241,-0.58499205,-0.40625218,1.2738627,-0.8019843,0.6032103,1.1513511,-0.85366833,-1.7133714,1.6509807,-0.35995114,1.49985,-0.25845134,-4.2226677,0.5344583,-1.6038393,1.1331582,-1.3561376,0.5868427,0.21606793,1.8997133,0.32461149,-2.9851649,-4.5107408,1.4899267,1.1466111,2.6202614,0.3786964
classification,1.2487807,-0.3197043,-0.552171,0.035995618,0.33687207,0.5288896,0.39222416,1.1869292,0.062752694,-0.8916577,0.64370424,0.74249715,-2.0817153,-0.09345502,0.098295294,1.9400157,2.0477245,0.6906653,0.13008887,-1.275559,-1.8195819,-2.0993297,-2.1341019,-0.36441895,0.44728673,3.0136316,-0.21310158,-1.6749383,-0.25928888,-1.9889982,-1.4241916,0.81425226
clinical_attribute,-0.12750489,-1.3792564,-0.2343493,1.2049747,-1.2332296,-0.47398654,-0.50590503,1.9068772,-0.6295941,-0.13539585,1.0265834,-0.011853251,-2.154678,0.061901778,-0.07590853,1.1693997,-1.8261485,0.24524288,3.198757,-2.9509656,6.244517,-2.954017,2.0522172,-0.5086837,-1.0243464,-0.49725536,-0.3636827,-0.053265873,0.63246566,0.7562495,-1.1557609,0.23270755
clinical_drug,2.1356678,-0.8424509,-2.0635052,-0.7574681,0.8838483,0.02620883,-0.40645567,0.021198427,-1.90205,-1.9777684,1.5533615,0.92273796,-2.3469768,-1.1107073,0.6573156,1.4770199,3.642191,-1.7618247,-2.4898996,-1.0592842,-3.2224414,-2.6115427,1.66919,-0.6949538,1.7612298,-0.9107128,-1.9182217,-1.2045811,0.6768256,-3.2782876,1.899359,-1.578882
conceptual_entity,1.1199329,-0.2677344,-0.5669865,-0.26457816,-0.040275466,0.22190481,0.034266017,1.563218,-0.47208777,0.4779957,1.9182992,0.0035307887,-1.9601808,0.23324583,-0.20670271,0.7690822,1.4312953,-3.6183128,4.5007057,0.3310063,-2.5785437,-2.4784164,-0.6116814,2.1402447,1.9958104,-2.348582,1.1790497,-0.9830886,1.8858197,-3.3107355,-0.79532653,0.29074505
congenital_abnormality,0.0047893287,-1.1975908,-0.8985874,0.33172706,0.6317318,0.043204233,-1.2922549,0.9155423,-0.7229463,0.0018219566,-0.05559507,0.13881072,-2.1935925,-0.7726147,2.2421944,0.7154564,2.837711,0.36861604,0.9653492,-0.39776167,-0.71621746,1.0020069,2.3477492,1.3981253,0.63693917,-1.8364536,0.9521955,2.2763624,-0.6683466,1.4282545,-2.8363714,1.5410066
daily_or_recreational_activity,0.4204461,-1.0458618,-0.3467506,-1.0312771,0.87022555,-0.22343725,-1.3532139,1.7055978,-0.6112183,1.6904151,0.35058203,0.49604905,-2.6615245,-0.8333489,0.6095759,1.4859673,-0.7482105,-0.03765157,-1.8852438,2.410896,-2.588899,0.5883964,-0.8116686,-0.37208062,2.4333422,-2.1827729,-0.37783504,-3.1687825,1.4163435,1.8203077,0.54689854,0.6481239
diagnostic_procedure,1.0224757,-0.32444283,-0.47990575,-1.0144646,-0.13308996,0.4500548,-0.69603205,1.3478385,-0.8642359,0.76030296,0.08955796,1.4496994,-1.5281068,-0.9989543,1.7195419,1.1130723,-0.1984231,-0.7069653,-0.9235972,1.5598923,-2.0040476,-1.4024506,-0.9447769,-0.2326398,-0.23133855,0.08226118,-0.8620122,-0.8939451,-0.899315,1.2081643,-1.5655348,0.13787574
disease_or_syndrome,-0.7876126,-1.3417889,-0.3338611,0.55128515,1.0663382,-0.6887263,0.21507648,0.29399425,-0.37283742,0.5686162,-0.044945747,0.77837896,-1.4352112,-1.0614407,1.5114911,0.95539266,1.8846776,1.5968461,1.4343158,-2.5177038,0.31373963,0.40739137,0.061142635,1.4759065,1.2166758,-0.91006523,0.16531655,2.8435884,0.677018,0.91465086,-1.587497,-0.0701038
drug_delivery_device,3.050102,-0.75800335,0.17919604,-0.79451436,-0.19676445,-0.29400733,-0.20611118,1.2865145,0.27758917,0.8766653,1.9763018,-1.4065334,-2.4342234,-0.7395984,1.3682061,1.6276989,2.6127596,0.42545003,-3.7932477,1.71254,-0.50307506,-0.3040258,-0.20708676,0.77088064,1.3939892,1.4512129,-4.646318,-0.18934618,1.7740836,-2.7502048,2.1584392,-0.46229866
educational_activity,1.7007347,-0.6310551,0.45859805,-1.1500438,0.0053137597,0.49225852,-0.14878088,1.4195001,-0.101463445,2.116021,0.26892963,-0.2814342,-2.0288022,-0.99703026,-0.043417417,2.3292108,-0.95209074,-2.623287,-1.00965,1.211594,-3.1888678,0.44633693,-2.710259,-0.81425154,-0.05170087,-2.1985064,-4.254668,-0.16919632,-0.1100725,3.316407,1.575046,0.49222842
eicosanoid,1.4696951,-1.2576406,0.24074219,-0.12354466,-0.0492388,0.5058383,-0.40391064,1.2546703,1.1479672,0.476131,2.1209283,0.29938394,-1.6263466,1.372557,-0.1063829,1.7652408,1.2806871,-1.531553,1.3682216,-0.5820287,1.8135353,-0.47850767,0.6683876,0.7389454,4.923684,2.232308,-2.5851848,-1.4291997,1.3789252,1.0453937,3.6812575,2.7759228
element_ion_or_isotope,0.977409,-1.4453115,-0.6285402,0.2430911,0.61006504,0.18929826,-1.0908064,1.5026945,-0.5836418,0.2906471,1.5303953,0.1563682,-2.3758469,2.0760295,-0.6909787,0.99024856,-0.7149605,-0.7584191,0.87890524,0.352741,0.054803833,-0.73118633,-0.8279785,-1.7551686,1.3457899,1.782225,-1.9882642,-3.3144338,0.29976064,0.9789476,2.3385828,1.368439
embryonic_structure,0.78692824,-1.1627604,0.274916,0.12842494,0.22075576,0.24581264,-0.7842067,1.8091654,-0.2115301,0.8401119,0.15359575,0.76071197,-1.9018767,-0.087808624,0.9531863,0.8152077,2.644983,-1.3957103,2.173195,0.79332525,3.1564496,-0.7319616,1.5950801,-1.3449074,0.9685157,1.6297958,3.1162624,-1.9515625,0.13171366,1.4938266,0.878321,-1.096119
entity,0.7668332,0.10886866,0.3363761,-1.543554,-0.94222873,0.43820608,-0.8444653,1.5374756,0.2857509,0.1856748,2.432851,-0.29939428,-1.7662706,0.19767874,0.094461806,0.5102673,1.4909211,-2.761629,-2.8007076,-1.652994,2.505087,-2.98394,0.022479283,1.14703,-1.9179052,-0.27408415,1.8998178,-4.734267,2.6714416,-1.277769,-0.49478158,0.55942935
environmental_effect_of_humans,1.1739802,-1.8293347,-0.27514136,2.1136088,1.1063745,-1.469554,0.39701736,1.4525893,-0.12010722,-0.09042781,1.8321748,-0.5031423,-1.9796743,0.07409656,1.3680311,0.3831541,1.0777335,-2.0298343,-0.46476272,-0.0978266,-1.617952,-0.32162225,-1.6187233,1.0512209,1.4800315,-1.159902,1.4788052,0.4781027,-0.63837385,-2.2015405,0.64134735,0.07531752
enzyme,0.9492151,-1.3802963,0.20569374,0.102409855,-0.22115354,-0.5363031,-0.7959618,1.8340653,0.21792218,0.6297334,0.44444317,0.43642327,-1.6449212,1.5817859,0.49882412,1.8561015,-0.65957654,0.48902667,3.5352147,2.1326957,0.9120635,-1.107971,1.0898526,0.36616245,2.2392054,2.2971396,2.7521996,-2.506074,-0.32101777,-0.7762342,3.170896,1.985293
event,0.6310413,-0.7459526,0.15315634,0.023512755,1.4000593,-0.4417654,-1.271106,1.3336641,0.30711514,-1.1144178,0.12510772,-0.088714145,-2.0311468,-0.61438,-0.5675381,1.1748139,2.399377,-1.8172245,-3.4018376,1.397706,-1.3128024,3.276077,-4.692768,1.0100235,0.9992397,-2.9743648,0.26495218,1.0982299,3.0102067,-0.30331752,2.206579,1.982654
experimental_model_of_disease,-0.94778484,-1.8517619,0.46903637,0.80118656,0.72758347,-1.0014815,0.101900496,0.5110062,-1.2570124,0.19330767,-0.7110888,0.17462558,-1.5085477,-0.74964666,1.0561059,0.88710153,2.163108,0.8001692,1.1684644,-2.1789234,0.9471014,1.6512328,-0.56130147,1.1598061,-0.4634692,-0.9896435,0.5826088,2.6205292,0.17846195,2.5096729,-3.1113768,0.19367795
family_group,1.0866736,-2.1061568,-0.2449007,-0.20330639,-2.9038296,0.35440704,-0.6879951,1.6621538,-1.5204947,0.68746203,0.43429774,-0.37703666,-1.8764845,-1.1716597,-0.047677837,0.7820238,1.5947871,-0.35836458,-1.61257,3.3841984,-0.2603723,-2.7433133,3.206693,-0.67297125,-2.845258,-1.1031185,-1.2372545,1.282234,1.227064,-2.458306,1.3366314,0.026890807
finding,1.7140871,-1.5162251,-0.5829619,-2.8529222,-0.2106639,-0.34602728,-0.9851813,1.555114,-1.285205,1.6661111,0.22629008,0.4520118,-1.9243842,-0.28719467,0.8433932,1.1856618,-0.8922267,-1.12189,2.534028,2.3411574,3.4704247,-1.4718194,-0.41104996,0.25645712,-1.1006892,0.29825166,-1.5090486,0.35205594,0.7758073,-1.6225473,-1.5004154,2.6400833
fish,2.0864558,-1.4539919,-0.77777016,0.118001394,-0.18026204,0.36107233,-0.06438282,1.3542274,-1.093576,1.5705045,0.082576305,-0.38397023,-1.5576591,-0.91795063,-2.0995674,1.5207949,3.212916,-1.583923,1.569158,-2.1631048,4.193899,0.48940545,-3.0053768,-2.0636551,2.1574135,1.6544797,-4.168893,-0.7704916,1.410637,-1.9929639,-2.3643117,0.3346972
food,0.69203925,-2.1470027,-0.024546076,0.6966253,-1.0533602,0.41381043,-0.97561324,2.4499843,-0.021757685,0.8573971,1.4617157,0.21791509,-1.4172785,0.5319748,2.8429706,2.3478613,-1.1955148,-2.4234633,-1.784674,1.897603,2.4573894,-1.2691023,-0.6052595,0.70833975,1.4216089,-0.8986424,-4.3106475,-0.58448505,1.5383135,-1.2327659,1.2289593,-1.0115868
fully_formed_anatomical_structure,0.48139045,-0.5779428,0.008450475,-0.51871866,-0.13351254,0.6461256,-1.0817267,1.5863209,-0.12887886,0.22200744,0.6252708,0.73913056,-1.4255866,-0.9916021,0.83044183,0.647886,-0.73447365,-0.71897775,2.007246,-0.74786925,1.7262435,-0.5673195,1.6786677,0.95337826,-0.63222283,-1.6115842,1.2983847,1.1286716,0.6615221,1.5929501,0.80706567,-0.89083827
functional_concept,0.80921924,-0.9856695,0.0011585022,0.6084299,0.044882216,-0.67390037,0.011897336,1.4615809,0.6559035,2.6965659,1.178978,0.073255144,-2.219117,-0.43408972,0.23627585,1.6145384,0.17212144,-0.5248497,-2.1767936,0.88795817,-1.0123395,1.4860569,-1.6335467,2.9711413,0.53655523,-0.6424133,-0.81495094,-1.0136888,1.21056,-1.0448685,0.18322,1.4977968
fungus,1.2147037,-1.5377218,0.32872924,-1.4643033,-0.24583158,-0.2900905,0.85776466,1.649514,-1.1055285,0.5353398,-0.2174485,-0.52670896,-2.3128703,-1.2301872,-0.575173,1.3009601,1.5774719,0.44591045,4.224525,-2.4684434,-0.0063408595,1.916402,-2.1447153,-0.9645905,4.3107123,2.0447643,-1.3087648,2.088893,1.078444,0.10228193,-2.5690851,-1.0301989
gene_or_genome,0.44728082,-0.41993427,-0.19052872,0.11418969,-0.3278048,0.9504906,-1.1756108,2.0488112,-0.5297278,0.51916313,0.14694087,0.4590373,-1.671989,0.7048981,1.2051877,1.3779161,3.04671,-1.5898501,2.3021111,2.1338792,1.9334611,-0.53056586,2.0638268,-0.01251924,1.4888234,0.6917294,0.5548047,1.6192586,0.7457983,-1.304178,1.153339,-1.8865551
genetic_function,1.0362798,-1.6157106,0.38959977,2.3673701,-0.89236647,-0.8492651,-0.055608053,0.58929366,-0.81852776,0.44021705,-0.14013536,-0.42385793,-1.7736909,-0.20153315,0.79292315,0.6034977,-0.64846516,0.2631159,3.1349669,-2.067162,0.14072773,0.7452854,-2.6000633,2.246396,0.7910017,1.4763451,2.9692323,2.716722,0.1266425,1.4510051,-1.2323688,-1.0820373
geographic_area,0.9088673,-2.2196476,0.1483277,-0.52579844,-0.012421969,-0.36122176,-0.57313895,1.6369679,-0.60851306,0.58900464,0.8029221,-0.4101819,-1.9403442,-0.71105814,0.7445163,2.3755193,2.9121404,-1.3433491,-1.4166638,-3.2864497,3.6332386,-1.669515,0.86633736,0.5399091,-0.26423112,-1.8333192,1.7527171,-0.480532,1.0107559,-4.0207334,0.7262179,-0.85508186
governmental_or_regulatory_activity,1.3127524,-0.13123496,0.19834495,-1.0165073,1.0795342,0.2211231,-0.84545666,1.9360868,-0.3367452,2.5168989,-0.1781062,0.5865005,-2.231373,-0.23722076,0.7157768,1.6992763,2.08524,-1.3761384,-2.5238168,2.8141224,-0.31652343,-1.0200607,-1.0173826,-1.1139206,-0.26614353,-2.5694857,-3.6492476,-2.5638175,0.29592445,1.0277499,1.4200965,-0.8732544
group,0.9673361,-0.82301384,-0.43764126,-1.1187762,-0.99033624,-0.058648508,-0.95928717,1.345159,-0.007933864,0.9156867,0.4559491,0.575363,-1.7124856,-1.0805922,-0.38185358,2.1636736,1.9923017,-0.39253473,-2.9875095,1.9916533,2.224293,-2.8551867,3.4201295,-0.9273812,-0.645899,-0.69436765,0.043866917,2.1945324,1.4572206,-3.9815984,2.3381426,0.05212731
group_attribute,1.2286481,-1.6627305,-0.4623234,0.008054349,0.047178444,0.64152586,0.13740689,2.3085039,-0.76062936,0.1684522,0.5067054,0.35105872,-2.1223009,-1.4284871,1.3170704,1.3754975,1.5702888,-0.871885,-2.2962797,-0.21211734,0.16051607,-0.9570336,0.11128489,-1.5747322,-1.6562089,-2.613053,-0.13217625,-2.6082132,-0.19742846,-1.813618,1.2050525,0.8625307
hazardous_or_poisonous_substance,1.1992974,-1.5521749,-0.88463813,-0.104280636,-1.7595903,0.52959627,-0.07278706,2.0113719,-0.35925153,0.21974348,1.4354944,-0.07531833,-1.902794,0.3468691,0.9859672,1.1969223,-0.4448844,-1.2661909,-0.1461537,0.9117507,0.50815296,-2.8117247,-0.10731864,-0.96001995,2.149647,1.5455126,1.2615097,-2.29993,-0.12191779,4.002729,1.140159,2.630511
health_care_activity,1.0841753,-0.7794772,-0.14602418,-0.95171744,0.015731454,0.19513075,-0.92136866,2.239621,0.016717972,0.84895414,0.45764023,1.6627873,-1.9533089,-1.9283226,1.2518182,1.3141353,1.5365274,-2.6580873,-1.2908669,1.5835066,-2.099801,-2.3812003,-0.61954397,-0.100227594,-2.3631847,-1.3520406,-3.1595218,1.0004553,-0.63464296,1.9033281,-1.7154436,-1.217967
health_care_related_organization,0.6416964,-1.0819707,0.07327812,-0.045113932,0.055005804,-0.41583943,0.6698705,1.4629056,-0.07334633,1.2723951,0.83138955,-0.56109375,-1.9498738,-1.3373896,-0.5848767,1.6090661,2.2993119,-0.4999768,-2.979119,2.1640859,-1.2031623,-2.2708151,2.8843093,-0.15175588,-1.493131,-0.8387237,2.7423909,-1.2246348,1.5832173,-0.9391701,1.69799,-0.4632983
hormone,0.5850608,-0.87175554,0.26977715,0.16258374,-0.76099604,0.17777114,-0.17835109,1.3507648,-0.23576671,-0.24651702,0.73223954,0.5040983,-1.8284237,1.1457671,-0.079051726,1.7783551,0.54383963,-0.8281815,2.6758137,0.67229694,2.938373,-0.07858679,1.7728561,0.64376235,3.5717354,4.856971,3.0398278,-4.3452106,1.620031,2.3413434,2.7529585,0.9246864
human,1.1651042,-1.3044175,-0.9759254,-0.37463635,-0.9217969,-0.340012,-0.17234688,1.6996663,-0.85041666,1.234546,0.71560764,-0.20863636,-1.9525745,-0.85305846,-0.6114879,0.95315754,-0.9123121,-1.2415928,-0.5404274,-1.422918,1.4897072,3.5278487,-3.0480523,-1.2973282,2.82883,-0.16502209,-3.72631,-0.28147477,1.7028558,-3.2524197,-1.7322197,-0.022585189
human_caused_phenomenon_or_process,0.9490891,-0.018050598,1.0599252,1.2048957,0.36948436,-0.4697326,0.30489886,2.0114985,-2.020001,0.5326048,0.50868446,0.08576527,-1.9512002,0.43351644,1.1756772,0.39135915,1.4276407,-1.406637,-1.1464901,-0.32185364,-0.89294463,2.2018356,0.5872361,1.10118,0.8650648,-0.1564569,-0.6319457,-0.41049585,0.35230118,-1.771007,-0.521962,-0.9288967
idea_or_concept,0.6625999,-0.5271863,0.6182362,0.11788617,-1.132052,-0.6295045,0.1361755,1.097541,-0.17098519,-0.032816764,0.8255421,-1.290714,-2.210382,-0.06703158,0.24854656,1.2295377,1.0668521,-2.2669868,-2.2156966,0.99631846,-2.397706,-0.8177829,-2.1278205,0.042417966,0.42478672,-4.2471676,0.8666744,-3.007509,0.5979776,-0.83626056,-1.0580841,1.0623461
immunologic_factor,1.002959,-0.4622318,-0.09611623,0.66370445,-0.35309833,-0.79459184,-0.16256873,1.7263453,-0.16576853,0.6491509,1.1261963,0.46751294,-1.7966864,0.7157149,0.8025392,1.5053053,1.501522,1.4637508,2.0471268,1.2895361,1.2667836,-0.68184483,1.251883,1.126012,2.5974908,4.3427525,1.0738411,-1.6111753,1.2683679,2.3344386,2.3518891,1.7299758
indicator_reagent_or_diagnostic_aid,1.0572301,-1.8226798,-0.6657175,0.7126013,-1.6674371,0.12104387,-0.5822758,1.3778185,-0.5492901,1.539487,1.4213032,-0.080178544,-1.8648067,-0.09031002,0.0896303,1.1921879,0.054203395,-0.2611777,-2.2214944,0.43440908,0.9409587,-0.07607046,2.3551843,-0.10417579,2.2669108,1.2802974,2.4882612,-0.2265297,1.7002382,1.9744381,1.1521288,1.8772691
individual_behavior,1.0275917,-1.560624,0.1561898,-0.587128,0.7961086,0.34979793,-1.1513004,0.6696249,0.32193097,1.1608024,0.041119255,-0.5165671,-1.5023227,0.9707538,0.39690295,1.6024839,0.80336845,-2.4368927,1.4697204,-0.8551423,-4.1875997,3.6613262,-1.2626065,1.4646033,-0.32386723,-1.7947484,0.28487873,0.32373407,0.19159822,-1.442807,0.14655662,-0.15295658
injury_or_poisoning,0.06030799,-1.8104807,-0.4469978,0.04083731,1.0761317,-0.65909743,-0.120260105,1.0407597,-0.10576049,-0.17949986,0.25278416,0.20176086,-1.8628769,1.1469426,1.549955,0.828304,3.4968338,0.9057674,2.1116347,-0.62174827,1.5098872,1.2768316,-1.5106676,1.0229915,1.1213815,-1.1345962,2.1879568,3.1082277,-0.68338203,-2.378094,-1.7076311,1.6445972
inorganic_chemical,0.78586346,-1.7404245,-0.3056305,0.7533958,0.6463323,-0.27369168,-0.14822887,1.487669,0.13852076,1.199334,2.318437,-0.5310895,-1.4256654,0.810484,0.45643443,1.8045915,-1.6517643,-0.61059535,1.0694853,0.11872513,-0.53423357,-0.26457956,2.3369238,0.07290038,0.8725573,-0.45178622,-1.9782982,0.4993481,0.4328182,2.5957465,-0.6378898,0.9514001
intellectual_product,0.84254336,-0.27545306,-0.18879873,-1.0847024,-0.45913202,1.1516846,0.52818704,1.8242414,0.014064907,0.75247836,1.4800651,0.9804931,-2.0159159,-0.53165674,-0.120643504,1.3555183,0.27379087,0.31567302,-4.215194,-0.9812881,-1.7672678,-1.7047836,2.157627,2.504049,0.07411241,1.3868974,-0.86725396,2.4925156,1.6647924,-1.416645,0.5387608,-0.112739444
invertebrate,1.2589083,-0.60477275,-0.5549543,-0.51625997,-0.27560267,-0.3142264,0.4726234,1.611284,-1.1814852,0.55184853,1.1343216,0.37790117,-1.9740387,-1.5960785,-0.5402588,0.9266088,0.9349178,1.124835,2.3827698,-2.7514749,0.40624398,-1.5723518,-2.8326323,-0.48749536,1.3645396,-0.70789367,-0.7168808,1.0113828,2.1085978,-0.14166233,-1.010123,-1.4391907
laboratory_or_test_result,0.86223507,-1.1443878,-0.1406274,0.6718495,0.39351255,-0.06608783,0.02666804,2.0221233,0.6072967,1.3472021,1.1627116,0.3694368,-2.0625439,-1.1138688,0.91248107,1.0848773,0.10481361,-3.136498,-1.8138349,2.7167728,2.9407473,0.06698347,0.90136683,-0.96469295,3.611954,0.8703242,-1.8379694,-2.6971743,1.3133059,-1.8080072,0.65156645,-0.9155287
laboratory_procedure,0.75032437,-0.5849236,1.2501934,-0.628052,-1.0417414,-1.1187946,-0.7200955,1.1995455,-0.8620564,1.1579396,0.82176,0.7333596,-2.0455372,-0.87682396,0.9030762,1.3405437,0.8032087,-3.0944963,-0.5673704,0.6333234,-1.3991967,-0.79195434,-1.1592833,1.4336642,-1.6101311,-1.5319607,-2.692983,0.7935504,-0.6809725,0.7242276,-0.37837765,-1.6472417
language,1.4261174,-2.709367,0.4501456,-1.5220022,-0.31892523,0.08759334,-0.009675849,1.8910385,-0.21884969,1.847855,1.4364402,-0.24401227,-1.4874073,0.28119835,0.558964,2.7979445,1.7466536,-3.0242755,-0.46647277,1.5869745,-0.002729725,-0.31280136,0.11830499,-0.16107261,-0.5564234,-0.76837075,0.84901875,1.3734831,0.033285793,-1.4207734,0.7949484,1.720541
lipid,0.8797548,-1.073937,-0.58957446,0.5446535,-0.7091059,0.73090166,-0.06334987,1.2605385,-0.21184129,-0.54411566,1.7705823,-0.6248924,-1.6113845,1.1013447,-0.07830682,1.5417025,1.34083,-2.6966891,1.1544061,-1.1162031,-0.67614776,0.41052815,2.2158353,0.6337443,3.2600968,1.034986,-2.2398098,-2.6830792,1.1127919,1.139949,4.620616,1.5539321
machine_activity,0.21491802,-0.71784264,0.042217795,-1.0174888,3.1121423,0.35400465,-0.43966126,1.6638258,-0.24889816,0.9837708,0.9256951,0.3503639,-2.8593755,-0.6863774,0.6296004,1.3504417,-0.83944744,-0.72566396,1.9039803,-2.7395668,-1.083974,-1.5291647,1.6168319,-0.378093,-2.5987098,-0.09111537,1.0204765,0.59581757,0.42536932,2.1178865,0.8241178,-0.9916249
mammal,0.870647,-0.9038689,-0.90616804,-0.8483309,-0.77820945,-0.25705466,-0.65132016,0.98119915,0.041284256,0.4157505,-0.45349544,-0.04774285,-2.150301,-1.6869227,-0.5723886,1.4658371,-0.5303953,-0.33971187,-2.9381354,-1.9085954,0.6898519,1.6949549,-0.66721714,-1.2190235,3.180012,-0.7883545,-0.8208125,-1.2466441,1.4048098,-1.8261609,-3.146512,-0.69276
manufactured_object,1.5258932,-1.1663821,0.2446709,-0.77455676,0.4394857,0.13238487,-1.8216529,1.6913145,-1.3386432,0.18240795,1.542726,-0.66974086,-1.9256215,1.1041751,0.81174767,1.672979,-0.9711078,-0.96854603,-0.812376,-0.5197634,-1.7401917,-0.77850884,-0.41173288,2.6674042,-0.024099654,1.5388564,-4.0891905,-1.4255939,1.9209735,-4.1162605,0.4077592,-0.84810406
medical_device,1.280748,-0.6933884,-0.9012227,-1.8428464,-0.3388138,-0.31579205,-0.56899023,1.4764781,-1.0758468,0.021939201,1.3885643,-0.02276193,-1.9165869,-0.109606445,0.21242562,1.2278441,-0.21218169,-1.1493932,-3.79702,-1.1645044,0.038948275,-0.81680375,-0.19362639,0.94815624,4.0898676,0.6760078,-4.8591623,-0.9760425,2.1444468,-1.3725306,2.8726568,-0.466677
mental_or_behavioral_dysfunction,-0.9582368,-1.531516,-0.528358,0.76665807,0.69538647,-0.7775346,0.24630827,0.5815524,0.34575576,0.4661719,-0.5350359,0.79378206,-1.4944276,-0.71504974,0.98375463,0.61210173,1.4150712,1.1091746,1.3328474,-2.0913022,1.0498042,2.0875328,-0.24176025,1.4407743,0.7628113,-0.83970946,0.43079355,1.9911852,0.2763701,1.1775675,-2.0786066,0.014125413
mental_process,0.4851671,-1.0367516,0.13482632,1.5132982,-0.11649451,-1.4654113,-0.29920003,0.68137527,-0.08770457,-0.4427815,0.0063260403,-0.40941668,-1.7286935,-0.5505563,0.63375425,0.0067293635,-0.16765444,0.27914554,2.4229317,-1.7407521,1.3265345,0.37291357,-1.3560827,1.4545863,0.8978987,-0.39013064,-0.27710477,1.7049733,-0.36444235,1.2025372,-0.31808105,-1.5510031
molecular_biology_research_technique,1.4439026,-0.7307993,0.19913758,-0.9612341,-0.02237415,-0.12196917,-0.6917928,1.1352687,-0.11758535,1.7932553,-0.42244673,0.6546825,-1.9617331,-0.70224875,0.09045897,1.9698563,0.5371963,-0.5772954,0.24924459,1.3046188,-2.2070427,-2.9367185,0.5925401,0.22446534,-1.7281805,-2.9715548,-2.6721077,-3.4314122,0.018600188,-0.6423756,-0.8999573,-1.2130969
molecular_function,0.9900906,-0.25919157,0.26744002,1.9519533,-0.5002754,-0.27886996,-0.019770723,0.22728409,-0.4917325,0.65857995,-0.09379932,0.23866697,-1.9915842,-0.33509636,0.5552221,0.86139864,0.2174413,0.9462002,2.1433833,-1.2724824,2.202566,2.0825148,-1.8174614,1.4345715,0.28922096,0.3804868,1.4258157,2.7591045,0.17710479,0.3775748,-1.0711492,-1.1385075
molecular_sequence,0.64747447,-1.8712039,0.005921138,-0.21710962,-0.5421779,0.7922504,-0.0266642,1.7072481,-0.30063906,0.67324734,0.56262964,-0.4518724,-2.218735,-0.7024253,0.05279818,0.9502582,3.802533,-1.4776437,0.8454305,-0.069049045,-1.2162651,-2.3756135,-1.980452,1.554736,0.030478533,-1.4845412,2.1685834,-0.10211544,1.0916699,-3.2354283,-0.076456055,2.7706442
natural_phenomenon_or_process,0.76929635,-1.5914783,1.2566155,2.0765517,0.21644717,-1.275979,0.6036393,1.3934981,-0.6954293,1.4046706,-0.9387056,-0.06976836,-1.686876,-0.5673813,-0.051926926,0.9795355,0.35296148,-2.9049761,1.4931024,-2.4429379,-0.5442319,1.9842546,0.18971321,1.6369059,-1.5569688,-1.7981106,0.06878293,1.5756264,1.2584208,1.4071186,-2.7260818,-2.0942693
neoplastic_process,-1.1485405,-1.703789,-1.0767128,0.56068784,0.6180156,-0.64844817,0.15749253,0.8344284,-0.26462945,0.27478787,0.13083722,0.56218237,-1.6296699,-1.3813545,1.5462632,0.8260357,1.9592884,1.032342,2.5185835,-2.0247512,-0.32291713,1.381455,-1.8243202,1.6041396,0.5363949,-2.270169,1.5811495,3.3628805,-0.04513507,3.3835242,-2.3356657,-0.24421495
neuroreactive_substance_or_biogenic_amine,0.31036794,-0.998866,-0.070439905,0.79918844,-0.39315873,-0.4778224,-0.38339236,1.8779246,-0.14156032,0.26097402,0.9121117,0.085573375,-1.7005881,1.8070942,0.28964686,1.271586,0.052725572,0.7315,1.613672,2.0307071,2.10233,0.5785817,-0.18583865,0.7374329,3.1718476,5.0431275,1.1701862,-2.8374867,0.9999829,-0.4285744,1.5399395,1.7654893
nucleic_acid_nucleoside_or_nucleotide,0.6886382,-0.49699986,-0.4419512,0.38623536,-0.8874192,0.86971796,-0.730726,1.796007,0.026037484,0.6360817,1.1303294,-0.2770137,-2.0617373,0.9575177,0.1653855,1.6762915,2.407196,-1.1040367,-0.4626823,-0.71126586,-0.0062373113,-2.840544,-0.28458226,0.24068385,3.6056142,5.1913214,-4.07202,-2.401628,1.996144,2.492438,4.3502183,0.46174636
nucleotide_sequence,0.4931239,-1.4530418,-0.0223856,-1.5344253,-0.9051894,-0.4087591,0.81189597,1.5188905,-0.18778831,1.8817195,0.86188287,-0.62839204,-2.541229,-0.48593646,0.7216075,2.035395,3.0744643,-0.10644384,0.124381326,-0.7697905,-0.44601238,-0.028945597,0.11869563,-1.4015322,-0.64415896,3.6997783,0.2656015,-3.004534,1.8422651,-3.402045,-1.6577688,0.2090329
occupation_or_discipline,3.0406637,-0.81081516,-0.899057,-0.6502382,-1.1742898,-0.82457674,0.7313747,0.54180413,-1.2359524,0.6297125,-0.3604108,0.1039025,-1.6333873,-0.06033967,0.34551767,1.0492743,2.000547,-2.9890409,-1.3514405,-1.3633062,1.243469,-0.5867204,1.9032383,-2.031215,0.20081185,1.6566206,-0.6623574,-2.6284006,-1.18565,0.03395162,0.8902295,2.1524832
occupational_activity,1.0745014,-0.51453257,-0.27447528,-1.0462925,0.44568413,0.3248553,-1.1350162,1.9858037,0.5704146,1.4098532,-0.28580418,0.34975532,-2.2556608,0.19917348,0.7113097,1.4126313,-0.7000574,-0.9681632,-3.3573062,2.4863496,-2.3012824,-1.8397392,-2.6206145,0.41330013,1.1650794,-4.3407507,-3.5167673,-1.403922,1.0174029,-0.09081547,1.3739967,0.40121266
organ_or_tissue_function,0.38612083,-1.2774402,0.2976714,1.9462562,-0.30694044,-0.4175335,0.049799867,0.46336347,-0.24996525,0.96456367,0.140558,-0.28366423,-2.0069911,-0.22623672,0.59706455,0.77726245,-0.9793548,0.07471543,3.3634682,-2.7959578,2.8353255,0.14866899,-2.1551375,2.3056676,-0.75021416,0.33110312,1.7160976,3.6079257,0.07209554,2.10536,-0.7488717,-0.69465584
organic_chemical,0.75497997,-1.0155126,1.2753748,1.0270962,-0.055971656,0.25931314,0.30962017,1.7676114,-1.284771,0.3554453,1.080564,-0.15153734,-1.3714982,1.1936572,-0.12569714,1.3075515,1.3571595,-0.58648545,0.58693427,-1.3833157,1.6799866,-3.4091036,1.4484626,1.1415832,0.8249933,1.2405286,-3.4436393,-2.6888287,1.5423397,-0.37518618,4.121891,0.6646586
organism,0.75365007,-1.9020221,0.25814086,-0.29309633,-0.0072574425,0.12209547,-0.2899633,0.97616976,-0.5197399,0.27081293,0.15956846,-0.027950384,-1.7578942,-1.6644844,-2.2680721,1.5455811,0.47077888,-1.4941664,2.3207355,-2.9980316,1.803931,2.0131917,-1.036993,-0.123008035,-2.0848923,-2.8376687,0.8478189,-2.9415402,1.5999755,-1.9097966,-3.3138075,0.5989306
organism_attribute,-0.037506074,-1.4889812,0.34830213,1.0817972,-1.0066328,-0.41913846,-0.8148135,1.7430096,0.047909014,0.14460129,0.5422015,0.4761561,-2.020001,-0.49657476,0.32710427,1.4125965,-0.5366297,0.57265204,0.17131129,-2.2085464,5.9101386,-1.9565929,1.8569058,-1.4183023,-2.124352,-0.9278069,-0.74773544,-1.8141912,1.0043622,0.43394208,-0.8859146,-0.24305445
organism_function,0.91318756,-0.8868361,-0.9635086,1.653763,-0.5096751,-0.55529714,0.24746731,-0.019170534,0.40791115,0.7411643,-0.065899275,0.07721925,-1.7605137,-0.60158503,1.1802315,1.2452846,-0.63814527,0.8060758,1.86131,-2.0838246,2.2810955,0.4139466,-2.2540529,1.940625,1.4598445,0.28619447,-0.28092086,3.7622128,0.5072608,0.6891187,0.6080911,-1.3459151
organization,0.5199319,-1.381593,0.54262453,-1.25796,-0.19498613,-0.5015992,-0.719657,0.7291221,0.15010841,1.6326642,0.6199906,-0.8176124,-2.1492796,-1.2153994,0.36567375,1.6064547,1.1315333,-2.2791033,-1.4926033,2.4161005,-0.7615808,-1.6707907,0.2056383,0.083339006,1.3336926,-2.239135,3.499104,-0.75390494,0.97630876,-2.2621102,2.682519,1.3100686
organophosphorus_compound,0.83619666,-1.2237751,-0.74552274,0.5261259,-0.41074142,1.1543219,-2.063114,1.2479185,0.33247787,-0.49720985,1.4732522,0.4138896,-1.9569821,1.2835313,-0.51304144,1.728277,1.2487571,-1.6437541,1.8345047,0.019601572,0.8562605,-0.4521637,0.4994321,-0.6934061,4.4250116,4.350859,-1.490847,-2.8712516,1.2097412,0.021843929,3.9555314,1.7467719
pathologic_function,-1.026692,-1.0451487,0.24322389,1.0593197,1.2170612,-0.62966776,0.3713667,0.51765996,-0.5046928,0.024478523,-0.3697711,0.9054937,-1.6195198,-0.89697874,0.9342731,0.9084682,1.9495728,1.4423198,0.33280382,-1.6476809,0.5668787,2.6656392,0.2789038,1.2218878,0.3531739,-0.5131422,1.843648,2.2830796,0.48629737,1.7649353,-2.7051628,0.10332681
patient_or_disabled_group,0.8972218,-1.4366407,-0.3004394,-0.80675364,-1.2919767,0.25348353,-0.38263774,0.7794214,-0.5293664,0.036408186,1.2052566,-0.5236115,-2.0878623,-1.6091136,-0.073917106,1.5137656,1.4710948,0.20929469,0.15379557,1.9186776,1.6639161,-3.9455779,2.3421376,-1.7400547,-1.3615526,-1.0694728,-0.47777647,1.5053681,1.6397926,-2.7509844,0.59540987,0.07677834
pharmacologic_substance,0.2340151,-0.9928744,0.640408,-0.0563426,-0.5496661,0.08075187,-1.0798806,1.566031,-1.032072,0.64113164,1.7966939,0.19741893,-1.3783615,1.1015307,0.302331,1.995219,-1.3578526,-1.2266723,-0.34340042,1.8953458,2.79388,1.3700198,2.1690972,-0.23592903,1.2341194,2.374271,-0.36435047,-2.989675,0.5530305,-0.48531052,1.7438238,1.93836
phenomenon_or_process,1.1021607,-0.6493832,-0.38625658,1.9139719,1.1545898,-0.5915706,-0.5116325,1.629593,0.097903684,0.53734076,0.06068398,-0.24948965,-2.1085205,-1.2226822,1.4213694,0.6945206,1.8634644,-1.8810382,-2.1540954,0.20955442,1.2015376,1.8538158,-1.5795871,1.5736446,1.2405843,-2.9883025,-0.278428,1.9902067,0.6779333,-1.9104033,-1.8033158,-0.05721712
physical_object,0.85796195,-1.0834205,0.8894457,-0.49534664,0.06708169,0.9097391,-0.9640882,1.2516142,-0.6132097,0.5388521,1.8060095,-0.06968561,-1.4608423,-0.72156495,-0.30282843,0.62816525,-0.23266351,-2.6003728,-0.14707848,1.4068758,3.5622318,-1.3782982,-2.854363,-0.7610924,-3.9096797,-0.04653793,0.2950037,-3.1974733,1.0464798,0.27789813,2.7871444,1.2927611
physiologic_function,0.5814847,-1.4481862,0.2499287,2.352507,-0.5192829,-0.6977617,-0.20708528,1.0615383,-1.3001008,0.968894,-0.8036764,-0.1446972,-1.6673241,-0.8275259,0.5628928,0.2422917,-0.8346544,0.23042455,2.6898189,-1.1653491,1.179186,1.7820251,-2.0578036,2.4940648,0.29272762,0.17757551,1.9827104,2.4425182,0.5754272,0.71396786,-1.1246225,-1.0913013
plant,0.883958,-1.7294257,-0.38367873,-0.9478725,-0.023666346,0.45113158,0.24264939,1.6283801,-1.3018873,0.76811737,0.44790867,-0.71266943,-1.9694318,-1.5493674,-0.92858666,1.0167269,2.8352444,-2.0389013,0.8736662,-3.167585,-1.4132591,-0.26302928,-3.640916,-0.022607263,1.7286843,1.6987425,-1.525654,-0.35909,2.4518206,1.7460105,-2.4761896,-0.5628491
population_group,0.6116381,-2.1130414,-0.29036614,-0.6445807,-1.287426,0.5848981,-0.9633943,1.6995426,-1.2925277,1.2779586,0.04276721,0.72114503,-2.0059476,-1.853998,0.015370042,1.4243611,4.1231575,-1.0541728,-1.0895939,0.52873904,3.0361378,-4.376522,0.44920614,-2.0111194,-2.6968253,-1.3804978,-2.0913086,-0.8410813,2.3377028,-2.9187095,2.5194318,-0.72929156
professional_or_occupational_group,0.8758952,-1.4417583,-1.1463406,-0.7381539,-1.0011632,-0.287186,-0.87288594,1.8466293,0.3682011,1.0308816,-0.47950715,0.96201855,-1.600734,-0.9317352,0.06710094,0.7349078,2.6642222,-0.7707311,-1.6189598,2.000369,2.3215435,-3.2738943,0.7965807,-1.226359,-0.5959758,-0.25592735,-3.176873,-1.050088,1.0260025,-1.5669922,1.3295307,-0.04915525
professional_society,-0.5248135,-1.5695323,-0.21221288,-0.37418127,-0.21354133,0.06486991,0.50831205,1.4035294,-0.40114573,1.5783459,1.0808692,-0.44121483,-2.5913522,-1.322395,-0.14539902,1.4120165,-0.18120821,-0.19585578,-3.5956914,2.6608624,-1.0157282,0.5835971,0.17139012,-1.2573667,-2.0082297,-2.2620401,2.8614924,-0.30366245,0.79497737,-1.0494983,-0.705656,-0.008012422
qualitative_concept,0.41187057,-1.9037106,0.6360211,0.10423995,-0.9327284,-0.36703435,0.6352983,1.902573,-0.12364711,1.547391,1.3166902,-0.980861,-2.4688346,-0.33409497,0.41646558,1.6108236,1.6199784,-0.8158534,1.8414246,-2.386723,-2.504423,2.0465038,1.7635105,1.3015769,-1.3133699,-0.7726505,1.3084363,-1.8381693,-0.0288507,-0.20870897,0.32689354,-0.74523884
quantitative_concept,0.5282911,-0.62452674,-0.22542477,-0.18678227,0.14212182,-0.11670176,-0.90530735,1.5416574,-0.108059436,2.0780258,1.2164704,0.10627977,-2.2022893,0.5666862,-0.86524385,2.4029646,1.3995202,-1.0142636,-2.6198785,-1.1272935,0.32466322,-2.2494533,0.153958,-0.7422328,-1.0902047,2.5973475,2.489747,-2.4503865,0.31405634,1.6392953,-0.5710558,0.7452192
receptor,0.9724979,-0.6304485,0.41191363,0.28735262,-0.5449903,-0.377047,0.3009551,1.6223767,-0.40430075,0.9857759,0.999375,-0.14371471,-1.8455752,0.8255576,0.26058254,1.3829625,1.1631969,-0.23127005,3.7283173,2.5742002,1.1358848,-2.2750201,3.3260849,-0.0069348738,2.9438388,1.1827972,2.5572083,-3.2559686,1.3682693,1.3440263,2.8097088,1.2226479
regulation_or_law,1.1875591,-0.73384994,-0.06934465,-1.2463338,-0.07369264,1.841469,0.619403,0.7169494,0.26993823,-0.03559665,2.4166572,0.539832,-2.3927321,-0.9288315,-0.15002881,1.064782,1.1597489,-1.1408037,-4.795309,0.65612864,-0.76431155,-1.0779227,-0.54578704,1.4901981,0.4997362,2.7699878,-1.7372999,2.0860357,1.251658,-1.8626968,1.208105,-0.12525403
reptile,0.4209329,-0.5672822,0.31442574,-0.5724151,-0.58263534,-0.60649306,-0.21202037,1.1696595,-1.6719115,0.2891342,0.92502,-1.3673111,-2.2305207,-1.1596764,-0.16389021,1.2181958,-0.8815926,-0.20543587,0.08360331,-2.153175,1.8345429,0.41341054,-1.9939015,-0.6048051,3.0607455,-1.9991087,-3.7147486,0.3126327,1.9293388,-1.0449576,-2.1039982,-0.18938686
research_activity,0.91709197,-0.83333945,0.6310448,-0.6858839,-0.3327685,0.21412139,-0.32928702,1.4543414,-0.18384571,2.0323474,-0.24654795,-0.19124644,-2.1083765,-1.1810766,0.68454385,1.1190735,-1.1000096,-2.325287,0.50439423,0.45618874,-0.73659545,-2.6979845,-1.1519588,0.75132376,0.69513875,-1.479593,-2.5340116,-1.1854604,-0.06991576,3.7779808,1.3758767,1.5122334
research_device,1.133522,-1.2035426,-0.3664101,0.12135929,0.4734009,0.21816976,-0.14428343,1.0807004,-0.8637598,-0.13275775,0.026334038,-0.57883483,-2.5356486,-0.6552922,0.42750055,1.3232026,1.4482491,-0.69555426,-2.6729894,0.040612813,0.18125167,-2.8897228,-1.048047,-0.22609246,2.264197,2.9542139,-5.444934,-1.2650504,1.3127873,-2.6497269,2.9989402,-0.7377374
rickettsia_or_chlamydia,1.4041946,-1.0040627,-0.41272396,-1.0468252,0.25994015,-0.11414698,0.18440747,1.3137279,-0.62022233,-0.3231813,0.12277789,-0.63861644,-2.3346875,-1.5061455,-0.8398706,1.3275356,1.8782973,0.600279,-0.18086213,-1.7974712,-1.7434168,1.7499578,-5.039363,-0.74246025,5.157256,0.36421534,-3.708427,-0.7116079,0.59684193,0.8696584,-2.243769,-0.61269176
self_help_or_relief_organization,-0.029630441,-1.4905539,0.89685714,-0.67096215,0.36680672,-1.1204275,-0.6104515,1.934436,0.58695364,1.4396521,1.5889506,-0.67655945,-1.6717228,-0.95079213,0.4862576,1.823252,1.9586991,0.26411813,-2.340419,0.44523335,-0.6696011,-4.6823964,0.73141193,0.19640812,0.20004618,-0.73720384,1.2000833,-1.9972727,2.5548866,-0.5223949,2.1272833,-0.5713274
sign_or_symptom,1.4521304,-1.8980199,-0.778063,-2.1883504,0.2014889,0.30296472,-0.9509496,0.7970707,0.41938013,1.1587396,0.6504889,0.06769573,-1.7800984,0.8797369,1.3914348,2.297236,1.8372046,-1.8327906,-1.466005,1.0635673,1.0588493,-2.780887,1.0721805,-1.4397832,2.3935874,0.15228182,-3.0516331,1.5787647,0.83377105,-1.4437311,-2.8178687,0.7786258
social_behavior,-0.90156835,-0.67833734,0.12244442,-0.48635146,0.23870708,-0.14332801,-1.5716181,1.244017,-0.29302803,1.9912027,0.54183114,-0.24318781,-1.6664873,1.0532442,0.024181407,1.1894345,-1.1054184,-1.7009012,0.406965,-0.37348408,-3.5972707,1.9197732,1.7075331,0.97804403,0.41072053,0.18069515,0.14844638,0.69030213,1.2751427,-1.3675933,-0.17353207,-0.6431875
spatial_concept,0.9244551,-1.0763915,-0.15420292,-0.40908885,-0.06379895,0.23797953,0.42088807,0.8174763,-1.1424007,1.5907995,0.121297136,-0.49733528,-1.5288233,0.27456823,0.013380693,0.93218774,0.07101842,-2.0778236,-0.08291994,-1.1711689,-0.43940815,-0.8558584,-0.8954846,1.1389288,0.7604527,-2.2854433,1.7131903,0.55759364,0.845647,-3.363142,-0.73452616,0.18059786
steroid,0.65782917,-1.2351515,0.007394525,0.38093868,-0.18199292,-0.43410063,-0.0055086166,1.732429,0.7203639,-0.06833704,2.1924922,-0.53150654,-1.0964249,0.95729214,0.8843827,2.4618719,0.77128184,-1.3029765,1.5728263,-0.005302803,-1.5067658,-0.14870904,1.1882098,0.3782879,4.43871,1.0398616,-1.921621,-2.6555734,0.7547776,-0.08296867,1.563849,2.4674377
substance,1.2101642,-0.6859965,0.50257266,-0.44548666,-0.39331168,0.48941725,-0.114532605,0.9336325,-1.1794533,0.94046885,1.7347643,0.28429544,-2.1722555,0.27842188,0.693797,1.4258362,-0.49734956,-4.160109,-0.036957942,1.5310383,4.1437187,-1.388447,-2.7392917,0.060434617,-0.13132977,-0.78669345,-1.4938011,-3.4231715,0.9094373,4.0955315,1.2089294,1.104513
temporal_concept,0.723154,-1.3610628,-1.6997391,0.10591263,0.6947151,0.32133287,-0.5901871,1.2843051,0.005873222,0.78122896,0.9679603,0.58724093,-1.8280452,0.53271073,-0.8782169,1.4523704,0.8336754,-1.4990308,3.0679028,-1.809451,-5.0905046,-2.989509,-1.0708025,-1.970839,-0.22263002,-0.38270676,-0.23711011,-2.780778,0.008094752,0.053026184,-0.10723045,0.040898167
therapeutic_or_preventive_procedure,1.6678765,-0.78817385,0.27373943,0.19463713,-0.25171757,-1.1914151,-0.77294564,1.823587,-0.72824305,0.8553649,0.43975443,0.016357115,-1.521274,-0.07838023,0.8721601,0.9594107,-1.1960509,-1.7167784,-1.3727981,2.1845233,-1.6083539,-0.40810776,-2.1826446,0.06880294,0.19864202,-1.3391061,-1.9553587,-0.48551977,-1.2775639,-1.1045806,-1.6433308,-0.2780844
tissue,0.3417052,-0.6962199,-0.31323484,-0.81762516,-0.44040748,0.460642,-0.2206483,1.2299626,-2.2778356,-0.1765861,0.3032078,0.45641336,-1.9321982,0.16579813,1.141558,1.4949168,-0.00932879,0.44530317,4.5134015,0.565771,1.8765774,0.47683138,0.37478185,-1.2707208,1.4607776,-0.33982253,2.0778103,-2.7158651,1.1521977,-0.93456745,1.3158242,-0.812671
vertebrate,1.2499286,-0.6085274,1.482843,-0.61387664,0.12041699,0.109515846,-0.11104838,1.2627761,-1.1811664,0.22149123,0.521247,0.99296725,-1.9303057,-0.8490225,-1.736455,1.4585028,1.3822862,-1.04454,1.0101949,-3.5852864,2.4844635,0.9569846,-4.3590326,-0.7898286,-0.34098583,-1.789734,-1.0741469,-1.0121745,0.8609118,-2.174115,-1.7963182,-1.1665874
virus,1.360325,-1.6537641,-0.094699,-0.78147584,0.22175127,-0.28778717,0.7930643,1.1531641,-1.0903281,0.7402489,0.38351357,-0.34902677,-1.4491439,-0.30041918,-0.55893207,1.2895194,2.474011,-0.58360344,-0.9247333,-1.1744192,-0.98456585,2.6026719,-2.5715075,-2.244754,2.4593973,1.507648,-3.3582847,0.58484644,0.29215655,-0.6699785,-2.391996,-0.1738304
vitamin,0.6993024,-1.3660854,0.4054959,0.37974367,-0.50666755,0.031817403,-0.46857288,1.913738,-0.78548354,0.49604478,1.1093327,-0.09835247,-1.8476963,0.747977,0.6356115,1.2596271,-0.01763015,0.32468772,3.0994587,1.8576047,1.2915092,1.6030812,0.45730773,0.607549,3.3371758,2.7138615,2.5696883,-3.2378767,0.9944661,2.3749628,2.2804456,1.1703539
